24 96 1 1
-64
-4
22
40
3
-7
23
-5
-27
-57
-36
-58
-66
35
-38
-39
-24
2
-26
70
64
-37
-21
-13
1
35
48
7
-61
-60
66
63
32
68
-6
11
43
-14
-37
-33
-57
54
-3
11
2
-9
-17
-78
35
8
-40
35
1
42
-52
25
-1
27
53
49
-19
23
1
39
-13
-7
30
53
2
-32
27
-16
-4
0
41
74
-20
50
22
-45
-50
33
35
42
19
-55
-10
-3
-45
-37
63
55
27
58
-2
12
-33
39
27
30
13
23
-24
7
-11
-47
-6
18
32
-81
-14
13
-17
-16
10
22
62
20
20
-10
-60
-16
-75
24
-48
-62
-2
32
-15
-47
-57
10
35
-22
8
42
13
70
25
42
29
-10
-16
35
20
-51
30
-58
17
13
39
-54
-44
21
-29
22
-13
51
-4
19
-52
-3
-23
-70
3
-9
30
-4
-75
34
-38
62
-22
-31
-37
-58
34
-42
1
-110
-75
-50
73
-28
46
41
24
10
-87
-40
47
83
-71
-38
-9
-54
-38
11
38
-7
8
7
87
14
13
71
3
-89
33
-26
-12
-31
-1
24
-15
-6
89
-26
-13
-35
-18
27
34
-13
23
14
-23
35
64
62
21
25
63
87
-56
25
29
-33
-45
-26
-3
17
16
9
17
14
50
-2
-14
16
-7
46
-1
-9
-26
5
62
78
-22
-35
41
-42
-28
15
-41
74
-53
-13
62
-19
26
41
-20
-38
39
-40
-9
-3
34
-19
-30
12
-35
60
29
21
25
36
-16
11
-5
-22
25
63
13
-66
-53
26
1
-39
43
75
-14
-2
10
-4
-24
24
55
12
28
19
-13
-60
62
-80
45
-46
4
53
-46
-19
61
-41
65
-8
-1
38
75
-49
50
36
2
-9
2
0
-8
54
-44
-19
17
-75
-20
-51
22
-3
-19
-14
-33
5
30
43
53
-12
16
2
57
-19
0
45
102
-28
-30
-38
4
69
20
-73
-75
47
65
-43
-85
-20
44
-17
-40
14
-41
-52
3
1
-14
30
-74
94
-20
-4
-25
-1
11
-23
25
-3
-18
-22
56
-29
-11
-2
2
23
-46
9
-1
-43
-10
-40
-37
-57
-3
-37
-57
-26
-8
-70
-36
61
-56
0
-6
24
19
0
61
55
39
21
-29
-7
-8
20
13
30
-5
9
-37
-49
-98
10
-54
-6
-12
32
-17
-47
-8
19
102
-4
11
11
22
16
-85
0
16
67
-35
23
-39
18
-15
-2
1
19
-24
20
-44
-50
-33
21
-87
16
-3
-46
-23
80
-26
-21
-3
43
9
-24
-41
-32
47
-9
13
34
-30
-10
-33
-13
-23
9
12
12
45
29
52
-18
35
7
-1
5
24
-12
74
-42
-9
65
62
2
19
-8
-41
-4
-44
2
2
11
50
-25
-20
35
-64
13
25
-26
42
-4
44
46
-5
-38
-21
12
-35
10
2
-37
6
-18
24
22
108
-85
48
-56
16
87
35
-42
-65
36
13
71
-8
-31
-54
24
-72
-32
37
5
42
-14
15
-20
-16
9
24
43
-6
16
72
-18
27
63
-23
48
32
-1
-5
-31
29
55
30
7
-25
-53
-40
62
-49
51
25
8
7
57
-25
-9
63
-23
-33
10
22
-47
-38
-28
38
-8
24
29
31
-17
-37
-16
122
-13
-5
9
13
-11
19
34
-38
64
40
19
7
-14
64
13
10
-11
52
31
25
10
58
18
-38
-15
-72
-22
56
-2
-20
-29
-33
27
31
48
-35
-31
-12
42
-15
-22
-9
-71
-23
23
-81
8
-78
-34
-4
-13
-17
25
63
13
-72
-24
-41
51
-61
-39
0
45
-29
-17
56
26
-8
2
-25
22
-44
31
88
36
-8
-8
16
22
-11
47
-49
39
-22
22
21
-10
-8
-49
10
17
-2
-2
-25
-26
20
28
-66
40
54
-7
-21
47
35
24
-10
41
17
24
37
-33
63
18
87
54
47
12
34
-31
-30
34
3
5
61
-24
-59
15
-27
-39
34
-4
30
-27
-47
-48
9
-23
-48
-26
25
-71
-3
-11
-8
-17
-70
-1
-4
55
27
-28
-31
-8
-15
43
4
76
75
-28
-21
21
55
29
23
23
25
-20
-1
81
60
-32
1
-55
-67
-10
-78
23
-51
28
14
86
-67
-1
-15
-68
-31
66
-31
-14
20
-63
2
-1
120
-72
-27
22
18
3
30
-67
-2
-15
20
-37
-23
-20
45
54
-1
-8
-28
46
32
-34
-25
-3
60
28
6
11
22
-4
55
21
-20
15
37
38
43
-33
22
14
44
-36
48
-4
-51
-12
16
-14
55
-8
-30
64
25
23
28
-36
2
13
19
45
40
15
-53
-57
-31
-48
-36
65
9
-3
15
21
-3
36
2
20
59
37
-3
19
-2
-65
28
-63
53
42
-14
2
39
-6
-14
-62
-21
14
-5
127
-13
114
-52
29
-19
30
81
-15
-8
-18
42
-61
-28
-34
30
-11
45
25
6
-14
-37
-1
-6
50
13
-45
-6
-11
41
-72
-4
25
-11
74
-96
-37
-10
12
-14
0
-14
-19
14
-28
33
-44
-32
25
-15
-12
-103
-47
-13
13
-33
54
4
15
-9
3
-20
6
22
1
39
-43
-11
21
-44
-1
-1
9
-81
29
23
-14
-55
22
20
0
-8
-58
-51
-35
25
13
1
63
31
68
-21
-19
72
-34
2
0
31
-15
-9
-49
41
34
-62
-26
-19
-30
-10
47
52
-64
46
18
-51
-35
-3
37
7
2
24
27
-18
13
-28
-17
-8
-22
-46
12
-4
-31
-11
-12
-37
-21
-26
38
-2
-71
17
35
7
-17
11
-55
9
-12
-40
-28
-73
-10
8
32
61
52
-9
22
-81
-15
15
67
23
-24
-53
-19
39
46
16
-14
-12
12
18
7
22
-6
0
23
6
16
32
-28
45
11
5
-56
36
-28
-3
-61
7
20
-48
44
26
40
12
-75
9
-35
-15
88
27
-22
-4
14
45
-62
24
-57
28
-65
14
7
-51
-55
58
9
-10
-27
61
45
-22
-29
-65
4
52
51
-56
3
8
-19
99
41
-51
49
-37
-5
-5
33
2
41
-42
53
-27
5
60
36
68
-15
-15
-9
-38
-53
-29
-20
-37
-42
34
-71
26
-48
29
-27
-52
-53
-41
-63
71
-60
37
4
42
-54
-13
35
-79
12
-3
44
34
40
-43
16
11
55
-37
3
67
-67
4
42
25
-18
-55
-46
21
-23
30
16
-65
-34
-49
8
53
25
-4
61
69
6
-95
10
28
-31
-33
57
-10
66
-40
-10
-25
28
7
-25
-29
48
55
-23
-8
-15
30
-74
-2
44
-94
38
-13
-21
27
13
36
-14
-36
4
21
-49
-70
12
3
2
-24
2
17
-2
-34
-20
27
-35
-87
12
-34
-5
11
15
-20
-13
9
12
-72
-18
54
109
15
16
19
40
-45
25
25
26
-9
33
65
-45
56
48
-14
-28
1
-14
48
12
-28
-7
32
-70
-18
-50
13
54
-5
30
26
44
8
-8
-20
-63
-36
-24
-84
65
61
4
34
15
6
-57
13
-5
-96
-128
63
10
1
-6
43
-19
-4
-32
22
-21
8
13
49
-35
9
7
21
-45
17
-62
-40
61
-22
-34
9
-10
47
31
7
22
42
-49
-28
-44
-51
-17
-20
66
-35
-51
-8
18
20
2
6
-121
11
15
-30
17
-42
0
-8
-3
-11
35
27
5
33
-7
55
5
14
4
21
-46
-51
17
-11
-43
-10
89
42
16
30
-29
1
8
-29
-20
-57
40
8
-52
19
-7
-30
26
28
46
39
-89
-30
-63
60
20
-14
-8
2
15
-88
4
21
13
63
-22
-31
20
7
-8
29
44
67
-32
17
-42
-12
33
-21
-34
39
19
14
37
16
42
16
19
-24
-54
6
68
14
-20
-6
5
-48
14
45
45
-41
-11
8
63
29
19
-22
-21
-57
-24
77
-32
69
-36
-23
36
113
34
-42
60
40
-4
4
21
5
53
54
-20
49
-35
9
-29
11
-17
51
-44
45
-39
52
17
-98
81
92
-28
1
90
19
29
-29
-7
-29
4
69
-19
-33
-26
32
-36
26
-17
19
24
49
-7
-28
20
3
-84
-17
45
38
-34
-28
-49
62
67
43
18
-1
2
-20
-40
4
-10
-9
-35
-34
23
-28
13
-30
-6
26
1
-29
-4
-34
46
-47
34
-17
-89
5
-55
-25
16
-60
48
-56
-52
-1
15
-43
-23
22
33
-14
13
63
-22
-20
-5
-7
0
8
-6
-2
64
2
-8
15
0
-9
-36
59
39
-41
-26
-44
-57
-61
-8
-48
30
-12
19
-23
7
-78
22
-47
2
11
44
7
-85
18
45
2
56
-18
8
33
-26
48
43
24
43
20
-4
1
45
-19
-4
-58
30
-79
-13
23
-14
-21
-8
49
6
24
-32
23
32
-36
-30
-47
-8
-79
-34
-4
-1
62
28
-12
-29
25
68
22
-4
35
-7
36
-69
-89
-16
16
-28
-34
-23
42
10
-13
38
17
-9
-5
5
32
1
-11
-40
-17
-33
-43
31
-76
69
33
76
27
-8
-40
42
15
16
-31
39
30
32
0
69
21
47
-60
33
12
1
25
7
10
97
10
-21
-72
-56
34
2
-14
78
-17
36
-50
-43
33
-16
-26
-9
-34
11
-29
22
5
76
-44
55
-6
60
15
20
22
41
-9
46
3
-34
-5
-53
56
-31
31
-15
-9
-1
25
33
-29
-47
-74
-31
26
-25
56
-38
-57
78
19
20
-33
-24
-57
23
-37
43
67
-28
22
-27
70
-7
-23
30
-35
1
-36
-44
-23
-44
79
33
-3
41
-10
-33
-83
45
27
12
18
12
0
17
15
-42
-24
11
31
-61
4
-32
-6
-51
-10
-27
-73
16
41
-23
-36
37
-89
26
105
40
-8
21
-12
-36
-5
-5
8
9
-6
28
0
28
8
43
28
-64
-42
83
-51
14
-7
-42
-21
22
42
43
23
57
-44
16
-23
34
-47
-26
27
-48
14
20
-32
13
-66
-31
71
27
23
-13
62
21
-15
51
-44
25
26
34
-61
17
45
-26
-10
38
3
8
-8
39
16
-65
-17
-12
-13
-41
-10
-38
53
45
15
34
-37
-38
25
47
2
-8
15
21
-47
42
-4
29
15
-9
-24
-55
-63
5
21
26
14
-76
-58
7
52
7
-39
-2
18
20
7
-12
4
-37
0
63
-39
-11
-8
9
16
-95
15
-14
-21
49
-19
-55
0
-24
-122
-40
71
13
-64
32
-41
-37
-85
30
30
-96
-5
-9
-11
-21
24
-10
62
-12
-89
-44
14
79
-35
6
6
14
67
42
21
76
48
-29
62
-71
-7
3
8
-80
38
-13
0
40
-8
-33
-41
38
-56
-9
-23
-52
-6
-20
-32
-16
-19
-26
4
18
-9
-21
31
-1
40
-47
-40
-24
22
-2
-9
-9
-46
6
-36
-22
-11
-13
-31
-17
9
8
-13
21
-55
-22
-75
9
-17
9
2
-5
-17
-29
-26
-12
36
-19
-47
22
-30
1
41
4
-5
-8
0
15
30
35
44
-17
4
67
24
-24
-60
-40
-63
3
-41
-8
-37
-6
2
13
0
53
-8
16
-16
5
48
-15
-10
22
-2
-31
0
23
-8
31
-31
-18
1
-84
29
-6
-10
10
-21
65
47
22
0
-31
17
-35
-11
-17
30
11
26
-7
-21
-12
1
-49
-39
9
22
-22
-22
89
-14
1
32
19
-35
8
9
-37
4
-16
-13
44
27
20
23
5
43
-22
-12
10
-6
17
7
-36
14
-8
1
25
-40
33
-10
-1
-57
-71
10
-10
31
-28
73
9
0
37
19
-47
72
30
16
30
-8
28
14
-32
-11
53
-7
36
-23
-7
-27
40
36
22
41
-27
14
-56
-50
0
4
-31
125
-2
-20
-12
31
21
38
62
13
-3
34
6
-89
-17
12
22
127
-3
-16
61
4
-13
14
2
1
6
-48
9
-24
-19
29
11
-17
1
-42
24
-3
11
39
49
43
29
16
-6
63
33
-20
-5
-61
-72
11
29
19
0
-16
75
-53
3
-22
2
42
-31
42
4
18
11
8
56
18
84
2
-25
-27
33
0
57
15
4
38
-12
14
21
19
17
70
11
-26
-66
30
2
36
2
-82
13
-29
-26
1
62
