96
0.35428834
0.2271967
-0.18815768
0.551322
0.39603326
0.7477482
-1.1810694
-0.3870366
0.18486775
-0.09303456
-0.024067676
-0.08739236
-0.32811728
1.3181779
0.21157512
0.50183856
0.12940463
-0.29677662
-0.022739261
0.138585
-0.008767655
1.2658212
0.13445029
-0.49667495
0.2575569
-0.46992302
0.28036883
0.3825973
0.15439269
-0.9559342
-0.37374714
-0.4952215
0.15122372
0.0082400795
-0.46119937
0.8011527
-0.3534697
0.029269971
-0.4495372
0.3952142
-0.4499842
0.28691038
-0.10840911
0.00996814
0.5769862
0.069400564
-0.64518577
0.06481546
0.37835187
0.7653862
0.03920153
0.97276145
0.25010055
-0.090625204
-0.78902984
-0.14287217
-0.69120675
-0.39906487
-0.36631468
-0.60774565
0.1279015
0.68846446
-0.49144292
0.22578599
-0.029254388
0.38523406
-0.27841985
-0.24078481
0.176581
-0.18684323
-0.90757465
-0.27433923
0.6451432
-0.019310633
-0.21697174
0.30132595
-0.13743031
-0.22339581
-0.03065056
-0.53891385
-0.024679769
-0.116183035
-0.49970034
-0.56145126
1.061051
-0.2447612
0.26489413
-0.018678313
-0.5422565
-0.2503359
0.53919786
-0.3022866
0.7070977
-0.055011313
0.4601294
-1.0751499
