960
-0.060994845
-0.014714769
0.10848504
0.06500959
0.024348412
-0.029746309
0.0027821935
-0.0060686725
-0.06010128
-0.008950788
0.006613946
0.10746686
0.019450694
-0.083136484
-0.13405614
-0.100366175
0.034845654
-0.09146325
-0.046608225
0.009825459
-0.0275183
0.020655707
-0.048274282
-0.00101097
0.0006342308
-0.0017078491
-0.0441122
0.045794643
-0.03066236
-0.07990103
0.10660682
-0.10161086
-0.046532206
0.096315354
-0.05881943
0.15598218
-0.0681373
-0.010951423
-0.009192777
0.01507416
-0.062766574
-0.0538385
0.039823625
0.028107183
0.033630565
0.059325073
-0.01448797
-0.0061023533
-0.12344588
0.0123991165
0.021737449
-0.025033548
-0.092260905
-0.0018893888
-0.050354876
0.026110308
-0.07112681
0.006452076
-0.017237876
-0.057486136
-0.0068862904
0.013664539
-0.04871615
-0.076722965
-0.10570944
-0.042455044
0.01138282
0.0845496
0.023437839
0.07033851
-0.0147945415
0.030725105
0.077699386
0.05112236
-0.06841569
-0.011161155
0.08699957
-0.06655974
-0.036170837
0.04918119
-0.039922554
0.033441227
-0.07595035
0.09564601
-0.009072579
-0.0076475423
-0.0016632325
-0.06981146
0.008314545
0.03799899
0.060284194
0.0012674609
-0.028767062
-0.077220954
-0.1104046
0.0596486
-0.1100933
-0.012293488
0.05085637
0.06114531
-0.015717506
0.07437275
0.019736664
-0.022061072
0.028104652
0.09187402
0.052247006
0.0123664
0.062465236
-0.04038103
-0.021270553
0.06796796
0.04658889
0.025208248
-0.11105692
-0.04591381
0.04543206
-0.06640241
0.03487448
-0.034724362
-0.022948854
-0.035896104
-0.040623598
-0.033427067
0.03946621
-0.029531043
-0.08863809
-0.050780874
0.072948985
-0.015800038
0.101358
0.04558556
0.11522412
0.1062069
-0.05478266
-0.033118043
-0.05412921
-0.036250424
0.07624622
-0.050765548
0.050546642
0.03625364
-0.06186836
0.041315563
0.06447986
0.088331595
0.0350145
-0.007363351
0.016003931
0.00820085
-0.015796857
-0.0047344784
-0.065787956
0.06740584
-0.030061582
0.032457355
-0.09030721
0.031250745
0.008169567
0.022578895
-0.002407621
0.020539325
-0.10847535
-0.040824708
-0.046694726
0.10994768
-0.030878365
-0.06696396
-0.092463866
0.050261524
-0.07156435
-0.054338988
-0.00037585775
-0.012340838
0.080940075
-0.027204378
0.057646416
0.027994378
0.08126722
-0.019930206
0.010752173
0.109898515
0.027782986
0.04304668
-0.023895392
-0.11504741
0.007033353
-0.023405138
-0.11152893
0.09776119
0.12637773
0.02586514
-0.04646054
0.056841806
-0.08356745
-0.0010475407
0.01812751
-0.07205756
0.053896267
0.12075893
0.064042695
-0.01010556
0.057258997
-0.09034194
-0.009244813
-0.056259833
0.023792848
-0.025801392
0.0048579257
0.005901179
-0.058137283
-0.008904689
0.0046359994
-0.057559643
-0.0132113
-0.09500951
-0.06505214
-0.048754472
0.108564876
-0.01661359
-0.048100684
0.085275635
-0.023108851
0.011778422
-0.026410343
-0.033382613
0.009777985
-0.07779296
-0.016202353
-0.008145899
0.02272691
-0.071088634
0.021625362
-0.045794602
0.045796875
0.008930917
0.02625626
-0.006337167
-0.110024415
-0.00583897
0.04882931
0.084591076
0.09724008
0.035817895
0.037211746
0.01991281
-0.03547219
0.029523864
-0.013554512
0.02964184
-0.08397944
0.03775616
0.028372047
-0.039749708
-0.0053929226
0.07300232
-0.108933136
0.024327256
0.07579202
0.08020297
-0.040081587
0.009377048
-0.033545624
-0.07964216
0.027170595
-0.112711415
-0.03438381
0.047111176
0.08268114
-0.026532436
0.06544636
-0.012601778
-0.03991051
0.08100768
-0.02551339
-0.07618831
-0.053848054
-0.035859667
-0.07170252
-0.056912076
0.047131397
0.048746157
0.003403104
-0.04561141
-0.13358854
-0.16310799
-0.1064833
-0.041260805
-0.002446584
-0.005945427
-0.0945013
-0.0021613806
0.02725688
0.042093877
0.08359227
0.013049264
-0.043730095
0.022545682
0.09520231
0.030909691
0.13654943
0.01131128
0.008136915
0.054574084
0.041919842
0.08657811
-0.028895129
0.10533128
0.060806576
-0.027330589
-0.02162334
0.048348162
0.03950388
0.037790097
0.07863717
0.024050485
-0.016697107
-0.035157017
-0.017862307
-0.005554031
-0.016400995
-0.04930554
-0.016974043
-0.0062891226
-0.054957237
0.08410545
0.024166005
0.06595396
-0.056478262
-0.04763303
0.021052781
0.04336715
0.063766584
-0.08728829
-0.043613218
0.0143319
-0.07114158
-0.029737588
-0.11380454
0.12714334
0.04076381
-0.0025847566
-0.037507944
-0.09074636
-0.0022189068
-0.03168286
0.003829253
-0.004204534
0.038180355
-0.16811432
-0.13515913
-0.014284453
0.0058652484
-0.022493169
0.006707958
0.023314055
-0.052066
-0.006156005
-0.14109321
0.068465635
0.027482396
0.06824103
0.07013128
-0.05774843
-0.060211025
0.10782906
-0.040557414
-0.063602775
-0.027018752
0.019847713
-0.044184614
-0.047455993
0.016895486
0.006233922
0.002327359
-0.060120113
-0.027229743
-0.029853368
-0.0060770107
-0.039417394
-0.014404384
-0.08051323
-0.0134272715
0.025035657
-0.06527241
0.008570027
0.06562933
-0.08756146
0.016474575
-0.015665611
0.025042232
0.021542145
-0.027262501
-0.012399886
-0.0028850075
-0.10442513
-0.007101228
-0.014599888
-0.011329278
-0.111482576
0.09150916
-0.0013612432
0.009936941
-0.020710325
0.0654379
-0.08134273
0.0067981924
-0.036992177
-0.022797322
0.038153324
-0.06260158
-0.005709489
-0.04825578
0.030273376
-0.038335457
-0.014009286
0.058552843
-0.005013204
0.007779747
0.03136011
-0.012854985
-0.09021047
-0.08058355
-0.015774691
0.033872925
-0.005945186
0.059304558
-0.17312185
-0.022228789
-0.030537931
-0.033357915
0.028736528
-0.033543184
-0.09435129
0.055758044
-0.045627546
-0.028937388
0.02794709
0.028334334
0.034363996
0.0223551
0.0061459783
0.05846126
-0.060126714
0.034431815
-0.034261387
-0.036208875
-0.021595472
0.030905316
0.057518363
0.018671483
0.017704487
0.027779436
-0.008605686
-0.059950493
0.0040849512
0.12957828
0.005670566
-0.0016904552
-0.065410115
-0.04401736
-0.031774763
-0.12560028
-0.039411318
0.06815241
0.04656312
0.0017143388
0.031161914
-0.014651834
0.054917973
0.14669059
0.04338851
-0.08168733
-0.06936065
-0.006814191
0.08759328
-0.10454097
-0.030164119
-0.017047659
0.08899941
-0.09248364
0.047167066
0.016830115
-0.022381654
0.101074524
-0.07233011
-0.08805879
-0.05594679
-0.046527747
0.06538573
-0.14002885
-0.13186638
-0.008132361
-0.11394675
0.059542898
0.061864115
-0.00033859865
-0.021878727
0.04239541
0.06371124
0.059373684
0.15657301
0.016281595
0.08345821
-0.05417339
-0.105699964
-0.014167153
0.058373176
0.057348013
-0.011201309
-0.008417081
-0.036163803
-0.1506631
-0.0031127376
0.011546351
-0.07236061
-0.009838356
-0.043422244
0.05117362
-0.19735575
-0.0061076568
-0.087042056
-0.006305617
0.12876773
0.028884254
-0.013698464
-0.06340941
0.0459074
-0.075038746
0.013129753
-0.07347427
0.027645819
-0.13210195
-0.06880608
0.015412873
0.06564578
-0.016163098
-0.03962448
0.02421521
-0.054252326
-0.064703666
-0.019373525
-0.07926487
-0.064872414
0.08499261
-0.0030624229
0.102204524
0.028133897
-0.009095507
-0.033772957
-0.02268643
-0.05090422
-0.030590419
-0.01933291
-0.039781924
0.023794089
-0.049500052
0.016321814
-0.03173612
-0.06829553
-0.15144789
0.013532644
0.026619889
-0.016734669
-0.031508707
-0.06293091
-0.04244855
-0.024999483
0.01375
-0.056329425
0.016210224
-0.080426954
0.039632987
-0.017420547
0.09647719
-0.039006446
0.043007944
0.023819994
-0.012332737
-0.05330358
-0.06921568
-0.060877074
-0.026619736
0.005762618
-0.048607133
-0.022365667
0.03640838
-0.060967214
-0.016362287
0.0061079226
-0.007157087
-0.033134907
0.023500955
0.023535673
-0.022500068
0.04673187
-0.07904075
-0.04099645
0.00913935
0.03387843
-0.0062902495
-0.016068134
-0.0333768
-0.011078438
0.017600257
-0.003819154
-0.080464825
0.028864983
0.04134857
-0.059484895
-0.08312332
0.060059667
-0.08211017
0.022675488
-0.039005928
-0.005628449
-0.064306796
-0.014037623
0.014735799
-0.05575305
0.059564464
-0.06572448
0.008010479
0.059602436
-0.047831036
-0.0038929756
-0.15788056
0.07200049
0.04084358
-0.10683212
-0.08000465
0.013148548
0.11920889
0.09509985
-0.023229346
-0.009034206
0.021418715
-0.20458978
-0.03107813
0.021090742
0.036604848
-0.0006946899
-0.1091915
0.004153534
-0.08423645
-0.035077527
0.10879194
0.09043943
0.021789
-0.008477152
-0.08473692
-0.008705497
-0.021353513
0.12377812
0.098685235
0.054994408
0.15061736
-0.010957913
-0.02002006
-0.013167734
-0.011134475
-0.029460093
-0.05288678
-0.0066060135
0.036456425
-0.026652468
0.0008772996
-0.05959144
-0.017988551
-0.022400847
0.08796715
0.070745096
-0.029660664
-0.025363676
-0.0055922135
-0.07054905
0.013695907
-0.0566342
-0.055249877
-0.044648718
0.014083851
-0.11204832
0.044081774
-0.032649737
0.058708057
0.08625556
0.17960119
0.014495773
-0.064886935
-0.10768289
0.11862391
-0.075140186
-0.05043064
-0.15352163
-0.001348778
0.08214152
0.041966613
-0.016860114
0.05818696
0.013901286
0.037148144
0.07499201
-0.11896648
0.015017819
-0.008181067
0.0025340747
0.07531257
-0.09655705
0.007948214
0.01828668
0.052708186
-0.013980241
0.042719398
-0.058483534
-0.013338649
-0.05575013
0.044118915
0.03939263
-0.047737308
-0.04499035
-0.009994938
-0.06076952
0.03125066
-0.0391456
-0.05955104
-0.015975345
-0.09140423
-0.054503877
0.008411741
0.074751794
0.032913174
-0.005392805
0.008853349
-0.038538057
-0.0030805473
0.059775647
0.05324767
0.053677972
-0.12706281
-0.04038993
-0.02223278
-0.03756532
-0.09815757
0.0011984771
-0.02391446
-0.06154621
-0.010563412
-0.11069729
-0.053443395
-0.015618099
-0.05654186
0.02394905
-0.06557778
-0.006678749
-0.013552384
0.033326905
-0.050924838
0.010079351
0.067275986
0.078284
-0.021793785
-0.018245295
-0.012791716
0.0163568
-0.11169465
0.05783429
-0.022220356
-0.06878063
-0.107952625
-0.07970278
-0.04255607
-0.018800607
-0.030924324
0.028806092
-0.0411131
-0.06578843
-0.015211717
-0.08152496
0.02969948
0.13768758
-0.0052860714
-0.010733086
0.08831356
-0.065057725
0.07833194
-0.11663286
0.10126212
-0.061229166
0.087517306
0.10547235
0.02042864
-0.035525586
0.035856023
-0.037931137
-0.07124361
0.022037458
-0.0057041617
-0.02814836
0.0734519
-0.0058673406
0.06255123
0.020484986
-0.11081067
-0.054653954
0.076374635
0.008215818
-0.026405558
-0.10327606
0.02768259
-0.016677752
-0.03850878
0.025354756
-0.06627609
0.06815879
-0.049725987
0.009316701
-0.14117604
0.060527746
-0.014608452
-0.09251442
-0.0801724
0.066141635
-0.03010945
-0.019142136
0.09559766
-0.0034643228
-0.024622083
-0.031773783
0.006140259
0.05950153
0.10702601
-0.08103161
-0.059331745
0.034529787
-0.036782585
-0.11195041
-0.05877946
-0.009047207
-0.033947516
-0.040167388
-0.08450048
0.045961376
-0.0468461
0.02356089
-0.0015648955
0.06936988
-0.0064196875
-0.019217184
0.056727838
0.023680706
-0.019378534
0.015482076
0.040541336
-0.0648606
-0.04644698
-0.11561943
0.0055612773
0.06047381
0.023006123
-0.025158145
0.053843897
0.123463854
-0.017213786
-0.010759328
5.070679e-05
0.028724661
0.018502183
0.062192407
-0.15880755
0.09503511
-0.019159598
-0.11520272
0.03774124
-0.02546343
0.039725948
-0.031496294
0.006877035
-0.0025255429
-0.12766474
0.07499639
0.06425248
0.0042955237
-0.0079867225
-0.0392196
-0.063752115
0.10716489
-0.12941623
0.05107971
0.06252257
-0.038427114
0.013949521
0.09425084
0.12004161
-0.017514449
0.046197537
-0.07214595
0.023516513
-0.056358125
-0.12219315
0.18588175
0.022107417
-0.07621529
0.00092755014
0.06062822
0.034917206
-0.02630418
-0.032740377
-0.055190675
0.0006413119
0.020830175
0.017384222
-0.11271911
-0.04836715
-0.033390347
-0.080520585
-8.3923835e-05
0.0600831
-0.054457672
0.023394294
-0.047146488
-0.043041725
0.041235775
-0.016053675
-0.111626185
0.020231722
-0.038764685
-0.0018730077
-0.10361292
-0.0025391993
-0.015622032
-0.05685197
0.060623787
-0.06828315
0.016556488
0.086618036
-0.010528311
0.029664094
0.023970162
0.028175373
-0.10188061
0.075863644
-0.03332288
-0.028991377
-0.077678084
0.0043924227
-0.015303899
-0.0983173
-0.010530301
-0.06742911
0.016105628
-0.046068847
0.011906732
-0.021703709
0.016758934
0.07437684
-0.0672328
0.055892147
-0.004332387
0.26038036
0.05846385
