64 192 1 1
19
-27
25
1
2
27
6
5
-2
-4
-9
24
-3
22
42
-2
6
-20
20
-6
26
-4
-31
10
0
-9
16
20
15
-24
-56
-41
-29
26
4
-11
-15
-5
26
-39
-24
-19
-4
15
40
-8
40
-33
-24
-37
-1
-9
32
34
-6
-11
12
-13
0
13
-33
-30
-3
-14
20
26
12
9
-21
5
-6
21
10
-11
9
-6
-20
-13
6
45
-28
-16
25
-3
-14
40
28
-7
16
-28
2
13
4
18
0
28
10
-14
-37
-24
-17
-27
51
-1
-5
9
20
5
-4
37
11
2
-33
18
29
45
10
0
-2
28
-35
28
-32
41
-9
-41
-30
27
2
-37
4
9
-32
-20
4
3
-27
19
-5
30
4
16
25
15
-57
18
23
-34
-52
23
35
-57
15
3
-12
-1
-56
13
15
60
-11
-16
-2
59
1
-7
-30
32
-6
48
5
-2
36
4
-5
-28
41
-4
-13
0
-13
-10
-19
40
17
-12
-17
13
-46
-17
5
-13
23
27
-28
20
41
27
-7
22
19
5
13
-48
-46
-4
36
32
-19
42
-25
24
-9
-4
15
19
5
-2
-10
-27
63
34
10
82
2
-39
0
58
33
1
-4
-5
36
-31
17
-16
12
7
9
-20
-16
68
-34
7
2
-30
-55
-26
12
25
17
3
-17
-8
3
-11
-13
9
39
-19
-3
-56
10
0
30
56
15
62
-70
-23
2
38
11
-18
-21
-2
-5
-29
-21
44
42
-40
22
28
70
-42
-34
4
40
7
29
19
-22
1
38
-20
-60
-18
14
23
-4
-39
42
10
3
-5
9
-5
3
-57
12
26
63
-23
-21
-5
37
-43
-6
-26
55
48
-64
-5
10
14
28
-47
61
47
11
-21
-26
13
19
-16
11
63
-14
-30
-24
-26
23
-35
56
24
-16
-28
56
5
121
-8
6
-26
10
-37
19
13
55
29
47
-1
-45
-24
-45
-45
-20
21
-41
44
3
-17
42
14
30
23
18
-11
-10
42
5
12
-32
-12
35
-75
-17
-3
-16
-6
-31
-4
4
1
-3
6
7
20
-7
-44
56
-9
-4
5
-8
-10
-33
-38
-15
2
3
38
6
-35
26
12
-20
-10
20
32
-27
6
21
-27
-32
-36
-35
-32
-13
5
-18
-15
-59
17
-50
-3
7
-4
24
-7
44
-24
19
20
33
-40
29
22
34
41
12
-2
-2
6
40
7
-5
-14
-11
9
26
18
-46
18
-13
23
1
-30
31
-16
37
9
6
4
38
18
-19
8
13
-16
9
-14
8
-15
19
4
-15
-9
-36
3
-28
-11
5
40
-5
-72
61
5
-10
23
-24
-43
-34
-12
-5
25
-2
15
19
-1
10
57
-8
0
29
15
16
-5
-23
-37
-2
-31
2
-57
6
32
25
44
6
-1
-28
18
42
40
-24
-10
-30
-37
16
-1
19
19
-50
-5
-22
15
-30
18
1
-9
18
-8
34
21
-7
30
-6
4
30
31
-28
46
35
-5
5
21
10
-7
-16
21
17
-33
-40
-20
37
6
17
34
-2
10
-16
-9
5
-1
53
26
-24
-3
-5
-59
8
-34
25
-9
-41
16
-12
15
10
-3
25
-2
-38
3
-39
18
11
-2
15
2
-40
5
-6
-10
32
-28
2
3
15
-8
-39
2
24
21
-45
71
-19
-1
10
-38
4
12
11
-20
9
-14
25
-33
-21
-30
6
-21
-15
5
28
-7
-9
15
20
-19
4
-12
49
17
-17
-27
-9
10
6
43
-8
17
41
-28
-16
36
-38
-9
1
-7
-30
-29
4
32
-34
-41
-13
2
19
4
6
-1
48
-8
-24
-24
19
16
-10
-10
-35
-9
21
-33
22
33
-3
28
32
6
-23
-20
-34
-3
-25
-44
-26
9
11
12
41
4
7
29
10
21
-5
-8
-5
-37
-9
47
30
-20
10
10
11
-14
-9
-7
-43
20
-22
1
70
34
-23
-1
-16
33
29
39
22
17
-7
0
-39
9
22
-10
-2
-23
39
-24
-24
7
-16
2
-13
8
-29
-16
34
-27
-47
21
27
-13
-25
3
26
-5
-77
31
-11
21
13
-29
-13
-4
35
20
9
-31
-28
1
-6
-8
5
28
9
-12
-19
6
46
17
67
-18
1
21
17
20
-36
-8
26
-52
23
37
46
-15
-23
5
8
-40
0
-26
6
-47
17
-40
-18
32
33
-21
-39
18
-22
-4
5
15
18
-14
-57
3
-37
-23
2
5
-9
-21
-3
18
6
18
10
28
34
8
36
-22
14
29
-69
29
-20
-23
41
-10
-27
-37
-9
-38
-17
37
25
-43
-1
-22
-16
16
13
-18
-34
-70
28
-23
-3
-65
-53
73
-30
18
-6
-33
47
-21
-12
34
-13
-6
13
-23
27
4
-6
-44
-59
34
-5
16
-24
28
4
-6
43
20
-19
13
44
49
22
26
-18
-7
5
54
24
4
-44
35
34
12
20
-57
5
-72
17
11
-39
9
-5
3
-11
-22
6
12
22
12
53
-9
14
19
-43
58
-36
32
-43
31
24
54
21
-29
39
28
-13
-32
13
13
6
-18
3
0
-22
-30
-6
43
3
27
18
-17
4
6
17
4
13
-22
6
-5
-4
4
-8
20
-13
-13
11
-5
46
0
17
-31
-20
15
9
-12
-12
-23
34
-47
19
-3
13
-15
-6
14
4
-14
3
26
35
-10
29
34
-14
-36
0
6
0
7
22
2
-23
-5
-24
4
23
-21
-21
3
-8
27
6
10
15
13
-4
-32
12
6
-2
-25
11
15
-48
4
-20
11
-22
17
25
21
15
-7
-33
-24
5
48
15
18
21
16
-5
-14
0
23
63
-8
-39
21
-24
-1
20
25
-6
34
-14
2
22
6
15
14
27
14
21
-11
-26
-1
-21
32
22
1
-45
6
-30
37
-13
-23
-21
-11
-25
33
13
-31
12
23
7
9
-6
-9
-24
5
13
17
-35
22
28
-29
13
-2
8
4
30
-9
-2
-23
25
-3
49
-20
-9
-10
-8
-5
25
-5
13
9
-7
-4
21
44
-3
45
-19
3
23
-10
-42
2
22
15
-10
1
-15
-29
8
16
-40
-32
5
17
49
30
16
-20
19
23
36
-14
-7
15
15
-20
2
-13
23
0
7
3
35
14
54
19
-28
40
15
11
-39
-13
-44
-11
8
-13
15
20
6
34
12
-22
-10
-14
-16
-22
47
-2
-21
-9
9
-15
10
17
-17
-15
13
-32
38
28
-19
-4
-40
7
2
15
-8
-24
8
-23
12
-23
-11
-11
-4
-3
16
-11
-18
45
-44
-19
37
-42
-14
-46
-8
-20
20
-24
-27
-22
20
-2
12
-57
-50
-26
-6
-32
-42
-17
6
-15
19
-36
-42
-31
-31
-4
-3
-14
-69
51
30
-2
12
6
-1
31
8
-20
-4
-20
16
-19
-16
-4
-17
-30
22
22
-51
0
-4
4
-21
-11
36
-9
-37
-23
16
-7
-4
22
39
-7
-11
-30
7
20
0
-14
-26
33
-6
25
-4
-42
65
-12
15
-29
-34
-24
-32
-24
-36
-11
1
22
16
-25
-23
22
-27
4
-9
23
-7
-52
-9
9
6
-16
15
-1
-18
41
6
-4
63
-15
-26
-9
17
-9
36
0
-10
-12
13
10
-10
33
-7
-37
18
0
11
-7
-8
-24
-19
-47
-11
-26
8
17
-13
-35
8
-32
20
-78
-24
-32
-6
22
-4
44
13
-71
-2
39
-33
-20
36
42
21
45
48
1
32
-14
-60
-76
-9
0
-31
-46
-9
62
30
-13
-35
-18
20
30
-59
-25
-2
-48
25
-20
-5
7
-10
-27
-24
-24
-20
28
11
16
46
22
94
0
-23
-15
29
-34
-14
26
29
-15
-14
2
5
-9
5
48
-35
-8
1
-41
-5
4
-33
42
-1
27
-3
7
-20
-1
-36
8
-32
-7
-13
13
-34
36
-14
20
-35
47
-60
20
-2
-10
-10
13
-19
15
15
9
37
42
8
14
-69
3
-17
46
44
-29
-38
54
11
-16
32
-6
20
17
-43
-41
-8
-49
7
26
8
14
2
13
-19
-43
46
-42
-34
6
10
-3
-5
19
-22
74
2
-21
-24
3
47
10
17
17
-19
19
13
7
-27
-14
34
-76
21
30
3
-4
-21
41
-39
-47
50
5
22
-38
42
-25
39
-2
-33
-5
9
5
61
-21
-17
-14
-56
28
43
33
14
-6
8
-13
-30
9
26
-7
4
24
-1
15
-25
31
2
3
20
26
-24
12
-50
-27
26
-81
-13
34
32
0
-19
15
-6
43
18
-20
11
48
-13
-16
-8
-24
47
13
49
-26
-17
-20
4
26
-12
-12
28
9
32
-17
43
-8
6
-13
-7
-41
-64
-18
-22
38
64
-25
21
5
0
-11
10
16
-6
1
-16
9
34
65
-5
-27
53
-50
-57
40
-4
32
-17
20
41
44
-47
-28
-30
-19
-1
-37
1
-63
10
1
-17
14
25
-28
-15
35
11
-7
-47
-11
10
-31
20
-27
-33
12
21
-22
-81
1
-36
-34
-22
-18
-28
-45
-31
-40
9
21
-2
4
-5
-8
17
-22
17
38
31
22
-28
-34
23
12
-3
-20
-12
4
34
17
57
-29
-47
-25
24
12
40
-48
-20
11
12
-9
16
-33
14
-15
18
-13
19
22
1
-5
8
-20
-3
26
-10
-10
-3
-11
-12
-25
15
31
15
-1
5
17
9
10
7
34
11
9
-13
-1
9
-21
19
-4
24
-17
-7
-21
-7
1
-7
-8
19
15
8
37
-6
13
2
-21
-4
4
38
-23
7
-18
25
-26
-3
2
6
20
21
12
-34
-17
-6
1
-18
-4
5
14
3
-9
-33
-31
-1
-18
-30
-10
38
-11
20
22
5
3
-5
19
-2
-5
21
9
-13
-9
24
4
-19
-39
-16
-8
16
13
37
-27
-17
-26
-19
-24
14
15
29
-4
-2
-13
-41
18
-6
-39
-31
36
-9
-5
28
-17
-1
2
24
-49
-34
26
-18
0
3
-11
14
7
-36
4
-32
-26
-11
22
-8
7
-43
34
13
-34
26
14
14
16
-45
4
-26
35
-30
17
8
-16
-35
-13
31
3
-54
22
-1
-2
-8
-19
-6
-7
-36
13
-38
-4
32
-23
-22
4
39
-11
-13
24
-9
-14
-8
-6
-16
-26
-4
-50
-25
-24
-18
17
-20
-5
-25
-38
52
71
14
14
19
-30
-9
14
25
-20
3
-21
-4
-14
6
3
-15
-16
16
13
29
-34
-62
14
-1
29
-55
15
-46
52
2
3
13
20
-25
12
-38
-38
13
-31
0
-12
11
-26
17
33
-9
-2
5
1
-11
34
21
-28
27
-6
19
76
17
-42
1
-8
26
36
12
32
12
14
-21
8
13
8
37
30
-20
-6
5
35
20
40
-34
-12
-16
-15
-19
35
30
11
27
33
-60
-10
4
59
-33
-33
9
46
4
10
2
-12
0
32
-67
5
-49
-39
-16
-19
50
39
17
-19
-25
30
36
49
39
-3
20
-1
-20
-2
32
-11
-41
5
-15
11
-1
-34
-50
27
-32
-15
37
-10
-33
-2
-22
31
-43
17
-47
18
-14
-5
-2
6
22
-21
9
-12
33
-19
-37
-16
11
-15
-29
27
28
26
-8
-5
29
-4
-11
31
72
21
25
22
-13
21
-11
-10
21
19
31
5
-19
-44
-39
-47
15
-4
7
-7
13
-28
-4
50
36
14
4
-30
6
-3
27
16
-25
51
41
44
8
18
52
-39
30
-12
-18
-26
18
-31
-24
18
20
49
-45
12
21
6
-22
-5
3
-4
0
34
20
-6
-4
17
21
8
-9
23
18
17
13
6
37
6
-6
-14
-53
-37
-6
17
-23
-14
13
9
-37
17
10
19
3
3
-23
-6
1
-20
-27
-57
22
-16
17
-15
24
4
-14
20
-8
16
10
-7
-5
16
14
-10
-37
19
2
-3
-14
1
-8
15
47
-4
38
13
20
18
10
-15
7
-28
-34
-5
-24
20
22
-12
46
-5
25
-8
29
8
10
-54
34
21
-14
-25
18
-19
13
7
16
-25
-53
-4
-5
-13
-21
-30
53
13
4
-64
22
-11
-37
44
-7
-11
-65
-20
27
-41
21
26
22
-29
-16
56
34
-7
-14
41
1
0
-16
-1
-18
33
21
-21
-12
18
1
-4
-37
27
22
25
-26
-2
-22
-16
-17
39
30
4
19
-61
-13
32
1
-3
-32
-2
9
5
16
4
-21
16
-24
-6
-27
-44
-14
-14
-16
7
-5
-4
12
-5
0
-36
-1
6
9
2
-22
8
-3
9
-31
-33
-19
20
15
0
-15
-5
-20
11
-8
46
17
-5
9
1
-26
-34
-27
-9
11
0
-14
1
-14
-22
17
27
-28
14
-68
2
-6
-23
18
-6
-33
-1
-17
9
-19
-10
-13
-29
-3
-41
17
-14
-10
-20
-28
6
0
-9
-12
-19
21
6
5
50
-13
17
-27
-8
11
14
-18
34
-4
6
-20
27
19
8
24
-1
-4
-6
22
-21
-5
14
-17
-22
39
11
-5
27
-26
-13
6
16
-37
-48
-16
-19
20
6
25
-16
45
-4
16
-24
17
12
11
-27
40
-7
1
3
-17
28
7
28
47
-39
-6
-5
40
28
36
-6
-34
-23
-28
-9
3
6
3
-9
-15
-7
-12
25
11
21
-16
-7
-24
-18
-28
-15
-22
-8
23
13
3
28
12
-29
-42
-3
37
-17
1
41
-6
-46
8
-7
14
-3
-6
-19
-2
-16
-34
11
-23
-46
-6
-31
-2
-3
-58
-1
-5
-6
15
-31
-59
-2
-16
-10
-3
49
4
24
-11
39
-21
58
2
29
11
3
-63
-14
-32
5
7
-35
-38
-34
-24
25
-7
7
-7
8
18
17
9
4
12
41
-6
-31
-9
48
-12
45
-5
25
31
53
-48
16
25
10
13
-50
-37
-6
59
-21
-41
29
30
-22
-26
21
-7
-40
25
-42
5
43
-25
0
6
-64
-25
28
-15
36
59
-27
-16
42
-11
-8
19
49
10
27
33
-24
37
-4
-2
-20
16
-22
10
18
-5
7
23
-14
-42
40
-21
-8
-4
6
15
19
-1
8
-14
-3
-35
-19
6
15
-32
-12
-3
17
-52
-37
-18
-8
38
-7
-25
-1
-19
20
-25
-3
-37
8
-16
-2
-33
-4
-38
17
-19
21
-42
-15
1
-16
-22
-15
22
8
-7
2
-20
43
-19
4
8
45
-22
10
38
-4
-1
-3
15
-17
-12
16
-26
31
-20
13
-19
-5
8
16
35
-28
0
25
-8
0
-5
3
-20
14
14
-20
-23
22
32
-8
4
29
-24
-8
-18
-1
1
35
-8
11
8
-38
2
-33
11
-17
-7
28
49
-15
-18
-17
-35
9
10
-36
23
10
7
12
0
12
26
40
7
7
-19
-30
6
6
26
-21
26
17
-18
-7
-18
-11
5
12
24
3
7
-7
41
11
39
-27
7
15
-7
-51
-17
-44
36
12
-7
16
29
-3
18
-14
17
-8
-16
-29
14
-21
9
29
-22
16
10
16
41
22
-51
-3
-21
44
23
5
-5
10
-25
-8
-8
32
-29
39
-6
18
-14
14
20
-12
-2
-42
10
6
27
3
-1
37
15
15
21
21
-20
-15
1
17
-7
21
30
-50
10
2
14
-7
26
-8
4
12
0
-23
8
-7
43
-27
2
20
-2
4
9
-16
3
-74
20
30
33
-23
14
-4
31
-7
8
-1
72
13
39
8
20
47
-11
34
-10
43
29
5
-15
7
39
35
2
-18
7
-5
12
9
10
12
2
20
8
12
15
-22
5
-21
-9
-29
10
2
-6
33
-4
-8
-13
-32
10
-3
7
5
-13
28
27
6
5
-4
39
-14
-38
23
-3
-37
26
-18
23
-36
4
30
8
-18
-9
19
-7
34
-3
-16
7
14
-28
-9
11
0
22
29
58
-1
-10
-22
7
8
8
13
27
-14
12
-22
-21
-9
14
-14
-23
17
12
25
23
-13
-1
-22
12
-8
2
-14
18
8
29
16
14
-22
-20
5
0
59
49
-26
10
-6
3
36
-12
-13
-7
-14
22
-38
7
-22
-9
19
17
17
36
12
-19
8
-13
13
26
17
-37
-8
-25
24
-11
9
-24
6
4
28
-35
-6
24
-20
31
3
15
15
-58
9
-4
-6
-15
-7
-31
16
6
39
-4
-15
-17
16
18
-6
44
-28
19
-27
29
48
-31
-32
-10
-25
39
-13
-29
1
-44
7
19
0
0
-4
1
-22
17
25
-25
11
2
29
-25
6
13
48
20
55
2
18
-9
19
5
-55
-7
-3
3
-29
-28
21
-10
-45
-18
-7
-44
7
-2
16
8
-2
-18
-7
-6
41
-19
20
-20
25
21
5
5
-48
-34
-32
1
-1
-1
4
11
-59
51
34
-35
-18
14
27
17
-47
5
-18
-24
0
17
-9
-6
-33
4
20
6
9
20
28
7
18
7
-7
4
-25
37
19
4
12
0
-23
-34
16
24
6
16
-27
-5
-32
-25
-4
-21
-27
5
30
14
12
7
0
-13
-33
-46
0
-3
11
-11
9
-11
9
18
-9
-8
-3
-1
11
-8
-16
46
-25
20
6
-14
-19
-17
-17
9
-21
-1
19
32
-35
-10
12
-4
-6
-26
-28
-3
-1
-24
-27
-2
-16
-29
18
30
2
-11
32
-30
-5
-18
-13
16
-13
-17
3
28
-9
29
0
-25
-22
11
31
32
-17
50
2
-19
-4
2
-12
-22
-15
7
24
55
-10
15
20
-21
-9
-22
6
15
-21
-29
10
49
-1
-5
-9
24
-1
-5
-13
51
-10
-6
9
-3
-45
2
33
21
23
32
-3
-20
-21
-17
-11
8
-47
12
-44
5
-3
12
-4
4
-20
19
38
-19
38
30
-28
-8
40
-7
-40
-54
27
57
8
0
-13
21
24
6
53
11
58
25
-49
-20
-8
28
15
23
8
8
-61
-10
-51
20
11
-3
21
53
-19
-29
-27
-11
4
-35
-16
15
-54
-14
-16
-41
-49
64
-10
10
-4
-10
-11
8
24
3
-1
10
-95
-15
28
20
2
41
-24
-9
-12
31
-10
0
19
-14
0
31
0
-40
2
-4
-42
-16
11
-21
58
6
-11
-48
-2
9
5
-15
2
18
3
19
-11
35
40
0
-22
4
-16
10
-35
41
0
-8
-34
-19
28
-16
-41
46
30
10
-16
-20
11
-42
76
-27
33
-30
7
-18
-10
6
-18
-47
-28
15
-21
-6
-18
40
-34
-2
-1
15
-6
-2
42
-29
47
-4
-2
-18
18
-2
-11
10
-1
-32
30
-2
-11
-20
29
-16
-25
0
-30
56
-12
-39
-43
6
-15
5
11
-1
-27
41
-32
-18
7
-27
16
-27
23
6
17
-26
-32
-11
-1
4
-62
-13
-4
-11
5
-50
-5
-9
30
62
-21
-1
22
14
-23
-6
10
-34
39
-63
13
-5
-34
33
9
14
5
17
-34
29
-6
-12
12
3
20
26
-1
-27
0
-30
65
30
-18
-24
-17
-32
-7
16
-33
6
-13
50
-14
-30
-40
24
-3
-1
42
8
-26
19
6
-2
0
30
16
18
11
13
-7
-6
-27
16
6
26
-15
-9
-23
-31
0
-35
31
0
-1
-9
-1
33
-33
1
-20
-26
18
40
19
11
-32
-7
-29
12
30
16
-38
-8
22
-17
-24
-14
5
-23
9
-10
-38
27
-2
2
1
-20
-34
-6
11
-39
-6
66
5
-11
16
21
3
17
0
-36
-36
22
1
-8
24
-27
-19
44
9
2
-20
-25
11
15
44
-9
-6
16
12
-10
17
16
11
-20
-9
-13
4
30
10
19
25
6
-10
37
-32
4
17
8
-21
20
7
51
-8
3
-29
6
14
-18
-6
10
35
-13
-3
-11
54
-3
-20
-13
8
11
13
-8
-26
-14
0
18
19
-16
21
-3
33
10
17
13
-40
22
26
1
-43
10
-26
-27
32
6
-12
26
37
55
-15
3
-18
34
11
15
8
-4
25
-19
45
24
18
6
9
13
24
15
-6
2
13
19
-19
-4
4
14
27
-23
8
-1
-20
-48
0
-9
-9
20
4
-22
-16
-13
-6
19
38
-27
3
10
10
-20
-15
16
-35
-11
30
-16
14
16
-6
6
-12
27
44
2
8
-17
-29
-22
-9
51
-44
18
-19
5
3
4
7
15
9
41
21
0
9
-4
-2
16
27
14
16
20
-14
29
41
-16
-16
41
21
2
8
-14
21
-7
13
-19
17
6
43
28
1
20
-17
-8
-8
1
-6
22
5
13
1
1
20
12
-13
-1
-20
3
5
-8
-50
-7
43
8
-6
-7
4
13
-58
-17
-25
11
-20
2
5
-6
-44
12
15
0
-1
-32
-6
-9
-30
17
10
17
-4
-11
14
19
32
-11
-8
20
27
2
38
-8
6
9
13
2
-28
-7
7
-4
-4
13
-10
31
-4
58
-16
7
-1
-5
-2
30
-20
-37
26
1
-21
-20
26
11
-38
41
34
-25
-21
12
1
24
-16
-5
0
-3
-15
7
11
-29
0
-9
-3
18
3
10
-11
29
38
-11
21
-18
3
0
32
-6
5
8
15
37
13
-12
-9
13
13
0
14
29
41
1
-7
-63
-32
-42
-4
-16
-5
-14
19
0
-30
30
-17
9
5
-30
28
-33
18
24
-31
-8
1
3
0
30
-36
11
27
-20
-21
17
-6
-26
15
27
8
17
4
1
0
9
-7
-2
-34
2
3
-8
-19
36
-5
1
25
18
0
-5
2
-13
52
35
-17
-39
-20
-2
21
-39
6
-4
-45
-9
-19
-5
7
6
-4
-8
-21
27
-12
36
24
53
9
-6
-8
-2
-10
-38
8
-24
-13
-35
14
2
3
5
-15
22
26
7
16
-30
-7
-6
-13
30
-1
46
0
4
14
17
16
14
35
3
30
13
-1
-18
-30
2
23
46
31
8
22
8
15
20
6
-29
-38
38
-35
8
-37
14
-12
32
5
26
10
13
-3
27
8
26
37
22
-24
18
26
-46
-22
32
12
31
-22
28
0
38
-3
17
84
-20
-21
2
-13
10
-36
12
-27
-18
8
24
22
-32
-16
-21
42
10
2
2
-10
-4
-60
-13
-16
24
34
14
-22
3
10
20
8
-20
6
-14
-11
-10
-37
15
3
-41
-6
23
20
36
-7
12
-1
-26
13
-29
-17
11
-26
-13
-50
5
-5
19
6
-4
-2
3
-6
-25
-12
-16
-4
-5
26
57
-36
15
-20
-4
23
-35
-24
49
8
-20
15
51
-28
8
-14
-7
23
7
-12
40
-6
26
5
6
23
-10
-18
71
-61
-19
-18
27
-35
54
26
11
-9
-13
2
31
-19
-53
13
44
14
-1
13
-5
18
12
2
9
33
1
13
13
11
5
-59
-2
-32
43
-15
0
-17
-11
24
-29
44
-18
-9
17
-23
-16
-46
-20
10
-26
29
11
-14
-27
-37
27
-8
-12
8
7
20
-12
0
20
1
-30
-19
19
14
17
50
-14
-16
-4
44
-19
76
2
-26
-28
-15
13
-16
-37
-4
-13
-26
4
-42
17
-57
-7
6
11
10
-29
15
21
3
-3
5
1
-20
9
5
21
20
-19
48
10
-16
-10
-7
9
-34
-36
-75
2
19
8
17
-37
19
10
27
-22
30
44
20
5
8
-30
5
-12
-5
19
-16
39
-35
-14
2
-80
-21
40
-16
-12
-24
14
-12
8
14
-18
33
-37
-1
12
-1
32
18
-13
-68
16
21
-32
-27
-27
-34
24
22
5
0
-21
59
-35
10
21
88
-18
49
-30
-24
22
0
4
-10
38
63
-19
-35
24
8
12
-19
4
37
-8
38
26
47
-8
24
-25
2
17
-10
4
-38
-13
-3
4
46
5
53
-15
-3
7
-13
10
-11
3
-37
-34
7
38
-4
-14
-14
-7
2
-9
-37
-5
15
-10
5
-1
13
8
8
-3
-26
26
17
-4
-16
-4
6
1
29
-1
-19
27
22
-17
28
19
3
32
-34
-7
-8
-1
4
24
-8
3
-12
3
-2
-6
9
6
-8
0
9
-1
-8
34
22
26
21
-17
-8
-1
33
-1
-24
-24
22
6
6
-21
33
-2
-12
-6
-5
11
-12
31
7
0
16
-25
-6
-3
8
8
2
12
14
13
-14
18
43
10
14
-7
19
-2
-20
34
4
27
-3
-10
56
32
46
-6
-10
6
21
-2
5
-1
-3
19
-24
11
17
-7
12
-23
-27
-46
-14
14
-3
-14
-3
-15
3
-7
5
-24
-10
-33
3
13
-25
5
-15
36
7
-3
-15
-6
-66
5
-14
37
-12
-3
22
-3
-5
27
0
25
-1
2
-43
-37
9
12
-30
22
-34
6
36
3
-11
-4
-6
-21
24
-11
7
3
16
11
-33
6
-16
-46
2
31
13
-2
7
4
-18
-37
-10
5
0
-42
14
5
-2
7
-11
-28
-7
-25
-48
-7
15
19
-38
8
5
-17
-1
3
-29
-18
-52
-15
-8
17
0
-19
-29
14
21
-16
-53
-6
17
9
20
-10
-3
19
31
-10
17
14
-14
-13
-15
16
-6
-24
26
25
-18
7
0
-40
50
-37
-45
15
10
9
2
-16
-30
45
-5
-4
49
9
-5
18
-38
32
-50
28
49
-19
-7
19
-7
18
27
-30
16
14
22
30
2
-7
-13
9
-65
-41
-18
23
58
2
-7
-10
13
10
26
-39
40
41
-28
-2
23
3
4
-5
-29
-66
3
19
-25
25
-21
40
38
31
-24
-7
11
26
35
11
-4
22
-19
22
9
-23
9
18
46
-49
49
-17
-8
6
-15
-21
-16
9
-12
0
-20
-25
21
-28
28
-14
-34
-24
-33
13
-53
-33
23
-9
-16
-26
42
-26
1
-8
-57
2
4
32
24
13
-8
21
-26
-35
-15
3
14
6
10
-41
-18
-9
18
3
12
-10
-5
68
-60
-3
3
-33
16
30
-11
1
-46
35
-28
16
-4
26
-48
17
17
57
-6
7
14
-36
-21
-13
11
32
39
-18
5
14
-20
13
-20
12
-11
-57
0
28
13
-43
41
10
-1
-25
14
-21
-16
-25
-16
-4
-38
39
15
40
40
12
-4
20
14
-14
26
-31
29
8
11
18
22
6
1
-10
13
-3
-25
-9
22
0
4
-21
-15
34
-6
14
38
-46
-8
-9
14
27
-4
-52
31
19
-36
0
-36
-22
-18
-14
11
-22
39
-24
19
-4
-3
48
38
-14
-25
32
2
3
6
38
-4
61
24
-2
-11
26
28
28
-29
23
-5
-10
14
50
-9
3
-2
-14
6
1
10
-18
-3
58
9
10
1
-9
23
-47
-22
10
2
-49
16
-39
-17
0
-36
-80
4
-40
-37
-54
0
-4
-10
17
10
-1
8
-12
-16
-4
-4
-32
-23
-27
17
-21
7
11
-5
24
15
29
10
28
5
5
8
0
5
-16
21
10
13
17
2
6
-28
-30
1
-20
20
6
-9
15
18
-13
23
-29
4
-15
24
-6
-4
-23
7
46
1
5
-8
-21
4
-8
0
13
34
13
18
-24
-26
-5
16
-10
8
-1
-13
1
-4
-10
26
-16
-35
9
5
14
-8
3
-12
0
-24
-25
-32
-1
32
16
6
-13
20
-8
36
-36
27
29
3
-8
29
10
-35
36
-6
-10
-18
-35
-14
17
-20
27
26
-4
-7
-44
20
25
-38
-16
25
19
-20
-7
19
-42
0
16
-4
-23
-7
22
-22
24
21
25
-12
10
-46
4
7
-17
-4
5
4
10
10
5
11
28
6
14
12
0
-5
-10
25
17
-29
-13
7
-14
-31
-11
20
8
8
20
7
-33
7
13
28
23
25
-21
-40
-23
-1
26
-36
17
17
0
8
3
-35
-22
-13
-1
-5
-3
1
11
10
20
0
15
29
-2
-18
43
34
71
30
21
25
-26
-15
-16
37
24
6
-19
43
16
19
-24
31
-24
12
-37
-18
-24
17
11
-31
-10
-29
15
31
-23
-6
43
-21
2
3
13
-21
18
-23
7
-20
-42
11
-10
-32
-56
19
14
-18
12
-15
-3
-11
-10
0
22
29
40
7
-11
-11
-25
24
-11
-32
2
18
-46
24
1
3
-5
7
39
34
-5
-4
0
-15
-4
18
-3
-7
-14
-16
3
-9
-36
30
33
3
-14
-28
41
7
9
11
15
15
-8
9
-10
-34
12
19
32
2
-34
11
-5
-24
9
-10
-29
-6
-16
3
1
21
-4
-43
6
29
3
-5
-20
-28
-8
32
12
7
11
9
23
-11
-8
3
17
46
-7
27
4
-15
7
-15
-3
-13
-40
-3
8
15
-28
6
27
-15
21
-4
17
14
-22
-4
15
-10
-7
25
-33
-5
7
-29
28
7
-12
-16
50
-4
-3
-6
-54
-46
-3
-21
-28
51
-17
-3
14
-22
10
20
3
-29
29
15
-24
12
-52
38
-40
32
7
-9
-5
9
26
2
35
4
-2
-33
-1
13
13
10
0
-30
13
-12
-1
-17
65
-4
1
-6
16
42
15
-15
3
9
6
-7
31
-6
-27
-32
-13
31
30
-5
-2
-40
14
-16
-21
27
23
-58
-13
-8
-16
-3
-52
-22
25
7
-1
33
41
3
9
-16
-6
26
17
34
3
5
23
-13
25
-34
-10
35
-4
6
-25
-43
9
4
40
26
-28
-23
-32
19
-6
-21
-27
-13
-19
-3
17
-33
-77
-12
11
-6
7
-7
5
-14
-6
-4
-33
9
-10
-5
-10
-5
25
-1
-21
-65
13
-3
25
0
-27
3
-1
-10
26
2
-46
8
29
-6
30
7
23
6
-16
15
-19
22
-27
17
24
4
9
7
13
-19
-26
-7
35
-7
24
11
-35
-4
-12
43
-8
-38
7
-50
-1
20
7
25
-21
-16
31
15
29
2
5
-16
30
2
-18
24
-30
12
7
-1
29
-27
25
-20
-42
-37
31
24
48
-55
7
-21
-23
5
42
38
22
6
5
-14
33
59
-5
43
1
18
-25
48
-36
23
-3
20
1
-13
26
-30
16
2
37
-14
21
-37
4
5
0
-43
-9
10
31
-10
-11
-11
15
-48
24
19
-20
-29
12
-23
8
60
-4
48
15
-14
41
-4
-31
-2
1
10
-1
-31
17
-38
21
0
11
-12
7
-35
-20
-33
45
34
-14
-1
27
8
-17
46
-6
-51
45
-53
-26
-18
2
-2
0
5
-4
-26
-4
14
12
12
8
6
25
19
-19
22
1
-8
-36
9
-7
-15
2
-58
-1
-21
-58
10
-5
-22
8
9
-13
3
0
1
-31
14
-4
4
7
-4
1
-9
-13
-29
28
34
25
43
14
9
3
-38
-30
26
-26
19
3
-10
3
5
-36
30
-30
24
-63
14
-25
-4
-6
15
34
-24
-11
41
13
32
-26
14
-12
48
-17
-11
35
-19
0
-32
18
-19
5
48
8
-19
29
34
-17
3
8
9
19
-23
-72
7
-3
-16
-27
18
-16
26
-11
-15
-20
-14
-13
0
7
-13
-17
-16
-4
9
5
61
-40
-31
-37
-7
-11
16
17
-42
19
-4
-9
1
20
-20
47
-46
-20
31
-3
-9
1
20
-25
-7
13
13
4
12
14
-34
-13
-35
11
13
-5
-9
-25
29
13
34
27
-28
-8
39
2
-11
0
-25
-34
14
-25
15
0
-31
29
-22
-15
-21
-14
45
-12
4
-16
20
-14
51
38
-30
-11
-66
21
22
26
-8
21
47
-16
-14
-5
17
4
-2
-35
34
-22
-10
8
23
23
-2
25
13
0
-13
9
-22
-1
18
14
17
29
4
24
8
9
9
17
-9
3
-18
0
23
2
45
8
-1
-3
58
28
24
10
4
15
-38
10
7
-11
12
19
-8
-19
-18
14
28
6
41
19
25
1
40
5
-14
-37
-33
12
82
-14
-1
15
11
15
13
6
-18
5
57
9
-20
-1
23
27
-17
16
-41
34
-15
-17
6
-10
-3
34
-24
36
6
38
-37
-29
-17
21
26
65
28
-13
14
22
-25
-28
21
107
-34
-19
9
33
15
-10
-28
64
81
-10
-43
34
9
4
15
-4
-14
-20
37
-10
17
53
-4
9
-26
32
64
10
-64
19
16
-6
-7
2
17
16
19
-33
-40
-33
-1
-2
42
-2
-31
12
11
-8
29
-18
-7
-6
-37
-5
-43
22
-2
-56
-5
55
1
-67
-8
-28
2
13
-9
34
-24
40
7
-23
-16
23
-40
-15
8
11
-23
3
82
-18
26
-60
43
33
4
58
-32
26
-52
22
45
-1
11
-1
21
-13
-14
-27
-29
35
15
40
-2
22
50
-36
-29
22
-20
6
-21
27
3
-16
-92
-15
6
-16
-39
6
-11
6
0
55
-13
-43
-2
-57
-27
-16
29
-38
-58
38
25
40
69
19
-30
-2
32
2
-31
-8
28
5
-27
-28
20
34
-44
-48
-42
12
-3
27
20
-37
21
56
26
6
-41
-4
-17
-48
-36
-16
-50
-39
26
-27
27
-28
-12
-11
-7
-23
18
39
-10
-29
-3
-31
-20
-8
4
11
-10
28
1
12
-15
-23
13
14
-22
18
-25
36
-31
5
27
-31
-13
-4
-27
-18
1
-32
-16
69
-24
-44
-5
1
-26
13
-13
13
-25
15
54
24
-21
30
58
-6
15
3
11
-17
19
-4
21
0
64
-30
-19
4
-5
0
34
9
13
-40
-18
9
-19
-23
-29
3
-2
22
11
-5
11
57
-27
-6
66
-7
36
-1
16
-19
5
-14
-2
-6
9
-5
22
-15
5
-41
-14
5
7
23
6
10
18
7
-7
18
27
-33
-28
-15
-28
7
-7
-26
-25
6
37
-11
-47
-15
2
16
-31
-9
-4
-1
-11
-41
43
14
45
31
-33
-2
31
9
66
-4
-9
-7
-7
21
33
11
-13
46
-16
26
-9
14
-24
-38
-28
-38
-16
-8
-10
-17
-41
0
8
-10
-58
-1
25
-46
-13
6
4
20
1
69
11
-27
3
11
-4
7
-4
-1
-33
-12
18
-2
-34
33
-8
-19
-2
-19
-18
-29
-4
16
8
-26
-30
0
19
24
21
7
-5
17
-22
-26
20
5
1
-13
-28
-5
39
1
18
-29
5
-13
-25
28
6
5
-41
45
-39
-37
-72
-33
18
10
22
-7
-1
-26
-21
11
14
-28
7
15
-5
4
14
-41
-9
-31
25
-8
-9
24
-6
-2
-12
-7
-17
-30
13
-31
-15
-10
12
10
33
15
-27
46
-27
-22
23
5
-6
-28
-28
5
6
-4
-43
2
25
-51
-5
10
56
-33
56
30
0
28
23
-10
16
-51
29
36
36
11
8
8
-6
16
-44
-3
26
-19
15
16
5
24
20
7
13
3
-4
10
-24
9
22
-24
2
34
-9
-5
40
23
-24
-12
58
32
17
-19
-49
2
-14
-20
35
-23
12
42
14
2
-32
-14
-14
33
-3
32
24
-8
35
38
-25
-17
-10
-49
-31
9
-23
30
-21
31
32
12
-14
-21
-9
-45
16
16
-1
3
-6
5
-17
11
24
-32
10
29
-19
21
32
-5
16
-19
24
-45
-25
-15
-41
-32
-8
-18
-5
-16
-26
-18
10
30
-31
-27
14
13
14
26
54
8
-31
16
-16
-5
-20
-35
-28
13
36
-7
-17
14
31
-11
19
-4
-4
-28
-1
-32
-29
15
0
-20
-4
-6
-7
-56
-7
-7
-76
-4
-37
-11
5
16
15
25
9
52
-46
4
-4
7
7
1
-35
-32
1
-33
-4
-13
-16
3
16
8
10
54
-31
-30
-17
4
-18
-2
21
72
20
31
-1
13
16
-13
-15
6
34
10
-18
23
31
19
-44
1
-34
41
11
-54
-30
-33
-7
-8
-8
3
-30
-68
-6
-27
-21
-8
-22
7
28
-10
-27
11
41
-2
-8
-16
-12
9
-6
23
23
1
-10
32
3
-41
-4
4
-31
21
-13
22
-49
19
-17
4
5
4
-22
16
13
0
19
10
3
-9
14
6
25
4
61
-4
-9
26
-5
-3
53
-17
-12
12
-7
3
-17
-8
8
11
-2
-17
-8
-7
-41
34
31
31
31
-1
12
-1
23
-23
-14
-8
48
10
59
10
-3
-4
-1
-10
-1
3
-18
-1
-13
2
30
48
8
12
-33
-6
27
53
-10
52
42
6
-14
-2
32
-10
3
-22
31
-6
-55
-10
-25
-2
-30
-12
-5
-19
-61
4
0
-22
8
-73
-10
-8
15
3
39
39
34
-21
5
30
0
52
-6
-7
4
57
26
0
-22
-16
48
3
-3
19
22
17
-11
-20
-16
-25
44
-61
-27
-58
29
-6
-20
48
25
-18
9
9
0
-43
17
-44
-28
5
-28
4
-4
-22
-10
-10
-25
-16
13
-6
-46
37
6
-15
-7
40
10
31
-18
13
-12
-14
-35
14
-20
-27
26
0
-10
10
-36
6
-25
-13
-8
-12
-37
-27
-33
24
12
14
-33
33
-50
21
-29
39
9
-19
-17
7
3
1
-32
38
-1
-28
3
-10
14
10
0
-14
3
2
9
-20
-19
-21
5
32
-31
-28
-36
-37
-3
-9
8
14
-21
-34
21
-17
13
-6
11
40
-23
-9
15
36
12
4
38
25
1
3
-24
22
-27
12
13
-22
-23
-6
27
8
10
20
25
-40
-6
15
-17
0
22
-16
-12
-16
2
37
38
-19
-25
-39
-11
14
34
23
21
18
23
-46
-9
-26
20
25
3
-34
-6
8
25
-31
27
9
-18
21
13
15
1
-33
26
36
17
4
2
16
25
-19
-11
26
-2
17
0
8
5
-16
12
-11
-7
-8
-10
-36
-12
-10
13
-26
11
25
-7
-21
-20
-12
3
10
-13
39
-21
37
-1
-11
16
25
33
11
-2
-5
5
-42
61
-26
-64
-33
27
12
-5
-3
32
-7
27
-30
23
-6
30
29
-53
-11
30
5
28
18
-1
-3
-13
-7
-3
23
22
-1
-24
-1
20
-8
7
40
9
28
13
-5
4
-18
2
-12
6
-17
-2
1
58
-3
-11
0
-22
22
-19
-4
13
-5
-25
-24
35
33
-10
46
3
-35
-22
14
-2
-13
-9
10
3
14
18
-55
32
-19
1
0
3
10
12
-7
22
-11
16
16
-21
-20
-14
9
28
-27
-16
-11
13
-15
26
-10
-5
-3
-24
12
-8
-59
25
13
-54
-18
15
-25
-21
9
-18
-4
-27
-2
-23
25
27
-9
-6
21
24
76
-13
-25
12
-25
-7
0
-10
1
6
-49
-21
-2
10
7
-13
4
4
-30
14
8
2
41
-12
14
20
-4
10
1
-1
-38
27
12
-6
-1
-35
1
-3
-37
-18
-15
17
27
-32
36
2
-3
18
20
5
19
-53
-19
2
8
-17
-7
7
20
-25
-19
-4
-32
-47
-40
-53
31
14
28
17
-9
-27
-10
-67
-7
-1
-18
-12
-6
-17
42
-14
-12
9
6
9
-45
1
-9
22
-33
16
7
17
-12
14
-32
-58
-7
-12
-8
-54
-2
27
1
4
11
-3
41
-25
-9
30
14
25
17
12
6
24
4
4
16
21
16
-1
-48
-5
6
-53
-10
-16
-1
17
-19
12
-15
8
10
-6
6
-51
39
38
-2
-26
-39
-8
13
-11
21
5
-2
-33
-11
-32
-26
-25
59
8
35
-16
21
-20
-21
-31
1
41
-33
-8
15
-8
47
-40
-19
20
-12
-5
17
1
17
-2
-14
-11
-54
-32
-39
17
-11
19
-6
1
6
-27
-14
7
-9
-14
-1
28
-6
3
-68
6
-19
-14
-22
37
30
12
20
42
17
-6
22
-8
74
21
13
-28
-21
-21
6
62
-11
4
23
-1
-44
1
46
-12
15
19
-8
20
18
-10
-35
-55
-26
-7
22
19
-3
-5
9
-12
23
1
-30
25
-53
-43
-16
-12
-53
-31
15
4
-8
2
22
3
14
2
-14
8
16
30
44
11
34
27
17
-8
-1
17
11
23
42
5
8
37
27
3
9
27
6
-7
-25
-16
-13
-52
-44
-3
-30
-46
4
-15
-6
-2
-36
-31
42
20
-10
-49
-30
13
-28
-4
20
-8
31
36
-25
-11
34
-6
-21
-1
-12
-6
-41
-5
1
15
17
-11
13
32
6
46
-2
-2
-27
-30
2
10
-23
38
-20
-36
-29
-1
-12
-1
-15
-38
19
15
4
11
25
38
5
9
-29
5
-6
-41
40
-34
64
-22
41
9
-27
-19
-20
19
-21
-10
29
29
11
-30
-12
5
-30
-17
14
0
13
42
6
-19
10
-29
-10
-16
10
-19
-14
47
-29
-34
-12
23
-22
18
4
0
16
21
-33
-26
-4
-53
4
35
-14
-30
-48
-12
32
-9
47
-15
22
-30
17
-42
-27
-24
1
5
-33
4
-3
-29
-17
24
7
-14
-4
1
-19
0
8
4
12
23
16
23
-21
14
-3
15
-29
-15
11
-4
19
-39
10
-4
-2
19
12
-47
39
-7
2
-27
-33
23
-10
-13
-49
-9
-7
12
4
13
34
4
39
38
10
15
-2
-3
-6
9
2
-4
-2
-41
6
0
21
-21
-6
-19
6
-31
9
23
-16
11
-28
19
12
47
-1
-14
24
-8
15
-13
2
-15
-4
14
9
18
-11
14
35
-19
-32
-3
-5
-9
-25
1
5
-15
-6
-12
18
4
25
0
4
-14
-4
32
31
-12
7
18
-18
-12
-25
15
15
42
13
7
15
-9
-18
-17
15
-25
-7
20
20
-23
20
41
23
-36
23
-5
-45
7
-15
8
18
6
19
-22
29
-25
3
4
16
-17
40
15
27
-32
-22
-16
-13
21
-28
38
-4
9
32
-11
27
11
-12
9
15
-29
-17
-7
14
-17
0
18
-6
-14
26
-17
4
-34
3
35
7
0
-56
-54
10
-39
23
12
-8
11
29
22
20
-29
-2
-39
42
10
0
13
-23
14
2
7
0
-28
-16
-14
-4
14
18
-43
-28
-6
-31
-11
43
19
17
-17
27
-1
-34
-26
9
-16
20
38
-1
-12
2
-1
5
30
5
-40
-4
-27
12
16
-18
-16
7
-23
28
3
-17
5
-2
-9
28
30
-25
-16
14
28
12
11
11
16
5
3
-21
41
12
-10
30
-21
1
-34
1
18
-25
-3
2
11
15
17
23
-11
-47
14
38
-11
-16
8
-25
-24
6
9
1
-4
-28
-8
0
8
-27
24
46
31
14
7
24
-9
-12
37
39
3
-44
-2
-25
-5
-8
-12
-11
16
2
-20
-15
11
14
-15
-1
7
33
3
-21
15
17
-33
32
10
-10
-11
-6
17
-5
44
44
21
5
17
-7
16
-22
28
-25
61
-25
22
3
7
29
6
15
3
1
-36
15
7
19
-19
-8
20
-19
-4
-17
5
-10
-29
-37
-4
23
22
-58
23
-3
0
-7
25
-7
-16
-21
-32
23
20
-1
38
-9
-13
-42
6
-7
15
27
21
-35
-44
1
-24
35
5
36
-8
-5
23
-13
-23
28
9
0
-14
-13
-9
-17
-17
-4
-2
-40
-23
-9
-4
-19
13
-17
53
16
16
43
-4
12
-31
-67
-7
-24
8
-17
-5
-13
1
-2
14
-5
-38
-11
15
11
7
37
-3
13
13
5
32
45
15
-27
6
44
33
5
1
-14
21
-15
13
-13
-4
-13
-6
-17
-23
56
-8
53
19
-18
-4
-2
6
-16
-7
-34
7
-50
2
-10
-3
-23
0
23
9
-9
-13
-1
-10
23
-5
6
-1
-6
-4
-62
-41
-26
-20
-17
-7
-42
17
-15
12
18
27
25
9
4
15
-14
5
1
38
-7
15
17
9
-12
-13
-34
-6
-8
27
-3
2
24
-37
6
10
14
-8
-3
13
-6
-3
-8
3
11
-16
13
-4
10
0
-5
-29
5
10
-60
22
17
-17
-29
-20
-12
-3
-12
20
-7
-6
3
7
-25
38
-6
11
1
15
-23
-7
35
-14
-4
-1
-12
-18
-8
21
-10
12
23
7
-11
19
33
5
-20
-16
15
-14
-21
-39
31
-38
-15
-10
4
-24
31
14
11
-4
4
-11
-4
15
-29
-19
3
8
31
22
-38
-11
-52
-13
25
-35
20
-5
-5
0
-39
13
20
8
-6
-8
59
-10
0
-7
-13
8
-4
-3
-48
3
2
21
41
5
-11
-4
29
-22
-13
-27
15
20
25
23
-1
-41
-14
59
17
-19
-33
20
-28
6
49
70
8
-28
10
8
0
13
2
-26
-13
10
-1
3
81
-42
-33
-5
18
-8
-8
9
44
-44
29
-25
5
-26
-36
0
-4
1
9
-32
19
-23
-14
-22
-39
-9
-7
26
30
1
15
-28
-17
-8
-18
26
-34
5
10
3
46
-19
-21
-6
34
38
-12
4
1
28
-14
-4
5
-20
-35
-24
16
-26
12
-43
8
-64
24
59
18
40
21
-39
-46
-4
-11
-41
-31
-26
-13
2
11
12
-1
-46
6
-40
34
-14
12
-9
-28
-21
18
-15
-24
23
-6
2
-23
11
6
51
4
14
19
-30
-6
11
-12
6
-46
-17
-15
0
11
2
-24
10
8
-24
-15
-7
-18
31
26
6
-26
0
-15
-48
-40
13
-8
-22
7
-6
-33
17
-29
51
-19
-6
13
28
8
36
13
-8
12
29
-30
-13
24
11
25
32
30
11
-29
-45
-27
-38
-6
1
-13
35
6
20
7
-11
-2
-33
-12
28
4
2
1
19
-11
-27
17
-26
47
48
5
1
7
11
-11
18
-30
14
24
8
16
41
10
-31
-65
-1
13
-19
-10
31
65
-44
18
-4
-60
21
-48
20
14
-11
-9
-50
-49
7
-35
-41
-3
-13
-28
-10
-1
8
-15
-6
-6
-47
8
-6
-42
12
15
45
-42
15
-10
-30
12
-9
-59
14
-42
-1
-4
-29
-12
9
-35
33
9
8
-14
-8
26
-18
40
8
56
-29
12
-34
4
19
13
-27
-31
-25
0
-57
10
-4
35
-22
-25
60
-2
-23
31
-15
9
52
-31
22
29
-48
-35
29
22
51
47
-38
-76
13
-39
-21
-1
43
-32
-32
-6
-38
19
-20
-13
-15
-3
-20
36
10
42
-19
-38
-5
6
-26
6
-50
22
8
-7
13
-15
48
0
5
18
-15
25
-66
7
21
26
39
-8
-33
-27
-16
17
-17
32
-20
12
-5
-12
19
20
-2
-26
-2
-30
-22
12
9
33
10
9
48
-36
-25
-4
25
-3
17
19
10
-25
12
7
-15
-19
19
8
4
-8
-51
12
-14
-23
1
-15
6
1
-19
3
8
-55
3
14
-15
-12
-30
-27
14
-33
4
2
11
28
24
15
-38
-10
38
10
35
0
-14
-39
42
22
-15
-20
47
19
11
-22
-1
-8
18
-42
18
16
-8
-25
27
41
73
-10
-12
3
-24
-23
-4
42
-27
-12
8
-24
-31
-21
-33
-35
17
23
-14
5
-34
2
23
11
50
37
3
27
3
1
-31
38
-31
15
27
2
11
8
39
25
8
-17
15
-7
18
27
4
-69
-6
-31
-36
-16
-17
-33
-52
38
10
-23
-35
19
36
-18
-2
21
-15
-17
-12
-14
2
6
-14
4
-33
-28
-21
37
16
-9
29
-11
43
-15
-4
-17
6
15
4
-12
-3
-27
8
-9
16
2
-30
48
-6
36
-46
-7
2
-25
22
13
-27
-9
16
0
17
-28
33
16
7
-20
-26
-5
11
-1
-33
12
-7
-8
1
14
8
7
-6
49
2
15
7
1
15
-59
10
19
0
1
-2
18
7
-1
-15
31
16
0
19
27
-15
-24
-5
28
-10
-2
37
-15
20
-25
-1
14
26
-11
10
-4
18
5
-21
-21
-6
31
-2
-24
9
-31
-29
6
13
-10
-25
3
-21
-1
-18
-20
-2
2
-18
-29
-6
-21
-1
10
-19
15
15
-28
-8
40
21
13
-44
-2
13
5
37
73
20
6
9
19
-23
-2
13
-10
-2
-4
2
4
-23
31
-3
-4
-11
-18
38
0
15
16
-9
-7
-5
3
56
10
26
-12
-23
-17
-7
8
-27
0
7
5
-3
-34
-27
-11
31
-6
-19
-43
21
-11
-42
9
15
-3
-4
-38
-22
29
1
42
-46
30
-24
32
-20
-30
-3
-5
-33
-5
-6
9
-31
-21
-4
-14
25
-21
12
6
33
7
-14
18
17
-34
31
-12
36
33
14
-34
-1
14
-7
-6
15
-17
4
43
1
-18
-40
-7
28
-14
-10
-35
27
25
20
22
-19
-6
-12
-1
26
-13
21
-12
13
6
20
-16
16
-23
35
20
-26
-18
17
-1
-11
-12
-29
-36
-6
44
22
-36
-4
-19
25
-10
-14
17
38
-33
-14
9
-24
30
-13
20
16
-25
-2
25
-22
-8
30
15
-7
-10
4
3
12
9
5
-31
-10
-42
40
54
46
0
-31
-15
32
9
24
35
34
25
-19
-14
-11
-7
-41
10
-15
12
1
-11
-16
-10
-14
19
-14
38
31
23
-46
-9
-30
29
-15
-11
76
-5
-33
-5
-74
8
-5
13
-1
-31
42
21
28
-19
-27
15
16
-16
-26
0
30
-10
-44
-49
-57
25
-29
4
-29
-4
-2
-5
-11
-15
4
25
-51
30
-5
44
-9
18
-22
-51
-2
-14
-32
26
-15
-54
22
-1
-13
16
-7
-54
29
17
-7
-14
43
-21
33
20
-31
-24
-67
-45
11
33
15
-23
37
-15
18
19
-2
-15
-13
-40
13
-19
52
-17
-25
-6
24
-31
32
12
-29
48
-6
-30
-32
-2
-22
-35
-14
12
36
-8
45
-30
-15
-17
6
-28
20
8
24
-12
-32
-19
4
-11
37
-20
19
-8
-44
-11
-9
5
2
0
5
-32
3
33
30
-20
27
-19
34
-15
1
20
28
-19
-38
-10
21
-20
-5
29
-45
30
93
-50
20
0
-2
29
23
20
-10
43
16
11
58
23
26
-6
-16
-15
-19
-12
-30
43
-7
-20
-10
11
33
-23
-17
39
52
35
7
4
-10
-3
11
-36
-30
40
-8
-3
-21
-11
29
-19
7
-47
19
15
-19
23
-3
-30
4
-37
-20
10
-19
9
20
-2
-17
9
-11
-40
-49
12
-9
7
-52
25
-5
7
-17
15
8
-22
-1
-14
37
-11
27
3
-13
-5
-1
-2
-9
-8
6
-27
6
40
35
23
16
3
38
0
-21
-21
14
-6
3
-43
-9
-21
29
18
14
-9
43
-17
-17
4
7
36
2
19
14
-10
28
0
30
-18
-52
7
-36
24
25
-1
24
-37
-22
-42
-56
31
-30
9
14
1
14
14
63
-60
17
-49
-14
38
31
13
54
-35
-34
10
-8
5
-61
16
-31
-13
44
24
42
42
25
5
-12
-31
13
-11
-16
3
-8
9
-46
18
15
-34
-5
69
-19
-23
-43
-34
-58
-6
49
-42
26
13
-29
18
-34
-10
18
-11
23
-27
-40
-13
32
-45
-4
-40
16
49
-15
-2
-6
-34
8
44
24
-45
21
3
6
18
-34
-7
25
-28
0
5
59
23
18
-14
1
-9
-12
37
-33
24
47
72
2
34
-11
-13
-10
-18
-37
2
9
-9
9
31
-21
26
38
41
22
10
-5
-14
12
-57
-32
10
8
-49
-4
-26
10
11
8
-14
-9
-6
0
-31
4
-13
-11
42
27
-11
51
-27
-17
-25
26
18
-30
17
-16
10
30
34
41
0
-22
5
-25
-47
-4
34
5
21
-18
-1
57
-34
-18
24
44
-13
-42
-9
9
28
-56
-43
1
17
-18
-5
-6
1
31
28
-17
-2
-17
14
-16
26
11
-68
17
-10
-3
-4
11
-4
2
2
-21
24
24
21
-59
8
20
-2
28
34
-14
41
27
-43
-52
-28
54
36
-40
-14
-23
0
6
39
4
37
8
-55
-14
-36
16
33
-12
-7
-3
7
12
-22
-23
-40
21
-37
9
-32
0
20
2
-20
32
-27
14
27
-54
9
4
-17
47
-20
-9
-27
-2
10
7
44
46
12
-23
8
20
27
-25
13
-34
28
-6
46
23
-23
26
5
37
29
40
29
-47
25
-14
-42
34
0
-3
7
35
-1
-23
-1
16
9
-44
-14
-9
-78
-13
35
-7
20
-40
26
-19
16
40
-16
-7
36
5
31
11
5
-43
-43
17
5
-77
15
-50
-28
2
-13
42
0
-44
9
-39
0
30
5
-31
-11
-32
-32
34
13
12
-32
-6
29
8
-37
7
9
-11
-40
4
29
27
34
52
3
6
-26
-22
38
-7
-41
-3
4
-63
15
-16
-33
-44
-4
-1
-44
-5
48
-2
-36
15
34
-12
-19
-22
15
4
-13
-2
-10
6
12
10
-26
22
9
-15
18
-12
11
18
11
-44
1
30
-14
-13
4
1
11
-2
-36
22
-9
-23
-12
6
29
-15
-44
-25
26
-26
-3
1
16
27
-22
-9
7
9
5
16
42
-20
-7
-3
-15
-5
-4
4
-1
0
20
9
6
-25
-22
-8
8
0
5
8
-27
3
18
-10
10
10
12
34
-6
26
15
4
-11
11
25
12
-5
12
-17
12
-35
-32
22
-2
3
-24
0
-7
-17
4
-54
8
-15
-45
-15
-4
-22
8
-11
-11
-14
-39
-5
-21
-23
12
-22
-11
16
24
9
3
3
-14
12
8
0
14
-54
14
-5
-3
24
-20
-15
14
2
22
8
9
-47
-6
3
6
-5
23
-22
2
35
6
5
25
25
24
10
24
-24
-15
-18
-28
7
-8
-1
1
24
5
39
-24
13
-4
-18
25
24
23
-33
-20
-31
8
-17
1
-16
-6
2
16
4
-16
-26
-2
8
44
1
6
13
-6
-8
-18
-11
-6
15
-10
-32
15
-18
20
36
15
32
-33
-37
-16
-8
-3
-15
41
0
8
16
32
-36
-31
-4
14
19
1
-9
-1
16
7
-36
27
-16
30
-17
32
-4
-9
-8
-4
-1
-31
-8
31
-4
0
10
-12
-48
4
1
22
1
-25
-3
18
16
-3
15
22
-28
12
-8
-25
9
13
2
-17
10
-8
9
13
22
26
30
-9
-9
11
21
-3
-10
35
11
-7
6
6
1
-23
30
-43
-30
5
-29
-16
20
32
10
-33
27
7
-9
-8
-11
23
22
-14
-10
-25
-14
1
18
-8
14
-69
-7
-4
4
-11
-14
9
67
-11
-6
-14
18
-18
6
-20
-10
41
-30
-18
-45
-20
43
0
-40
-7
-11
16
-28
-11
-28
-12
0
-2
-3
-6
-7
-15
-9
11
-6
34
17
-47
-38
-1
19
-13
-40
-30
-19
-26
-24
13
-11
9
-4
-22
-10
-13
12
14
7
-13
8
-1
-17
29
-20
-48
30
24
-17
25
0
61
-6
18
11
-8
1
9
-10
-32
14
-48
-27
36
-32
18
23
-8
-40
16
-17
22
-11
-6
18
10
-48
33
-23
-6
-13
-21
-19
13
13
9
-17
9
-35
-17
19
-16
-8
4
23
15
-29
15
-4
6
-22
-16
-12
1
18
14
-15
14
-13
4
-45
-10
-3
-6
-31
9
8
-43
-30
22
-2
37
-5
-4
-19
-43
8
30
16
-32
25
-24
-28
33
-47
-1
45
-26
16
-32
19
10
20
11
3
19
5
-23
-25
-22
2
2
5
0
-12
-20
-26
4
-46
-4
6
-29
-15
2
-10
2
7
12
4
4
11
-9
-11
35
-16
44
15
-40
-19
-19
-22
-20
22
27
12
-4
-70
17
2
11
5
8
-6
41
-28
-42
-8
0
13
3
-3
2
38
-15
18
41
-18
14
-16
8
0
37
8
11
-5
16
-57
-28
-19
-19
15
0
-16
17
-6
-28
27
28
-18
-20
5
13
3
41
10
-2
-53
13
0
22
7
19
-3
-18
11
8
15
55
56
8
-17
38
14
47
-17
-28
-8
-25
19
27
21
28
-27
30
6
-8
13
-42
36
-11
17
-37
-12
-7
25
-18
-47
13
8
46
10
24
23
20
20
-49
14
-36
-2
-36
-7
21
-45
41
29
-16
-11
-10
-18
-18
-47
-5
36
-45
18
-16
37
-4
-42
-14
-8
-32
32
-19
53
12
-3
-9
8
37
14
60
-25
-12
-17
-11
4
27
-36
35
30
26
26
21
-2
22
16
17
25
-40
-4
-20
0
-34
18
-16
27
6
-33
-34
7
-2
1
-25
5
19
13
-21
40
8
-34
15
27
-21
26
45
-43
23
63
-45
9
5
31
23
-37
50
17
20
-30
-3
13
-7
-55
16
26
22
26
-16
30
1
75
-5
22
13
45
27
34
36
10
23
45
-19
-39
-45
-21
-2
31
-43
-40
-5
-16
-12
26
-21
53
-19
36
-54
-18
-9
17
-48
0
-20
24
16
-6
-51
23
-14
35
-4
-5
-3
12
-62
-6
5
-16
-19
20
-15
21
-27
-7
11
-12
21
-9
-18
-7
14
-17
13
4
27
-21
6
10
23
29
3
1
4
-43
-35
-23
-26
0
19
14
12
-5
38
-5
1
5
17
-13
-13
-9
-19
-17
6
-24
28
-19
-9
-3
-35
24
0
0
-2
22
13
12
7
-4
4
26
7
15
-32
48
32
8
-26
1
-27
-11
44
-4
15
28
-8
6
-16
21
11
4
-17
-11
-7
7
19
-16
5
-11
10
18
-42
25
-37
28
21
-19
8
-22
-5
-35
28
28
-16
35
13
-23
-9
-17
-18
-15
16
-25
7
-6
-1
-5
33
-15
6
20
-18
-5
58
-59
24
14
-68
-15
-39
2
-44
-30
-41
-1
7
-41
0
-19
18
-44
16
5
-27
7
16
1
39
-14
13
3
15
-50
24
15
-9
7
19
17
19
-30
18
-31
15
-41
-39
-22
36
11
10
21
-26
16
44
-30
45
-27
-10
-3
-20
16
-36
20
4
-29
2
31
-1
12
9
16
-58
-22
14
-16
41
-12
28
6
14
-43
-35
-19
1
43
23
0
18
5
16
9
12
1
-36
4
-79
-36
-10
-1
18
-30
-36
13
27
1
-8
17
-15
30
26
-13
-32
36
-15
11
-48
8
12
-36
9
-19
-14
20
-7
49
5
-15
-7
14
20
-20
-5
19
-42
-4
4
16
52
20
-26
20
3
4
-18
-15
-2
1
13
-20
-2
58
74
8
-7
-14
-6
19
10
-28
-6
-44
-28
-1
28
9
9
-10
18
43
-2
21
-6
-34
0
8
-36
-1
-19
5
21
-1
16
-22
-6
-8
-45
14
20
8
22
-5
-23
-9
22
69
10
-7
5
19
-7
47
26
12
-16
28
-1
17
35
34
34
-3
-4
17
-8
31
13
-11
2
-9
-30
8
17
-26
-14
-33
1
20
2
-10
34
-6
42
32
-25
27
0
34
13
30
-14
12
-26
39
2
-22
6
8
15
-18
32
-45
-8
-36
24
10
-43
-34
-11
-17
34
-20
-10
31
25
19
1
-13
-42
-12
-2
11
7
-12
-2
-33
-30
31
-9
25
-3
30
5
-21
7
26
12
6
2
-52
17
3
-24
-15
19
7
20
-17
-30
-1
-14
-8
-14
4
-1
7
0
28
-36
-19
9
-54
-25
-20
-7
19
-35
-7
32
-11
6
7
-26
-5
35
-18
7
0
4
43
-34
-13
44
16
21
-15
-15
7
18
20
8
57
14
0
20
-18
-4
15
-4
9
-6
-12
22
41
8
11
8
3
-16
-21
3
1
5
-1
12
-16
7
17
32
27
21
-10
0
-29
-10
-36
1
48
-18
-8
30
6
1
-5
2
-31
-16
-12
13
-7
-1
-28
2
-5
-6
-4
17
24
43
2
36
14
20
36
37
39
-7
11
20
-21
-7
11
13
-16
1
7
-33
-28
6
4
46
12
3
29
-4
-41
-21
-26
41
-23
21
-44
-7
-18
-10
13
13
31
5
-29
11
-19
13
15
-13
-19
35
-3
18
-4
5
3
-32
-9
30
-15
23
6
12
-6
7
27
34
22
-2
-24
-25
-31
17
-19
37
32
34
0
-40
17
-29
-17
2
8
-37
24
-13
8
26
-10
20
2
25
24
-5
28
12
-35
9
-31
-30
12
4
-20
5
0
-6
24
43
5
9
-36
-20
9
-1
-20
23
-5
13
6
-47
21
31
6
38
16
5
-49
-36
15
16
10
15
1
-16
36
7
26
-41
-6
-4
-3
-30
44
21
-17
-17
-16
14
29
-21
6
0
-50
-18
33
-25
30
38
-10
8
19
3
9
26
-18
7
12
20
-24
6
-12
23
-14
13
-22
-77
1
-49
16
13
0
-13
16
28
12
1
4
41
9
2
29
15
-15
-9
24
-25
-17
15
22
8
-17
-43
41
14
28
-8
-11
-14
-20
-28
36
-24
-52
-3
-4
29
27
-12
7
-20
-32
5
-5
-35
-37
19
33
-3
5
-19
-33
-7
-18
23
-8
19
12
13
-27
-5
28
-14
-26
-13
-4
-32
-8
-6
7
-3
-13
12
18
-11
18
47
22
-4
-23
2
-16
27
10
-28
-43
9
41
-32
8
-21
6
-60
0
9
-23
14
17
12
-46
17
-16
-1
-6
5
22
-11
18
-8
31
-6
-35
-17
14
2
7
4
4
7
-61
8
27
33
-34
20
0
-23
-32
39
-21
-7
2
32
-5
45
-19
6
1
-18
11
-20
-6
12
-27
-5
-40
-14
-27
-4
21
-11
1
-32
14
-42
-25
33
-13
32
30
-7
-24
-34
-83
14
21
1
6
-13
-21
-16
0
-4
-35
13
-17
-15
50
-8
-3
-33
-3
5
-4
-11
-5
-16
-21
-14
27
46
40
-24
23
9
-7
25
11
-1
-5
-33
55
-18
49
15
37
-41
-16
-30
3
-34
-1
14
-14
22
-40
21
-27
-13
-4
-47
11
19
6
30
52
14
6
16
-9
-5
-18
-4
14
23
21
2
-17
9
25
3
-18
27
-12
18
2
12
-40
36
13
-34
14
-23
-2
32
-1
-1
39
22
-28
16
10
-32
19
22
25
-38
16
12
2
31
-6
-15
2
7
-35
-2
13
10
-33
0
-9
40
-21
19
-59
-57
3
24
31
-18
12
-7
-7
-3
-36
-32
18
-10
-22
-3
-15
3
-14
-14
16
-20
-3
-36
27
12
20
-7
-18
-36
-1
31
14
5
1
16
-6
21
-10
-35
14
14
22
12
20
23
18
-1
22
18
29
-19
-8
-4
-33
-17
-34
19
0
-42
3
-24
-29
-7
30
13
-29
-18
-10
-10
40
16
34
-20
23
-39
20
41
-16
12
41
22
-48
10
2
-37
-2
19
0
-15
9
-13
18
28
10
10
-29
12
-5
-24
-32
16
-19
-7
-8
-22
20
-8
-21
-15
23
15
4
-32
-23
9
-1
10
3
-17
7
-11
37
6
14
-15
3
8
-15
10
-43
31
-7
-7
-3
-22
5
2
-2
2
13
-20
21
-30
-26
-19
32
16
46
-13
22
8
30
-16
20
-11
65
-30
11
-8
8
-19
4
-23
-17
-52
-28
-16
12
22
35
22
18
13
-32
-4
-38
16
3
-3
-7
16
-29
-11
-10
-11
35
2
25
-7
15
-12
-12
-6
-9
-27
9
-25
29
15
3
26
2
1
12
29
1
11
2
6
8
-27
31
-3
-20
11
36
19
-11
-17
13
7
11
9
-28
3
9
36
-42
-12
19
-1
5
39
8
-21
-11
-1
11
-6
2
9
7
-12
-17
-39
13
-2
15
35
11
27
-10
-28
0
-13
17
-18
-11
31
18
-19
-7
-22
24
8
9
30
-3
-8
-1
18
-2
1
14
-6
-5
2
-19
-16
-1
-9
20
29
-16
20
6
-28
4
-24
38
15
14
2
14
-3
-10
1
-1
-11
14
18
3
25
33
2
-1
-19
-1
-16
13
4
1
8
-19
-45
-2
-4
16
-9
14
22
46
6
7
1
-20
-15
-17
4
5
29
-37
-19
-3
-15
17
40
2
-9
-37
-19
8
-20
-16
12
-14
-10
9
-27
8
11
4
-24
0
34
51
-3
13
0
28
3
-23
-28
9
-10
-39
-19
-18
23
1
-8
9
-17
34
-3
-45
-10
3
18
14
24
-16
-25
-3
-14
8
12
-16
3
4
2
-34
23
-50
38
4
61
-24
-6
-28
21
16
-15
-33
-21
-11
-4
6
28
15
8
5
20
-7
34
-8
-12
-8
17
-39
-28
-1
-24
-8
-16
22
-11
-45
-33
45
-17
-9
-17
5
-22
-10
41
13
34
-2
36
-7
11
-7
-8
15
7
8
25
3
-52
-7
-23
15
13
34
12
-3
38
-21
47
-21
58
1
-11
-19
-5
8
4
27
0
14
13
-28
10
-25
8
8
-22
5
15
-9
12
2
-13
-3
7
35
-19
51
-13
0
-9
-4
-17
38
-16
-3
-43
7
4
22
-10
-18
14
6
6
-9
2
29
4
4
-26
-17
-4
13
13
-7
14
-20
26
-5
-4
16
-3
13
-30
7
-3
-8
24
1
22
-13
6
22
12
7
-1
20
-15
2
-5
9
-17
37
-14
-2
-8
22
30
-13
1
10
-19
-34
22
33
-2
12
-27
-8
13
28
14
24
-37
-15
18
26
-28
37
1
-20
30
6
28
17
26
21
15
-17
-49
-7
23
3
-21
-11
-3
-2
-24
-32
5
-3
-25
-21
8
7
-19
-11
-1
-36
-54
14
2
-25
5
-5
5
16
10
-11
4
6
-14
9
35
-15
7
-1
-55
29
-12
15
-3
21
-2
28
6
-35
-13
5
32
24
13
-14
-14
15
8
-4
6
-5
12
-8
-2
16
-17
-1
-24
-32
19
-27
-8
2
-10
19
27
-26
3
31
-12
7
25
-28
30
-3
25
26
0
-33
14
-15
2
-28
8
7
-34
-10
17
-6
-12
-7
15
-30
7
-9
-22
12
2
-35
25
8
16
-14
-35
-13
-47
-1
29
-26
-27
26
-28
-32
34
-37
13
10
1
-10
-50
-12
-20
2
-10
-7
-19
-10
-9
8
8
-26
8
9
-1
13
33
17
-27
0
-7
-14
26
-38
19
-12
-5
-12
-3
