144 24 1 1
30
7
2
11
-12
-8
-22
-40
-15
23
-41
-26
20
13
7
51
28
67
3
-15
1
-8
-11
-2
-28
11
-6
20
4
-45
-1
21
-27
15
37
-23
2
-6
12
12
-1
11
-8
-20
1
7
-39
-23
-35
-3
-12
-9
10
22
14
-5
28
-8
-17
-2
0
-3
10
15
29
7
6
-46
-3
10
33
-26
-47
-32
-28
4
-53
-14
4
-43
-51
14
4
-38
-13
-2
-8
7
-10
9
39
-18
-36
13
-31
25
0
5
-3
-11
21
65
-23
-39
2
43
-15
-8
-23
36
19
37
1
-38
-3
17
6
22
32
-16
39
27
-1
-18
-6
23
0
11
22
-21
-1
-4
29
7
25
8
0
-12
13
6
-1
-21
61
4
0
-32
33
-10
-51
23
-36
3
-21
-7
4
7
20
19
-34
35
-29
-11
-12
9
-37
5
31
-4
25
-2
10
26
10
-43
-20
-9
-22
15
-19
-21
-20
4
36
5
6
66
1
8
0
3
-25
9
26
3
-2
5
29
20
-8
-8
7
2
-14
-20
-20
11
-12
-22
28
-15
-21
-6
6
7
1
-47
-25
11
20
-63
47
-3
11
95
-17
-19
5
-31
-48
-27
-7
-21
-40
31
11
-25
-9
-4
50
-14
23
-11
28
-23
28
2
-4
55
-9
48
-17
28
-15
18
-6
10
-40
89
-26
-36
16
-10
0
-31
37
-36
20
-3
47
-14
-6
-36
13
-6
26
0
8
-15
-41
23
31
-28
5
-36
41
-10
14
-27
42
-10
-5
-49
44
-30
-3
-24
10
53
-6
52
35
-28
-14
11
-45
9
-36
7
18
14
12
-13
-20
2
-3
-21
41
3
12
14
32
48
17
-36
13
16
-44
-4
-2
-29
35
4
52
-31
-21
-18
3
-16
-16
6
12
-26
-6
-13
6
-24
-2
-18
4
9
14
1
8
21
-6
0
-15
38
4
-5
4
8
16
-38
41
39
38
9
41
-3
-17
-22
29
-32
-16
-16
-7
19
16
-1
0
-35
-29
41
-7
4
-29
-20
-16
-51
9
-3
-5
-12
24
-9
-20
-11
-13
3
-46
-32
19
37
-6
9
-39
7
-10
-4
15
2
43
-42
-11
2
-6
7
13
-44
28
-22
30
-12
-15
5
-11
-5
24
-11
-12
-7
14
-47
-15
1
-38
8
34
3
-16
-1
-17
-4
6
28
-62
29
36
23
-25
28
7
42
-41
1
-8
27
9
21
-41
-24
6
42
47
21
39
-56
15
-31
-15
-25
27
-12
21
13
-26
19
-32
12
-4
-13
-16
35
-3
14
53
6
-18
-2
-17
51
6
-3
11
-17
16
-12
40
-24
-5
8
-17
37
-28
-14
16
-11
5
53
-10
32
-46
-6
7
-22
29
-43
-16
6
14
7
-8
-8
-42
23
65
41
-9
19
-9
48
-50
-26
18
6
27
22
24
19
-10
32
-24
31
-9
-8
1
8
36
27
-4
-26
21
-6
38
32
-47
-32
45
17
24
34
-15
-52
-5
14
48
-13
8
-36
6
26
-25
-15
-24
14
0
38
-1
-3
5
4
-10
22
39
13
36
-7
6
5
22
2
30
45
4
0
-39
24
26
-38
50
35
-17
28
-29
-17
8
32
3
-25
27
13
-5
-5
18
13
-8
-14
18
-20
-1
-14
-16
12
47
20
-17
2
25
-18
-18
-19
-24
-9
5
-14
-9
-35
-3
-34
-36
-7
24
-4
-12
-29
22
26
-55
-17
23
-15
-3
-17
2
17
-18
-27
1
-32
-35
31
-18
3
-12
-20
12
-21
-32
-5
10
12
-47
23
13
17
-12
-4
15
29
32
-48
-13
-9
-6
10
-2
-2
10
59
4
-9
-25
17
-37
10
15
-9
-76
-18
-58
22
6
-11
-70
-32
20
0
-21
-11
20
-13
-26
-13
-12
3
-8
24
-42
17
25
11
-21
3
0
-32
-26
-18
22
10
5
-26
-11
-21
-10
5
-50
-13
-4
9
33
-5
14
-43
-37
40
-9
-21
33
-17
18
13
34
-12
-32
-31
18
5
14
-17
12
-16
-17
27
-35
32
4
-19
-7
1
-25
10
1
2
47
13
7
-13
12
29
-34
0
-10
-3
4
2
22
-15
-48
12
33
11
-36
-16
-30
-21
-34
43
45
-24
2
-29
15
-15
-15
-22
23
11
-46
-32
-2
-18
-12
-15
43
-22
22
-30
-16
-15
-4
4
8
24
-39
-30
-48
15
51
3
-38
-17
17
-17
5
-3
-41
-14
12
13
-17
-2
-15
-23
36
11
-18
7
-15
-38
39
-14
-29
-3
8
22
43
15
22
26
-1
35
5
-14
-14
-3
20
27
-6
35
-9
25
15
24
-20
-28
-6
4
4
20
-26
-38
-18
-19
-15
-14
29
11
18
54
26
62
-11
14
13
42
51
-1
25
3
21
27
3
34
-2
12
9
-46
8
61
-29
-31
12
-16
-19
72
-72
12
-5
4
-4
18
-51
-54
-3
16
33
-3
1
4
-18
-17
-9
-3
-29
41
0
-3
22
-3
2
3
-5
-15
-26
33
29
65
0
-24
42
17
9
-57
-49
17
-1
-19
1
-22
15
1
-1
41
28
18
-16
45
-41
16
-29
-1
-4
-19
-7
33
32
56
-12
6
-3
46
-31
40
-32
3
13
-10
-29
3
24
38
-35
-19
-19
32
-34
-5
50
18
-3
6
47
-3
-23
25
-47
2
48
11
23
45
15
9
8
20
13
-32
58
-34
21
1
-17
-34
50
7
18
10
39
14
33
17
-52
15
-34
-31
-7
4
22
-5
-48
-42
-19
-20
-45
-34
-49
73
29
-36
-13
43
36
41
16
-20
-14
-9
10
7
22
7
-1
-46
-43
-23
-14
1
26
11
9
4
11
16
12
-14
-25
19
-7
-29
-12
17
34
-52
-24
-9
-26
26
7
-10
-40
-20
-8
-21
-9
-49
17
22
24
-14
44
45
10
59
9
29
-31
19
12
0
34
-43
15
-28
18
-9
30
-10
2
-41
-15
8
-25
-37
-5
3
2
10
-33
-44
0
17
56
61
18
-13
-45
28
-48
22
-11
-6
-12
50
7
-6
-14
0
2
-11
-14
1
-3
-33
-2
32
-25
18
-60
-8
20
1
22
-6
-10
-1
17
-48
22
-17
-3
-14
-9
18
46
-27
-27
25
13
-19
-33
14
28
47
11
-7
13
15
-17
-36
-5
5
-8
-15
38
-22
-43
28
23
18
-16
-26
-4
11
6
-20
12
-2
5
-7
11
-30
22
0
1
19
-34
-8
-22
-6
21
31
-10
10
10
-1
4
-14
5
2
-30
3
-44
17
5
10
-2
8
4
7
-14
71
-35
-22
31
20
-15
22
-39
19
-11
8
-10
-4
10
39
38
20
14
8
-1
-23
-18
3
-2
5
-9
4
-25
-21
42
-6
-12
21
0
11
23
-21
6
34
-27
-7
0
-17
46
-2
-5
38
20
-9
2
-71
19
20
10
4
14
-23
-4
-15
9
19
21
38
7
40
13
7
-1
-1
-18
4
-8
-21
12
16
-31
-4
24
18
6
17
-3
-7
78
-7
4
5
-22
28
0
31
-43
-39
17
23
57
-6
-12
42
1
1
-50
-2
-34
33
-38
45
12
54
-49
-6
15
-13
12
-13
16
-26
7
-14
15
23
-40
31
-19
-10
-23
-41
-24
-48
17
-19
3
-2
-9
-7
-18
-20
16
10
24
1
0
17
-7
13
5
-22
17
24
8
15
-25
-18
33
20
-20
25
-57
-5
36
7
10
6
-62
-24
3
24
-15
21
-7
13
-48
53
27
9
17
-20
47
5
15
20
-24
-14
-40
-3
-57
-20
42
-10
-5
21
61
20
15
0
3
6
-4
-29
-32
-5
-48
-11
12
10
-4
52
-19
2
25
9
6
-12
-5
15
68
50
-6
52
20
-1
-39
67
-8
-19
65
10
-9
15
-12
-17
-23
21
-18
-9
2
-4
31
-28
-3
8
14
40
26
55
-11
31
11
22
17
-7
-41
26
8
-24
-17
-22
25
-16
-18
52
7
24
29
-7
-10
-25
-16
37
66
2
19
3
-6
21
-4
15
50
-22
30
-1
7
33
-1
-12
-20
17
12
-16
9
20
13
-47
-13
11
42
22
-41
-4
-25
-32
49
-36
-47
43
64
5
1
-17
-23
-15
15
-65
1
1
15
-3
33
27
-17
-1
29
24
33
19
30
-18
-4
-2
-2
31
4
8
8
14
13
-17
4
-32
-36
60
21
-3
-9
-24
-25
43
1
22
-2
-28
-27
3
12
-4
-67
-15
-43
36
-1
31
-42
1
4
-7
-20
-11
-8
10
27
-8
16
20
-18
-39
49
5
-31
77
44
-14
-14
-19
19
-33
16
-27
-3
20
43
-37
-22
14
-32
-15
10
-11
2
4
-18
18
3
19
-2
-12
-3
10
-20
-30
42
53
36
16
3
10
-8
0
20
6
-23
34
-20
-1
28
-1
-8
-31
16
4
-24
17
-3
-24
-20
-5
12
-42
14
-13
25
-26
22
-26
17
-1
-7
27
32
-13
-18
9
-48
19
-24
-18
-44
-18
-10
45
-29
19
-49
27
33
49
12
-40
-40
28
-7
-3
-10
24
16
14
25
26
13
22
35
-19
26
8
-2
1
-24
8
-11
14
10
-50
3
21
-11
-5
11
5
-35
-13
-1
11
-30
8
-8
-4
-4
-34
-15
-24
12
3
-38
24
31
-7
4
-33
8
-28
38
-7
-15
-16
-9
-15
23
-2
42
-38
-6
-2
-37
5
-1
-63
-7
30
-56
-12
4
-4
72
-30
-9
18
18
39
32
25
-53
-16
8
21
0
-21
23
-2
3
-36
6
-43
-19
-13
8
10
45
13
-28
-37
4
17
20
12
22
-9
-10
28
6
-26
19
8
15
-3
11
0
-18
-4
10
35
-7
21
6
-12
11
-4
5
29
2
34
1
26
37
-58
-6
22
65
15
-13
10
61
-7
-73
-16
-24
23
22
12
1
-64
-19
13
-30
-39
-17
-4
4
-20
19
-20
-54
15
-38
-8
12
34
19
16
28
55
0
7
44
17
0
-24
10
7
-18
8
-34
26
3
-4
15
4
33
1
-16
27
-17
-13
21
37
18
9
22
21
20
-21
13
29
-11
-4
-21
30
-10
-15
-23
34
1
26
12
4
-11
7
9
-42
11
-7
18
-39
41
12
11
5
0
-6
-16
-41
7
59
7
14
-2
43
-13
7
6
-18
2
8
-4
-2
30
12
32
8
30
-34
4
-9
26
50
20
19
15
48
6
-8
-8
4
-23
-40
-9
-5
-28
31
29
-16
18
0
17
11
-5
-1
-26
-12
-46
-8
-59
11
1
27
-5
2
-4
-17
29
30
13
12
-10
-3
-4
22
-16
23
-51
17
16
21
12
-26
-4
15
20
0
33
-21
-11
-18
-12
6
-8
-7
-16
38
-1
-13
18
-25
0
-25
5
15
38
15
-21
35
16
-49
40
-10
20
18
47
-26
-20
-15
13
10
-16
-34
26
61
9
-4
22
42
-33
17
-38
30
-14
-11
-21
11
-16
19
-41
7
-15
29
11
7
-65
-53
14
-3
-18
-17
34
-13
-13
47
13
12
-77
-4
8
22
-1
-12
64
-28
-10
43
-14
34
38
19
20
-5
17
28
8
14
45
27
20
14
-33
31
22
9
-43
10
-26
17
-10
6
6
8
11
-25
35
8
-11
33
5
24
-41
-23
5
-9
7
-28
-38
-45
-64
5
3
46
-19
6
31
34
-26
-29
-26
-8
27
33
16
-37
-10
5
52
7
8
-58
-32
37
17
10
18
-8
-3
11
20
26
13
-7
36
-27
-18
11
-18
-1
34
22
-2
-25
-33
-8
-29
30
28
46
-20
-4
2
4
14
-16
-9
-8
25
-23
-9
-7
12
-26
44
32
20
32
13
-5
-6
1
2
24
22
-70
22
16
-15
-11
1
19
-6
10
11
18
-35
24
16
2
-15
-3
22
-39
6
-11
-4
-9
-29
20
2
12
26
-1
6
-12
30
36
-29
12
6
24
23
-2
6
-14
-7
14
16
-9
34
-6
-3
-49
30
61
22
-5
35
34
-39
32
-13
-8
34
-8
19
11
14
37
-45
-4
7
-30
-9
-56
48
2
-29
8
-6
21
-27
32
-10
7
35
-6
-1
12
64
18
-1
8
42
-9
27
1
27
8
-6
-9
-5
25
12
32
2
-13
-16
3
13
3
13
16
5
-17
25
19
10
34
10
-23
15
-4
29
39
46
-53
18
-1
-44
2
-46
-21
-7
-16
-4
-11
1
-45
-8
-44
-20
-39
7
-10
-15
2
-34
-40
-36
41
13
-11
-7
-8
-4
-13
-5
3
-23
40
-28
18
17
-52
5
18
17
-17
1
30
14
11
-1
13
-10
27
-3
28
-31
5
18
-13
-6
23
-3
-14
-4
-17
43
5
26
-22
8
18
-1
40
19
-30
14
-12
71
2
-22
-9
23
-62
19
-15
-12
4
-38
-27
15
-23
2
3
-14
25
41
-43
-23
21
21
-35
-29
16
-21
6
31
-9
-24
36
-21
-8
20
-54
-36
-68
2
17
-8
5
20
44
-14
-2
23
-10
-40
14
-36
35
-10
28
-10
2
27
-3
-15
-7
20
3
12
5
-5
-4
-12
26
28
4
-10
-48
-60
14
9
-25
-4
15
8
29
24
19
-14
22
-45
-12
-14
-11
-15
-30
-5
-10
2
-5
-14
-15
-5
-15
12
7
-14
-32
7
-29
8
9
-35
-24
22
10
-2
1
0
28
49
-20
-11
40
-28
-10
52
-21
4
-11
43
29
6
-51
28
42
21
28
24
13
-6
-59
19
-16
-9
-6
-33
-7
1
-34
-9
-29
-10
-52
-19
23
6
25
2
-28
-18
-3
1
-2
12
8
-10
29
30
17
28
21
7
4
11
3
-20
-18
-17
-12
-13
41
-5
-39
4
4
2
-19
29
-5
-30
13
-10
-37
-6
-4
-30
-12
7
20
11
28
43
26
13
-14
-43
11
-14
-20
9
2
-41
-5
38
-60
-26
16
-48
18
-17
15
10
42
-39
3
-62
11
19
-54
27
-15
18
-20
-48
-49
31
2
-42
30
-13
-3
-8
16
0
-15
2
5
-33
7
32
-5
-1
1
30
48
8
69
43
-16
18
1
-32
-19
23
2
19
-5
3
33
-3
-46
-22
36
8
-2
-3
-15
12
-40
-23
41
23
8
3
39
41
-11
-35
7
-24
-37
92
41
16
-18
-30
46
15
-33
-1
-2
-32
-41
-16
-3
21
34
-56
20
2
-20
7
-11
-11
-34
-21
18
31
6
-27
-23
-23
-2
48
-19
5
-7
27
13
31
2
22
32
-3
-57
-13
19
-2
0
57
-25
52
59
-7
21
-54
46
40
-25
-6
-3
-18
9
1
28
53
22
8
26
-42
-41
-8
7
-14
21
-3
11
-26
-16
-21
44
32
37
2
40
-39
-7
-1
2
24
15
59
20
-7
-46
0
-1
-33
-4
-20
-6
-9
7
-9
-18
6
2
5
-50
22
-36
-35
-7
-2
4
11
-39
5
0
15
-19
1
14
10
-10
11
12
-25
45
4
16
51
-8
4
-1
-42
13
16
-1
24
-5
48
1
26
11
-38
29
39
66
14
-5
-33
-39
3
-13
-43
0
-2
18
32
-18
-79
10
17
-51
18
-29
-52
31
2
23
-43
15
11
14
19
6
-1
-29
11
-3
-20
-6
-6
16
-5
6
29
2
16
55
-1
12
9
3
-36
-35
8
-11
-6
-18
33
-39
-40
-23
1
28
14
23
5
-51
-20
-5
19
9
7
17
-23
1
42
-1
-15
-13
-19
-4
-33
4
-43
2
6
-5
7
-11
90
18
37
-9
29
17
27
-30
-13
-8
-35
-19
19
-24
-33
-13
15
13
-30
6
-16
-18
10
43
30
-14
-25
-6
-17
-10
-29
39
19
-15
20
35
-1
12
8
9
-61
9
-23
25
26
-11
14
-26
-2
30
55
21
-2
-1
29
25
13
35
-34
13
-23
17
-5
-27
-11
-1
17
12
-53
-16
21
-15
20
48
1
-7
-20
-34
49
-12
-3
-15
-16
-12
-23
-29
-3
-20
11
20
-1
35
-15
-26
6
20
-24
-12
9
51
-19
13
13
8
-2
-6
28
-38
27
33
-12
-29
-1
38
-42
-47
7
20
10
74
10
18
-28
-14
-18
-27
58
15
-9
3
-26
-2
-1
23
2
10
-16
4
-3
39
-2
6
-24
-22
-6
-4
9
-14
52
5
-38
25
11
-19
4
-34
4
53
-13
-33
21
-12
8
-20
-5
-1
14
-14
-23
8
-2
-17
7
10
-3
0
8
-12
-35
-40
8
33
-24
31
23
17
49
14
-16
6
31
-16
-28
-24
-1
-1
-18
7
29
-18
-5
42
-36
13
-40
-18
-22
-12
16
34
-11
-3
11
26
-23
1
-28
-41
-32
-2
6
-21
-28
-10
11
-19
12
39
-13
-1
22
-8
-31
-40
-16
-2
29
-10
15
-54
26
29
35
-22
-19
22
53
-6
47
8
0
67
8
-62
17
18
31
-3
7
19
22
-25
-13
-4
-10
-39
33
-32
-37
-49
14
-13
-45
4
-2
15
-26
28
-23
9
13
-20
-5
25
-40
5
-12
28
45
-20
22
-4
31
-15
-47
18
7
-24
26
-46
22
-5
-2
3
-27
6
21
24
-1
-35
26
16
-21
10
32
6
10
-14
4
-4
4
-24
7
-28
-17
-35
-11
43
-5
-37
-41
-30
1
14
-54
-28
-12
-15
-13
1
-29
23
-19
4
9
1
-2
-20
-4
31
-16
4
4
-2
-4
-4
41
-15
-7
6
36
2
-43
21
17
-4
-28
3
-5
-36
5
35
-26
-11
-21
-28
-12
26
-15
-2
30
40
-30
11
39
-50
-9
-59
13
-24
-7
29
13
-12
-59
24
20
-21
6
7
27
-18
12
-2
-37
-13
-29
-38
-21
12
1
-18
20
-7
17
19
9
-7
-24
-8
22
20
-8
2
4
4
59
-14
32
28
-28
12
4
22
59
32
-47
-20
-7
-25
45
28
25
42
-19
-5
6
9
-10
3
-48
-24
-23
4
31
-13
-14
-10
-14
64
-49
-5
16
6
-1
-20
-28
-4
0
-15
19
4
-26
9
3
-12
2
-7
14
28
13
1
-46
-19
-18
45
-11
29
0
-27
-34
7
12
-47
45
5
-53
-29
31
4
37
42
-11
1
39
-16
18
-4
66
24
34
17
22
28
-11
21
12
-1
28
-45
-27
2
56
22
-23
34
