384
-0.040119663
0.008919032
0.015783697
-0.08086801
0.032070484
0.034088768
0.035079915
0.016264299
0.11525983
-0.088091604
-0.046582483
-0.013387133
-0.032894943
-0.0227867
-0.030536383
-0.020841891
-0.04415604
-0.034233015
0.010154631
-0.005383437
0.038637564
-0.11295213
-0.042460363
0.105641514
-0.006481035
0.00031828973
0.018637504
-0.044466283
-0.095280305
-0.048563868
-0.08644598
0.026519608
0.039550956
-0.050217506
-0.06910824
0.008487355
-0.018555729
-0.1644824
-0.025039855
-0.051812768
0.054635473
0.1171558
-0.044947773
-0.038088698
-0.043426845
-0.039397772
-0.031371076
-0.003428869
-0.09288503
-0.062352885
-0.07465189
0.01794156
-0.06542331
0.0027288487
0.028523497
-0.05079182
-0.03512381
-0.014284064
-0.039276585
-0.034374982
0.045892566
-0.0036178234
0.044041242
0.0032853824
0.040490154
0.042260133
-0.0041325768
-0.020496346
0.021166947
-0.041283976
-0.08342599
0.047928683
0.10484962
0.03891671
0.042390086
-0.04074513
-0.02749814
0.037124887
0.02809113
0.02260561
-0.03735204
-0.0489853
0.05930288
0.053032234
-0.011930424
-0.08993476
-0.018075222
0.019700589
0.049024574
-0.030443642
-0.0123038795
-0.00999083
-0.027086567
-0.14058514
-0.03965214
0.017147688
-0.044854585
0.0035767881
0.013024125
-0.103291586
-0.080846466
-0.047395106
-0.049117543
-0.11574478
-0.06442161
0.023973893
-0.023001757
-0.036105428
0.022147946
0.013551854
0.04261847
-0.07534182
-0.0051873676
0.050404016
0.014919801
0.020015711
0.012944883
-0.100972064
0.08592855
0.06262964
-0.030677116
0.012071859
-0.03313703
0.014752727
-0.039560996
-0.06390825
0.019913135
0.12110934
-0.012844898
0.014306635
-0.012270676
-0.029949844
-0.0037602368
0.02978837
-0.005984503
-0.015447293
-0.063428015
0.07519449
-0.014113299
0.04384382
0.13386373
-0.11792746
0.07979517
0.0015615104
0.024656717
0.05207432
-0.024179325
-0.031744406
-0.034863733
0.013984492
-0.074439555
-0.04016525
0.08163635
-0.016924204
0.01405186
-0.0034190505
-0.01401828
-0.025523173
0.0015813634
-0.05395989
-0.037399705
0.003592588
0.06203345
-0.02550793
-0.039072677
0.02272347
-0.06630727
-0.093253426
-0.015676716
-0.08295986
-0.02750529
-0.01869989
-0.095001265
-0.0022813287
0.0041148514
-0.035704874
-0.13133118
-0.011190817
-0.054735817
-0.031211104
0.051579107
-0.016908528
-0.020736746
-0.03884892
0.011624159
0.015759699
-0.007431021
-0.06536288
-0.03714017
-0.040548973
-0.08111784
-0.011215172
-0.100581236
0.045158364
0.018196408
0.09917152
-0.09421408
-0.051230453
-0.09588051
-0.10191287
-0.069027245
-0.010123924
0.0014289953
-0.022975149
-0.02355873
-0.076335676
-0.0013952132
-0.092695855
-0.100841135
-0.07285572
0.034645397
-0.064915545
0.05092161
-0.03682886
0.08409784
-0.028869722
0.0533546
-0.025769401
-0.24297965
0.07965477
-0.07472179
0.024228066
0.09196483
0.000984625
0.013785961
0.057776205
0.1306321
-0.21439767
-0.061611287
0.0028133132
0.036461525
0.0029237103
-0.026404941
-0.15203269
0.0590831
-0.0468419
0.02539466
0.008134461
-0.052894257
0.038424585
0.01387634
-0.04382056
0.046046525
-0.01297567
0.049520977
0.02449487
-0.04451983
0.01392811
-0.121057466
0.01949656
0.07450188
0.0720157
0.012529921
0.019915387
0.026237229
-0.059750836
0.018627785
-0.08628406
-0.053955466
0.062230557
0.03051564
0.0004095845
-0.06711901
0.09457203
-0.13826326
0.05724768
-0.0011852114
-0.023392824
-0.021724578
0.027053846
-0.018356765
-0.04215212
0.09245796
-0.146198
0.03350476
-0.084622845
-0.041621353
-0.01171918
0.015755229
-0.075119466
-0.004552624
-0.017513726
-0.0033392685
-0.0030347826
-0.004901138
-0.02183054
-0.01073291
0.0437305
-0.021151932
0.016437404
0.080533035
-0.07945814
0.10782764
-0.019892327
-0.042398646
-0.06743508
0.017494544
-0.0638946
0.0055764024
-0.018252965
-0.018568583
-0.00542658
0.028611818
0.024764873
-0.089527845
-0.014595297
-0.10236164
-0.06215225
0.06711657
-0.049556874
0.0097183455
0.025403243
0.023557046
-0.015554872
-0.012703154
0.0054811556
0.006438409
-0.079887405
0.03443893
0.08865785
-0.0057301037
-0.12411622
-0.104937166
-0.04902914
0.0034474062
-0.037894677
-0.00974806
0.052070722
-0.015346121
-0.027059171
-0.01036621
-0.020154614
-0.025779627
-0.022490924
0.04434757
-0.047741145
-0.012249722
-0.016148351
0.063508116
-0.018472485
-0.08762773
0.0861179
-0.05711925
-0.075866334
0.029923733
0.094162256
0.037202325
-0.07275753
-0.067949384
-0.0047568483
-0.063197345
0.012666037
0.0429251
-0.036722023
-0.0833407
0.0016218461
0.04092495
-0.051539812
-0.021572042
-0.04592815
0.015758257
0.005701781
0.077528
-0.08586202
0.02007204
-0.099935785
0.015345477
-0.08121951
0.009578748
0.015883273
-0.06851316
0.02064151
-0.049315155
-0.05039324
-0.032042798
0.0063729696
-0.02022589
-0.038471863
0.052178696
-0.06617666
0.030716792
-0.1037929
-0.13440883
0.058453836
