384
-0.026771601
-0.024544878
0.09500813
0.045926865
0.011401387
0.03842082
0.013189468
-0.080321446
-0.014016474
0.072978824
0.022325912
0.031361356
0.021948382
0.0051666214
-0.020657308
-0.078998506
0.0100352615
0.02242084
0.069716804
0.04790751
0.014516657
-0.04525391
0.028765097
-0.004714971
0.022836827
-0.039573587
-0.04452669
0.0411453
-0.014530754
0.09467202
0.061211932
-0.021368772
-0.08850123
0.06712115
0.040925074
-0.02496682
0.016508186
-0.059626587
0.009055577
0.059680827
0.037255555
0.024082659
-0.0693804
-0.051105853
-0.046880547
-0.0029463982
0.09296099
0.0043503316
0.05198473
-0.064048015
-0.06889586
-0.022049056
0.0037903762
-0.032759644
-0.03648689
-0.038960315
-0.010356815
-0.06532688
0.051742777
0.0069206143
-0.03506724
-0.053358577
-0.014320995
-0.017053347
-0.02983851
-0.017272241
0.00825475
-0.024081362
-0.041224927
0.013479013
0.0077829934
0.11585317
0.043521747
0.09927759
-0.008095576
-0.1066687
-0.03458266
-0.009773747
0.023151003
0.012968503
0.012617553
0.010980907
-0.011891974
0.021352544
-0.04488421
-0.13857476
-0.025976164
0.047136378
0.045358405
0.0019966695
0.025431234
0.0014176676
-0.06258764
-0.0038437243
-0.011728111
0.023299472
-0.034914725
0.064632274
0.07329486
-0.0065698824
-0.008358531
-0.04485411
0.104072876
0.029633127
-0.003378185
0.077678666
0.05663247
0.050725307
0.06539904
-0.048958436
0.0044783773
0.058372736
0.03532595
0.034500234
-0.03503671
0.05028873
0.038754497
0.022228427
0.030368142
0.028807595
0.05339309
0.024222871
-0.028335694
0.0039886287
-0.033050537
-0.03230824
0.0730666
-0.013757759
0.042864144
-0.03411289
-0.006289825
-0.083421074
-0.010132324
-0.04223741
0.03920683
-0.048969787
0.027242579
0.0621469
0.04760303
-0.0180391
-0.03116981
0.0009867363
-0.05952549
-0.026409429
0.0892968
-0.022297151
0.04213802
0.06567554
-0.01233643
-0.03459269
-0.009545142
0.1060345
0.017621864
0.09165489
-0.044135094
-0.061490368
0.020435112
0.02261198
-0.07570648
-0.099314675
0.057934683
-0.057228435
0.03811473
-0.030290404
0.026449392
0.032406043
-0.059337966
0.0010121306
-0.13506396
-0.105258554
-0.06888162
-0.0014900034
0.009077867
-0.06371519
-0.022949679
-0.017236646
0.059120916
-0.048283793
0.028447988
0.014047949
-0.0017936127
0.017340664
-0.0004154723
0.028330505
-0.082762815
0.031729907
0.045468524
0.045869254
0.039614405
0.0048037134
0.04282295
-0.03793268
0.053326026
0.03969855
0.16364679
0.05938318
-0.0051283995
-0.022991117
0.022816433
-0.09667675
0.060118213
-0.035020236
-0.009459643
0.029670613
0.0904516
0.03900006
0.0053937878
0.10673148
-0.013396034
-0.021268306
-0.016698804
0.008552465
-0.030077048
-0.005292304
0.13721922
0.010308608
0.027880767
0.038859736
-0.07007151
0.020123264
-0.0321635
0.047195733
0.02123053
-0.0021112328
-0.038697246
-0.0021590889
-0.035724625
0.033460457
0.11760281
0.0072564343
0.04624185
0.11347393
0.010354865
0.03379576
0.00025127735
0.021218624
0.06854606
0.09780097
-0.03523298
-0.012313712
0.011666136
0.06643155
0.029123854
-0.009935765
-0.02478375
0.0033214032
0.031510875
-0.03263674
-0.02435877
-0.0006709979
-0.034005042
0.026544232
-0.012406214
0.02997862
0.07243078
-0.05283759
0.0016892748
0.045813695
-0.02521557
-0.0073305704
-0.01787191
0.051918197
-0.052877337
-0.07966548
0.006265211
0.037613317
0.07158121
-0.0105813
0.06878353
-0.031372763
-0.04930812
0.08070047
-0.0148200635
0.08073445
0.026082993
0.045031853
0.0406527
0.012946773
-0.012562018
0.022811841
0.005282416
-0.033263363
-0.012198822
0.008092963
0.045374665
0.02620418
0.04310345
-0.012579539
-0.01885944
-0.0013584048
-0.041882306
0.077402815
-0.048436992
-0.0551337
-0.009597234
-0.05024658
-0.014418977
-0.014390523
-0.004443329
0.028456274
0.0020297067
0.021255607
0.07868391
-0.12039462
-0.0494135
0.025318645
0.021708043
-0.0224201
0.020869045
0.019735828
0.039062787
0.01758946
-0.040951733
-0.022855565
-0.014550912
-0.019539664
0.021738354
0.057936326
0.11873889
0.022311196
-0.010128006
0.006464609
0.035577886
0.05814499
-0.034228273
0.0074285395
0.025301652
-0.06527439
0.09456991
-0.060816124
-0.02384256
-0.05549043
0.064531244
-0.0036989436
0.021192415
-0.08568373
0.042474244
0.022170957
-0.04062
-0.049814932
0.04726156
-0.027998842
-0.05640223
0.055776775
0.06861209
0.022424972
0.016893454
0.054603998
-0.019108491
0.0070310123
0.04219002
-0.014679578
0.022143958
-0.08012667
0.054838195
0.0899571
-0.014253129
-0.012775386
-0.05803433
0.052280456
-0.0075461753
0.015529685
-0.02760453
-0.02515327
0.023117382
-0.0041500553
0.0566425
0.0037747482
0.06718861
0.07527633
-0.04350735
0.11683707
-0.028091844
-0.0017269304
-0.0040035127
0.05308153
-0.008819316
0.021657292
-0.036333457
-0.024564367
0.035603177
-0.04692616
0.058350347
0.012380554
