960
0.37237132
-0.367106
0.4769366
0.54421973
-0.64136547
0.007288128
-0.4886262
-0.8118622
0.3367744
-0.8974089
0.7709309
0.5512871
0.34912598
0.46789002
-0.6278542
-0.14244269
0.33551186
-0.1638307
-0.17754143
0.6910215
-0.12558866
0.79217345
-0.51811254
0.7686933
-0.85028714
0.213672
-0.2260809
0.9541416
-0.48984164
-0.40098074
0.6411607
0.8049036
-0.12754811
0.41079482
0.6971133
-0.74226236
-0.26589105
0.0756066
0.91672075
0.37039945
-0.45862585
0.35180435
0.68925315
-0.82549983
0.47493166
0.09748339
-0.6375596
-0.8510027
-0.7145859
0.18728389
-0.67200553
-0.31575543
0.31581393
0.5671317
-0.36679035
-0.38993618
-0.73860925
-0.09196367
0.10827097
-0.85634255
-0.7358495
0.45754188
-0.76951236
0.48205048
-0.16839263
0.49822992
-0.7221942
0.2745339
0.19683987
-0.1979213
0.7549334
0.47428268
-0.3300143
0.67212856
0.26861355
0.8970214
0.6065498
0.25202054
-0.7070262
0.22506195
0.87608385
0.33418328
0.023541406
-0.49945405
-0.42316794
-0.18303674
0.38666332
0.36249667
0.33013746
-0.18245986
0.5128133
0.7879215
-0.34689873
-0.6351347
-0.17661434
-0.60432357
0.66017526
-0.101973765
-0.36386913
-0.7317958
0.3593975
0.14920898
-0.55252326
-0.02278027
-0.7199917
1.0572879
0.84826404
-0.011906207
-0.7794983
0.22124042
0.15066898
-0.32617378
0.9566451
0.35782582
0.17152098
0.56076926
-0.5971704
0.23794603
-0.14475383
0.46872446
-0.8575574
-0.49805918
0.57071555
-0.10422095
-0.3766821
0.10998829
-0.55484074
0.28452724
0.70948493
-0.36088046
0.48260418
-0.66664284
0.7728867
0.2485303
-0.8399422
0.8029561
0.884826
-0.20930076
0.34318978
-0.72697425
0.65016687
0.8267833
0.14459154
0.27305907
0.5428009
0.17090714
-0.003119439
-0.37380967
0.38854402
-0.64292574
0.41055888
-0.80340856
-0.78465074
-0.48667106
0.42827535
0.22734442
-0.21338448
-0.00166177
-0.804131
0.74658304
-0.23791932
-0.20562129
0.2877428
-0.8135849
-0.2907734
-0.5954815
0.27101249
-0.484507
-0.2579872
-0.041428104
0.34737334
0.039587587
-0.3976428
0.08141187
-0.7739936
0.050308626
0.39350006
-0.14078097
-0.38782495
-0.87405574
-0.28337106
0.544005
-0.78028995
-0.226549
1.0295857
-0.5868687
0.2860848
-0.72212464
0.8079067
-0.34639072
0.5845252
-0.7544424
-0.09596004
0.04141073
0.28985068
-0.17139432
0.6247175
0.09139666
-0.20581348
-0.8186898
0.62085104
-0.078240305
-0.7647392
-0.012800358
-0.6490139
-0.042324588
-0.012704074
0.60135895
-0.8126229
-0.090179965
-0.61913794
0.43196538
0.6194042
0.7217257
0.26258188
0.40615714
0.5149045
0.17721072
0.50355214
0.06212171
-0.004653126
-0.6079671
0.5579336
-0.6108345
-0.6441505
0.20940594
0.048530713
-0.108595595
-0.51918155
-0.8871884
0.16149363
-0.13412526
-0.5151999
-0.8980605
-0.124522276
0.26416796
0.32374656
-0.5221188
-0.5743704
-0.080054484
-0.038528714
-0.48489094
-0.30161178
-0.35370156
0.0790709
0.34757552
0.7998529
0.106025025
0.45359778
-0.8613104
-0.43902504
0.125545
0.4757279
0.480912
-0.77970695
-0.356252
-0.42093837
0.82227117
-0.24766015
0.88395166
-0.6268104
-0.44959587
0.24015924
-0.36310747
0.7248667
-0.5892492
0.51639056
-0.06353974
-0.37496892
-0.7423981
-0.018340662
-0.84523016
-0.73521584
-0.51630837
-0.5902482
-0.8119501
0.1411486
-0.8559234
0.95029503
0.11481674
0.1339134
0.91296124
0.10255047
-0.15450174
-0.103823364
0.94331765
-0.62224925
0.04467994
0.782758
0.9661049
0.40385115
-0.5423819
0.64378655
-0.6662562
0.44911176
0.5721952
-0.12450119
0.39732528
-0.7567629
0.13229221
-0.077799015
-0.10108188
0.44277024
0.26458687
-0.27483305
-0.8811952
0.60582286
-0.43336177
0.3510347
0.8643466
-0.36867517
0.4080993
0.264898
-0.005062446
0.24669933
-0.7262618
0.08085899
0.54528236
-0.6796373
-0.78124905
0.10295147
0.6291468
-0.5214313
0.051260687
0.5672267
0.42961887
0.07345718
-0.3465558
0.68932843
0.026214348
0.013148218
-0.49251708
0.74601203
-0.35032365
-0.06894605
0.32412365
-0.8012111
0.72354114
0.29593527
-0.319981
-0.5127044
0.42585322
0.023933649
-0.45421064
0.17222108
0.62130535
0.95883834
-0.08322597
-0.5062007
-0.93590975
0.0672837
-0.7492493
0.18669274
0.5787971
-0.02931279
0.024825059
-0.18364294
-0.00584542
-0.03054632
0.86517084
-0.034259394
-0.23573375
-1.0098655
0.102292426
-0.40103891
-0.118855104
-0.21490003
0.44476578
0.1620111
-0.015480831
-0.012142733
0.27307585
-0.06751612
-0.64220977
-0.002346009
0.38749617
-0.8765066
0.017067267
-0.7067532
0.6185835
0.7333709
0.9432695
-0.02774334
-0.20479114
0.70815384
-0.71922314
-0.49254763
0.08021718
-0.058551393
0.57401246
1.0524341
-0.042394523
0.28805554
-0.056206055
-0.05645144
-0.93214715
-0.25477272
-0.21156996
0.11928497
-0.03160817
-0.68243164
0.5378053
-0.5562393
-0.87551075
-0.6942621
-0.5823954
0.6800213
-0.083678775
-0.019892454
0.33620423
-0.313897
0.14609829
-0.4695053
-0.02112355
0.78872067
-0.28269607
-0.86951673
0.5379244
0.10109999
-0.6871562
0.89074934
-0.71613383
-0.5426126
0.038629964
0.843049
0.9320727
-0.24416034
-0.91191214
0.6836206
0.5805939
0.33274117
0.20552915
-0.21896306
0.3303648
-0.24622063
0.5911695
-0.38783452
0.59147567
0.50550187
0.757871
0.32152256
0.61457044
0.18799385
0.2816698
-0.26543835
-0.0894391
-0.6875118
-0.48953655
0.073927045
0.5101826
-0.7369342
-0.086680084
0.23230034
-0.14843859
-0.5001006
-0.7717809
0.86107063
0.7432518
-0.8910159
-0.8912608
0.8732739
-0.3842901
-0.149975
-0.72443384
0.44976962
-0.21212444
-0.45397717
-0.83174556
-0.7663731
-0.7481369
0.3358398
-0.72640157
0.38315308
0.37517565
0.13540232
0.84176147
0.40899688
-0.25284818
-0.93036383
0.82476074
-0.38757893
-0.43177015
0.22840148
-0.039596252
0.56123734
-0.69200116
-0.865544
0.7159672
0.5495534
-0.009514697
-0.10958715
-0.067614965
-0.64418995
0.8696747
0.28483576
0.72749114
0.04394918
0.06180036
0.36609536
0.46203753
0.5813714
-0.8383554
-0.7256401
0.3147918
-0.11266663
0.78300095
0.8203926
-0.76197875
-0.34953344
0.6834985
0.5543264
-0.83458406
0.13133952
0.68678015
0.32383022
0.2823545
0.47112262
0.41915554
0.3445509
0.13977301
0.43100482
0.567358
-0.048895717
0.21660437
-0.63202417
0.08436267
0.5696652
-0.092745945
0.10861543
0.7207073
0.79956144
-0.01282195
0.63972825
0.46157676
-0.15414314
0.854444
-0.13104135
0.7090807
-0.830129
0.23872069
-0.49194026
-0.9385269
0.40064672
-0.611892
0.7415307
0.45759296
-0.0021953583
-0.41114062
-0.38685974
0.35727376
-0.79949665
-0.7883139
-0.6137527
0.2756248
-0.11936435
0.9466534
0.22755115
0.2988132
0.85927117
0.562301
0.38828307
-0.4896059
-0.11992518
-0.09653911
0.692408
0.14905383
0.34425533
0.14011902
0.73397696
-0.29684007
-0.6321405
0.71653414
-0.8824035
0.3918451
-0.58350813
0.94818896
-0.90651715
0.43127263
0.44557658
0.7275581
0.11798384
0.015841275
0.13730666
-0.5780917
-0.57297516
-0.6222509
0.3220656
-0.33588517
-0.5675479
0.82704806
0.46661544
0.37899947
0.40620923
0.3263378
0.76820916
-0.50946516
-0.46189958
-0.07265044
-0.08446753
-0.2658709
0.106775776
0.14986545
-0.63475966
0.36459404
1.0960073
0.65344393
0.65986454
0.3877379
-0.79359996
-0.45606172
0.41278458
0.42615128
-0.3330827
-0.87336314
0.10778988
-0.08668973
-0.7636365
-0.6089772
0.0875397
-0.693047
0.7592322
0.31407782
0.41118544
-0.6203674
-0.28470373
-0.6000949
0.14288497
0.31328076
-0.1449243
-0.76453257
0.6628103
0.5170336
0.65031314
0.3039221
0.8007557
-0.20247981
0.45466954
0.442561
-0.6050026
-0.040109925
-0.14991611
-0.78720105
-0.008619383
-0.56460875
0.3377648
-0.29619363
0.6601011
0.38939697
-0.3078367
-0.20324787
-0.039886884
0.31659558
0.82998353
0.0728682
-0.1456061
-0.42395556
-0.1201929
0.61646247
0.52874243
0.11208239
0.11584283
-0.55452377
-0.8205417
0.7155078
0.6183121
-0.6687298
-0.05320335
-0.1678192
-0.10390249
0.18031731
0.47110733
-0.3372479
1.00862
-0.37123403
0.93622845
0.78877074
0.76291084
0.37135535
-0.14055048
0.36470583
-0.7499717
0.39575785
0.054394506
0.96540606
0.364159
-0.5868251
-0.26548305
-0.64001566
0.34074083
-0.23571502
0.81300414
-0.43721443
-0.7153264
-0.38823277
-0.21122918
-0.70458007
-0.110764675
-0.8860502
-0.15304679
0.030726865
-0.82444763
0.322448
0.44826514
0.7657979
0.8187341
-0.8254291
-0.37024945
-0.17825368
0.048582852
-0.29458392
0.5479535
-0.38799182
-0.6648743
0.15582937
0.0319635
0.58922184
0.9617054
0.6862957
-0.64495915
0.39510903
-0.7212401
-0.17024782
0.2341814
-0.34594852
0.7948104
0.788374
0.4649179
0.2345801
0.3615976
-0.5391901
0.0069273487
0.024418086
0.5317457
-0.8544711
-0.11381668
-0.79100335
-0.93638647
0.8480072
0.3638959
0.38315558
-0.17968437
-0.10629211
-0.00921604
-0.6145249
-0.82049346
-0.21190748
0.24610242
-0.5266695
-0.031307593
-0.1389984
0.12556006
0.7449929
-0.006251078
-0.25040573
0.97482383
0.14862381
-0.05275397
0.27630445
-0.3607234
-0.350184
-0.6530342
0.69955397
1.0114677
0.8107141
0.07128967
-0.077168256
-0.6966869
0.25772017
0.7867656
0.5902256
0.39508474
0.22022912
0.2806039
0.38634714
0.6127699
0.4152184
-0.6495522
0.14799842
0.3713152
0.48331887
0.25389773
0.12075996
-0.10369032
0.59514487
-0.63820624
0.15147856
0.68015265
-0.22870241
-0.2649913
-0.018952794
-0.6570816
0.99243873
-0.093273565
0.6246882
0.5992563
0.67562395
-0.08603288
-0.27935958
0.53584003
0.87635404
0.3960434
0.33152047
0.2182727
0.30364522
0.1216331
0.8101988
-0.37664872
-0.3477574
-0.29325977
-0.12372286
0.6958142
0.684984
-0.6833885
-0.47089416
0.7716064
-0.15597272
0.7931159
0.6824847
-0.83918303
-0.9348448
-0.11695679
-0.58325654
-0.00018152595
0.06444954
-0.07821301
0.8291274
0.6832187
-0.0013505965
-0.61006427
0.6834806
-0.40138334
-0.7739695
-0.3568291
0.5788749
-0.09626551
-0.042248964
0.8795702
0.0054653734
0.46243826
-0.1550403
0.45103094
-0.09480959
-0.8924155
0.8681008
-0.5368165
0.8982559
-0.75818795
0.32657528
-0.037135325
-0.022401318
-0.6530153
-0.0461414
0.3347774
-0.5742682
0.008146003
-0.07888909
-0.47712064
0.20074579
-0.7435942
0.38408625
0.6989984
-0.10965614
0.665736
0.012890615
0.53728515
-0.6313928
0.63384587
0.7836994
-0.35185656
-0.5323981
-0.8683489
0.08114894
0.31220254
-0.040048093
-0.35946053
0.23204438
0.4702682
0.22413974
-0.6353502
0.14586833
-0.7051879
-0.7400286
-0.12435683
-0.6685165
0.78863174
-0.3498628
-0.6762795
0.24739963
-0.64928806
0.33265483
-0.060862005
0.59734756
0.6122488
-0.0365576
-0.06851618
-0.1855264
0.80618376
0.24616152
-0.8749697
-0.625088
0.511814
0.3238656
-0.49592337
-0.10333246
-0.19506389
0.5799025
0.41180563
-0.31766504
-0.7525854
-0.79840946
0.91326433
-0.5358996
-0.6337301
0.9884507
0.3535284
0.6948857
0.21412691
-0.1767681
0.21511433
-0.015114531
-0.67766273
-0.3269418
-0.10834023
-0.84811556
-0.8586301
0.66191304
-0.69030046
-0.56654394
0.8381722
0.60563225
-0.13727829
0.5548642
-1.006355
-0.15895149
-0.5469805
0.43304035
0.20613483
-0.74403834
0.14039885
-0.103733875
0.13225031
0.53883624
-0.057912283
-0.21656561
0.56350195
-0.24848881
-0.8022164
-0.016990528
-0.82861346
-0.7213462
-0.031198174
0.49882883
0.019087136
-0.22959295
-0.58402175
-0.06353066
0.05267088
-0.026829466
-0.59265476
0.71806204
