192
-0.01603802
0.058902495
0.020272013
0.052391797
0.017339764
0.025716605
-0.0628521
0.05622773
0.068915844
-0.026216432
-0.008845902
0.028399292
-0.103447974
-0.10816083
-0.0040963273
-0.05930212
-0.06858717
0.11741199
-0.0021158084
0.059080288
0.08027981
0.0072483663
-0.02472377
-0.00518418
0.108500324
-0.02911536
0.032013528
0.028837834
-0.025252435
0.08565907
-0.027849514
-0.088079125
0.12020767
0.057495106
0.076091655
0.027522728
0.030420793
0.012393781
-0.037923925
-0.07187214
0.063859455
-0.0124519635
0.045608114
-0.0042332076
0.051797163
-0.06802262
-0.0059656054
0.026774552
0.00015742704
0.066194154
0.10422927
-0.049309798
-0.092788145
0.0069965255
0.00076071057
-0.015013456
0.018474037
-0.011026504
0.020394826
-0.06238854
-0.089043915
0.027035054
0.08546617
0.024546491
0.088594235
-0.016447427
-0.0436381
-0.013113882
0.050462358
0.116736256
0.06610498
0.027412087
0.06718212
0.06525226
0.053753257
-0.035912182
0.031591695
0.010540697
0.01021182
0.12051555
0.08167139
0.109260716
0.0014889631
0.036355764
-0.020578615
0.019242167
0.06588527
0.016193714
-0.04505737
0.031598214
0.07572151
-0.0067884997
-0.0047083483
0.01329373
0.033192236
0.08339803
0.09647564
-0.03293485
-0.027599042
-0.00918554
-0.0074878903
-0.028256964
0.030584048
0.112631805
0.0663238
-0.011591659
-0.008868317
0.0046149185
0.069648504
0.014336204
0.07369074
0.015496762
0.065488815
0.030509885
0.06936957
0.043600563
0.034991693
0.015753303
0.0585695
-0.038007636
0.037469663
-0.014035847
0.039448332
0.032180756
-0.053462446
0.012649471
-0.05865756
-0.03233929
0.058304366
-0.0028039108
-0.063059695
-0.009431412
0.004787515
-0.018406495
0.012121467
6.239023e-05
-0.031300314
-0.064543016
-0.05481231
0.056910686
-0.01590001
0.02535219
0.028528083
0.025522076
0.0028227111
-0.03444679
-0.030735407
0.030610053
0.0544736
-0.07617368
-0.008653044
0.021822438
0.041397393
0.07067341
-0.03524502
0.042864926
0.02021351
0.016059896
0.018614165
0.07961609
0.053170424
0.031225197
0.0072915796
-0.020130236
0.1230647
0.12295264
0.043847363
0.036413014
0.002815497
0.024916608
0.0124592185
0.04247643
-0.020039087
-0.014388354
0.032832354
-0.008668336
0.06819305
0.042315096
0.04548316
-0.032840457
0.078958586
0.07474201
-0.010590233
0.061435126
-0.04861975
-0.04145554
0.036449213
0.004298865
0.0005456903
-0.057607207
0.047982417
-0.0127597945
