192
-0.35387757
-0.4676701
0.42207384
0.80090684
0.34385133
-0.46865678
-0.4522747
0.6620657
0.041496962
1.1746266
0.590762
-0.08840406
-0.49629274
-0.073824406
0.04936932
-0.8335062
0.7283605
0.86775494
-0.75397444
-1.024252
0.5532009
-0.05497207
0.039498962
-0.040885143
0.5059084
-0.006550435
1.0982094
0.20198125
0.0017371215
0.77711827
-0.14134994
0.90066236
-0.87767917
-0.74520683
0.8104072
-0.41528657
-0.026736677
-0.6658061
-0.03705211
0.30589443
-0.76967263
0.27286875
-0.63007617
1.0365901
0.2023404
-0.23051664
-0.50620705
-0.49997738
0.8708989
0.27675658
-0.7133144
-0.7718108
-0.8196442
0.37651628
0.329563
0.37534103
0.19194737
0.46553996
-0.7551905
0.6938624
0.8192069
0.67290014
-0.27904058
-0.6353305
0.49769342
0.828755
-0.2761957
-0.44319266
0.9840738
-0.123522505
-0.6290609
0.46023157
-0.6586896
-0.82907206
0.3668806
-0.23459141
-0.041705053
-0.6616426
0.9136523
-0.49367642
0.3776762
-0.07934545
0.06945974
-0.9404692
0.394936
0.803038
0.48179054
0.14804876
0.705391
-0.42331177
-0.8184834
-0.3745872
1.1850382
-0.3273238
0.16545312
-0.34432825
-0.7223297
-0.7124464
-0.7730318
0.46152672
-0.60702914
-0.67493045
0.11712116
0.6883315
0.8780726
-0.55077004
0.4305995
0.61526173
-0.03798523
0.8151515
0.7676686
0.12023877
0.16458985
0.61498517
0.20750704
-0.18595469
0.5311262
0.9069913
0.4517302
0.6857918
0.13363999
-0.5955433
0.1971439
0.8302388
-0.21192606
-0.3187273
-0.692273
-0.60618705
0.56352276
0.2061472
0.39237112
0.42094868
0.6725768
-0.62843597
0.43648836
-0.6581173
-0.13775758
-0.71961737
1.0004442
1.1942568
0.13959204
0.51778024
0.63677776
0.78223884
0.9148443
-0.90993106
-0.82623184
-0.55118656
-0.76260144
0.95759225
0.20278148
-0.6646704
-0.41305777
-0.8962446
0.88548744
-0.600369
-0.6226119
0.18706687
-0.29303515
0.7720927
0.103029974
0.78494644
-0.80754435
-0.5993776
0.91137946
-0.370741
0.17547569
-0.18972678
-0.46882674
-0.748257
0.761897
-0.18712856
0.33298886
-0.86082715
0.08314142
-0.5085083
0.8895315
0.5584244
0.20016536
-0.09626767
-0.94457674
-0.23431984
0.9358407
-1.0131435
0.28565738
-0.71240413
-0.3702829
-0.14502294
-0.41837662
-0.6177476
0.97614837
0.1728699
