192
0.6075004
0.4829278
0.66786945
0.17779344
-0.8052442
0.51480144
-0.2155478
-0.42681983
0.5950753
0.39593086
0.3005875
-0.0954869
-0.74523604
-0.77940303
0.28911904
-0.68872803
-0.7498411
0.43470657
0.6179436
0.13770519
0.31841844
0.62344235
0.45883057
-0.803358
-0.369332
0.7718887
0.19958472
-0.3045694
-0.48683864
-0.10765404
-0.34826988
-0.33308142
-0.3360919
0.25871837
0.8796228
0.20568909
1.1025649
-0.3636992
-0.17260766
0.15967229
-0.5931571
-0.39017132
0.5175938
0.6782182
-0.10908341
0.699392
-0.5430821
-0.1903473
0.8312769
-0.8045072
-0.086484335
0.6744967
-0.17432386
-0.21243031
-0.29834935
0.63513
-0.7850721
0.9405873
0.85521954
0.5122318
-0.9260125
0.9209996
0.26433584
-0.0412684
0.037836332
-0.4677554
0.38299042
0.8941415
0.90271384
0.324903
0.2559084
0.7671514
0.6214401
1.2853291
-0.4791249
-0.19083476
0.4034088
-0.7301796
0.7401458
-0.4094636
-0.3198051
0.90511316
0.16065857
0.1287143
-0.6491377
-0.025437236
0.29611087
0.5069001
-0.284495
0.60345066
1.0084631
0.35714722
-0.094931915
-0.122691885
0.37056562
-0.06457702
0.005907627
0.6455609
0.7055925
0.7267729
-0.045098998
-0.7185567
-0.11627216
0.7939639
0.59022975
-0.8354725
1.0630896
-0.3106702
0.18054006
-0.1363964
0.067788005
-0.83383095
0.8784697
0.7609754
0.66604155
0.97430086
-0.13489738
-0.6431877
0.86921746
-0.21836983
0.079359196
-0.13759378
0.70577705
0.4974594
0.4010604
0.6237119
0.66843444
-0.47018912
-0.738945
-0.13999082
0.3606326
-0.075941555
-0.13226473
-0.24432671
-0.85367674
0.86049604
-0.15718755
-1.1346182
-0.7870081
-0.6290516
-0.6032967
0.6098663
-0.35244185
0.13758078
0.79724234
-0.31102493
0.025809359
-0.6100548
0.69324255
-0.7567413
-0.061682858
0.71042967
0.8127219
1.0251098
-0.41369742
0.8895221
-0.7421971
0.31085053
0.38645262
0.063706905
0.065117285
0.106977455
-0.74412346
0.38042793
-0.0008834859
0.1263785
0.54685295
-0.73494625
-0.74843746
0.9748317
1.0468059
0.89677083
-0.5357118
-0.69594866
-0.7040879
-0.4530327
0.0007571019
0.60710907
0.2741886
0.68402994
0.46938682
0.27637473
-0.22275633
-0.54306996
-0.16413291
-0.26225793
0.61537623
0.83350325
-0.83712363
-0.026875615
0.87836176
0.36209464
