576
0.5325148
0.7714815
-0.11269957
0.764054
-0.5798882
0.72081053
-0.6945979
0.7911954
-0.72146034
0.115085036
0.8226311
-0.32680246
-0.6291916
0.63291913
0.6873398
0.35034075
-0.6263101
0.37036425
0.13022183
-0.19789785
-0.6248008
-0.5210867
0.241913
0.7274166
-0.3910754
-0.04779928
0.35112837
-0.65609676
0.6521013
-0.21638077
-0.27078947
-0.7182133
1.0821997
0.14456004
-0.21786295
-0.72767097
-0.023143
0.6900852
-0.3594131
0.95127463
-0.086467795
-0.39949617
-0.65578675
0.76402265
1.0120275
0.891988
0.8012837
-0.020211145
-0.6012525
-0.7227422
-0.6529983
-0.35106584
-0.07552213
-0.6538453
-0.72280014
-0.6496382
0.6066793
0.14319399
0.9369113
0.4342387
0.78332484
0.5007856
-0.60606074
0.5795264
-0.20652403
0.8849395
0.8534086
0.7408813
-0.7565616
0.9799465
0.76188
0.40046456
0.10964514
0.82707024
0.6717254
-0.5358024
-0.57540625
-0.49615753
0.9065762
-0.787305
0.7194282
-0.0050201267
-0.5877111
-0.663869
-0.6081428
-0.40697944
0.78167754
0.014611289
-0.79180634
0.666525
0.7065641
0.5750863
0.1727991
0.8263818
-0.6685642
0.7958871
0.027590916
0.32174423
0.8491952
-0.504723
0.8646317
-0.6557331
-0.5743458
0.90137184
0.83662915
0.038797498
-0.100680836
0.78766066
-0.61279273
0.1953193
-0.73437375
-0.57707083
-0.7804516
-0.6287186
-0.50603217
0.78759456
0.072523266
0.5868751
0.83714086
-0.601152
-0.7792786
-0.6435532
1.040836
0.8570426
1.0550821
0.56420916
0.7390307
0.62776816
0.52451134
0.48158926
0.4437452
0.3209255
0.89103013
0.09764088
0.25249356
-0.6990133
0.30390993
0.5545297
0.18273412
-0.70244056
0.51749796
-0.37206626
0.8652857
0.6912441
0.4562661
-0.76081276
0.72826594
0.31723946
-0.5082862
-0.4253096
0.8778469
0.7510794
-0.87240416
0.87706095
-0.6246265
-0.25394967
0.7963916
-0.7973589
-0.36564368
-0.053237084
0.49093926
1.0310849
0.4957227
0.7533343
0.26130077
0.82820475
-0.64269114
-0.6057215
-0.58543706
-0.7340205
-0.77933824
0.055086214
-0.8202678
-0.9050583
-0.6381457
-0.60879475
0.7619895
-0.76649475
-0.6693546
-0.51957244
0.5425571
-0.10867405
0.814874
0.78538865
-0.5806681
-0.029160257
-0.34850124
0.018163264
-0.62305987
0.94517064
-0.64293706
-0.76994175
-0.5665066
-0.78837156
-0.26807696
-0.6578958
0.09732011
0.7636866
-0.60995084
-0.3795112
0.78446305
0.74691695
0.93398076
-0.5937156
-0.8156495
-0.41812167
-0.22877055
0.6939707
1.0098989
-0.6242342
0.050917327
-0.713667
1.0646371
0.7834215
0.0480071
0.6942469
0.6297845
-0.8719262
-0.8038571
-0.3459725
0.53878576
0.876667
0.5169483
-0.07703367
-0.28552106
1.0645657
0.28599656
-0.79218864
0.7810923
-0.31139246
0.95312643
-0.7163177
-0.74167216
-0.62787163
0.39414927
-0.65265507
0.47092164
-0.69715726
-0.19765916
-0.21265939
-0.6479844
-0.6007565
-0.7784947
0.95304495
0.41006997
0.93730044
-0.02617451
0.6548606
-0.49431404
0.672139
-0.34857443
0.59663683
0.028337017
0.007768344
-0.7908558
-0.5848678
-0.16656119
0.40251294
-0.6797242
-0.48726505
0.6254666
0.6716885
0.42843464
0.18083335
0.81641936
0.90911114
-0.56812733
0.08797516
-0.55271804
0.302235
0.21241997
1.0211879
0.74103224
0.671519
-0.6206904
-0.7679892
0.63405377
-0.5671231
-0.13615261
0.784769
-0.6790724
0.4261564
0.53220195
-0.44733226
0.7287237
0.5275204
0.7125698
-0.70332754
0.5880428
-0.5804671
-0.19938844
1.1569973
-0.71289843
0.6962148
-0.58269596
0.5920081
-0.7315043
0.717054
-0.69511735
0.09271154
-0.68942046
0.6329979
-0.07249697
-0.73508334
-0.81289876
0.6009063
-0.35504842
0.7958735
0.4144635
0.70759493
0.80756503
-0.5697469
-0.06544762
-0.69679445
-0.14916855
-0.4944439
-0.7046503
-0.48951995
-0.7742153
-0.67668647
0.74294335
-0.57137126
0.002240505
-0.76370776
0.87128836
0.85046685
-0.6032444
0.7565131
0.88057435
0.6949114
0.8251811
0.8473623
-0.5464618
-0.42634848
0.8547278
1.0058779
-0.34165648
-0.30267477
0.10617821
-0.12406695
-0.6442521
0.13038218
0.6523765
1.0556958
0.7559616
0.5171136
-0.70493615
0.42350256
-0.5779212
-0.16039485
-0.6946183
-0.6960966
-0.64603233
0.75394607
-0.6679211
0.78411967
0.5155062
0.5722387
-0.3330171
-0.41567504
0.63439375
0.048043594
-0.68978584
-0.46855342
0.7421736
0.6753108
-0.5364457
-0.88716114
-0.60160047
-0.4435466
-0.5842499
1.0833662
0.5746365
-0.12285887
-0.6894493
-0.77422535
0.54167974
0.7244639
1.0966359
0.7781258
-0.668573
0.64038527
-0.6937429
0.028657781
-0.73074424
0.7774458
-0.5915976
-0.07673034
1.0321841
0.8901044
-0.5657966
-0.72449493
-0.4036648
0.7216023
0.8259165
0.9305057
-0.621395
-0.04447174
-0.23976439
-0.70255035
-0.80191094
-0.3914643
0.963925
0.78486055
0.41445112
0.88846695
-0.1580454
-0.7043276
0.84607023
-0.8891492
0.95753944
-0.66815925
0.28942496
-0.30249435
0.2781365
-0.6597628
-0.4624256
0.47567365
-0.09050224
0.92157716
0.31525832
-0.70020384
-0.07842806
-0.099220976
1.1271563
0.09648436
0.69445634
0.4769004
0.8085478
0.8473873
0.1442568
-0.5218178
-0.6018311
0.3056987
-0.09438439
-0.6396747
-0.35815322
-0.65550196
-0.45676935
0.65158963
-0.71132433
-0.40890393
-0.52234745
-0.5769884
0.71336764
-0.7078136
-0.29831374
-0.6999923
-0.26158917
-0.7077123
0.84797645
-0.7769555
-0.6660871
0.64274484
0.7691947
0.86100954
0.6412675
-0.65221447
-0.17658025
0.5340889
0.7269647
0.8178375
-0.6553018
0.50528
-0.7620433
-0.083829805
-0.74093246
-0.32939327
0.9708538
-0.11175189
0.9393044
-0.7579168
-0.120485455
-0.108876325
-0.70321435
-0.29016843
-0.78265
-0.62061465
0.87433577
-0.64145964
-0.22250532
-0.23641343
0.7975431
0.92950565
-0.0645117
-0.7291696
0.07820885
0.62980825
-0.6659213
1.0379412
-0.72378874
-0.30070743
0.8608948
-0.49265483
-0.48272124
-0.45490587
0.41177768
0.58503205
-0.6864754
-0.706198
0.5739733
0.8866795
0.9292179
0.8107966
-0.58421797
-0.74915767
0.5465127
0.9598288
0.33840916
0.62150145
-0.05613315
-0.79430044
0.6303826
-0.7075895
0.8801394
0.13300492
-0.6807574
0.7727008
0.7751272
-0.28603375
0.73677063
0.8505819
0.7582427
-0.85229677
-0.90530765
0.5362444
0.4543058
-0.81676346
0.8625658
0.21424657
0.4371575
0.49957556
-0.5181103
-0.7405981
-0.4720797
-0.26260543
-0.69916487
-0.6817263
-0.16203652
0.2677318
-0.22942314
-0.54676354
-0.700435
-0.56345046
-0.020259112
-0.6796342
0.78505236
0.7388263
-0.83864725
0.58187306
-0.7557722
0.8020878
0.20116933
-0.29894865
-0.6350898
0.782569
0.62451965
-0.57060426
-0.5702684
0.8249621
-0.7177327
-0.42784
-0.79718214
0.8810407
-0.37808803
-0.72125375
0.17716824
-0.2024405
-0.28581652
0.90776086
-0.63247675
0.6362647
-0.8751463
-0.6044895
0.3861677
-0.5629973
