576 1 3 3
40
22
8
32
12
-21
-43
-56
-50
-8
-33
-52
-28
-17
8
-13
-3
-12
-26
-37
-42
1
10
-8
6
35
59
-31
-5
-34
-12
-12
-6
-9
-23
-31
7
30
35
12
15
33
1
-17
-19
-19
-2
-22
5
-8
-36
8
-27
-37
-4
7
17
7
22
21
8
28
14
16
-30
-55
5
-8
-50
-39
-3
7
5
6
-7
5
21
3
3
56
9
-45
-24
-42
22
-6
5
24
16
21
-2
2
-4
-25
-17
-23
-10
-32
-15
-35
-44
-39
16
41
5
32
18
27
-23
2
27
-12
32
40
-18
14
26
-47
-13
-4
-1
-45
6
34
-47
-9
1
-16
18
-4
-62
9
-30
-22
3
-59
-22
29
-8
-23
42
-28
-43
40
2
10
-26
-5
20
25
8
35
51
9
21
9
33
-21
-38
-45
-45
2
-12
-5
32
-31
-23
45
-39
-34
39
-12
-38
-27
4
-1
0
43
28
15
-2
9
-1
25
18
10
13
28
24
47
7
-13
63
4
-27
54
9
-26
-8
-22
-39
52
11
-52
14
-1
-22
1
-18
-1
-34
-12
-2
-28
-17
-8
44
52
45
20
-16
4
-14
1
-18
24
5
-4
14
19
-42
39
-8
-56
-5
57
-11
-40
1
-38
-61
28
-29
-11
-28
-6
30
53
39
10
-6
-14
-36
-31
-16
-11
-11
-1
-13
-17
4
-15
-37
-33
-23
16
26
8
9
49
-23
-20
-31
33
39
57
-33
-14
-31
18
21
4
27
15
9
14
18
9
-6
-39
1
-7
-11
3
-39
-27
-35
37
9
59
3
16
13
-58
-37
-72
-52
-1
-2
0
17
-44
87
70
-50
2
-9
20
20
16
14
10
8
52
-28
-27
13
-68
28
51
-36
-5
32
-34
18
28
-47
8
-22
-14
-22
-24
-18
-39
-15
5
18
-9
20
41
37
-32
5
-2
-40
22
-27
-34
-6
-51
-5
35
64
-36
19
-3
-14
-47
-13
-24
16
9
-29
25
46
-48
4
47
20
28
40
18
53
29
-25
-1
5
-6
-50
-17
-40
-27
12
-12
-50
31
4
-8
2
-24
-22
-44
-28
-9
-27
-15
-16
-25
-15
-9
-17
-7
-17
-16
7
1
3
-13
-14
-67
6
-21
-22
62
-17
12
35
1
-29
19
-8
-65
13
18
6
11
18
22
-8
31
16
-2
24
15
26
27
23
6
5
3
-7
-8
2
10
10
7
41
19
31
-9
-35
-20
0
10
18
18
34
44
-43
-27
26
-48
-49
28
-26
31
62
4
27
26
2
16
17
11
11
21
15
10
8
-4
18
28
6
12
13
-3
12
8
9
27
29
5
43
16
24
12
24
-19
-11
-6
-32
-47
-27
11
27
32
-25
29
-23
-23
-33
-40
-10
-21
-7
-18
-23
-21
-21
-31
-9
-36
-50
-37
-10
20
-11
-1
21
18
-13
-19
-3
-16
-9
-2
-25
-27
-7
10
-32
-12
-14
-11
-46
18
21
-25
33
47
28
-23
-3
10
-1
14
-16
2
-19
-20
-13
-23
-31
-9
-41
-3
36
8
51
13
13
9
-9
-56
-22
-13
7
12
-27
-17
-7
-46
-19
-25
-49
-32
11
-11
17
10
-73
-38
6
18
8
-23
0
-40
-14
-4
-24
-28
16
7
14
31
21
32
28
4
19
-34
-4
-9
-18
-22
5
-14
-29
-36
-27
-20
-35
-2
6
-10
-16
-26
2
48
8
-35
9
-26
-45
24
-3
-48
-41
-16
-30
21
32
27
-41
-27
-29
-20
-15
5
-25
-16
5
-7
-12
-39
4
-10
8
5
-21
-59
21
-26
-21
-11
-26
-1
1
7
1
27
51
37
6
54
27
-30
28
-25
-53
63
7
3
19
39
-17
47
49
-35
-13
-9
-24
-14
-36
-33
-28
-18
-2
2
-3
20
9
17
1
-3
81
22
4
24
-3
-6
-46
-7
-19
-29
18
-3
-52
-8
-42
-34
13
2
-30
26
18
32
-32
-6
1
18
12
23
-6
51
16
17
9
-27
41
28
-3
11
26
16
-12
7
17
-10
37
31
-5
4
27
12
36
50
13
12
30
-17
-14
-33
5
19
-15
-57
-14
-31
-14
-11
-15
-38
-47
2
-19
-15
-33
66
43
6
16
9
12
2
11
38
26
32
8
-3
-9
4
-36
-44
-19
2
-10
3
12
-24
-20
10
-31
9
8
-55
-24
7
-22
-14
19
-7
-14
4
-27
-46
-29
-39
-73
-16
24
12
6
18
21
-23
-17
-42
-7
5
-4
-38
-9
-29
2
9
0
12
12
8
18
34
24
-29
-31
-28
-18
-11
-26
3
5
-3
43
22
-28
26
16
-41
28
-19
-46
36
1
-46
11
-17
-13
29
-7
-56
-20
-13
-17
6
22
12
-40
-59
-37
8
9
-17
45
19
-16
12
33
-7
-19
0
-2
-43
-19
-19
-11
-8
-30
-21
7
10
-14
26
49
4
26
21
-10
-12
-8
14
4
24
14
27
33
-19
-35
-40
8
14
8
-27
-25
-37
-12
24
-16
-23
-26
-33
-26
2
-20
-13
71
-47
-19
45
-62
-6
7
-31
-25
-5
-37
-9
-21
-6
18
50
24
-1
25
-5
-6
-30
-23
-22
-28
-32
-4
-25
-20
23
30
44
17
15
15
12
47
32
2
19
-5
-79
-43
-27
-6
16
32
-2
9
32
14
-2
28
8
30
14
0
24
72
-7
24
-49
-7
15
16
7
55
15
7
33
14
12
43
25
10
28
0
7
3
-10
-19
18
1
-50
18
43
-33
23
66
11
-15
-2
-13
-24
-6
-23
-20
-25
40
-80
-64
28
20
-5
-8
14
4
-69
-13
-38
-26
35
4
-53
20
0
-2
-25
-16
-20
-8
-31
2
-34
-20
-2
-8
11
22
41
32
-2
4
-2
13
21
25
12
9
11
26
6
18
-22
13
-44
-4
29
69
-11
19
39
-23
-30
-16
-41
10
-28
-12
-6
-34
-16
-26
-44
10
-15
-31
-11
-10
-3
-11
7
-22
-34
-29
-34
-23
4
-15
9
-43
-11
-1
-40
-13
7
-17
-12
-14
-12
-50
-23
-10
-23
4
3
-4
-24
-36
11
-12
-16
10
-22
-33
-6
52
-44
-20
47
-47
-44
15
9
-23
-41
-27
-19
-3
0
-19
-11
14
6
48
-1
6
11
-8
-69
46
-43
-63
-17
-1
-28
22
42
25
-55
-44
-49
-37
-35
-1
8
-4
-17
-9
-18
-37
6
-8
-48
45
-1
-35
45
6
-25
6
35
27
-36
-8
-31
-7
-18
-18
18
26
18
15
27
23
-10
17
2
-47
-13
-35
-12
0
-7
28
26
15
-22
2
16
-13
-17
-40
-5
-36
3
-44
-40
-1
-32
2
-25
-3
74
23
-2
14
-8
-7
35
15
2
44
9
-22
-18
-34
-12
-31
0
-1
8
24
47
11
-70
26
26
-64
7
22
48
-7
-27
-30
-3
-30
-13
-9
-10
3
-27
-21
-1
-29
-15
-39
9
6
11
-50
28
-58
-53
-1
-17
18
-7
16
-19
-2
-4
26
32
40
23
18
21
-2
-11
-11
-2
-14
-24
5
-31
-30
16
-37
-46
19
-26
-12
19
5
-15
46
14
-19
48
17
11
25
-13
-29
-33
21
-23
-28
70
1
-43
77
6
-11
-28
-30
-6
-6
-12
-17
-8
-27
5
-28
-44
3
-31
9
-1
-20
-12
27
4
15
20
-1
9
19
36
27
-28
-17
-21
-19
4
-15
-19
-18
-2
-12
4
-4
42
-5
21
16
24
28
-43
-41
-23
-25
9
44
14
30
35
-44
-30
-24
-34
-23
-25
3
6
22
13
19
8
-8
13
-13
22
63
20
-39
-32
-38
17
11
4
30
50
32
26
0
-28
29
18
-54
39
9
-44
34
18
-13
-8
-32
-39
4
-4
-37
10
-28
-13
-8
-33
-2
-6
-45
-25
-17
55
-52
-6
-14
-42
-35
19
-36
-3
-24
-3
-31
-9
-20
17
2
-53
37
-23
-87
-9
27
-60
32
33
-6
-13
-17
-23
-18
-22
-14
-10
-22
-11
-11
1
-5
-8
41
64
-14
19
16
48
62
33
9
-30
0
2
1
7
9
38
53
5
4
39
-17
-24
5
2
0
6
6
18
16
12
53
43
21
14
11
17
27
3
3
35
16
6
18
-10
33
-19
-37
49
-6
-44
10
2
2
19
14
22
20
8
24
-7
8
22
31
38
12
25
18
-4
-9
14
4
28
26
25
10
32
27
12
20
-1
2
46
-1
15
2
19
-19
-12
-1
-21
-6
-17
-14
-53
-7
27
30
44
4
7
3
10
14
2
-8
-6
-11
6
35
11
16
38
27
-7
-16
-23
-26
-9
8
43
56
30
27
13
3
-23
-39
-17
-11
-42
-36
31
-4
-41
38
-5
-23
46
1
-29
-13
-17
14
-3
-14
-3
-34
-34
-20
-2
-1
-13
17
-28
-13
-20
-43
-21
5
61
51
-21
1
13
-11
15
1
-29
-31
-17
-20
3
-26
15
46
40
24
51
27
-5
30
-21
-45
-14
-14
26
32
50
15
13
-19
-33
-40
-46
11
53
26
-17
37
18
-26
7
9
-21
-34
-27
-20
-25
-17
1
-12
-4
-5
-10
8
9
10
20
17
19
55
20
18
-12
8
41
5
-11
25
38
-8
15
-1
8
52
46
-33
-2
-29
13
13
22
14
24
30
-1
4
20
4
32
37
-17
10
50
-22
-24
-19
-7
12
52
-35
7
48
-15
-22
35
24
6
-30
12
-1
-30
43
22
-49
-24
-20
-28
-28
-6
-28
9
-5
-1
-4
16
4
-6
38
20
27
15
-5
-25
-29
-24
20
40
37
-2
30
-10
13
-6
-5
-1
-13
-16
-37
-29
-24
-14
3
-2
-24
-22
-24
-18
-19
-21
-1
-4
-5
-29
-37
-27
-3
-17
-24
-3
5
-19
24
40
2
21
26
10
21
14
13
7
8
22
10
12
19
-31
-23
-10
7
43
32
-26
17
34
-40
-15
-29
18
1
14
22
33
36
12
10
-31
7
-15
-12
-12
-14
-60
-19
-7
-2
-49
3
-13
-25
3
-57
19
-8
-29
39
57
49
16
-34
-9
-24
-46
-46
5
-11
-9
14
66
11
23
16
46
9
9
18
1
-4
7
-22
3
-43
-34
3
-20
-34
-28
-11
-4
-14
-10
6
-20
-12
-4
-25
-32
44
20
53
-5
-7
-10
-30
-30
-47
15
0
-40
0
-32
-29
18
-10
-29
-40
-18
-6
-32
4
14
-18
-10
-14
13
63
42
20
32
33
10
-15
-1
8
24
14
3
23
47
-1
-1
10
-23
9
23
-25
30
18
-34
16
14
-4
31
3
-27
22
-16
-34
1
-69
-6
-3
-6
-1
9
-31
-13
-33
-55
-3
14
-14
-67
-50
-53
37
31
37
-26
-29
-21
-17
3
8
20
35
18
-6
-1
2
-29
-26
-20
22
45
17
-16
11
-36
-15
-9
-23
-30
-39
-14
-29
-6
20
-67
21
29
-62
-4
18
21
17
21
6
27
21
8
8
10
-5
-2
6
-41
-34
-2
-18
-37
0
-41
-46
-7
24
23
-13
20
31
37
-16
-8
-25
-11
-28
14
-20
-22
-31
17
8
21
-17
-2
25
5
13
60
2
36
-24
26
20
6
27
43
-20
-8
-2
-11
24
12
22
25
19
16
19
21
9
-5
10
-25
-16
-35
-49
-1
7
7
13
31
32
6
14
1
5
-30
-29
13
-22
-31
-6
-33
27
15
16
14
21
14
24
15
12
-16
56
-34
-65
35
-7
-29
-66
43
91
-26
-49
-36
-16
4
26
4
29
48
1
-1
-5
28
63
45
-26
-11
6
15
13
15
17
10
-36
48
36
-13
20
18
10
18
10
31
18
8
-10
-21
-7
-12
1
-25
-33
-2
-23
-29
-46
-32
-40
-20
5
10
25
11
6
-3
-2
-13
-13
-9
-30
-13
-36
-31
-26
-36
-41
-24
0
6
24
25
49
-5
-6
9
-8
-22
-24
-24
-32
-5
-44
-12
3
31
63
4
0
-1
9
4
-7
12
-19
-24
5
-17
-50
-19
-33
-5
2
-30
29
54
-35
39
13
-8
11
17
-39
-41
-12
-14
-21
3
-18
-9
-31
-20
-24
-25
64
30
16
-32
-36
-48
13
9
4
15
37
30
31
62
32
-11
25
0
-23
40
2
61
62
15
0
11
-26
14
20
-5
-42
84
-22
-1
13
75
-35
-55
-11
-15
10
29
-81
19
-7
-21
0
-57
-1
8
-14
21
51
12
7
18
6
22
5
6
7
30
67
-1
-24
-17
42
12
0
-26
-33
-26
-18
-39
3
-20
-49
2
-12
-30
-20
17
10
-12
1
23
44
-43
40
-28
-55
-19
-47
-14
-47
-42
-8
-25
-4
29
38
29
-1
-25
-4
-7
-20
3
-6
-32
-29
-14
-21
1
-32
-4
-36
-34
-6
-19
-19
-14
-12
-2
4
1
36
31
41
-24
71
75
-15
-5
-32
-38
-5
-34
-29
-1
1
11
11
32
-26
36
51
36
16
27
-30
-13
-7
3
-59
-22
-54
8
16
-68
3
14
-35
17
18
-15
-1
-16
-8
-21
-36
-28
-37
-4
7
-34
14
-7
-19
-21
0
-48
-28
-11
-30
-5
-24
-15
-27
-38
26
-29
-9
76
8
-36
41
-14
6
19
-1
13
10
-19
5
13
-6
47
42
36
-22
-20
-14
-14
-12
-17
-27
-1
7
-17
-12
8
-3
13
27
5
46
23
-20
-6
-32
18
-4
-47
38
53
27
-20
0
-39
-4
-2
-16
-21
-20
-23
9
28
11
6
36
16
4
4
9
-19
35
36
-34
2
37
-35
-45
-29
43
-26
-67
32
-15
-41
1
12
-19
-27
19
16
-14
30
68
-40
-7
8
-42
4
-14
-36
-1
-18
-9
10
-20
26
18
-11
6
-3
4
-56
-55
-5
-28
-33
-6
-15
-15
-7
-5
-17
-7
4
32
80
6
-10
11
7
-5
15
-23
-6
9
-18
-24
-4
-9
-19
-20
2
-1
1
-8
36
35
-30
25
29
32
30
-39
46
29
-86
23
29
-51
-19
-14
-29
-28
-15
-32
-40
-6
-13
0
47
20
16
14
29
4
-15
9
-55
-3
-43
3
-5
-18
-1
-12
-2
36
-16
4
33
22
-6
30
-4
4
17
-22
-21
-12
-30
-19
-1
-15
-12
14
6
13
15
28
23
4
9
10
1
-16
0
-25
-27
-20
-11
-12
-13
-12
-10
-1
18
29
18
29
20
21
10
-38
-61
33
41
56
-52
-52
-13
2
35
48
-25
19
41
10
35
6
-5
9
0
-15
-28
-9
-21
-21
-33
-36
-17
-48
33
14
26
21
7
12
4
27
18
18
6
6
19
16
-1
5
1
11
28
7
38
20
8
18
-30
-31
-67
4
-7
5
0
2
6
-41
5
-8
-18
-22
-15
-6
81
38
-39
-15
-11
-6
5
7
-45
-26
-20
-5
-23
-39
2
-10
-43
-6
25
9
7
27
9
-7
-14
-21
-36
-35
-36
-3
1
8
-32
-44
-18
11
-38
-6
9
33
46
-15
-9
-44
-2
35
28
-29
-24
-39
6
-7
-16
19
26
33
4
18
38
37
14
44
6
12
-2
0
-9
1
-32
-35
-34
33
23
42
-14
17
18
-8
11
50
-31
29
27
10
21
19
11
27
10
7
18
10
9
60
-9
-29
42
-21
-14
38
-28
19
17
4
12
28
20
26
19
-15
7
-6
-21
16
55
-3
17
14
22
30
23
18
-15
-20
-24
-20
-57
-39
-6
-9
4
10
30
11
13
29
18
-38
6
-41
-34
-18
-7
34
31
38
28
-18
20
13
-11
5
39
30
13
-9
-33
-34
-11
-5
0
2
-26
-25
-19
-15
-23
-7
2
-18
5
-43
-43
-12
-8
0
16
26
33
-8
40
13
1
-19
15
1
-56
14
-34
-31
1
-8
-7
-32
2
-9
-7
-40
-21
-23
-20
-31
-3
-18
-6
-15
-7
-9
-17
-5
5
-5
-6
-19
-33
-32
-11
-19
-15
-14
0
-15
-15
2
-29
-32
-18
-21
-8
-15
18
19
20
-10
28
42
-22
8
-32
-19
-2
2
11
46
46
-17
-16
-24
-9
-21
-17
-21
-13
-7
-20
-11
-29
-10
-15
-11
-23
-11
-20
21
42
69
-60
8
-2
-2
0
-31
-40
-6
22
-53
22
59
-8
16
11
-8
-1
48
-30
-9
36
-37
-24
-4
-9
16
-17
-1
13
-63
-25
81
-27
24
24
2
18
7
41
-14
8
4
-26
-78
-14
-9
0
10
35
-15
30
-3
-15
-7
-40
-34
42
-23
-27
-15
-36
-2
-37
-14
-12
-20
-31
5
-25
-10
-35
-18
-26
-26
-13
-2
-12
9
4
-47
-25
5
-22
-21
64
-57
-5
37
36
53
17
16
8
-8
2
3
-15
-29
-55
-2
-5
-26
22
32
11
-8
2
6
1
57
36
-14
20
-1
-17
-47
-31
-8
28
6
19
25
39
-3
-7
0
24
26
17
18
13
28
3
-11
8
12
7
50
13
19
38
37
44
-5
25
3
36
6
-7
0
17
-15
-29
-23
-58
-31
3
-5
31
-18
24
-3
5
34
60
-10
22
24
-8
10
13
-30
-23
-29
-23
-4
-18
43
-17
-36
24
0
-42
43
-10
-57
19
-9
-29
1
-5
-19
21
-23
-46
43
27
-38
45
5
-28
-4
45
-43
-10
-45
62
-36
18
42
-42
53
5
-25
-19
-65
-11
4
-10
-28
11
10
-43
20
-22
-45
-7
-11
-39
80
5
-5
8
0
7
13
48
16
18
23
-33
-19
4
-24
25
16
6
11
75
19
6
3
7
-30
-36
-25
-29
-31
3
-37
-1
-9
-29
22
-14
-47
4
-12
-22
-28
25
21
35
13
12
5
9
26
19
-10
38
13
-3
29
13
-3
-24
-9
30
35
5
35
17
28
-35
-23
13
-4
14
-3
6
45
48
-2
9
17
-7
3
48
-26
4
41
-24
-12
-8
-15
-19
-46
-7
-28
-5
-12
-25
-19
-13
-5
-1
0
-17
-40
-26
-22
-19
-13
11
2
20
21
39
-27
-2
-6
15
3
15
22
27
52
15
21
17
9
14
14
8
1
18
15
18
-2
-20
-9
2
-49
-34
-30
7
-5
-4
-10
-32
-28
-15
-10
-9
-18
-47
-24
-41
-4
-6
-23
-29
-18
-25
-3
-17
-9
7
7
-32
-18
-40
37
18
27
23
4
19
-3
-1
-4
-38
-48
-8
29
-14
-25
17
-15
-18
33
23
45
23
19
21
10
21
-14
20
14
28
28
38
13
5
-36
-68
-2
24
-5
11
26
25
-1
37
40
-4
16
-11
-38
4
-21
-46
4
-36
56
-1
-3
41
0
-50
48
9
2
-33
-23
-39
-11
-1
-4
-7
31
58
-25
-34
-27
-11
-8
-1
-12
-32
-32
-19
-47
5
-38
-45
-1
15
-2
23
29
67
37
14
3
-4
-23
6
-31
14
25
20
7
19
40
6
-4
0
3
31
49
-33
-18
-41
16
14
8
21
0
13
-16
-25
-39
-24
-14
-25
-13
-19
-6
-22
-13
-1
3
-33
-31
-9
-14
15
-39
-15
-27
-13
-16
-38
0
-4
2
11
18
10
18
24
20
9
26
25
9
67
-17
-58
-8
-49
36
21
45
10
2
16
-6
-57
-22
5
8
2
10
18
0
15
33
28
-9
44
5
-28
4
17
19
8
65
32
42
38
-47
-39
3
17
17
27
0
-23
-24
-28
-26
-32
-3
-12
-18
-2
11
1
-34
-6
-29
-18
-23
-36
-44
-25
-27
-24
-11
-6
-13
36
27
-22
-18
-17
-8
-21
-18
-17
-8
-18
-42
-31
-18
-6
4
14
34
27
29
6
6
-10
5
19
7
14
37
32
-16
2
-14
-20
-27
-15
-24
-18
-12
16
12
36
29
16
45
14
26
26
-25
-23
-34
1
-16
-1
3
-27
-40
9
13
-35
-2
3
5
64
21
81
22
-9
-24
34
30
-47
28
-15
-66
-21
-25
-19
22
48
32
7
-15
-9
31
27
40
-1
-8
2
-25
-62
-41
20
59
-2
2
37
7
-20
22
18
-30
-16
3
1
31
5
14
30
28
-35
-1
-16
-54
-8
45
35
-45
-46
42
21
36
-34
0
-25
-14
-11
-17
-15
-19
-40
-4
9
-22
-28
-7
-32
18
-11
-46
33
-6
-36
32
-10
-33
-2
12
23
9
12
18
20
10
10
-66
-5
24
-41
26
27
-9
-28
56
1
-3
5
-29
-53
-18
79
39
-7
-27
-27
-22
-13
-12
-9
-23
-29
-27
42
59
-23
-6
19
-33
39
-44
-49
5
0
-14
-13
-30
-49
-16
-27
22
-16
-25
-6
-35
-34
-36
17
-7
36
-24
-29
-11
16
-6
-20
-3
-6
-47
-6
-25
-47
20
-31
-19
15
-18
-34
21
4
44
29
-16
14
-12
-41
-56
43
19
13
54
35
-35
-17
29
-42
18
41
-40
23
45
-45
16
46
-25
-33
-31
-9
3
-10
-49
37
17
26
-32
-40
-47
-6
22
22
17
34
27
27
35
13
6
67
29
-19
5
-1
13
-8
-5
-30
-31
-18
20
48
43
-4
3
12
25
36
29
24
19
-3
47
17
32
24
3
31
-20
-20
-34
10
5
5
-23
-30
25
-35
-16
-33
24
49
39
-16
-12
20
3
2
13
-25
-9
50
-18
3
65
-34
0
8
-10
0
-19
-7
24
53
17
18
14
0
-10
-13
24
26
13
36
7
21
-16
-24
-17
-13
-25
-43
4
-4
4
4
-5
-1
29
40
41
-3
-5
12
-24
83
50
9
19
0
-19
-7
-32
14
19
53
16
29
30
12
-45
5
-27
-38
-42
-13
-62
19
35
69
72
-8
13
-3
11
27
2
20
38
46
-8
-27
-25
3
-29
2
-22
-25
-16
-5
13
8
8
51
18
-3
22
16
5
18
11
-22
-17
-24
26
50
33
-23
-16
-4
-19
-7
-18
-8
-13
-2
-4
-15
-45
-26
-11
-20
-7
10
-31
5
-9
-13
-11
-33
-36
-17
-15
-19
13
-8
-24
-13
-21
-45
13
0
-7
3
9
14
15
30
17
7
2
21
-17
-18
10
-27
10
40
-67
19
59
-3
14
8
-3
-43
-37
-30
-14
-11
-38
2
0
-31
-10
-4
-41
-19
14
10
-32
-49
9
9
-47
19
7
-61
14
21
10
25
37
8
13
10
13
-11
-7
-33
18
-7
-47
9
-10
-19
11
49
23
-8
22
-1
8
16
3
-25
-11
-27
-37
2
5
20
51
35
-12
17
0
13
33
31
-1
28
36
-35
28
2
-59
69
-22
-36
45
5
13
0
-11
7
-47
-18
14
-69
-27
-35
-27
-34
21
20
-1
4
33
11
-29
-27
-18
-6
15
-4
-25
-31
-42
11
26
14
32
24
28
5
8
16
-6
33
-36
72
12
-28
63
-31
-32
-27
-16
-31
-6
9
2
1
40
39
16
14
13
13
10
26
9
17
8
-28
19
7
-20
28
29
-61
23
28
8
1
25
20
22
58
14
5
24
20
16
9
26
53
-55
17
27
-29
-11
-12
-33
-3
-27
-14
5
-24
-24
-3
13
12
10
19
29
17
13
4
-54
29
28
-43
20
22
-40
-3
36
-38
-28
-25
-4
7
20
-1
10
69
-15
-5
-30
0
-33
-31
0
5
-17
-13
-26
5
-10
-14
-18
-21
-42
-17
-17
-16
-24
-3
-13
-25
20
40
40
-7
12
16
7
39
10
6
23
19
-33
-31
-47
16
33
47
-32
-1
-52
-28
-28
-25
-20
-39
-12
25
16
13
-6
2
-4
42
26
21
2
9
9
-5
-47
-3
-9
-27
-18
-37
-25
1
6
-2
2
32
26
49
6
13
2
-13
-29
-42
-5
23
15
8
44
29
-30
-6
-24
4
-15
-22
-20
-28
-36
-19
-19
-49
12
60
41
-9
-2
-7
-10
-36
-11
-3
12
4
-11
51
54
-13
4
-1
41
28
47
-28
-19
-4
-26
-42
-34
-2
36
58
-15
-34
-51
-7
-6
13
-37
-26
-15
-14
-26
3
-5
31
16
10
-12
3
31
34
28
-25
8
46
-6
2
42
-39
14
35
-4
-30
-50
-15
-17
2
30
-33
4
-4
-32
-20
-18
-1
-2
-17
-18
-25
-31
-11
-17
-11
0
5
0
-65
-30
-20
-20
-20
-13
-3
-12
-6
-18
-33
-4
13
6
-2
23
34
-6
21
23
3
10
-4
10
65
24
12
24
13
-46
-16
-21
-5
-15
-31
16
7
3
-20
-19
-39
-27
-19
-33
-11
12
-8
-17
-54
-10
33
28
42
-15
-40
-37
-29
-22
-49
-11
-5
-14
6
2
4
-48
-18
-45
26
-11
7
29
0
43
2
9
-1
-6
12
-12
31
81
32
10
-38
10
2
-36
7
-11
-48
7
23
14
29
26
3
21
0
17
5
-32
-19
-10
-13
-9
-8
-24
-11
-24
-71
10
18
-75
-15
1
-19
51
27
18
13
0
16
18
18
53
-18
8
-19
-20
-11
-17
-30
-8
-34
0
-10
-5
-10
-46
2
5
4
-12
-38
-21
-27
-40
-24
4
0
10
39
32
33
-16
-32
-32
8
-8
-5
-14
-30
-5
-23
-26
-5
-22
-18
-1
-20
-19
-5
-10
-10
-31
-17
-7
-26
-8
1
-7
24
11
37
39
13
2
8
19
6
23
12
27
28
4
15
17
33
8
18
3
8
-20
-58
15
-17
-47
-1
12
30
34
-11
-23
-32
-34
-27
-13
5
31
21
4
24
33
-6
18
29
-16
11
-17
-37
-25
-33
1
-17
-1
-39
-25
-20
-15
-20
17
13
1
26
-50
-29
3
-28
10
-13
-32
-1
-18
-46
-30
-27
-31
-35
-1
25
27
8
-11
6
-13
-6
61
15
8
22
-2
31
38
9
7
27
4
-10
14
8
4
-21
-34
10
6
22
-1
35
40
-28
-13
42
-56
5
35
-33
-24
67
4
-23
6
-6
21
23
25
32
42
-3
12
-3
9
48
3
16
30
-3
-23
-18
-25
15
-29
2
33
50
7
-21
32
-17
-31
-1
28
-66
-22
-4
20
50
21
-39
44
12
-35
-17
-26
-54
-33
27
8
25
72
7
8
32
-3
21
26
-37
-20
-38
16
40
62
-6
-2
-17
16
34
5
20
27
14
81
-6
-41
23
-10
-12
10
-9
-25
6
15
5
14
35
27
0
31
11
-3
6
-5
-47
-39
-13
1
-14
-7
-7
6
-46
-11
-14
-31
-9
-15
-8
13
31
17
-9
7
0
17
29
42
-20
-26
-15
23
19
7
-67
-28
-52
-11
5
-4
9
22
28
10
19
31
-59
13
-32
-21
35
6
-62
20
-38
13
35
-21
-27
60
-33
-35
1
-52
-3
36
-51
-14
64
-36
-10
24
-35
20
12
-1
9
30
50
1
7
10
21
-21
-33
-3
-3
-3
-26
-50
-11
9
-24
-8
3
-31
-25
3
-14
-16
-7
1
-10
8
26
-9
18
65
5
29
84
35
7
-10
-5
-4
-4
-10
16
4
-19
8
-29
-34
3
-27
-43
9
12
-2
14
39
27
0
33
5
-44
-25
-33
35
10
16
34
28
26
-2
57
0
8
21
21
13
17
21
-5
-10
-5
-16
-29
-35
-28
-5
-8
-34
-8
-20
-17
32
32
4
29
27
0
23
32
12
7
22
12
18
15
64
4
-13
39
-7
16
-16
-68
-30
-42
-18
-72
9
59
21
-7
31
17
-29
25
16
-52
19
51
-47
22
12
-11
-5
-23
-27
-26
-14
-24
-2
-13
-17
5
1
2
32
17
-2
32
47
20
-23
-11
5
0
-3
-29
-26
-44
42
-7
8
23
29
40
0
16
27
-19
45
28
1
24
31
-27
4
-2
-29
-39
-26
-14
-20
1
25
4
24
85
37
-29
61
17
-38
-4
5
-1
