384
-0.93404484
0.209675
0.6754099
-0.49716565
0.2999911
0.65253395
-0.31202295
0.5556827
0.533575
-0.6153348
-0.53784746
0.6339402
0.6811941
0.5897204
-0.24567765
0.22209454
0.8798022
0.7764485
0.5031937
0.12472077
0.53224653
-0.37553817
-0.21926159
0.52324814
-0.37061536
0.8479928
0.06753947
-0.8265313
-0.74545175
-0.018515147
0.41416597
0.5409698
0.06512534
0.14173594
0.929847
0.31974882
-0.8314719
-0.8597471
0.67735636
0.88069886
0.8978147
0.5629911
-0.49150354
0.981642
-0.45251465
-0.9229573
0.21336007
-0.3927114
0.766056
-0.57131577
-0.7041039
-0.6793909
-0.7918094
-0.1770927
0.343264
0.6747261
-0.4200596
0.25787386
0.25109607
-0.3193984
0.10281977
1.1252555
-0.10097914
0.38949445
-0.20065263
0.42537963
-0.09720074
-0.8197399
0.65202916
0.031759433
-0.7042757
-0.16857766
0.50653285
0.23562445
-0.7996341
-0.618196
0.5288989
0.6033536
0.41733077
0.17954025
0.8646012
-0.9545459
-0.06265421
0.9735523
-0.026817424
-0.27979243
-0.5901559
0.54356396
0.68310255
-0.72116816
-0.4219763
-0.6859254
1.0176684
-0.31098053
-0.20627397
0.25220668
-0.34549326
-0.018066596
0.4075817
0.8069355
-0.45535144
0.5309443
-0.8044202
-0.84993935
-0.2936719
0.6833674
-0.31203192
-0.2588099
0.9248174
0.618525
0.86132574
-0.9315685
0.03885173
0.968672
-0.5778815
0.63771296
-0.5734546
-0.21804684
0.11304443
0.44220942
0.68632954
-0.8291453
-0.7552242
-0.011799265
-0.27111787
-0.7527945
-0.04024118
1.07312
0.04490854
0.8510645
0.63562626
0.7850311
-0.39102897
0.4909008
0.78954756
0.93836063
-0.5747783
-0.23204027
-0.009874966
0.21287012
1.2107056
-0.1586684
0.21049353
-0.20059302
0.32915962
0.26333305
0.9496525
-0.24101411
-0.43545723
0.7189906
-0.74067223
-0.17527927
-0.22101967
-0.44179332
1.2644527
1.057966
0.90970933
-0.38574952
0.56041425
0.03724915
-0.3384425
0.022303544
0.2726372
0.6619519
0.15034929
0.17669865
-0.07667004
1.0158808
-0.27848655
-0.10158749
0.4255247
0.25135666
-0.83262485
0.40690994
0.26696044
0.22278929
-0.80478466
-0.7386881
0.47384325
-0.24121967
0.6972382
0.07791907
0.12878296
0.7311985
-0.058695793
0.07913371
-0.5896729
0.5982773
0.9739412
0.9084546
-0.8411645
-0.31004637
0.3050355
-0.1752895
0.34234685
0.07217132
-0.8368468
0.26358804
0.7896405
-0.23231176
-0.69876194
-0.5835181
-0.6425678
-0.6596253
-0.31823695
0.8662813
0.6073375
0.13007313
0.18819983
0.8939334
0.8476058
0.5213969
0.17248866
0.22092143
0.034987524
-0.20210835
0.6630389
0.18794
-0.8710588
0.8026022
0.9485128
0.1604743
-0.048598576
0.3571546
-0.8740437
0.19586103
0.46941233
-0.60898834
0.4511797
-0.105626345
0.5915308
0.26223657
-0.020048361
-0.3963861
0.9916728
-0.91870767
-0.4644673
0.16768922
-0.5426693
1.2796175
0.62186915
0.8009933
-0.4327049
0.2731845
-0.75971574
0.86730325
-0.6089452
0.41921705
-0.72719926
0.43155545
-0.18199359
0.92908776
0.9933225
-0.25875366
-0.23323642
0.60704195
0.8373296
-0.6641274
0.6907497
0.6112439
-0.19104894
0.19453238
-0.66439396
0.46680677
-0.8385284
0.8663933
-0.035223886
-0.5486312
0.035395622
0.39353037
-0.5681486
0.5122146
0.4603162
-0.78881043
-0.020644581
-0.72721094
0.85598946
0.60899055
-0.80591744
-0.8277248
1.2314801
1.0173047
-0.08925847
0.58729994
-0.7953843
-0.3028173
-0.219785
0.9128692
-0.5622124
0.47049618
-0.24742678
-0.76679504
1.1989895
0.39260215
-0.66641957
0.7693501
0.72503465
-0.95477885
0.9848499
-0.67656744
-0.21126717
-0.65954626
0.91117084
0.47114348
-0.42242214
-0.70305073
-0.04476009
-0.60439897
0.1990838
0.60516
-0.6488068
-0.50732046
0.71724415
0.5921425
0.055133536
-0.32972825
-0.76953495
-0.17499499
0.7372613
0.25295743
-0.28203863
-0.85774875
-0.82198846
0.2748395
0.12773532
-0.48820943
0.9030346
1.2670848
0.6122385
-0.5112425
0.114106044
1.1532762
-0.9249199
0.9216793
0.3521109
-0.67506593
0.7187669
0.8153859
0.5267863
-0.2916276
-0.24566662
0.9083926
0.72531307
-0.43736225
1.0456734
0.76634324
0.08024771
-0.6031226
-0.096259914
-0.84502375
-0.7313573
0.19018003
0.7885488
-0.46867108
-0.35451418
-0.090517305
-0.3080636
-0.13434666
0.1650021
0.46021083
-0.12903303
-0.026828673
1.1417248
-0.06037713
0.38597977
-0.41341338
0.790433
-0.06626843
0.5112853
-0.248813
-0.79268026
1.0628842
0.63013244
-0.6776619
0.5539142
0.47202381
0.30332366
-0.82162493
0.8610228
-0.32353362
-0.8791798
-0.54544693
-0.48074
-0.43759522
