144 24 1 1
-25
53
13
5
-3
9
-5
-18
-7
33
-16
47
9
-21
52
-26
8
-69
-23
-26
19
-113
20
28
-3
-48
-3
-83
38
-55
-14
22
-49
-31
47
19
-3
23
7
-13
16
-6
16
-18
-8
-32
45
34
-20
-35
-29
-29
-8
-52
34
21
-45
-29
11
-33
8
21
4
1
23
-16
20
-50
48
19
19
18
18
64
-15
11
-27
45
-36
-28
42
63
-7
12
-11
-36
-54
32
-21
0
-35
-53
-9
-28
-27
-20
7
-5
36
-25
-33
72
73
3
31
36
-39
3
28
5
24
12
-19
-16
-36
-40
-34
20
18
17
30
17
-19
-21
3
85
36
44
51
20
14
0
-12
51
5
42
-8
40
-4
48
-11
-4
9
-10
-12
2
16
46
-1
43
-73
106
0
-42
-5
-48
-14
16
22
-48
4
-104
-92
10
68
4
32
13
23
38
61
-33
0
-29
70
-37
13
-5
54
12
18
-29
19
-75
-24
2
-43
-15
-6
15
-31
-53
-10
-40
-54
-25
2
23
-5
-28
24
31
47
17
-41
20
-31
5
-49
-50
-1
-14
51
-32
-21
6
-8
55
-27
-51
2
8
22
13
21
26
-34
-85
0
-23
5
12
-6
-70
54
47
-12
56
21
-26
-21
8
-26
-36
-18
-16
37
-31
-30
5
37
-32
-11
-3
-7
10
29
-68
-38
29
-18
-23
-48
-41
1
31
-26
16
21
-51
-27
-12
-29
-17
-11
-10
56
-1
23
-11
-30
-15
20
16
40
23
26
-15
39
9
-3
-13
-15
-29
-5
14
-22
-26
-12
12
3
-22
3
8
-4
-4
48
-9
11
0
70
-2
8
64
0
-8
3
41
13
-15
-29
-12
-2
-1
-55
3
-54
-2
12
55
22
8
-50
26
-18
27
-40
42
34
-9
40
21
0
34
86
-7
6
52
-56
70
-12
12
57
7
8
-8
-24
-42
27
-4
19
0
-29
-35
-5
-19
11
68
19
-11
-26
-47
8
-2
-10
53
19
-42
8
-42
17
-79
24
-25
-38
5
12
-40
-26
12
18
21
41
7
40
-12
61
-4
7
17
-27
-31
14
-9
-25
85
-35
10
11
29
-22
3
-26
-40
0
20
20
10
-36
49
-55
-14
-22
-5
50
18
-33
25
60
-54
25
-45
10
-1
-7
-17
-37
-13
-25
-15
20
-28
70
57
24
-58
11
35
-13
1
-54
-19
68
14
2
-7
38
83
35
-23
-12
-23
-2
10
16
-26
13
-31
17
-39
2
-29
22
-25
-30
-42
-39
-7
-7
-15
-21
-47
17
22
66
74
27
-29
31
13
-24
19
40
-13
-42
-56
-23
-36
30
-18
20
42
11
10
-67
10
8
-8
26
-27
34
-10
32
6
-17
-8
-27
-7
18
-24
-53
-43
-47
1
47
-30
-8
26
38
4
6
-3
36
10
-33
5
60
-4
-40
0
-2
1
-43
-51
-7
15
9
10
39
-37
-12
4
-4
-16
-48
18
17
5
6
-17
43
23
55
14
13
-2
16
-15
-8
-29
-39
-8
-44
95
-4
37
-1
-43
27
-8
-50
14
5
-11
71
-16
22
21
-20
3
1
-22
-38
3
-10
25
48
-32
3
11
-20
-4
-39
-2
-10
28
-6
-48
19
-18
-13
-67
1
28
5
13
14
-24
-22
-54
8
34
30
14
-98
-29
-32
37
45
10
-28
-28
8
-39
26
6
-8
-4
1
-16
9
24
18
58
-11
24
25
23
4
-16
-82
33
36
21
2
-2
0
32
6
-11
-16
-6
-41
62
50
16
-37
-3
27
31
-42
2
56
-10
28
62
55
23
4
15
-6
-10
34
-39
-17
-41
-47
-45
48
-13
-9
-3
24
15
10
39
-76
-47
-36
15
-2
2
-73
22
-63
24
-16
-16
-21
18
-14
-7
-1
-5
16
-11
-37
-10
27
-33
-15
-16
0
-69
-52
-24
-23
-40
64
33
-29
-3
30
-30
-37
21
-20
-34
9
-39
25
-17
-20
-11
8
31
-33
12
33
-11
-53
-52
17
-32
36
-6
-9
4
-19
-17
50
17
28
-3
-29
-11
32
-31
8
9
66
27
-46
-26
14
50
26
-17
-21
8
17
-37
4
-3
33
29
49
-11
7
-15
24
15
11
-58
0
-40
56
-23
46
-75
30
-50
0
42
29
27
-41
-24
-1
-7
-15
61
23
-35
-6
32
19
42
-20
-9
61
-13
-43
-16
1
39
9
23
21
33
4
14
-12
8
-31
-19
-43
66
13
-15
70
49
-45
-13
-11
-2
19
37
-4
-21
25
0
21
24
6
-21
0
40
-2
9
-47
11
7
10
38
22
-21
22
32
-7
58
60
-21
-29
17
-11
-49
-64
32
1
17
-16
11
-12
34
-13
50
-28
-48
-34
-20
14
28
-15
-17
10
-1
10
0
-15
18
-23
39
2
-7
-24
19
6
11
44
0
-3
3
-64
57
-4
13
-28
58
-1
-6
2
49
-39
52
-26
-44
-108
11
9
28
-24
54
-15
25
-11
-46
-10
6
-17
-24
-2
42
4
-28
-24
-5
2
20
5
-1
62
-20
-45
-8
-70
-6
-20
40
10
-33
65
-41
-16
-55
-5
-23
-32
-16
14
32
-16
39
29
23
5
-17
21
-38
34
20
50
18
23
-9
21
-8
-1
-11
66
14
-62
1
-22
-51
68
-27
-10
-2
-32
10
48
2
14
-27
-34
5
25
46
8
9
80
22
49
34
2
-25
-37
-4
20
50
-29
-57
-28
-38
-18
19
-57
0
36
35
-6
-3
-23
78
-8
20
-46
20
-36
-5
10
-33
-24
8
-29
55
23
-28
21
27
-31
-26
-7
16
-63
-43
16
-24
1
-50
5
-13
-32
10
1
-39
-17
48
30
59
6
-38
27
-44
-46
-36
29
-6
47
-41
-24
57
48
36
-19
15
55
-10
-8
-64
-11
22
-14
-7
-8
15
4
-2
-59
1
10
-10
-38
41
-29
19
15
-18
-42
-15
45
38
-1
13
-42
21
52
35
-19
-41
-44
-21
-34
54
34
-21
45
-21
-2
15
-74
18
-46
39
3
7
52
-14
-37
-16
3
-1
33
24
-17
-54
0
35
-28
-9
-48
3
54
-19
-2
-9
-10
-13
-27
20
24
-79
3
23
-23
30
39
17
-44
-9
-36
-3
-57
9
-35
20
-7
49
30
8
-55
-6
-75
-33
8
30
-24
-10
30
67
41
-35
41
66
39
10
5
-9
-3
13
-65
17
2
6
-39
-5
-46
-29
54
5
-20
-32
-15
34
33
-70
-3
-10
-11
3
-1
-28
15
48
-11
-5
-76
7
0
7
-13
-64
40
3
-26
12
-12
-37
25
64
15
46
4
3
66
80
42
-3
11
45
-57
-15
-7
-23
19
-21
-3
17
51
-20
-26
-6
63
2
10
14
-9
17
-19
12
-12
68
-29
-35
-2
46
21
78
-26
5
-34
1
-23
10
-34
6
73
2
16
-1
9
-20
46
2
-58
-47
6
8
-32
47
22
39
-12
-14
-50
-12
-50
-30
-15
25
36
-7
-10
-26
-8
-7
-15
-33
-9
-29
23
8
-15
-30
-1
-6
14
24
-1
63
54
29
1
5
11
-19
-67
79
73
-19
-74
-34
16
-64
-23
-19
-21
31
-25
-50
63
-25
37
-61
57
-66
-5
11
16
-16
49
-56
60
-32
33
25
-19
12
-61
-29
-2
11
30
24
-1
19
-92
13
-71
-3
9
-33
44
-34
-8
-34
18
-43
47
10
15
43
-18
-3
-15
27
-9
-31
52
-44
-1
-8
23
-21
-6
31
-8
62
36
-68
21
10
33
-68
0
7
-21
7
-3
71
-53
-51
100
14
20
1
0
-41
-77
-6
57
53
-22
-60
-10
5
-57
19
10
0
-9
-15
79
21
-77
22
8
6
-7
3
43
-36
2
-18
-9
-2
-22
8
17
48
-45
-7
-14
22
15
55
-13
39
11
8
14
34
-4
-35
31
-51
-2
29
16
2
-5
20
30
33
-23
-9
17
3
-18
6
-22
25
-26
-17
-41
-9
-38
32
20
-73
29
-68
-53
14
-34
-24
-47
48
-16
-25
19
22
28
11
72
5
-18
-68
-8
-2
52
-4
19
17
-25
15
58
-34
-36
62
30
29
3
-94
6
70
23
11
-10
21
24
-44
22
-47
-8
59
38
-33
16
-29
31
10
-12
47
25
-7
25
-46
-4
4
5
-60
29
9
24
1
-41
7
36
53
11
17
-27
-24
-23
0
22
-21
-44
-12
69
-63
14
36
32
31
17
-23
65
71
-59
-31
10
-20
-57
-13
-7
30
50
-8
20
-13
-4
-17
48
37
59
45
2
-8
30
-20
-17
-61
27
-26
-33
1
-10
-14
-30
31
-4
20
1
-20
11
4
7
23
-11
-46
-19
-44
9
-18
27
-18
-14
19
26
-38
14
-33
2
29
47
57
-29
-8
-32
6
41
33
9
10
-58
30
-52
18
-10
27
-37
28
-64
16
34
-28
-38
-44
58
1
-41
12
-12
-83
6
-11
82
80
31
-69
9
2
-62
9
-18
-25
3
54
-33
-29
-40
27
32
-32
31
7
13
-23
-38
-7
1
-73
20
-17
-23
-4
19
-1
-8
62
-9
-54
15
-41
-29
9
48
-71
-17
-17
51
57
-16
36
-32
-36
-9
-33
-58
52
33
-1
-31
-10
-28
13
28
38
9
1
-17
-1
81
0
0
-10
11
0
-32
-27
12
39
-21
-22
26
-5
-44
-40
-44
22
127
28
-19
-41
-2
-25
15
2
-2
21
27
-37
-5
-31
17
-43
-51
47
5
8
-49
15
8
-57
-12
-1
-44
-49
-76
4
30
20
30
19
4
49
-14
20
29
-19
35
15
24
33
-40
-17
21
-11
-24
36
12
7
17
-27
-14
16
-24
74
-16
48
-11
-14
44
42
-31
-37
-13
-9
25
38
18
7
-21
97
10
-91
-65
4
39
-21
22
-11
17
19
52
0
4
17
25
39
-15
-14
-27
-37
6
58
-9
39
-14
18
-14
50
-18
-7
-2
35
28
-3
-82
46
2
-23
2
39
23
-47
-6
-42
15
-19
3
36
-11
61
-21
-73
20
-49
-2
37
37
-31
58
-26
-17
-60
34
3
11
31
-25
-39
20
24
-31
5
-16
-25
2
-5
49
7
-7
-46
-3
-50
8
-59
-70
-93
7
-17
6
6
21
-30
22
0
-13
15
-17
-25
46
24
16
-5
18
-25
-32
27
22
21
15
-19
35
56
3
-12
9
-29
-33
22
49
20
-60
-2
15
-81
-10
-72
13
15
-9
-10
8
-42
-12
16
-31
12
2
10
-58
47
-5
17
-26
29
13
30
17
-17
-22
13
-7
42
-40
8
8
-13
-56
15
37
21
5
-75
-42
31
-32
-17
-15
-24
-3
93
8
-22
36
48
17
53
32
-27
53
49
69
-23
39
43
56
-69
29
-19
-24
59
0
16
-10
9
2
-15
-12
-15
-13
-47
-24
-27
-55
-50
-12
6
-6
-55
-31
-21
53
-40
58
34
-26
-15
-47
35
87
-12
12
-10
18
-56
-41
14
-1
-46
40
38
72
-2
17
-21
-16
-1
-46
-56
-40
-58
-42
55
-42
-21
24
5
-19
36
29
29
-18
-7
73
39
-8
60
-11
12
73
32
4
-2
0
49
-53
-87
-60
-46
-40
59
4
-62
14
-26
-28
-3
-7
-8
46
7
18
-18
20
-35
22
21
40
-16
-49
0
48
1
-36
55
51
-50
59
-5
53
-34
15
-41
-67
-31
55
-24
-32
-2
35
61
-59
16
-14
32
-10
20
-26
-11
-1
-12
19
51
16
-14
-61
13
0
29
-48
-31
20
-42
30
-26
-48
17
-30
-15
-5
-27
-51
-15
1
20
54
-19
-16
6
3
1
19
28
10
-8
-33
110
-31
18
39
-16
-90
22
-5
-10
-27
11
26
52
-12
21
-8
-17
-5
-29
19
62
2
4
-31
3
-9
51
-14
-21
30
36
-15
-36
22
-11
-22
-10
29
5
-38
26
-1
28
11
6
-10
27
-16
30
2
-43
-34
-10
47
-54
-9
-4
-26
-32
-22
-6
-28
-21
-8
6
32
-14
16
-26
-22
4
38
-7
13
-2
-7
-38
-42
3
10
2
-29
32
14
19
-50
-14
0
-20
-37
30
-20
-62
-28
-45
-33
-19
0
14
-30
-13
40
-47
-59
32
17
-31
24
-86
-76
46
-4
23
-36
23
28
27
49
23
8
0
-7
-1
-29
-2
-50
-51
-13
-13
-1
-43
-4
-26
-32
-60
12
-33
65
65
38
24
-2
-71
28
19
48
75
-18
-35
-25
-51
23
20
-7
58
-20
-17
-71
-47
-49
-17
5
-48
-11
16
4
-35
-4
33
43
46
-20
3
-11
-6
2
61
-27
22
6
-21
26
-43
-1
24
-13
-55
38
44
14
-22
-27
-4
-24
-7
-54
22
-40
-27
-8
1
-12
-22
8
-19
-24
40
23
0
-14
-2
-46
10
27
-21
-24
43
-50
67
-3
20
10
0
-43
73
-12
23
-14
-31
26
-21
13
9
1
-22
-17
-28
5
-57
17
-15
5
17
32
21
25
24
19
-28
-7
49
-22
56
20
27
9
-9
-14
-11
22
-8
-60
-7
33
-47
-2
30
-23
10
-20
4
29
13
-7
38
40
-11
-13
35
-30
-16
-10
23
-9
-37
5
-44
-4
-31
16
-36
26
31
7
-6
15
-32
48
-1
-38
13
-40
4
41
59
18
-27
16
-32
2
-15
17
43
-23
-25
-18
39
-40
-48
-1
-37
0
42
-6
-20
-13
22
11
24
-51
-66
27
55
47
-51
74
28
5
17
24
2
-18
-50
-65
-15
-47
31
-34
33
19
-20
3
-6
-46
29
18
14
-26
38
32
4
9
65
1
-4
-6
20
0
-8
1
47
6
50
21
-5
29
61
-2
-23
-13
-27
-28
-14
-11
29
-27
-9
9
-16
-19
-31
-32
40
21
-23
35
-50
-5
-21
-25
9
6
25
-39
-20
-3
-33
22
-5
-30
-14
-81
67
-50
-18
-30
-5
-7
25
41
-4
-26
20
-29
14
-17
-3
8
-8
-11
-13
3
39
4
-8
-56
-81
-24
44
43
-74
-60
-17
-42
3
45
11
-12
33
54
5
25
-23
-1
23
-20
2
28
-11
-4
-33
13
-11
7
-8
7
-37
-29
-27
16
-15
11
-31
-64
4
-16
-55
12
-30
-20
16
2
55
30
36
-13
54
-26
-6
-78
-5
-15
21
-11
-29
0
-27
20
18
9
35
-51
11
14
-20
-33
26
-14
59
20
5
-6
31
31
31
-15
-16
44
-19
-26
21
-1
25
-25
49
-41
-4
-29
-97
-10
-83
-24
30
-5
-54
-1
58
-7
-8
13
54
-29
33
33
-69
34
56
-12
26
-62
-36
40
-15
61
52
-19
39
0
4
-83
35
14
-10
-40
3
-5
81
49
-37
-24
-21
22
28
-60
-15
27
-70
7
2
11
-11
-81
-2
-53
-3
-6
-29
-17
-35
-17
-25
-39
53
-2
-22
59
17
-7
-37
-18
2
27
28
-32
19
-14
-38
-53
-7
25
32
56
30
-15
36
10
55
8
-26
-7
16
-8
-35
-46
61
30
-77
24
-14
-49
5
21
-1
44
23
-68
-54
-43
-11
-25
-33
-24
-15
18
-6
-26
12
-12
-52
-20
44
3
62
10
13
-8
-6
-9
-56
-5
39
21
7
-5
26
22
2
-3
-19
-7
2
-7
31
30
20
25
-20
5
-91
4
34
-11
-16
37
39
-9
-37
-2
23
23
-34
73
10
43
-66
-30
14
0
19
69
11
52
-1
-37
-8
48
39
-33
30
-2
-2
19
-3
-3
-11
-6
18
-58
-52
2
33
20
-32
79
-10
73
-4
-18
6
-6
-55
5
-3
49
-24
75
7
35
71
3
-37
29
10
-4
-24
-5
47
6
-26
-20
-5
65
-33
8
11
-5
21
3
30
14
26
-2
49
45
-7
0
8
-36
17
19
-9
32
-72
5
-15
30
-9
-33
-10
-37
-10
2
-14
19
-13
-14
-58
32
37
-22
16
49
39
-13
-5
43
-31
6
5
-49
-1
-42
-17
8
-47
-35
56
83
-17
11
31
-15
-20
-45
5
41
2
-27
0
7
-11
-5
4
46
-15
-2
-14
-9
57
-29
58
52
-19
-12
-39
-42
37
22
-36
-50
-31
-20
-23
19
0
6
1
-27
8
-35
-24
34
-77
29
12
11
-70
-13
18
-10
-85
31
14
49
22
7
15
22
53
17
18
15
50
-46
9
-1
-20
12
59
39
7
-5
-59
8
60
-41
-39
-23
-30
-42
-38
-4
13
15
6
-14
-27
-32
23
10
-56
-83
46
29
-13
-64
26
12
22
1
6
-15
15
-57
40
9
-13
27
-16
-19
-63
-8
18
4
9
-28
23
-3
-17
36
9
-36
19
90
9
-2
48
-41
-31
2
52
-17
-16
-15
49
-65
28
-9
35
6
-7
-17
19
55
-25
22
-10
9
-32
12
40
14
-20
-14
-25
-10
16
-25
-5
-3
-63
-11
-32
-32
-1
-23
39
26
18
-50
-20
18
4
59
63
-64
-8
-5
-51
48
-19
-1
-5
-3
-33
-28
15
18
-4
9
13
30
-12
25
60
-7
-17
-17
-26
-4
-7
-17
12
-9
-2
-20
42
-11
9
20
-20
17
10
-43
13
9
28
5
-23
-60
46
-15
-54
-26
-7
-52
13
13
-62
-11
54
34
-28
71
16
22
95
3
-7
-73
-14
29
-18
-21
35
-23
-4
98
-74
-45
19
-41
18
-11
28
-44
0
37
-53
-37
-5
5
-50
-19
-15
-16
-15
55
-7
-16
48
55
-20
45
-58
-5
18
32
-2
-16
-6
-12
32
-9
6
27
-72
9
11
41
-29
-1
13
14
-24
1
-7
81
91
14
-25
14
-45
8
-53
1
19
17
-44
-20
-10
-37
28
-27
11
-17
-29
20
16
-22
12
39
0
-61
-18
-6
-63
1
21
-64
50
-8
-4
-48
-9
-1
2
-29
-37
-29
94
-57
-16
-49
6
-46
-42
-33
-46
-5
-18
64
-58
9
-45
-18
-13
54
-8
19
-5
-17
13
-31
12
19
-24
1
60
-51
23
-2
-10
17
7
14
-25
7
-35
7
-2
-15
49
-42
18
-21
-11
-44
20
-5
-42
27
22
-40
-29
-48
-12
-23
13
32
4
5
-44
-44
-25
25
12
-17
-71
47
11
-10
45
-11
-55
37
22
49
-20
-44
-8
29
9
-67
14
37
0
24
-10
30
34
-6
13
53
-1
31
21
29
4
8
34
-40
-16
33
-9
5
3
38
-39
3
-25
18
-17
67
