160
0.20793356
-0.6136866
-0.28892297
0.07881237
0.67093694
-0.5606903
-0.2553469
0.022537911
-0.695109
1.0254685
0.5436863
0.3717444
0.08082846
0.50116885
-0.009378421
-0.6306103
1.0929648
-0.35846996
-0.469351
-0.39303637
-0.6813427
0.41405877
0.4496683
0.4499114
0.07989046
0.5070157
1.1675612
-0.48980892
0.17995399
0.11237058
0.5825822
0.11610673
0.20511593
-0.0415535
0.059940875
-0.020237435
0.052296642
0.11042288
0.17088744
-0.13421334
-0.4684299
-0.39471355
0.7618488
-0.5727028
0.01422774
0.71504736
-0.4122132
0.077201016
-0.2805175
0.9215251
-0.25009772
0.5279953
0.87037605
-0.4097572
0.23422074
0.4761851
0.4876083
0.015424548
-1.3660502
-0.23751673
-0.51934093
1.0561055
0.40395314
-0.084480025
-0.5297923
-0.2146847
-0.44573233
-0.3337624
-0.44628638
0.5481927
0.06812992
0.7621556
0.018781777
0.5331218
-0.030348215
-0.69921845
-0.23622748
0.90389687
0.51909626
-0.6587136
-0.043902487
0.19469798
-1.3927165
1.1316146
-0.28130102
0.5444073
0.15591781
-0.06445767
0.46737304
-0.073090754
0.49119684
-0.37481856
0.24463944
0.5303855
-0.16955307
-0.13307238
-0.961764
0.65391237
0.27627996
0.34035954
-0.095415965
-0.6133153
-0.73267984
-0.8601912
1.2578316
0.6866269
-0.3798969
-0.12659231
-0.78964996
0.9808706
0.08731707
0.51750666
-0.11247621
-0.5502642
0.41885024
-0.053627152
-0.54357857
-0.09350088
0.5165215
0.9933559
0.34607583
0.38934565
0.0064237737
-0.4969003
0.2731464
0.747581
0.08909611
-0.27421334
0.9237766
0.0025867252
-0.17456037
0.7421461
0.42774925
0.5892849
0.43160993
0.9109087
0.2530974
-0.44724232
-0.23537666
-0.22208756
-0.78608555
-0.147519
-0.8923884
0.091591656
-0.23297524
0.56210023
1.1954019
-0.43708104
-0.14801975
0.13748717
0.23038502
-0.59483
0.03859063
-0.5036683
0.2287498
-0.38626665
-0.5525296
-0.10474335
1.0148466
-0.82920283
