96 384 1 1
-21
10
0
17
1
-1
-37
-8
17
1
16
-10
4
2
47
-17
-20
-1
15
-9
20
2
-14
-15
-11
6
22
-7
-47
6
-8
30
26
3
-9
11
-10
3
15
3
-15
25
-13
9
5
24
-7
-15
-9
26
19
20
9
2
14
12
18
-1
9
-18
21
-10
9
-5
0
-9
-36
-2
28
7
-43
-6
9
-1
-8
-31
-15
-21
7
9
1
-22
-10
-20
3
14
2
-23
-13
-15
-23
-23
-17
-10
-21
4
5
14
15
7
-1
12
-27
-5
-4
-30
26
1
-7
19
25
-16
2
7
-11
-41
9
5
15
-16
-8
7
-1
-12
2
-19
3
1
-1
3
9
22
10
-16
12
-15
14
7
-11
-11
-16
1
15
11
-10
-6
-34
22
-1
10
-17
-8
-11
9
-18
-9
-1
-1
-12
3
-3
-10
22
16
-14
7
-21
2
14
-17
2
12
-24
9
-9
-26
1
20
4
5
23
6
-13
4
-3
-29
-6
-36
-14
-16
-13
10
14
-15
26
-1
10
23
-25
-10
-3
3
-8
-18
15
23
13
-6
-12
13
9
-11
8
10
5
5
6
-20
21
-3
16
-14
-11
-20
19
10
-5
-4
21
32
-3
-12
12
21
-25
-5
16
-3
-4
30
6
2
38
-7
-3
6
2
-1
-12
6
-31
20
-23
34
-2
-7
4
9
-6
3
0
14
3
-1
16
8
27
4
18
19
-2
-4
9
-36
9
-5
21
-6
4
-6
-53
-11
-7
-17
2
0
2
0
27
-18
5
3
7
-17
21
-5
-1
26
6
11
18
8
10
-22
22
-14
-8
12
13
-16
0
2
17
5
0
-2
2
-30
16
19
6
1
-13
4
-4
11
-1
-25
12
-18
-9
-18
38
-13
-16
-16
32
-20
28
6
4
8
-26
-5
-10
-11
3
14
10
28
-24
11
2
-3
0
-3
14
-22
5
1
14
-12
-3
36
5
3
6
-7
-30
13
12
-38
-7
-16
-16
-12
9
31
4
7
-11
-3
-5
8
21
28
-8
14
0
17
-20
34
5
-28
34
-12
-8
-13
2
-30
-9
13
-23
3
51
-12
-26
11
3
31
9
-7
-4
20
3
-5
36
14
9
-9
10
3
14
18
-10
-19
6
10
-17
17
15
-25
-15
15
-1
7
1
-36
-2
58
9
-32
-15
-4
24
10
-3
-2
18
32
3
0
-3
-11
25
-4
-18
-38
24
-37
-33
2
22
-31
33
-26
-8
-9
-26
-42
-7
-4
-17
27
22
-8
-12
-20
14
28
-49
8
-4
-10
-9
0
20
-20
6
1
-13
15
10
19
4
4
0
-2
-4
-4
12
-8
17
-3
-22
-11
4
16
-5
-5
3
-19
13
-40
24
-10
5
-19
-16
1
-14
-2
0
0
-13
-13
-18
35
-5
-4
12
-18
-10
-5
-14
25
-17
-1
14
20
6
14
-6
4
-24
24
9
-26
8
7
-1
10
0
-14
12
-1
11
-6
6
8
3
-2
-11
-11
27
15
6
7
11
0
-38
-24
-18
12
-2
11
1
24
9
-4
29
-31
15
20
14
-5
-2
-26
-29
10
-22
-3
-34
31
-1
-9
8
-15
-3
-11
3
22
-16
-4
5
31
21
-34
-25
-2
18
11
-3
-37
31
-7
-20
17
-7
1
-16
-19
3
-4
2
10
8
-35
7
-21
1
3
-52
22
-21
21
27
19
23
16
13
12
2
7
4
8
21
33
14
-20
-30
2
25
25
12
-11
51
-1
-7
-45
-13
26
-18
-18
14
27
44
3
7
-6
5
12
20
8
1
13
2
-3
9
5
-13
-24
-11
-13
-8
15
9
1
-17
-6
0
12
39
7
-9
-28
11
27
5
44
24
-32
12
3
4
35
-26
-14
-4
4
-6
29
-18
6
7
-21
-2
7
7
0
16
-1
5
46
29
7
22
7
-15
31
34
3
27
-18
-19
14
25
8
-9
4
2
5
2
1
-17
28
31
-21
10
-18
28
-5
13
26
-26
15
-10
0
4
-1
24
0
9
31
-28
-24
19
-19
10
2
-51
-33
25
0
16
-12
11
-11
1
-1
-19
-2
4
9
0
-9
0
-3
18
0
2
4
-2
5
-7
26
16
-8
-17
-39
-6
11
19
-4
4
-2
9
2
17
12
16
-12
17
-34
-11
0
3
-36
-5
6
-25
-22
6
12
-29
9
1
14
-5
-8
-26
-12
9
11
8
-3
-27
10
-11
0
15
25
-55
4
-27
-11
-3
-14
-1
8
-3
33
17
-11
5
-20
-1
-4
-21
23
0
4
-6
-7
-12
4
-10
11
-14
4
7
-14
33
-3
-4
-11
9
-11
5
2
-11
-12
12
8
-2
19
4
16
2
27
15
-3
9
-12
11
-2
11
14
-10
4
8
23
-10
2
-14
-5
20
15
5
-5
-2
-32
-41
-25
-6
11
5
-3
-39
19
-6
17
-3
10
8
-20
8
19
-13
-19
26
-10
5
5
16
-26
15
-14
-5
-12
-8
8
-11
-17
-23
0
-10
-14
-8
-17
6
-1
2
5
7
-15
-13
7
36
7
22
-1
16
4
11
-22
20
3
16
8
-8
0
11
-11
-3
10
8
-11
32
8
11
-2
-1
-9
18
10
-23
16
-14
-3
-10
7
-9
-3
11
31
4
2
-7
-19
-13
-10
-31
26
-11
-2
22
27
3
-29
14
3
15
-4
2
-5
-20
-16
0
28
18
3
-33
-1
-18
-7
-20
7
-5
-24
2
7
21
-19
3
3
9
10
-17
-17
15
5
-3
-6
-13
4
-10
-23
9
-3
22
12
25
-17
20
-36
-20
6
-17
9
26
-14
6
2
-20
-15
8
17
-7
-4
-11
24
-40
10
-7
12
-1
3
22
15
0
-18
0
-12
4
9
12
-19
-9
-1
25
-9
-6
17
-14
1
0
13
-17
-9
-30
5
18
-9
-2
-14
24
20
-28
17
-28
-12
-9
4
15
-2
-2
-20
38
23
-16
-11
-4
-5
-22
13
9
2
1
-10
12
-18
-13
-17
3
-11
1
-8
10
14
-17
-24
5
11
5
10
-25
-3
14
16
-37
-23
-12
0
23
29
14
-19
-14
-10
9
-3
19
-24
10
-4
-9
-7
-11
-2
3
5
20
18
-3
-24
-35
-22
4
-35
15
-6
-2
12
11
-18
-28
-6
1
13
8
8
-8
-6
8
-14
7
-20
9
-20
15
-7
19
10
-14
5
-6
-8
-23
-1
7
21
13
14
8
16
5
-5
17
9
-13
8
-4
11
18
17
0
14
9
-11
-6
-8
14
-4
-11
-13
12
8
-6
24
8
29
-14
20
15
-16
2
14
-34
-21
4
-7
18
-18
20
9
-28
-3
-19
31
34
22
4
11
-20
-4
-4
-12
14
8
-13
-11
-16
-10
-23
-1
-5
10
12
27
22
22
18
24
6
-7
12
-2
9
27
18
15
22
4
3
-8
-6
12
-8
13
10
16
5
-3
-11
-9
11
-21
45
-6
-7
-14
-41
32
-2
9
15
-2
19
-9
-17
23
1
13
3
-10
0
-2
14
-29
-12
-15
-16
24
-23
5
-3
-7
1
7
-24
-33
16
34
28
-8
-9
-12
0
-2
-10
32
-10
-28
-8
19
-14
7
2
-9
15
28
-15
-10
3
-5
-26
5
-17
13
-34
4
-27
-2
14
20
1
-9
-4
10
-23
0
23
11
-12
14
-9
-37
23
0
30
25
20
1
16
-1
40
-15
17
-6
15
5
-18
32
-2
3
-2
-17
-3
-10
-21
22
-22
-29
-14
9
37
5
-5
12
-13
20
-3
-5
3
-20
10
-25
4
11
-18
20
7
5
7
13
16
-2
6
-15
41
18
25
-8
16
-3
-7
-8
14
7
6
-11
-8
-23
-8
-23
-17
25
-22
-1
6
-21
4
35
-14
21
12
-5
-8
17
-3
0
12
2
-23
11
-21
22
-7
22
-6
-3
-47
3
9
17
-6
5
-12
-7
2
10
11
39
19
25
9
10
17
35
14
-6
-4
-2
-10
-21
6
9
13
4
-16
-15
10
0
9
3
-27
-20
25
3
5
-11
14
-11
29
6
-3
-28
0
-14
0
10
-3
-4
13
19
8
6
5
13
19
-6
-22
4
-1
28
23
-12
-11
34
-29
49
25
-35
20
22
-7
0
35
-1
-27
8
11
-20
10
-28
34
-7
9
40
-35
31
-27
7
10
-4
-27
-23
12
-8
19
1
-3
26
-10
3
31
0
43
24
14
2
-20
21
21
23
11
12
29
-21
38
2
7
15
9
12
40
26
49
18
-9
37
22
33
-9
-6
-7
-2
-28
-20
9
-23
49
21
26
1
-21
-5
-24
-17
-52
-18
-12
-39
14
-34
7
-57
1
23
-9
23
16
6
-13
20
1
10
-16
-30
12
24
-19
19
5
27
-1
-7
-2
-33
28
-19
-3
-40
23
-20
-35
2
26
32
-20
-20
48
-61
43
63
28
-16
-19
10
1
8
-29
14
-2
5
24
-23
-35
-3
38
-1
-58
-7
9
28
-33
1
18
13
-3
15
-12
0
-25
22
29
25
-18
11
15
-25
-12
-20
-25
-27
14
2
-19
7
4
48
-20
-19
2
4
9
-35
-24
-5
-30
-34
-6
8
8
-13
1
7
19
-8
-23
41
-54
41
-1
-44
-21
-6
18
25
-47
12
15
-48
63
-37
-22
16
-17
-11
-9
32
35
8
4
13
2
-12
-26
11
39
33
-29
2
-5
-43
0
44
35
-18
27
14
48
-26
-1
57
16
6
7
-3
-15
-19
16
6
3
14
10
-28
7
2
-34
7
0
-13
-20
-31
1
22
-22
-18
27
-40
11
0
37
-55
16
27
-14
21
46
41
4
-6
-28
27
-9
-6
0
7
-6
5
24
-35
23
-28
-16
-26
-25
39
11
-49
-19
-24
40
-1
31
-30
11
7
-12
34
0
-5
-56
38
-21
13
-2
-14
48
-9
-44
2
1
-15
-10
-11
4
-17
-22
5
6
16
-7
27
13
-10
-11
-6
20
2
-26
5
-19
-19
5
8
12
9
6
-55
-8
-66
-10
8
29
4
16
29
9
15
14
-7
-11
-15
12
-14
20
-32
8
19
-4
-25
-11
13
-28
-16
40
13
0
-8
7
26
12
-9
14
17
4
-4
-1
-3
-8
2
10
4
-15
37
19
13
-13
18
7
-13
-6
5
-12
-47
-4
-14
2
43
4
14
4
9
-34
-37
-7
-18
-26
-16
-27
-12
11
-30
19
11
5
26
-18
-5
16
15
10
-29
-10
16
6
-22
3
-21
24
-34
26
21
4
3
-2
15
-36
0
21
-1
2
-27
-15
49
12
-17
3
11
-9
56
8
-24
6
11
10
-4
-14
17
12
2
-3
0
2
37
16
-24
0
-9
1
-41
-32
35
3
-12
9
-11
-24
-11
-27
-7
-7
-14
18
9
-10
-37
12
10
3
-8
3
26
7
-3
18
-2
2
-14
43
5
-3
-7
-2
12
-13
24
0
-34
-8
11
0
-31
-15
-6
-28
-10
6
21
2
-22
-13
-8
-20
53
-8
-26
20
22
-19
-13
1
6
18
14
-25
24
30
18
-14
-5
-10
25
22
-20
-8
-34
16
13
-3
-17
2
20
11
-19
-18
-5
20
23
-12
-3
6
-5
8
-48
-23
-11
13
17
10
-2
-39
0
3
-26
18
11
21
-10
-8
-19
-33
7
-9
43
-20
-10
-36
-16
-6
31
-28
-28
29
-16
33
8
-4
8
47
12
-5
19
-13
-13
43
-6
-48
18
24
16
-23
-21
0
-9
30
-6
-4
24
-29
-3
5
-36
19
0
25
-5
16
22
13
26
21
1
-9
35
5
13
-29
-39
-20
-19
21
-26
28
-19
-42
11
-19
-1
3
-5
10
-10
-10
-11
-32
36
26
-13
18
14
-19
18
0
0
-20
30
0
3
-41
42
-21
12
11
11
-39
-24
-13
4
14
-3
-5
0
-9
-8
28
32
-22
6
2
7
6
7
-33
-7
-4
-5
-22
13
19
38
29
23
-24
-6
-18
44
22
-23
-33
-2
29
-32
36
26
-20
-6
-31
-35
17
11
-12
38
2
-32
-12
-11
-6
8
25
-8
-47
24
20
-9
-3
5
-15
21
-11
22
5
-10
4
21
2
-5
33
13
-4
-3
-14
-24
-3
0
11
0
-8
27
-3
-46
-27
-8
-9
32
-11
23
-18
-7
-4
-20
30
40
-8
-27
-9
6
-10
-18
3
8
13
-26
-7
9
-9
5
-17
30
-6
15
-5
9
4
-35
-9
15
46
-2
16
-36
20
0
11
14
2
-16
2
4
-15
-13
-24
-17
-10
14
-21
-7
-21
-4
-18
-11
-1
4
-37
1
9
-53
14
-2
12
-19
9
35
-2
13
20
-8
23
-4
9
6
-8
-26
21
-10
15
13
-14
-16
5
-17
32
-5
-27
41
-13
18
-28
26
-1
32
5
14
-14
39
-4
14
8
-14
1
29
-24
-15
-11
-11
-25
20
12
36
-24
1
25
-18
-2
12
-10
-21
-32
-25
10
0
36
10
20
-10
-22
7
-3
-11
5
-1
41
-9
-11
0
11
-23
11
-15
-9
-26
-11
24
-9
1
31
-2
21
-2
6
-18
42
18
0
32
-27
-4
19
21
9
-2
6
2
-2
13
-21
-10
13
-21
-3
11
-6
-25
0
-3
-9
11
-15
8
-1
-21
9
10
1
-2
-8
-17
6
1
2
3
0
-4
1
-1
28
14
3
17
38
0
-20
20
26
25
-17
15
39
-21
-10
-9
0
28
17
17
-32
14
-11
28
2
-37
-27
-11
-46
19
-24
-30
-8
16
23
15
-4
6
37
17
-2
-6
19
16
-21
-35
-24
22
27
-26
3
2
-8
-11
29
-33
32
18
-3
-41
-11
-26
13
-13
7
-9
10
-20
23
35
17
23
4
-38
15
11
45
-8
-31
21
9
-4
-21
-12
57
-20
12
30
-6
-6
31
3
1
0
14
-4
39
8
-7
-6
32
0
-7
12
-24
-8
31
-7
-6
-5
5
-15
21
-36
-22
28
-17
-41
3
27
31
25
30
-3
14
19
6
-12
4
27
-1
-5
-36
-5
4
-3
-40
0
19
10
12
0
15
-1
-40
18
30
14
-4
36
-5
10
-13
-24
23
22
10
-43
2
-26
-27
1
-32
-20
11
-26
-23
-22
-19
13
-17
-6
17
-7
27
9
4
-18
13
32
-5
-15
-37
-5
12
19
-31
-8
-18
-18
-5
-7
4
-13
6
-10
11
2
12
22
15
-2
12
-22
1
-4
-2
20
-4
3
-11
20
7
-9
28
-10
-6
9
-7
-3
11
-20
3
-1
28
2
-9
23
10
2
4
-19
-4
16
14
17
-11
0
3
7
-11
-1
25
3
-14
-5
-11
-14
19
-9
-30
-8
-10
4
0
22
-6
16
-24
0
9
1
2
-21
5
3
-23
0
2
-11
-29
-25
-3
-12
-15
21
31
25
16
3
-11
17
-13
15
8
3
-5
5
-3
18
-6
12
-10
-13
-12
2
8
0
5
9
4
5
-1
7
15
10
26
43
15
17
-6
-8
-7
-14
10
13
-13
-7
-29
-10
0
-5
11
6
12
-6
9
5
-12
-20
4
26
-5
6
-7
-12
6
8
-4
-6
-21
19
-5
-30
-14
9
-1
-28
16
-2
-1
-12
-11
-3
8
-15
-15
23
2
5
3
-22
13
-1
-6
-9
-13
-14
-9
32
17
-20
-5
-2
-23
-16
4
9
1
-18
-7
1
-3
-5
-2
-7
-9
-16
11
28
-14
12
4
-5
-11
2
10
8
-7
-5
5
11
4
9
-19
-2
-3
15
15
-2
20
-1
-4
5
-30
7
23
-14
-11
-9
37
-9
8
0
27
-10
-12
-9
-19
-13
10
7
14
-15
0
0
23
3
19
-1
-13
9
4
-7
2
14
2
-4
-9
-22
-10
-7
-13
-14
14
-11
23
6
11
12
15
13
-7
2
-1
-9
12
22
16
9
8
10
-9
-17
21
-11
14
-11
10
-1
7
-26
19
2
13
-14
11
34
3
14
13
12
2
24
1
-22
-22
-9
-1
9
1
13
-29
-15
8
-11
9
22
-8
-1
-3
-7
-27
-12
-5
4
20
13
-4
-6
14
-34
-3
11
-4
-4
11
14
20
9
-6
-4
-2
-9
10
-11
-24
-8
18
-34
-6
-3
23
20
-12
7
10
-6
13
14
-3
31
-21
-8
-9
-32
2
-10
-3
26
2
0
-6
-14
0
12
0
0
-33
-2
-1
15
-18
7
4
-29
-6
-7
-19
-3
18
-20
19
-25
5
-21
-4
1
-5
31
9
-31
-2
21
-31
0
-20
-5
-53
9
-7
-13
-25
14
8
-5
-9
-2
-13
-18
-16
19
17
11
3
-13
-14
-22
27
-3
6
18
-16
35
-49
-26
-17
-28
-1
-4
-3
-2
15
-10
7
18
8
-33
6
33
-8
-10
2
-17
-5
35
33
6
-4
8
38
19
-5
-9
1
0
26
7
-16
-14
-20
18
11
18
-24
-23
4
7
-11
-21
-24
-23
-24
-13
3
1
-8
-31
-7
1
30
-1
38
9
8
-6
-4
-23
18
2
46
-17
-10
-10
17
2
7
9
-29
41
-4
14
-42
-13
18
8
34
-1
13
-8
10
-1
3
-48
-6
-16
-10
16
9
-25
-27
6
11
12
-7
7
10
6
-1
9
30
7
12
1
0
-9
6
10
-2
-31
10
-11
2
23
-34
-32
-11
-23
-30
4
-2
-2
-13
-17
-1
27
8
0
-21
9
-16
-31
15
22
6
22
4
12
-19
7
-26
-5
-2
-24
-33
-5
-6
-38
46
26
-8
-10
11
-2
35
4
-21
-6
0
-21
-11
16
-12
-6
-21
1
-27
16
-19
20
-29
14
-19
7
3
-2
-12
24
-9
2
20
-11
7
-4
-26
1
17
-4
-29
9
-15
-6
-5
9
-3
12
-15
10
-3
-7
25
18
-20
-3
13
-5
-18
5
-30
7
-28
6
39
4
17
9
-21
0
3
-19
10
14
27
-20
4
38
-13
13
23
-8
43
38
-18
-2
-14
-6
17
9
-13
-11
3
16
12
12
19
20
-6
25
-14
8
-21
4
-16
20
-37
-26
-5
34
-25
16
-2
13
1
-1
-8
-46
-8
16
27
-2
38
-16
-18
-10
-22
-8
-2
21
16
18
0
-26
-17
28
24
37
5
15
-6
19
29
22
-1
-9
-13
6
-6
-8
-18
10
22
-1
7
8
-9
12
-29
3
-1
20
-1
0
17
16
-14
20
-5
3
-1
-21
12
14
-13
5
5
16
-17
-5
-19
9
3
-3
1
-14
2
9
12
9
-8
-2
-6
-1
16
30
-19
-3
3
19
20
1
5
13
1
-1
-14
-5
11
-3
-3
-8
16
8
16
-9
6
0
-1
5
-26
17
-13
-15
-31
6
-9
-17
0
4
3
-15
5
-1
7
1
6
-7
12
-42
14
2
11
-13
9
36
31
13
-19
4
-1
6
27
-20
0
1
3
-17
-13
-20
-24
1
5
23
-15
8
5
-28
11
-18
-30
-22
-20
19
8
-6
-13
-19
21
3
1
6
22
-3
22
17
12
18
-3
12
14
-12
-16
-1
14
-26
-25
-1
-12
-17
-7
22
-22
12
3
5
21
-32
6
21
4
4
8
-9
-1
34
8
4
13
-6
20
13
-4
-21
0
-11
5
-13
4
6
-7
-6
15
0
-12
-11
18
0
0
12
-24
12
21
25
-11
5
-26
30
1
11
-20
1
-11
-9
4
-8
-3
25
36
-4
6
-1
-35
-6
26
27
-17
16
17
36
-10
-3
-6
25
-10
19
15
14
2
-11
6
9
5
3
-12
1
3
10
19
-11
-8
16
17
-28
-10
9
14
-3
-6
9
29
-1
-26
-35
-10
-18
-6
-14
-5
19
5
9
16
-14
17
17
19
11
5
-16
3
8
5
5
-27
10
-14
-30
4
-2
-5
-7
8
-21
-21
7
-18
15
1
5
8
-14
-5
10
-11
-5
-14
-5
-11
10
7
15
6
8
-9
3
-23
22
13
8
33
10
-19
11
17
-11
12
13
-10
12
10
12
18
-15
4
-17
-4
-15
2
-15
34
7
4
6
-8
27
16
15
18
9
-31
-32
0
19
-15
-5
-4
-24
-7
-9
10
10
13
30
-36
-13
8
0
9
30
-12
14
-7
11
29
8
-9
-10
-18
-6
-15
34
3
-23
-26
-6
9
5
-25
14
2
3
-9
34
-4
2
-4
-8
8
13
12
2
11
-13
-13
19
-9
14
-4
11
23
-13
14
21
-12
17
-16
-10
2
-13
-15
10
-6
1
0
0
20
-44
33
11
40
8
-7
18
-1
30
-5
6
44
-22
-12
5
13
14
-3
13
-9
4
0
-43
4
0
7
8
1
-4
24
16
-13
46
10
5
7
-7
3
-13
1
1
-27
-5
14
9
3
14
-9
9
13
9
15
-17
-31
-24
14
0
21
-8
-19
5
15
-9
-2
5
-1
3
9
-1
-14
35
-23
14
-6
19
-15
10
-14
-5
21
8
1
6
-12
23
19
-3
-5
-22
15
-2
13
13
6
-28
10
-26
3
16
-5
11
-16
8
12
-2
14
-21
7
-19
20
-6
24
1
-34
0
2
14
-11
1
11
7
-6
9
-15
2
-5
-15
30
15
42
24
15
3
-6
-21
-4
8
33
-14
16
9
-21
-10
27
25
7
21
0
12
1
-7
-5
-8
-2
7
17
8
-7
-11
14
29
-5
-14
-11
1
7
24
15
23
-14
42
5
-16
-46
4
40
25
-14
-30
6
23
3
0
11
-8
-13
-13
2
-6
-21
-13
-2
4
33
-6
18
24
-19
24
20
-41
28
-31
-3
-35
1
4
-1
13
37
-19
14
-30
-16
-5
3
21
-4
24
21
-10
10
-14
-31
30
2
-20
1
-5
-6
-3
-4
25
-17
5
2
-25
38
10
4
3
-2
24
-14
-15
-3
9
0
-13
28
19
-5
4
11
-19
-9
40
-25
-12
22
-13
4
14
11
-10
9
13
-16
10
-1
-8
6
0
-38
19
9
-41
18
2
15
28
-2
-25
43
-2
-3
-1
-10
-31
-15
7
1
-31
16
3
2
1
1
-16
-16
19
24
-6
-14
-6
-23
-10
-17
-20
8
3
0
14
4
1
33
7
13
9
17
-37
-15
19
-5
18
11
7
17
-7
-5
22
10
1
7
-2
-10
5
12
-14
16
13
-12
24
-3
26
0
-10
6
23
-16
-3
-19
-11
25
-23
-3
6
-23
-22
-9
-3
11
-4
-18
-37
-22
9
5
-21
12
2
-9
32
18
-18
-4
7
-29
-32
9
29
-13
-14
21
-12
4
-12
32
-4
-17
19
25
-1
-8
-18
-14
-6
-7
17
30
-2
-2
28
-7
-1
-42
8
-14
-4
-23
3
-4
0
6
13
4
38
23
8
-28
14
7
-6
-26
13
16
-35
5
-19
10
-25
2
-15
-25
-27
-18
-23
-19
24
19
13
4
6
-23
20
18
5
12
-7
3
-20
-12
-9
2
-34
4
-16
-31
-5
28
1
35
-10
37
2
-4
20
33
-13
19
-23
-23
-46
-22
5
-11
-2
-23
32
9
-6
17
-22
13
19
39
-24
-15
8
-37
3
-14
-7
-14
8
18
-8
-16
6
-40
-14
9
-7
-31
9
-14
-13
11
7
1
30
-19
6
22
-2
-5
9
-18
-4
-9
-27
18
-17
7
6
-2
-16
-24
3
31
21
4
-26
-11
4
13
3
-12
12
1
-11
-13
-5
-6
2
-21
25
14
4
-7
10
13
3
2
-11
15
-24
16
-1
31
12
-30
-38
-6
15
-8
3
24
19
-2
40
-5
-18
-31
-50
-32
2
13
14
-1
3
-14
-17
9
-23
-43
47
24
-6
19
12
14
-9
10
-7
14
35
14
2
-15
6
1
-19
34
-32
-7
-16
-2
6
12
-5
-15
3
39
-18
-17
-26
12
-9
15
-2
-5
-17
-7
0
13
-25
8
-24
-12
-43
15
17
-36
15
-33
31
-2
-25
0
-13
-10
15
24
-24
-18
2
-9
-21
-11
18
23
-4
23
4
-22
-13
3
3
67
9
4
27
15
-19
-12
3
38
18
14
-14
-7
-8
-19
48
-16
-13
-12
-34
-5
17
24
42
8
12
-29
-6
6
23
-6
5
4
-29
5
26
-1
-42
-3
13
10
-3
-10
31
16
-11
-35
7
6
-16
-12
23
2
-12
-7
-53
-5
-12
7
-1
3
-9
-35
-6
-2
-41
-3
-20
-25
10
41
-5
29
11
8
-4
-13
-10
22
7
-20
-15
1
-30
-8
37
-1
-7
-4
18
11
-19
30
-23
13
-16
14
8
1
27
16
18
24
-17
4
9
23
-9
-28
-5
-30
-5
6
5
-13
-8
30
25
-22
21
9
-36
-12
-18
15
-7
-5
5
-4
-27
7
-25
17
22
-15
-15
-24
-32
-5
24
-18
-2
5
-12
-6
-16
-43
-18
12
13
0
24
-25
19
32
-5
16
35
-20
10
-26
-4
45
5
9
-4
-28
-3
-17
22
7
-5
2
-9
-12
27
-3
3
-8
17
-44
23
-32
-6
5
13
38
-7
19
51
-12
38
11
40
-26
30
-8
8
29
7
13
35
-1
16
-11
-8
19
2
-17
-4
7
11
8
48
-26
15
9
16
15
-10
-4
-56
28
1
21
-14
-17
4
-42
-59
-9
13
45
-13
14
0
-14
2
-4
29
37
-19
-40
22
21
-8
41
-3
22
23
-12
-8
42
-11
-8
-11
12
-8
-2
23
-4
-9
-9
25
15
-2
-1
-28
12
45
-5
19
14
-10
12
20
-17
-40
-15
-38
-30
8
4
-30
-16
0
-36
-3
13
10
-31
18
31
47
22
-12
21
-16
21
9
9
17
44
9
-2
-3
-29
-3
7
-4
18
-10
26
4
11
-22
8
-3
-19
-16
39
-9
20
5
42
-13
31
23
26
1
-37
-24
-10
-5
-22
-1
17
-14
-4
6
-39
6
58
22
8
-9
-47
22
-4
-15
-7
15
-16
-15
-22
-12
-9
-1
-1
22
9
-4
24
3
-22
3
-15
-19
-2
0
-29
-20
19
15
-21
31
7
-6
11
-6
-11
-2
-33
-3
-5
19
-24
19
-31
-22
-4
-4
-12
-34
42
-4
4
11
13
-10
-20
-15
-17
-36
-11
-12
-15
-7
19
-41
24
-20
-25
22
-25
-7
-36
9
11
19
-3
-18
-1
-9
-17
6
-20
32
-27
12
22
15
32
-26
-20
-20
-20
10
0
-31
46
24
-14
16
-16
-15
-21
6
31
-11
8
24
-6
-53
5
-6
25
17
1
23
37
39
40
12
37
-26
7
-7
-15
-13
-8
-9
-3
-32
14
-10
-10
-12
27
7
18
10
1
-15
-5
-6
10
-2
48
-16
2
7
-33
-2
15
14
-17
-14
21
29
-21
12
5
-31
35
-6
-3
21
3
-16
25
-1
-7
30
14
4
20
12
0
-12
-27
-29
24
-5
22
14
-6
-29
-30
-34
33
-12
21
-5
17
17
12
-14
-11
-32
-4
1
11
-16
3
7
21
8
13
14
21
-5
33
-14
-21
-17
0
-28
3
-16
7
12
20
24
-5
0
-34
-6
0
-28
-22
-15
-3
-1
-20
0
6
10
-32
-26
-2
-37
10
12
-1
15
-11
-2
-3
34
52
12
-23
19
3
7
-25
16
-27
30
-4
24
-6
27
34
12
19
-9
28
-10
20
-2
-30
10
-21
7
-5
29
-2
2
-6
-13
-2
-2
-28
18
-40
-20
-2
8
7
20
4
-19
1
7
19
-27
-22
10
5
-22
2
-9
-4
10
-21
3
0
20
16
-25
0
-3
-8
-25
-21
-26
-26
-8
-35
20
17
-13
-5
-4
29
-5
-12
17
-16
-10
-14
29
8
0
-9
12
6
8
4
-9
-7
-16
-28
25
0
-33
29
12
1
51
34
11
-1
29
40
-2
-11
-17
0
-1
-60
-6
26
7
-6
-23
-23
-36
20
-31
7
-12
-35
-15
12
-19
17
23
-15
44
52
-11
26
-8
-4
12
12
-6
-23
34
19
14
45
-19
-13
27
-25
39
23
-13
6
9
-13
12
-1
-27
32
4
-19
5
22
-28
17
-10
19
-1
-3
16
-11
6
-13
-3
18
-9
8
-16
-33
-24
-24
-38
-8
-17
18
-17
5
1
6
21
-10
-21
-12
34
-42
3
8
36
14
7
3
12
-9
-2
29
21
-21
1
-17
-11
-24
21
-8
-6
0
8
-15
4
-17
-10
-14
7
-14
10
24
-13
27
-13
-20
-5
1
2
3
9
-25
-20
-19
-1
-17
-31
-5
-54
-11
6
-20
8
25
-16
13
-17
4
7
-21
-21
9
11
-9
-23
-13
9
16
8
4
-11
12
-4
17
-3
6
-12
16
-28
7
7
31
-9
29
-25
-25
0
-4
-1
-14
20
21
1
-7
2
-4
-23
2
8
0
-2
6
4
4
-7
-15
16
6
22
2
2
16
-27
-7
1
-18
-35
3
7
1
3
15
21
11
-2
9
16
-28
-10
-13
9
-2
-11
-12
15
-11
-6
6
18
-10
2
32
-10
-1
5
-5
1
0
-5
-11
-39
14
-31
-6
-3
-3
9
-18
-7
-3
-18
-5
15
-19
31
-7
-28
36
-5
5
2
-30
7
-32
-13
16
-11
4
32
28
-8
-22
-11
13
-2
27
-30
24
3
-41
-21
2
-6
26
-8
1
32
3
-18
5
18
-33
3
20
-3
27
33
30
-23
-7
0
-7
-6
26
-3
-3
2
15
-15
-11
-11
16
-9
3
-26
24
13
-20
30
9
-2
11
-2
-18
-11
23
2
-7
8
7
-36
15
-17
-15
21
-13
4
-7
20
-4
15
-24
-6
52
-11
-9
-2
34
-5
-19
0
-22
-35
-3
29
-1
-2
-16
-19
-11
30
22
-6
-35
-16
1
25
5
10
19
-34
1
-5
12
17
2
15
-32
-1
-39
-8
-39
18
28
4
-24
-31
1
22
16
-41
22
11
28
15
-2
-6
2
-2
-27
-11
23
-30
8
-28
-8
-34
9
-3
-21
-23
21
9
33
-19
-29
1
20
-19
-10
-34
29
23
17
-6
9
32
-22
33
0
-29
50
-26
-24
2
27
30
22
13
-13
-5
-2
8
5
2
19
-28
-8
-4
7
0
27
12
7
-33
12
13
-10
-11
-9
5
10
0
-15
9
13
10
-8
25
1
-4
-8
11
10
22
7
1
-18
15
-7
-23
-1
-6
-26
14
6
9
36
2
-33
6
2
-12
2
-15
17
2
-9
31
11
-26
16
-40
36
0
-13
3
20
-15
18
30
1
-10
10
6
18
12
32
-12
-8
19
0
3
3
5
21
26
-7
-5
3
3
-36
25
-12
7
-14
21
-43
0
-18
-11
23
10
-25
-5
4
13
-48
-10
-6
-9
-9
-6
-19
1
29
1
25
-9
9
0
6
-24
-9
10
3
14
-23
-19
-22
-17
11
13
-22
19
-7
20
17
32
-10
7
7
-38
7
13
-23
10
10
21
9
-21
29
-9
-21
3
39
12
-23
-29
-13
-16
-3
-2
-5
13
-31
-15
-8
-5
11
0
-18
12
-17
7
-32
22
4
7
-6
-1
0
15
9
-4
-30
-35
7
13
5
10
15
9
-25
11
22
3
-25
17
-21
9
-8
-4
-11
-3
-9
27
-2
34
4
5
-4
-4
-10
5
13
-4
-13
-5
2
-3
4
17
-44
-12
10
14
-21
18
-16
16
6
-18
52
-8
-21
-8
24
12
-3
14
28
-29
-12
4
-18
26
25
-15
14
11
25
14
38
-36
5
12
11
18
29
-8
7
10
7
-6
-45
-14
-8
-13
27
14
3
-14
23
-3
-14
-18
19
-14
7
-38
5
12
0
4
4
2
-9
-16
25
-2
1
-8
31
13
21
0
-33
-38
-45
-7
2
3
-14
14
12
1
27
-5
1
13
6
-19
2
-6
-19
19
20
-3
-16
25
17
-20
3
21
-19
4
-5
-23
17
-9
12
7
-6
25
31
-11
7
5
-9
-9
-7
-10
6
-7
-15
10
-6
22
1
-8
-13
15
-15
9
-2
-1
7
-20
-18
1
1
-28
10
8
10
-2
15
-6
-5
17
9
0
-34
17
-7
17
1
-27
2
-2
7
-20
-14
-37
-8
28
23
5
17
21
-17
-4
4
13
-20
-6
-11
-12
5
35
-38
8
11
-5
-36
5
24
-15
13
-9
-17
5
9
2
6
-30
-2
7
-5
16
16
9
8
-9
18
6
22
-16
-14
3
13
8
3
29
6
2
-16
-19
-11
-7
-1
0
-23
-1
-8
-6
-2
8
-22
29
-17
4
22
-3
24
-20
16
-38
-8
3
-15
-6
30
19
31
15
-8
11
3
23
9
-37
-3
33
-35
15
-6
-1
15
-4
28
-5
-1
-18
22
-12
-7
30
7
-1
-4
-1
6
6
-26
-5
-11
15
-14
-9
1
28
27
4
16
-21
5
17
2
14
18
39
-4
-27
21
3
-6
19
5
-7
8
-24
19
21
2
8
-15
-23
7
40
15
17
-9
12
-10
-9
-10
-36
0
0
8
-4
18
-21
-13
4
-16
-18
-12
-3
12
-3
-1
33
7
-20
-16
-16
-9
-28
10
-31
10
3
-3
-15
-3
-2
22
18
-5
15
17
-7
19
-14
-11
5
-31
-32
23
-14
15
-15
-18
2
13
16
-25
-11
14
27
-21
24
-4
-20
18
-11
-21
-18
-5
-38
-26
-33
-27
-9
32
23
-2
-29
46
-4
-8
-26
9
-13
-10
6
9
36
-12
10
-10
18
-6
-11
38
-28
-8
28
-32
42
-30
-12
-2
-21
-4
1
4
0
0
0
34
-6
2
6
11
9
11
0
13
-11
14
-8
14
-4
-5
16
-3
11
1
25
-21
-2
5
-8
-8
1
10
-10
-26
18
2
21
-3
-10
-3
-20
12
2
-19
-19
-23
2
25
24
-9
-30
-4
-23
-6
15
3
-18
-12
23
-5
-2
-33
-3
-1
-17
8
-11
-16
13
6
-4
-27
-9
-4
-24
9
21
16
24
-20
4
-17
19
-19
15
-9
5
8
11
40
13
17
9
6
-27
31
24
3
-16
15
27
-19
-9
-1
-39
-18
-21
3
0
14
-21
-7
28
-1
14
-3
-22
-21
-2
-2
-9
8
4
-9
13
6
-9
3
25
1
42
-16
2
-4
-9
3
23
7
-42
16
0
5
-2
-13
12
-37
-18
-7
4
-7
-2
-9
28
-3
43
7
-7
12
6
-8
-7
5
-6
0
-10
-17
4
19
-25
-55
28
23
51
22
-20
-13
11
24
17
16
-22
14
-27
7
2
28
-2
-3
12
20
-1
23
5
-12
-20
8
-25
-4
26
34
19
11
24
-5
-25
-19
1
-14
25
0
17
-1
7
37
-1
-2
36
-13
3
3
1
-26
-30
-6
16
-13
10
16
50
-7
-11
13
-11
-14
-26
13
-3
-24
-17
-34
-9
13
-34
36
-41
12
13
-1
-23
6
-42
-31
-8
-1
3
4
-36
-22
8
7
6
1
12
-35
-6
-20
-5
-1
-7
-7
23
-12
17
-4
15
-34
7
-6
33
-10
14
-7
4
-6
-8
1
22
-25
-41
47
-8
-11
-20
12
-13
29
10
7
-5
-6
38
7
-56
-33
-7
-2
-27
9
-19
-32
-12
-15
3
-13
11
-34
-27
0
-17
-5
1
-16
20
-15
-53
11
3
-23
-15
22
-38
27
-10
-13
39
2
12
-30
10
28
-27
-20
28
2
31
20
-13
4
37
-17
0
25
40
13
-4
-31
26
-16
5
-2
1
6
-32
-19
12
-16
22
-8
6
10
9
-29
-32
-3
-19
-12
3
0
-34
14
-15
-20
15
15
35
41
4
6
-8
22
-25
-49
27
-13
-1
20
-6
-6
-4
9
21
21
1
-14
-13
30
-19
15
7
11
-18
-21
-4
9
-40
1
5
-15
1
32
-5
-8
-17
21
-20
-9
-4
7
-4
-15
9
7
14
-4
-18
-14
11
2
-20
1
4
17
-10
12
-12
-9
26
-19
-49
-32
21
16
-22
-28
14
5
-35
20
-14
35
4
-7
25
0
-16
16
9
11
34
-34
-12
20
-10
-20
-10
25
8
10
-8
-16
-17
1
-3
-4
-20
2
-14
-4
21
24
-3
11
-26
6
5
-9
-14
-29
14
43
-7
26
-35
26
-22
14
-21
25
-6
13
2
-25
-18
-8
25
-30
-5
35
-35
1
5
-14
16
15
18
-34
13
11
16
-13
-35
15
-13
-18
6
-7
19
-13
-5
-4
-9
35
1
-4
-23
7
42
-24
-40
9
-22
23
-10
-12
15
-16
33
17
42
-51
-9
42
-29
-21
39
-15
-32
-5
-36
-19
-11
-14
-23
-10
18
-12
-16
14
10
-27
-18
-28
8
3
33
-32
-5
-22
0
-35
-13
-8
8
-1
4
5
6
15
-42
2
-29
-45
28
15
37
21
-14
1
-48
-15
20
10
-6
75
-10
2
-15
8
-17
0
-19
-3
21
15
6
15
22
14
0
-13
22
6
-8
-25
-14
-17
-13
3
5
4
-33
-23
-23
3
-11
13
-15
-4
30
5
-7
-8
-10
25
13
7
-23
11
26
8
26
12
27
0
11
-39
-1
-9
-2
2
-10
-7
11
-5
9
-15
14
-2
-2
-5
-23
11
6
-2
-14
-4
9
-33
-19
-6
9
-3
19
4
-23
9
12
8
13
-19
-14
-11
-17
-16
-21
30
9
-17
-22
25
-18
-27
-12
-1
0
0
4
13
4
-19
-28
11
-3
0
0
-14
-5
-18
-7
-14
-18
-8
-18
-13
8
-6
5
0
-13
-14
28
-6
-19
7
-1
-19
-16
6
28
-25
10
-5
11
-5
-19
-1
-22
9
7
-13
0
-14
4
3
17
32
8
-22
18
3
4
0
-14
17
-25
4
8
-5
-19
7
-5
-4
12
-2
-34
-24
-8
-1
11
-12
-13
-14
12
2
-31
-15
19
-7
13
-11
16
4
-17
-31
26
-22
-14
-17
6
-18
-18
-23
0
3
-6
-8
35
4
-22
9
-4
-9
-1
7
35
-16
-9
4
19
-2
-12
-13
-17
-19
-13
-14
-3
-4
9
17
15
-13
-18
-8
19
10
-12
0
7
-15
-9
-11
9
24
-9
4
-16
3
18
-4
8
25
12
-34
7
-1
11
11
14
-8
3
-23
0
-6
-8
13
45
14
-31
-5
-24
8
8
-4
17
15
-15
25
-26
-13
-2
4
4
5
-22
-15
5
3
5
-23
-11
-7
-8
-2
-17
-13
22
1
-31
-9
-4
-8
14
25
1
1
16
14
-10
-7
-1
3
18
19
-12
-8
-2
11
-21
-8
-8
-19
16
-10
1
8
12
5
0
-13
-9
15
26
-13
-8
7
31
-3
-4
-12
9
4
12
18
20
-4
19
-6
-4
5
-2
4
-3
33
2
-7
-6
-3
10
-26
12
-3
-4
0
-20
-18
-14
11
-22
-23
-16
-8
17
-13
-2
6
10
-26
5
11
-9
1
10
-6
-16
-23
-18
9
-9
13
-19
8
15
-5
0
-2
18
33
33
8
-7
-15
-3
-3
14
25
-18
-14
16
-16
-18
8
-9
26
1
19
20
-45
5
11
-23
-7
-9
-15
0
-9
-24
40
-5
12
-32
2
2
-5
22
8
42
-15
7
13
-1
-20
4
-28
29
-3
26
10
-10
-20
19
13
34
1
38
23
10
-43
7
28
4
-13
3
-21
-10
-36
-4
-31
-17
-43
-15
-13
-5
-6
25
13
7
10
5
-13
12
-3
10
6
5
-2
-15
-8
41
-15
-11
2
-18
-12
-63
-10
-4
-5
-27
-8
-7
-6
22
-13
-4
-4
-13
-29
10
-11
-31
-13
-1
7
-2
-2
-19
-23
-15
22
20
-3
17
34
-5
14
15
-12
-14
15
-15
-24
-6
30
-40
11
2
32
-10
15
-6
-12
35
-33
-4
20
-34
6
6
-44
-29
7
-16
14
25
-14
-7
-27
-15
8
1
1
2
14
-36
-13
0
28
14
12
-2
2
34
35
6
8
7
-6
-34
-3
33
5
-9
-20
-38
-16
3
31
8
-17
2
20
30
-6
-31
-12
32
1
31
13
-35
-1
-14
-21
6
7
13
20
-41
7
-37
-34
-28
-44
-7
-5
25
-25
12
26
-41
-15
-2
-12
17
20
-30
-53
-15
19
11
26
-24
-13
-4
6
19
17
23
2
-8
-24
22
7
-16
-45
8
27
13
7
-27
-24
13
12
23
0
-13
-17
6
-20
1
-26
-17
28
-3
-11
20
-12
-35
0
-23
-19
5
22
-33
10
-12
-35
-16
-47
-19
-17
30
-5
-35
8
14
20
19
-5
-15
-48
0
1
8
1
-6
11
6
0
-16
-9
19
3
4
45
12
21
-21
-21
-12
-31
-10
11
23
-41
-38
43
29
-28
5
11
-5
-57
20
-8
13
-10
19
-14
-5
-14
-32
-11
-16
9
-15
16
30
-9
-2
13
-30
11
2
8
5
33
-29
43
-6
-34
-11
-4
16
-51
0
27
-37
-28
-15
-40
42
35
-20
13
-4
11
7
7
-9
38
14
37
26
34
-23
-9
-6
-3
2
23
22
20
-20
-6
10
30
-24
5
-11
-31
-8
8
-1
0
37
-17
-8
8
-1
-10
-18
-7
-46
26
10
-28
-40
0
-18
-38
-3
3
12
-5
13
5
1
0
12
-11
-3
14
-9
27
20
9
-8
-20
6
2
33
35
-22
-26
-11
5
-22
3
-41
0
-9
4
-11
-23
13
-25
-8
20
3
26
13
17
-26
20
22
-28
-16
10
12
-29
-19
7
11
-4
2
-47
21
11
-10
1
1
17
-32
6
21
-20
-29
5
47
0
-39
16
1
-22
-15
-21
17
-11
-29
21
-10
1
13
-6
-22
1
15
-1
-26
10
19
10
7
-16
-19
-36
16
-6
-5
-38
-36
2
-6
-27
2
-32
6
39
-12
0
4
-24
-13
-4
-6
12
-4
-29
14
-23
-11
19
7
16
-33
11
3
-13
-11
2
-25
-15
-32
-18
-8
-7
18
6
-17
-2
-5
-1
3
-28
20
-21
-10
-12
5
10
2
36
10
16
7
3
-15
-11
28
9
-18
-21
34
-24
0
-20
20
14
35
3
11
15
9
-15
3
45
-2
-28
10
-31
-2
-35
-3
-5
7
11
-11
-11
-34
-2
-2
-33
26
-7
31
-6
-18
-20
12
-9
-5
-15
-29
7
-19
-23
28
-10
-20
19
-1
6
-12
25
-7
2
-2
-15
-6
-3
4
29
-4
-6
-6
-5
-10
0
-31
11
-1
-18
4
-11
31
6
-4
-26
-3
14
10
0
-3
-17
12
-22
20
-36
11
12
2
3
36
11
19
-3
21
-3
9
5
-10
11
10
2
6
-13
8
-1
5
-2
-5
18
21
17
3
3
24
3
-8
7
2
-13
-7
11
1
19
30
30
-6
-4
26
13
-2
-9
1
23
-1
7
23
-13
27
6
-3
25
28
-17
-14
17
17
10
-8
14
16
-27
15
-10
0
-10
24
-14
-24
10
-8
25
43
-7
-10
22
-4
-9
16
-7
31
-20
0
-12
-32
21
-10
-1
8
-24
29
-13
1
-2
-10
15
-4
-15
-5
-4
25
-1
-11
7
-7
-2
13
9
9
8
20
-19
-20
43
-24
1
-6
12
-5
1
32
-3
-5
17
-13
-15
5
14
-8
15
-34
-2
4
28
0
3
15
-6
-1
1
-12
-4
-3
-15
-23
-1
-17
-25
18
12
9
7
-14
9
41
8
-3
-6
27
12
30
-8
-17
10
12
-21
-21
-20
9
9
-2
-5
-24
12
5
-26
14
6
0
-4
4
-10
-7
-4
6
23
7
21
-6
10
-2
-41
-7
-20
-15
21
-24
-27
12
9
1
-16
5
7
-7
23
9
-6
14
26
-14
-6
-16
2
-8
-10
6
6
4
-21
14
16
-15
-17
17
-1
15
7
2
1
-22
-7
-26
-16
-13
0
-24
-14
7
20
1
7
-8
-23
23
27
14
-2
-11
-21
7
-3
36
-4
14
21
-16
-16
-3
6
7
12
35
18
12
0
8
-9
-8
4
11
20
-23
-4
0
24
-15
1
-15
-23
-1
21
10
-18
-31
-18
-18
-46
0
16
0
-26
15
-11
-2
-7
-6
2
-68
14
5
11
24
8
-18
20
-9
0
8
-26
5
19
5
4
10
-1
-22
-8
-24
-16
-29
4
5
33
15
12
-22
2
5
10
23
11
-11
12
-7
23
-27
18
6
5
-5
-22
-21
18
13
6
9
-6
-4
2
-17
-29
1
16
-10
3
20
-4
-38
-18
-2
19
12
33
-10
19
26
11
22
2
-22
13
-6
19
20
21
34
7
11
-30
11
3
-5
12
-5
-9
4
-28
5
0
-5
-17
-1
-23
-27
6
-23
-24
-2
-7
10
3
-38
-8
-1
-1
17
-5
-2
-7
7
8
12
43
12
4
-1
13
-9
0
-5
-4
26
-13
0
11
-14
-28
-25
-27
2
-7
9
1
26
-14
-7
14
11
8
10
3
5
-13
22
17
20
28
-15
-7
-13
-24
-10
-9
-19
-13
4
1
-22
13
28
14
19
-4
9
7
-11
8
6
-3
1
1
0
9
3
14
0
-22
1
23
22
2
23
22
2
0
-26
24
-19
-15
-1
16
17
0
-9
-7
-16
-2
-8
-22
25
51
-4
-6
-41
2
-10
31
7
24
-1
20
-6
11
10
-24
-16
4
-18
-18
25
31
-20
19
19
17
-22
0
-19
28
11
-5
17
-23
9
-45
4
8
-3
-2
39
13
-6
25
1
14
-24
-25
-9
-34
10
-20
21
-4
-14
-2
6
-12
-1
1
8
-12
-4
-33
12
12
12
2
-21
-10
0
44
2
9
1
0
-3
-29
6
-7
-22
26
-8
19
31
7
-7
-5
1
-33
-14
33
8
27
-18
-18
6
1
-20
19
-26
6
21
-3
8
25
-2
-8
-14
-37
43
-33
-9
3
12
0
-9
-10
21
-8
33
9
-40
0
14
36
0
17
-6
-13
-4
-12
17
20
-23
17
-28
8
32
1
14
-24
-8
-20
-19
3
17
20
-23
-3
18
-47
-3
5
-44
-8
-6
3
20
4
23
-12
-20
-5
-2
-25
-13
23
-10
-6
35
-7
-8
24
-5
-4
19
7
-7
-4
25
-27
23
-1
8
-5
14
21
4
7
5
-10
-22
-7
-5
-15
18
0
-13
11
0
10
-24
23
-7
-8
-14
1
-21
-14
0
-8
14
10
8
-40
13
25
0
-2
11
-18
-17
3
6
1
-16
-11
11
21
4
50
15
23
20
12
43
17
-16
-31
-10
54
-17
-10
20
-2
30
51
1
-1
-10
-50
11
14
-5
19
-21
3
27
10
26
-14
-13
15
9
17
-18
-16
21
23
29
28
-21
31
23
-27
-25
1
-15
31
1
28
-12
-12
0
-6
-6
-3
2
-5
-6
-6
37
-10
-11
1
0
23
-11
28
15
23
19
-15
6
35
-2
-20
14
-44
22
-30
-20
-18
-3
16
-13
33
-3
1
6
24
-6
8
-10
-3
-29
-28
11
-23
16
-1
16
14
39
5
10
-2
3
29
7
-56
1
19
-15
4
21
5
18
-1
-13
18
8
1
-6
36
4
7
16
-7
-17
-1
3
1
-1
22
-36
-24
17
-3
9
14
23
-46
-13
6
-6
-17
-18
-11
-17
-14
0
11
18
20
27
-2
-25
34
3
-6
-24
-11
14
7
-12
31
29
35
-5
-1
3
-43
-6
-1
10
45
-7
52
-2
0
-15
-10
33
-4
25
7
-38
29
-4
-46
-11
8
-44
29
-28
28
35
-15
-5
-37
10
9
40
7
10
11
26
1
2
-29
2
-30
20
-10
44
-14
3
-6
-21
-11
27
-1
20
23
5
-34
17
6
21
-8
-26
66
12
4
3
-2
20
33
32
19
4
-9
5
-6
13
1
-35
-12
-12
10
31
15
27
-12
13
-7
33
-11
2
-48
9
5
-5
-49
-17
21
10
42
-1
11
16
-20
13
-41
41
-17
-27
22
2
-21
43
-28
-26
-32
-7
-5
-17
-28
-30
-9
-15
-21
17
-19
9
-29
-14
-16
19
30
-20
18
89
4
-69
-33
17
-26
20
4
-23
-11
12
-21
-14
34
16
8
-26
-15
15
-19
-12
-3
8
19
-13
2
14
-21
23
24
19
14
-40
8
-22
6
35
-9
-22
14
-34
-6
36
17
-30
5
33
21
41
22
19
-7
-9
46
25
-7
14
-7
17
23
9
-20
-14
-19
-40
14
-3
-19
4
11
2
21
12
12
48
-12
-40
51
-21
-6
4
33
24
8
-6
-1
8
-23
-6
19
-2
16
0
-5
-14
-64
-8
9
-19
22
34
-19
-31
-16
-9
27
-19
-20
-3
-14
-24
6
-7
-21
5
17
-20
24
-54
40
-29
-12
3
4
-16
10
-14
5
8
-17
-13
12
11
-15
-5
19
-16
2
-23
62
-12
5
26
4
-19
-14
-24
13
-14
36
-4
-4
-10
-22
11
17
5
-10
-36
-2
18
-16
-40
42
-32
13
33
-52
-14
-6
18
-12
31
-2
8
-32
-8
29
12
-28
22
37
6
-27
-32
-15
-8
16
-7
9
9
-42
-13
40
-19
-6
-22
-12
-10
10
-52
19
-9
-2
39
56
18
35
-26
-34
26
15
2
50
-5
-1
-18
14
38
-25
-13
-16
-25
36
35
-40
1
5
-2
-27
-3
-28
21
-22
9
20
-17
34
-44
-4
-16
10
-6
13
-7
15
22
8
14
9
33
7
-5
-24
15
9
-9
-9
24
10
15
-15
8
-13
5
-24
0
-8
10
32
-18
-14
12
21
3
-9
60
1
-5
15
4
-14
13
30
14
-4
10
-13
12
17
-7
14
5
-8
-11
33
-8
29
10
-33
17
-8
18
-29
-7
38
7
-11
-8
-25
34
21
-11
14
-15
-20
-14
-26
30
-31
24
31
29
-43
-11
-14
44
-7
14
-6
6
-29
-41
14
39
1
-43
4
-4
-9
-15
19
-25
5
-8
-21
-14
-18
14
-11
14
33
-29
27
-1
-7
15
0
5
14
11
-17
11
-48
-26
-8
3
-6
-16
13
24
48
2
-2
5
-25
-26
26
-8
15
-4
3
29
1
-3
27
-15
-6
24
-15
6
-5
-32
-17
-18
12
19
11
-12
-35
-3
-33
-17
14
16
11
-28
13
15
17
-10
-7
13
10
-10
-22
1
-5
-11
0
-21
41
-20
15
9
32
24
-19
14
-30
10
-3
6
28
-17
10
-25
-44
-8
-47
12
4
-1
7
32
-16
27
-6
-21
-6
20
-29
-4
42
21
11
3
-19
17
-15
-4
5
18
-33
7
38
22
-17
-14
-15
-19
-5
-25
18
0
13
45
6
-25
-12
-25
36
4
5
15
-22
-31
28
7
-4
23
-21
48
-25
12
-3
-24
14
-17
2
-21
-4
-41
-15
24
0
-25
-11
4
-8
-11
13
49
-15
-14
46
-14
3
9
-15
33
-4
-35
-9
10
22
18
14
-3
27
-21
-19
3
-2
16
9
-2
-33
13
6
-2
3
6
12
19
8
-18
7
-14
-5
3
5
21
24
21
-10
12
-7
-29
-19
-5
-21
-8
15
8
10
46
-8
18
-6
20
16
6
3
-12
15
-15
5
-1
42
12
0
-17
7
2
-30
-14
4
17
-9
-25
-48
-3
-19
36
-25
-32
0
-24
-6
-12
8
-1
-12
5
-19
-14
-7
-4
4
4
-4
-8
13
-1
-30
6
-5
-5
25
26
-12
12
20
4
3
-34
11
13
5
-9
0
-7
-14
-42
3
9
-13
6
5
-6
-7
2
-13
3
-18
2
-7
-16
-16
-4
-1
-24
33
28
-1
-8
-11
-16
-9
16
22
-2
22
8
-10
9
13
-10
-5
-17
-18
-9
-18
12
-8
19
9
7
-12
-27
12
4
-17
0
-8
1
9
4
-12
20
23
-13
-11
6
-2
-11
-29
-2
1
-4
3
-13
1
20
-33
8
-8
5
-16
7
-20
-8
23
-26
17
6
-15
0
-12
-36
5
-3
-12
1
-3
4
-9
5
-11
6
-9
6
32
-17
7
-21
0
12
9
-36
-4
24
-4
-12
-4
7
-13
-29
14
-1
-10
2
7
-29
-7
20
-8
29
-5
6
6
-29
-30
5
-12
50
-32
21
-1
-25
20
2
10
-16
20
20
-13
12
22
-3
-24
1
-13
9
14
7
-11
-9
-34
-17
-15
-32
-15
22
-8
7
-10
7
-5
-14
17
24
7
17
-2
10
-39
-5
-17
-6
25
5
-2
-11
10
-7
-15
-15
-16
12
3
-20
-11
4
-3
30
-1
-24
27
12
-6
-26
3
-18
5
-31
-13
-15
2
22
12
-5
8
-19
26
-24
12
13
-7
-8
9
-12
3
-2
6
-15
2
8
-13
-24
-17
-4
-5
10
-16
11
-6
10
9
11
23
20
-24
9
-4
6
26
-3
20
-2
16
4
1
-36
-21
6
4
-17
-15
7
-6
-25
-14
-7
32
-26
-10
-44
-27
-17
-34
3
0
-7
-40
28
1
-3
-12
-11
17
4
-30
12
-19
20
10
-15
-20
4
-7
-2
3
24
-5
16
10
-15
-15
-8
-9
22
-11
-12
1
33
14
16
-8
7
-20
19
21
20
19
-18
-17
16
10
11
25
13
23
-2
4
8
-4
23
7
11
-2
7
6
11
8
1
-13
7
-19
-1
7
12
-5
-2
-5
0
6
24
23
21
3
-32
-10
0
0
8
7
24
-10
-7
31
-24
2
-1
12
-6
-15
-13
-39
-27
7
-3
-2
-41
20
34
-17
-12
-3
-7
18
-24
-11
17
0
14
-1
25
12
0
-1
20
18
-3
-22
21
5
4
11
17
-5
2
-37
6
3
4
32
-13
13
18
5
7
18
-20
13
24
5
0
26
21
1
19
22
8
-13
-10
28
9
7
-3
-6
-8
-2
-19
-21
3
-8
20
35
4
6
44
27
-8
-6
-11
-3
-5
-10
16
11
8
3
14
10
18
24
-16
-10
-8
-11
16
1
-7
16
27
-28
2
-24
-9
-14
5
-1
-1
-1
-12
-6
14
1
-10
-9
-9
22
5
-7
23
-15
-43
-5
-36
18
-19
18
-13
-10
10
19
-12
8
4
6
5
-2
-8
7
-7
-3
5
-17
-5
29
2
-8
8
18
-9
-11
-7
-20
12
-5
3
11
-11
-9
4
17
31
30
-4
-1
-9
-1
-4
1
17
-18
-10
7
9
-7
17
-6
-18
-32
-15
-17
17
2
0
15
-14
-6
2
10
13
-11
-9
-13
-13
6
5
11
29
11
-6
27
0
-25
9
-13
-2
18
-2
-3
-21
13
19
20
-4
3
-19
32
1
-14
1
10
-16
-17
18
-15
20
23
29
-3
2
15
0
1
-5
4
16
-3
6
15
-12
9
-10
-19
4
21
4
-13
-13
-7
23
24
-2
44
-1
13
-27
-13
-14
4
3
-28
-10
-10
19
5
22
6
10
-4
-7
3
-28
-12
16
-19
5
-10
-12
-2
-3
2
1
15
-5
-1
8
1
-1
-5
10
-13
-21
-2
-7
-2
6
-36
1
14
-4
15
4
13
3
7
24
-16
-19
-17
15
14
-13
14
19
-5
-14
-5
21
-14
19
6
9
12
-13
7
-10
-8
-28
-32
-9
2
-1
-10
-11
-16
0
8
33
-20
50
-3
-18
-4
0
6
28
-9
-21
9
-5
-1
17
-28
-31
16
9
-17
-1
0
-11
-5
-4
31
14
13
7
-16
-11
28
19
-54
-31
3
6
3
-10
-7
22
14
-51
-14
12
3
-4
-30
16
16
-4
4
-17
-34
-9
-2
1
-6
3
29
15
27
-28
-7
41
16
-27
11
-9
11
-3
10
17
-6
26
-35
12
42
31
0
4
-11
-7
57
16
-42
43
2
28
12
10
2
1
-13
17
-26
5
-8
12
-32
29
-1
-3
16
12
4
13
-7
0
-6
20
8
3
4
9
18
-2
-26
-22
-2
34
14
4
-18
21
-3
-9
-10
-20
37
7
-43
-30
14
-20
-7
-5
-25
51
-17
2
-3
-14
-5
40
4
43
-24
22
-16
-33
-9
8
-13
-11
-18
-2
-16
-13
13
11
26
33
14
-12
-7
-7
20
-3
-6
-7
-30
8
-31
-7
37
51
19
16
-23
7
-46
-9
-20
-5
-24
23
32
6
-6
14
3
-48
2
-25
-24
-1
16
1
-19
-46
-7
7
13
-11
-19
6
21
-2
-31
6
-8
-14
4
13
-12
-12
-31
28
4
-41
-17
-42
-15
-11
-23
-16
-35
24
0
13
37
3
-8
11
21
-7
-3
9
-6
-4
-27
21
-24
4
-1
24
25
0
-11
43
-7
18
0
0
14
5
14
19
-4
-7
8
33
-14
-11
-34
39
26
-23
-18
7
-8
-30
-15
33
-1
9
8
28
7
-14
-28
34
-21
-7
-36
-28
-28
-17
22
36
-7
11
-14
-18
24
-5
21
8
35
2
-14
42
2
36
20
0
-2
18
30
-17
-10
19
17
2
-3
14
-1
0
10
17
2
-27
-25
16
-10
-39
1
8
27
27
32
26
3
-3
15
43
-25
-24
-14
-46
9
-35
6
-14
4
-13
32
0
67
-24
54
-3
8
3
-5
-14
37
-9
34
-10
19
-23
-20
-21
0
19
15
-2
5
25
36
-22
16
55
13
-21
19
-7
8
3
-25
1
23
-2
19
7
-8
-38
17
-21
-11
-20
4
5
10
19
-3
-23
-4
9
-10
-1
8
-4
-4
3
14
22
-19
-22
-26
40
21
-5
-14
-1
-14
19
-8
14
-31
-19
-1
23
34
4
39
16
-5
7
-5
27
-13
12
6
-27
17
21
19
3
-1
-18
-31
1
-20
-37
10
8
-9
-6
11
-6
3
2
-16
24
8
-3
-21
19
-3
-19
32
-29
-4
-19
0
5
6
32
2
-5
1
20
15
-10
17
10
-4
40
-36
26
41
-1
7
1
-16
-14
14
-20
-5
-7
17
-30
-3
20
18
-1
3
-29
0
2
-16
-16
7
-14
39
-12
-9
8
4
3
23
15
7
-29
-8
0
2
4
10
-4
9
-29
-17
-3
1
-2
1
16
-21
8
10
-26
-12
24
26
-43
-10
-16
2
-18
20
0
-2
13
20
-20
25
8
46
-5
2
-35
4
-8
-40
3
6
11
9
1
7
-33
18
-2
10
7
15
-3
-26
27
1
3
-18
10
13
4
-19
-46
-30
-2
-20
15
9
-16
25
-7
1
3
37
-14
14
-23
-3
3
-28
-8
38
20
5
15
3
14
-14
-8
-8
8
-15
-7
-4
2
24
35
-19
-28
-26
39
1
-11
19
-6
-10
-7
4
-1
-5
-7
-12
17
-17
22
-5
16
13
-2
15
3
-11
-22
1
-7
10
-8
4
5
-21
-13
5
-42
32
-13
8
6
-3
-26
3
10
4
33
-19
-6
19
-7
2
6
8
-2
14
-11
-4
-24
-7
-37
-10
-4
3
9
-1
-5
-14
-20
0
-22
8
-34
5
-25
26
-9
8
-18
-9
16
35
6
-3
-15
-3
13
-2
24
1
13
2
-7
-13
29
-31
-28
-16
12
2
-28
2
14
5
40
23
8
2
-18
4
-11
19
2
16
0
2
1
1
14
8
-26
7
27
13
23
1
19
1
-21
19
1
22
8
-11
-5
-5
-5
-21
-5
18
13
-6
20
22
7
7
21
18
-18
-17
15
3
18
14
-26
-9
-26
1
-19
-3
-27
-4
-2
-11
-4
-1
-11
-12
-23
11
-7
16
-5
-9
-20
9
1
-27
35
-1
-16
33
-11
15
-27
-18
4
-12
21
-17
18
16
5
15
-16
8
-10
-4
1
4
21
8
0
20
23
35
-27
-5
16
-4
-15
-11
1
-13
12
-12
-16
-18
-20
-41
8
25
-16
-14
2
31
9
10
15
-6
19
-6
1
-6
23
-59
5
21
-16
-25
-16
1
5
-3
6
-5
-4
20
5
4
-12
-3
25
15
4
-13
14
8
-13
-17
29
-16
4
45
-18
-16
-12
18
-17
-4
47
-6
-8
-1
-36
-8
19
-17
-4
8
4
-7
5
12
24
-27
13
-2
4
-4
9
6
-15
-14
12
5
-8
16
8
-21
38
20
34
39
13
-6
-39
-13
-8
-6
-18
21
-22
-12
-12
-1
23
-40
-19
-14
7
-10
26
-31
-4
-5
25
-2
16
36
34
14
0
18
21
31
-9
12
22
25
-35
38
-5
-6
9
-20
-27
6
10
-19
-46
-32
22
3
-3
-7
-14
-13
-7
-13
-39
6
3
-1
2
25
0
-13
-30
-5
-15
-7
-8
-13
-7
-18
28
-13
-8
-3
1
-11
11
-7
-28
1
-17
11
16
11
31
1
20
-17
16
15
-8
-11
17
19
-37
31
0
-16
8
-16
-10
-2
13
-12
-10
-25
38
-31
-26
19
-4
7
5
39
9
18
-4
-13
14
-18
-19
-5
35
-14
-7
20
-24
-18
-24
19
-23
-57
3
5
4
-20
-5
23
22
-5
-9
56
7
27
3
-10
8
1
11
-17
-26
-25
-28
-17
5
-35
-4
23
11
-34
-1
-7
-39
26
-14
10
10
-4
0
39
-24
-1
-2
-8
2
10
19
8
35
2
-3
12
35
-19
31
-3
-16
9
-37
29
-13
11
9
-28
36
30
-32
4
26
3
34
9
0
-1
2
16
-7
-22
-20
-19
8
5
-1
-19
-11
-14
12
43
-2
0
-19
-6
10
-8
-4
-1
7
-23
-19
5
21
38
2
19
16
7
23
10
8
-9
-3
-8
-21
16
-1
-1
-4
9
-8
-31
25
-4
-10
-37
-17
4
17
-24
-16
-12
3
-20
6
33
-19
-4
3
11
-15
20
14
13
-25
13
17
-6
-13
-7
-15
3
8
18
-10
11
-3
-3
37
-22
30
11
-20
-1
22
7
33
16
-4
-7
-14
13
-1
25
7
-30
-1
26
17
27
-4
-11
-8
5
-4
-12
20
20
13
4
18
-1
-27
11
12
-12
15
-26
-11
17
-20
4
2
40
-10
24
15
-44
-10
-13
33
-6
-10
-5
-19
-6
-44
21
17
-15
9
-21
26
-14
-3
26
-27
10
6
5
-4
-2
13
-3
3
-13
11
-10
-12
-20
46
-3
5
16
-16
5
0
-11
2
-3
-11
4
-9
-5
-2
11
0
-2
-16
2
10
-23
-2
-7
-24
23
8
-13
20
6
-23
9
18
5
-1
-10
21
12
8
7
-4
-22
-15
-15
10
1
3
4
0
-10
-14
25
-20
31
-8
22
-9
-13
-20
-39
33
28
-4
14
31
17
-15
4
28
33
-6
-30
-7
-11
19
-31
-12
14
5
36
-8
-46
23
-3
-27
-9
9
-31
-17
22
-12
-29
21
4
1
18
-14
-19
47
-17
1
-15
-8
-18
9
-5
-21
-4
11
22
-2
24
4
-33
40
-1
4
-7
29
33
20
24
28
18
5
-8
-2
6
-19
13
-9
-6
-1
-21
-7
-14
-23
7
33
28
-8
21
-14
27
19
42
13
9
8
9
-10
-6
-5
33
37
16
15
8
-21
4
6
-9
40
29
-34
-32
-1
8
21
14
10
-28
-8
15
35
29
18
-5
12
24
21
20
23
-31
-20
-16
8
-14
19
-21
-16
1
18
-20
-3
-3
-16
20
31
18
45
18
10
-10
11
-5
-41
-24
17
-7
-23
-8
-6
1
-7
-12
-33
8
59
29
1
-18
-25
9
-45
-3
-9
21
13
-12
-23
13
-13
0
-6
-7
-16
-6
7
6
2
-21
7
-5
10
21
22
11
-18
32
26
-20
0
39
17
-24
29
-9
-13
9
16
-17
3
-1
31
10
32
-34
-2
17
15
5
9
-16
-17
-12
-26
-19
-12
2
-1
7
32
21
-7
-3
17
-20
8
-1
-43
-23
5
-17
-1
-29
1
-17
-10
-10
-1
-4
-33
-4
9
11
32
-2
40
19
-28
18
17
-6
-44
-12
-3
-9
3
-23
-4
16
9
18
-7
8
-36
49
-18
1
-7
10
20
1
-20
-4
6
7
-8
-5
35
28
-41
-2
15
-21
9
15
-6
43
-28
8
-8
-2
-1
22
-17
-6
-8
43
-7
11
9
9
-22
5
-4
-10
21
25
-5
-8
-38
8
26
-6
-3
-16
7
-25
-9
-18
30
-22
29
35
-3
-9
-6
-22
2
13
0
-8
-4
39
8
2
-15
-17
-7
-25
-5
22
-3
-30
-30
16
32
-1
18
-5
11
-8
12
15
8
3
27
-18
-36
22
7
12
-16
-22
7
14
-8
-21
-13
3
2
20
21
7
33
10
-28
12
-16
-7
-3
-2
-7
0
20
-3
18
-19
11
-16
-41
2
19
-43
47
-20
-2
16
-12
21
-25
-26
24
-14
10
3
5
-12
-2
-23
8
-17
16
2
12
40
-17
14
9
6
-16
-12
5
15
7
16
14
8
0
-11
-3
-16
-3
32
-30
0
-10
1
-6
16
-36
-27
40
3
-9
4
2
2
-30
13
0
-20
2
-32
-6
1
-9
-26
0
-27
-3
21
-9
-2
8
18
-4
14
7
-42
-9
15
5
11
14
0
3
1
5
22
8
-4
23
12
0
0
6
-11
2
-6
15
-1
-14
29
46
-2
19
5
-2
-48
26
17
6
19
-22
-6
31
9
-2
4
-19
-7
-23
-6
10
33
28
14
-16
-7
10
-18
6
-32
16
-13
35
0
-2
-7
12
7
-4
-22
-1
26
18
-32
5
-30
44
-20
-9
-8
-16
6
-2
-17
-1
-4
24
19
16
3
6
23
16
5
-10
-10
32
-8
18
-6
-16
9
-7
2
0
23
-12
-1
-32
2
0
-17
14
-10
-2
-5
-16
-5
-7
-3
-4
-7
-22
18
-1
7
20
21
-18
42
13
31
-15
-6
20
-8
-10
3
10
-15
-13
14
34
-8
-7
15
-35
-39
11
0
-9
10
14
-41
17
27
4
-13
-10
6
14
14
5
4
-10
-16
-13
-20
-12
7
-4
-43
14
13
12
-10
5
4
-12
-19
-23
-17
-22
44
7
-25
0
-4
7
19
0
23
-22
-31
-2
0
-6
18
3
-18
15
5
-3
-12
21
-26
-26
7
36
-21
38
-29
13
-9
-12
-3
-44
5
4
-40
-6
21
-5
0
-15
-31
-6
-9
-6
-6
-23
-28
4
22
2
12
-9
-21
-9
11
-11
21
2
14
42
1
-2
39
8
-16
-27
37
-15
-5
-11
-32
-20
12
-4
-25
25
-8
11
2
59
21
19
-12
-13
6
-3
-27
-2
-17
-30
-11
34
2
-1
-1
32
-34
-43
32
8
7
-42
-18
-29
30
9
-16
9
-22
38
-38
-18
-29
8
-39
-21
43
13
17
5
10
-18
-26
-44
14
-4
0
-10
-11
5
-30
-38
6
-24
-5
3
-10
-34
3
27
-48
-4
4
-9
14
-6
-14
0
20
-1
22
-9
-9
18
24
6
-18
40
35
14
0
-7
-26
4
1
-3
-17
25
-9
-5
4
9
-4
13
29
7
14
-6
-4
16
20
15
-12
17
-9
3
-1
-22
18
25
24
-27
19
20
29
-25
4
18
18
11
-11
-4
6
-26
-2
-28
-8
-2
4
-62
-15
21
-22
-10
-4
25
-5
4
21
-10
1
4
-34
7
-14
-13
-10
4
0
-7
-6
1
-9
-34
-16
-22
11
-44
-4
6
16
-24
-19
4
-14
-27
1
-27
14
-5
-15
23
-16
-7
-19
15
-10
3
-13
-31
24
-22
8
16
-3
35
12
-27
14
-14
12
-9
5
37
-14
-13
-1
3
-21
-2
-18
24
-8
27
8
-22
-6
2
-19
2
-17
-20
-5
-1
15
-5
0
-19
17
32
9
10
-11
-20
-6
14
0
-40
13
15
-10
-4
27
-2
13
-4
11
-13
-4
-8
-8
-6
11
-14
21
-17
-25
-13
9
30
15
-16
-12
-7
-28
10
3
27
6
27
1
6
-9
-24
2
7
12
-1
13
-2
0
9
12
16
11
11
-26
-21
5
9
25
2
15
3
4
-13
-3
0
20
37
3
6
11
5
3
-7
-2
-10
36
-47
-27
3
17
-33
0
-4
-10
1
0
-10
6
-34
-30
9
9
16
-21
3
7
-12
11
4
3
3
-15
-9
-24
9
4
8
-2
-3
-5
-19
13
-15
12
0
36
-1
4
2
8
42
10
-22
7
-19
15
-2
8
7
-18
-15
2
5
-1
-11
-7
10
-5
1
-31
-12
0
-3
36
21
24
15
3
5
9
-25
-29
-6
-16
4
7
30
-4
32
-8
-38
-23
-8
-4
7
20
24
11
4
6
-33
9
-16
3
-13
17
11
-18
25
-13
4
13
-10
-1
-7
15
8
-17
-5
-1
35
0
7
5
16
-31
3
-3
-13
-8
-2
-16
-14
-11
10
1
-26
0
-4
-18
-5
37
24
-6
-4
-4
6
-9
31
-19
-16
-1
3
-15
2
-15
-8
-8
2
12
8
15
-5
-12
6
17
-13
-7
-28
-18
19
-28
0
-4
15
-8
-8
-24
4
12
-14
-6
-7
3
22
-17
6
26
-1
5
-45
9
3
-7
8
5
2
-8
-3
-16
-9
8
22
20
-4
-32
3
-9
-1
-2
2
-28
4
0
13
-6
13
-5
6
14
1
-3
-11
-11
31
-10
-5
19
31
-18
8
-8
2
-20
10
-12
7
4
13
20
-8
40
1
10
7
3
-18
15
12
10
-10
1
19
8
-1
-25
-6
11
25
-7
41
9
-1
13
-5
-11
-2
12
25
-44
-23
-6
-8
-4
-32
-13
-17
4
-1
3
16
1
-4
-6
0
29
1
1
-6
-42
-12
-12
19
-28
4
-15
-11
9
7
-2
-17
20
16
-1
-14
5
23
-21
20
-7
-18
-2
-21
5
-6
7
30
-4
8
0
-25
17
14
9
-19
-23
33
-6
7
0
-11
10
-2
11
-14
5
6
-7
-13
1
37
-2
-34
-17
-25
-23
3
-9
-16
2
-3
33
15
-3
-12
1
-25
11
12
-14
-2
-19
-43
-17
-23
11
-27
29
-1
12
21
-6
6
19
-14
-12
-15
6
-4
-20
-11
6
-1
9
2
-3
-22
-16
4
6
30
22
0
-11
18
65
-10
10
-3
11
12
-6
9
3
-13
-20
-44
-6
-8
2
23
13
12
-4
0
14
6
7
45
37
-23
6
-13
15
-15
-6
0
-10
-12
-18
12
-19
-8
-21
46
19
19
-3
3
4
-1
15
0
24
-46
-3
21
25
-14
5
-25
-1
5
14
23
22
-5
-1
-6
18
-27
19
-22
-13
18
23
9
-21
19
-7
-8
-23
9
-18
-10
-22
-11
-37
23
-14
-44
36
6
-16
-32
-13
22
13
26
-9
46
22
-3
-4
-5
-17
14
-7
4
-14
27
9
-5
-40
32
4
-19
-38
1
-25
-25
16
2
8
12
-33
-37
-13
-10
17
33
-5
2
-4
-2
-5
23
2
13
2
31
2
0
6
0
-5
3
12
4
27
2
-24
-2
2
-25
1
5
-16
7
10
-6
-8
-2
-2
23
14
-2
-32
11
-3
7
-7
-8
-19
-11
26
10
35
11
-12
27
17
-7
22
3
15
28
17
3
40
0
21
1
-23
-11
-29
2
13
-6
-36
-10
25
37
-3
0
10
-14
-30
-2
37
23
43
9
0
-25
20
-15
13
25
-20
-7
-9
10
-4
-32
-23
-12
-27
-2
5
-16
14
34
3
-14
-2
19
-4
-29
8
-27
-7
5
7
5
5
-23
-22
-1
0
21
-16
11
-13
0
-18
25
33
-24
49
-36
16
-19
-23
-25
38
0
-9
0
-24
15
0
0
-18
35
-16
-57
-14
10
-20
0
-18
-31
24
-7
17
18
-28
-32
16
15
-32
-16
-4
-33
-17
21
-5
-3
6
-1
4
13
18
-9
1
-24
-21
-7
-32
2
-8
-9
4
32
22
14
3
13
-25
20
-17
-5
-21
-41
15
13
-9
10
-11
-15
-12
-14
-13
-8
-19
-6
-9
0
-9
13
9
-5
5
-44
-5
17
28
-15
-1
-37
-1
11
-23
0
5
12
26
10
-6
10
-3
7
-10
-8
-9
-16
12
-16
18
-15
9
11
10
5
10
-12
0
-11
3
5
24
17
-27
24
-11
-21
12
8
-23
-15
8
21
16
3
-10
-7
25
-8
-9
3
-2
-23
-22
-4
-10
2
-26
-12
12
-10
11
16
-33
-30
15
-6
27
12
3
2
-16
7
-15
13
-14
-6
39
-10
-15
14
1
19
-7
7
1
-24
-14
12
2
0
1
28
-13
-4
-18
-13
-10
-7
21
9
5
-23
14
-28
-19
-4
27
-18
40
-12
13
-14
9
-1
0
-17
-22
-6
-12
-9
-30
3
9
11
-29
4
7
-10
-19
-8
0
30
-18
3
23
-15
-8
-19
-19
3
11
-26
11
8
-18
-11
47
-5
8
8
-11
0
8
-16
-14
-2
11
22
-20
25
-11
-14
16
-7
20
-18
-16
22
-32
1
0
-1
-6
3
30
-30
3
-7
-5
-20
-6
-32
-1
-3
-16
-2
10
17
13
-16
8
2
2
-5
-6
2
-2
-4
0
-7
-19
-6
8
-21
17
2
6
-3
-4
3
3
2
-26
5
10
17
-18
-6
-21
-1
-6
10
-8
8
-10
8
-12
8
-13
-5
-29
-27
18
29
8
1
-30
45
5
-10
-5
14
12
23
0
-5
16
-10
12
0
-17
10
1
-3
-16
9
7
7
11
-17
-25
20
-8
5
-33
4
4
3
-9
15
-14
-21
-14
-1
16
-6
4
6
5
1
-24
19
-6
-4
8
19
3
19
16
-12
1
-6
1
-9
-33
5
11
-15
26
-8
11
-16
2
-8
5
-3
-8
-10
4
-17
3
26
14
-19
15
13
15
26
6
-10
-22
11
9
34
12
26
-39
19
13
7
-4
-8
3
-26
-7
10
21
33
-10
8
0
-20
0
-18
-2
-25
-7
-6
-2
0
5
-18
-33
12
22
30
17
-16
-14
11
14
-5
-11
12
17
16
-4
-4
7
16
-5
14
9
32
-8
-36
-10
12
-40
44
-14
-12
-2
-2
5
-2
-37
-4
-18
3
-8
-33
26
-18
2
0
-37
11
-26
-20
9
35
-14
-20
0
9
11
21
57
-2
-12
41
-15
23
18
-16
7
-15
0
19
-15
-6
0
-2
34
15
-25
23
-1
12
3
4
-4
16
0
13
-1
24
-29
-66
-6
-36
-11
-10
-10
-4
-12
-31
20
-10
9
9
10
11
-63
-17
-14
17
-27
21
-38
25
1
-17
-22
14
-5
-11
-30
-3
27
-9
4
-3
39
-15
20
-7
-4
23
-40
-5
37
-17
15
48
-47
8
24
20
51
-4
11
22
-49
29
-20
-27
50
-2
-3
5
23
12
21
11
-33
32
-7
-2
6
16
-36
-18
11
22
-2
46
54
-27
3
36
-12
2
7
14
18
2
-8
17
-15
-26
-2
12
21
6
9
-4
17
12
27
28
1
-26
4
32
-18
-14
-26
29
6
-11
27
4
-23
-4
39
-40
-3
25
15
3
-36
28
28
3
-28
-34
-13
20
15
-24
-1
22
-6
-27
-3
-36
-18
-33
2
-10
-10
-7
1
35
-30
-13
11
-42
16
-22
-11
31
-6
-54
21
-27
-12
-2
15
12
0
-14
8
-19
-54
-37
23
38
-44
17
-2
24
3
32
2
-16
-15
2
-1
2
1
-16
0
8
-25
22
16
-20
16
-27
14
30
11
10
-11
-27
50
43
9
-4
-4
-53
6
-24
4
30
40
-15
-22
3
-36
5
-34
-50
39
15
-24
-18
16
-26
-12
-19
5
6
-38
-19
-23
2
-15
-10
7
10
31
-7
1
-14
-45
4
-20
13
-14
-33
-17
5
8
2
48
-15
12
-1
23
-12
13
-6
9
24
-14
-2
8
-48
23
-26
-7
11
37
-25
31
37
8
-32
-10
-47
-45
-5
-46
-16
11
-17
5
4
9
14
-28
59
-15
9
-20
12
-3
44
-11
-7
30
32
-13
-28
21
4
4
36
24
10
8
10
-11
-13
-34
-12
-2
-1
-29
14
-28
22
-28
17
-22
12
16
-32
4
-26
2
-19
-40
-10
34
32
3
-18
-3
-15
-31
-12
34
1
20
-7
-10
-24
0
11
-12
28
1
-3
-14
13
4
-7
-5
1
-18
-2
13
32
-2
34
-2
16
-16
23
-32
-9
-5
-3
12
-11
10
-11
7
-11
17
23
-20
8
2
2
-5
3
17
-27
26
-20
-16
4
-9
4
8
26
-12
4
-3
37
9
-34
-1
-7
-14
13
-5
0
-21
19
7
16
-2
-5
1
1
2
69
18
-3
-24
-15
-25
0
-13
-8
10
-4
3
6
19
-8
2
22
15
-13
18
-13
18
-2
-22
-8
-1
16
6
7
-13
10
-3
4
-39
33
-3
-15
-4
26
-15
9
-41
11
-28
-10
-24
-4
4
-22
11
-5
5
11
-4
-1
0
-12
-13
3
-26
-6
-8
4
-24
-12
19
1
-17
-6
-7
-10
-31
-11
-15
17
25
-33
23
3
15
-14
-28
6
-17
29
25
-22
7
-8
-24
-16
-6
43
-21
-41
13
1
-10
14
-25
7
16
-20
16
-8
33
-39
-31
0
-10
-36
3
48
-12
3
3
3
12
1
-33
18
-1
-24
16
-1
-3
10
10
-3
13
17
-38
-28
15
22
1
-10
-30
14
14
4
20
23
4
-4
10
9
1
-14
6
-20
9
13
19
2
9
-32
-17
25
-11
-9
3
-8
29
-31
-22
32
21
-2
-5
9
23
3
-23
10
-4
-2
1
-2
-11
30
26
2
26
20
9
-12
-33
-8
-18
13
-12
-4
-15
22
-11
9
2
4
9
-6
6
7
-2
34
-13
10
-38
37
10
-9
-13
-12
-6
1
16
-15
11
7
-10
-3
-7
12
19
16
12
5
31
-25
19
-4
1
-10
-11
25
18
13
-20
-24
2
23
-9
-17
-14
40
-6
-28
23
8
-5
-30
5
11
4
9
31
-7
-15
-13
-1
8
-12
-20
25
-6
-9
-23
-8
1
35
-40
-3
8
15
-9
-7
3
-14
-20
-17
18
33
6
28
29
-13
-22
3
-1
10
-34
-3
-3
-7
24
-9
1
4
15
26
-2
-3
7
21
-35
-15
-12
-16
-26
-3
8
-13
-12
-1
-6
-41
-10
-48
16
19
-6
-6
-22
2
-15
1
-5
8
4
-20
4
8
-16
8
41
2
38
26
-29
13
19
6
-39
23
11
-18
21
3
2
-14
-10
20
3
15
-8
-30
-14
22
-4
-7
-22
27
-8
20
5
-3
31
-6
3
-19
27
0
2
-25
-14
-5
-7
25
-19
-9
12
-16
8
5
1
-32
-14
-9
5
23
-15
-27
-1
14
24
4
-5
-3
13
-39
6
25
0
30
6
-15
-12
0
-9
7
14
6
-18
-25
-35
0
12
-28
9
4
19
-14
-6
15
-42
-3
3
-20
-16
23
-20
-11
2
3
-11
9
32
16
8
-10
-24
14
2
-7
10
-18
-16
-14
12
11
-8
-6
-14
4
20
0
7
-10
-9
-6
11
32
15
-1
-2
-24
28
-9
4
5
10
-2
22
25
0
6
16
0
8
15
0
32
-1
11
10
23
33
-15
-10
-14
-6
-10
19
1
-1
15
-4
-4
12
25
-2
43
1
8
-29
-1
-12
19
0
15
9
29
-6
-6
-25
17
-18
1
6
-15
-27
4
-11
-8
-20
29
-16
-9
-13
19
19
26
-7
34
6
-3
-7
-2
37
11
13
0
-35
-26
4
21
13
31
39
-6
29
-8
-25
8
-18
10
0
24
11
18
26
-30
-30
-10
0
22
-24
-19
-29
-24
-25
-6
23
-38
3
7
-18
-23
-13
-5
9
4
7
-21
3
-15
8
1
-5
24
-19
-7
15
-4
7
12
4
32
1
2
24
-5
12
-2
18
5
5
-3
4
14
-16
-10
-11
-7
0
-22
-8
-4
1
-33
15
4
4
30
-11
3
12
-36
12
16
-11
19
0
-11
-21
-16
9
16
-12
21
-2
-26
-16
19
-7
-4
-9
-34
-24
-19
21
13
10
-15
-20
0
15
14
38
-28
-4
-3
-6
-11
5
13
-12
8
17
10
6
-15
15
-21
-40
-35
7
-11
1
5
10
-34
8
23
5
23
8
-9
-7
4
-35
-14
9
-15
-18
-11
-29
1
-18
-12
12
10
-43
-19
-23
1
-8
-21
3
28
-5
-6
-13
10
-4
-5
8
-17
-8
17
21
-1
12
-1
-3
-29
-29
-5
2
22
5
2
15
-4
-5
7
-18
-20
5
-27
-32
-16
-28
7
32
1
-11
11
15
-5
-10
33
-8
-9
-13
10
-14
8
-14
-3
7
-37
2
-18
0
32
-25
1
5
-21
-7
28
-4
25
-9
2
4
5
-6
14
-19
-4
28
-13
5
7
10
16
5
-2
0
-25
5
38
-5
9
11
-6
-18
-27
-12
-2
-3
-15
12
-30
35
-1
-6
0
14
-11
16
17
0
27
2
23
45
-5
13
5
-12
-17
7
-3
-24
10
33
-11
-14
5
-15
-31
-38
-4
-37
-1
24
-24
-26
24
-17
0
25
12
-5
-28
-31
-6
-1
-3
-20
9
2
2
-20
9
-42
1
-1
-15
7
-20
-4
25
-5
-25
10
24
-11
32
8
-14
35
-7
-7
0
6
15
-7
19
-19
-20
-19
-15
5
-4
-27
16
11
-9
0
-19
18
24
-13
-19
-8
23
-4
19
13
9
5
-13
-3
-18
-4
-18
-11
-9
2
1
9
47
-3
16
12
-11
-2
-1
-26
-5
29
19
7
-21
-39
12
-45
-26
12
-7
14
8
33
-2
-7
31
12
-4
-36
-2
-14
-3
-4
14
11
-24
7
-26
32
20
-11
-33
11
-4
-1
0
48
0
28
0
49
-2
-13
-16
-9
7
-10
17
4
2
5
-14
-33
-21
-13
3
15
-1
-11
12
-8
19
31
1
-9
21
30
6
-1
-8
-27
-17
-6
5
4
-22
2
-18
5
-13
-6
-12
9
-9
6
-12
27
-9
5
6
-15
18
6
21
-12
0
17
-18
-4
-16
-24
1
8
15
-21
6
-19
-9
-9
2
-1
-30
-36
-37
36
9
36
-1
-5
-11
-7
11
1
-2
-6
-4
-4
-23
1
-33
12
-14
11
-12
-1
-34
-17
1
15
-5
18
5
-4
-2
17
-8
6
-18
16
4
9
40
-2
5
1
0
14
-14
-21
9
-5
12
-24
4
14
-29
-20
-6
19
10
-46
-24
13
0
-5
32
12
-11
-16
-9
21
27
13
-2
43
-16
9
-1
-6
8
48
-29
-5
28
4
11
1
22
2
-28
-15
-35
-8
-3
27
-2
-4
10
8
9
-38
13
13
-24
3
-15
-41
-21
1
-9
15
11
-5
-14
-13
12
26
-25
13
4
-8
-15
6
41
52
-6
12
-13
-3
-28
18
1
21
31
-10
29
-11
0
-14
-36
-13
-42
11
-21
22
8
-37
-32
-13
17
-5
-10
5
0
4
0
23
-18
15
-19
8
31
-2
10
5
-9
-11
-10
-13
-12
27
-1
-19
10
14
-2
-2
-9
42
18
2
12
-25
1
13
3
4
-11
-17
11
-5
19
-17
-13
-5
2
6
-8
-16
24
-25
35
-16
8
-45
-2
-12
-2
-29
38
-14
-18
-12
-7
-26
-14
5
3
-24
-7
-6
33
32
13
1
0
-1
-20
27
-12
10
8
13
6
-7
-27
6
50
5
-1
-8
31
-11
12
26
-7
-21
17
49
-31
14
21
-7
21
4
-7
24
-21
-5
-18
-20
19
6
-10
-3
5
19
-10
38
0
29
5
40
8
-14
25
-2
-15
-34
16
-13
21
8
-26
18
10
10
-8
-10
-11
-20
22
31
-3
-18
-3
4
16
11
8
-7
-33
23
-5
0
-42
0
35
17
-13
9
18
-20
0
39
29
7
-1
11
-34
-19
-8
-11
-12
-10
-21
38
8
0
26
-12
-18
10
-11
-28
-2
-12
-23
24
6
35
-10
8
1
-16
-26
-14
43
-15
-2
-12
41
30
-20
-1
13
11
-8
-30
16
-19
2
-11
11
-9
-27
18
-16
5
9
12
38
5
19
-9
15
9
6
-11
5
4
8
14
-41
-27
-8
-5
22
24
-27
29
-9
-22
20
39
18
0
-6
27
-8
-25
0
31
-12
6
-23
-2
-13
-20
-28
17
-11
0
16
-17
-22
-23
-3
5
-10
3
-7
8
31
29
-11
31
9
5
19
-20
14
20
-2
22
-4
10
-22
17
9
0
-10
1
-34
-2
8
11
10
13
20
-6
-23
19
16
-12
3
10
-11
21
-18
-5
-14
17
-25
8
1
-15
-19
-1
22
-7
8
-12
-5
2
24
-28
-7
-6
8
-12
17
6
-10
0
16
-14
30
-15
-27
5
-7
-33
12
5
1
4
17
11
-3
10
-20
-6
0
28
10
19
-12
25
-9
14
-7
1
9
4
20
4
-27
3
-2
19
15
21
-26
15
4
32
-4
0
3
-19
-17
-14
-2
-16
5
6
28
3
0
6
4
-3
7
27
-1
25
-9
-1
-25
-1
-2
-1
-17
-12
9
-7
0
-10
-41
-32
0
22
-8
2
34
-17
-6
-7
11
-19
-21
8
2
11
7
20
14
23
14
26
25
-4
-13
-8
-10
-10
6
37
19
-14
11
16
6
18
-6
3
13
27
5
-24
-3
5
17
20
-10
-10
13
23
15
-29
6
-25
-9
8
-6
-16
-19
-3
12
-3
5
3
-7
6
10
-9
-7
11
1
-11
-2
7
-25
1
12
20
18
-13
42
42
0
-22
13
7
-10
3
-5
16
5
17
8
1
-10
-18
-6
-7
-38
-20
10
-13
-2
6
1
0
-8
4
8
2
8
-2
-3
-7
9
-38
12
-3
23
-14
27
18
20
-18
38
-33
15
-13
-17
23
-20
0
15
-20
-15
-7
-23
4
-25
-5
-9
2
-14
5
-3
-19
-2
0
26
-9
34
9
-11
18
-19
-28
-13
16
6
2
-22
-26
3
-12
3
-15
3
24
-10
12
-8
24
6
-22
-4
2
17
-7
-10
-15
2
-12
-38
5
-7
15
-1
-4
-1
3
-16
13
-1
-22
-7
15
9
-9
17
12
8
-14
-4
-13
-32
1
-26
-18
14
-3
0
-12
-34
-6
26
0
10
-15
-25
-10
10
21
6
-13
0
2
-28
16
-4
35
-2
7
-2
-3
5
13
-22
29
10
32
16
-11
-3
8
-9
4
-6
14
-5
12
-27
3
4
0
14
-14
12
16
20
-7
30
27
-5
14
12
5
32
0
12
49
-7
-13
7
-20
5
-11
-22
-8
11
12
-8
-1
-21
-11
-51
-23
-22
-16
10
-22
-8
15
6
3
32
22
20
-21
-9
16
34
7
0
7
-20
-9
-22
16
2
-3
15
17
19
13
-9
-16
9
23
20
16
-31
-4
5
-7
-20
2
5
1
-51
-9
13
-8
2
-11
-2
32
9
12
2
-7
13
1
0
-6
14
1
11
-17
-23
-13
14
-10
4
9
20
-9
-11
8
7
-7
-1
-10
-8
-12
-1
2
4
12
-22
12
-37
2
-35
5
-13
-15
3
1
11
-3
1
-2
11
21
-3
-10
-37
-6
-8
38
4
-43
0
12
-12
-5
33
11
5
-5
-1
-37
4
4
0
-13
1
15
30
-5
21
-8
-31
-2
8
-18
-15
16
-14
-11
37
-8
-8
14
-1
20
8
-19
25
-5
-40
9
-5
-7
-13
-9
5
9
18
12
38
3
-13
5
-20
-10
39
-1
8
-27
3
3
9
-10
2
8
-55
-10
7
-21
-4
8
-30
-31
-7
4
7
9
-23
-11
17
-5
4
1
-20
27
-21
14
-7
10
14
0
-6
-25
-19
-1
34
27
-17
-24
11
-13
12
-4
-2
2
-3
10
-24
-3
-10
17
-10
-15
-20
-14
22
8
-23
-18
14
5
42
33
11
-23
5
-9
0
-14
-8
-21
2
-28
-17
11
-40
-21
0
-18
-27
-10
-14
8
39
-18
35
-10
15
-13
22
16
23
33
3
-5
-13
25
-5
19
0
-17
3
-14
-15
-11
-27
-8
-18
3
26
-8
-18
34
15
-12
-1
-9
5
3
15
3
30
-17
-12
31
-1
-4
-8
-23
-21
-7
27
-21
-5
-20
12
32
32
9
-1
14
14
20
35
1
-30
2
-15
-5
39
14
-19
-7
-4
-9
-16
-15
25
-23
-2
26
-27
-1
-7
-22
17
18
-21
-28
15
-28
1
-34
21
-5
-24
3
13
3
-26
6
-37
-16
-16
2
-2
26
14
7
3
7
17
-11
0
-28
-14
-10
46
-6
-4
11
-5
-15
-2
-16
-14
-8
0
1
-15
-16
8
-12
-16
-6
-8
20
-18
-4
-6
-7
14
-3
-12
-16
28
-15
3
-32
-36
-21
17
1
-3
0
-2
6
-1
4
-2
-10
4
20
-18
15
13
-18
-12
-23
2
21
13
-4
3
-2
-6
8
-33
0
-9
0
24
-3
23
8
-25
13
-21
-3
0
-6
-8
13
8
-13
5
-9
-14
-12
-9
-12
-19
-7
-4
-9
-14
5
22
-2
13
3
14
8
-12
-26
-8
0
-9
6
-5
-9
10
-8
-11
3
-16
7
0
-20
-12
9
-9
30
-20
-22
-22
-2
37
4
23
5
-3
-9
-11
-13
-30
5
10
17
19
24
16
-30
9
6
5
14
-7
0
27
11
-15
-1
-6
6
5
-5
11
24
1
14
-6
16
53
9
-6
3
1
-27
-5
-11
-38
2
-13
-8
-18
-6
-16
18
-19
-2
-34
3
-15
14
-17
-16
17
-17
-16
24
14
-6
-10
1
-40
8
6
1
23
13
-22
-6
17
18
-9
-41
1
28
10
25
-34
-29
-18
-17
-24
4
12
6
-26
-17
-3
20
-7
6
-29
8
-19
8
18
-10
-26
-29
-14
-9
4
-18
-1
-3
4
-37
18
8
-12
-19
-3
12
35
-14
-9
-11
-7
18
11
2
-33
-9
-9
-10
-22
15
-1
3
40
12
9
16
5
-16
-22
-13
-5
-44
-34
-8
30
-21
30
-2
11
17
-18
-26
-19
-21
-15
-33
0
-34
4
-2
-6
9
5
-13
-15
5
18
-8
-13
46
11
-20
5
24
25
8
-24
19
-6
-25
4
-24
-8
-15
-29
9
-7
5
-33
17
-30
-11
-2
9
16
-23
31
6
3
3
5
9
16
-8
0
17
9
-25
-32
-23
-2
24
-3
-2
-10
-10
-25
-14
17
-11
20
15
-2
31
0
9
1
2
5
-19
33
-8
2
-1
16
20
-15
12
17
10
-18
13
-2
-6
-16
11
16
41
-12
-2
-13
-30
15
-19
21
-3
11
-26
28
-3
-4
3
8
-29
-15
27
-9
-6
24
5
13
-9
-6
-46
26
-7
7
6
4
32
35
-6
3
-7
-8
-5
-20
-8
-14
5
3
24
16
34
6
-7
-26
32
-15
0
-15
20
13
8
23
-2
-27
-2
-3
-7
-22
8
22
23
-3
-7
-9
-2
-14
-11
26
23
-8
2
30
6
-7
-16
23
18
-23
-1
16
-11
21
16
10
-1
-22
-57
13
-4
23
-13
26
-4
10
-31
-4
-15
16
17
22
-9
27
-20
3
3
-12
-46
-20
-4
-8
9
-24
1
14
21
1
36
13
19
-16
-10
6
6
10
-8
18
-10
-5
24
10
4
-11
-57
-29
6
26
13
12
10
-17
17
27
-16
29
-15
-43
-5
18
36
26
-9
1
8
-2
-28
34
4
-12
5
-26
-23
8
10
-7
3
9
-17
-5
9
11
-8
-8
6
-7
-10
15
17
-27
-5
-17
22
-10
-6
-9
-16
6
-13
-15
-18
-7
5
24
-6
24
30
-7
6
-18
-13
-12
-7
-18
8
-24
0
12
14
31
-19
-5
0
-18
-9
7
6
14
-6
-16
-7
20
-4
-11
3
-8
8
18
-41
-14
-11
-7
-53
-30
-12
-16
-1
-9
-21
23
20
-5
28
17
12
0
-29
15
-2
-22
22
-7
-5
18
-9
-20
30
-6
-29
1
21
1
-1
-4
8
18
7
16
7
13
2
23
-7
-17
13
9
-4
-17
31
-6
-13
6
-1
5
18
-6
24
-17
25
22
9
14
5
-2
19
1
-13
-38
-9
-4
0
4
-13
-6
5
-5
-49
-1
14
-4
-19
17
4
9
-13
-14
0
53
16
16
-11
-13
4
34
-10
-7
-12
-35
14
19
-17
-20
-3
-27
22
-12
4
10
-16
3
-10
8
-4
-5
13
-32
33
5
8
16
-15
15
2
-4
-14
18
12
15
-15
-2
-3
1
6
1
-23
9
4
-3
11
8
0
12
-16
-17
15
-1
-7
-19
-6
-4
-12
-12
21
-7
5
-6
7
-9
5
-4
27
11
14
-27
24
-18
9
6
-21
-10
-19
6
-6
18
-1
-6
11
-11
8
12
-20
25
2
-13
-9
10
-14
-10
-18
-3
-28
-2
3
6
1
29
-26
8
16
17
12
7
-18
-11
-13
-3
8
-5
-7
13
-4
11
-21
23
13
4
3
1
25
-4
-11
-6
-3
-2
9
22
-4
-16
13
14
-6
13
-6
-6
-12
-5
-6
4
10
-14
34
1
0
-22
-19
-1
8
-3
9
14
-18
4
47
-3
-13
13
23
9
0
-4
-1
-17
-22
-20
21
-29
17
9
-14
17
14
-5
-14
-4
14
-12
-18
8
14
2
15
0
25
-8
-24
-23
10
-8
22
8
10
-23
-3
-4
-38
-10
34
-1
6
2
31
-32
-2
19
15
5
0
4
-14
14
-31
12
7
-3
8
33
5
7
-23
-32
-8
-8
14
-27
-5
-20
9
7
31
-20
-17
-4
10
-10
10
22
-4
-20
9
-7
23
11
16
1
14
-16
-1
17
3
-1
-11
43
8
8
3
11
-24
-13
-15
-2
-22
-12
3
37
-19
-5
1
33
17
22
33
19
4
-7
-14
20
13
1
-15
2
-9
20
22
22
17
-10
6
19
2
5
-25
-1
21
28
16
-14
-7
-20
-17
11
-10
-17
-12
5
-7
-34
-11
-9
25
-27
-8
-5
13
5
-4
-11
-28
-11
12
-9
-6
-13
-11
-5
9
0
8
-17
-8
24
8
-6
-7
-26
-1
26
0
16
24
10
-3
0
27
-4
-13
-4
1
-2
-8
11
-10
5
-23
0
0
-14
3
-55
-22
14
23
-5
-9
-16
-12
8
-3
6
19
-10
-4
3
-4
6
17
17
-9
3
-15
-10
10
-4
0
17
-25
16
-4
1
-10
-3
11
-31
3
-1
23
-7
10
0
-16
9
-10
-13
-10
19
-13
16
27
-23
1
17
-25
1
-12
-19
-3
-1
-21
-7
5
-9
-21
-17
-19
13
-21
31
15
-20
-21
-36
43
6
40
-19
-27
20
-14
-1
-5
13
40
-11
-9
38
9
28
-11
-15
-3
33
-14
-13
-29
-3
4
-35
-21
-40
-19
5
24
-18
-9
-23
-9
14
33
0
-10
20
-13
-17
2
13
-10
-26
-37
-16
30
-4
-36
9
17
-12
-8
26
-50
-10
3
5
-37
-5
19
4
-5
4
18
-18
-3
3
-3
9
-33
-27
-11
-3
-34
33
-38
30
7
-31
27
9
26
25
2
-52
8
52
-4
3
-1
20
-8
16
0
-25
10
-13
-33
-1
9
-3
-3
-8
1
4
-13
3
71
27
31
2
4
-15
5
-16
10
10
-8
2
-11
3
23
-8
0
-13
-11
1
3
-6
4
2
18
-20
14
0
19
-32
22
-6
-15
10
12
6
-21
4
-7
25
11
6
-1
9
17
26
-6
-17
1
18
18
2
20
-8
-6
12
-34
24
11
2
11
25
-5
-1
-18
5
-4
1
22
-18
-1
14
11
22
-10
23
-9
13
-6
14
-20
-21
-22
1
32
-10
18
-11
-6
-19
21
18
17
2
-5
34
-18
8
-38
14
2
24
7
-18
-21
13
28
1
-6
-26
-8
-11
3
-11
8
-27
-19
20
-3
8
-23
-12
-32
42
-5
-11
-3
-46
30
-2
19
-17
8
-18
24
-20
23
6
-22
-1
10
21
-1
19
38
43
-21
-53
4
12
20
23
18
-16
1
21
-2
46
4
9
2
3
-3
-5
-3
9
6
-2
1
-3
1
-10
5
-10
10
-11
-2
-2
4
4
22
20
6
-2
-12
-2
-2
2
16
13
15
-27
-2
16
6
7
-41
11
22
-8
4
25
-12
8
-21
26
17
3
-5
-24
-6
-6
-22
-10
-21
16
-30
44
9
0
22
-20
13
3
-4
-3
8
-3
1
-14
-10
17
9
-31
6
1
-29
-30
-14
-8
-36
2
15
-12
-11
5
0
-33
12
8
12
-12
-7
-9
-1
0
-11
20
-14
11
18
-31
-10
21
12
-21
-13
16
12
14
-3
32
12
4
14
19
-27
2
3
14
-4
7
-31
-15
-8
-3
29
-13
-27
-33
0
0
17
15
-5
-9
-11
-2
-8
14
5
10
12
-16
14
-4
-17
7
-2
-19
-1
-4
-8
-26
36
9
17
1
8
14
-2
10
1
20
28
-10
1
-19
-2
3
6
-22
20
-5
-12
20
30
6
34
8
-14
-29
-23
10
-33
-20
-7
-2
-5
-13
-7
1
-25
25
-12
-16
-1
-3
-11
-19
-2
4
-17
21
1
10
-12
-9
11
-7
9
-15
23
-3
-10
-4
9
-21
-35
-9
-4
-8
-13
-15
-14
-2
1
-3
-9
14
16
-29
-7
-13
-3
-35
-9
-22
23
-18
0
-21
6
-10
20
2
4
27
19
2
-7
-14
10
-8
-19
0
-16
-9
9
-8
-3
18
9
-12
6
11
2
6
-31
-11
8
10
43
1
-4
-32
-5
13
6
16
-1
8
-14
20
-2
8
1
11
-5
15
-20
-18
-2
10
-7
-18
-19
-11
19
-2
30
4
-13
10
-18
36
23
-15
5
12
-4
9
-1
-13
2
1
44
5
-6
16
-12
-11
0
-6
-25
31
11
-19
-5
-35
40
-19
-5
0
-1
11
-6
16
7
-16
5
6
11
-8
15
-19
15
12
-6
-21
38
5
-18
-8
-11
2
-4
12
-11
13
2
-23
-15
8
-14
0
9
1
-23
-10
10
-48
31
7
-7
-1
-1
-18
-19
-9
-2
-41
15
-12
2
-6
-6
-18
15
8
3
5
-3
-38
23
-11
-16
-24
-13
-1
-12
12
-19
12
4
23
8
13
4
29
-3
-41
2
2
33
-5
10
-4
11
10
-13
4
18
-7
6
8
-1
-10
34
-5
-21
12
-28
-41
-8
17
28
8
3
6
-3
-6
0
34
-2
4
18
-1
-1
-31
-26
-20
31
9
-4
3
-12
-32
8
13
-22
-10
31
-27
27
6
21
6
17
10
-17
-6
-9
16
6
-2
1
9
-4
4
11
-12
-14
1
13
7
2
-7
-2
-31
0
7
1
4
-15
22
-35
-8
-19
-21
-14
-6
-21
-12
26
21
-11
-20
22
-7
-2
2
-18
-6
-1
12
22
-12
19
-29
-28
8
11
19
2
-46
-12
32
16
1
16
1
12
3
-15
11
-37
18
-24
7
-16
-8
-20
10
53
-32
-8
3
-15
43
25
20
-24
-27
-2
-33
19
16
8
13
17
-25
-9
37
8
-3
13
10
14
-16
5
-2
-19
35
5
12
-14
9
8
16
28
35
-9
-39
1
-1
24
-6
-16
-32
-5
-21
1
-9
60
8
-21
-23
-10
16
24
17
10
-20
-22
-3
18
-4
12
48
15
6
-28
-12
-13
-5
11
-3
15
-19
-8
19
21
-5
63
40
-26
-13
28
19
9
-16
26
-10
34
-13
-2
-35
9
48
-6
24
10
25
23
-19
20
-9
0
49
-15
1
17
-39
-7
-21
17
-8
-19
-2
12
9
8
-7
12
16
-18
-1
-24
1
-16
-7
34
-6
16
28
1
-8
-2
24
35
6
-2
17
22
12
25
-6
12
-19
-1
6
3
-4
19
29
0
-12
10
12
0
13
-21
24
10
-14
-5
16
-16
-19
21
16
-17
-24
-38
17
-41
0
-5
-32
51
10
-21
21
29
16
-19
19
-7
-12
-10
21
-43
47
-17
14
-18
-23
16
4
4
12
-18
-6
10
19
-8
-13
-15
18
10
-9
3
-36
18
-36
21
-21
-4
1
11
-6
4
-10
-19
-11
33
6
-14
10
-3
8
-36
-9
-18
-14
-10
30
-10
7
-26
22
0
7
10
-12
5
-9
-27
8
-9
11
-29
-6
-8
5
3
2
-23
-13
-7
-19
-27
-33
-24
0
30
12
-1
2
-2
32
-18
-14
20
-11
7
-4
4
-6
4
10
-11
-27
32
16
40
2
-14
14
35
16
-21
-1
-8
27
19
-3
10
-7
3
-68
12
-24
25
23
-10
-16
34
7
-32
5
-24
19
-36
7
-11
20
1
4
-6
28
7
-2
-23
16
9
-2
42
-18
27
12
-3
24
13
20
-21
18
1
-11
38
22
-2
39
7
9
17
18
28
-37
15
20
-12
-9
-21
69
-9
-16
13
-1
-21
23
-18
-17
29
-48
34
-40
-5
-32
26
15
-11
-4
-18
-7
0
-4
10
12
28
38
33
14
-35
0
29
51
9
-28
-71
3
7
-10
26
-28
30
-7
6
9
25
26
-32
-24
-23
18
0
-13
-24
-31
1
24
2
-16
-9
-30
-11
-10
-8
10
15
-13
4
-7
-2
6
-20
-9
11
5
-8
12
-21
-28
-15
8
-19
-21
-43
9
10
18
1
-31
0
37
10
49
-17
23
-1
-42
-5
34
16
1
-1
-11
11
27
-5
-5
12
50
1
6
7
-9
29
-36
11
17
20
7
18
2
27
14
3
-26
35
14
2
-1
-48
-5
-23
-14
-15
-34
-24
-26
-25
17
16
-27
-30
14
-20
37
-30
-18
14
-16
-23
31
15
16
1
-1
9
-3
4
24
-4
-3
9
-58
-22
5
-3
5
-3
-7
-22
15
-24
-20
20
2
27
3
-5
10
22
-11
-14
18
12
-17
-21
-1
14
-16
-21
5
27
-17
-25
4
19
55
-18
-5
6
-4
30
-24
9
-5
-14
1
-25
11
-18
27
-1
20
51
-26
-5
13
8
9
-37
-5
25
-12
-4
-29
-4
-28
5
2
14
-10
17
37
13
1
-11
3
-3
-14
-11
10
22
19
36
23
-18
-9
22
47
-42
37
-13
21
-14
-16
-5
21
31
21
-24
0
-16
0
-27
-15
-24
7
-17
-35
-4
23
8
16
-1
-26
-5
-13
-23
32
-2
-25
52
31
29
-8
2
-7
-7
-37
9
1
17
11
-19
-38
-5
0
-37
-3
-7
3
30
2
-12
29
-23
-3
-16
-40
-10
4
6
20
-29
34
-10
2
29
-24
19
-12
36
13
-36
10
-15
-5
23
-6
-40
5
-11
35
49
-11
3
10
-12
-31
28
-24
33
14
6
21
4
3
-9
17
4
-40
11
-3
14
-6
29
7
22
-23
-24
23
-13
-6
1
-10
-9
-21
-16
-5
-6
10
-5
3
-1
-8
-12
3
4
-28
-4
35
17
15
27
-23
12
24
3
-9
24
5
26
-7
-5
-7
-23
7
-3
-12
7
-3
1
16
-3
-8
5
4
-7
9
0
-10
-40
5
25
-5
0
-15
-19
-6
-2
1
6
35
9
-9
3
2
-4
16
2
17
10
-18
12
7
-18
-7
-11
51
-1
4
6
-24
0
-6
16
26
-30
-2
-24
43
-4
5
30
15
-39
10
-10
45
-4
-11
30
-19
-17
16
-10
22
19
-25
-1
30
14
-6
-15
27
-12
-14
-11
-4
-25
3
0
-20
-18
-35
12
13
-8
-11
15
8
1
-8
18
20
-29
-4
2
-4
-8
-2
0
3
-14
-15
17
38
14
16
-3
-48
4
50
-26
11
26
17
-13
1
-21
-25
-16
7
-12
-7
13
24
-7
10
0
10
36
0
-23
12
-16
-9
-3
2
-1
37
10
-11
-9
-22
-15
7
-17
-1
-5
-25
6
-3
7
13
-3
12
-4
24
-14
-5
-18
26
-9
23
-6
-24
-15
-9
-3
25
6
18
-19
-16
18
-12
-23
0
-15
12
-14
4
14
1
17
46
-15
10
6
30
5
-15
24
16
9
35
-6
13
13
-6
-7
-18
34
13
-1
-6
-23
2
6
12
32
-30
31
-27
-12
7
-21
-2
38
41
11
24
-1
-15
-5
-17
24
-8
0
-1
-24
-27
-19
3
2
4
-17
12
-15
-15
20
15
-6
8
-21
-12
17
-16
0
5
-18
-15
9
50
19
4
7
-2
21
-15
10
22
-23
-3
16
-11
0
15
-6
13
35
-7
-10
-43
13
0
14
-13
11
-13
3
6
1
9
-26
-7
3
-2
34
13
22
-28
5
-14
-9
-2
-32
-10
-15
15
-8
29
22
-5
-12
6
7
9
9
6
7
-3
-6
-12
-18
2
-6
-16
-1
5
15
26
-11
9
5
-13
32
17
7
33
3
23
-37
-4
-44
9
-9
4
-40
-15
12
-11
-12
-4
5
-24
-26
-2
-5
4
18
-2
24
7
5
-25
15
-8
-21
18
-17
0
-3
11
-31
-10
-8
-12
28
28
7
7
-22
6
4
12
5
-12
-24
-1
-7
11
11
-14
-25
-36
-12
-9
-2
-31
-8
5
15
6
12
-15
-12
-34
27
6
-23
2
-15
-22
-15
14
35
0
8
8
-6
-6
-13
2
-5
-1
7
-16
1
13
16
-17
11
21
-26
-6
17
-5
-38
-2
-20
-11
13
5
-6
11
24
25
14
1
-43
8
14
-11
19
-4
-13
0
-28
-25
9
24
12
25
26
27
5
19
16
-2
-18
-20
-35
14
-18
-4
12
16
-20
0
26
-18
16
23
7
14
37
-13
2
-14
-10
-17
21
17
6
-6
22
-8
-10
25
21
12
-6
-23
-8
20
-12
18
11
15
23
1
21
-22
-5
17
-26
-3
-2
14
-22
16
8
0
16
21
-3
27
-5
20
0
14
-8
-20
22
-35
25
12
22
-12
-15
-5
2
-15
-7
-6
16
-20
21
-23
-5
-25
9
-2
-5
-21
-19
4
-9
3
-19
-3
4
-7
-19
-15
-34
-16
-4
29
19
-9
-6
16
10
5
30
25
27
25
14
-1
10
3
-24
-8
-20
-28
6
10
17
16
-24
6
-11
9
14
18
6
2
-30
-4
-32
1
9
-34
-26
-19
-13
18
3
1
-19
-21
-12
19
-19
-4
-13
2
18
26
13
7
0
26
23
-1
15
-23
-11
-8
4
-9
6
-35
9
6
-12
-12
19
0
-10
-27
-9
39
-7
9
-26
12
-13
-13
-27
39
-24
15
6
3
22
3
-32
-22
4
-15
-6
-7
14
-8
-28
20
-4
-4
-18
36
10
23
32
-10
-17
7
20
20
33
-6
23
-7
11
-20
-26
2
6
35
-50
-24
8
-42
8
8
-14
-4
-5
6
20
-15
-30
-9
11
21
-24
1
4
16
15
-10
21
-9
25
47
-21
14
18
-12
18
-23
-2
-8
20
2
12
41
-14
36
-4
-24
-9
24
-12
-18
42
-1
-3
8
16
11
7
5
-1
-18
-15
-19
9
1
2
-4
15
5
1
-1
5
-13
23
-2
-23
16
-4
-6
-25
-14
-3
39
29
-15
-14
18
-20
-10
13
-16
-15
7
-3
28
-18
-5
5
13
-13
-9
17
-13
5
11
-13
-3
-14
-15
15
-11
24
7
-23
0
-30
-12
9
-20
-3
-14
-13
-4
-5
23
1
16
-22
13
9
-9
-22
-6
26
1
14
20
-1
-14
10
11
-19
27
3
-5
17
-3
-9
3
-14
-23
0
9
-5
4
-8
36
1
-6
-8
-9
17
11
-4
3
-6
-11
6
11
11
-11
-5
-17
-23
-1
28
6
12
3
39
15
-15
0
-7
-10
3
-5
4
40
-13
13
10
-13
10
19
-14
30
-5
-10
2
-20
23
5
3
-16
22
-1
2
9
14
-7
0
6
8
-5
-5
-10
4
1
-29
-3
-30
-29
-29
-2
5
-6
-18
23
21
28
-13
-33
-11
17
20
17
-3
0
15
-1
-21
37
17
-7
0
-6
11
4
-13
17
-2
-23
-19
-29
24
-1
-16
8
24
1
26
32
5
-2
-6
-26
21
-16
-8
-23
-4
2
-22
-17
-7
5
24
-5
-5
-10
-14
20
-8
1
-14
15
2
19
-3
19
-10
-35
11
2
41
21
9
-17
6
10
7
0
-12
16
-16
4
-9
11
-29
2
4
24
14
-3
-20
1
-34
19
-11
-6
7
-3
-28
20
-60
-30
-17
-10
31
14
4
2
-8
22
8
-6
2
-20
28
-28
-9
7
-26
12
-6
16
-12
-15
-13
-11
-8
11
-20
8
12
20
13
4
10
-18
-3
-19
20
-21
12
-9
-10
21
-4
-6
21
-45
-7
11
12
-7
32
-10
-9
-28
11
-11
-12
-2
6
-13
-19
12
-2
1
-9
22
50
-24
-3
7
-12
-38
17
10
-4
5
-12
-22
-1
14
-2
-18
11
13
28
19
7
3
-21
-5
4
-14
-9
-3
-6
-17
3
-9
-12
13
-10
-18
14
-11
5
6
-27
-5
10
-28
25
14
-13
6
9
3
29
39
11
-31
16
-14
-2
20
6
31
-4
7
5
-27
-20
-33
-11
-36
-6
-1
0
-4
-23
-24
41
-18
-11
24
37
4
7
0
-5
10
-22
-16
22
-16
8
15
16
10
27
-2
15
14
-49
14
-52
7
4
-13
3
18
-24
-20
20
-18
1
-42
24
-23
16
37
24
14
11
-15
29
-24
-8
-7
48
2
-26
-18
7
16
10
-34
16
15
-30
-14
38
25
16
-4
-28
2
-10
12
4
-36
4
-22
3
-28
-39
14
-27
-6
10
-9
1
-17
-22
-12
-6
-25
26
-14
-30
-31
-4
-23
13
-10
24
3
11
15
21
-22
24
39
12
-49
-26
-3
20
-25
24
-5
16
59
-1
1
-11
61
28
-3
5
27
-5
-26
2
-31
-45
-25
-2
10
30
16
-12
-26
-12
-17
-8
-10
31
-4
-19
-12
13
-2
9
-11
8
23
34
34
-14
-36
5
6
13
5
0
-30
-15
27
30
17
-3
13
18
-49
-7
-7
-6
-2
-15
14
48
17
-17
-7
5
-7
5
-5
-6
1
22
-33
-17
0
13
-3
55
-20
-16
6
-7
-11
10
-6
-3
-31
7
2
-4
-16
5
3
28
-10
-3
-14
13
51
22
10
35
8
-32
-11
5
-6
24
-31
-12
-17
-4
52
-14
1
20
7
-27
-7
-2
7
1
15
18
15
-2
-31
13
-29
14
-24
14
0
-1
-27
43
-3
13
4
29
-28
19
11
25
11
2
0
7
11
-10
-21
-3
-2
-25
7
-17
-9
-22
-16
-3
-32
-16
-9
-22
25
29
-7
41
-17
7
-2
7
6
6
-11
0
15
-10
-62
20
15
25
38
-10
7
3
-9
-15
-3
-1
29
6
-34
-22
-10
-31
-8
-10
2
-7
-30
10
-4
-9
10
4
7
-8
2
-23
15
-24
37
-5
24
-15
-13
15
20
-4
3
-11
-24
-13
6
-23
-4
22
3
6
-4
19
-2
-5
16
9
14
-30
29
-21
-32
17
24
-6
-15
-19
-4
1
-3
12
-21
11
27
8
-45
13
-47
-21
-16
-3
-35
-7
21
-8
17
28
20
-13
-13
5
-3
13
14
20
-41
-43
53
-3
-1
-19
27
4
7
-17
33
-12
-9
18
13
-8
13
-22
-32
-16
11
18
-4
-6
9
-19
41
3
8
20
-7
23
-7
50
22
-1
8
7
-18
-20
-8
-17
5
-23
23
15
15
0
9
5
3
-12
-9
-26
28
7
-23
-3
1
38
0
0
22
9
-34
-3
16
-11
14
-18
15
-3
-27
-17
-21
0
-35
-9
36
12
-43
11
41
-34
9
-8
-24
20
17
16
-1
12
-7
9
6
-19
12
-2
-20
14
-12
-14
-22
26
-14
-10
-30
4
-26
-8
30
-17
1
-3
36
4
22
1
-3
-14
-43
-33
-20
-36
8
-31
-3
12
25
10
26
22
-58
21
9
-33
21
-35
1
-25
20
-10
1
-2
-3
16
21
5
10
5
-28
13
14
-14
9
35
-20
11
16
49
-5
-4
-36
6
34
-8
-6
22
-15
-3
10
26
-10
31
11
-11
19
-5
-6
-9
-17
7
-4
10
-5
-7
-6
31
-40
-11
-8
0
3
28
-7
16
9
-2
-30
-3
6
1
-25
5
24
17
-14
14
-13
-11
-21
-31
7
-21
16
-10
-36
3
11
8
5
15
-35
35
-63
22
-11
15
3
-22
34
6
-2
26
-15
-1
27
-18
25
-12
-42
1
-2
14
4
6
-18
8
12
-1
50
17
4
-3
1
-21
10
28
19
-10
-13
22
-6
-56
-35
19
8
-18
19
-16
-15
-24
41
35
-8
-41
-33
33
-5
-14
19
-30
4
-19
-3
26
-11
-63
12
-12
-7
-7
16
8
-44
29
13
-11
37
-19
-28
9
-10
0
-28
-3
-9
-34
-13
34
-8
0
-5
16
-26
3
-7
14
-45
26
2
7
21
8
18
-25
-10
-25
1
14
-17
-15
31
17
-1
-4
-8
1
-18
-39
16
-13
-17
26
5
-13
1
28
31
5
0
13
-9
9
3
-4
-12
-17
10
-20
-13
13
-23
-18
13
12
13
-15
2
2
-18
3
11
1
8
14
-1
0
-30
-15
11
14
5
3
-12
-15
-11
3
-26
1
-7
13
-7
-16
44
36
-2
0
31
-2
25
-3
-19
-42
-25
11
1
-4
-13
23
1
-7
24
-6
13
-8
12
-6
-11
13
4
0
-15
-6
-3
6
6
-4
-2
4
11
11
8
-20
34
-13
12
-5
-13
13
6
7
4
24
3
-4
-3
43
-20
3
0
26
-4
6
11
32
-28
-9
-2
9
-9
-4
36
-11
14
3
26
4
18
0
-21
-14
-7
-18
-1
-10
-35
0
-11
-4
35
3
1
39
-27
7
5
-18
-29
-4
20
-12
-15
3
14
5
-2
-11
0
-8
-17
20
-27
15
1
25
29
7
-11
15
7
12
-26
-12
2
0
3
5
-1
10
15
19
-30
-26
-8
7
28
6
16
9
14
-3
-2
-17
-8
22
6
-3
1
2
6
17
-27
1
-29
15
54
24
-36
0
-18
-35
-25
15
-4
-11
-20
3
-25
6
-11
3
5
-21
12
-5
-14
12
11
-4
-18
20
-13
54
15
2
-6
-15
5
-11
-6
-54
14
-3
-21
-1
-16
18
-5
-13
6
2
2
4
-16
-20
-7
-19
5
-7
0
-18
-18
5
31
-3
-14
-31
11
-6
22
11
-13
11
35
3
-7
2
2
-14
-4
3
2
-8
-14
19
2
4
12
-23
12
-19
6
-13
-13
-3
-4
-9
7
-10
-3
23
5
1
-14
-9
-6
15
-15
21
-5
-13
-14
-13
3
6
42
32
2
2
21
11
-2
-4
19
-14
-28
12
5
34
-26
13
-6
4
16
20
17
-41
21
1
-13
20
11
-8
-1
-1
-12
-22
-24
-23
13
-12
5
-27
-4
-1
2
3
3
40
11
-12
2
-18
6
21
-2
4
6
-11
8
13
-17
-30
22
8
-11
-15
-17
26
-7
-1
10
10
-18
-8
-2
9
4
-9
33
13
-14
-22
-10
12
5
-36
6
10
-20
11
-18
48
12
21
13
-18
-36
-22
10
16
11
-1
3
-8
-5
-11
-11
-10
39
-14
-29
28
1
-4
4
-24
-4
-3
-17
0
-11
12
-11
-7
-8
5
3
15
-7
49
-6
26
2
12
-22
11
18
7
29
-3
-24
5
17
23
-17
0
-12
-28
19
8
-20
-27
-9
-25
-13
35
28
-8
13
5
-8
10
10
-4
-2
25
23
19
5
-4
-4
-4
-25
-25
-11
-21
15
-6
-40
-4
-39
13
3
-8
-11
15
26
38
2
17
-40
13
-4
-1
-13
-12
-22
-7
-18
-28
11
-25
18
-10
1
-34
-1
-7
5
-35
0
15
-8
7
24
-3
-37
25
12
21
24
-19
18
0
-12
40
-18
-16
-19
7
-16
3
-13
-15
-26
0
-10
0
14
-12
-7
-7
20
-14
13
-17
7
-3
-17
2
-4
-32
-11
9
-6
-12
27
4
14
29
-15
12
-13
8
-19
15
14
50
26
-13
48
5
15
11
6
20
-30
-1
10
-12
11
-6
13
-17
-23
32
41
-15
1
4
-9
-16
8
24
-11
11
9
4
-6
-19
22
-2
9
-7
-5
0
22
46
28
-13
-2
-9
34
-9
-12
-36
4
26
-19
3
-9
7
22
30
-11
7
21
-5
16
10
5
-11
26
-41
10
-14
5
0
-6
-30
4
-16
-27
-10
8
4
16
-10
30
-11
-9
8
5
-12
19
-9
2
27
-18
-25
16
-29
14
-11
-9
17
-1
-31
10
-6
-1
-10
-1
-16
18
-13
9
37
-26
22
33
-36
9
-14
3
-4
16
0
-12
-5
-34
-24
11
22
-26
4
19
4
12
1
-18
-16
-14
-19
27
-10
-5
9
6
11
-9
-6
31
14
0
-3
-11
4
-8
13
-12
30
-34
0
-15
-32
1
-3
15
-16
25
25
-3
-24
-45
32
3
-33
-11
33
29
-13
-13
12
-4
4
-16
-4
-31
-6
25
18
11
5
-28
-6
45
16
-9
29
-29
12
-37
-25
-22
-19
-40
-14
5
17
-19
-12
0
-11
8
-1
-7
2
-3
-10
-3
-10
4
5
-4
8
-12
1
16
8
-23
12
-28
-7
10
-13
3
17
-4
-1
-6
-27
5
24
13
9
30
-2
-35
6
-18
-8
39
0
19
-6
-14
13
-5
-5
0
-14
10
13
17
-18
9
27
-13
-1
7
11
0
38
7
-13
-16
-5
11
-1
-30
-11
39
-3
4
8
15
-2
-11
-16
-1
-30
9
-10
-3
-20
4
5
12
10
-21
-3
-20
-7
-6
3
-29
11
-19
14
14
6
0
14
11
12
-10
-7
-2
1
-15
3
6
-8
24
14
14
-11
-4
29
-15
5
21
-18
-3
10
-17
-35
20
-22
-25
-21
0
25
15
8
0
-17
-1
-5
11
-3
10
-1
-9
18
12
-8
0
8
-17
15
4
-5
-21
7
-6
0
-2
-10
6
-3
25
-1
-17
2
-23
-5
3
-4
-13
9
1
-5
-16
-8
20
2
20
-31
19
23
13
15
2
9
7
45
13
13
-32
-19
-32
1
32
14
-2
-4
18
22
-27
15
-4
34
-6
12
29
-13
16
19
36
5
-10
0
0
19
-5
8
-25
-8
-23
-30
14
15
5
19
-24
1
-2
7
-11
-6
-18
-9
-5
-1
3
2
0
5
6
-16
12
-7
0
18
1
-14
-28
-14
28
14
16
-13
4
7
-9
8
36
11
4
-16
2
9
-12
2
13
-2
-4
-14
-11
-35
10
-12
5
16
6
3
-14
-6
-10
17
-5
25
4
20
10
27
-17
13
8
20
-12
-4
4
0
-5
16
-4
-1
45
16
7
-5
-10
24
-28
10
6
-8
-4
-5
-8
7
20
-4
10
12
-3
-14
1
-11
-2
14
16
6
5
28
-7
6
1
-8
-30
26
-14
-5
8
-6
-9
13
-8
7
3
8
0
14
-12
-6
25
9
2
10
-11
-10
-17
11
-20
2
32
-15
16
-23
-11
-10
-16
-17
25
-7
8
-38
-4
4
12
-17
31
23
-1
6
-4
-6
-17
20
35
-9
-8
35
-8
-25
14
-28
-2
-14
-6
10
23
13
16
6
23
-32
11
15
8
-13
-8
-28
-9
26
10
17
-3
14
-14
34
7
-7
-11
18
-8
14
-11
30
9
-9
-7
13
5
6
-2
-14
17
-6
0
-20
-14
16
-13
-15
13
-12
-15
22
-10
1
10
-6
-1
-20
-6
-30
-13
17
-1
-4
-6
4
-30
-8
-6
-10
-12
21
-7
-5
4
0
3
-10
33
3
0
26
-33
-12
16
11
-19
8
-16
-13
24
9
20
-33
-20
-25
-1
-16
-4
6
29
-15
28
6
42
-26
17
-7
-10
10
23
-11
-23
14
5
-5
20
13
-5
-19
1
-13
-25
-5
-19
-19
6
-5
-5
-13
23
-9
4
-4
29
7
21
-26
27
5
4
-5
11
-18
-8
-12
-2
2
-8
20
2
13
16
-16
-3
6
-2
0
-3
6
12
-5
0
7
-8
-4
-10
-22
13
16
8
15
20
-9
9
-2
3
-23
9
-18
-33
-2
-9
-25
19
9
14
12
15
-15
-26
13
-19
15
-1
-3
-7
-17
-41
-3
-16
-19
7
-2
35
9
-5
-9
14
-14
5
1
-20
-15
26
8
-20
-13
28
18
-20
4
22
-18
7
29
-28
15
-23
22
14
4
36
-8
-29
12
-37
-13
-11
-9
-15
-5
-12
1
-11
-8
-8
25
20
11
-1
6
-8
0
20
-26
-15
1
0
5
-10
-13
17
1
3
-3
11
1
3
-27
-8
16
10
16
23
-8
15
-17
28
26
-3
-4
12
4
-8
-12
22
18
-6
-13
-3
21
33
-2
-10
-21
3
-3
4
-2
0
-11
-16
-13
14
2
-8
-2
5
-6
0
-14
-30
-19
-4
-18
-46
-15
-7
-36
-2
22
-12
3
-24
-34
19
-11
-32
0
7
14
12
5
3
27
14
12
18
-21
-15
21
-7
-9
-4
16
11
-14
-35
-2
-12
-16
7
-38
10
-5
27
-20
-4
22
-15
-21
1
-13
16
23
16
-1
28
1
-17
-14
1
-3
-2
-1
2
27
0
12
-12
0
32
22
30
-11
0
33
34
-10
7
14
17
10
-19
-16
-5
-3
2
12
-12
-16
11
-21
7
-11
4
-6
-35
-17
-27
29
-4
-13
18
-32
-20
20
6
34
-5
4
-14
20
-23
6
22
-15
-2
0
11
-12
13
-11
-18
-12
1
7
-2
-5
2
34
-2
-6
-16
10
-6
-30
-9
21
35
10
-23
-21
18
29
13
-17
1
-24
-29
19
-9
3
-20
20
-21
-11
-25
2
-38
-22
10
3
-36
39
27
3
-1
3
14
-20
20
10
-7
16
25
7
-1
-37
11
6
10
26
48
-4
-19
-1
13
10
-7
7
27
-14
4
-22
-23
-19
6
9
25
1
22
39
10
23
-9
1
5
-22
-10
-19
-30
-28
-38
-4
0
-29
-6
-8
16
7
29
3
-4
-2
15
-12
-13
6
-17
-12
-39
20
-28
-2
-6
-22
-47
-18
10
-10
19
-46
58
4
-18
-18
9
29
26
-16
7
21
-11
-19
27
6
-26
3
-4
-27
-9
4
10
1
-21
-9
-4
-4
-1
1
15
37
16
4
-17
2
2
-3
-10
-13
9
-3
11
22
-6
49
-10
1
9
15
10
31
-19
-3
34
-5
1
18
15
-3
39
5
-15
2
-17
-14
6
33
9
21
10
-18
-26
-35
26
-21
15
-16
-18
-24
11
9
-44
-4
-13
-17
-1
36
-7
-1
-5
19
3
-41
13
-15
4
-28
-7
21
9
3
-15
5
-4
-4
5
10
7
-1
8
-32
-7
6
15
35
-27
3
20
-22
-13
25
-45
-7
-18
17
38
33
-35
-33
-24
10
20
10
-1
16
7
4
-6
24
-24
-6
-33
8
15
2
-8
6
-12
18
5
-18
2
-23
30
22
-16
-8
-6
-13
-4
21
41
34
-2
1
-23
1
5
-30
1
30
15
-12
-21
-39
-4
30
19
28
-5
-34
2
4
-44
27
-6
13
4
-15
11
18
-20
-27
11
9
21
7
-24
21
-12
-9
14
5
0
9
-18
-15
11
-20
-10
4
-25
-34
-10
2
-19
3
-17
11
1
-3
12
14
-38
-8
-24
27
15
-2
23
34
-29
-29
3
5
0
-19
-5
-5
-5
34
17
10
-10
25
5
6
-2
16
-23
11
8
-12
-2
24
-6
-9
35
-9
-12
-12
-7
-11
-3
21
-22
-7
3
7
30
2
-12
22
-10
13
19
-5
-6
-10
-5
-12
22
-17
-12
-16
23
-6
11
-2
-17
-4
-3
12
-8
-7
31
7
32
-11
-10
4
15
-27
-31
-15
-14
27
-21
14
-38
-2
-23
35
31
0
-13
0
1
-31
9
-6
2
-22
12
8
11
-11
-6
-8
32
20
11
26
-1
-15
6
20
-15
-18
-9
13
14
19
5
-34
-11
-8
1
-8
9
44
-7
8
12
-7
2
-12
-12
17
9
-5
34
6
7
-37
-28
47
1
-7
-34
-7
15
24
7
16
-18
-19
-19
1
8
-2
23
14
5
43
-10
10
-6
-1
-26
16
11
-25
28
-7
-9
-19
-5
0
17
30
-6
6
20
21
8
-11
6
-11
-1
-15
-6
28
10
10
0
8
-29
-24
-35
32
-5
32
15
6
0
-44
2
-14
11
-37
-13
34
0
-22
19
-8
-25
30
-3
5
20
17
-8
22
-8
22
22
-8
46
-13
32
-2
0
-10
-21
38
9
-13
-30
-15
18
-15
14
15
16
-1
-1
-23
46
15
-26
-15
-5
23
13
11
17
-6
-39
-3
13
-12
29
10
5
16
24
-3
11
-28
-17
-7
14
-3
-2
-14
-12
-32
1
0
-8
-12
21
18
30
8
19
-17
-3
-10
1
2
20
-18
14
7
13
-15
-5
39
18
68
14
-57
2
7
-27
-1
-25
-32
6
43
3
11
22
12
-34
-7
-10
-21
-25
-30
15
3
22
-8
-8
14
14
20
-48
-16
8
-16
-5
-12
17
-26
23
8
1
-35
-14
9
-15
15
14
-14
17
21
9
7
18
-29
-1
10
-9
-3
5
-22
-17
29
-4
-18
17
1
-19
-4
-33
-23
8
42
15
-10
4
-32
6
-4
6
2
7
-25
15
-8
-17
22
-4
-15
-1
-28
5
-19
-15
5
-27
-17
4
-6
14
37
17
-14
15
28
-11
-26
-2
10
9
17
19
-25
-14
-5
26
5
5
29
2
-33
-27
-2
2
32
-61
8
17
4
-7
-6
-14
24
-17
-11
-9
-9
-9
-9
-30
-9
-11
35
3
-17
14
4
-10
-5
-31
-5
-6
19
12
27
-36
15
11
-24
18
3
-38
-7
21
-12
-21
-1
-16
-26
-15
-31
21
15
-55
0
-12
34
25
21
-25
1
2
-1
-10
-4
-16
3
-19
-11
-3
54
13
7
-1
-3
-12
5
31
19
26
1
-23
12
-9
14
8
-38
11
-1
10
22
53
-8
1
17
-15
4
-1
-15
-31
-16
-13
-8
41
11
17
10
-6
15
17
16
26
-28
8
-18
6
14
19
-19
-28
25
-12
-2
0
21
9
6
-14
-13
5
32
16
-10
6
-28
-5
33
8
6
10
-12
0
27
-3
-9
-14
-24
-17
-9
-2
-20
-19
-7
17
18
32
6
0
-8
-32
-29
15
4
-4
-26
-8
-9
15
31
-13
24
-23
4
11
-10
45
-22
-3
0
29
21
-15
31
-17
-1
-28
5
-21
8
10
12
6
-4
8
11
-23
-9
-21
44
-16
1
8
-23
-19
21
26
0
-16
-42
36
16
-10
-20
11
34
5
14
8
29
26
-27
3
19
20
-33
-13
24
38
-12
2
14
6
7
43
3
62
-3
-24
28
16
-34
-19
-25
-4
14
-44
-17
-4
18
-12
-1
25
-32
26
4
7
-15
-8
13
10
-15
10
-16
-2
22
1
17
4
-27
-31
-21
-28
-3
8
7
-15
12
-7
-23
-26
21
2
10
13
-10
-11
-28
23
17
-24
-44
-20
-34
10
-6
-17
-10
-5
-4
-3
-5
47
3
-20
-75
-22
-34
20
2
26
-17
35
50
31
1
12
-38
18
8
-8
25
12
-24
13
7
40
-10
2
4
-6
29
-6
17
-20
0
-16
19
-10
3
16
21
-44
11
1
29
-3
13
3
-7
-28
-38
-2
3
34
-20
15
-5
38
-6
-5
-13
27
-2
-11
-22
10
-42
-31
3
-8
-28
-11
57
-4
-16
5
-2
6
-4
4
15
1
-26
-16
10
2
-6
-10
2
-7
-31
-5
-16
2
-18
-22
12
27
-18
18
-13
-5
-8
9
-13
-20
8
-30
45
17
-15
3
-18
-9
-11
-4
19
-2
-2
-30
-24
39
5
-1
-14
-3
-13
4
-2
19
23
-31
-4
17
-12
11
7
-6
16
11
34
-3
-15
-3
22
-35
1
-20
-11
7
19
-12
-18
-28
-26
-11
-12
14
4
31
-25
7
-20
44
-16
23
13
-5
-12
24
15
7
12
6
-21
19
4
0
-35
-28
2
14
19
11
11
23
-49
48
-3
-13
8
15
-11
-13
34
-15
-34
-7
-48
37
13
11
1
42
-5
-14
14
16
-4
11
-12
-30
-21
-18
11
-4
3
-6
-8
-30
35
-62
-2
41
-7
0
22
-24
-47
-3
-16
12
1
17
7
-4
8
4
-18
7
-11
23
6
-1
0
16
-24
21
27
39
-1
5
-2
-37
17
-4
-12
-5
18
-23
29
22
6
23
-12
-5
27
-23
29
-10
-3
-20
-25
-28
26
-11
-19
4
18
15
6
-4
-23
-9
4
36
5
0
2
31
-4
-24
-44
24
-25
-1
4
12
12
16
-4
10
24
-33
6
-1
-13
16
-2
-14
0
10
2
-7
7
-28
-2
11
17
26
-15
-10
-6
4
-2
24
36
-12
-20
19
4
-18
-21
-6
4
-44
19
-11
20
32
-22
-25
25
-1
-21
-32
-19
-2
-8
17
-12
11
18
-48
2
-19
26
41
-16
-14
-9
-1
-9
-29
14
-19
54
-9
-13
-13
-9
21
16
29
-1
28
9
1
5
8
1
-7
-5
11
-9
9
16
-12
-11
-14
0
6
6
-10
3
20
-14
9
6
28
-26
15
-3
20
-45
2
3
45
5
19
-36
-14
1
32
11
-34
10
-25
13
11
6
-6
12
-13
-11
30
-30
15
-25
24
3
-15
-12
-7
-6
-24
-32
10
13
3
4
-7
-12
-30
1
6
17
-20
8
21
-12
4
23
18
-28
3
6
12
-6
-13
7
-8
4
-2
16
-22
20
5
4
2
-24
19
6
-9
11
19
-22
34
2
-23
-13
-14
11
17
-12
-1
12
-19
-2
-53
41
38
11
8
-17
4
-23
-23
11
-2
11
-3
-4
-29
21
11
-13
10
-48
6
9
-23
6
-15
-6
27
1
-21
-10
-10
15
-7
19
-41
10
-19
8
-9
-14
-24
-6
1
8
-1
-17
9
1
35
-19
-12
-8
3
8
-8
-8
-26
-3
-6
-3
-1
36
17
42
2
1
3
-17
-34
21
-7
-10
33
9
-3
-23
-9
14
-40
2
-17
-4
27
-26
25
-9
-22
-21
8
8
3
-8
12
-34
-1
-1
42
0
-18
12
1
44
-7
4
0
-26
7
-24
26
-15
33
7
22
-16
-37
13
20
-2
1
-10
20
-12
-15
9
9
-14
0
-8
-11
-31
8
2
-7
1
40
10
-29
21
2
-8
35
-9
15
-19
34
-25
14
-20
8
-34
-20
3
-5
-20
21
18
6
2
14
20
12
14
15
-28
19
-24
-18
-16
-26
41
-11
2
14
-9
29
-12
-14
-16
2
1
-12
17
-6
2
4
-28
13
-29
1
15
20
-13
20
-20
34
11
2
26
-4
-1
32
-23
12
26
-1
8
29
-43
10
-20
22
-9
-3
-15
-3
-6
-35
35
17
-14
-27
-11
-5
-3
-11
15
-51
20
-35
-12
-16
-20
12
13
-31
-16
3
-18
1
-14
69
-7
-37
-33
-24
41
22
-32
19
9
-21
8
22
2
-43
-1
3
47
-5
18
2
-17
12
20
-3
31
6
4
12
19
-5
-20
41
4
3
31
19
-30
15
-16
-20
-10
2
-12
24
-45
-5
33
-31
0
29
-5
18
5
8
13
14
-23
-1
7
-17
-2
-17
-23
-3
15
28
12
-10
3
1
-10
16
-14
-33
18
-10
5
-25
1
22
-7
18
-62
32
28
2
23
6
43
-6
4
-22
-21
16
14
16
-4
4
-7
14
3
-16
35
-11
10
-26
3
-8
32
-17
-2
0
-7
20
26
11
-21
-9
-11
-19
-15
6
31
-8
-3
19
-21
19
35
5
10
0
-20
29
-18
-15
-41
3
-21
-11
-48
11
39
1
5
19
5
8
-9
-16
37
15
-41
13
33
-35
-8
2
-20
34
32
18
-9
15
-51
-1
39
-4
-32
-32
28
-10
-19
28
8
22
-10
20
46
-15
-20
28
-35
7
-30
23
-14
52
6
22
4
-2
-18
-24
12
-7
-9
10
1
25
8
8
23
-9
-21
45
-18
-37
-1
-8
50
8
-8
17
39
20
6
-12
25
-12
16
9
20
6
-24
21
18
-4
-15
-27
11
-20
-11
1
-9
15
-24
8
25
-23
3
8
5
1
-24
-26
-14
-37
-18
6
-16
-17
-6
6
-17
18
-30
-9
56
15
-17
-6
-27
0
-29
-8
-15
28
11
-69
-3
-37
-6
-3
-5
-12
-22
0
-13
-21
-13
4
51
-44
-8
-15
-5
-34
19
22
21
39
-4
-1
18
-13
6
3
-2
20
2
7
-11
-40
2
-30
41
12
-16
9
-2
23
-21
32
13
-8
-5
30
9
12
-4
-6
-28
18
9
-13
-7
-27
14
-57
-25
-14
-16
-18
-14
21
38
18
25
21
-14
8
18
4
-7
16
61
-35
1
7
21
12
37
-13
13
42
9
-5
-29
-1
-13
1
2
-8
4
14
-36
2
-7
21
-1
29
-13
20
25
-26
49
-16
-1
39
26
5
11
3
1
-8
2
24
-32
39
-26
6
34
28
2
-3
-27
4
21
-6
9
-20
-14
-26
-17
-8
27
17
38
17
-42
-47
-4
10
-3
28
-3
-54
-8
23
14
-26
-29
2
19
-18
-8
-2
7
11
-20
7
25
-20
23
-8
-48
-2
14
-17
32
17
-7
5
3
-15
-35
-19
29
4
-19
11
16
-22
32
13
-27
39
6
21
5
-4
-1
-6
-3
-33
-27
-18
1
27
-5
-26
-4
-10
-6
-11
5
12
20
4
-7
-20
-2
-11
-4
27
-5
17
-8
-7
14
-24
11
22
6
-5
-4
-17
-32
-5
-19
-12
-7
13
5
18
-14
-30
-25
7
-22
3
-26
-37
-5
-1
-25
-24
-3
-1
0
17
10
2
13
9
10
31
11
-9
-17
8
-5
-4
12
29
-13
-16
19
7
8
-3
-35
1
2
-3
-2
17
14
-22
11
-10
15
4
-24
7
0
-10
-19
3
6
-16
1
14
11
-9
-26
-20
5
17
7
-3
16
6
24
2
2
2
-17
8
26
-4
41
-3
-14
4
10
-3
-14
-4
17
-14
3
13
-23
-10
-27
5
5
1
-5
7
10
-12
15
-3
-3
-7
0
43
16
30
-17
-14
23
15
30
-12
-27
3
-4
4
24
-12
3
-8
-17
-25
14
0
-6
-3
-13
-37
6
6
-2
14
-6
4
-31
-9
-17
3
-11
-26
15
-6
0
-29
-27
-12
-12
-10
13
5
-19
1
7
-14
3
19
21
7
12
7
-7
30
28
7
-20
6
44
-7
-21
9
6
11
-7
-9
-2
11
-2
-27
27
-1
-1
5
-24
-11
-5
-10
-8
-4
16
-16
13
-1
24
2
-30
-5
8
9
-18
1
-34
-5
-12
6
7
31
4
-13
-29
-34
-11
-9
-8
38
22
33
-1
-11
12
0
3
7
-4
-11
-14
30
-4
-24
-35
-12
1
0
10
-5
-10
4
-27
-23
-18
-25
-4
-23
20
31
10
7
15
-16
1
2
-6
-20
-21
-5
0
-14
16
28
21
11
1
23
-4
-26
-10
-5
27
4
-3
18
18
0
9
-8
21
-12
-3
22
3
19
32
8
-9
6
2
24
-1
-9
-11
17
-13
15
-9
-4
15
-40
15
-20
-19
-10
-32
-7
13
-8
37
-11
14
2
28
14
22
46
10
2
-40
6
5
15
-6
-7
-9
-2
-24
-9
-26
0
4
-11
-5
25
-14
19
-21
-19
9
-32
-16
13
5
11
24
16
-23
1
2
-3
29
14
-3
1
-30
-24
-16
-13
0
22
22
-3
19
0
-12
15
-10
37
-15
-4
-21
7
27
12
-6
-19
-26
11
-8
-8
8
3
-3
-15
-32
12
-28
-13
25
0
-5
16
-26
-18
13
-13
2
14
-18
-5
-10
-16
10
-5
6
-24
-17
-1
-39
14
3
-38
-10
13
29
4
7
4
11
-16
-10
26
-15
-11
-15
16
5
-17
-6
-5
-20
-3
16
-23
0
14
-18
29
-13
1
18
6
0
-6
49
42
-3
-17
24
-31
-15
-11
-15
-1
-18
0
-32
24
-2
7
23
17
-15
20
2
-22
13
14
-2
8
-19
-19
-4
39
18
-3
45
1
-10
-14
11
-9
3
4
-15
-11
-37
-1
-1
8
-48
24
-2
32
-18
22
-5
7
2
-10
3
39
45
39
31
28
-48
10
-3
19
-43
-16
-27
5
5
8
-1
-33
-4
-38
-8
8
-31
10
6
-10
-5
-19
-4
-1
-8
7
-11
-1
5
-7
9
18
39
-18
-10
-5
1
47
17
14
-12
-1
16
-11
-2
-2
-10
-12
8
18
8
-2
8
-18
19
17
-8
-20
24
14
-22
-2
10
-33
-10
-13
-9
-6
21
-8
-9
3
0
-3
-14
30
23
10
24
7
-9
2
4
-28
22
16
-4
7
-21
-30
-2
-10
26
5
-9
24
-36
10
-9
-10
20
18
-54
-19
-6
14
16
17
20
-9
0
31
-6
26
15
-20
33
-16
10
-18
1
19
-27
11
11
-11
13
19
-1
-9
-4
5
17
-4
-22
-4
4
13
6
-7
-16
-4
-30
-9
15
-8
-21
10
48
2
-3
-14
11
-1
35
22
-30
-39
-10
-24
0
-26
-13
-15
1
-48
-4
-31
11
0
4
11
-23
-7
-11
-20
-14
0
27
-5
35
9
-3
-2
25
-7
-21
-1
-7
12
10
5
0
-9
-10
15
-38
9
16
-3
26
-33
13
0
6
4
6
16
8
-37
-29
2
-1
6
-9
-3
40
23
-25
-11
4
0
-5
5
24
-14
-14
4
26
-18
-1
14
11
2
5
19
3
-3
14
2
10
-19
5
-16
20
6
26
37
20
23
0
15
-18
9
8
42
-7
9
19
-21
-4
-5
19
14
-13
-27
34
-12
3
16
-18
-15
-12
4
21
-27
11
10
18
-6
-31
-26
-34
27
-21
-13
30
-1
-3
-16
-7
37
-14
-1
8
1
-21
-16
-2
-8
-8
-3
-22
-32
-21
0
1
-8
33
-9
-22
13
12
37
8
-17
14
6
-7
-1
10
-15
-6
20
2
8
3
13
-10
23
13
18
-16
-13
2
15
-21
-24
-14
21
20
-15
16
9
6
2
28
2
23
-22
-19
-15
6
-37
15
6
3
-9
-22
10
0
-14
5
8
8
8
-8
-7
-29
22
-20
12
2
9
-3
-11
-35
21
13
1
3
-1
14
4
22
7
33
-15
-14
7
-9
8
12
1
1
-1
-5
4
-28
-4
-5
31
-33
-10
17
-18
7
25
8
-13
-3
5
-17
38
18
-14
-23
-4
-43
2
8
10
-31
1
-6
-20
14
-12
-4
-13
26
10
25
-16
20
3
-12
-12
-50
-18
-13
-14
16
14
-25
22
-31
11
2
7
11
-30
-46
9
-27
-7
-9
-14
-16
-22
-6
-3
13
5
10
-15
-31
-16
12
-19
5
-8
30
-11
29
-5
-18
-8
-18
-1
-2
0
1
-45
-12
-12
23
-4
6
0
-14
-2
14
2
14
26
13
30
22
14
-6
1
-2
5
5
-14
-1
-25
-7
11
42
-22
0
-5
-1
22
3
12
-38
14
21
-7
-11
-18
9
10
31
-19
4
-9
-1
-9
0
3
12
11
6
-18
9
-13
31
5
-17
8
4
27
10
9
-6
20
10
9
18
7
5
6
-5
19
13
23
21
-27
-25
-13
12
-4
9
-13
-8
-11
12
-17
-10
-5
-30
-6
-6
5
30
8
15
17
22
-21
33
-8
0
12
10
5
23
-8
19
6
-22
-20
-21
-6
32
24
-21
11
17
-3
42
-2
4
5
-17
-6
14
12
10
13
-17
13
-5
12
23
11
-6
12
35
21
14
-19
9
-17
16
-14
6
25
-13
-12
-7
-6
-28
14
13
-7
-14
19
7
16
9
-6
-23
0
11
24
2
-10
-3
26
13
18
-18
-5
-7
-3
16
12
29
10
-14
16
-23
-30
-11
7
6
44
-5
-7
21
15
16
1
4
0
-11
19
8
-15
-1
12
11
0
7
-7
11
11
5
-9
7
7
27
-4
-5
22
-9
10
-22
-30
-24
-4
-21
-6
13
-26
-11
-33
-18
-2
15
11
4
20
-7
-21
11
12
-34
-8
-3
19
3
25
19
-12
3
19
24
-5
5
-9
24
-20
22
-10
-27
3
-5
9
-7
-9
8
22
1
4
-19
-7
-3
2
28
4
5
-8
-15
30
-9
-4
2
-25
5
0
11
-3
3
4
2
30
9
25
3
-28
20
-3
-16
15
9
8
-10
9
13
-14
-3
-15
26
7
-11
-7
4
-8
18
-4
-11
15
-14
8
20
-10
30
5
8
-14
5
8
8
2
14
13
17
-4
-3
-17
11
20
8
13
18
21
4
17
-3
-19
-7
-16
13
7
17
-28
2
0
14
21
5
9
45
-33
-4
12
5
9
13
18
28
2
-35
-12
-2
-6
-6
-2
2
1
-1
3
7
-20
-24
5
-2
5
11
-7
-4
1
23
-4
-6
14
0
-17
3
-1
34
11
34
0
11
-4
10
-8
-2
15
7
44
-11
-4
-1
-6
-31
3
-32
-6
-31
21
11
6
19
12
-3
17
15
17
-17
11
12
6
-1
9
32
1
-3
13
-19
48
13
26
7
-7
-9
1
18
2
-10
3
10
29
-19
-8
0
17
-6
4
6
14
21
4
24
48
-14
6
8
12
-3
12
21
5
-2
14
19
-30
25
-3
-39
-30
3
-1
14
4
-19
0
-23
-3
-6
18
11
-5
3
-37
-10
21
-11
6
-38
14
26
10
-17
-5
14
11
-8
23
-17
-21
-7
-3
18
-16
-19
39
-18
-12
2
7
19
18
-1
7
-16
19
19
26
22
-13
-16
-3
8
1
-21
19
-8
41
-18
-37
22
33
-6
-3
8
-2
-16
35
-28
20
15
16
11
20
-5
24
22
5
32
23
-23
-5
25
5
-20
-3
-7
33
42
29
14
-12
-40
1
16
-12
-13
-11
-20
-8
-29
4
-9
9
11
47
15
7
13
20
-28
-7
-9
-16
-3
9
14
27
28
9
-3
-38
9
-20
8
-9
-16
18
25
6
20
9
-11
5
25
-28
-2
-45
17
-4
6
-31
-25
29
-18
-13
-15
17
-1
-11
18
-5
2
8
-23
-13
6
21
-22
6
15
6
-3
4
4
10
5
0
-13
-11
-7
-20
-21
-13
14
-45
-2
-1
-34
-13
-12
-2
9
-20
-21
-13
-14
-15
-7
-23
-16
13
-11
17
9
-26
-6
-1
-17
13
-38
19
35
26
-13
-20
-23
6
7
19
-27
-1
-2
-36
-17
-32
16
-27
-7
-11
-3
-1
-10
-38
16
5
19
4
3
-30
-8
13
-8
2
6
-31
-14
-11
0
35
-10
-28
-30
-1
23
-36
-14
37
-24
6
-24
-23
-22
-3
-7
9
-29
-38
-1
-27
-3
-3
36
-28
-9
-36
-6
-1
-5
-25
31
-17
-14
-9
30
11
-15
20
-16
29
-19
-4
17
19
-5
-2
-12
-1
16
-28
-9
34
-8
-4
-21
23
-3
-12
41
63
10
-8
-15
-5
-14
-18
-6
14
14
-12
29
-22
24
-2
-20
5
-10
20
17
0
-9
16
22
23
-15
-26
-19
6
20
-22
-1
6
3
-19
26
-2
9
-6
-6
23
-35
25
6
30
-18
-3
28
-19
27
15
-36
-13
6
-1
-25
4
-25
0
4
-11
19
-17
10
40
-18
-16
8
-5
24
-11
13
-17
-21
-31
-34
-32
-11
2
-7
17
-8
29
16
-11
29
15
-12
21
17
16
-18
-14
-5
32
-14
-10
14
29
4
-39
32
15
4
6
-10
27
-4
15
-14
-2
-13
2
6
5
-4
19
12
13
23
15
18
5
-10
-22
-13
-1
-9
-8
-22
2
3
6
-21
-28
1
-3
9
18
-12
19
27
-24
-27
-17
-6
0
12
1
25
20
-10
12
-33
9
15
-18
-32
-4
22
-13
20
22
-6
30
-10
-14
13
-14
-17
17
-8
3
9
-4
-11
-15
-9
-9
24
-15
-20
-22
-6
-6
16
49
9
-10
-11
24
0
18
1
1
-2
19
24
-13
8
-24
25
-10
-11
2
4
2
2
-15
8
-23
-3
-16
-10
9
-12
-4
5
11
-3
17
1
-14
-4
8
-4
9
4
-18
10
11
1
8
38
-11
34
1
7
-4
-10
-2
-2
-16
1
1
-5
-7
13
14
23
0
-1
-43
-35
-35
1
16
33
-18
-22
5
-7
-1
-9
10
-4
-1
20
3
-30
0
2
5
2
-6
8
3
7
7
-21
-33
0
3
6
-1
14
12
-5
35
9
-33
5
17
-1
-25
3
-11
-5
-13
-26
-9
-33
-19
-21
21
-10
11
1
-14
-1
16
0
11
-17
-6
-14
4
31
1
37
19
5
-21
-27
26
-20
-7
11
7
4
12
1
9
-3
-23
-43
-9
14
22
-5
46
-42
-17
8
27
-15
6
-11
20
-16
-5
-5
20
-19
-14
42
-3
14
12
22
-36
6
30
-12
18
5
-11
-8
4
-8
2
23
-32
-5
-35
0
12
-1
22
8
4
-9
-2
-3
28
14
3
24
-8
-34
-21
-10
0
2
-12
-1
-18
35
11
1
-4
4
16
-20
-1
-8
20
-5
-2
-41
-16
16
-15
4
14
-2
-4
-32
-11
39
-26
9
-19
19
4
-3
6
-36
3
-3
45
-33
-10
-10
-16
14
5
0
7
5
-15
-11
-1
-33
34
-25
35
15
21
-10
-5
20
0
-32
-13
3
23
0
-13
21
12
15
-2
-1
20
-6
-14
11
-20
11
-11
13
3
-23
3
-31
-12
9
14
-16
-10
16
4
30
24
-17
9
0
30
30
0
-1
-3
-7
6
0
5
40
-11
0
-16
-25
18
-1
2
24
-40
-17
1
-2
5
-15
-9
10
14
-7
-18
-28
20
7
2
-12
-5
-4
10
19
17
-18
-5
20
-28
3
16
-18
2
-8
-20
-12
28
-20
2
12
-22
-20
-15
-11
-5
-14
27
-18
10
-22
13
5
36
-23
-32
2
-14
18
-4
-30
23
0
6
17
43
1
-23
-6
-2
-19
-1
-2
-23
-3
10
-2
28
7
-23
-13
17
-14
2
8
-7
1
-24
-10
0
-15
-27
8
16
1
10
19
32
-8
23
26
-4
-7
10
9
-17
-5
-20
-12
-3
-1
27
-11
-10
23
-1
-8
10
2
-8
-22
1
2
-1
-35
-16
-11
-5
9
6
25
-1
27
9
-14
-5
-6
-6
-14
-12
-16
26
8
-4
10
33
4
-9
23
7
-11
-3
19
-11
18
18
-2
20
-11
12
0
-13
-16
8
-28
20
-4
14
-27
-36
27
2
8
-5
-37
-1
-6
17
9
-6
-13
-7
8
28
-15
-5
-1
34
-13
39
-4
1
-40
-12
-6
-17
4
-7
-11
-1
18
-36
44
-1
7
0
-21
32
-4
5
6
-11
2
-13
-5
5
-5
5
-4
10
13
27
0
-14
5
1
4
-19
-19
24
-12
0
-6
-11
-7
-12
10
-2
-14
-5
0
3
-1
0
-3
-22
-6
2
-12
-40
-30
14
-21
-5
5
11
-28
-3
0
-6
33
-39
17
13
-5
6
20
3
-20
-8
1
-6
-8
-19
4
17
1
-16
-9
13
-6
-17
20
-8
-14
-15
-17
4
13
16
-8
-27
-17
-20
29
-7
-35
-23
14
-7
-38
-21
9
-8
26
0
-3
10
-10
7
44
25
-2
5
-4
2
8
6
2
6
10
-23
-19
3
19
-9
-44
-6
18
-26
-1
-9
7
-16
-22
17
-19
8
-12
24
17
13
-34
-18
-2
-4
6
-9
-57
3
-3
-35
-7
4
-29
-16
32
20
2
-10
-7
-3
22
-38
-5
-18
-30
-6
0
-10
-4
-21
6
13
-7
31
-4
-9
-11
-25
20
-25
15
3
-55
8
-10
-24
-11
-25
-3
7
-10
-15
16
-15
-9
3
-20
34
5
-26
6
-4
-14
-6
-15
-30
4
3
-9
4
6
-22
-17
12
-13
8
42
18
0
-12
16
-12
18
-25
-11
4
-1
3
-34
5
13
-10
3
24
-22
-15
21
-8
0
-11
8
21
-4
-20
9
13
-15
21
-8
-4
-22
-3
-16
16
-37
-26
-10
22
4
-16
-4
-19
-15
-23
-7
-27
-22
9
9
-2
-3
-7
9
-23
13
8
3
-13
-12
-32
-20
10
-5
35
3
14
-18
39
1
25
6
11
5
6
-8
-16
19
-7
-31
-37
0
13
11
-19
-2
-16
7
38
-18
2
-22
-18
12
-17
9
14
6
6
-7
14
9
-11
-38
4
13
-12
-24
52
-11
4
-7
-5
16
-15
1
30
42
-2
8
-24
-11
-15
57
-5
15
13
7
-26
0
16
4
4
2
-2
0
-1
27
3
16
14
11
-11
-2
-23
-9
-9
-1
23
-23
-22
8
-5
-3
7
-15
4
-18
8
-15
15
5
-12
-25
1
4
-3
-32
12
22
3
1
-8
7
24
-12
8
1
-9
40
-17
10
8
12
-29
32
-9
2
-4
18
-7
3
-20
4
-29
5
-5
-9
7
24
7
5
19
15
-24
1
-11
-19
-9
9
15
2
-30
-23
-24
7
8
40
7
3
6
-1
42
10
-6
29
-12
-13
-18
30
7
10
-15
-41
2
-32
1
-5
24
-7
-10
-13
10
-16
-4
80
-27
17
3
-18
1
-12
-17
7
1
-19
-34
-3
-21
3
-8
-5
-10
22
3
12
-3
6
-2
20
-12
13
-9
-2
-50
16
11
1
-20
-2
17
-23
13
13
21
-8
-20
12
-19
0
8
29
-6
-17
-25
3
4
11
8
-8
21
32
-3
17
-2
-2
-15
-7
-16
-6
4
12
20
-5
-2
3
26
-6
9
43
7
13
3
-45
32
29
6
-21
28
-18
-10
-1
-2
15
-15
13
4
1
4
-32
3
4
-4
11
6
1
6
-16
-10
4
18
2
-6
17
-10
-20
1
3
9
-43
39
-21
-22
-14
-1
17
24
-11
-3
4
-14
5
-39
-13
-12
13
12
17
16
-1
-9
-1
-4
-4
25
8
28
-7
-24
-14
6
20
-20
11
15
-29
-24
0
-36
22
28
-22
-8
26
-26
16
20
-24
1
6
-5
-5
-12
10
-14
-3
20
1
-19
0
-4
-24
-35
21
12
-21
34
4
20
11
-41
-5
2
-19
32
-24
8
9
21
10
10
-18
-10
-31
22
4
2
16
-53
0
5
-16
13
51
-5
14
23
30
7
-12
11
-26
-7
-10
0
14
35
-6
-24
-24
-13
17
28
-45
-11
9
-5
14
-7
-24
-8
9
-15
-12
10
23
9
16
-22
13
24
24
13
31
1
27
6
-4
8
5
-7
27
19
11
9
-2
8
62
13
2
6
-11
-16
-13
-7
-17
-3
15
12
39
17
12
-9
5
7
-30
-17
-20
7
15
19
-8
-23
6
17
19
-9
11
5
-18
-5
-3
3
-24
13
-9
-40
13
34
-12
10
-9
9
-4
25
-12
12
-1
-12
22
-1
-7
17
21
9
12
-43
38
-22
-7
24
-1
-5
-43
9
7
-9
-3
0
22
-4
-9
-9
17
9
-34
-27
-24
-23
-35
25
-1
13
6
-13
-10
4
21
-46
-33
1
1
10
5
0
17
-13
15
-11
12
3
19
0
12
24
18
-1
21
-1
11
-15
-10
-4
12
-3
9
4
34
-2
-18
34
36
3
-2
12
17
-2
39
12
-2
-36
-42
5
3
-6
6
-17
-36
-45
33
-6
-2
-25
6
6
-24
-8
9
-15
-19
4
-12
54
20
-21
21
-14
29
3
-26
4
12
23
33
4
-20
7
-8
16
-3
-1
-16
14
22
-12
8
11
-1
27
3
19
1
2
-1
-26
-19
-20
37
-10
5
-6
8
32
10
12
-14
0
-33
8
6
5
39
-17
7
-7
11
-12
-8
49
23
-20
12
-8
-33
-5
-1
-10
37
10
30
-7
33
-13
2
6
0
-6
14
-30
-5
14
5
15
-1
17
11
3
-13
-21
1
-1
-23
-8
11
-25
0
-16
-1
-26
-12
-25
-28
19
-16
-12
4
4
1
-20
7
-2
-22
18
-1
16
12
14
14
-3
-10
-8
-33
-5
6
7
41
5
-18
-4
-13
2
6
2
11
-6
-3
0
-16
-27
-5
9
2
13
17
19
16
28
-1
-6
33
-25
37
-7
9
-2
6
18
5
-1
-1
19
-10
-7
-1
-20
16
-1
7
-7
-4
18
21
10
11
16
-21
-4
23
13
-5
-8
-25
33
41
0
-14
-19
7
3
19
7
-2
-6
-19
-27
-11
-29
23
-8
-22
22
-2
4
7
44
7
-10
43
15
-20
19
0
8
1
11
11
-21
-13
-10
-7
-4
10
-11
-15
1
27
-12
2
-7
12
5
12
7
11
13
-33
-10
8
-17
-8
-27
-11
4
-1
36
5
14
-18
-7
-16
-7
6
23
18
-16
-14
1
3
-3
-25
0
0
23
-24
21
4
15
8
9
-21
-1
27
-9
8
35
0
-3
4
-15
-22
7
-39
14
0
-12
-1
6
33
13
-27
32
2
13
-9
-2
34
-18
-4
25
7
-9
3
-13
-13
7
-2
14
-16
0
-6
-3
5
8
12
-13
10
1
18
31
25
11
0
11
-20
22
5
-1
-9
2
-3
-34
-13
-7
21
-22
28
-13
-6
0
2
16
-18
-28
1
-7
15
-6
19
6
10
3
20
5
-4
-8
25
2
-2
-1
1
14
21
-3
12
7
11
8
-14
8
7
36
-11
16
5
-16
-13
-8
-12
-19
-27
-24
-14
10
-7
9
27
-17
1
29
17
-19
-20
-7
0
-7
-15
0
16
-2
-18
-9
19
24
3
1
23
-17
-16
-20
-16
-25
-13
-10
4
11
5
44
13
-7
-1
12
18
-10
15
-27
10
33
3
20
14
-10
-33
8
-12
13
-3
-5
8
12
18
17
-4
5
19
-23
14
17
9
-13
-2
-13
-1
20
11
5
-23
-16
-29
-19
-16
15
-14
-14
3
22
-22
-8
-46
-12
-23
25
-22
-11
42
-17
8
8
-21
-1
41
-11
15
-14
8
22
20
6
0
29
-10
-17
-8
4
-11
17
18
-9
-3
-5
-16
-18
5
-5
10
-11
-3
-54
-9
-6
6
15
9
-26
-8
7
-14
4
-4
6
-20
-18
2
11
1
18
6
7
-14
36
0
-15
-6
15
-14
36
21
0
23
21
11
-27
-13
-7
3
-1
-5
-9
0
1
4
16
-16
-6
5
1
8
-13
11
3
13
-7
6
-16
7
-2
6
7
8
15
3
-38
11
-8
-8
-29
-12
5
6
-28
19
-16
-16
7
-12
6
-17
31
4
14
3
23
16
-15
-16
14
19
-13
-26
4
24
-25
-23
10
-1
-22
-11
11
-5
-15
14
15
-1
20
-2
4
13
7
-16
17
-4
6
-8
-8
-37
-7
0
7
-13
-11
-37
-23
21
-4
-14
-5
-3
-4
-9
-40
-7
-12
-5
-7
-2
-31
7
-11
38
9
-12
9
3
-29
24
10
24
0
-23
38
-4
-2
9
-6
34
4
-14
28
39
-29
-21
14
22
-3
10
19
-25
-7
19
-2
16
-21
-24
-13
35
3
-23
3
5
-7
14
-3
-31
22
-18
3
-2
12
-12
4
23
8
11
9
-11
-4
0
19
-17
-12
-4
2
-13
7
36
-7
-13
10
-23
43
9
12
4
11
8
3
-2
-6
-22
20
-10
-12
21
-33
30
-15
13
28
-10
-4
12
14
-21
19
15
4
29
8
18
-22
-9
-28
-12
8
-10
-3
-30
7
9
-28
-7
-7
1
1
-15
-12
25
-4
-18
7
9
6
6
3
-22
1
-1
-25
-3
-5
26
-6
-30
-6
-5
-1
7
4
-26
6
-13
15
2
-2
19
6
-24
-39
5
0
-3
7
-6
26
-13
-5
36
-11
-12
8
19
37
-12
-5
-10
-29
-6
15
9
-15
15
5
4
-16
-26
-4
-12
-5
2
-15
-3
-18
-8
5
21
25
7
-2
10
48
7
-20
-20
17
-23
4
-16
10
-6
-1
-3
-7
-28
26
0
6
-10
5
25
-4
-21
-9
-2
17
-1
-6
3
16
-17
-3
27
-13
-24
26
-23
-1
26
10
-44
-22
25
1
20
3
14
47
-19
20
-7
-11
5
-5
0
2
-4
-19
-16
-35
16
-7
-2
-15
11
-2
12
-20
7
-14
-29
24
-20
1
3
-7
-7
-16
-18
10
-21
16
14
25
3
-3
20
4
22
32
17
4
-13
-28
6
18
2
-1
18
4
15
-8
-12
7
13
17
-8
7
-8
3
-1
-26
10
11
-3
-35
5
-27
-7
3
-47
6
-17
15
-33
-25
-13
-22
29
32
-7
9
-9
4
3
-23
20
-20
15
16
8
-11
-8
9
-8
3
7
-18
-4
-9
-12
-24
-9
25
-20
-6
-14
-33
-22
7
-8
-9
4
31
-8
4
-19
-3
-4
-14
-16
-20
18
-27
-4
0
-25
15
6
15
5
5
-12
-18
-22
2
5
-4
9
10
21
-11
-1
-33
6
-14
-4
23
-4
-8
-2
-14
10
-20
2
-7
-1
31
-12
29
14
9
26
-1
13
11
-1
-13
19
-19
-20
13
6
8
28
-23
37
-6
9
20
21
21
15
-6
2
-7
-25
-43
29
-3
-12
-29
-2
6
-11
-9
-7
-3
37
8
-10
5
26
-4
-8
25
-19
-3
2
-3
-12
26
16
15
0
-5
8
10
-26
10
0
-13
-1
17
-37
25
-29
14
-5
23
-18
3
-4
-4
15
32
19
-2
19
-1
-8
8
-30
-29
-15
-9
22
12
-7
6
-27
-20
-14
-1
5
-15
-5
5
11
-19
-24
-13
-8
6
16
-5
0
-2
-29
3
12
-9
-5
-5
-8
6
-9
29
-28
-27
2
-2
5
2
-16
15
3
-3
18
-15
23
39
3
3
12
4
-20
20
-7
-2
-40
-29
1
-22
8
5
-1
36
11
18
-7
2
31
1
-3
46
22
13
-17
1
-6
5
13
23
24
21
3
-20
0
27
17
-24
5
-39
-10
34
-14
-53
-6
-41
23
24
-1
14
-24
11
23
22
-3
-19
5
1
19
-21
6
20
15
-10
7
7
-20
11
-17
-24
19
39
-14
5
2
-55
-16
25
-18
14
5
19
7
-4
6
53
-20
16
-25
15
4
-7
-28
6
28
22
30
-10
-12
21
-37
1
5
18
8
-40
-2
-30
-23
7
15
-11
-7
10
9
13
28
10
-9
8
2
-38
-37
-3
2
1
-1
-14
-17
2
-1
-6
10
-8
4
28
20
12
-9
20
-22
-12
-31
-8
-4
-22
3
32
-4
-11
23
15
14
-2
-21
-24
15
-21
38
18
-21
5
-3
-27
2
4
3
-6
4
-39
-19
-27
-4
32
28
-9
-3
3
14
-11
6
5
7
35
33
-38
2
-3
-21
-4
-33
3
16
17
28
16
3
-12
-32
-45
0
-1
3
30
13
-18
-17
-25
-7
13
-3
-27
-4
0
11
-7
0
-18
-38
2
8
-16
28
-13
-3
-7
-5
32
-29
-27
4
31
-1
16
22
1
48
-7
23
-25
19
-26
-16
-4
0
4
-7
10
35
15
2
-1
8
-45
-12
-19
-6
11
-13
-17
-13
34
-16
-28
-12
-4
13
-7
-2
19
-5
24
18
-3
6
-5
-12
-9
-19
15
11
-18
-16
-29
37
-48
-30
1
25
3
-33
7
-30
0
33
-37
-29
-9
1
0
17
-33
0
5
-31
2
30
-5
-10
25
-25
-27
-32
26
15
9
-10
19
20
-2
24
-12
-17
-18
-20
30
13
35
-32
-8
10
9
-46
13
28
3
-8
9
10
-2
3
-8
-7
-12
7
15
-49
12
27
-13
2
47
8
12
31
-26
16
-25
9
36
5
-2
-34
-22
8
7
-12
2
-2
-10
21
33
-20
24
-33
0
-15
6
-3
25
-11
-6
48
-11
25
11
-4
4
40
-35
28
8
33
-13
32
1
15
-1
27
-34
5
-5
23
-17
3
-24
-27
-10
30
-12
21
-15
-28
-10
-14
11
-10
10
16
-10
23
-14
-6
-6
5
-8
16
14
-4
-6
-12
-1
-6
23
-2
-17
1
13
4
-15
1
0
5
-13
16
-43
2
-21
-8
-8
-12
19
12
3
6
-7
6
5
-2
4
-3
8
-13
9
0
40
2
-16
1
-24
-20
12
2
-3
-2
6
34
10
26
-1
-19
0
-11
1
32
14
-18
-1
-14
51
-1
-24
4
-12
5
15
-2
-20
-18
-24
-26
-10
7
28
3
2
-11
3
9
1
-5
19
8
28
-5
-11
0
36
6
3
24
28
18
13
12
12
-24
15
-9
8
-12
26
0
8
-6
20
8
41
7
10
-10
-24
-8
8
-1
-5
13
1
0
-27
13
11
21
3
19
-14
-1
-4
14
-41
2
-19
-8
21
5
2
19
-4
-12
-18
-3
-8
28
-18
-10
9
-6
0
-11
15
1
-28
-27
3
2
20
8
9
-10
26
26
15
11
19
-9
-6
-38
-15
17
-5
-31
5
5
3
19
-2
3
-29
6
1
32
-11
-1
19
6
28
-8
9
-12
-1
-9
7
15
-11
10
22
7
11
-19
3
-8
-9
9
32
2
5
-10
7
-8
-9
14
1
17
-11
6
-5
29
11
-6
8
-4
30
-8
2
-15
-2
0
-20
4
-14
-29
22
7
-31
13
-8
-15
5
4
-9
1
12
23
-2
14
-2
13
-10
-16
-3
13
-3
10
25
-37
-7
28
14
-16
12
21
4
-15
-3
-8
-19
-10
2
27
-9
-11
15
-20
-11
-10
-23
9
-16
-9
2
19
-14
-6
18
12
-5
10
10
-7
15
-15
-15
-9
29
16
26
5
-7
9
2
-10
5
21
21
-2
16
0
-2
5
0
-21
-12
-2
-4
-5
-18
-9
-7
-16
6
13
-7
9
2
10
6
-25
-9
-18
27
-30
-19
-4
-19
-19
-24
15
-25
-17
-11
-15
9
-15
12
-28
-18
9
22
14
-1
5
0
-5
-7
8
-10
14
18
28
-5
-2
-1
-5
11
-11
20
-10
-28
14
-36
-2
-11
-16
2
-19
-3
16
-29
7
-21
4
-15
37
-21
-15
-7
-6
-9
12
22
-12
0
-13
14
15
-25
16
-25
-10
16
-23
16
-24
-4
26
-16
-43
-27
6
14
-28
-7
-24
-4
19
-19
-17
-9
1
8
-15
-8
12
20
40
-32
-18
26
-4
11
16
3
-15
-1
34
-17
25
16
-36
-44
-2
-19
15
-12
-5
3
14
-32
39
-10
-17
10
-11
30
-32
-1
3
-12
16
-1
26
-11
14
-10
0
1
31
-10
6
-4
-4
-13
-35
-8
-9
-13
38
1
-3
-42
-8
9
3
-7
14
-4
8
-20
-16
-30
-11
-21
15
14
-17
2
2
-13
23
-9
-16
-1
0
14
24
-1
2
7
38
-35
-13
6
-22
-15
9
0
-10
-21
0
-12
-12
2
-13
1
25
-1
15
-3
7
-1
-15
8
-3
7
0
0
-6
11
-4
27
0
20
1
16
-6
22
-11
-17
-1
-24
40
-33
4
10
21
26
9
-29
-5
20
-15
-3
14
-16
-13
13
3
12
-24
9
-18
-3
7
-10
-8
-9
-26
-5
-1
-16
9
29
14
-26
0
-1
-23
-18
-1
19
15
11
-14
-12
-37
10
6
23
-6
25
15
-26
-15
11
-9
24
-3
0
28
-14
29
18
1
5
22
18
6
-6
-27
4
8
-6
8
22
41
-12
-20
-44
12
6
-26
-8
-31
-18
-6
24
5
-3
15
-14
-11
-8
-16
7
-17
-22
8
19
9
26
3
-33
-11
10
0
-5
-28
0
25
-4
-3
-28
12
2
-42
-28
27
-9
21
-22
-19
-2
8
-6
6
-1
-46
-6
-1
20
-23
-11
-2
1
2
-50
-3
0
-24
18
-23
-39
-6
-23
-7
21
-7
3
-14
11
13
13
7
23
1
-33
6
16
4
26
4
-16
-1
7
-23
-12
2
13
0
46
-15
-27
-8
7
15
-11
9
-3
-19
-11
24
13
-1
5
13
41
15
18
11
17
13
-27
-10
-24
5
10
-1
-17
20
17
7
3
-25
2
28
35
-27
-3
-15
5
-33
20
-1
-5
0
6
-31
1
-4
7
-22
-10
31
1
-6
0
-12
7
4
8
-9
-10
29
-14
-3
3
-18
-6
16
25
9
-6
29
16
-6
-9
-2
-5
-6
22
-27
13
-1
-21
-16
0
11
-30
-19
11
-13
-9
-1
-17
5
-13
-15
-18
21
6
0
-23
-24
-1
-25
13
-31
12
1
-11
16
-27
-8
-3
20
-12
0
2
-5
3
-5
-17
-2
14
4
-30
7
20
-3
13
-40
-4
-12
2
10
-19
-31
1
-6
-21
-12
-5
-4
-14
-4
7
-18
-6
-25
-6
7
10
-16
-24
-15
4
12
-5
8
9
-20
-1
4
-9
-8
-1
-35
3
-18
9
9
-7
2
8
2
-7
13
10
5
-4
-9
-16
-6
3
-11
4
28
19
12
-9
-1
25
14
8
-7
7
-6
-5
1
-6
-17
-5
-37
9
3
0
-18
-8
-1
-8
-1
12
5
20
7
0
23
-9
2
-24
5
1
-1
-3
-4
-27
-4
4
-11
0
-6
19
4
20
15
-29
0
-2
14
11
10
14
23
-25
-13
-2
24
-45
-13
7
2
9
5
15
12
-7
-6
-9
-21
-24
-29
29
8
9
3
-12
-2
-18
21
-26
-16
-6
20
-7
0
2
-6
-10
17
-1
-8
-13
12
28
8
-6
-2
4
20
22
-30
-9
25
5
-11
-7
-15
4
-17
20
14
15
13
40
4
22
-2
-12
-19
14
10
-8
16
20
-9
19
21
18
16
-5
-6
18
32
-9
-7
-6
-21
27
-24
-17
-10
3
13
-17
15
0
11
-22
15
2
-13
-27
6
1
32
3
9
-10
9
5
-2
21
15
0
-1
24
-17
8
9
-5
-20
22
-6
-5
-22
-1
4
-4
16
24
10
10
-18
3
-19
-8
14
1
-1
5
7
8
-10
-13
-24
11
-11
23
8
20
-10
19
6
-2
-13
19
-14
-4
-32
-21
-11
-2
-24
13
-8
10
-19
-6
-7
-15
8
-16
-10
-13
6
19
6
19
-4
-8
11
5
-24
-2
-4
-23
-3
19
-11
8
-18
3
2
-18
2
-5
57
-30
-23
-19
-5
-26
15
-20
15
5
-3
-14
-19
0
19
1
18
23
4
28
2
-21
12
9
15
-5
-4
15
22
45
0
1
6
10
16
-17
31
2
-21
31
9
6
-18
33
5
-1
13
5
-1
41
-4
12
13
27
-19
-29
7
-16
-3
8
-22
-3
20
-4
6
-5
18
-11
-18
-13
-6
-8
12
19
-30
-20
-1
2
24
0
7
21
-22
32
-12
-6
15
-8
-12
12
7
27
-18
-15
-3
-23
-10
2
-3
-1
-19
-3
20
13
21
-26
1
-6
8
8
-9
-20
-17
-21
-1
16
-12
40
-17
-10
1
33
-35
-44
-1
-4
-11
0
-26
6
15
6
11
-11
-16
27
9
14
-24
-14
-34
23
11
-24
-22
-13
15
-27
30
-50
30
12
-20
9
4
7
16
-11
-4
9
5
-1
-11
16
-6
-15
-24
26
6
11
-7
-10
13
-1
-19
-20
10
-5
11
10
0
16
-1
41
13
2
-7
-12
25
-5
10
6
-14
-8
7
8
6
-11
15
20
23
8
-9
17
33
5
7
31
15
-14
24
-7
-3
-16
-1
-4
6
14
-7
4
18
10
21
13
-12
-2
-30
22
17
-15
5
-19
-5
-8
-19
4
0
2
9
7
-9
-7
22
-10
10
25
22
9
9
4
11
2
22
3
23
-24
1
-4
-30
24
-4
-26
-14
6
12
-19
-3
24
-7
6
-2
-14
17
6
-25
2
14
8
-18
5
7
1
-28
13
1
8
-10
-5
4
-38
-10
-23
4
15
25
-5
-2
-2
6
2
-6
-5
9
8
-22
4
8
-10
16
17
-8
9
1
-62
9
-9
-18
18
9
-31
0
8
3
-16
-17
-20
-21
-2
-8
-23
-3
-10
30
33
13
-25
6
-8
-36
-8
17
-7
-16
21
-14
-28
7
6
32
-17
27
41
0
-3
-12
-11
-18
11
21
25
18
15
-28
8
-29
10
-7
-12
8
11
22
-18
-12
0
-16
20
23
1
-1
20
-4
-19
4
0
15
11
23
-15
22
-19
-20
-9
-11
25
-7
12
27
-6
-16
-7
-10
5
-18
-16
-9
18
17
3
-9
5
-8
18
-23
4
14
-4
-3
-15
-15
-33
25
-14
-15
-45
-8
0
-8
-1
-29
-11
-26
16
-33
-1
-15
-4
3
-4
14
-3
0
7
-11
8
-28
8
10
1
-7
-17
12
18
-8
9
13
-2
-2
-21
33
14
-10
2
6
-7
2
-25
10
-39
-9
7
16
-17
-5
14
12
-33
-4
-54
-9
-7
2
0
-11
-7
-5
-6
18
-3
-8
16
3
-17
-2
8
-19
-5
16
1
20
-17
7
11
21
10
-23
-19
-16
7
-27
-22
6
4
12
-4
-8
4
20
8
12
8
5
17
-12
-4
-14
15
5
17
-5
19
1
18
-10
17
-33
-1
-23
5
19
4
-34
0
12
-13
20
29
-20
16
12
39
-6
1
11
28
-16
-1
-7
-24
-32
34
-24
9
-27
-39
31
33
-2
-11
5
-2
-14
-1
17
13
16
9
19
-3
18
8
-11
-5
-13
-9
11
3
6
28
-8
-5
-13
11
-15
22
28
-35
-5
-18
-20
-3
-21
8
-9
-12
0
-2
-34
-7
22
-16
17
15
-24
-25
-1
4
-29
2
9
10
31
14
10
2
-19
15
-4
7
1
-25
-1
-9
-20
2
0
-29
-26
-15
36
11
17
-37
-30
-12
19
1
13
-19
10
-24
-2
6
-4
-28
11
-12
-31
-32
9
-18
19
-20
-39
1
-8
19
22
-33
-7
22
-5
8
2
6
-12
-2
-40
-14
-8
8
6
8
26
-22
-20
22
15
-15
-8
-7
13
8
18
24
14
-6
-5
9
-32
-5
-18
13
-21
3
-18
14
-25
46
1
20
-19
6
38
-5
10
-17
0
-13
3
-31
5
-6
-8
25
-17
31
-8
-16
-38
5
3
24
-12
-25
14
-13
-18
-24
10
-19
21
14
20
4
-29
-2
30
12
-6
-2
-14
-2
-4
-60
-53
-17
-4
37
11
-56
-20
-18
1
8
-16
-15
31
-31
16
25
15
-31
-4
1
-5
-8
32
-31
-29
17
22
-12
-3
-14
-36
14
-6
-26
22
-3
-33
8
22
7
19
-2
10
-3
25
4
19
5
-19
1
-9
-17
-30
12
-27
36
32
-2
33
-31
-16
-38
-41
17
-17
-11
-15
15
-3
10
-2
12
-10
-5
-9
-35
-14
-10
9
-17
37
-31
-23
12
-9
-16
-27
-26
-34
0
9
14
-68
-43
16
10
40
-3
-2
-38
-17
27
20
17
-12
6
-43
-8
-26
-29
-16
30
-24
7
3
13
30
-21
19
26
35
0
10
-4
-33
-44
-14
3
31
0
20
-7
-4
-19
5
33
-6
15
-36
17
23
18
9
-39
-12
4
23
7
-32
11
-13
-30
-50
-4
-12
25
27
30
42
-31
-28
49
-33
-36
-30
-40
-23
-25
-5
5
-17
-14
20
8
-1
26
-18
-3
8
-17
18
-3
26
-22
29
2
14
13
4
10
14
19
26
25
-2
9
-8
28
-1
7
43
2
8
1
57
-11
20
1
-36
-13
-15
-8
-28
17
-25
-11
26
16
-27
42
-3
-3
-17
10
-11
14
29
-8
8
-15
15
25
6
2
6
0
7
-27
35
23
47
-12
28
-3
13
9
36
27
-4
15
-12
-10
14
-17
-19
20
-11
8
-9
11
4
-1
13
-47
20
3
-1
0
-35
20
-4
2
-20
19
-32
-22
39
8
-11
28
9
-23
4
-27
7
-12
36
22
14
21
4
-19
11
-16
8
-18
19
-1
-4
-17
-10
-22
-6
29
-9
-7
-15
8
-12
12
-33
-8
4
23
-23
29
5
-23
15
-66
0
28
-20
-20
-3
36
4
-11
5
10
12
-14
-11
-2
-2
27
19
30
4
-34
13
-2
-13
-11
-6
-16
-25
-8
7
-21
17
17
0
10
3
7
-2
-11
3
-10
9
3
10
8
-21
-24
-9
26
15
4
-54
30
-1
4
25
-31
15
-24
45
-23
8
-5
-40
7
-1
10
20
-27
11
10
-12
7
-5
33
15
-1
6
12
-1
4
-16
-6
20
20
9
-43
-4
0
-25
-14
29
29
-13
10
-21
-27
33
-29
22
-35
7
6
-39
-28
14
-4
-23
-21
-19
1
26
-20
-1
8
20
-10
-4
5
-25
-4
-3
4
23
10
20
20
-38
17
22
-3
1
-19
5
9
10
1
-10
-7
-7
20
-21
1
-3
6
10
-39
28
-7
11
30
4
-42
6
14
12
-29
-5
-3
-5
-10
-21
-4
1
-14
-20
-44
-22
1
-7
-26
12
19
-10
-6
-12
5
3
-3
18
-6
7
-5
5
-45
-1
17
16
-25
25
5
-36
-14
19
3
-13
-8
-34
14
-14
48
-13
-18
7
32
14
0
-11
-17
5
-13
-1
-22
-21
-14
-2
16
-13
-39
-51
-8
13
-30
42
-6
7
12
36
34
-1
39
