32 192 1 1
49
38
-19
34
11
38
30
-76
-2
8
-10
-4
31
31
1
14
2
-43
-33
-30
-16
16
-2
14
-20
-4
33
36
-28
55
-61
-9
9
4
-11
-14
3
-53
6
9
-35
-70
40
-9
-13
16
8
-31
-37
-43
22
5
-16
9
-19
-20
-12
64
54
11
28
-34
-6
-18
23
-56
0
4
-6
30
16
-15
-19
1
-5
2
9
34
13
50
11
-52
-3
-22
26
11
-25
-36
-48
-27
-6
20
28
-23
-19
-4
14
46
-6
18
42
-36
-19
-29
37
15
-12
-22
-33
-21
4
24
-4
28
-46
-4
-21
65
-22
-35
-22
-16
45
-1
-21
-17
19
14
5
10
23
-17
44
-28
-10
2
8
-8
25
5
23
-3
-15
32
49
-10
19
-17
-4
-14
34
31
-18
57
-57
-22
-10
42
-19
-5
-26
0
34
-44
30
-31
-10
13
10
33
4
20
-45
17
61
38
-30
43
-5
22
23
2
-10
5
21
15
-25
-2
-10
7
-5
6
-19
-34
22
16
2
29
-25
-8
-21
1
5
43
1
-13
-1
6
24
-17
-50
-19
-30
14
30
-26
-18
-28
-30
6
3
5
5
22
-6
-13
4
8
-26
37
11
15
-27
-3
-6
6
2
9
14
12
5
17
-8
23
-1
9
-33
-2
-15
-2
-18
1
-22
-12
14
25
-1
30
-13
36
5
-10
15
-12
-9
29
-23
-38
-14
-18
12
-5
-28
23
2
8
3
17
10
15
7
-3
52
-18
-30
6
-12
0
-10
-9
-4
-22
-70
-10
6
0
-33
-8
9
-43
29
-4
23
-43
-12
24
-1
-6
11
-10
-29
-22
8
13
11
-3
3
-14
-10
11
-8
13
11
-30
-23
1
1
20
27
63
25
24
4
-14
-5
-20
2
-33
-7
14
29
-32
-39
12
30
-24
-3
-49
3
17
2
17
12
-1
-11
13
5
-19
-15
5
-17
-5
-12
6
-12
10
17
35
-1
-9
-9
27
-1
-3
63
33
-7
-18
4
43
10
9
19
7
-3
-15
-4
-18
-15
-14
-1
-10
4
-16
27
7
1
18
5
-29
28
27
-12
19
38
21
3
16
6
-1
-13
14
-1
-18
7
16
-17
13
11
2
23
12
-11
-2
21
12
20
-17
9
15
2
1
28
12
30
13
-22
1
-2
-10
11
25
-16
46
1
-23
-22
-24
27
30
17
10
-15
4
-4
3
16
44
-34
21
-21
-13
-16
-37
-31
13
23
37
32
6
6
-9
-41
-45
30
-2
8
-3
2
3
44
4
-18
-22
-22
37
-2
-33
-18
12
24
8
-5
8
0
65
-1
1
56
-3
45
-11
13
-21
-1
9
20
-5
-27
-29
46
-2
-21
0
15
2
-22
2
7
10
29
-2
4
9
18
16
15
-13
-27
-15
5
-9
31
-7
1
-31
2
-10
8
-4
0
-19
6
-12
-4
15
5
2
28
14
-5
18
30
3
-26
13
-10
-1
51
-20
-7
-14
-5
38
-9
0
3
20
-4
-18
18
16
15
29
-6
-16
-18
-4
-48
2
-9
19
23
27
-20
8
31
-21
10
14
42
-69
46
9
-30
-36
-5
52
-18
7
-24
4
-3
42
33
-25
7
40
-8
-29
-43
18
12
-33
6
-15
-9
31
57
-53
24
-27
11
-17
-42
-12
-20
-6
-7
-37
34
39
-44
-8
-67
13
34
39
-3
-16
5
-20
34
26
-62
15
14
-18
-2
7
-7
-34
12
9
23
-66
18
-22
32
-41
4
-71
50
29
15
-26
14
29
9
-23
8
1
32
5
-15
-23
-38
7
28
-18
-17
-62
30
-30
-28
-13
32
-15
41
-39
-5
-69
-12
-37
27
9
-3
-56
-18
-26
6
29
-5
-29
1
-16
13
36
47
-19
37
19
-5
-43
-10
2
19
25
-4
-13
6
-47
-48
9
-1
-52
-15
-17
23
-18
34
-25
-22
-67
-27
6
-27
-20
-52
-21
-36
9
-28
44
28
35
-29
-12
6
-49
10
-35
-25
11
37
-9
11
14
-23
-12
-7
-15
-23
-15
15
-45
-3
-3
-40
4
27
25
-22
15
-9
4
-2
21
-15
-13
-42
28
1
13
-6
6
6
37
4
-15
-16
2
22
-45
-6
17
-6
-2
6
55
8
-21
-41
9
11
10
-9
-25
-2
-15
9
-16
-17
4
3
-10
-44
18
19
-10
-15
0
4
-15
18
34
-14
21
7
-8
9
-1
-16
54
15
-29
26
-9
0
27
-1
1
26
13
-19
-23
6
13
-8
-19
3
-19
-6
-25
15
18
-34
-19
25
-11
-20
5
-7
-6
-13
-34
-35
6
7
7
-5
-15
16
-5
12
-3
14
3
0
-44
19
-31
13
53
-2
20
-14
-41
-6
-9
5
-9
-4
21
-9
-2
6
19
16
4
3
-24
-16
-27
-17
0
-6
31
12
26
-10
-2
-38
-8
-26
3
-6
-37
-11
17
-10
-14
13
25
-9
25
10
12
7
-1
-21
31
-12
-38
7
41
-23
-22
-51
-24
14
-69
11
42
-4
-20
25
19
38
7
5
-24
17
-19
31
14
-12
11
-27
23
49
28
-15
9
1
7
33
-14
-18
-7
2
30
40
-7
1
-20
27
-3
8
-25
31
2
17
-19
-26
-4
-2
14
-28
28
7
30
-1
14
-9
4
-1
22
-6
-10
-12
12
16
-1
9
-12
23
-15
-7
8
-3
-4
7
-39
-23
17
9
-5
15
24
-24
27
18
15
-4
5
-37
14
43
31
-9
-1
-17
22
37
-3
21
11
-2
15
4
2
20
-18
5
-8
10
2
27
27
12
2
13
35
-17
12
-19
5
-15
-3
15
-23
-2
3
8
31
23
-20
4
13
-4
2
1
0
36
15
-14
2
-19
2
12
-46
0
-29
-51
1
15
-7
-30
10
-24
-15
21
12
-30
-27
-12
-7
-3
10
-20
-19
27
-6
3
-7
5
29
-2
-7
8
27
19
8
-30
20
12
-3
2
4
33
-6
-27
-5
40
13
7
14
25
-4
27
-6
-9
13
16
-1
16
0
10
19
-19
13
-22
1
11
-11
20
-18
-9
-4
15
7
10
-8
-12
12
12
-7
-28
19
-6
-18
-12
9
-47
-32
-10
14
-14
-31
-17
9
24
0
0
-41
-32
-26
13
-42
14
10
-25
-7
5
-47
18
14
-23
33
-24
-12
49
20
3
22
14
-6
-19
50
2
18
-13
-1
-3
-2
-26
46
-21
0
43
17
8
-3
-28
51
66
14
-20
9
-17
10
-34
28
-1
1
-3
-16
-4
-49
33
-41
3
-47
41
-14
18
-9
11
-27
23
40
-18
-28
-19
-46
-4
0
-4
-16
-14
24
4
-5
6
-12
43
-36
-7
-4
-37
-23
12
19
23
12
12
58
11
33
-20
-18
-4
-2
22
39
34
-14
8
14
-2
-4
-6
-9
-21
-18
14
20
16
-9
12
-33
-14
-42
14
44
17
-37
18
-12
9
38
-11
21
12
12
25
8
-27
-62
58
24
3
-6
-12
-21
-5
4
13
-26
13
25
-51
5
9
2
-16
18
-9
33
-40
15
10
-17
-64
-3
-35
26
-7
-34
7
-50
39
8
0
0
-1
-4
-6
-11
39
11
-7
21
49
-9
74
-42
12
44
-25
9
-10
12
-44
25
-3
-11
-37
19
-32
21
0
3
2
-4
-50
41
45
18
-17
0
-42
-15
26
-7
-28
38
16
33
76
-51
-11
-38
-6
32
19
30
-26
-7
-22
62
-3
27
40
-3
23
-16
3
-23
35
-5
13
4
3
3
-42
-6
-24
35
39
-19
9
30
-20
10
-20
-38
1
20
37
-6
-28
-24
-38
17
-7
21
11
47
12
33
57
-23
3
20
-60
-11
8
23
34
-35
-29
-19
-7
-19
36
-9
25
-10
18
-1
-76
33
-7
-6
9
-10
5
33
18
-38
-50
-28
0
-8
56
-1
10
23
-85
-17
32
10
-6
-16
38
-47
33
33
-10
29
2
-24
-4
-21
19
30
-31
38
-34
20
-4
16
-48
69
12
-28
5
49
18
47
17
74
13
-13
1
26
25
27
14
-28
9
-40
57
-20
-15
54
-8
53
-32
-3
1
-7
27
1
-6
6
17
7
4
36
-11
-24
-13
22
-14
-16
-10
21
-3
19
28
6
-39
-42
54
-34
-18
-7
-48
-6
-43
-12
10
-41
16
2
-8
-20
22
7
-15
-9
19
-5
-17
27
15
-19
-1
28
28
-10
-20
39
-26
-1
-23
-11
23
-20
20
13
13
-7
-33
-14
13
18
1
-30
41
53
26
16
-18
13
-22
-7
-7
-31
-47
2
-5
-4
-2
-11
-26
29
20
-16
29
13
21
9
-15
-26
34
-9
-5
9
-26
0
11
-46
-2
-28
-18
-3
2
-20
18
-12
6
-6
5
37
-4
28
-28
14
-15
8
12
-18
-32
-1
-4
11
-8
17
3
38
-6
-9
-29
-16
-44
-7
-28
-20
-41
16
-18
-15
-4
21
6
38
25
-38
-14
29
-10
-24
8
-10
9
2
11
-40
-17
-12
13
8
25
-48
2
2
10
-6
33
-6
17
-8
-14
6
31
-30
15
4
-15
50
-5
2
33
30
3
-5
7
12
-3
-5
4
4
-18
22
-8
-23
46
36
26
13
-21
1
32
-47
-39
-22
-36
-56
-29
-15
13
-19
14
-10
25
23
47
13
2
0
11
33
2
-26
-13
-11
28
26
14
59
39
-25
15
-10
28
54
43
-21
28
-12
35
-3
-18
31
-34
-2
21
10
-10
50
-23
-44
8
43
23
-3
9
0
12
35
30
-43
-36
33
11
14
-13
40
47
24
-12
36
-43
-2
-24
16
-4
4
21
3
16
-6
40
-25
26
12
-37
13
51
-10
16
18
-13
-25
-42
11
-9
-39
-7
-19
-65
49
13
61
-5
-11
-47
13
8
-2
37
11
36
5
-3
30
13
-13
-9
10
-21
7
-16
-28
-22
42
0
30
50
74
-11
-15
8
-26
-20
16
21
29
37
-3
-40
-2
-28
12
-2
49
-7
-8
-15
12
-8
-10
21
48
-11
15
26
41
-30
4
-29
-7
48
11
-3
12
46
30
-42
57
7
-33
-1
0
33
-13
-23
7
-5
30
36
40
14
-30
-1
36
21
-25
2
53
-14
-22
4
17
-31
30
-12
40
-36
39
0
6
-23
10
35
-10
18
22
10
-27
17
13
11
6
17
-20
22
17
-8
-21
-14
25
-4
22
4
10
-29
26
43
-16
-23
19
23
-30
7
-24
32
44
38
2
-8
12
-7
18
-9
2
22
5
6
-4
40
-10
20
20
-16
3
24
-39
-24
14
-15
-3
15
-14
22
14
-4
-9
-23
-9
7
14
40
-17
18
1
21
-2
7
-2
-24
-16
-30
-41
-36
-8
-8
30
25
30
-26
-5
-20
12
36
-17
-6
8
-21
15
9
37
25
-19
-22
9
3
28
-18
54
65
-26
-40
-23
34
38
5
-16
-4
-18
-1
20
-31
-40
18
-16
-13
15
-15
-41
-17
6
-19
24
12
3
5
-1
14
26
7
-49
-3
12
-24
2
-28
13
20
-27
-15
-4
-14
-28
-25
-21
-2
18
3
-35
20
2
56
-7
-23
-16
24
0
13
-24
24
22
-2
-16
28
-21
-9
0
15
2
43
16
20
11
11
-34
-3
-30
1
-4
10
-22
-34
13
-11
-13
-9
53
-22
-5
0
2
-36
5
7
-8
-31
-12
40
-8
0
21
-14
-28
-43
-20
39
40
-75
-3
-18
3
30
-24
10
-11
-31
3
-31
37
-34
14
24
28
-33
64
11
5
-18
-9
-35
14
29
-15
2
9
47
17
38
-25
2
-54
1
28
14
-32
-39
4
-12
-43
33
-11
11
-44
19
-13
-3
-15
-22
-1
-26
17
52
45
29
14
-27
45
-21
-33
15
-56
-20
-38
11
-18
-5
12
-49
19
-12
-43
17
5
-12
28
-5
12
-9
3
-19
-16
5
8
12
-7
11
10
-12
2
-38
-78
17
-8
-68
-19
-4
36
-7
3
51
-55
-2
11
29
-35
-42
32
-11
-44
37
25
2
27
-22
34
-34
-26
-5
44
24
5
48
25
-28
-6
-10
-15
-26
-54
30
9
-6
8
14
20
-61
-6
-33
-20
10
-12
-13
-14
7
43
6
-36
41
81
-8
1
37
-1
-54
47
-14
-12
-47
-9
-35
-7
-11
12
54
-40
-27
-22
23
7
6
-22
30
-8
24
24
-26
-3
5
4
-32
-4
-29
-11
-41
47
3
9
-12
-46
5
30
-35
3
-9
-2
13
2
14
47
7
-48
-2
13
29
22
-7
22
38
-28
-15
-4
-16
15
-3
-2
13
7
-8
63
9
10
21
17
-31
43
-29
47
3
23
8
8
35
71
16
-24
14
-16
-14
58
-27
1
-19
-12
-15
39
-25
62
2
-18
62
3
-29
-30
-61
17
-9
8
43
18
47
-17
19
-10
18
20
-9
-37
9
-21
24
11
-28
-14
-45
-1
-5
-15
-1
24
-13
18
31
5
-23
-21
-21
29
14
-6
19
19
-30
29
-9
-7
-17
49
-34
-51
42
-38
7
-1
9
19
-45
-54
1
-36
-11
8
-27
20
43
17
-4
-2
-41
9
-31
-9
-10
-58
85
5
30
-12
-4
19
-25
8
-51
-23
16
23
1
3
-29
-40
-3
4
20
-2
35
12
11
3
17
16
-3
-29
-38
-5
-54
1
25
-16
13
19
-7
20
0
27
-33
12
51
14
-17
-1
-43
-55
-7
-26
32
-2
-14
11
4
-6
11
26
39
16
-13
61
-7
-11
21
30
21
13
3
8
8
-27
-10
-21
-10
7
66
34
-22
46
19
16
-39
-12
-8
-23
-27
17
-4
21
-42
-25
-11
34
8
56
46
-2
-6
-19
4
5
16
11
33
-4
8
53
-2
-29
-47
23
-13
-4
30
48
29
-1
-27
5
-14
10
2
36
20
19
-15
-6
-38
-11
-14
25
2
4
-10
24
15
17
-1
-32
-14
-6
-30
-12
24
9
-17
10
-12
0
-37
38
-14
23
18
-3
-14
1
16
22
-38
12
31
-36
9
1
77
-42
-23
30
39
5
41
-11
13
11
-7
-22
22
-4
-21
-30
-4
-8
41
-24
24
-9
-6
-28
-12
-47
9
3
-28
-27
6
67
-45
-15
33
-16
-37
-16
43
13
-25
-9
-1
-23
17
11
-36
-37
9
36
45
-18
11
19
-4
-37
-74
35
7
-5
2
7
9
8
17
-6
22
45
54
11
27
10
-19
-8
-14
2
-31
-28
-12
35
-36
21
10
14
26
-6
-20
-11
25
18
21
-2
6
-15
32
15
-46
-19
-3
4
-24
-2
47
-29
43
1
14
32
25
20
-28
16
3
4
-23
-5
-6
1
4
67
11
0
-6
13
23
25
-25
53
1
-32
12
-23
4
19
15
24
-4
10
-23
-46
-2
37
-2
10
19
42
-25
-6
-11
-26
4
25
-14
-4
1
8
20
2
35
3
-12
32
13
15
-3
-13
-1
2
-6
13
39
40
6
-17
-1
-10
1
5
-4
58
13
53
29
10
18
-23
-39
-12
24
4
24
36
-42
-36
36
29
15
10
24
-2
-5
1
-43
15
-16
41
-5
-11
-39
15
-4
-21
21
-12
-40
-40
-13
-7
-9
2
-32
-6
-14
1
19
-6
-3
10
1
-15
9
28
17
-44
-24
15
-34
1
-13
-7
6
-8
-16
-7
-5
10
-1
-20
-8
-7
-26
29
-12
7
29
16
1
-8
2
-3
-20
-44
-6
-9
1
11
-18
7
22
5
1
-5
-7
-26
-26
-21
2
-32
4
-9
-8
-6
-6
6
-9
30
28
-24
-10
-2
-27
14
42
-16
23
-32
1
-12
4
18
-4
2
35
26
4
7
-2
16
1
-17
-9
18
-29
-33
-12
7
10
11
-1
19
-6
-9
-10
-6
39
-7
1
-40
-11
2
-21
0
30
12
-23
10
2
10
-18
-9
-17
-3
3
-17
-9
-15
53
-38
-13
-3
16
25
-27
-9
-13
-20
-1
10
-46
8
19
-16
29
-24
-12
1
-1
3
-5
-27
-2
15
26
-25
6
40
8
8
7
-24
19
-2
-2
-26
2
18
-1
-28
6
8
-29
-31
30
-12
11
-15
14
-13
13
11
31
3
-1
21
-27
-21
-29
35
20
11
-43
-12
10
1
6
2
18
-5
5
10
30
-5
15
24
14
-8
-4
-22
-21
1
48
-20
42
6
-9
9
-17
-18
12
15
-44
13
21
26
-11
61
0
-20
40
5
39
13
7
8
63
7
52
-31
-21
-14
18
9
-48
27
8
23
15
8
-17
22
-21
39
-38
11
43
24
3
12
9
-28
-15
13
-6
4
-7
18
-33
9
-38
-41
-24
-7
2
26
12
-45
0
-20
40
7
-12
-24
4
-40
-19
11
10
-13
-42
3
-4
-25
13
42
40
-1
27
2
-42
10
18
-9
4
17
0
18
31
-8
-2
9
-45
-47
10
31
5
-47
21
-24
13
9
-28
18
-5
-12
25
42
-5
24
35
8
-7
-11
10
-28
17
-19
9
-46
1
5
-12
-6
7
19
-18
8
59
3
-1
31
-37
-25
-23
21
10
44
26
4
4
18
-16
21
29
7
-5
7
-41
20
17
8
-17
0
-16
-35
-10
-62
-3
-20
-11
0
-45
37
-42
27
13
-8
-4
-5
27
0
18
-32
11
31
19
0
8
13
-51
16
-24
-3
7
39
-9
28
-18
-1
-52
-27
-6
-39
-21
-12
-6
-38
-6
-14
29
2
-12
-12
1
-27
-12
-29
-25
-8
-17
13
0
11
4
-9
2
6
-6
3
17
-1
34
5
9
32
55
-6
-42
-9
-16
23
32
32
2
-26
25
1
1
22
18
14
-2
-35
-17
10
-14
20
3
1
17
1
-1
0
-38
-2
4
15
57
8
23
11
18
6
0
0
-38
4
-34
-26
-11
-39
20
21
-53
-2
-24
-45
2
2
2
4
27
-2
-1
21
37
-25
-4
25
18
20
-44
2
34
-30
40
-31
-3
-25
2
27
4
31
-2
0
-19
-40
32
45
-27
-49
9
-9
-8
0
-14
11
28
1
3
9
8
-2
-12
18
5
-27
-21
7
-23
16
-15
25
-14
44
14
2
-20
-16
13
12
-16
-10
-1
18
34
53
4
-7
18
5
13
22
-3
-29
-28
-2
7
24
15
-3
23
4
53
-7
-9
-19
3
57
-24
-18
-4
-19
-32
20
-18
18
-38
22
20
7
4
63
15
-54
1
-23
-42
-20
22
12
21
49
43
-31
37
12
-10
17
1
-8
-2
42
-6
-15
15
45
0
17
15
-46
3
-36
-21
9
8
38
5
-19
-3
-29
-29
12
22
4
30
-4
16
-7
-66
37
-24
14
17
31
-52
24
-29
4
18
2
-18
10
-23
-11
35
28
21
32
18
21
-12
-25
59
14
27
-3
-4
8
8
28
14
17
-13
2
-18
-36
17
37
12
-17
20
25
-5
-21
1
-45
17
21
-24
16
-7
-48
-1
13
6
-35
-8
-36
16
-36
34
11
11
44
-6
2
29
17
-23
-6
-15
-31
55
-7
9
-6
15
26
-53
5
1
-26
-3
-2
-10
4
-13
-10
-5
36
-55
-1
-8
0
-58
17
-55
-30
4
33
31
-11
5
-2
-16
0
-5
-52
-23
59
-12
-2
-35
17
20
44
6
8
-33
17
5
7
11
3
17
-2
-39
-22
12
-5
16
26
24
10
-29
42
31
-9
-8
-28
-15
26
-24
-7
-30
-7
44
15
-6
5
-28
11
-9
-2
45
42
-16
8
25
32
5
-8
3
5
50
-20
-21
1
18
19
-7
-7
25
-7
39
8
36
6
-24
22
8
46
-26
-15
4
-24
1
0
45
33
27
-18
46
-8
17
38
-4
-4
31
6
-15
3
-23
-19
8
47
-2
47
-9
-14
25
9
11
17
-8
20
11
-7
9
-17
-24
-11
-3
53
-4
4
23
-12
-14
-26
11
5
21
24
48
-16
7
41
-32
34
24
19
-3
-11
-16
-20
-10
-6
-5
36
-8
17
13
65
-7
-26
-14
-9
-7
10
-11
-27
41
24
51
-41
29
-12
-3
28
-45
-28
27
-69
6
24
-7
5
27
-12
-54
33
-30
-19
-39
15
14
-9
-58
33
14
-2
-4
-12
35
-15
10
-23
-14
13
-8
-9
-21
5
8
19
22
-6
-1
11
-56
-35
-51
9
34
-14
-26
-14
6
-39
44
19
4
6
5
8
12
17
48
-14
9
-20
25
3
0
39
-20
-7
26
44
3
-22
-38
-92
21
22
-29
10
15
33
-3
36
34
36
-19
35
15
4
-13
-26
21
35
-9
0
32
-11
3
38
-26
-45
-21
-15
4
8
-7
82
11
-42
-17
31
1
-7
20
-36
34
-22
-32
-29
-20
39
-8
-11
-31
38
2
24
-23
-9
-9
-17
51
37
25
4
-23
31
-5
32
16
-43
30
-24
31
-8
2
-29
-11
-27
-22
11
51
-33
18
-27
-53
11
-10
-41
17
-25
9
26
10
-21
29
9
9
21
32
19
-38
26
40
26
-22
16
24
19
-21
-33
17
-19
47
24
-21
-18
9
11
-17
15
-34
-21
33
9
12
6
-4
-36
-2
4
-24
28
2
-44
-33
-17
5
-26
-24
-14
-24
-28
35
32
41
-35
15
-5
27
3
-6
27
-2
20
4
-8
18
1
18
-16
-35
-34
11
4
0
-13
-34
12
8
-23
13
-28
-2
-5
-38
-7
-19
5
-26
-21
-25
25
77
65
40
-55
26
12
20
1
11
-10
1
-60
-38
-42
-3
11
7
13
7
52
7
61
-11
7
36
-37
-9
13
-8
21
-38
27
35
39
-7
4
-9
-60
-8
-31
-4
6
-72
-23
11
-18
-15
-47
-30
-6
-17
-31
-9
15
-2
-27
-57
5
-7
32
38
-22
1
-34
-11
8
-6
-54
-8
-2
-67
8
44
9
-36
-25
31
1
-1
-37
14
-22
-31
26
-77
53
15
5
-29
50
-11
38
-30
7
-12
-30
-30
-4
-13
22
10
-28
32
18
-42
-9
-17
6
6
29
19
7
35
-17
9
12
21
45
25
16
-1
-4
-29
19
-41
-34
-8
10
2
1
-21
-54
-18
-17
-19
5
20
-39
-44
20
-28
-74
16
-22
37
-10
16
-13
-2
18
8
-4
4
-6
46
-18
2
5
-11
21
25
3
18
-43
-21
12
-48
4
-15
-39
-1
-1
-19
20
-3
14
4
13
22
-29
-25
50
18
4
-4
17
33
15
6
65
-2
0
-7
26
17
-26
-15
-15
21
48
-19
14
6
55
33
-4
15
22
46
16
23
36
-45
-3
-3
11
21
22
-20
28
17
-5
-30
9
28
3
15
-46
-29
3
7
36
-23
15
-26
-21
26
12
-2
0
26
-20
31
8
-36
19
18
23
-3
-18
-21
-32
-4
3
-15
16
2
41
19
37
22
-56
-1
22
37
11
-7
-12
2
-42
-16
15
-38
-22
-5
19
29
-37
-4
-19
-12
2
39
32
20
-43
40
-49
-8
45
66
17
-18
-8
17
-16
-31
29
41
-16
12
1
-23
-9
7
53
-39
1
16
-19
-49
-1
30
-41
60
-33
-13
1
-34
-25
22
27
54
-2
-6
-10
11
24
-25
14
-24
-22
32
-15
41
17
3
21
8
38
-2
-19
-3
10
-16
17
-34
-13
8
0
-8
-7
-16
-14
25
15
-42
-21
31
27
-18
-41
19
7
12
7
-27
-12
30
-11
-23
-24
-24
-10
-15
22
7
-36
5
28
-74
14
8
0
-7
-7
15
-54
-3
-44
-18
-8
-28
-7
-26
42
-16
5
20
-37
10
40
-14
0
6
13
-1
-15
0
17
-25
-2
-22
12
1
-25
38
-13
46
-36
-10
30
12
-35
-25
-27
-44
12
-27
-28
-44
-6
9
-29
-44
5
18
-6
-16
-27
-7
-10
4
-13
18
11
5
69
20
-6
-7
-7
-21
5
46
-26
32
-25
27
11
5
-16
-19
-7
-43
21
-25
9
-20
0
-51
-48
13
-7
-15
10
-37
44
-39
28
37
-4
-9
0
-45
3
16
12
-4
-28
-30
-27
12
4
-16
18
15
-30
16
17
-12
49
54
14
13
34
21
-18
-36
2
2
-25
34
-35
0
6
41
-49
-34
-16
3
-7
58
29
-23
-4
7
35
30
54
19
9
15
-18
-5
1
27
13
-9
-21
55
30
-36
-43
-12
16
17
29
34
-21
-1
-11
-38
8
-11
-12
-37
27
2
5
-5
16
7
16
38
-12
-38
-20
-28
-52
-5
-15
-5
23
2
16
-33
45
-7
-17
11
-1
-25
-50
13
6
-1
-3
10
-16
0
-18
-20
-29
-14
16
-29
34
-2
3
29
61
11
37
3
35
-7
32
9
19
13
25
3
3
-34
13
24
12
2
9
-4
-4
-4
26
28
-43
-16
20
-10
29
-3
13
32
-3
0
19
15
-4
-4
27
-21
1
-28
-15
-40
37
-14
13
10
56
-8
0
-32
-15
7
2
-14
10
-45
26
-17
-2
-32
11
15
13
3
-28
4
-15
-23
-33
6
-24
-12
2
28
34
-19
19
-42
10
24
11
-39
-21
2
-38
-12
2
-8
39
-15
42
10
-6
-12
33
9
-6
6
30
-22
-41
11
7
-14
-3
27
13
36
21
-38
-4
-5
-18
29
13
23
5
30
-2
-15
4
15
-20
-9
1
-18
31
-4
9
-7
3
-30
-20
-13
9
-10
-32
-14
-4
36
-57
-5
-10
28
-34
-24
11
16
-27
-8
9
-5
32
1
13
-13
-31
13
-1
-4
-5
14
13
2
-9
14
-1
-15
-35
48
15
-28
-15
23
-7
-54
-32
30
20
19
-15
10
-20
-8
-14
21
8
-18
12
-20
-7
-39
-14
23
9
10
23
17
-8
-9
0
7
9
-53
-50
25
11
18
3
27
11
5
-4
27
-1
8
19
13
-30
27
25
-33
3
-25
-20
8
13
-37
-19
-9
40
21
-16
16
-13
-19
0
-9
-8
6
15
-3
22
6
-4
9
54
-22
1
5
4
-23
9
0
43
4
-6
-11
-25
7
20
16
23
7
-17
-25
-10
36
12
-10
-31
32
70
-2
-21
5
-4
-34
-27
-31
-12
53
-2
0
-30
41
-33
-49
23
-13
6
16
3
-23
-20
33
74
-16
6
25
-47
14
19
19
-30
5
-47
-5
14
-8
-12
8
21
-24
59
15
-9
6
24
-17
15
10
31
-7
-12
26
-42
6
-6
4
32
3
22
31
-4
-10
-37
-11
-39
7
-22
0
15
17
15
44
-51
-16
10
-15
-8
-11
23
20
10
-21
-21
-23
40
46
9
17
2
2
-30
-24
26
14
44
19
-1
7
-13
2
4
23
-22
-9
5
23
-13
-26
11
-1
1
12
-21
13
-13
-26
-24
-3
14
16
-39
-13
16
-26
13
17
-29
5
-23
-5
-39
-30
10
40
-33
15
29
-41
-3
5
-12
5
-12
-17
-4
-1
11
60
-4
1
39
17
-16
-38
20
36
-19
-18
-45
-4
-4
-7
-9
-37
-9
-9
0
-22
11
7
-21
-7
-5
15
-50
4
-21
-14
5
38
39
21
2
-1
-58
-11
-5
-14
7
13
-61
-59
-13
6
20
36
-4
-4
-57
-28
-6
-31
0
-3
-22
-19
-29
17
-4
20
10
-27
-12
7
31
12
-4
-2
37
31
-13
19
-16
-7
42
6
-20
-30
-10
11
33
-17
-37
-38
15
3
10
15
-35
-5
7
7
-18
43
-2
-14
-15
-33
15
33
-10
33
-69
1
11
-22
35
-24
-38
-1
21
14
4
-44
-26
-40
35
-8
25
0
20
-27
-22
-24
4
-18
3
3
2
-29
11
33
18
-2
15
27
7
27
7
3
-18
-34
-19
6
-1
-24
-26
-17
6
30
7
5
-6
16
37
-16
24
-11
15
-19
9
-32
6
4
-9
36
-11
-37
34
-39
-14
14
22
18
-40
-25
-8
-17
-9
-23
-19
57
-3
15
25
26
23
-16
-11
-26
-1
-42
36
15
-16
18
-10
38
-36
17
10
15
-2
10
-23
27
-14
8
-19
-22
16
5
-19
11
26
34
-11
-8
22
-55
-23
-24
-15
19
-11
42
18
-11
-15
-22
-22
-2
15
-14
4
-21
-7
27
34
-15
16
-11
-13
-3
19
30
13
-12
-20
-17
-10
-10
-12
18
53
5
-13
39
9
18
14
27
-11
-43
-45
10
-16
20
-21
1
-25
12
25
-7
-1
-11
24
-10
46
17
-38
-12
15
-25
25
-25
-19
28
30
14
16
-8
-23
12
13
-4
-2
9
-32
27
-27
5
21
-10
11
55
-4
3
-28
-35
13
41
-5
12
-12
19
14
-17
6
-28
7
31
-1
28
-46
1
29
-29
20
-30
-6
-26
-25
-33
4
-18
-55
-58
-18
-11
-26
-4
21
-8
11
16
-5
-21
12
9
-49
19
12
4
4
23
3
-8
4
6
-18
28
39
15
49
-4
11
-19
-3
-20
41
2
-8
-52
-9
28
2
-10
-6
-6
18
11
22
3
4
-23
-9
-8
20
-1
-29
8
32
-13
20
40
27
7
-1
-12
0
3
-8
9
35
-3
-6
-11
-7
56
16
5
-3
37
-30
-10
-22
-59
-13
2
10
21
-7
4
-6
14
3
-12
44
26
0
26
31
-9
6
29
10
41
-28
-2
39
5
29
-16
6
3
-34
-38
35
-37
6
1
6
-13
17
-8
-35
-24
-1
13
-2
19
42
-24
3
3
30
2
21
-3
-20
22
8
2
-21
14
9
-15
-8
29
3
-19
-22
-3
31
25
33
-22
4
-28
-6
14
-26
20
-9
1
-12
19
-11
12
2
-27
-6
-18
3
11
-23
-9
-19
12
-7
12
-2
8
-31
7
26
6
35
16
-19
-19
16
-26
-5
-31
3
7
20
-4
28
-8
5
61
4
-2
19
21
25
12
-37
7
31
-13
13
-7
-39
16
-4
-3
1
5
16
1
26
23
19
65
-35
-37
21
-7
-9
3
-25
-16
12
-28
17
-31
-44
5
-17
21
21
-13
38
4
2
51
-19
-9
31
-31
-11
-13
44
43
-19
-5
-9
40
21
8
26
25
-45
-35
44
-55
37
3
49
8
50
1
6
25
-43
-21
-21
-7
1
47
45
14
-31
8
15
13
15
19
23
39
47
2
11
37
58
-12
3
-25
0
-12
-16
15
3
12
-3
4
52
-6
-27
-16
-53
0
16
-10
27
-22
15
5
-13
13
10
56
5
13
-14
13
52
14
-7
0
24
-28
16
12
-2
45
16
60
37
-36
9
20
-2
-21
18
-75
17
-5
0
-42
8
-3
-44
15
-7
-14
-40
-30
7
-23
41
-16
-33
8
-28
-7
16
-40
-25
18
-9
-43
-5
-18
12
-12
8
-12
43
-1
15
-35
6
-2
-9
-4
1
0
-22
-62
-33
-18
5
-32
16
2
-2
-26
-25
-13
-34
-13
1
0
-22
-10
-23
-8
-31
-21
-3
-24
-12
-37
-1
11
-2
1
-55
-39
15
-22
-9
13
13
-31
-5
23
-9
2
52
5
-26
-11
-30
22
-51
73
-4
25
-8
50
12
68
-3
-35
-6
3
29
-4
46
-3
11
28
-15
-13
-10
-42
-4
64
16
33
-30
13
18
-47
5
11
-34
-35
19
-21
18
13
-7
6
-16
-1
16
-16
24
-19
-8
6
5
-37
11
-15
29
-23
-21
5
-11
-15
24
3
-14
13
21
-17
27
-21
-7
15
0
-16
-32
-23
-20
-20
14
26
40
10
24
13
23
0
17
-16
-6
13
26
16
48
38
15
-42
-15
-13
-20
33
25
15
2
-24
27
-13
3
2
5
-28
-54
-20
-2
1
27
-10
-17
6
-9
-46
41
-6
53
37
18
27
-30
23
38
-5
-21
-26
-9
-11
-13
13
12
-6
6
18
16
16
12
-29
2
-10
-33
-26
2
-20
33
48
-25
18
1
-28
-5
5
-15
-7
-24
-7
-3
-1
40
-15
-32
-26
4
-31
35
1
-50
-20
-10
6
21
-8
-41
-23
16
7
-23
7
20
6
17
45
31
25
20
-18
1
-49
-1
-15
12
-12
-13
-13
13
-21
-4
25
-29
-2
-39
25
-1
-47
-12
-44
2
29
-46
54
-38
6
-18
5
3
15
-3
4
20
-28
34
1
-24
19
-1
7
1
32
-4
-2
-30
0
5
60
57
22
-26
17
-27
17
15
-3
-12
-6
23
-47
27
-3
-14
-27
17
-6
-62
2
-37
-20
10
18
-56
5
39
-23
-11
0
4
-10
-8
-23
-4
11
3
15
18
34
3
18
20
10
15
-17
13
-53
-13
9
0
-43
-5
37
10
13
-28
-3
18
-19
3
28
-17
-1
-48
1
24
4
-21
11
-5
5
-24
17
41
