32 192 1 1
-51
-21
42
-9
-14
-22
-15
16
10
-2
19
-12
32
39
9
-16
-66
35
-36
-17
-8
-11
28
-7
3
26
5
1
-6
-21
10
24
1
1
35
15
23
-17
4
-13
12
-37
-5
45
4
-40
2
18
1
15
6
17
-39
-13
-24
-30
-9
-17
14
-7
-10
-16
8
1
10
-28
8
3
0
32
53
1
40
-12
4
4
22
-13
-9
-20
32
-24
9
-29
7
-27
-4
26
-21
-19
44
5
-17
-10
13
-13
-16
53
0
62
-18
-12
-27
-54
-42
-13
-19
27
-65
14
6
-10
1
-14
-29
-15
11
-18
-15
-32
18
-6
-4
30
19
-36
5
-22
-35
25
27
17
23
-49
-2
-15
14
-3
-10
-59
-16
-1
16
-9
29
22
-29
-12
21
32
38
25
34
8
-34
-38
54
-18
-35
8
-25
-10
23
-19
66
42
35
-36
11
20
1
-13
20
-22
6
-8
-1
-1
-5
-27
32
-1
-11
67
-39
42
0
-39
22
14
9
15
-28
-8
-4
-11
-2
14
-4
-5
-35
1
32
19
9
-8
14
5
-16
13
17
-31
8
18
31
53
57
-52
26
17
13
10
41
-20
-38
-5
-24
-27
-16
-42
23
46
65
-5
-16
12
39
6
16
10
-19
-23
35
-2
16
36
-37
-6
38
-61
-28
1
-28
-7
28
24
-28
-49
-14
15
-4
30
-11
-3
15
-27
12
44
11
36
17
-4
54
-23
11
7
-18
-16
3
-16
15
-49
-15
-19
-13
11
-8
17
-8
30
-27
1
-13
-1
10
26
-1
-40
12
12
38
11
18
0
-1
-44
-25
14
-11
-27
6
23
9
-41
-17
23
-13
52
39
8
4
57
-11
14
1
38
7
15
45
-7
14
-18
22
-10
27
14
29
8
-33
-5
6
-2
27
0
25
-4
38
-15
-8
9
20
25
12
0
-6
-8
31
43
26
-18
6
-13
4
14
10
-26
11
-36
0
2
-2
18
6
44
22
-55
46
32
-6
52
-10
-29
-46
3
-7
28
-6
40
-53
-9
41
12
23
36
-6
15
-26
13
-39
-10
1
26
13
10
-11
9
-9
-1
-16
-41
-33
-6
9
52
-23
10
-2
-29
-67
21
-6
70
1
17
13
-7
-26
18
-14
-9
-5
37
-35
-14
-38
42
22
-2
-2
17
-54
-30
13
-9
35
-47
15
30
6
-17
-5
-31
-36
31
23
4
-39
17
18
-16
-2
-33
14
21
-23
22
21
15
48
-10
32
-12
32
12
21
31
9
28
-6
-1
-41
-4
-23
4
49
20
-36
-8
-53
-7
-10
22
7
-9
30
8
-25
10
26
4
46
58
2
14
0
9
2
28
21
-15
-11
38
-14
3
-6
14
41
28
3
49
-16
50
-12
1
-30
-11
-1
-15
6
-17
1
9
29
42
13
-49
53
-13
-3
-12
-13
-39
-13
6
35
-20
38
-2
-42
52
31
-20
-6
-51
5
7
-1
7
5
-35
38
-24
-5
-33
30
-23
19
35
30
29
26
-20
4
-20
-9
30
35
7
5
-1
-14
-49
47
3
-3
-15
-11
-19
-73
5
8
-22
-1
-8
-38
13
32
-6
-27
-31
-8
0
-2
-26
-10
-22
-18
-5
24
20
-27
-50
-6
-54
8
16
-7
-30
2
-14
-44
11
-8
-5
-29
-22
-14
12
-7
13
5
36
-36
-15
14
-20
-12
-5
-42
17
-1
-23
47
34
-29
-12
6
27
-12
-22
-19
-27
16
-35
-15
28
-18
20
-31
-23
-37
8
48
-38
-7
26
15
-2
-31
0
77
4
-24
-7
-7
11
50
-41
25
-34
-7
-32
-15
-6
10
29
-62
-49
-13
35
17
-42
12
10
-34
-2
-9
34
17
-51
68
31
-14
-10
-19
47
38
24
-29
43
-7
8
6
-26
35
-55
-13
-28
22
35
-21
-28
13
-23
68
-16
-21
-16
-16
31
-15
21
3
-13
5
1
8
34
-12
7
-28
33
-19
-17
-7
-52
-28
40
12
45
-3
-18
5
30
0
-10
23
-4
6
1
-44
-39
15
20
62
23
-28
-2
38
4
4
1
13
-1
-13
1
-29
-5
14
-10
-5
10
1
11
-12
5
-1
-4
25
24
-38
-18
-50
-38
4
-3
-6
-16
-27
27
-45
-1
13
17
29
-15
25
-7
19
29
25
-9
40
-22
5
-11
-37
-2
-23
2
29
27
20
-3
-7
11
-36
-4
-23
-35
34
-5
52
6
0
11
-14
29
19
-1
19
19
27
8
0
-35
-25
-6
-35
38
25
-12
68
27
21
-34
32
-13
22
45
26
10
16
-41
21
-16
4
-5
0
28
47
11
27
22
-7
6
28
-25
5
-24
-11
-18
-17
-25
9
-11
-2
-17
54
25
-26
45
10
-9
-2
21
-18
-19
9
29
-41
0
7
-4
-50
-15
-22
56
23
-23
26
2
35
3
27
18
23
-10
-2
-29
18
-30
-7
46
-5
8
17
6
28
32
-14
-28
12
26
-64
15
16
-10
-7
12
-55
-32
-25
14
-22
-31
26
13
-22
-13
17
-26
-4
46
27
-23
-17
-26
22
-40
13
-43
13
43
7
25
12
4
-17
-39
-13
-11
8
-13
-21
-15
-30
-31
20
-16
7
-20
-2
17
-8
3
21
27
1
-50
15
-5
-29
47
23
26
41
-9
31
6
54
22
-21
8
-24
-16
-1
-3
7
-45
27
-20
5
-55
33
46
-17
-47
11
-24
-38
-9
-39
-18
-5
-24
-12
-10
-28
14
3
-2
-3
7
1
-16
6
-7
-3
-10
-11
16
-20
-2
-13
-3
9
32
31
9
-34
-14
-5
-12
-10
7
-29
30
14
-1
-12
-21
17
3
-18
-32
-5
-33
20
-29
-5
-16
5
-17
18
-8
69
-4
2
16
-3
-16
-42
-39
16
-44
-31
35
-13
8
8
22
-21
-13
-43
-42
8
-40
-26
12
19
-34
4
-9
-17
-5
-2
44
6
-4
-39
25
8
-19
-7
-6
-40
-33
23
-28
29
10
-3
14
-19
-17
-2
-49
-8
-27
-8
8
1
-22
-15
13
17
24
-22
-37
7
6
-5
-35
-42
-10
-3
-30
20
53
-15
-32
7
22
-4
13
-10
38
-37
23
10
7
-6
-9
-26
10
-14
29
-29
-15
-33
-71
-23
40
-3
-42
-20
18
1
5
-28
22
5
1
10
24
0
2
-22
36
27
29
10
11
13
30
-7
-5
-10
-52
10
-18
-5
53
-16
-7
-3
-47
-6
-17
32
-6
24
66
4
26
-51
9
25
15
1
-5
-21
-5
6
9
-11
0
-22
-4
28
-15
29
2
25
1
-11
6
-11
7
-8
2
-6
-4
-22
-21
5
-44
-5
-5
-24
4
-11
-25
6
3
2
-28
-22
13
-20
-46
-11
4
-1
20
37
7
26
0
-16
-4
-22
-14
9
45
-11
-1
37
16
0
1
26
21
-12
-30
15
-20
-45
-3
-12
2
15
-19
1
8
54
-15
22
2
32
-26
-2
16
-8
5
-18
22
-23
36
-3
14
-2
-17
-40
-19
-11
-48
-44
-31
-6
-1
-61
-5
11
-2
-48
-12
-34
27
-13
-14
-12
7
18
17
23
-13
-11
6
4
-20
-31
36
-14
21
23
4
-5
0
-39
11
-21
0
-34
-9
-8
-28
-30
-16
31
26
27
24
4
28
-8
18
-27
-8
-33
12
15
-4
11
5
-11
6
23
-23
-37
-23
12
-32
32
22
24
-2
-33
-20
31
15
1
4
16
-14
25
-16
-22
10
35
49
-6
-3
-75
20
-27
-40
19
-1
38
-7
-3
-2
-19
-12
-12
-13
-4
-4
19
-68
23
38
-1
14
-25
-43
-15
31
-26
9
-19
7
5
14
10
-10
14
-5
12
-30
-31
17
-1
-32
-18
-23
35
19
-31
2
-12
-18
-20
1
-29
-2
-17
29
3
-25
24
2
-15
6
-40
-4
-20
6
-49
36
-16
14
10
-26
4
23
13
34
32
18
-30
14
7
31
-10
-36
26
-17
-37
8
34
22
-11
-1
22
-30
-51
-30
-30
31
-20
-29
24
-16
15
4
-25
-2
46
5
15
31
-27
-19
-50
19
-30
1
-28
-24
8
-40
24
-40
-22
63
-16
-3
-43
32
-55
-8
5
-7
0
-11
-43
59
-2
26
-19
-17
25
71
6
-1
11
-11
-16
18
38
-14
52
19
-21
-50
-9
-17
-30
24
23
-7
20
-21
-7
-28
7
-34
47
14
28
4
-31
-11
-28
13
-4
15
35
12
-7
16
1
0
27
-8
-33
-44
-4
-22
-1
-13
2
-14
-21
-40
-11
-1
-1
16
22
15
-11
-4
-39
-15
3
-19
12
46
24
2
33
43
-14
-41
10
-5
20
7
15
-25
-11
36
-37
14
-3
-49
-4
11
14
-6
-38
-18
17
20
29
-9
-4
4
20
-15
5
44
40
13
38
5
11
39
-14
-22
-25
39
-21
26
17
29
-9
-34
-7
-25
-15
12
9
24
40
-49
-24
-34
-6
25
8
-5
5
17
4
-10
35
-8
25
-3
-10
-9
49
8
15
0
20
35
-15
-4
7
24
-18
-6
-39
55
4
28
-4
-39
-24
9
6
45
-11
-36
-25
1
3
-12
14
19
31
22
3
5
18
3
-2
12
-25
25
9
4
-10
-18
31
-1
4
31
-2
21
-5
-37
49
-21
44
-28
11
19
-1
7
31
-34
5
-15
-31
-11
-1
-25
-16
13
-8
-16
40
4
-40
13
15
5
1
8
-10
-16
-17
-41
-57
-7
22
16
35
3
-3
-12
16
12
-54
8
32
-4
3
10
-23
4
-32
26
-13
2
-30
44
50
6
-2
14
-29
-4
44
14
-28
33
23
-20
-7
14
14
55
-20
29
-15
22
15
-15
37
27
8
-18
-24
29
-27
-27
19
-3
48
38
-1
11
24
-4
33
-6
-19
-4
-4
21
31
4
44
-4
-25
-21
4
-15
58
27
-6
0
21
-29
-26
-6
2
-19
10
-46
56
-9
-20
9
0
47
33
28
-7
3
-2
4
-13
30
32
-42
-27
-41
32
0
-13
-23
19
15
34
-28
8
-6
9
2
-39
0
-17
59
-12
15
0
-31
6
-1
-27
18
15
7
-15
13
-32
9
-6
4
-18
10
6
17
0
-11
12
4
-19
-10
11
-37
-32
-25
1
15
46
-29
26
-9
-27
-26
2
14
35
-33
-25
-5
-15
-43
-17
-10
19
-17
7
-33
7
-43
8
32
-15
38
49
44
31
-3
39
-66
32
23
-20
-15
-18
-15
5
21
-20
-51
28
31
27
17
0
-20
34
31
19
20
48
-7
-46
23
-47
8
-29
-7
48
-65
23
-18
12
-36
15
-19
44
6
-27
-17
-18
41
23
2
11
-40
6
14
-38
16
26
48
-42
23
48
22
20
-11
27
-16
16
-36
-11
-3
-1
-12
-5
16
-7
-13
-5
2
10
-10
60
34
-39
-2
-16
50
8
33
50
30
9
23
2
10
-14
44
27
30
-35
-12
-8
-10
-30
-11
19
10
-28
-5
11
-8
-16
20
-19
10
2
-1
3
5
19
7
1
5
-4
49
2
-21
36
1
26
5
55
60
22
-19
5
-8
-6
-36
-54
16
37
3
-29
-47
36
-6
24
-6
3
23
-1
-10
15
-42
10
-56
-42
-1
-3
-3
14
6
23
8
-33
-11
9
10
34
1
-1
-23
19
-9
29
47
2
40
31
18
34
-12
10
-23
6
-21
-43
-15
-13
9
-13
-31
14
-16
46
-5
-7
20
3
-15
-39
-14
-9
-72
44
-10
9
-43
-11
-5
-1
-29
-20
31
12
13
4
1
6
-6
25
5
-8
35
-1
-21
28
22
29
-2
-6
-24
-27
-23
12
59
-2
-34
15
8
20
21
4
-15
-17
-3
-26
15
-17
40
12
21
-42
-13
5
-2
10
47
1
9
-44
14
16
18
9
14
-7
25
35
-28
-67
-9
-24
11
1
-13
-11
-21
20
9
3
-17
4
0
40
-6
21
9
25
14
-1
39
5
18
10
37
24
-1
23
9
46
-12
-14
3
2
-20
-20
0
36
53
-1
8
-14
-15
21
-7
16
-4
2
24
-49
17
-6
7
-1
3
-9
-13
-25
11
-8
-26
-35
20
-14
5
-15
12
3
30
-26
0
-22
31
43
2
-30
-25
-33
-5
-6
24
-7
17
-8
2
5
6
32
-29
55
3
20
-26
-19
-87
-10
10
-65
-30
32
3
-7
-47
40
53
-11
43
18
22
-31
14
-29
35
-68
-33
0
19
6
2
28
-55
-5
7
9
-13
-25
40
0
14
-40
-57
48
-33
20
55
5
35
18
5
10
12
15
29
12
0
2
28
-40
-3
23
-33
-7
34
4
-10
15
47
-32
-29
26
15
10
35
14
-74
77
-14
-41
0
4
-3
-28
42
-9
-22
-6
-5
18
-12
28
-31
-2
-33
27
-33
28
-3
24
-31
-2
-32
-32
19
14
-10
59
6
-2
21
-3
6
-3
-7
3
17
-18
36
-15
0
0
-25
-47
-15
-17
11
-6
37
4
65
-9
3
28
-8
19
-4
-57
5
-16
-7
-4
17
-16
-52
25
-30
-27
4
12
12
-48
16
17
24
-7
-28
3
-13
8
-19
-18
-3
-28
18
20
-48
-42
-19
6
18
13
-35
9
15
18
12
-15
13
-22
5
11
10
-12
-31
14
5
31
-2
81
31
18
-7
-59
1
19
46
12
-33
23
-2
-16
-17
-3
-7
-8
6
-3
1
-42
-2
4
-24
-14
-9
21
13
-32
-18
-30
-31
-11
-6
-4
-29
17
-31
-11
-6
14
-19
26
-33
-52
-15
29
-10
-7
15
-39
-4
-2
8
-13
8
31
-4
-1
-7
-4
9
-31
19
-27
16
-12
-8
32
-31
-34
13
18
-25
1
16
6
-23
-51
-29
-19
-73
-4
8
-42
-9
-10
-27
-12
8
-1
-23
9
-27
41
26
-28
8
-1
-20
-8
27
14
-44
30
-2
-49
-28
8
18
-19
-40
-14
-10
2
21
-17
-44
23
42
-30
25
16
-64
7
17
-41
21
11
-13
27
-28
28
-5
-15
42
-16
0
-41
-28
30
44
9
-41
8
-39
18
-6
-14
5
16
-8
-9
-15
5
2
-16
-35
-3
-45
49
-23
-3
-20
12
45
16
2
24
-3
-13
-9
-30
-2
34
-35
-12
-13
-8
-8
-19
16
38
-59
20
-11
-35
28
0
17
33
-1
15
-28
3
-47
-40
47
-12
7
-3
-26
36
-11
-28
0
-22
-31
27
-2
17
-5
-42
-10
-24
4
-25
-2
-17
45
26
28
67
11
40
-6
16
-22
32
35
-3
-5
20
-10
-19
-47
-23
30
-16
-13
8
-19
-50
-29
32
-8
-44
-12
-20
28
-8
-4
-17
-12
-1
57
21
43
-6
18
21
-50
-7
3
-5
-17
-6
25
2
-2
43
-13
-8
-18
8
-72
27
6
42
-33
50
-8
-34
-33
-12
-11
-19
-17
-5
31
-18
14
-30
-15
-23
11
15
-14
0
10
29
-24
-4
12
33
7
7
-10
-15
-5
-27
-7
-19
-20
17
-10
-7
26
10
31
-12
15
10
28
14
-13
-23
19
-56
-33
-10
22
-4
-32
40
28
3
-48
28
34
-12
-27
1
35
-23
-9
19
-36
-17
14
30
-28
-80
2
14
23
21
11
-5
-50
10
-1
-40
14
29
-15
25
-29
7
-3
1
-25
-20
30
-6
-6
1
18
16
47
-66
-7
17
-59
-14
-44
-31
4
-24
37
-42
32
10
9
9
-11
19
-27
27
-33
-12
32
17
-25
28
9
-6
31
3
-5
-10
-51
20
24
35
-6
46
-15
5
-56
-44
14
-23
-10
-9
-20
39
27
23
10
43
-3
-8
6
22
10
-13
-33
-34
12
8
8
18
-6
-32
-21
-64
-19
30
-21
7
-38
19
52
-14
-29
-14
-32
-26
-15
14
23
25
-14
18
1
88
-6
-13
36
45
-12
42
-72
0
26
-23
-23
-26
33
-3
12
51
-5
-16
-8
-12
-7
7
-14
-43
17
2
-23
-12
11
-31
-8
13
22
-13
-50
50
0
1
49
-5
15
36
18
3
27
-25
-2
20
15
13
-9
-21
-21
2
-3
30
28
62
-28
28
-2
5
-37
-33
28
-42
2
20
4
12
-31
6
-21
38
-13
44
61
44
12
-1
-43
30
11
32
-11
25
39
17
10
8
-1
20
11
1
-15
4
-34
21
-28
9
13
-9
17
13
3
12
-1
12
-25
-44
-40
23
-8
26
0
7
-15
38
-3
22
39
25
6
6
1
56
-25
-5
-31
-1
-7
28
-12
-42
12
-38
-1
0
-12
-11
19
15
-7
-37
30
18
-23
-54
26
-50
5
60
21
2
-9
27
7
-9
23
-60
0
2
19
4
5
-20
6
18
13
-12
-11
33
52
-6
0
-31
1
9
-2
-24
18
3
30
28
-42
20
-14
-30
24
-15
22
51
11
57
19
-29
-1
-32
9
6
-7
17
-1
-26
25
-16
-39
-15
5
23
-16
-6
-27
10
-52
-41
-74
-7
7
11
6
-20
-21
9
-35
9
11
-32
-43
-15
15
13
40
38
1
44
52
-54
-24
-12
-6
3
14
16
-34
80
-27
-9
5
-18
48
18
-3
-35
-6
38
0
4
-6
34
-19
-21
39
-16
15
-22
50
-31
-19
37
-1
-53
13
41
-60
-16
34
17
-1
9
40
-11
-42
-17
-18
-19
-18
24
-9
-28
-1
-9
-13
17
15
14
33
36
25
22
0
-14
-29
-13
6
7
41
18
-10
-21
-26
-16
13
12
-29
-13
-9
9
47
9
-2
24
-4
9
33
-4
-18
1
9
55
-3
48
-17
-37
16
-12
-10
-35
-11
36
6
-32
-27
-33
-20
-3
-4
38
-33
-33
-27
-33
-24
8
6
-9
-7
-22
1
-40
15
-33
-11
32
-15
3
35
-7
31
-9
-6
-20
-16
13
14
-25
0
6
2
-6
-5
9
-15
23
-39
16
42
-39
20
13
10
10
40
3
-13
-1
-18
-13
-30
-20
2
5
15
-63
-6
24
-53
26
3
-7
-25
-8
-6
23
27
-9
40
-4
-9
23
-27
-27
47
-31
38
-7
-32
30
-13
-3
15
21
30
19
0
-25
-13
32
39
9
-40
-21
4
-14
0
-22
34
-31
-30
-30
-7
-3
-5
-33
25
-47
22
-28
-43
-21
-13
-8
20
25
-31
-6
11
25
-18
0
39
29
27
5
8
0
6
-38
-21
5
-7
-24
7
-15
-52
3
5
19
0
34
12
2
10
-57
-57
3
25
34
-38
-20
-37
-67
5
25
-9
-10
-15
24
-17
22
-10
5
-17
19
21
6
3
9
-36
12
10
51
2
-37
-17
7
-10
-9
16
18
0
-20
-13
21
-8
4
-23
31
-24
-28
23
-51
-2
38
31
28
23
-17
-21
7
24
-15
-45
-3
3
15
62
5
-17
6
7
13
-14
-14
-15
-37
-20
23
26
17
38
3
41
-9
-3
39
10
-50
-23
8
12
33
-62
-14
27
36
-33
-4
-22
2
-26
-2
-49
-11
3
-44
9
15
18
17
38
2
8
-7
2
-35
3
24
-6
-24
1
-2
-10
44
11
-9
18
10
51
11
-18
-27
-18
51
26
-41
-4
-14
1
24
-16
-72
-14
11
13
-22
2
-2
-33
-2
-34
-14
2
22
-3
-51
0
-25
-13
11
3
-5
-24
38
-52
-6
-23
1
6
5
7
-31
57
-37
-7
-44
5
15
6
2
35
-7
-28
-12
-17
18
23
11
-20
-7
45
-1
-56
20
37
-5
-2
19
13
24
-11
20
7
-10
69
8
46
8
-14
-22
-24
11
16
16
-43
16
0
25
5
3
-62
-21
8
14
9
-3
-3
24
45
-19
-18
27
12
-17
25
1
-4
32
-58
-49
29
-58
24
-18
11
12
-18
14
21
18
5
22
-26
-31
24
-28
8
45
52
-55
3
11
20
-8
12
16
-49
15
-3
-11
25
-32
-6
16
-19
2
74
-48
-11
1
10
-20
29
-19
-21
-12
-19
10
-44
23
-15
-23
14
-5
-55
39
1
-27
-25
-6
-15
-10
14
-42
-18
14
-4
7
-16
-14
9
-15
53
8
-24
-23
21
37
22
-1
-11
-24
0
-35
16
24
-15
-33
-49
-2
-25
-49
37
-21
-23
-16
-6
25
-35
-28
10
-19
-6
-5
34
-14
19
-10
-53
21
9
27
24
-16
-1
26
-43
-45
26
45
-3
-14
-13
-36
-23
7
-42
-81
55
42
41
-11
20
-47
5
79
-11
-5
2
5
-11
-57
18
46
22
44
30
8
32
17
-5
56
2
3
-28
36
-14
-1
-11
-19
2
-10
10
31
11
4
-7
18
-5
72
-21
8
34
2
-38
-31
-28
5
24
-9
1
-38
7
36
-2
-33
2
14
-19
17
31
18
11
-42
31
18
4
-30
46
-1
32
-10
18
10
-6
-23
3
11
-17
11
5
7
-19
-27
8
-6
-49
12
11
27
-13
-9
-6
35
4
-2
11
21
15
-19
10
-24
-14
3
-2
-58
-22
35
42
2
35
33
1
-18
-50
10
-6
4
-35
13
-64
5
-2
-4
14
16
-11
-25
-13
-4
-34
18
-33
-24
23
28
-9
40
22
-30
25
4
-31
-9
-29
-7
6
24
-14
-11
-4
-8
-53
-42
29
14
2
-8
42
2
19
6
-23
-10
-21
56
27
23
-22
21
-17
-59
46
-9
1
28
7
5
-9
-38
42
8
-18
23
-3
13
3
-4
-32
-7
-26
6
5
-21
5
23
8
49
36
-8
12
-32
18
3
42
34
1
5
-11
-79
21
-1
37
15
22
-8
5
35
-23
-3
8
-12
-21
21
-2
-17
-15
31
-9
-46
-3
7
-7
9
-16
-5
18
27
17
-11
57
6
8
-21
4
46
-27
-5
-7
9
-29
21
10
33
46
-12
-9
18
6
20
10
62
-24
2
-13
0
21
12
-15
-6
4
-50
-40
-31
-15
-31
-43
7
-22
18
-12
-75
-3
-1
-38
-20
-28
-22
48
-24
-72
-3
37
37
6
12
-15
-25
-1
-38
19
19
25
-5
-31
1
-86
-5
14
61
-12
-19
-26
12
40
-4
-27
19
-6
-13
-21
-2
9
18
-20
49
32
9
36
33
31
-13
-36
-5
-34
16
-1
21
17
-35
-13
-27
-54
6
19
-26
26
22
-19
-21
51
-29
46
-37
14
10
-23
19
-15
-33
-12
19
-3
19
-10
24
3
-14
-27
-12
63
-3
-6
5
-35
16
-10
-17
64
-31
19
-22
-6
-10
13
-6
-36
-9
-23
53
-10
21
24
-8
-30
-11
8
-19
-46
6
-2
19
-27
9
-16
-6
7
-44
-3
14
-40
30
48
-11
12
-34
-25
-8
-11
-26
28
23
-1
-16
22
-24
3
-36
-4
0
27
-19
-2
-10
14
-6
-15
18
3
2
-36
-24
-8
13
0
-16
25
54
13
20
5
46
-15
8
14
33
-14
36
23
-33
-14
27
-2
-10
-23
36
-21
1
59
-43
1
-35
94
36
-43
-8
-29
48
12
-32
-26
45
-3
16
-33
55
5
-3
21
11
11
-72
-25
59
-40
3
28
-30
-18
0
13
-34
35
4
-19
-22
-43
57
14
-14
22
1
-14
-78
-13
-15
30
-1
-24
33
-5
8
-37
1
-6
-11
20
3
10
35
-44
31
5
14
18
-7
-14
2
25
48
-51
0
-60
16
11
20
-11
6
8
-3
-42
21
6
3
17
24
-8
33
-24
20
-13
-24
-19
18
5
9
-19
9
19
41
26
14
44
26
-8
-7
24
39
7
-6
-61
26
24
21
19
19
-17
-6
7
1
-34
14
4
7
-33
-7
-17
1
39
13
-28
29
-23
-15
-27
8
-7
-12
6
-15
22
18
14
17
4
31
11
33
17
39
-17
-10
3
-13
35
-20
-10
37
-8
17
6
-23
-20
-11
8
-7
15
-11
6
-23
-4
5
5
-3
-10
-27
40
38
-22
29
-28
8
-36
16
-16
-25
-8
-19
29
-43
-4
18
-23
17
14
2
-19
-6
-1
37
14
29
-37
-40
-10
47
-31
-9
10
-18
52
2
-38
23
-2
34
32
43
21
-2
-12
-12
-24
8
1
-31
24
-8
1
6
32
-28
15
-7
6
39
-3
-12
17
-34
57
-22
-56
5
32
25
-13
-16
-27
-37
-28
14
14
3
-19
24
3
18
-34
1
-12
-8
-31
-9
25
-25
-8
-25
-16
7
6
-15
-45
-1
40
19
40
-13
-5
21
-12
40
4
11
-11
19
20
5
-32
1
32
-25
27
5
-1
-1
1
-29
21
17
-13
-8
6
-5
-4
10
8
37
18
-26
24
28
-21
-44
-41
-13
46
28
19
-34
8
-11
4
-8
-6
-36
12
36
27
-35
22
50
22
6
-23
-23
1
-7
44
-13
-43
-3
-28
-24
24
53
-7
24
-70
-24
-8
54
33
30
57
-17
-28
30
-29
23
-20
6
-19
21
10
-49
-19
-26
59
26
-18
6
4
-14
-11
-17
13
13
-50
-34
-19
-6
47
1
15
-67
-51
49
-10
-14
-23
-33
-4
34
-2
38
13
-2
-54
-22
9
-11
-20
11
-17
-11
-17
-17
-24
40
-23
66
-8
-2
58
-11
-53
-1
23
22
10
68
21
59
-37
42
42
-33
-12
-20
41
6
44
-13
9
-9
-50
39
-44
3
7
-11
40
17
-10
-1
44
11
5
11
20
-26
7
-17
18
31
-6
-39
-39
-41
0
33
-17
22
29
23
-22
-53
59
69
33
-39
-1
-14
-5
8
-8
-30
7
-20
0
-62
-22
-11
11
8
50
1
-7
9
-52
13
-5
-11
1
5
33
-19
-33
22
20
-11
-22
2
-31
-67
-27
21
-15
-25
-41
-37
16
50
4
12
-22
-28
3
17
-8
-19
-42
-14
-7
-8
-19
-31
7
10
16
-19
-9
-17
-7
-30
-47
3
-19
-71
-44
6
0
-40
-30
-11
10
-38
-10
20
-6
-18
7
13
31
14
18
17
-28
40
19
67
35
-24
-18
11
25
-24
7
-45
27
-26
-16
1
8
-51
19
46
-16
-1
-6
39
25
-39
25
-53
-30
36
22
-14
52
4
28
-7
-46
-27
46
61
9
-16
5
2
-40
24
-63
14
-16
8
21
-10
12
66
30
0
13
-3
-31
26
-26
26
14
-38
-27
4
10
-4
-17
53
20
-14
-41
-19
33
37
26
-22
-53
20
31
3
-47
9
23
45
1
26
21
-4
4
7
-9
68
-25
-1
-2
38
-46
-12
17
-23
21
-53
20
6
-26
9
-6
-15
-38
5
23
32
3
-27
-13
45
-37
-31
17
15
-31
5
-29
5
-43
13
-12
-6
11
26
1
-9
14
-30
-32
-17
29
-25
-2
-13
-3
20
-13
-10
-9
-8
19
27
-77
4
-104
-18
-38
-20
32
10
17
-59
-64
13
-21
-25
9
-46
-33
7
9
15
-6
-11
-37
-27
-11
19
5
34
3
19
-12
17
23
17
42
2
-32
4
25
-29
32
-19
30
-19
13
16
51
22
26
38
25
-14
21
2
-6
8
34
18
0
3
7
24
71
-7
-42
-59
33
-8
-79
16
18
50
5
19
-25
23
-26
9
-16
25
-27
-12
-14
49
-42
-3
2
9
-32
34
-9
-16
-18
-75
7
66
-28
14
-11
-1
24
19
-33
16
-22
0
-11
-43
-17
-4
-67
-29
5
35
-3
11
-6
30
10
48
6
43
8
7
-20
38
-12
-20
-19
19
-3
17
-13
40
-10
-46
5
-29
-34
-65
14
-9
74
-13
-14
-16
7
37
-9
0
-30
51
12
22
0
-29
24
55
12
-16
42
-8
10
-18
24
12
50
-23
-23
-24
-20
-32
-29
-40
-4
6
1
8
-90
36
30
-39
1
-32
16
27
-7
-27
-18
-25
-64
14
41
-23
-19
-33
-30
13
22
-10
-36
11
29
-12
-7
34
-26
-5
18
13
29
38
-49
-36
-16
-7
-50
29
-20
-23
47
10
-2
14
35
9
8
33
16
20
17
37
15
22
-44
3
22
17
13
-13
26
59
-4
9
-5
-1
11
19
-57
61
-16
-46
34
21
4
47
-32
-24
16
26
52
0
53
33
-29
-13
-1
-26
-29
5
-27
1
9
-10
90
35
-59
35
-15
46
15
1
-55
-23
-10
11
-22
-15
18
35
-1
21
-12
-29
-25
-32
23
1
-6
-14
15
35
-35
-49
-20
37
24
26
-2
6
18
11
27
-23
18
-12
-15
6
10
1
-17
-1
-4
24
-1
-3
3
-14
43
-22
4
-8
12
-5
28
-3
2
2
-27
23
2
37
18
24
-30
22
-28
-61
-6
40
92
14
-19
26
45
3
-11
18
-26
5
39
22
-32
32
10
-18
-6
-1
16
-30
42
58
-47
7
39
-7
-10
-2
-15
2
26
15
21
-41
13
-28
-9
21
-26
-68
7
1
-3
-27
52
16
15
5
-34
-12
9
-7
0
-16
5
-20
-36
13
11
-10
57
-49
16
-2
-28
23
3
20
-32
6
-21
-4
-3
15
20
37
2
55
-15
-18
2
22
3
31
-19
25
40
7
-24
-11
19
-9
-14
-20
4
14
9
2
32
-25
-10
-18
28
-5
26
-7
-4
18
24
-2
12
-13
7
-32
6
-15
32
-6
-20
-40
35
8
-15
-2
-41
13
8
-34
-31
-54
59
-18
-12
9
15
73
26
3
-7
15
11
-13
-18
-90
-3
-18
-8
-9
-22
-59
51
19
-27
-1
-2
-13
0
-33
-25
-13
-38
-22
-12
53
-1
6
-9
-59
20
54
-16
-35
18
9
22
-12
-24
-18
-46
-29
42
0
15
20
27
-3
15
-7
-49
-32
18
-27
15
19
15
9
12
-22
21
-6
-36
-26
13
38
37
-5
4
8
0
-28
26
0
11
14
27
-26
-57
52
-8
9
-24
11
23
-7
-16
13
-5
-21
-1
0
-6
9
20
19
-10
21
12
4
-27
-8
-16
-3
-47
3
2
-26
-8
-39
30
7
53
-2
28
28
24
28
0
10
-13
-15
-7
-33
-32
9
7
-36
25
-13
5
6
6
11
-7
-1
-35
-2
-34
20
-5
-39
-5
-30
-48
6
12
12
-40
3
-21
-24
-24
33
15
-9
4
-35
30
6
33
-11
7
5
31
5
-34
-6
-11
-11
35
4
20
-24
-3
31
-2
-6
-17
-16
2
-16
-22
-31
7
15
14
-23
-14
11
42
20
59
-38
-3
-20
-12
-1
-17
7
-30
-8
-4
-30
35
0
-33
1
-34
-4
-9
-11
32
20
10
-47
13
-26
-24
-2
8
43
-13
-11
-27
5
47
-9
-29
-10
-2
-3
-22
-22
27
17
7
-8
-8
41
5
29
-19
2
73
17
19
-17
32
-40
-54
14
3
50
-30
-11
28
15
8
-7
-1
38
27
-23
12
-5
1
-21
3
-10
-5
-66
16
51
24
-17
-12
13
73
-24
-14
0
-7
-20
-19
14
19
60
43
0
19
-67
20
20
79
20
-4
-36
27
1
-4
-57
9
64
11
-2
37
-64
-15
-10
-80
-79
49
-24
26
-8
20
-19
-1
4
17
-18
-21
35
-1
-23
-25
-43
-10
2
-14
-17
1
-34
-7
-17
38
-19
16
25
61
23
19
2
6
-12
24
-8
-3
20
-1
-34
-24
-4
-14
77
-51
-24
-13
-8
-22
3
-7
11
-18
30
-48
-59
13
22
8
-13
29
26
32
15
5
-12
37
-9
-9
-5
57
10
12
9
63
-7
-5
-21
-37
-3
-51
-15
41
80
-12
10
27
9
24
-50
1
37
28
31
-23
21
12
21
41
-13
11
-50
-26
-45
47
21
29
-4
41
20
-16
34
-20
9
-31
13
-19
7
-27
47
-52
-62
-7
-26
55
21
46
-17
19
26
28
-24
10
-27
-39
-36
-23
-12
4
34
42
29
36
-24
28
-29
26
50
-71
2
53
18
-22
-23
14
-9
-12
31
-28
-14
10
8
2
-22
20
25
-14
-11
-17
30
-4
19
25
46
-32
-18
-11
-23
-46
-14
-13
-25
-28
33
-20
11
42
-19
-56
38
18
-16
59
22
41
-12
-6
-36
18
14
-35
51
21
37
8
5
14
-10
-36
36
-30
22
-4
-4
-6
2
-4
17
-11
-11
-6
22
5
12
11
-38
-21
-7
37
13
37
25
14
31
-11
-11
-20
20
36
-7
-16
-14
-7
38
4
-45
-13
-21
6
8
5
-28
24
13
-5
18
-7
-2
28
-49
14
37
-54
-34
43
6
2
-45
-13
50
-1
-21
26
-4
-25
-15
7
-5
35
-18
18
8
-10
3
-13
14
-16
15
14
-2
-21
4
-36
-21
51
-1
-31
-16
-10
20
11
-22
19
19
-45
17
3
-6
18
23
-22
-11
10
-13
65
18
-47
-72
-4
0
-51
2
29
13
-19
20
34
41
7
-30
26
46
33
24
-15
43
30
11
34
18
-33
