32 144 1 1
9
-5
-11
-9
11
-1
-30
16
14
10
-16
-49
-12
14
-13
-12
22
-38
-16
33
-3
34
2
-20
-35
20
-38
10
2
-24
-19
-10
-11
-3
32
35
-30
8
-23
14
7
52
12
18
2
30
-26
-9
-10
47
3
11
5
-30
-58
-18
16
21
13
-14
5
21
11
62
-31
-22
-48
-53
47
22
-26
-22
-12
-4
-6
-10
-26
-54
-5
-9
-51
7
0
5
2
-29
-23
2
10
-33
-7
2
1
39
21
-40
36
46
-12
19
7
-21
-13
22
50
21
12
-42
-22
-8
37
17
-37
-5
20
32
-3
3
-36
55
-49
-20
-27
14
-12
10
5
51
33
-20
10
3
40
22
18
-65
-29
-50
-18
9
46
-12
-18
14
8
-4
34
40
-32
0
-19
24
-4
17
61
-42
2
2
29
21
-9
10
-33
23
-6
28
19
47
2
48
16
11
-42
-12
8
14
17
-17
-13
17
16
-11
-15
37
-20
-25
7
-41
-8
24
-1
2
-27
6
-6
43
11
42
-12
6
-19
29
38
-63
-55
39
-52
-3
52
8
25
36
7
12
-15
18
-28
34
9
-33
-5
-18
32
27
-31
5
-3
-29
-12
10
-17
51
9
-15
-61
36
-22
17
31
-8
-11
23
-12
-6
29
55
-14
22
5
24
6
-30
5
-17
18
-17
-18
16
-9
27
17
9
-56
21
-17
-16
23
-16
12
-22
2
11
52
-40
5
-17
13
-12
-35
-47
-21
11
17
-22
9
32
21
-12
-5
40
-48
-15
14
-12
21
3
2
22
9
-32
-2
17
-3
26
16
-3
21
-28
5
15
-4
-16
-19
8
-57
3
20
-16
17
6
31
31
-40
34
-18
6
14
-24
-10
25
2
6
-8
21
14
-11
15
46
-19
-15
-34
2
26
-11
-23
25
18
35
80
40
19
-31
65
17
35
-28
55
3
-19
-18
-38
-22
22
4
-24
-21
-15
-4
-19
-22
-2
57
-20
-25
8
23
-4
26
7
16
25
-7
1
-48
32
-29
4
17
5
-29
2
48
-35
29
-47
18
45
1
-48
19
-3
-11
-25
-3
-15
10
62
-42
1
25
23
-13
2
67
19
3
-58
18
-21
-16
22
-44
12
-28
27
-6
17
-26
-6
-58
23
-35
64
-1
1
-13
0
-47
30
40
-32
41
4
27
19
34
-8
-64
-2
-4
36
-12
12
-85
-21
-8
-25
39
14
-71
33
-10
74
-6
20
-20
11
0
27
-16
43
17
-24
30
-19
28
35
29
-21
-12
10
32
-30
-71
9
-9
0
25
-40
-14
8
-16
21
18
-46
12
-51
-14
0
32
-47
-9
-7
42
36
-18
21
11
-74
-111
-41
-13
-45
9
29
-11
46
18
23
-35
21
-81
5
-2
-2
-31
-6
11
-44
19
-18
-78
15
-19
31
-25
-48
-27
-36
27
-4
10
-18
41
-21
6
40
6
-32
-41
-5
-46
-43
-4
50
-14
15
-28
-38
-26
-6
16
-45
108
-12
-6
-22
42
17
-8
14
-46
-34
29
-50
3
0
33
32
-7
-22
-22
-3
5
-4
-30
-10
36
-46
-15
-30
20
5
-10
33
-10
-17
-4
32
16
-14
-25
4
32
-12
47
-34
14
-22
19
27
-49
-16
-7
-19
-28
-36
-15
58
4
-31
35
-51
18
18
-18
-60
20
1
8
42
3
55
18
20
42
-3
49
31
-5
7
-30
27
10
-13
46
48
48
13
-21
18
-21
50
42
19
34
-1
39
2
-39
23
11
-15
13
-1
-41
32
17
13
7
-47
-18
56
1
21
-56
51
-28
-62
-14
-8
-23
-8
-31
17
23
19
15
15
10
27
-4
52
37
9
-30
-2
27
33
-16
-5
-36
73
14
48
-6
46
54
-11
-37
19
-2
30
56
39
-58
-29
29
-9
26
12
16
16
6
16
21
-24
-14
26
-31
-20
18
1
-17
-22
3
22
-14
-1
8
20
20
20
6
27
-22
-22
-6
-25
-35
-28
-25
-29
3
-5
11
57
28
1
16
26
-31
-22
12
-2
-8
-15
1
-46
8
2
-25
19
-19
-8
-22
-20
18
18
19
-11
11
-16
-7
10
2
4
-6
0
-22
11
10
-3
-6
9
0
-2
27
-24
34
-25
-28
1
-12
-9
17
-21
-5
-10
15
31
-14
16
-33
-23
-10
5
22
-15
-19
-29
-18
-32
-4
13
23
23
1
56
-20
23
33
-9
-21
-24
-3
6
1
-43
-5
6
22
20
25
3
-14
-42
4
22
-13
-33
-26
25
-36
0
-9
9
33
-7
42
-37
-3
11
17
14
32
49
-30
-3
-36
0
8
24
-13
5
-34
6
-2
3
-2
15
-21
-8
12
-21
-64
45
15
-15
-20
25
9
33
39
-25
12
3
11
10
-4
11
-18
49
-5
-12
34
24
1
52
8
-23
13
1
6
6
-5
-15
-25
7
-20
-13
14
6
-21
13
-10
33
0
41
-59
-22
-10
26
32
-14
29
34
32
29
52
-32
1
32
-33
-23
-55
-15
12
-51
18
8
-6
-59
14
22
43
-7
12
28
40
12
-30
-22
11
0
-10
25
48
-57
8
17
77
-42
-2
-12
31
-19
-30
11
-45
48
9
-18
21
33
7
65
18
-35
-28
3
4
-30
7
-5
-1
-20
11
-15
2
-24
-13
-4
-72
5
-25
8
-54
8
-43
-10
-22
-10
-4
33
3
-28
-36
12
-6
32
45
0
-36
47
3
33
1
14
11
19
5
-24
-16
-17
-9
24
22
36
20
-11
51
-29
-18
9
13
-9
-19
-36
-18
-16
-3
7
1
36
-6
-1
12
-8
-19
-72
-43
4
-28
-51
-27
-8
21
13
32
6
-4
-3
42
47
-32
18
-16
26
22
20
-79
7
15
-36
-21
3
14
32
8
-6
-13
-3
-37
-5
-24
4
10
-22
18
5
45
33
1
9
12
-5
-16
-35
54
-37
-24
71
-21
21
-4
7
9
-20
14
26
-66
-5
1
-65
-25
-35
-2
16
-14
-24
18
2
-24
33
-28
46
-27
23
38
0
-1
-5
-7
11
30
-22
-5
49
9
-12
-44
3
73
43
26
-12
22
-41
-4
1
-6
35
-26
-14
47
-30
24
12
-7
23
-4
-21
-1
-2
-44
-22
26
5
-32
-40
9
-15
35
-17
8
-15
-21
-8
4
32
16
48
8
-50
52
87
-46
39
9
17
19
8
23
-5
-47
20
-10
-8
15
15
-59
-28
-65
-9
-35
-15
-20
-19
-3
10
-10
4
-33
-19
-21
56
-17
-27
4
-49
-27
-33
10
-50
44
10
1
24
20
61
-79
-33
-10
-3
-8
6
-61
30
0
-34
24
18
21
-1
-49
-36
-2
35
22
25
8
-42
20
-11
29
-18
-10
-29
26
-2
-21
35
-13
-61
5
-25
-60
38
-30
-23
8
-25
40
14
9
27
22
19
7
-6
-44
-45
21
69
-51
-2
31
38
15
-13
-26
-2
14
-4
13
-17
-51
-3
10
31
14
10
-14
-29
9
-32
46
22
-4
10
-5
11
-4
-45
6
63
4
7
24
5
-39
14
10
-27
-38
57
-6
28
-15
19
21
35
-20
35
45
24
64
-8
47
24
-7
4
31
-24
-10
-64
-59
-28
18
-2
-2
-19
-2
-13
11
5
14
-26
28
15
-34
-40
9
-39
-17
-30
6
-13
-22
-13
11
26
-13
20
13
7
26
-41
12
5
-29
5
-39
-14
6
-22
21
2
-11
-7
25
-20
-38
13
-10
-9
20
21
-33
11
28
-1
38
-27
58
-23
3
-19
19
-29
-3
-25
-28
-25
-24
-22
0
-29
15
-27
9
26
28
20
13
4
-14
-20
7
15
-19
30
15
6
7
6
-15
8
-10
42
15
59
52
-14
1
-2
-15
-14
-22
25
33
-16
-80
42
16
45
-27
50
7
-15
15
5
-5
-37
-18
-2
-18
33
-21
2
7
-12
75
-21
-22
15
-11
45
-14
-21
-17
-1
-3
-24
43
13
1
-27
-8
48
-3
-19
-13
16
-57
-3
-39
28
6
31
-23
19
-17
24
-24
-40
-22
-38
-6
8
1
-2
8
-7
16
-18
33
5
3
-23
-10
-17
11
-16
-22
-54
5
40
19
-6
-3
-5
-6
-10
28
-22
21
21
-7
-31
17
35
-10
3
-3
-35
-15
-49
-80
63
29
52
11
4
5
12
-16
5
18
-2
-18
7
26
24
-44
4
-35
4
-32
-24
-2
10
-6
-6
-36
22
-12
15
6
21
12
11
-20
20
-2
77
12
28
-15
15
20
8
23
-15
-14
31
22
14
-34
-2
52
-3
42
-54
-59
0
-19
2
-6
55
2
32
23
-3
-8
-8
-8
32
-45
8
-30
16
-10
31
-8
-17
-2
-13
12
20
-14
5
-10
12
21
-20
26
33
8
-5
-33
-43
-28
-3
-7
-54
20
23
24
19
60
21
3
18
65
16
25
-28
43
-20
17
3
-4
-16
14
36
40
31
22
17
13
24
7
-2
0
2
-2
5
11
-14
-7
16
6
11
-39
-11
20
19
-20
-10
36
5
22
15
-22
2
-3
-39
26
-53
66
20
-2
46
4
22
-24
39
0
29
-19
10
11
-9
-27
-23
20
38
7
-68
41
-52
31
-53
16
32
-17
11
50
36
-23
34
-32
6
-12
33
23
-16
-8
-19
-32
19
-6
1
-18
-35
9
-11
-23
21
-26
-28
33
-6
-12
18
-6
-8
-11
-1
-50
29
-19
9
-45
-55
29
3
-16
21
17
4
16
-13
2
24
8
-15
22
25
12
15
-26
2
2
1
-33
-56
-5
10
-45
11
4
2
4
-25
-21
-51
25
-1
-11
-48
6
34
30
5
-11
-16
4
3
-19
-9
45
-2
-27
12
-11
-30
-23
-23
41
-25
-2
-5
42
-39
-20
3
3
43
-6
27
4
26
-1
2
3
-1
-3
17
41
-21
-10
-53
9
-7
-6
17
4
17
17
19
33
-3
-3
-5
21
-6
-62
66
-8
-5
14
30
-9
16
-10
-35
-14
53
-14
-24
-10
32
-41
-2
5
-30
28
3
8
-41
59
6
-27
2
17
-39
11
-35
67
-44
4
-17
-61
34
-43
-1
32
-23
15
-42
-38
-39
-17
21
10
-25
-51
18
-2
-7
-38
21
1
3
-13
-10
13
5
-11
-7
-30
-16
-4
-70
-5
9
-3
1
-37
-4
-3
-7
-12
12
47
-36
8
17
30
11
18
19
-9
29
35
-57
-38
14
16
-7
46
3
-3
22
51
-19
35
30
-8
26
-17
12
-28
36
1
-83
-18
-42
-31
-7
-16
41
34
-33
1
27
-9
-19
-15
-6
36
15
-11
-1
-2
23
-20
-9
-12
19
-7
10
-34
14
13
-18
-27
-12
33
-23
-29
-42
1
-20
-6
-20
-54
-19
5
-36
57
-33
-5
-36
36
-35
49
29
-13
-2
4
17
38
-66
94
30
25
-70
18
34
58
6
-29
-7
-17
-14
9
-40
-27
-16
39
30
42
-57
22
-8
-61
11
-11
17
4
-59
58
7
-10
26
8
-19
-11
10
27
43
-35
30
68
22
-3
-36
-53
-64
11
1
19
-23
43
56
-22
34
-27
34
22
8
18
42
-2
17
26
53
42
-9
-30
-44
22
-22
-5
3
-51
29
-23
-9
-55
-36
-62
67
34
33
23
-66
-5
-8
20
14
23
-41
103
19
-41
0
51
-7
-38
-28
65
37
19
57
6
32
17
-14
11
4
13
-56
11
22
-62
-32
17
33
-4
-19
38
-1
8
32
60
-4
-34
-6
67
-23
41
-14
-46
35
13
-15
17
4
-24
-6
-65
-34
5
16
-40
-12
16
16
-1
4
32
-2
-41
-23
8
57
4
16
-37
1
-14
-18
43
70
49
3
-43
-20
-31
-34
-37
29
-12
-15
-26
80
13
-27
12
-40
60
-13
50
51
16
-8
5
-16
-21
41
-23
34
-36
-67
27
12
-40
7
4
22
-12
-60
22
-52
-36
2
-4
27
-27
-43
3
-32
6
1
-15
3
13
37
14
-6
-12
7
39
-18
0
48
-56
15
-43
-14
29
-65
44
36
-24
-16
18
17
45
39
25
-31
-8
-12
3
-33
12
50
7
-18
31
-12
-45
47
75
35
-21
-22
-24
54
-49
14
24
37
-40
28
0
-10
26
-44
-5
15
-2
-3
-25
-21
2
16
48
19
-41
36
13
-4
8
-4
17
-3
9
-42
-19
-3
0
32
-2
-17
0
-47
-39
-23
13
-14
-17
8
-5
-6
-35
46
-17
-39
-14
21
7
10
39
8
-31
-67
-41
-30
30
3
7
-5
14
14
22
-37
32
5
-15
-1
17
-32
16
30
-9
-25
18
0
-8
29
38
-49
-25
11
6
-13
31
-14
14
-5
12
9
-11
17
17
29
14
-16
-11
-37
-4
48
2
15
22
-2
9
-19
9
1
-23
9
8
48
-47
-5
25
9
5
-55
22
-15
-12
-8
16
-13
53
17
29
57
10
-25
21
53
-9
-12
-4
-45
8
1
1
28
14
0
-4
-16
-13
-13
5
43
34
36
14
8
22
3
-2
-7
-4
-61
70
3
-26
15
4
-14
25
-19
34
4
-31
-18
7
19
31
-43
3
-28
17
22
-6
16
42
-40
49
-7
42
-19
-28
4
-9
-17
13
-7
15
-10
-36
-17
-1
-37
2
29
-48
1
-23
-43
-12
-13
19
23
6
7
-45
-2
-6
48
-13
-22
1
2
12
2
3
10
1
-43
8
7
-8
-35
-31
11
7
61
4
-30
50
5
13
-43
9
-7
48
5
-3
51
12
0
9
-8
55
-34
25
30
-10
-15
33
9
34
-3
-16
-20
-39
10
14
37
-44
-4
-3
-12
7
-1
14
-23
-20
44
6
21
4
22
27
37
-16
-7
-14
-6
-39
25
25
22
18
-3
-20
-36
23
21
-3
38
2
1
-4
14
-39
23
-18
-11
28
4
5
-18
-6
6
29
53
31
4
8
35
-21
-24
27
-24
-9
45
23
0
9
21
0
5
6
-31
1
-18
51
15
15
31
11
34
20
0
-2
3
-25
4
-39
-6
23
27
32
31
2
3
-7
17
10
-6
-20
-1
-4
-21
4
-8
-17
-40
-16
-41
5
20
-49
-46
-26
16
21
-3
7
-26
43
9
10
5
-31
6
16
31
-63
21
-8
1
-46
-18
14
-5
19
-2
-20
7
-6
42
6
16
18
53
-29
-9
7
-63
-97
19
-28
-15
-20
-34
-20
11
-14
-48
4
11
10
-23
-18
-18
-58
-43
-33
-26
40
44
-53
-34
-34
-13
-82
16
17
-61
4
-25
-30
-20
-25
11
5
-12
40
50
30
-36
-28
-44
-77
-46
30
42
-34
11
-6
-40
-30
19
-50
79
-28
-15
38
6
-40
15
-1
-27
-111
79
3
57
-29
-30
24
-52
28
21
-10
45
68
15
13
-11
-61
4
-1
-8
-70
-1
-1
-64
5
-27
-35
-8
-6
19
-9
23
53
-43
66
30
-16
-9
35
-14
-8
19
42
53
7
0
15
-13
73
-49
50
-81
16
45
6
23
40
-11
-52
-3
-77
37
36
-40
-28
-41
39
-26
-20
1
77
-56
-14
-58
-26
-25
-93
1
-72
14
-49
45
-36
-91
9
19
21
-14
29
0
-42
23
23
36
27
45
55
-12
8
-62
-42
30
-86
-52
-23
11
-18
43
-41
32
-42
14
-46
26
4
-50
7
10
-8
7
50
-25
-18
-54
17
38
7
-25
-53
3
-17
-22
12
48
9
8
14
17
-9
-24
-8
3
54
-29
-12
25
5
14
17
-19
14
5
-40
-26
-40
-38
29
19
73
-24
-16
-20
-34
-46
3
-53
41
-3
20
18
45
-4
20
23
20
12
29
7
8
-20
-65
9
27
11
-17
-18
-14
-10
-16
35
51
1
-1
-37
3
-2
29
-6
21
52
-39
6
38
-16
21
-6
35
-21
21
16
38
-38
-11
5
-2
43
52
-24
36
47
24
2
37
9
30
-10
-30
24
-2
-42
34
25
-13
-7
49
24
-9
-26
1
-21
0
24
6
6
38
-15
19
-28
-52
4
12
-24
-63
27
26
-30
15
14
19
-44
-16
-9
49
15
18
-2
14
25
17
1
-21
30
23
32
-5
-13
5
-7
40
-15
24
-10
-40
1
-3
1
8
16
14
-9
12
9
36
-14
-16
41
-3
49
-8
5
-19
-42
3
0
17
5
-14
-23
27
27
59
-30
28
32
-2
-15
13
42
21
-22
-8
-13
7
20
-9
20
50
-16
-15
-1
12
-33
-13
-30
-19
-27
-32
53
13
-5
2
-16
21
-28
-45
-24
54
-21
3
1
10
-54
2
26
-7
1
-36
-19
-55
-67
24
70
-32
2
13
-2
-50
-22
20
-7
8
11
-55
-18
-11
-30
1
-14
18
-8
-26
-18
9
42
21
9
6
25
-2
-41
-18
-10
13
-5
33
19
-5
47
-16
36
69
26
-18
19
-21
1
31
-7
-14
29
-26
-20
-11
-13
47
-11
-45
46
38
-42
26
10
25
-12
-24
19
13
-37
4
-28
-57
55
10
2
-21
37
-2
16
48
19
-5
-31
-15
50
0
26
-23
-4
12
-16
-10
-27
32
21
17
-36
20
-50
12
19
18
-21
-55
-16
9
25
-1
-3
-1
0
-40
17
17
32
3
18
4
-10
-10
47
35
-46
-38
-15
44
1
-21
3
22
-10
54
30
6
11
16
-38
47
34
-5
-39
14
-16
-4
-9
25
-18
-48
-23
16
19
24
-46
-14
-25
-35
-2
-1
-54
-45
-8
6
17
-53
26
22
-23
37
6
23
-17
51
-75
3
47
-19
-8
14
-18
4
13
-18
33
27
-30
26
-23
3
-35
11
12
13
-20
4
-13
-6
8
-31
-18
-25
-2
-39
14
-1
-7
-6
16
-34
53
17
7
64
-19
26
-9
26
-1
68
-33
19
-23
-20
-7
-10
-4
-42
30
-13
4
1
18
7
-18
-43
17
-6
42
-20
-2
26
20
-44
44
18
9
8
-25
16
-31
-70
0
1
-17
-9
1
-19
27
44
40
10
-22
14
-11
-6
-9
29
-4
15
-24
-16
-18
-29
34
15
-17
27
-11
-9
3
39
-10
-1
8
10
22
3
-25
-5
47
-23
-6
8
7
-26
24
24
-43
-43
2
-46
-4
14
-3
48
-48
18
9
-11
1
-22
-21
-12
10
-3
58
-20
27
17
15
24
29
-4
13
-8
17
35
1
-6
-13
35
30
-13
-3
2
5
-35
6
-36
6
-29
-35
7
35
-24
-15
-13
58
38
-26
-17
18
-20
20
-35
3
18
19
-8
41
-17
-26
0
-1
-30
-26
-14
-5
17
-16
-32
33
20
9
25
18
39
34
17
29
3
-33
10
-50
26
4
-42
-6
-25
-8
34
5
7
-6
-3
7
-33
-8
19
11
-2
-18
-25
-24
15
-2
26
-75
8
-19
-47
-22
14
-26
15
5
34
23
-28
3
-51
15
27
-9
-25
-18
-31
44
-10
-11
-58
-22
6
-10
-24
33
-16
35
65
50
-22
25
22
42
3
-1
-36
-12
10
17
-23
-8
-12
-40
-40
-42
37
-14
-24
-22
26
17
2
43
-47
-35
-74
-45
8
32
-5
51
10
58
-16
17
43
1
0
21
-27
33
-38
-17
35
21
1
-6
-29
8
14
-40
27
16
32
42
-2
-34
13
21
-6
33
-17
16
0
67
-9
54
29
4
52
20
25
-17
35
-67
-1
16
30
-8
32
-37
2
-58
-39
-29
16
-4
0
18
53
11
-45
-4
51
-31
-10
17
11
32
29
-43
-17
-31
62
-17
7
46
6
8
12
16
13
31
31
36
48
-5
20
-17
17
-21
33
39
16
19
15
51
-40
-23
-11
-4
12
29
32
-46
34
26
-17
9
-12
-37
9
-22
-2
-5
5
9
41
-21
11
-18
14
-35
-5
1
-1
29
76
-30
-15
24
-15
12
-11
19
-17
14
3
9
-15
-7
10
11
-14
-52
9
-2
-23
13
-18
5
-10
12
12
9
-15
4
-17
-34
-9
28
-10
12
-22
-22
32
-20
-29
21
3
-18
-4
0
14
-32
22
-36
22
20
-17
-16
20
13
0
-7
20
-9
2
-18
-32
13
31
20
15
-23
5
9
14
7
-17
-5
9
10
2
-5
-5
-38
-39
22
-19
5
5
55
22
4
0
17
-17
-7
2
-39
12
1
-9
1
19
11
21
-6
-20
38
-8
-65
-37
6
14
17
19
-22
-8
-37
13
24
21
-12
-27
2
-1
22
11
9
-25
-13
-16
7
20
-16
28
-29
21
30
6
-24
31
-14
35
-26
-8
2
3
-39
-14
32
-8
-2
-18
14
3
27
9
-7
13
15
3
36
18
28
15
15
-4
72
-40
-34
-4
-18
-43
69
-11
-79
-15
-23
29
-1
-23
-18
-40
-5
12
21
-11
15
10
7
12
-5
-29
32
15
-27
5
-66
2
-16
-5
-21
4
24
-5
3
24
-87
-7
-13
-13
5
-47
-10
-6
37
-38
-17
10
55
33
12
54
-62
8
29
2
60
34
18
20
-6
-46
3
19
-19
-6
0
21
43
29
-5
-18
42
14
-50
-13
-21
4
-24
65
15
-48
69
14
0
-54
-26
-64
-3
-12
-46
36
14
7
-26
55
25
7
-11
-31
-21
-100
-16
69
-9
26
24
-49
-58
-10
19
-52
8
-39
34
25
13
-41
-5
-111
-36
21
17
-3
-51
-41
11
60
20
52
4
-14
-13
-9
26
58
56
21
10
-67
-1
-35
12
54
6
-31
-9
-9
38
13
33
49
-9
18
30
-2
18
30
9
19
-2
14
4
36
-20
-37
-23
14
-26
-12
17
-33
55
-36
-49
9
29
-52
-40
-44
7
-2
-22
39
-46
9
-49
28
10
4
14
-20
5
17
17
-6
46
-12
39
-5
13
-35
-55
-44
-3
-30
10
-49
-2
-38
-26
15
17
-75
-56
37
-38
-29
-12
-17
2
-15
-56
31
-37
22
-8
-59
15
-10
25
-40
-10
-60
39
-24
-49
35
-41
44
-15
-17
-17
-21
44
19
-13
-16
53
40
29
-6
-2
-42
33
16
25
53
-32
30
38
-3
-16
-20
-7
37
-41
0
0
2
0
-35
-7
-17
12
15
-6
-12
-14
-14
-21
29
-11
-5
24
61
6
17
5
-6
-20
24
22
15
-13
-13
-10
-10
-10
34
20
-30
-23
-22
1
13
25
-21
36
-67
-7
-5
41
35
-15
25
-32
-8
-14
-16
25
3
22
-67
11
30
16
0
-44
15
-75
54
-22
18
-57
-2
-11
5
-3
16
4
37
98
-11
38
-6
22
-29
22
18
-9
18
-34
-27
-41
32
-60
44
54
21
6
19
13
39
20
-69
34
-8
-58
41
0
-34
-9
16
43
-50
-16
34
-19
-22
-23
22
56
-26
-15
2
4
1
17
1
12
-13
25
21
-15
-38
-33
-20
47
-47
7
-8
21
10
-6
-26
4
13
10
8
-4
15
14
9
42
-44
-3
11
-23
18
3
-21
34
-37
-9
-24
-31
41
11
-1
-33
7
-27
-9
-19
30
14
-14
-15
-6
-5
10
28
-24
12
-15
29
-40
-38
28
-8
7
22
-7
5
-27
10
-41
-38
30
22
-15
-49
12
33
-11
-14
37
10
6
-20
9
17
-10
24
-37
-15
53
16
-31
25
7
13
-2
-24
22
40
11
32
36
50
-11
-41
41
-31
4
-48
32
23
-2
15
-19
5
-23
-27
-11
-7
14
10
3
4
41
5
-33
34
3
-48
27
4
-14
-32
-48
-20
-39
6
-39
-6
-16
-81
-28
24
25
40
-12
4
-25
0
-39
-9
-3
-14
-13
-17
-17
15
0
12
12
-4
2
-42
20
-64
9
2
2
57
-13
13
-43
-19
-11
1
-76
22
64
-13
14
11
18
-25
27
21
-30
48
-5
-15
-33
-12
-29
64
10
20
-22
18
-8
-11
17
11
-26
5
26
25
30
26
14
-5
-26
-14
-22
20
27
-11
-18
55
36
3
-19
-14
-25
12
-13
-14
24
10
9
-34
-27
-7
1
-63
-3
29
-11
33
-33
-19
-26
-35
14
-9
-11
61
-19
13
-17
16
-12
-1
27
19
-39
5
46
1
2
6
-6
-31
6
23
-26
6
-52
-14
-12
19
10
-21
15
-44
-41
-38
37
-21
-30
-44
-18
-37
-28
17
-11
-23
-50
46
-6
26
2
26
-22
46
12
22
58
-14
-17
15
-45
18
13
-9
-1
47
31
-17
-3
10
1
-53
-47
-34
18
-12
80
-59
-64
0
-1
16
-12
-2
-55
-49
30
15
25
