576
0.03122613
-0.11994464
-0.053147744
0.030581612
-0.04357893
-0.005044774
-0.060788594
-0.02592064
0.07719121
-0.018189913
-0.0142689
0.09147355
-0.12248381
-0.01329373
-0.011216415
0.058011428
-0.013856299
0.05909267
0.0540377
-0.1306815
-0.09305774
-0.044424735
0.013785578
-0.058963194
-0.03553679
-0.02032016
-0.07978954
-0.020607289
0.03881298
0.06526768
0.043126132
-0.07857365
-0.03585892
-0.01690527
-0.063803025
0.041721962
-0.026398718
0.03565125
-0.011339529
0.02466422
-0.030536612
-0.055641297
-0.059093338
0.06010379
0.032388717
-0.0829612
-0.0858062
-0.03269399
-0.048525035
-0.057117227
0.097972
-0.07317105
-0.04303988
0.012946606
0.04614869
-0.19263788
0.016438114
-0.0980823
0.015784346
0.017271848
-0.05145489
-0.023630086
-0.05524384
0.013084831
-0.06777811
0.027906487
-0.020137966
-0.06456181
0.009549281
-0.017056122
-0.023237105
-0.025893204
-0.05198888
0.0004178784
-0.04841301
0.0018956596
-0.082220174
-0.030674923
-0.08103478
-0.07358143
-0.07159558
0.030679842
-0.018716792
-0.06446204
-0.09271086
0.009223741
0.11580851
0.046803784
-0.08054065
0.036227882
-0.09982091
-0.008474041
-0.013938643
0.00027276832
-0.10437848
0.00896737
0.063271806
-0.04921213
-0.053474665
0.000424542
0.010713199
-0.08192932
0.062336367
-0.03741796
0.034921665
-0.08006625
0.06852202
0.014421249
0.043099154
0.040729363
0.08527131
0.10252956
-0.066326
-0.094392054
0.018663349
-0.03923719
0.04038519
-0.006966686
0.014301652
-0.037139174
-0.058746535
-0.07092927
-0.00037376967
-0.028484063
-0.023690615
-0.046345647
-0.059973992
-0.0824142
0.021119917
0.014992952
0.015687943
0.044185564
0.016062913
-0.08341714
-0.12587774
-0.036669362
-0.11374788
-0.23980685
-0.0060054297
-0.02209485
-0.04677165
-0.09795912
-0.014167654
-0.04652241
-0.06666042
-0.011812808
0.06624738
0.07448097
-0.1255174
0.0015963858
0.065896675
-0.00046201167
-0.063291416
-0.046767678
-0.14034311
-0.13256809
0.030209318
-0.0105019
0.0020937917
-0.1166932
0.03598454
-0.08268626
-0.0007658538
0.007289388
0.058103655
0.02744971
0.027761916
-0.05488548
-0.023342904
0.035929
-0.07638834
0.0013425726
-0.075966924
0.002152792
0.012548739
-0.063884504
0.13071217
-0.046022896
-0.020061841
-0.07292844
-0.11574294
-0.033162314
-0.062067296
-0.031167703
-0.11446621
-0.08366095
-0.016265156
0.08813814
-0.03050992
0.0019218815
-0.01243687
-0.036849324
0.0810285
-0.01726016
-0.033143356
-0.0073318128
0.027762055
-0.11580354
-0.05192212
0.031275492
0.03792092
0.037626013
0.049862135
0.02522448
-0.122059226
-0.0060935034
0.02661298
0.031102762
-0.029903032
0.031889696
-0.0057969363
-0.12386473
-0.016047383
-0.092342086
0.05086119
-0.026803285
-0.03306602
-0.1275224
-0.00065730955
0.044862036
-0.04323135
-0.09692097
-0.019420076
-0.118803464
-0.031137215
0.0051619476
-0.037091002
-0.06761834
-0.06979033
0.08138508
0.01910642
-0.012548036
-0.03992668
-0.04197982
0.003336352
-0.03236036
-0.08666433
0.006426557
-0.023381213
-0.0019602387
-0.030370872
0.0058552427
-0.08939939
0.017328922
-0.04553939
-0.01737617
-0.098931365
-0.076087385
0.061326694
0.054723054
-0.07758934
0.012311377
0.041889742
-0.003854581
-0.05181299
0.004286265
0.01970156
-0.055982098
-0.029714432
0.019621434
-0.07081379
-0.039255362
-0.0071769804
0.055337593
0.054455373
0.0029393716
-0.008759653
-0.010751166
-0.06651348
0.043122973
0.01968158
0.05084026
0.031573124
0.043606956
0.026507052
0.0109859295
0.061738767
-0.0883198
-0.06191002
-0.030258304
-0.058732975
-0.05048503
0.036308188
-0.11593786
-0.03574571
0.113694735
-0.06369865
-0.05507182
0.022056662
-0.0039981715
-0.037826557
-0.041310366
-0.06882108
0.006045496
0.045448773
-0.07416791
-0.013397717
0.055737972
-0.04482411
0.042975187
-0.019598182
-0.02272154
-0.05460956
-0.074557014
-0.17206988
-0.020519033
-0.03751977
0.052906465
-0.01645035
-0.060104366
-0.054142725
-0.017037787
-0.0806766
0.0521426
-0.034568258
-0.027357455
-0.06584449
-0.04994148
-0.00024009147
-0.082984135
-0.03687476
-0.018974833
-0.07694801
-0.051149935
-0.085307
0.026788626
-0.023009624
-0.017845972
0.024926703
-0.03131631
-0.16774656
0.009079309
-0.058379833
-0.0060172593
-0.026658745
-0.04053764
-0.10833976
-0.06639827
0.0009642469
0.008890318
-0.044557713
-0.055946518
0.019863714
-0.020293389
0.12648648
-0.124083765
-0.065139264
0.040456485
-0.006804914
-0.03943448
-0.10202618
0.023922266
-0.03411761
-0.053087212
-0.041251484
0.036981653
-0.0031864357
0.08188627
-0.028988706
-0.11640308
-0.058907256
0.07312791
-0.03219532
-0.06297195
-0.008753844
-0.0013549577
-0.036731955
-0.022402817
-0.01964654
0.0036173956
-0.042809404
0.048621386
-0.114181355
0.011487803
-0.12213629
0.0021696747
0.019441549
-0.22019538
-0.07520183
0.028357785
0.019622989
-0.13119383
-0.10977888
0.07393369
-0.024872977
-0.017945472
0.004010171
-0.070390746
0.020834912
0.015285798
-0.005729876
0.04857179
0.00977399
0.00967503
0.008095023
0.0015115158
0.06276094
-0.060855087
-0.004931734
-0.12174961
-0.033399433
-0.02545882
0.0926475
0.013501845
0.013981375
0.026714694
-0.021244159
-0.07090368
-0.009729449
-0.02973587
0.044473663
-0.07014005
-0.071866095
-0.006268177
-0.015841126
-0.022906363
-0.027725074
-0.10444597
-0.10072308
-0.04709162
-0.11632102
-0.030985337
-0.09425767
-0.03601896
-0.054353524
-0.0744634
0.014508591
-0.026333602
0.08724273
-0.03456643
-0.028085954
-0.020011911
-0.11548434
-0.007805378
-0.044397257
0.052589506
0.009404974
0.006770269
-0.065162025
0.017122403
-0.025703456
-0.026216902
0.039684955
-0.06861483
0.03132046
0.03941982
-0.031133411
-0.023605071
-0.09065087
-0.097158335
-0.037235573
0.065393716
-0.14468731
0.018432278
0.016921861
-0.0678569
0.01711124
-0.10640678
0.035941646
0.04464512
-0.030052392
0.03788509
-0.019832848
0.030482868
0.0048692212
-0.0042711585
-0.119621545
-0.013261437
-0.072092816
-0.06888385
0.06266946
0.09007803
-0.014022596
0.06890285
0.03237305
-0.12590168
-0.05377878
-0.010782764
-0.033596132
-0.096018255
0.015714463
-0.053623594
-0.033877894
-0.056865428
-0.05905316
0.0715916
0.055640996
-0.049359478
-0.095936336
0.0015724013
-0.0024009128
-0.065202706
-0.123277105
-0.074892275
0.017065708
0.076690875
-0.049582638
0.057950113
-0.073425926
-0.05152493
-0.02741485
-0.03515571
0.020516744
-0.031096047
-0.07882863
-0.12858015
-0.054084074
-0.064502686
0.02136505
-0.065990716
-0.10797121
-0.04703518
0.019713119
-0.024940033
0.00195625
-0.047847085
-0.040801268
0.13650844
-0.013965978
0.016006682
-0.047356058
-0.1094966
0.014792433
-0.02488729
-0.07089525
0.06230541
0.03345887
0.05592268
-0.018359067
-0.028644497
-0.032594815
-0.07250336
-0.047217682
-0.11089901
0.03939896
-0.011123771
-0.050835352
-0.065875866
-0.05619198
-0.045697607
-0.07198194
-0.014342224
-0.0111369565
0.0035502198
-0.02667931
0.04088423
0.039629262
0.022385694
-0.004341892
-0.04986971
-0.006014864
-0.088936
-0.064165734
-0.025500799
-0.017397625
-0.019343615
0.003201433
-0.03135559
-0.16094282
0.0010808303
-0.11435718
-0.058754954
-0.07014524
0.019792158
0.06982384
-0.045531254
-0.0012948473
0.020569915
0.03645301
-0.05750783
0.021082964
0.04730895
-0.059282906
0.06708979
-0.05381449
0.056882072
