144
0.03690529
0.010035113
0.053264204
0.016109347
0.051671453
0.018479832
-0.039826747
-0.0049397033
-0.032543782
0.0038802256
0.053588748
0.027884148
0.08427066
-0.03909082
0.025180569
0.06388333
0.099183574
0.028491922
0.016380081
0.077869065
-0.010848466
0.044625707
-0.077277415
-0.019988306
-0.011129386
0.025762204
-0.08578437
0.025938144
-0.0038416646
0.043018393
0.083010286
0.056365244
0.06365279
-0.021670057
0.040757254
0.08218506
-0.014367311
0.103781074
-0.01042434
0.03500462
0.09030577
-0.022505227
0.046079338
-0.025829481
0.03232064
0.15800908
0.057846896
-0.018504273
0.03308977
-0.052720025
-0.0692241
0.033279456
0.06793102
-0.013262383
-0.05168976
0.0029620365
0.004663011
0.00394288
0.002663765
0.0074539073
0.0083526615
0.05148376
0.037088856
0.016257625
0.06366614
0.015856242
0.07521975
0.1216137
-0.0448546
-0.045497548
-0.008105905
-0.06158827
-0.07306583
0.04232207
-0.059029564
0.10388534
0.04433646
-0.03601308
-0.03423307
0.13418543
0.055832207
-0.0047025755
0.050849915
-0.040101863
-0.0016464442
0.0025404487
0.04162242
-0.012191728
-0.018767264
-0.022941194
-0.05320132
-0.082636364
-0.06019894
0.08804634
0.12310526
0.0212995
-0.07150579
0.019863611
0.023584522
0.054027155
0.04935975
-0.06629186
-0.02895318
0.07072957
0.0862709
-0.024978507
-0.029842485
0.06651131
0.058276232
0.07566698
0.20022857
0.03230439
-0.002471557
0.008054815
0.03178055
0.011057155
0.009566806
-0.016292
-0.026539173
-0.03112685
-0.026864946
0.0048965043
-0.0409127
0.08387848
-0.02903889
-0.0070507745
-0.009336896
0.072223805
0.011892952
-0.12625545
0.025807591
0.074297115
0.071533576
0.10457339
0.012117209
0.033525266
0.035943266
0.017624617
0.019451914
0.026186142
0.12771049
0.11719717
-0.0017814608
-0.021572609
