960 1 3 3
19
29
23
-24
-14
-11
-38
-11
-40
-63
17
122
-57
-9
82
-79
12
123
22
29
11
-13
-32
-30
-30
-38
-9
-49
-26
10
20
-19
-32
30
1
-83
-18
23
30
-7
20
22
27
43
28
-41
-10
29
-40
-25
54
-49
13
33
-47
50
-47
-23
51
-26
-21
100
-20
-9
31
34
-4
11
10
48
33
73
40
-4
-25
21
2
-49
25
-26
-46
29
15
32
6
3
17
19
15
26
-37
0
-13
-47
7
-42
-6
2
-40
-19
29
-62
-14
23
-49
0
20
-42
34
-29
-34
42
-12
-49
55
-3
-83
-36
-44
-44
-14
-17
-2
18
31
17
-20
-7
6
7
-10
17
107
61
84
44
12
-72
22
20
-54
46
28
-83
23
7
2
7
-14
-54
0
-38
-35
-35
-29
-29
-7
14
-3
17
26
51
-40
-10
45
-37
-2
38
-36
-2
52
-20
-48
-4
2
-15
-12
6
-30
-10
-91
-9
87
26
-24
13
55
3
-66
16
-27
-45
11
-22
-16
-22
-35
-8
-18
-43
-17
6
5
12
42
61
64
-28
-34
2
-14
-16
11
-19
-44
3
9
1
14
29
11
23
37
20
60
27
22
21
-2
-18
-26
-24
-31
-33
-23
-29
-48
-18
-3
4
49
50
67
-41
-19
-22
-9
9
-17
-31
-22
-20
-33
-17
-12
1
18
-7
22
77
36
-17
-16
-23
43
30
38
8
11
2
-34
-7
-28
-25
8
-21
-22
-22
-23
-21
-16
2
-17
-20
5
-32
-32
-11
-56
-28
-15
-17
17
23
0
59
20
-13
-23
-44
4
-5
-33
29
19
-13
13
-13
-11
-10
-28
-26
-12
-29
-26
18
54
19
-15
43
10
-20
33
-13
-38
-11
-29
7
38
36
-7
12
17
23
15
5
3
3
-1
-49
-33
-4
-26
-19
-21
-16
-1
-11
-18
-52
-8
-46
-36
-48
-10
-18
-12
23
16
13
-6
-12
2
0
0
5
30
37
38
-23
-25
-6
-43
-33
9
-11
13
42
-26
-2
-8
-24
-11
-24
-39
-7
-37
46
20
48
37
1
38
-1
3
9
23
18
26
-28
-17
-21
-40
-20
-22
-38
-30
-42
-7
-7
-24
48
25
30
-2
-4
-7
30
26
14
29
35
13
32
47
38
10
29
11
-21
27
19
-2
-2
23
-5
31
14
14
37
9
-28
-36
-55
-4
-1
0
6
28
19
-4
5
9
8
47
45
-12
3
6
-59
53
2
-61
41
26
-58
34
26
27
27
12
0
-10
-24
-45
-32
-30
-15
-18
-28
-55
-46
-27
11
11
32
-27
-17
-28
-9
-4
3
36
42
47
50
37
34
21
-10
-10
-7
-23
-14
6
12
-21
22
65
10
-9
20
-1
-47
-27
-38
-4
40
6
7
51
-7
-3
-6
36
-52
-10
8
-57
5
28
14
16
6
-5
30
17
4
39
31
-14
12
-8
20
49
53
-13
21
21
0
15
12
-35
-22
-18
-41
-24
-18
2
21
4
14
40
14
11
33
21
21
15
5
-17
-7
-20
-43
-39
-31
-49
-41
-31
-30
-4
42
58
45
34
-39
-4
5
-53
-18
39
-29
-19
-1
2
2
-9
14
63
56
-5
26
10
-45
-12
24
-66
-9
37
-65
4
40
-34
-15
-42
-11
-1
-17
36
22
20
-6
-8
-7
-2
-19
-20
17
65
34
-38
-10
-47
-24
-5
-16
-4
-14
-32
-40
-30
-35
-26
-14
-12
10
30
19
-5
50
49
-23
10
-3
-29
-3
4
-13
1
2
-35
-23
-31
-30
-23
-36
7
30
26
-11
-23
-21
-27
-46
-47
-52
16
-57
-25
-3
-23
-10
-26
-33
-20
-32
5
-9
-27
1
-23
-23
-13
-26
-27
-49
-12
-13
0
24
26
11
30
22
-4
-8
45
40
-35
18
37
15
23
25
-26
-21
-5
-19
-20
-27
-18
-17
-21
-31
-13
-31
-17
-17
-8
-17
-40
16
-14
-68
42
86
-57
-25
-43
1
36
-54
-14
23
-39
21
45
24
66
5
-15
38
-13
-18
-6
-16
-11
-11
-21
25
51
35
-33
-17
-24
-21
-25
-35
-1
5
17
48
26
29
-40
-36
-44
22
-19
-12
2
12
-5
-30
-16
7
-52
-18
35
-39
-8
35
9
25
16
6
-18
-22
-6
-44
-33
86
-48
-57
37
-54
28
23
-13
5
-56
-51
-44
69
59
51
-59
-36
-57
-28
-27
9
-21
-11
-13
-17
-26
-43
-44
2
-15
49
81
11
-8
-9
-37
-1
29
10
-40
59
3
-24
66
5
-27
-27
-21
12
-6
8
36
48
5
-29
-20
-13
-3
29
18
27
35
36
2
9
-5
-32
-15
-40
-13
-11
-34
-53
41
21
-63
39
20
-67
7
17
6
-9
1
-21
-13
-11
16
69
43
6
11
25
3
18
42
22
26
65
-42
-35
-28
-10
-12
8
7
18
15
-13
-10
-16
-35
-26
-18
35
36
27
-12
-33
-18
22
19
61
8
10
40
-21
3
-18
60
44
-107
-109
47
35
-25
20
61
-15
9
67
-15
2
44
-35
-4
-43
-14
-8
-15
-32
-18
-30
-18
-4
13
-32
-23
-32
-27
-44
-31
-14
-29
-26
-7
-13
-12
18
57
10
16
18
15
35
11
15
15
-1
8
-24
8
28
-54
-2
1
-40
-3
29
-42
-10
-37
-3
8
2
22
9
16
-7
36
-60
3
49
-60
22
47
-24
-30
5
-26
-43
-9
-33
-3
-16
-29
31
-15
20
3
-30
0
-20
-50
-17
-56
-2
30
-49
-2
36
-29
-17
36
-25
-42
-30
2
-7
-26
15
15
3
-2
-21
-19
7
1
9
33
50
52
-9
-56
-69
24
4
33
7
-24
-9
27
-3
-56
5
36
-56
9
48
-24
11
-2
9
10
13
20
-48
-44
-52
15
11
17
7
16
47
0
3
44
-10
-19
-23
-3
11
0
20
65
39
12
28
17
-24
-27
-29
-35
-28
-30
35
-1
33
10
-5
8
-32
-29
-47
-2
105
-92
3
82
-86
15
40
-29
-39
8
31
-44
-32
49
-49
5
37
11
6
-1
1
3
-16
20
68
12
28
30
22
-14
-18
0
-35
-26
-50
19
-13
-56
6
-18
-38
-34
-37
-42
-26
-19
-5
30
67
51
0
-31
-40
-17
-15
-10
13
20
27
-49
-35
-43
-31
33
34
-27
14
47
15
9
-5
-16
-24
-26
-8
-2
-23
-27
-18
-11
2
-35
-49
21
-13
-46
35
8
19
65
59
80
35
-2
49
71
45
92
-32
-9
-26
-23
-3
-17
-23
-16
-26
-43
11
-39
-36
9
-23
-12
-11
-34
-24
9
-38
-20
18
-30
16
87
14
-16
-19
-43
0
13
-25
-5
17
-33
12
5
0
55
29
43
-7
-9
-11
-33
13
-40
-38
5
-51
-28
11
-14
-18
-13
-21
-15
0
-26
-21
-26
-26
55
-15
-58
34
-11
-36
22
-7
-23
20
-16
-19
26
-17
-21
37
-35
-53
20
10
-15
-6
-27
-38
-16
-16
-29
30
-10
-43
-34
-46
-7
24
41
28
-49
6
43
-35
-7
22
-60
4
47
-14
-14
-28
31
25
48
-2
6
8
18
-20
-20
33
-19
-34
40
-17
-59
-8
1
6
0
29
7
17
45
29
-46
-5
-43
-13
-13
-20
15
25
7
13
5
14
22
3
15
22
22
24
11
15
8
36
33
2
-1
27
-7
-42
11
28
-27
44
43
-32
20
38
30
-23
-40
38
-23
-50
31
-18
-34
26
27
25
-11
-24
-1
-27
-24
-26
30
25
34
-4
12
20
-36
-34
-26
-39
-26
-25
-14
6
5
-1
28
53
30
-4
37
32
27
17
6
11
-16
-15
-11
-23
-25
-2
-21
-32
-16
-28
-37
-14
-34
-44
68
20
-56
91
37
34
8
-53
26
9
-49
38
38
-48
16
-36
-22
35
12
25
-1
-55
-60
4
28
25
12
20
15
13
11
4
-18
-31
94
-29
-15
45
-57
1
69
-30
-5
-23
8
13
11
33
54
51
-56
-4
38
-39
-6
20
-45
-22
49
-8
-2
-5
-9
19
6
34
67
15
33
37
36
-8
-9
2
-29
-19
-24
-21
-10
28
-22
-28
40
-47
-3
28
52
23
61
-1
-10
-37
-37
-33
-33
-35
-19
-52
39
40
34
-29
-11
-7
-17
-11
-20
-8
4
-5
30
53
37
-62
0
25
-67
14
34
-65
26
25
-13
-4
10
8
-2
47
9
35
58
26
30
27
-3
2
-9
-29
-14
-38
22
-8
24
-11
-27
11
-37
-54
11
-69
-19
-26
-31
23
46
-26
60
60
-49
-32
-41
-22
9
58
14
27
43
9
1
14
14
19
32
18
26
19
-12
15
-53
59
42
25
-20
-27
-13
29
33
7
-21
-3
-34
-48
-25
-49
5
62
24
25
35
17
1
38
17
-13
34
-59
-25
50
-42
-37
89
1
-34
-55
-42
-24
40
-27
-38
-16
-33
-23
0
9
24
66
33
-30
51
3
-41
-26
-42
-11
-9
-16
21
39
14
-9
27
7
33
35
17
-3
33
-3
2
-15
-3
-29
-27
-10
-27
-34
-9
-51
8
31
-23
2
43
-46
1
55
0
-19
-18
-16
-14
-41
16
-34
-8
4
10
-3
14
23
32
0
23
36
-40
19
7
-61
76
-4
-29
59
-62
62
-7
-34
49
-20
-45
-30
-11
-8
-52
-54
6
-5
-39
12
23
14
33
-36
-45
-48
62
32
48
-30
1
11
-28
-45
-8
-19
-33
-14
24
13
14
-44
-17
19
-46
-13
35
-11
-22
37
40
28
-67
63
9
-58
12
1
-35
-4
-6
14
21
22
35
11
24
16
16
-19
-35
20
-14
-36
13
-25
-52
-20
-11
1
-49
2
28
-34
5
47
38
61
-1
4
31
-24
2
42
19
34
-2
-36
39
-10
-42
19
17
-32
-16
-16
-8
24
19
62
10
4
20
-34
-27
-29
-17
2
17
0
50
21
-52
16
48
-25
-13
29
-43
3
5
-44
-15
-48
-16
-4
-20
16
9
19
16
16
15
9
17
18
15
23
19
-41
-49
6
23
-41
65
-36
57
-2
-20
-3
2
4
12
38
40
39
49
27
23
24
-5
-5
-23
-48
-49
-23
-13
-9
0
-30
-21
-24
-24
-22
-17
-29
2
-40
-5
12
-33
-30
-12
-37
-37
-53
29
-80
-44
68
-4
7
50
-20
-36
-34
2
-22
-15
9
3
22
-11
-45
-43
2
0
13
-14
-21
1
-25
-49
-31
-16
-25
-11
37
37
23
-49
-44
-47
-2
-2
-8
17
20
20
18
22
31
-26
-5
17
-39
-25
-4
47
-9
-41
37
-8
-35
40
-2
-38
-9
-5
4
6
18
21
27
35
21
29
11
-22
9
-18
-65
-35
-53
-26
-40
84
-31
-6
61
-40
-20
25
-5
-17
-3
-6
0
18
11
29
66
35
-52
-32
-18
10
-18
-48
26
28
41
-28
-29
-36
-10
-24
1
18
35
37
29
30
43
-29
-18
-15
-11
1
-11
-15
-15
-8
36
43
31
-8
19
9
51
37
37
23
0
22
12
10
4
-48
7
23
-36
-6
26
-52
-2
40
-39
-19
-32
1
7
-20
14
48
21
38
89
27
-1
19
-12
-15
-9
-8
70
33
55
30
-8
18
59
38
29
38
30
35
-4
5
5
-29
-36
-29
-34
-35
-34
-7
4
8
11
12
15
23
-9
-25
23
-24
-56
-69
2
49
-8
61
-27
-8
78
-45
-14
36
-16
4
0
-11
1
38
-14
26
64
0
37
-5
30
-48
-27
-54
28
23
37
-42
46
-38
-35
40
-11
-19
55
-42
-30
-22
-24
-20
10
54
60
33
62
-26
-18
-33
4
28
-16
1
84
-4
6
26
47
5
29
5
-24
-19
-30
40
-24
-56
10
34
-9
52
-38
-68
-33
-36
-4
-47
-28
6
-3
26
31
-22
-22
-24
-14
-2
-10
-28
-23
-20
-8
-32
-23
-36
-34
11
29
36
28
24
16
9
-35
-35
-32
-26
-33
-29
33
7
-1
24
17
13
26
4
13
-19
6
-15
-10
91
3
-50
52
-5
-40
-39
32
-20
-28
38
-55
18
31
-23
-42
-37
21
30
8
-41
-30
-28
-45
-18
16
-50
-2
29
-41
-14
1
32
45
35
5
-2
12
0
11
5
-29
-30
5
45
39
64
-36
-6
18
-19
-24
-25
11
4
-14
31
33
34
-12
-25
-24
-18
-23
-11
-23
-11
-18
-37
-28
-23
0
0
3
32
28
50
-46
-22
-31
-19
-19
-18
-9
-35
0
0
-27
-25
35
15
1
1
57
47
16
-2
-10
-78
38
94
-27
-8
18
-37
-29
47
-35
-16
36
-45
-11
58
56
5
15
52
9
40
-70
-41
-29
-29
-27
-1
-16
-31
5
-9
-51
9
28
-3
1
72
-5
-10
76
4
-39
21
14
23
-33
-12
-21
-36
-37
-28
-50
-41
-49
17
18
18
10
34
9
-20
-7
12
-14
-6
2
33
75
54
4
4
-22
9
59
30
-13
84
4
-26
-16
-46
-47
-3
16
8
52
36
-2
7
6
11
18
17
32
28
29
-4
9
10
7
13
15
45
76
40
-20
-3
-9
6
45
-1
18
81
-9
-7
8
-10
-10
0
10
14
50
54
12
35
22
1
42
9
21
34
23
-35
-32
-41
14
14
15
24
24
22
22
0
7
12
23
23
20
15
24
-9
-43
-15
-22
-9
-32
-33
-20
-29
-5
26
-55
-7
49
-74
3
26
-50
54
32
27
15
-11
-14
-36
-35
-31
-9
-2
-12
-24
-17
-5
-41
-31
-36
42
-27
-31
50
-19
-34
40
-1
-58
36
3
-33
47
3
-37
40
2
-51
-30
-24
-29
-5
12
13
17
36
35
-37
-26
-44
2
17
-2
-36
-9
-42
-1
2
-21
34
30
33
-4
22
1
-30
-31
-23
-1
-8
-6
40
28
20
-7
-18
-33
-21
-22
-16
-27
-28
-2
-10
-25
-26
-12
-15
-10
-27
-22
-15
16
-9
-44
27
-13
-54
5
8
-31
-27
-21
-2
-10
26
14
40
39
14
9
2
-8
-16
-13
-14
-30
-28
-29
55
35
39
26
1
8
-5
-9
8
-65
17
11
-42
-1
7
-55
4
11
0
16
3
-33
-24
-25
-27
-14
-28
-34
-30
-23
-10
-13
-5
29
43
15
-20
41
-39
-52
18
-61
-30
24
-30
7
38
-36
0
64
-2
8
30
0
-34
-49
-11
11
4
-32
22
15
28
-50
-28
-7
-35
29
68
-15
18
16
-19
-30
-19
-10
-30
-18
63
39
43
18
23
12
4
-3
-3
-49
-37
-41
29
19
-40
10
-24
-42
3
-47
-28
-33
-13
-19
-11
-36
-29
66
71
73
38
22
45
33
6
7
34
17
45
-17
-16
17
-32
-46
-20
-4
-15
2
-39
-32
-26
-21
55
33
-22
84
0
-19
-46
-36
-3
-2
1
24
25
21
-51
-9
-30
-17
6
-10
-37
-14
-32
-36
-20
56
-38
3
59
-26
27
5
-32
-18
-41
-17
-20
-28
31
43
35
15
28
3
10
4
12
-30
-52
-32
-21
-6
-34
-26
-24
-11
51
41
20
-10
9
25
-29
0
18
-46
-30
-3
9
2
18
39
16
19
25
30
44
-51
-17
20
-38
-17
36
-48
13
45
6
16
11
-25
-16
-45
-20
-9
-23
-5
3
0
16
26
16
43
37
33
-13
-2
-13
27
27
24
38
17
41
-4
-14
-23
-38
-27
-21
38
33
33
-9
29
-17
-33
5
-37
-35
-16
-33
76
35
73
2
6
0
-24
-3
0
-21
-24
-26
-13
-10
-23
28
62
23
20
-5
23
-14
-35
-9
-14
-48
-24
-43
33
-49
-40
31
-42
-23
12
-35
42
48
44
-10
-18
-10
-33
-39
-20
66
8
-49
17
22
-32
57
43
-53
-49
-21
-26
-6
22
-32
-35
-7
-39
-57
5
45
-66
8
55
-26
10
31
-59
11
44
-39
1
19
-48
15
18
-21
-33
-18
0
45
49
12
28
52
-5
2
-1
-29
-22
-20
-15
-17
-33
-27
-20
-37
31
24
27
11
13
29
-24
6
-16
-43
-16
-15
20
44
56
-79
-9
63
-40
-24
65
-24
-26
18
-1
23
27
17
24
23
7
44
1
-21
-1
-28
-21
-3
-20
-41
-24
-21
27
19
21
-15
7
-9
-50
-36
-62
-66
-24
-13
-31
70
82
-26
75
50
13
8
-5
-15
-12
-5
23
79
39
-47
-11
11
-25
-37
-32
32
12
8
53
-2
-59
36
-9
-45
51
3
-62
-80
22
62
-39
23
54
-57
31
41
-50
-2
26
-55
0
30
-49
-8
41
1
11
2
-26
-16
-25
-25
-25
-38
-20
-26
-22
11
17
10
-48
-61
-36
-36
-30
-38
9
78
-42
6
43
7
15
25
-30
-16
51
0
-84
73
61
30
5
26
32
4
21
38
-16
26
-24
-26
-24
-32
13
-17
26
51
26
-2
34
23
-16
15
48
-37
43
25
37
47
37
-6
-30
-10
-14
-42
-42
-34
19
-35
-2
-38
-40
-29
47
-39
19
-4
-38
54
-10
-36
35
-7
-57
28
7
-38
35
13
-65
32
1
-50
-46
-20
-71
5
21
0
28
35
55
0
27
48
41
7
3
-51
-50
-42
-2
-20
-14
8
59
38
-52
-54
-63
-27
17
-63
-34
-9
-40
-14
-34
-31
-36
-1
21
-47
10
35
-25
-9
22
-26
-28
-20
51
39
53
-66
-16
-56
28
18
31
14
6
24
35
21
26
-36
-39
-25
33
34
13
-5
-28
8
-5
34
66
-19
-25
15
-9
20
19
-27
-24
-23
29
22
30
2
0
-3
-34
-24
-35
5
28
4
27
42
36
-13
-18
32
-20
-34
33
-33
-39
7
-15
-26
-34
-21
-12
-17
13
60
26
-23
-1
30
-48
3
30
-51
-7
32
28
17
41
0
18
-8
-42
-42
-32
-5
-28
-19
-9
-13
-51
23
90
-4
-22
-22
-35
34
39
64
-14
-37
-48
-22
-7
-6
-4
25
42
9
46
33
-63
-7
37
-39
-5
28
-41
-15
61
11
10
14
-6
-20
-23
-30
-18
-36
14
-1
-4
25
24
21
14
22
30
29
48
47
15
-30
-5
-19
-34
-43
11
4
-7
17
29
16
9
22
21
-35
-34
-36
-19
-17
-27
20
13
23
1
23
3
-35
-25
-42
-31
-23
-27
-26
-18
-31
-19
-15
-16
-19
-17
-20
-37
-11
33
-35
-18
62
-41
-16
26
91
-31
-64
0
-6
-2
-84
27
77
-37
-26
-29
-20
-4
-19
4
-8
-6
-5
28
24
17
47
21
4
-4
-6
-35
-16
2
-18
35
72
-6
21
29
23
13
19
13
16
11
-55
-53
-49
-11
39
-54
45
23
-77
22
13
-28
-13
12
-28
-12
-16
-28
-35
-16
-20
-37
-2
-39
-40
14
-37
-40
15
-37
-20
-21
-2
29
45
34
-32
-29
-24
33
14
33
-22
-11
-24
-24
-22
-31
34
7
-63
21
22
-48
25
3
-55
-34
-12
-40
11
52
25
-34
0
-13
25
2
10
32
16
14
21
8
29
-35
-28
2
-30
13
27
13
32
59
-50
77
-21
-56
51
-11
-66
49
4
-43
-40
30
-39
-4
43
-51
5
48
-20
-17
-47
8
41
30
15
-12
-19
5
33
11
-10
75
17
-13
12
-10
-43
-21
-33
-14
-12
-12
3
5
15
-26
-16
-45
14
15
-1
19
85
26
11
9
6
34
13
52
13
-8
13
10
8
55
10
4
32
-19
-1
12
-19
43
2
-6
82
27
-27
45
2
-5
-33
-15
17
13
4
-45
-28
-45
39
13
-49
41
20
-47
26
-25
-30
-19
-19
-18
-6
-27
-20
25
53
15
-27
-40
-39
-6
-23
-23
35
18
22
2
6
-33
56
41
18
-23
-29
-33
-48
-24
39
-47
-2
26
-16
11
16
-16
-5
-4
-13
-7
15
-1
49
54
-44
19
7
-61
6
39
-49
-9
65
-13
-26
-28
-13
-11
-6
-18
-20
-26
-34
44
-10
-28
51
-18
-38
53
-25
6
5
8
9
16
21
24
15
34
-43
-30
-20
-6
-3
11
-49
-17
34
-16
-37
-40
-14
2
-36
40
15
36
-2
-6
-3
36
64
40
-1
-4
-2
-63
-20
-51
-26
-5
-18
-31
-3
-42
44
9
26
31
22
35
-14
-7
10
22
48
40
26
44
12
-23
-20
-36
48
-21
-59
-36
15
4
-111
37
67
-5
-24
-17
-16
-16
-23
-7
-27
-27
-9
-3
-11
-28
-22
-27
-25
-25
-19
42
61
-10
24
7
-48
26
-17
-26
23
18
29
16
6
14
22
14
9
-13
-18
-12
-31
-26
-31
5
7
-11
23
30
30
-33
-20
-44
-39
-17
-43
19
6
24
-12
-22
-2
-46
-27
-28
17
24
24
-28
-50
-27
11
-5
9
64
31
60
-26
-18
-17
-15
-12
-26
40
22
-43
-16
-50
-31
-57
19
31
103
-2
-48
70
-27
-36
58
-47
-12
11
14
-54
14
-11
-57
14
-12
-35
-22
47
4
-31
41
-26
-29
56
-14
-3
4
13
-50
-6
11
-38
-44
-24
45
16
56
-7
-13
-9
-36
-38
-36
-4
-8
-4
-33
-22
-24
-29
-19
-17
2
32
-12
-74
-14
-59
-4
31
24
-38
0
-30
-11
15
-4
-45
-8
-32
26
12
-51
31
0
-32
17
-10
-47
36
1
-55
57
-16
-85
-11
-17
-27
22
44
44
5
1
5
-20
-23
-30
-10
-20
-14
-22
-30
-5
35
53
35
30
4
8
-38
34
76
-15
20
8
-6
-10
-11
-4
-1
5
23
42
51
-46
4
49
-37
-11
32
-54
-4
32
-31
-72
-17
41
-8
-24
24
-25
-32
30
-2
26
28
12
44
34
18
21
-39
-19
29
-47
-6
44
-42
22
39
-24
-17
-22
-27
-29
-20
27
57
37
-27
-14
-28
48
21
49
-29
-36
-33
31
39
22
16
16
-4
-29
-6
-35
17
20
44
19
16
23
-1
-1
0
-40
-24
-35
-23
-23
-24
10
5
8
-21
-11
-30
-22
-4
-9
-23
3
-34
23
9
14
19
-9
29
38
21
27
38
-3
56
46
-4
40
15
23
14
-7
-7
-10
-21
-7
-37
-31
-18
-35
-20
0
-42
-3
19
-15
22
57
27
-39
-27
-31
6
39
22
25
17
16
13
20
35
0
36
45
-48
2
23
24
11
-26
-19
-5
-33
-43
-9
-25
-17
-29
-29
23
19
28
0
12
21
0
-11
-4
15
-26
-4
71
38
28
0
6
12
7
15
40
15
42
20
37
42
29
11
7
20
-1
9
12
28
-4
-4
66
37
-31
25
28
2
-58
-38
12
-25
-16
-17
24
17
32
-11
40
32
-18
28
22
-1
48
-18
-71
43
-33
-11
38
-21
18
-60
-58
13
5
10
-22
-24
-29
-12
-8
-14
18
16
-40
33
22
-47
16
7
-79
-13
-44
-22
-29
-28
-20
0
-16
-2
12
-18
-26
-33
-43
-23
8
33
29
-44
-26
-53
-10
7
11
59
37
43
17
35
12
0
21
12
18
16
25
-36
-29
-21
-16
-4
-9
-15
-32
-1
-26
-41
-48
34
32
34
27
59
32
-12
-46
-36
-11
35
-13
49
63
7
23
-18
-26
37
7
-58
32
6
-71
-22
-44
-30
-18
31
47
-20
44
-3
20
24
-1
-7
-18
-18
-38
-30
-23
-6
0
66
34
13
72
-11
19
14
27
17
21
18
4
18
11
13
18
-36
23
-47
-18
27
-50
-16
7
-42
-29
3
-38
-25
-1
-19
-29
-7
-33
-37
-33
-22
-8
-19
-2
-35
52
51
24
37
30
-47
13
41
-23
-44
-29
-48
-23
-42
0
14
-4
19
35
35
41
38
39
6
-6
7
10
-2
-2
-18
-22
-24
-17
-1
-29
-30
-29
-20
-58
3
58
-56
-26
45
-49
-33
26
-18
2
21
-26
-19
-21
-24
-33
-32
-38
-12
-35
-5
0
0
26
41
36
-1
8
-2
-28
-40
-52
35
41
23
21
25
13
-13
-29
-37
-17
-23
-34
-45
-34
-41
-4
-6
-3
16
11
16
2
-11
4
-7
-30
-10
-6
-34
-23
22
27
16
13
35
15
0
15
5
35
48
25
-2
5
0
-6
15
6
24
-14
-48
5
19
-34
31
-13
-49
-50
55
9
-66
25
34
-37
-10
26
-49
-50
-66
44
50
41
-31
-36
-42
-30
-7
-24
-35
-14
-42
9
-1
-9
-10
0
3
-2
21
36
14
24
41
-35
-3
44
-32
5
49
-38
-14
53
-9
18
3
-46
-2
-35
-31
-6
-12
-37
-34
-35
31
38
17
-35
-38
-39
3
13
20
36
26
22
15
27
23
16
28
42
-46
-12
26
-45
-27
-6
-8
21
15
-28
-34
-15
-32
-15
-33
-40
-42
-35
-3
-13
-23
14
40
14
-24
-34
-44
-3
-31
-18
25
29
22
43
-52
-16
27
-60
-5
20
-44
-13
29
-7
-48
32
-8
-41
23
-3
-49
-39
-12
38
-36
-18
41
-43
-20
7
-38
-33
-10
-30
-24
1
38
25
42
24
1
-83
13
-32
-36
-80
-37
69
-14
-8
-13
-13
-5
-15
-30
-17
-21
-90
40
17
-50
-4
62
-35
-8
21
-41
-6
22
-65
-9
-7
5
-1
25
-18
-26
-25
29
35
34
14
14
10
-67
-3
11
-40
-15
-33
18
48
79
16
24
4
-6
-15
-39
-26
-42
-29
-34
-31
-35
-26
-22
9
13
33
58
-55
-53
11
49
31
-48
26
-38
-26
-30
-31
-36
-18
-16
-20
17
9
17
-27
-35
-18
-32
-2
-16
-43
-50
-22
-34
-37
-28
-10
-9
-4
38
25
39
-21
-33
11
-1
6
-12
-36
-53
-21
1
-43
-10
25
-33
-12
31
-26
-47
-29
-23
-14
45
52
46
-35
-40
-43
-22
4
-37
-31
17
-13
-44
-5
-38
-46
-3
2
-35
0
61
-30
8
59
-10
-4
-29
-5
-17
-13
-37
-15
-17
1
7
17
29
-3
16
39
9
21
-54
0
27
-54
-15
61
-37
-3
15
21
47
36
-21
4
-6
0
19
-2
6
11
16
21
13
29
24
19
26
-5
9
14
-33
-11
-23
-33
-15
-16
14
66
-38
14
32
-34
-13
63
-3
-13
2
-4
-28
-20
-20
-28
-17
-20
-34
-39
-24
-3
-5
0
15
9
13
-52
-37
0
2
-5
29
0
17
28
-23
-21
19
-38
12
65
-36
34
24
-21
41
84
-48
22
57
-48
14
3
-33
-25
-32
20
43
29
-28
-61
-36
-1
11
18
15
31
25
-1
32
9
7
14
14
25
-7
35
6
65
50
-14
76
24
-17
53
5
-30
22
-2
35
-8
-57
32
-15
-38
45
-42
-51
54
2
-59
62
-3
-26
25
-22
-25
-20
-29
-26
-24
-24
-13
-15
-9
-4
-4
-43
-18
-56
-9
64
-39
25
6
51
-58
-44
7
-50
18
-46
-54
78
-7
-33
-29
-16
-19
-16
-12
-37
-20
-18
-46
-20
-28
-27
2
2
-7
30
-26
-25
-22
-31
-23
-8
10
23
10
11
32
39
-6
17
19
-30
-24
-8
-47
-54
-61
30
-5
-25
54
32
48
-42
4
-18
-26
47
-35
-7
94
-109
-34
22
-15
-32
5
-27
-36
0
-25
-26
-35
-17
-17
-16
-14
29
35
16
13
20
3
22
-3
-25
-2
-46
-50
1
13
-9
-60
-10
2
-56
38
40
-10
-43
-14
-19
-30
1
-41
-27
10
-19
-34
-26
-3
34
-10
0
73
15
-3
8
12
32
68
79
-24
7
-16
-9
-35
-12
-16
-21
-7
-42
-31
8
6
9
5
38
17
53
29
6
36
-31
-26
-14
-35
-9
-18
10
25
-7
-19
-14
-15
3
33
30
7
28
60
-47
-8
-59
-6
38
11
-45
-22
-34
19
20
29
10
8
10
31
30
32
6
-1
4
13
6
17
-28
-40
-44
-29
-49
-19
-26
2
-38
25
9
16
-17
-16
-21
-1
-15
-20
-36
-22
-18
-18
-30
-31
-13
-13
-5
30
27
44
-45
-20
34
-34
-16
43
-53
2
43
-24
-7
9
-44
15
8
-59
19
33
-13
-2
-9
-1
5
1
33
55
63
57
32
33
5
1
12
-12
-5
-8
7
24
5
4
34
8
2
40
18
-16
-29
-24
-31
-13
-21
21
41
16
-25
-14
-20
5
-7
-10
35
40
48
-30
-17
-20
6
5
0
29
54
28
-25
-2
-35
-41
4
-48
-6
5
-11
20
-69
31
31
-69
24
9
-73
17
24
-5
-52
49
13
-67
-3
-31
-37
-54
-59
30
-84
-14
28
10
24
17
31
19
22
-2
-4
-9
-35
-38
-30
-46
7
-39
-21
-3
-32
-34
4
-25
-4
2
-24
13
74
37
-32
18
12
17
14
24
14
15
59
-9
-30
-28
-38
-36
-20
13
-7
22
29
35
2
-42
-11
-32
-10
0
-13
28
42
48
-15
9
25
-46
10
40
-84
8
66
-45
3
44
-37
13
44
-11
-27
-25
-3
19
29
-22
-58
-67
33
12
12
-10
-2
-15
29
41
30
6
48
17
-30
4
29
-65
-13
14
-20
-9
20
-36
-13
-28
-31
-6
-30
-19
-22
-10
-37
-7
-37
-6
15
-1
-28
-7
-26
-32
-38
-49
0
-3
20
-21
-26
3
20
21
18
1
2
-4
-31
-44
-55
28
45
47
6
31
25
13
32
26
43
41
9
32
45
-39
2
24
-54
-21
-19
-20
12
20
24
-30
-42
-37
-14
-47
21
-26
-30
15
-27
-30
29
-29
-33
-13
33
9
15
52
26
-16
13
20
46
3
16
17
2
27
17
-36
-32
-36
7
-14
-30
20
39
35
-40
-20
-36
-3
27
-1
0
42
14
8
6
10
21
18
21
10
13
17
5
-1
7
20
37
58
-2
-6
1
-19
-20
-26
-10
5
32
-67
-1
67
-4
24
5
12
33
19
14
8
23
13
25
23
-28
-17
-24
-38
-22
-29
-24
-43
-23
-4
-24
-14
16
22
24
22
19
-45
17
-54
-36
-33
-6
-20
43
45
39
16
15
41
-20
-27
-2
28
40
24
9
37
5
-51
-47
-44
41
64
37
5
-1
8
-25
-27
-6
-33
-5
27
-55
-7
29
-63
8
28
33
15
0
12
-47
-27
-24
-41
-42
48
24
-21
41
10
-24
-2
-40
-44
22
25
7
1
20
6
67
66
73
-54
-25
-29
25
13
14
-50
-57
-37
-36
-54
-21
-9
-29
-21
16
25
28
-16
17
-6
-38
-11
-40
-6
-26
-15
-32
-44
-39
8
11
14
14
9
9
-43
-3
-50
-37
14
-14
-4
-43
-24
-63
19
22
-47
28
31
-22
-12
24
-44
-36
-34
-38
-31
-9
22
19
21
-34
20
-38
-21
46
-46
-42
47
-57
12
8
-21
21
18
-26
0
89
31
-24
-33
-31
23
42
29
-33
15
-33
-16
61
-21
-25
63
-25
-29
10
-45
36
6
50
24
18
39
-2
-8
17
-74
11
43
19
-38
24
77
4
-96
-23
-4
0
4
42
58
-7
17
9
21
19
17
-21
-14
-21
-29
-57
-34
0
5
-17
-30
-9
-27
26
108
54
-56
6
-52
-10
35
0
-47
5
-40
-32
-39
-26
-13
-9
-5
10
29
23
-54
-23
39
-5
28
73
-38
-11
21
21
2
36
6
29
30
-53
-35
-27
35
24
23
14
0
-5
-36
-33
-37
36
48
37
-31
-49
-30
-24
-10
-22
-37
5
-35
-38
2
-36
-14
3
-28
-52
15
10
-69
22
43
-15
-41
16
32
21
-43
41
38
-61
20
2
-61
-32
-1
-8
-4
-4
8
18
39
59
-24
5
-13
-34
-29
-45
43
81
53
-32
-19
-32
-33
-25
-27
-6
-9
-3
-8
10
-28
-82
-2
-34
-47
-15
4
-23
-46
-23
-1
-5
-12
18
20
25
-13
-21
-22
-33
-10
-18
28
33
22
11
40
76
-3
15
16
-36
1
3
11
18
50
2
9
35
-9
20
37
-18
20
-32
-25
4
-35
-40
-14
-39
-23
-5
-12
-16
-19
-20
-28
-25
-7
0
-8
-6
44
25
-2
26
17
7
-31
-38
-38
4
-7
23
38
20
34
-27
-14
-32
-15
6
-8
53
28
44
-9
-23
-12
12
63
23
-22
-41
-41
-16
-16
-15
9
42
27
-39
-46
-35
13
6
3
-12
-32
-28
-29
-27
-26
-19
3
-42
29
79
-24
-2
25
-34
-20
7
-20
-33
-1
-23
-27
-19
-44
-12
-13
-10
-10
35
89
-23
-7
-2
-29
-28
-29
-25
0
-17
-29
-19
-25
6
13
14
-38
-25
-38
-14
-28
-31
-11
-15
-19
-16
-8
-23
-24
-26
-23
-28
-36
-25
-13
-14
-6
38
19
33
-45
-47
-56
10
19
17
13
31
16
39
31
36
25
-32
-43
7
-50
-30
1
30
48
-3
43
33
-10
26
15
4
5
5
-21
-18
-25
-21
-32
-47
-9
-22
-15
-38
-21
-23
7
43
56
-34
-24
-30
-19
-5
-20
-24
-28
-18
15
-85
40
-13
-69
23
31
-103
10
-22
5
-1
-1
45
-26
61
71
11
-13
51
-57
-34
57
-22
-49
38
40
-29
-18
2
19
26
42
13
38
35
-31
-42
-33
3
-14
-6
24
14
24
27
0
-60
48
-3
-42
40
12
-49
-60
-6
-52
13
6
8
-25
-64
-29
-24
-35
-26
25
38
31
2
19
21
20
2
30
26
23
37
2
5
-15
-29
79
-39
-45
78
-19
-20
59
-38
-43
-18
78
-54
-5
49
-47
-16
83
6
-2
-1
18
38
29
10
22
25
-35
96
-45
-37
41
-26
-24
4
-16
13
9
9
22
21
12
15
14
15
-51
1
-14
-15
54
57
-65
25
-4
-57
13
18
-47
18
18
-63
0
61
33
36
32
14
14
10
2
21
-4
-33
-26
-33
-17
-17
-26
59
28
44
-29
-30
-26
-28
-20
-16
30
29
14
-15
-13
-24
-30
-21
-32
-8
1
-5
-29
-10
-3
-14
-7
-3
-30
-44
-25
25
23
31
6
21
53
-9
11
31
-27
31
-33
23
76
-12
5
-7
-61
-4
-1
7
-15
-22
-33
34
47
36
-2
-62
35
41
-57
24
75
-12
-87
-27
71
-44
-67
52
-13
-83
113
22
-15
-24
-27
-14
-34
-25
9
-1
9
-8
-35
-26
36
0
-15
58
43
40
-7
5
1
15
34
38
9
20
13
21
20
31
-8
-6
13
-26
-32
-41
-34
-19
-31
-5
1
-12
18
38
27
20
27
39
-23
-6
-14
-38
-38
-41
-34
-23
-32
-19
5
-12
-11
-14
-39
-19
-38
-42
11
3
0
-15
-20
-24
-9
36
23
-12
26
40
-22
9
31
40
-13
-58
45
-16
-44
33
-40
-22
8
7
-2
51
24
37
21
15
41
-25
-24
-27
-1
2
-15
25
55
39
53
36
41
-26
-16
-35
-40
-30
-28
-25
-25
-22
6
7
18
30
20
40
-29
-8
-32
-35
14
-37
-18
14
-23
-31
-31
-16
-31
10
-35
-14
-10
-9
27
-3
-50
25
-10
-38
10
-38
-15
-28
-46
-30
5
-7
9
22
11
20
-54
-46
-19
-23
-3
-6
24
22
26
61
39
20
3
6
-8
-12
0
-9
41
20
-70
53
-6
-55
38
4
-44
52
8
-32
38
-25
-40
13
-31
-50
-34
-42
1
-38
-28
-1
23
8
28
27
3
37
42
14
29
15
2
8
-28
-25
27
-45
4
43
-32
8
27
0
9
5
6
42
8
22
53
24
9
45
29
18
15
5
15
7
25
-46
-9
-32
-43
-15
-33
-9
-30
-2
9
-18
-28
38
-24
-50
69
-53
-48
23
17
22
-14
-12
-1
-38
-30
-36
49
-5
-27
44
-5
-38
53
2
-49
40
39
22
1
-8
-11
-29
-37
-28
93
-46
-60
10
-7
-14
-94
127
-81
10
19
-8
6
61
-24
5
42
2
19
5
6
21
41
33
-5
18
29
-17
-22
-15
-20
-12
-12
37
56
35
-17
4
-25
31
25
37
-34
-33
-47
-10
-11
0
-7
-4
12
34
52
42
-27
-38
-35
28
31
29
-32
-24
-15
-17
-34
-21
23
20
44
-3
-19
-12
19
24
7
21
9
-2
-47
-62
-49
-6
-29
-34
-14
-29
-38
5
-23
-6
-22
-38
-24
-16
-8
0
28
54
12
-49
-25
-2
-30
35
20
-31
55
24
-31
-10
-28
-29
-16
-31
-28
-13
-22
-26
-24
31
-42
-7
36
-56
-11
54
-16
56
-38
-40
59
-53
-38
36
-14
-70
-41
33
-50
19
39
-45
-4
1
-70
0
75
-43
-11
50
69
31
-57
31
45
71
19
-2
21
-55
-26
-41
-4
14
13
-9
4
26
-24
17
69
-47
-14
-42
-18
8
-29
-47
8
-31
-26
-29
-23
-26
-15
-14
-19
-15
-20
-27
-13
-34
-38
-2
-19
-9
-18
-13
-22
-52
-18
-45
3
33
-12
32
52
-29
-5
-20
31
48
40
-53
-76
-59
-1
-6
7
11
13
44
15
11
24
-4
13
-9
-3
14
12
-69
-10
-37
-16
-19
-26
-16
-15
-23
-26
-14
-28
-37
47
-32
-43
25
-27
-49
18
-49
35
-11
-57
40
-39
-39
21
-25
-23
-33
-82
-4
-11
-6
0
-1
34
18
17
7
16
-6
-14
-12
-30
-26
-31
-32
9
9
-44
-8
32
-41
-25
41
7
5
-10
-35
-10
0
-51
-42
-15
-30
-39
-29
-6
-16
-26
24
28
14
15
8
43
42
22
46
-29
10
1
13
23
33
-23
-29
-15
-11
-18
-22
23
17
26
-1
-10
-4
-40
-30
-36
-31
-26
-44
-10
-25
3
20
18
23
-27
35
10
-75
-2
13
-76
4
35
-30
-41
-20
11
-11
-1
-9
24
50
-45
-13
37
-56
-1
55
-47
30
9
-68
15
-42
-3
33
-20
-38
-17
-33
37
27
55
23
-3
25
1
-9
-1
-25
-28
-44
1
-2
-15
26
39
-6
-13
15
0
-43
10
-35
-43
-8
-41
-15
-22
-23
-5
-23
-25
53
46
58
-48
58
-28
-57
52
-10
-12
62
-29
-57
-19
-40
-12
-22
7
41
9
95
-1
-1
1
6
20
5
2
84
22
-20
-20
-24
-19
-21
-31
-20
-26
-7
-21
-29
16
-16
-17
43
-29
-26
50
15
-11
-41
-8
-26
-5
-31
-21
1
25
29
7
-20
-12
-30
-39
-37
-27
-43
-28
-16
-20
-15
-26
-1
14
3
-56
-21
-42
-36
-11
-2
28
62
64
-47
22
10
-23
74
-5
-31
23
-20
9
12
-3
-6
6
-7
-51
-13
-55
-31
-18
-29
-19
8
-22
-22
-8
-44
20
32
23
-19
-26
-20
-35
-21
-30
0
27
48
-14
-17
-11
0
-65
-46
17
41
20
-1
-4
-9
-32
-45
-35
-12
-28
-7
-35
-38
-14
29
25
23
-13
84
41
-40
-23
-63
-7
-26
27
-13
-3
0
-39
-13
-28
-27
-14
-29
-24
-4
-25
15
47
61
-24
-19
-6
9
-12
-15
-5
-21
-26
51
65
40
-32
-19
-50
33
35
50
-11
-7
13
16
7
-30
37
2
-39
55
-7
-40
-32
-19
-19
-17
-36
-35
18
17
16
7
-9
-15
1
-33
-38
-21
-20
-26
-4
-2
20
13
21
41
15
17
21
-33
-18
-5
-3
17
0
23
75
14
-57
11
-54
-18
21
-9
-50
-5
-53
23
51
24
-6
28
-19
-44
-4
-30
-35
-29
-16
-7
-21
-1
-15
-44
6
25
19
18
-27
-19
-19
-29
-32
-34
16
7
-4
45
34
30
-3
24
17
23
11
30
7
3
22
42
20
25
17
-11
1
24
32
20
-29
-42
-40
-11
-18
-15
10
63
38
-9
26
24
-35
-38
-33
12
4
2
8
26
20
-18
-17
27
-46
-57
28
-9
30
37
-35
28
15
-53
6
66
-22
-59
29
-24
0
-11
-31
-5
-23
-22
-22
-16
1
-3
-2
-11
-15
-9
-30
-33
-36
-32
-33
-33
-8
7
-7
30
26
10
-7
-10
-10
16
26
24
48
36
27
-16
-12
-5
-26
-12
-29
-6
-30
-21
-43
-13
-31
-26
17
6
39
73
23
37
44
46
16
18
26
-12
-30
0
-27
-39
-18
24
74
61
-14
-14
-4
6
11
-1
-38
-23
-36
-32
-13
-9
-51
-51
-48
12
-3
14
26
29
19
-21
-3
-29
36
56
20
-45
-41
-61
-16
-33
-21
-14
-11
-13
-7
-21
-21
87
-41
-49
19
-22
-9
-101
-14
94
6
-23
-14
12
-39
-69
20
-3
21
-57
-14
-31
4
1
-14
28
21
25
-31
-40
-35
-10
-16
-5
29
23
17
-13
26
-42
-13
80
-27
-32
33
-39
25
6
18
13
35
29
23
10
36
-58
4
-17
-19
8
-19
-31
-17
-18
-26
-21
-13
22
24
46
5
29
23
-31
-25
-31
-15
4
-20
-22
-1
-38
7
-2
18
10
23
26
-1
42
4
-27
-17
-19
-44
-23
-15
3
41
26
-32
-30
-24
-13
-9
3
1
59
47
-32
-22
-12
-20
-15
-44
25
29
26
-13
-2
-6
8
26
17
21
44
26
-45
-33
-34
1
-27
-5
59
54
26
37
31
41
-10
-50
-30
-1
-35
-59
-24
-9
-1
-2
83
2
-3
24
18
-59
7
36
-24
-16
23
-52
-7
46
30
-20
-12
47
-21
-22
74
-24
-5
-9
-5
-27
3
2
-9
38
71
67
-65
8
37
-51
0
41
-21
-5
21
-6
-3
-3
31
49
30
6
8
4
55
-50
-4
14
-71
24
-18
-51
-3
-17
-21
4
-28
-24
-16
-26
-20
-40
-27
-31
-17
-1
-3
-8
24
45
17
-39
-28
-4
-39
4
-41
-30
5
-30
-60
32
34
-50
-16
32
-41
-9
54
27
-24
-47
21
-14
-44
17
-22
-23
27
70
42
-2
4
-3
-2
1
-13
-28
-10
-32
-25
-17
-18
-7
12
-17
-21
-37
-29
-9
-9
-19
-24
-19
-19
-28
-14
4
48
15
57
-22
-19
-9
-18
-13
-12
43
24
36
18
2
25
30
18
7
17
21
7
15
29
26
30
49
24
-12
-7
7
-28
-36
-37
-25
-14
-29
-22
-37
-23
37
33
18
19
-3
-31
44
5
-43
24
-5
-32
-37
-15
-36
24
6
-3
47
19
26
-29
-31
-28
2
-8
-21
37
15
36
-27
-42
8
-45
-34
2
25
-13
8
14
7
-10
21
-1
-48
43
-18
-63
-12
7
3
-8
6
1
32
62
30
70
-20
-38
65
-34
-37
66
-38
-66
3
20
3
13
48
22
10
42
20
0
14
21
-3
-7
14
34
49
63
-54
91
-34
-4
59
-68
59
-45
-51
-7
-1
-4
5
22
-10
39
56
32
-37
-6
-37
-24
10
-32
-21
-25
-38
24
48
18
-21
72
-27
-33
10
-35
-12
-14
5
43
47
46
-1
-8
-11
-37
2
44
-16
-77
-2
4
19
6
-10
11
22
-23
21
34
-11
44
57
-38
-38
-37
30
-5
-17
16
8
9
-33
-3
20
-48
-16
75
-37
-21
49
-11
-32
-29
-1
-1
-21
27
-20
-28
-43
-10
-35
-29
-22
-21
10
16
8
85
-13
-59
19
-4
-26
34
-26
-50
-27
-40
-23
2
-25
17
16
22
55
52
44
58
-13
-36
-22
-36
-6
-24
-35
-28
-9
3
-16
-26
-17
-19
-29
-26
-31
-31
-31
-16
-8
36
25
22
10
15
11
32
22
36
30
26
23
-8
-10
14
1
7
22
28
35
53
-25
-34
-16
-16
-16
-24
23
10
2
-16
-31
30
-55
-9
42
-48
-4
36
-4
-4
-20
-14
8
-16
42
74
54
-35
-2
34
-28
2
38
-35
5
23
22
17
-35
40
23
-59
25
23
-46
-46
-45
-31
-5
-19
-12
26
22
20
-16
-40
21
-43
-21
13
-34
-6
19
-5
61
49
-27
38
24
-53
-44
-8
-1
15
-5
20
40
21
8
20
12
11
23
-10
-10
79
18
-20
45
23
-9
-16
-43
-5
4
-29
-39
-29
-36
-26
-23
-6
31
51
29
6
-5
9
-17
17
6
-3
41
43
-24
54
1
-10
-11
-17
-28
-4
-28
-27
-28
-32
-59
-16
40
-31
-4
33
-34
-8
2
-56
10
-53
-15
38
-7
-53
5
-56
48
-31
-55
3
-33
-38
55
22
6
-54
-44
-61
34
32
35
-1
-10
-5
34
-6
28
-20
-70
11
-6
-34
-18
-3
-22
-5
-59
2
29
-28
10
47
-8
-3
2
-2
5
25
17
55
16
-35
-4
-13
-28
8
11
-26
79
66
-18
-25
5
48
7
-37
55
-1
-62
-20
29
21
33
42
40
19
50
17
17
14
7
20
12
0
16
35
37
-9
-22
-29
-27
2
-22
-26
-12
-16
-11
-9
-18
11
15
20
23
82
19
-25
-29
5
29
49
48
27
-4
0
-22
-15
-12
-3
10
-10
-29
-43
-39
14
25
29
-15
-13
-28
-43
-44
-42
-9
-7
-21
-23
-24
-28
34
39
44
-23
-37
-35
-29
-28
-15
19
20
14
37
27
20
15
11
19
19
19
31
-12
9
-4
-63
11
55
-61
12
34
-26
63
-24
-41
50
-10
-20
59
-18
14
9
30
-4
4
-7
-38
-33
-45
-42
-43
-36
15
12
10
22
11
10
28
28
3
5
9
4
-43
49
73
32
-56
12
47
-65
34
10
-58
7
-45
-68
-66
37
37
6
-7
76
38
12
9
11
-38
-45
-48
40
28
19
-28
-45
-20
-19
-20
8
5
12
31
-39
3
28
-45
8
28
-49
0
41
-45
-33
-37
8
18
-4
32
31
41
-14
-4
10
-40
-17
-5
-34
-26
-22
-8
-22
-6
19
73
37
-22
-40
-32
6
49
18
26
11
29
4
-6
6
-28
-26
-24
-26
-4
-27
3
69
46
3
17
38
27
4
39
24
11
23
-18
-10
-2
0
19
58
13
45
11
-61
0
30
-58
15
46
-43
1
17
26
33
35
-19
-16
-31
-38
-39
-34
-15
7
30
36
12
19
-8
-50
-54
20
14
38
-26
-28
-42
4
29
28
6
28
5
1
30
-12
25
102
27
-23
-32
-47
18
16
-10
14
59
10
14
31
39
12
-2
13
-35
-51
-62
-29
-33
7
-13
-16
57
-35
-19
42
-18
-3
-10
1
34
16
17
44
26
-37
-37
1
-32
-22
0
-7
-18
-16
