384
-0.8686099
0.056844264
0.6700857
0.1410267
-0.34164137
-0.014144872
0.83147556
-0.24940638
0.21979448
0.1024014
1.1115414
0.7931725
-0.10382289
0.83659047
0.5873198
0.46163478
-0.6168917
0.32581386
0.56270987
-0.18541719
-0.47735575
-0.23423177
0.6855385
0.30899045
0.25152084
-0.47457805
0.6231241
0.7673465
0.8588892
0.6932343
-0.3623641
0.31528217
-0.115714096
0.8085131
0.065591216
0.38771895
0.66055393
-1.0698781
-0.26636186
-0.9033747
0.8795705
0.7870528
-0.14383234
-0.7122986
-0.0059261844
0.5801351
-0.8762302
0.7443572
1.2597344
0.8107302
0.09351236
0.016983345
-0.82313067
-0.31383044
-0.64153
-0.112631366
-0.03145776
-0.5070035
0.6298457
-0.80619985
-0.4541717
0.17658643
0.5015513
0.8472761
-0.07516708
0.6432981
-0.4358207
0.026329156
-0.17467168
0.91967654
0.7549148
0.24805668
0.026173208
-0.15273756
-0.27974623
-0.80392545
0.57741994
0.39804205
-0.8490158
0.4881128
-0.29508463
0.48338255
-0.45699048
-0.2128547
0.34024897
-0.67790645
0.14485385
0.97258544
0.18745285
-0.46491995
0.765442
-0.24868277
-0.8446891
-0.5213418
0.206671
0.06548934
0.5257165
1.11543
0.8691003
1.2083797
-0.89954835
0.4256647
1.015938
1.0517085
-0.61241937
0.2796871
0.8777926
-0.042263933
-0.81953424
0.5743885
-0.004060805
-0.65061134
0.4530504
0.85758466
0.29374138
0.9898993
0.064622
-0.09830569
0.8052139
0.18505982
1.1156058
-0.22998041
0.9220192
-0.06897041
-0.2583857
0.13962612
0.9607521
0.58459675
0.9175384
0.77470565
0.13791497
-0.6431365
-0.24284723
-0.48268095
-0.18924831
0.33756068
0.3965319
-0.018674955
-0.045183696
0.2321795
0.38772917
0.39946684
0.82670915
-0.7117453
0.6211231
0.7407059
0.13399023
0.2441073
-0.27306882
0.3987289
-0.5833597
0.21923682
1.034366
0.61715645
0.017394464
-0.7417171
-0.89496267
0.19584523
0.56132555
-0.5246975
0.9732582
-0.65321547
-0.7502632
0.4837597
0.7744403
0.51582664
-0.88369936
0.3252256
0.6918155
-0.75384444
-0.5848831
0.47292846
0.720085
0.017977294
0.29426512
0.31700003
-0.22288194
-0.35654438
-1.0684984
0.85060763
-0.14950484
0.29203045
0.28865483
-0.39391682
0.314836
0.2454481
0.884481
-0.7237537
0.30181855
0.7899962
0.99245024
-0.92062134
-0.032041743
-0.37977615
1.1280689
0.65547043
-0.27593258
0.08862494
-0.07529142
0.82606524
0.9632518
0.06418353
0.24812739
0.8501948
1.0015105
0.6964669
0.041216232
0.5465618
0.22884242
0.12992215
0.4779905
-0.17824128
0.74581426
-0.5391171
-0.046496812
-0.12829351
-0.024020817
0.98938864
0.5650726
0.8223952
0.86572146
0.43658912
-0.13632482
-0.44520605
-0.41129097
-0.066797964
0.9189136
0.23901677
0.18959942
-0.057091087
1.1310905
0.8592824
0.9105798
0.91129506
-0.062608555
-0.6578414
0.43680358
-0.3847748
0.5878033
-0.47269374
0.2366153
0.35310188
-0.109671
0.69911325
0.6033791
0.70100516
0.55875576
0.10592986
0.17486905
0.58203965
0.38288063
0.12130399
-0.64684457
-0.7873839
0.201372
0.2300302
-0.65132016
0.0262295
-0.2376549
0.017750489
0.6447408
-0.08247834
-0.3179567
-0.76456964
0.91080475
0.8611759
-0.050178234
-0.79188174
0.92279404
0.033456624
0.010152824
-0.23480476
0.7624223
-0.20394282
0.43167198
0.39201605
0.8466747
1.0757921
0.8583826
0.18998203
0.24948008
0.47879073
0.5041908
-0.24654508
0.33777913
0.0842281
-0.9779734
-0.17752376
-0.14181902
-0.5712007
0.5777117
-0.1698412
-0.80408376
0.62797064
0.5640424
0.24088968
0.9518359
-0.5163575
0.775351
-0.76218873
0.97
0.6007131
-0.2709245
-0.6194864
-0.74483305
-0.008276586
0.22108597
0.9405606
-0.5550262
0.54755455
0.6698956
-0.18752955
0.2767966
0.49225146
0.16833906
0.77410656
-0.5137667
-0.8496822
1.0723083
-0.5721809
0.40952405
-0.14460163
0.6995274
0.70940053
-0.30634046
-0.13031164
0.44803324
0.07853356
0.60204256
-0.743446
0.82445997
0.003099069
-0.5352714
-0.1680255
-0.19281745
-0.7420633
-0.4442806
-0.13989674
-0.4686062
0.5830988
0.9315407
0.03248965
0.7734214
0.7858611
0.2818816
0.7272439
0.4062567
0.60632515
0.29253966
-0.13032626
0.31811544
0.8183969
0.019561682
0.12262331
-0.104840435
0.6713328
-0.7411465
0.49570048
-0.81383586
-0.19256085
-0.49786222
-0.36382467
-0.03825858
-0.75457656
-0.70756096
0.84571815
0.7934954
0.5876608
-0.5373964
-0.76552796
-0.66626614
0.20398903
0.7731524
-0.85554546
0.13456772
0.013892069
0.675011
0.9647825
-0.6469547
-0.34614334
0.78979945
-0.5839089
1.0478613
0.37514687
