576 1 3 3
21
36
27
22
18
32
3
-11
-24
11
1
-1
61
17
-9
9
20
12
-26
-37
-6
-12
-32
-10
23
9
19
62
26
-1
38
-5
-26
9
-13
-34
-41
-14
-15
-36
5
22
-25
19
81
-36
-28
10
-22
-9
12
13
41
40
-24
-39
-51
30
-4
2
43
44
12
-57
-34
-25
-2
1
18
38
9
13
-19
-3
48
-27
6
54
-21
36
65
-31
5
17
-30
-51
-1
-31
-14
27
-39
8
-2
-19
22
-13
-1
62
38
-38
-18
6
-44
61
-16
32
54
-6
0
-27
-23
15
-34
2
-21
-30
-29
-37
-1
39
-26
-11
54
-35
-1
28
4
29
11
29
51
8
4
9
2
-29
-41
22
-32
-5
92
-10
-14
16
18
63
-6
10
41
-3
11
1
-3
-5
-62
45
-75
30
-36
-23
24
66
-15
-44
-17
87
36
31
-43
-25
3
24
3
29
6
14
4
-48
-46
-48
-13
-62
-21
15
30
77
20
-41
-67
-7
-7
-26
-22
-13
-31
-8
-34
-12
-31
-10
-79
-9
-2
-20
37
36
2
-29
-17
-29
-15
-29
-11
-11
-11
-16
31
4
-3
18
-37
-7
66
27
35
-34
-9
-30
-16
-17
-14
-41
-17
-7
-20
15
9
-24
3
-2
-34
-36
-48
27
20
45
0
7
-5
-22
-39
-18
-18
-34
-72
100
2
18
12
-41
-39
10
-29
4
49
-11
-48
60
-15
-53
3
6
13
7
10
39
16
28
33
-47
-12
-4
14
4
2
7
53
50
-25
-36
-6
3
-5
-43
-13
-36
4
8
14
66
4
35
22
-32
-25
-7
-56
-3
44
-32
-11
48
-41
-5
15
-16
-20
-5
3
-85
-9
-3
-14
-11
-18
74
11
-34
-27
7
-43
-22
-45
48
28
-10
-27
-36
-36
-7
-59
9
-37
-55
-41
-10
13
-20
29
33
10
-25
-23
74
-41
-16
48
-7
-39
13
30
30
34
21
-7
14
16
-3
-12
-46
-17
-51
21
-23
-47
7
34
40
5
1
-9
-47
-33
78
9
-27
77
-3
-30
-32
-6
-15
-24
-20
-23
-19
-28
1
22
-20
-26
-3
-40
-35
-21
5
30
44
12
14
12
-21
119
118
53
21
14
8
-6
15
-7
-26
-18
-14
-26
10
17
44
68
-25
-3
-7
-21
-43
-16
-12
-10
0
8
-28
3
-58
21
23
-61
30
32
4
37
-28
-11
-49
-37
30
1
5
12
49
18
-13
-8
5
25
52
28
1
17
-4
23
15
20
2
7
4
40
39
26
-46
-24
9
-24
-16
-19
-19
-27
-14
-38
18
-11
-37
61
-46
-14
14
-46
46
47
50
10
13
-16
-47
-50
-48
-26
-20
-9
-3
-11
-12
-26
-7
-31
72
36
38
-2
-38
-6
-13
-20
-8
14
-23
-10
-21
-33
-7
10
-31
-17
-10
-20
-11
43
6
32
43
19
21
-21
-16
-9
1
26
-17
-64
-24
-41
-17
52
-9
-69
30
-57
-18
-21
56
-38
-47
-10
27
25
41
-49
-25
-11
54
20
-27
53
-6
-66
-22
-16
-8
-7
5
-2
20
26
28
22
10
16
45
7
-47
57
-10
-12
41
-25
-13
-19
-1
79
21
6
38
-2
0
6
-51
54
40
-33
26
29
-62
-28
-2
-21
-6
-17
20
23
22
32
22
24
10
24
16
5
37
19
28
23
-4
-5
48
57
-14
51
35
9
69
53
-30
-43
20
32
73
8
-37
-34
-17
21
24
20
-38
1
-32
-20
-11
-37
22
-5
-27
-27
-17
-15
-28
-17
-22
-3
16
18
3
19
1
-8
19
77
-57
-22
-21
64
54
24
16
-13
-29
96
0
12
-36
-4
-23
-13
-22
-4
14
-6
54
44
39
37
-73
-41
10
-16
12
-6
-26
50
-11
-22
58
-18
11
18
12
19
41
-1
31
55
16
-63
-41
22
-13
-8
7
8
70
13
20
-25
-46
-15
-20
-9
-20
-5
-29
-8
-77
34
37
-9
45
42
-31
10
-32
-28
21
-25
-15
29
-13
26
55
23
-2
-6
-36
-13
-41
-12
-13
-25
4
-20
2
15
-28
-25
-42
-15
-34
-19
-25
-8
9
17
19
18
48
43
36
-20
-49
-12
-21
-17
-48
-7
14
51
48
37
-10
15
-19
-6
27
-4
42
41
35
-9
14
14
-23
-1
11
-19
-21
-17
-1
-15
-25
-33
-22
-9
-47
-6
-46
-7
26
9
17
61
37
21
12
-21
34
23
15
39
12
24
24
-1
22
14
18
10
39
17
9
-47
-15
-4
-39
-12
-21
-32
-14
-30
12
-29
-8
-60
-26
34
-17
-27
34
-73
-30
-26
16
46
23
6
35
24
22
12
-4
-19
13
-12
-29
-51
-58
-32
64
-8
0
35
-42
-11
49
-51
-34
-58
-14
-9
-12
-10
23
56
-2
22
6
9
-28
-37
-26
-42
3
-31
52
11
-33
55
21
-54
64
-22
-44
-21
-16
2
16
46
55
-25
9
32
16
1
48
4
-6
20
4
34
12
34
-83
-13
20
-41
-42
9
-16
3
-11
-22
-39
-16
-18
-14
-7
-29
-10
-32
-12
-26
-4
1
-5
-34
-24
-25
5
-21
-9
-13
6
-18
29
74
32
36
62
68
-12
-24
-25
-16
28
-8
-51
-31
-36
4
13
31
28
27
26
-4
-11
9
17
18
37
11
10
31
-69
-35
-34
3
18
45
17
2
47
83
5
-35
3
-33
-5
78
22
12
-25
6
-13
-32
16
-10
-30
93
-18
-3
-42
-16
-16
-31
-9
6
-24
-29
-37
30
47
-50
21
22
-14
-29
47
-26
-11
-20
-11
3
-30
-17
-15
-21
-23
0
19
-58
-40
20
-12
-5
65
-57
-45
-33
23
16
33
-23
-28
-47
22
35
44
2
12
3
-15
-1
15
-15
-15
-30
-23
-7
-22
4
-51
-1
35
-11
-25
19
4
-32
73
-20
-50
-21
-29
9
-15
-68
89
-42
-1
67
14
17
-3
17
71
20
14
21
3
23
-5
-55
29
35
-53
23
17
-11
79
2
1
27
8
-19
7
-24
2
30
53
-7
-2
14
-4
8
37
-9
37
-43
13
24
-42
-24
0
-38
-28
66
33
-7
-7
48
2
-60
-35
40
-44
-15
-44
1
-14
-34
35
23
23
22
12
12
16
19
33
5
0
7
-47
-31
-70
-1
14
10
23
27
33
33
9
-7
3
24
-4
15
23
26
24
-21
-24
23
-38
-25
12
-28
-39
10
26
-47
14
25
-45
27
52
3
32
23
7
-15
-13
-54
-21
-30
-17
37
24
45
4
-10
4
-27
-26
-17
27
35
11
21
6
-28
12
41
-25
-37
33
25
-31
27
25
-61
1
11
-32
-14
2
-30
-20
-14
-15
-8
-27
34
12
11
7
-21
-34
-5
-38
-44
-39
-41
-35
25
27
39
-34
-51
-18
-2
5
-3
32
25
8
64
19
10
-41
-14
-48
-10
15
-21
10
39
31
-39
-11
-6
-44
-39
47
23
-54
23
4
-28
-18
-12
-37
-28
25
-2
-2
1
-1
-17
-13
-33
-37
-14
-17
7
-11
-23
-13
-32
-35
-37
-10
-11
-2
-17
-11
-35
2
7
-14
35
35
37
14
3
20
13
43
39
12
4
17
-4
-35
-19
-38
-9
-31
-14
7
-9
34
24
-85
-65
52
-37
-16
25
-24
-13
-38
-52
-31
-15
13
57
-13
26
-14
-1
-20
-23
-19
-18
-20
-42
9
24
15
30
15
15
23
2
-4
9
-8
2
-20
-18
-12
-1
-43
-27
-17
50
33
0
29
11
11
-19
-46
-62
-17
-21
5
-39
-7
28
30
26
73
1
3
24
29
54
49
26
3
26
-1
-1
16
27
103
-29
-81
-22
0
59
-19
-13
24
8
7
-70
-31
-1
-9
-21
-11
-29
-26
-14
-9
-10
-26
-50
-20
-26
-12
-4
6
-57
4
8
21
32
15
19
54
16
15
-7
-16
-7
11
10
-15
-5
60
3
38
72
-12
-5
-13
-11
-16
-25
-32
-13
-33
6
4
-23
52
76
-49
31
-28
-58
-22
27
49
61
-45
-42
-29
-57
2
-11
-18
7
-7
17
-17
47
33
50
-12
-10
-14
-31
-20
-17
-24
-39
-17
-13
-31
-41
-13
-5
-12
28
33
33
32
-9
75
44
-11
29
-18
-38
3
3
12
-38
18
42
-47
17
66
-55
23
8
17
-45
-26
-61
-21
-3
17
-6
27
42
-10
3
16
-29
33
21
-31
-35
-32
-22
-5
-14
-3
-2
-22
-55
22
56
-45
-25
-5
-46
-24
1
5
27
-32
67
39
14
16
-1
-2
47
-24
48
15
0
-60
-20
-46
-37
46
47
38
26
-8
28
-14
-18
-33
34
-1
-11
15
28
40
-20
-73
-31
10
3
-10
-4
-48
-28
9
-18
-24
-29
-27
52
59
45
-99
-4
-41
-6
4
56
41
-35
16
26
-24
-41
8
18
42
36
-18
31
0
-15
-6
18
30
40
23
-51
-37
-36
16
35
30
-25
-31
-27
-6
-4
18
26
30
51
-27
-7
-19
-44
-14
-8
8
-5
-17
70
-30
-6
42
-17
-33
52
-35
-61
10
3
16
-23
-61
-14
18
-53
-5
-3
-18
-25
74
10
-20
26
-32
-46
-38
-19
-32
-32
-4
-18
3
39
40
5
-21
-50
-11
-43
-16
-8
13
15
20
-43
-20
15
4
2
-54
-52
-23
2
-6
-55
19
1
-15
46
22
-25
5
-56
-33
-9
-13
10
-5
-28
9
-25
-23
-46
48
39
14
-11
-6
-19
27
-4
5
23
-13
-35
4
-41
-61
-45
-2
20
-12
-60
11
17
-55
-4
-29
13
-93
-13
49
-16
8
38
-47
49
33
31
-6
-37
-46
-16
-19
-9
-26
-32
-46
-20
-18
1
33
13
20
4
7
17
-21
-35
-26
-26
-14
-25
9
15
7
12
27
29
-8
20
17
-71
-15
17
-34
48
17
-25
48
-2
22
-23
-18
22
-27
-20
50
-30
-27
11
17
-20
-26
-31
-22
-4
-53
-17
-16
52
-39
-7
85
25
-26
5
23
-21
-18
-9
24
-9
-12
29
66
16
26
11
-61
23
14
4
-57
-12
-86
-52
-45
-7
22
-1
47
-13
-2
71
41
35
24
-32
-2
13
-12
-24
-15
11
25
18
-15
25
26
-14
18
20
-4
4
8
35
44
27
12
-6
-28
37
26
-27
-23
-30
-17
-38
-25
-25
-8
-13
23
-45
5
57
-32
7
13
-15
-20
-21
-2
-24
24
-25
-8
-35
100
48
44
-16
13
-8
-13
-14
-30
-31
-30
-13
12
35
14
9
45
58
-44
12
14
-61
48
2
-32
14
12
-52
-19
10
-42
-1
25
-26
7
13
-23
-4
-2
-15
10
-3
29
77
-6
28
9
-77
-61
-33
-47
-38
53
93
20
27
10
19
32
15
19
26
2
-9
-26
-26
-33
-15
-15
-20
-28
39
56
42
31
3
6
-32
12
-44
-68
71
5
-86
3
-15
-35
-19
59
18
53
48
47
24
40
-7
5
-18
-8
-24
-14
-10
1
-18
-28
-29
-23
8
27
1
6
14
17
-12
47
45
-11
1
0
27
-27
-62
-1
-23
-32
-15
-45
-4
-1
-5
50
19
-16
27
33
0
46
27
-9
43
7
-38
8
0
28
26
33
6
31
28
-32
-20
-23
22
-4
9
32
20
22
29
14
19
1
-37
-38
17
12
-19
65
4
-2
-82
34
39
-30
3
29
-8
12
19
19
85
36
-6
-21
-19
-16
-34
-13
-13
-67
-55
-16
27
46
27
34
42
29
-2
3
35
6
-10
28
21
-17
-16
-12
-7
11
28
-7
44
39
27
24
34
-5
-37
-18
-19
-26
-40
1
16
54
70
-9
-16
12
4
5
28
-3
-14
-4
33
43
42
-24
-21
-27
13
-83
8
6
57
74
-80
28
-28
-16
56
4
-10
58
24
5
37
-20
49
11
-66
53
-30
-35
-8
-26
-15
21
61
36
4
14
-14
8
-28
-11
-38
-27
-25
-17
-20
-24
2
-14
-2
-6
-13
-80
-7
2
-11
10
28
-7
-24
-3
-24
-24
8
19
-8
75
16
-4
-25
-15
-14
-21
-17
-11
-13
-22
17
-8
-14
-21
-21
-27
-32
-20
-20
31
11
-80
50
50
-25
-53
-4
16
4
29
-17
-19
40
13
-5
30
46
56
16
76
40
-18
-21
-7
-25
-8
-30
-52
-51
-17
25
38
-12
42
3
11
38
-29
44
54
-23
-9
-27
-52
-37
-2
-10
-9
-18
-49
-10
3
-3
22
55
24
14
7
6
6
-20
-15
-67
-20
5
-11
-8
1
-43
-4
-14
-7
48
-14
-14
41
-59
-64
60
-35
18
-32
-23
48
6
59
23
53
30
31
29
35
10
15
4
-3
-4
17
-29
11
11
0
22
-2
40
56
24
32
-7
-74
20
12
-46
-4
51
-34
-72
-3
-12
-23
-28
-9
23
29
52
-32
-10
-19
-36
4
-25
-30
8
-26
-10
-49
-37
29
-63
1
-3
-30
42
24
22
-1
3
-4
-13
67
60
-17
-21
-36
12
39
-2
-12
83
-62
-70
-16
-47
-38
16
-1
-12
24
35
33
16
-19
-61
15
11
-30
-51
27
92
-21
-13
-39
-12
-23
-12
-20
-3
15
36
8
-18
21
26
-12
17
33
-34
16
-16
17
-27
-14
-8
-7
-43
-24
73
-20
-46
-26
-70
12
-58
-13
49
-12
-6
-26
-40
15
30
-14
-54
-26
39
31
4
42
5
-14
32
12
-3
-45
-12
78
-22
24
21
-33
-16
-6
12
14
-6
15
2
1
22
34
44
-61
-6
26
6
-9
-16
-2
-50
-42
47
31
-42
17
-5
-49
21
-34
-38
-27
-23
-36
45
40
26
-19
-19
3
-37
-25
-53
21
4
7
36
22
39
-9
-1
-51
36
-4
-14
75
6
-42
42
21
-54
55
17
-35
11
14
-51
-15
-9
16
-33
-26
7
-23
-45
-3
-35
-5
5
-16
-20
31
-54
-11
47
-54
8
22
-35
9
33
2
20
52
84
15
-54
-61
-17
20
-27
-17
17
42
16
29
1
8
12
19
21
4
14
23
49
28
42
48
-49
-38
-26
23
26
32
-5
65
19
-49
-8
-31
36
63
56
-21
17
38
-21
-37
15
39
26
-8
38
7
-39
19
7
0
-15
-17
-45
-28
12
-6
29
52
56
17
7
-1
24
12
24
18
16
14
-14
-36
-16
22
3
40
-44
-51
-13
-20
-11
-32
3
20
31
0
54
35
18
56
14
-50
1
-10
9
-16
-26
32
4
-13
10
15
6
10
45
44
9
10
7
34
5
12
-38
-43
-50
-24
4
6
-10
-21
-2
-19
-53
-23
20
-3
4
3
8
0
-27
-48
-48
-26
-10
-28
-22
-21
-13
-33
-8
-15
1
-50
-22
-42
-3
-29
-2
-9
-9
1
-6
-12
-2
-12
-48
-1
-42
-36
-10
1
-1
9
44
-14
-13
63
14
13
27
-3
23
32
-7
7
47
9
29
-14
-42
23
3
-41
60
13
-32
-56
6
-5
-23
-4
62
-23
30
38
18
-1
1
0
-20
-7
44
25
49
-19
32
-41
-66
61
14
-24
50
-11
-14
-29
-23
-6
8
-30
-16
-35
1
-43
-2
39
-57
21
13
-7
9
31
46
20
-1
-1
44
33
-29
26
4
-18
-53
49
10
-81
46
3
-30
90
-45
-27
-57
-8
-9
-3
63
20
21
-14
-24
-33
-1
-26
-14
37
27
60
53
34
25
2
43
-13
-33
-2
44
-28
-27
-20
-9
-20
7
-20
-15
-14
51
59
2
-12
0
-42
16
-13
-38
5
-43
-16
8
-34
-18
8
-35
-5
-43
4
-18
-11
16
19
-51
-23
-51
20
3
-29
-24
-53
-63
-1
18
-1
-34
-6
-36
-4
28
-27
-31
-25
-44
-8
-31
-27
-22
-13
-18
-10
13
10
-15
36
-37
-13
39
-65
-40
18
-30
-34
-64
13
-54
-2
14
7
28
1
-7
-23
-12
24
-28
-48
18
-15
-21
4
-8
-16
-11
-22
-20
-10
-30
-38
51
35
20
17
13
36
32
19
7
-31
-21
-11
-14
-5
-40
9
-10
-16
8
-50
3
-26
-5
-31
-26
-15
-12
30
22
13
1
15
14
2
10
36
-10
-6
-50
-27
44
-14
-41
23
68
48
20
41
23
-3
20
4
-12
5
-6
0
-4
24
16
17
25
30
16
31
4
72
8
-15
35
-16
-47
-1
-16
4
15
-20
24
35
-44
2
44
-40
-8
-48
59
54
16
-11
4
-41
30
23
-45
69
2
-52
22
-25
-51
-16
21
127
13
2
-2
14
-1
-9
-2
-18
-24
-4
-16
-25
-32
-22
-24
-1
15
-21
20
8
-11
42
48
8
1
27
62
6
27
3
15
5
-21
-18
-34
5
-47
-38
1
20
-8
41
-6
-28
-3
-12
-25
-27
11
45
59
-10
3
-38
-41
30
4
-80
7
96
-9
-2
3
41
42
45
-7
-5
-23
-35
21
-54
-38
27
32
-44
6
38
-54
8
24
-20
-31
26
-44
-36
37
-40
-38
-17
34
52
40
-1
29
-19
-4
-28
-10
-18
6
16
-58
-46
-19
-41
-61
-61
9
64
16
32
-2
-15
20
17
6
39
37
17
10
13
-5
-31
-34
-13
6
-8
63
-29
-32
-42
-28
54
-40
8
70
-83
16
17
-34
10
-12
4
41
21
14
37
22
-11
-9
-17
-49
4
10
21
11
23
62
6
-17
5
-4
-24
-29
-8
-35
-18
-55
-37
66
-38
-35
-3
-34
13
27
-25
8
-41
7
-21
4
37
44
39
-15
-23
-24
-29
-17
-27
-18
-12
-14
-22
-13
-17
-32
60
40
-53
4
5
56
31
51
23
4
10
-4
-34
-3
-38
-2
26
-50
-53
59
-17
-49
78
-23
-24
-7
-16
-48
22
1
-32
2
-28
32
44
-44
16
3
-34
40
-16
17
-7
-10
-33
-60
-20
-30
-2
10
35
-12
-42
28
4
-45
-13
-3
-27
34
42
14
-46
-34
-26
0
1
-17
23
7
2
-32
22
53
-23
-19
35
28
0
25
-3
33
8
35
43
52
7
-20
-25
25
7
11
22
45
27
16
42
-52
65
23
-39
27
12
-44
16
29
-3
-35
7
15
-59
-56
-5
-30
-41
-31
-5
-41
-26
36
13
10
-45
-28
4
-2
-37
9
-44
-4
-2
54
44
27
11
-1
-14
-8
-24
-32
-2
10
10
13
32
28
8
21
22
-20
19
-23
22
85
6
-7
35
-15
-18
18
46
-26
-31
32
-13
33
37
7
-8
11
-1
11
18
20
47
45
-38
-63
-41
-18
-7
1
59
46
35
-18
-9
16
-47
-39
53
-21
-36
41
29
1
14
61
25
-9
20
22
-5
-29
-14
-14
0
32
1
13
67
23
-49
-31
17
53
-33
-23
30
-22
-55
97
43
31
3
4
8
-38
-13
4
-31
24
61
17
54
-58
21
30
-78
-46
-25
-32
-15
-24
-5
-3
47
10
28
-13
9
-20
-45
-2
-39
-31
-10
-42
-15
6
-33
-46
-14
31
-17
16
10
-20
1
1
-5
15
-67
-24
-37
-3
31
18
-5
-32
-39
-11
-11
-54
-32
-54
11
-16
-9
50
-36
-19
25
33
-14
-37
62
-17
-48
34
6
4
-30
-5
-10
-24
-25
-58
0
-16
-2
-54
-41
-31
4
14
-5
53
8
62
6
-7
-59
76
3
-15
63
10
-73
6
48
71
5
34
25
-11
-17
-17
-43
-37
19
-31
-7
7
-10
10
22
19
2
17
18
3
-1
37
19
34
-46
-38
-27
-4
-3
12
12
49
20
9
24
20
-8
-16
-19
-36
-27
-26
-4
92
-2
-28
26
15
-7
18
-23
-22
2
-45
-4
50
3
37
30
34
-11
-6
14
-44
6
-39
-11
-30
-36
-10
18
-27
-8
-14
-16
-44
-44
-21
-49
2
45
-26
-4
26
-44
-11
32
30
37
50
-8
1
20
6
-3
-4
27
22
14
41
33
-4
7
15
-6
-58
5
-76
-24
74
68
6
-34
-29
-33
-49
-7
41
41
8
15
24
45
44
26
-72
26
25
8
35
0
-6
1
23
29
-1
23
11
20
30
19
12
29
53
14
11
-23
2
-40
-37
37
-5
-32
13
14
-23
70
44
-14
-32
-18
7
-8
-11
-3
-10
-36
-28
-21
-35
-15
-18
-7
31
6
68
20
22
-3
22
29
-31
4
88
-1
25
-28
-57
-35
12
0
10
45
12
47
-16
31
43
14
-38
-43
17
-42
-28
-2
-3
-24
-30
3
-34
-9
-13
-41
-4
-26
-18
24
5
-37
32
60
0
-11
5
-11
-6
45
-28
3
71
-12
-7
28
12
-19
5
54
-63
-1
12
9
2
2
15
-4
-1
40
31
28
3
-24
-38
7
-20
-16
8
-35
-33
-31
-24
-13
-3
-4
-23
49
74
21
-44
-41
-38
-1
-31
-5
29
4
0
24
-2
-6
12
27
23
-36
-39
-45
-13
24
69
-12
-16
18
-2
27
49
-27
-9
-42
-24
-13
5
66
48
3
-22
-16
-33
-28
-24
-27
23
17
7
-30
-38
18
25
28
23
4
25
26
-21
-27
-11
-14
2
-30
-34
-7
0
-41
-37
-41
2
3
-9
3
6
-13
-58
-6
-39
-17
22
8
17
61
14
3
24
50
64
45
-5
-11
-2
-38
-53
19
43
-51
17
5
-59
-7
-1
10
-18
-72
-16
22
-47
12
41
-5
-15
-39
-29
-36
-9
49
0
26
71
-37
27
72
-19
-8
1
-29
-2
-4
-47
16
71
-35
-43
47
30
-72
27
4
-12
4
95
-15
-60
7
14
-22
-29
-2
-40
-41
-20
-23
6
21
2
3
14
12
22
16
-28
-2
-74
-51
-36
-33
-18
8
2
8
1
54
42
-21
-37
35
-27
3
14
-43
6
75
1
20
0
17
45
45
-29
-19
2
9
23
23
13
-10
-32
-38
-41
-42
21
13
9
-8
-21
-24
-35
-33
-15
24
55
66
-12
11
65
-10
31
21
-8
-9
2
-6
-28
-65
31
-10
-26
8
-21
-22
-13
-10
-25
-31
-14
-30
-79
3
-54
-27
88
24
-16
46
-65
-4
11
13
2
-18
-19
21
55
37
-27
6
31
-4
53
4
29
29
-12
-28
-23
-11
20
-30
-37
-9
-18
-6
-12
6
10
-24
-24
38
-55
-24
20
-31
-39
-15
-24
-14
5
2
46
22
-29
-35
-46
36
13
23
-31
-33
-18
-36
-3
-23
-21
-23
-14
-20
-11
-13
-12
-17
-50
-22
-9
-5
-8
-14
-28
-9
-17
-28
-1
-17
-5
6
-38
-23
69
13
-39
21
-12
-58
-2
-24
-30
5
29
12
58
26
18
1
7
4
-53
-34
61
-14
67
6
37
28
-21
-1
10
1
13
13
15
28
35
41
-34
-29
14
-35
-45
2
1
10
18
-21
-20
-9
1
25
50
18
15
57
42
50
7
4
-23
-8
-54
-22
-10
27
6
-23
56
11
-4
48
4
11
51
-4
-16
54
20
-4
21
4
-2
14
-31
-29
19
-53
-24
-8
-66
35
-31
-22
-10
-6
-1
-4
13
31
62
-76
-26
-29
-18
28
7
-4
32
37
-13
11
35
-46
9
9
-41
-10
43
-29
-27
18
-39
-1
40
-22
3
45
-12
-34
-28
6
2
-7
0
-38
-18
26
-28
-59
20
25
-19
48
-22
-38
-28
-31
-39
-22
0
9
-7
55
40
7
17
-9
-13
-76
-40
50
-16
-14
29
-40
-38
28
-18
-55
18
-18
0
57
10
-34
22
7
-41
15
30
-32
-12
-23
-27
-13
-33
-11
-2
-25
-14
56
8
-87
42
-11
-25
26
10
-42
0
-22
2
28
8
16
26
39
39
-6
-10
5
-27
-9
40
35
23
50
8
52
10
-9
-1
-55
-36
-34
-20
-52
-12
8
-34
15
39
-39
16
37
-39
6
36
31
43
41
-6
5
-31
-14
-7
-5
-8
-27
4
-39
-17
-5
-16
5
6
47
50
43
-31
-34
-31
-39
-31
-8
-33
-7
-43
1
70
39
-6
8
17
13
-17
44
17
10
31
-49
-13
-26
-11
0
27
-44
-14
-11
4
-2
-20
46
-16
-42
69
-27
-34
37
65
69
17
22
-4
-4
-17
-15
5
3
-2
23
6
42
16
11
19
13
-3
-18
0
-10
-21
-14
-32
-33
-22
-1
9
-21
-25
-4
-47
-12
-26
-30
-24
-35
-23
17
-18
-38
-12
-2
-7
-2
-14
-10
-14
-26
-15
-15
-23
-40
9
-1
-47
33
21
-68
30
16
10
19
54
10
4
21
3
-8
-4
58
14
-33
-18
12
-49
7
4
-48
-23
-37
-10
-24
-11
31
-13
30
49
-25
-30
-28
-15
5
-6
34
21
16
-28
-50
5
52
12
-45
35
37
-49
-37
-50
-15
15
2
21
17
54
21
126
16
-15
39
-39
-8
1
40
-61
-17
-32
-60
-15
-10
-24
-27
4
-3
-45
-15
27
-62
22
61
-38
4
9
-36
-10
-21
-21
-34
-48
-7
35
36
37
23
17
27
27
26
35
-13
25
28
15
-24
33
-9
-40
21
-60
-7
21
14
-26
22
-3
-52
48
44
-37
-6
39
18
22
39
32
-47
-43
-23
-31
-12
-28
-12
5
-14
-29
-19
-29
-33
-3
-46
-28
-41
8
25
18
13
10
8
-16
-11
37
-8
28
58
21
-8
2
14
-29
-38
-36
-16
-12
-10
-29
-8
-20
-35
-2
25
-41
-32
21
21
-25
-27
25
-38
-35
13
-18
-36
18
65
-2
-21
47
-5
0
1
-34
-45
-3
34
-37
-4
67
-5
1
10
12
20
9
22
19
24
12
6
13
-60
-33
-34
1
-24
-6
20
52
28
-11
-14
-9
2
60
54
-20
18
16
19
3
36
12
15
56
-21
-17
13
-44
59
78
-16
24
-42
-17
-31
-60
-40
-46
-3
14
-3
-11
57
30
5
-13
-34
-24
-10
16
-4
41
23
22
-10
-20
-32
-25
-21
-9
-21
-12
-3
23
23
72
-14
-10
-22
-20
-22
-15
23
26
75
-27
-26
-15
-5
-10
-47
20
1
-25
40
-3
0
51
9
-31
41
14
25
15
14
-9
36
30
2
42
66
40
17
8
5
-51
-10
-45
-23
-31
-46
8
23
-30
5
49
43
-46
6
26
-61
21
29
-9
-19
7
40
26
37
4
-8
7
-11
0
10
-23
-35
1
-28
-32
8
-16
-15
21
-16
-7
-37
-41
-24
-7
2
-11
7
8
-1
-1
25
37
16
16
14
28
16
23
9
-43
-39
-69
11
18
-3
-30
-17
4
-29
-29
24
29
-32
69
-43
-41
-17
14
-9
-26
-3
55
10
-12
7
-14
2
69
15
-28
61
-7
-11
12
-5
-29
-30
-21
-19
-32
-4
35
21
41
26
-9
30
7
11
11
-18
-33
-31
11
-11
-15
34
32
81
-11
6
17
-23
-13
-14
-44
-39
-25
-50
61
-28
-35
44
-33
-65
26
15
20
14
28
0
5
18
31
11
36
-9
-1
-5
-21
-30
-26
-12
-18
-5
-3
-29
-27
-24
-17
-4
-6
-12
-33
1
-46
-25
11
-25
34
-40
3
-70
-13
-36
-4
3
-16
-9
-15
-25
-16
15
-13
-7
-16
-26
-8
-46
-29
5
6
14
55
23
28
24
-30
-21
1
31
-13
-73
22
45
-18
-35
13
-63
-45
-48
-43
14
-12
-14
13
4
13
-24
30
28
8
91
-8
5
-30
-74
-16
30
26
-14
46
-2
-68
12
17
50
44
33
22
-6
-15
-18
-31
-6
-25
2
7
-42
-10
4
-14
-38
-13
33
30
11
14
16
-14
-45
-16
-47
-37
-19
-45
-34
-21
-13
17
21
25
26
67
51
-9
-20
-21
-34
-6
-21
-3
-4
-23
-18
-11
-19
21
55
4
59
-1
-41
-55
19
47
-110
56
80
