192
-0.0025999714
-0.08473733
-0.06827069
0.0053728456
-0.047824513
0.020463705
0.01968597
0.024450218
0.020110741
0.03078302
0.019870942
-0.016513582
0.032809094
0.16919754
0.07146574
-0.0002434412
0.057449363
-0.04516816
-0.0040847897
0.046846822
-0.0017995583
0.0737072
-0.003544474
-0.00833451
-0.0051319357
0.034928937
-0.026886618
-0.05765613
-0.03642669
0.0042016394
0.06971961
-0.02003875
0.01605172
-0.01973333
-0.021856619
0.16903569
0.057963636
0.004212157
0.012915932
0.09247929
-0.11770389
0.049010985
0.035100926
-0.05074007
-0.07795481
0.07800482
-0.049729016
-0.078108914
0.0074386382
0.08124531
0.08149304
0.0638483
0.046760887
0.054179125
0.036096632
0.05313544
0.064003214
0.013915041
0.04354959
0.0013318919
-0.011816611
0.049068794
0.049963176
-0.04671152
-0.027944239
0.0065918537
0.04400089
0.10494634
0.09514661
0.078918815
0.15697007
0.03657456
0.11310336
0.058665164
0.041551564
-0.017699795
-0.021413265
0.06634476
-0.030281205
-0.05146429
0.025798557
0.06011336
-0.028681716
-0.03970192
0.054306913
-0.013123042
-0.00934769
0.054024033
0.058998805
0.018803498
-0.03920684
0.032860328
0.0021684456
-0.075783275
0.0836574
0.08122429
-0.020472279
-0.037490726
0.038229227
-0.04627534
-0.06446203
0.12859514
0.06123405
-0.049519904
0.098453306
0.039692786
-0.018080851
0.08172442
0.04770199
0.027675327
0.03735554
-0.0069427155
0.016123481
0.032773484
0.052020147
0.011762872
0.022510221
-0.07314603
0.11068842
0.005674421
0.04379894
-0.04123448
0.016702479
0.067983784
0.027243204
0.03593251
0.004527621
-0.053409673
-0.045800798
-0.040861573
-0.028511949
-0.059057266
-0.036520794
-0.0011905453
0.08425089
-0.10051414
0.08629817
0.013979588
0.101258
-0.068073094
0.012979118
-0.0117758475
-0.017624151
-0.05912656
0.08795795
0.073111795
0.10760237
0.03565453
0.12559192
0.04583759
0.025792968
0.015095169
0.116594106
-0.0034522512
-0.033360902
0.094612285
-0.01698406
-0.011068333
0.16435756
0.02984824
-0.05153877
0.03942936
-0.043110415
0.07744371
0.13922837
-0.025341434
0.037407618
-0.046991035
-0.03500909
-0.0527401
0.031319268
0.02327113
-0.015529452
-0.028843936
0.06686252
-0.04487773
0.0785214
-0.02427724
0.06461637
0.07100861
-0.00061269756
0.0051849745
0.010610649
0.04544957
-0.09074073
0.053111095
-0.055216268
-0.0064664995
-0.028304182
0.05792636
-0.009372844
0.010577835
