96
-0.0804416
0.023165599
0.04109957
0.03985897
0.029023774
0.07380823
0.022379225
0.06707889
-0.019885842
-0.04897883
0.054011174
-0.03501086
-0.07910978
0.012731341
-0.037157256
-0.053486828
0.03969976
0.061224256
0.034457546
0.079977274
0.13315792
0.019078784
0.020755842
0.0011150148
-0.01171596
-0.008462411
0.052581444
-0.035669975
0.070009775
0.07336795
0.042603225
0.07831051
0.02048237
0.0074647777
0.098217145
-0.0032083392
-0.014819553
-0.032215588
-0.051947292
0.004963194
0.0730571
0.051376406
0.045840923
-0.051669765
-0.053252432
-0.013944572
-0.051013324
-0.014079826
-0.015437815
0.03299193
0.06831379
-0.08210974
0.08272366
-0.024270546
0.105189905
-0.023355462
0.050456665
0.013420997
0.03109222
0.05362857
0.06754195
-0.0321079
0.078606404
-0.021930875
0.014514556
0.047381658
0.07053943
0.015183157
0.032064885
-0.0859753
0.12734765
-0.018585209
-0.0064072376
-0.022614267
0.09593125
0.061520234
0.052893154
0.024390206
-0.0030990466
0.045897815
0.034032334
-0.027986959
0.0051957276
-0.03798312
0.025397763
0.00089360215
0.1643051
-0.012091944
0.03717772
-0.06330735
0.07021177
0.16949733
-0.0005788759
-0.016305389
0.014807237
0.094762966
