960
-0.064836204
-0.1310497
-0.0044325963
-0.27113694
0.92089
-0.2921802
0.42654487
0.0031399503
-0.05671443
0.25700513
0.21277139
0.81227595
-0.40028438
-0.0005156025
0.1524322
-0.795141
-0.02707877
0.7680368
0.6076169
0.2745468
0.6690478
0.3990938
0.68365186
-0.61287916
0.38606596
0.4986555
0.47304896
0.030969754
0.9230178
0.2982873
0.47128633
0.689934
-0.11025999
0.13912682
0.7228747
0.78711945
0.04920344
0.041444823
-0.13429256
0.3133825
-0.035310864
0.4820283
-0.43496558
-0.36465868
0.7416222
0.18825506
0.2570146
0.2627447
0.40981114
0.3608753
0.48763165
-0.8700434
0.6645154
-0.09483854
0.15665352
0.5529525
-0.08855829
0.46987572
0.056200657
-0.39418828
-0.075221926
0.18747021
0.37440866
-0.7611723
0.27882472
-0.057092603
0.09956229
0.8103061
0.56632066
0.66696537
-0.26668793
0.3432673
0.10229356
0.014566317
-0.09073919
0.34730503
-0.04863588
-0.21124534
0.17860246
0.050365776
-0.05135786
0.23673233
0.4534375
0.05533305
0.72142875
-0.21279326
0.11305838
0.3044319
0.46720922
0.6343955
0.5570231
0.5800659
0.48771673
-0.34306118
0.24467112
0.24001496
0.2527555
0.2735795
-0.024526618
-0.52931404
-0.68195605
0.5204819
-0.40514636
0.22455244
-0.6423533
-0.14064074
0.5336343
-0.12911177
0.19593936
-0.04717702
0.56456876
0.3916452
0.47597304
0.43462494
-0.17365088
-0.36231017
0.039674755
0.075325176
-0.34695467
0.37325603
0.36836678
-0.7677269
0.053342953
0.41816545
-0.46763593
0.72595114
-0.33142874
0.31605524
0.5890349
-0.4550394
0.5171559
0.42152047
-0.007322099
0.517579
0.23126209
-0.79678833
0.37375998
0.63019484
-0.28604573
0.2328386
0.78613013
0.025877478
-0.076754354
0.048097238
-0.03178694
-0.5831107
0.14600241
0.6819401
-0.046549037
0.39768672
0.15967773
0.59915483
0.4323554
0.56768775
-0.016705237
0.8691977
0.42228985
0.635254
0.44913253
-0.24973515
-0.04973145
0.8077656
0.26002002
-0.88372314
0.44757366
0.25185856
0.020123519
-0.017544046
-0.034000404
0.8404683
0.32427764
-0.6316564
-0.07270512
-0.606624
-0.17524731
0.5897397
-0.47724658
0.6078995
0.15071857
-0.8650396
0.5967185
-0.12774792
-0.25599578
0.31378
0.29118803
0.33993682
-0.16825396
-0.011543244
0.11689153
-0.825875
-0.5178581
0.046916753
0.37237966
0.3121725
0.124918945
0.2530575
0.3606167
0.5141938
0.31053424
0.51939565
-0.4143386
-0.83995444
-0.3689217
0.47252107
0.43258765
0.6778608
0.5293192
-0.6212657
-0.8723409
0.5233295
0.7177077
0.79830074
0.49462807
-0.034086615
0.30069718
-0.72266185
0.6414196
0.01844412
-0.42405194
0.70014787
0.04805444
0.48941198
-0.06121172
0.59357345
0.4531019
0.1342758
0.34163105
-0.11960978
0.7986244
0.39551505
-0.76022166
0.26024815
-0.13834137
0.16008818
0.32726744
-0.6952932
-0.31961358
0.5028652
0.022006273
-0.07490613
0.39234975
0.35917926
0.08346974
-0.09231134
0.44339052
-0.16182418
-0.79333717
0.5379497
-0.44470698
0.14077976
0.4887272
-0.53755105
0.6832103
-0.35777542
0.54877704
-0.027462684
0.33570316
-0.566688
0.2674525
0.4534083
0.4562118
-0.59630483
0.2778035
0.40702638
-0.43746108
0.36578572
0.0049088895
-0.4687676
-0.060624555
0.44417602
-0.049299438
0.52692133
-0.1823523
0.5106612
0.2447139
0.16205284
-0.13074647
0.070818596
0.43594038
0.19653286
0.13620272
-0.77236307
0.17002125
0.40443438
0.291254
0.014000464
-0.18354432
0.18962179
0.103311874
0.869426
-0.46683592
0.48007202
0.08727215
-0.23951998
-0.21035802
0.38803017
-0.6749819
-0.57671875
-0.08035137
0.08419387
-0.32177782
1.0407717
-0.059751175
0.13056189
-0.59248656
-0.07745081
0.40922257
0.013206936
0.6485868
0.5226433
-0.7724969
-0.41153795
0.04510151
0.013060451
0.6407041
-0.21212362
0.4993562
0.019026779
0.69089466
0.5588801
0.62420356
-0.9305284
0.40619516
-0.16119847
0.15454787
0.23089665
0.2902284
0.014180616
0.6206739
-0.024451606
0.41585347
0.2607981
-0.7318441
0.18327507
0.3747513
0.7555327
-0.5138673
0.5911962
0.5064403
0.29141268
0.14737105
0.303171
0.26168302
0.056545056
0.053275503
0.46117452
0.32381484
0.26720327
0.60070544
0.3597894
0.14631495
-0.09504254
0.4442784
-0.034456193
0.6865085
0.45756677
0.823422
-0.6255379
-0.44914734
0.34628543
0.61004657
-0.7635009
-0.17932287
-0.0873764
-0.016429417
-0.35769403
-0.3184387
0.3657195
-0.0026331395
0.3354185
-0.1299153
0.6580955
0.16620272
0.45477352
0.40745872
0.117842674
0.520346
0.31459725
0.38335496
-0.035675086
-0.9048903
0.4014145
0.020896196
0.33986518
-0.0057137758
0.41221157
-0.023597395
0.81449807
0.2838677
0.29223296
0.38070154
0.37639558
0.2945908
-0.20427729
-0.028888188
0.11250194
-0.37561348
-0.02149932
0.41106102
0.0088418145
0.58784455
0.8545287
-0.16989137
-0.13049117
0.38656095
0.16415139
-0.39839214
0.44996917
-0.1472012
-0.3925829
0.05334184
0.15381011
0.4297749
0.029469967
0.11846934
-0.6472171
0.52335787
-0.27306157
-0.62699777
-0.112387255
0.45805478
0.6169539
0.5721989
0.7764117
0.14626354
0.51136374
0.57798475
0.8112642
-0.6977186
0.36793584
-0.45709932
-0.17865685
0.38027844
0.01401137
-0.6191599
0.37576315
0.074631125
-0.6561046
-0.37830845
0.4114491
0.6481553
0.12744316
-0.08791584
-0.48480332
0.3557202
0.7415757
-0.22742683
-0.44623947
0.30691075
-0.67969865
-0.05148364
-0.42032528
-0.31816646
0.25050607
0.023097053
0.277279
-0.06627156
0.29078382
0.036462456
0.65369695
0.54345846
-0.1685234
0.4529103
0.19300678
0.22639592
-0.46390206
0.5631534
0.18117231
0.16197014
-0.4329502
0.40009952
0.53652406
0.31479478
0.31234542
-0.34964707
-0.074936725
-0.082348906
-0.45102313
-0.002489403
0.6480554
0.13394193
0.5598685
0.29532582
-0.33927652
0.025754087
0.15976636
-0.42002147
0.15224303
-0.17189805
0.1860947
0.241849
0.39415187
0.19856203
0.6032018
0.4150387
-0.22408268
-0.15884373
0.239595
0.32724985
0.24153769
0.38901296
-0.13180211
-0.23275729
0.47688147
0.30632958
-0.70048285
0.40957782
0.23633763
0.10241317
-0.29194626
0.6007621
0.4932859
0.7806452
-0.05230584
0.56062067
0.42195314
0.612902
0.20401965
-0.45635518
0.7175582
-0.13193883
0.703544
0.035980653
0.1681341
-0.5587527
0.46812055
0.32562235
0.5049488
0.38542396
-0.023227528
0.51683104
0.42523533
0.54293954
0.80945593
-0.002238378
-0.028248083
-0.11216687
0.024248507
0.41406968
-0.7098572
0.82344466
-0.09504305
-0.18501024
0.81001186
0.049883083
0.39695808
0.450336
0.017115578
0.16986766
0.25486544
-0.6991592
0.26474592
0.6356707
0.27534083
-0.06838129
0.21746658
0.48052904
-0.05315817
-0.8770459
-0.4551058
-0.1757316
0.07990278
0.055667527
0.7785793
0.19166873
0.51492673
0.43461114
0.6605538
-0.60770494
0.16432956
0.1916284
0.48738962
-0.08541468
0.45096016
-0.122980304
0.26348293
0.38887542
-0.3006038
0.47927314
0.25160265
0.3185576
-0.013930034
0.14356056
-0.1848228
-0.08738935
-0.13340563
-0.63113284
0.55628633
0.6355505
0.13761148
-0.056731623
-0.08026214
-0.5770112
0.25531712
0.42124426
0.3067205
0.5864559
-0.12367334
-0.17158994
-0.7031777
0.6289628
0.5284427
0.4805258
-0.20182158
0.34784174
0.5454632
-0.019989118
-0.35168344
0.24307983
-0.47080365
0.04428491
-0.1971
0.264925
-0.024660505
0.4278151
0.16439727
-0.1180654
0.33641914
0.6791584
0.29250324
0.816257
-0.06835494
-0.8906418
0.80540353
0.050565697
0.35050857
-0.01639063
-0.7399815
-0.475568
-0.09995686
0.27053374
0.45792016
-0.70681256
0.052467197
0.254892
0.44330946
0.28285614
-0.73982525
-0.8250036
-0.8538942
0.57645285
0.5603276
0.0013488978
0.21626952
0.43914047
0.025360279
0.640909
-0.2215597
-0.37648246
-0.6734042
0.16028857
0.30986062
0.14415656
0.5137475
0.7431492
0.43815237
0.027100757
0.01924026
0.1943957
0.15226582
-0.60221106
-0.42919952
-0.07121092
0.37456304
0.31651166
-0.7514399
-0.16991661
0.4180275
-0.09271563
-0.30764067
0.06183964
-0.36521733
-0.807927
-0.2126041
0.08469045
0.1505552
0.55186045
0.56891334
0.8204803
-0.2290355
-0.6073217
-0.57840854
-0.5627719
-0.023814827
-0.10109721
0.7340395
0.75301284
0.048365593
0.079034954
-0.68491894
0.06415118
-0.5671488
0.1694127
0.77719384
0.30265763
0.12255798
0.49553588
0.7790384
0.6611421
0.33993864
-0.3593919
-0.037535995
0.42088035
0.78049546
-0.3526717
0.55577487
-0.19096777
0.2179483
-0.5722685
0.5043836
-0.28911895
-0.15177357
-0.5095223
0.63625425
-0.11135589
-0.5188273
-0.51851004
0.23467591
-0.09091997
0.46061414
-0.029080003
-0.75653386
-0.1417368
0.5511867
-0.7843945
0.31389022
0.2759024
-0.04124564
-0.30578607
0.03843511
-0.46557146
0.56986016
0.49845734
0.17625906
0.7015846
0.56918865
0.04516118
-0.107467875
0.5646549
-0.3182909
0.73011935
0.70830834
0.24686727
0.52979183
0.868286
-0.04682362
-0.340092
0.2479207
-0.14926684
-0.6532662
-0.17355947
0.22454925
-0.31216434
-0.22445667
-0.69867253
0.43383604
0.13214523
-0.3828188
0.15342665
0.11390202
-1.0206906
-0.23696046
-0.5541074
0.22799143
0.85319775
0.47344995
0.5494383
-0.1920969
-0.6684732
-0.031040493
0.88312954
-0.6784865
0.030965008
-0.25364828
-0.13909487
0.31410968
-0.5268296
0.65957874
-0.10587651
0.21611175
0.55177665
0.10944249
-0.60141695
0.22542232
-0.6352856
0.6480056
0.17590186
0.71548057
0.019844979
-0.11352598
0.40865564
0.36320177
-0.12016689
0.22896945
-0.5139118
0.19347304
0.4541955
0.38593048
-0.3528801
0.37234715
0.6054861
0.0032584462
-0.24224713
-0.8368137
0.011280738
0.6689894
-0.61759555
-0.07601598
-0.26882505
-0.5263377
0.44305137
0.4643399
-0.017521538
0.4678189
0.91735643
0.10139049
-0.29435536
0.05433242
-0.12640214
0.27299982
0.004815191
0.47464678
-0.5831889
0.0145685375
0.1947163
-0.52642435
0.32742524
0.21911675
-0.19827509
-0.1494641
0.47442594
0.30681586
-0.3455513
0.054577217
0.14590105
0.31634885
-0.15085018
0.4537819
-0.036429524
0.1280299
-0.010646082
-0.12220736
-0.92321044
0.20854595
0.72460717
0.384026
0.22280514
-0.29896286
0.34625804
0.6727154
0.24141651
-0.007581353
-0.18074289
0.6303782
-0.5462232
0.46162197
-0.16770053
0.7239496
0.5045336
-0.05343361
0.49349856
0.2601179
0.4807723
-0.08493427
-0.07791723
-0.8671957
-0.025545124
0.30883
0.42330503
0.1352418
0.81922567
0.9254381
0.4151832
0.2908257
0.41856214
0.35061857
0.41107693
0.30767033
-0.6177301
0.64207584
0.44517457
0.35667282
0.9090075
0.5098232
0.13618197
0.2810471
-0.025949763
-0.045974407
-0.02145544
-0.17646667
0.6264381
-0.7622323
0.2975927
0.6596012
0.26411492
0.89303046
0.4030257
0.016844068
-0.03472398
0.17356126
0.584718
0.75351906
0.24290115
0.11359578
-0.318232
-0.31615514
0.7942429
0.31627503
0.34920228
0.68078053
0.1806423
0.46809983
0.77477115
0.5428344
-0.62042844
-0.32873005
0.66223776
0.46326303
-0.64339674
0.5287248
0.07982081
0.9476576
0.1136964
0.71101195
-0.7328328
-0.009604707
0.47498688
-0.28870487
0.689964
0.031561196
-0.33489004
-0.6501841
0.25411427
0.34626997
-0.011379208
0.3048511
-0.026009196
0.6303637
0.17426804
0.4510545
0.38695133
0.21142077
-0.48569518
1.0066986
0.5766131
0.5162167
-0.69971746
-0.09481602
0.1882325
0.7142328
-0.7669019
0.42356262
0.103236794
-0.46646315
0.91151357
0.17201516
0.1857226
0.16260257
-0.10028178
0.26975575
