192 1 3 3
-47
18
15
-48
14
59
-21
13
52
-26
-8
-19
54
75
-3
14
-17
3
58
0
-9
-21
-39
-51
-28
9
7
31
-22
-31
-1
-21
-21
-25
-22
-15
-33
-39
43
-34
-42
70
-46
13
14
-30
5
26
51
47
-10
32
-19
-32
-17
27
-5
-3
-16
-34
71
38
26
-52
-40
-4
-40
-30
-31
19
31
36
-37
-23
28
-65
38
54
5
-33
3
23
-29
-12
-19
-21
-63
-33
-17
-22
-21
-3
-101
-23
-72
28
20
33
33
33
8
79
-87
-19
24
15
-46
2
42
25
-40
38
-3
-29
65
24
-15
2
35
-11
23
53
-71
6
17
-49
-16
31
3
-25
52
-12
-64
35
-29
18
26
6
13
26
18
10
18
14
-33
-44
-4
-61
4
9
-27
5
36
-19
-6
-11
-20
-2
-25
-31
-15
-21
53
23
13
38
29
20
-29
-18
-2
4
31
19
27
26
4
-5
15
36
21
9
0
20
-13
-37
-68
-34
4
1
45
6
55
-16
5
7
-55
-48
24
-20
61
-49
7
-28
64
-44
-41
19
-10
12
83
21
-85
13
17
-59
5
-33
14
-23
-1
-8
-27
-29
1
-12
-37
16
12
-40
42
-20
-15
56
-32
-32
-32
-39
-12
-6
18
-14
-22
-5
-36
51
-77
62
29
-42
28
-45
-60
-24
21
10
-9
-60
1
42
72
6
-51
2
-16
-10
-29
4
-18
-6
-14
-45
62
19
-90
12
-4
5
85
-6
-29
-32
3
-30
2
-30
-15
0
0
2
18
21
29
8
-21
44
48
-46
49
38
0
3
40
-9
20
26
-5
-19
-1
-64
-39
1
-13
-25
8
-48
-44
46
-11
37
81
-17
14
5
47
25
-42
3
-7
-12
-110
2
86
14
-44
-29
55
-15
-10
63
0
76
4
-105
57
81
6
-11
-42
60
-36
25
-33
3
4
-55
-20
9
-43
56
4
-2
21
27
35
32
-1
4
11
7
-37
-35
30
-27
-32
61
15
-33
30
-22
-10
8
12
37
-2
21
62
-17
-25
-11
-4
-21
-28
-16
-14
-27
23
-3
-27
27
-21
-13
22
-3
-47
-20
92
-10
-58
-1
11
-6
68
-39
15
-12
-46
70
22
-20
55
-5
12
14
37
40
-38
34
30
-42
4
-1
-14
-37
-27
-42
-11
6
1
-16
-4
-28
25
69
11
-40
-34
0
-23
-44
49
23
33
25
36
1
-2
-20
-1
26
-13
-14
5
38
10
6
30
36
-17
47
51
18
-4
45
-11
21
-15
-109
-4
6
112
-33
-23
-13
-45
16
59
60
27
-44
-23
2
-33
-44
-58
-26
-70
-5
-47
10
-32
12
43
58
9
50
-68
-1
49
-55
35
27
-86
3
10
20
-5
34
51
-78
-59
-55
77
-13
16
28
60
13
-6
-18
-23
1
18
-8
-13
-22
-42
-24
-18
-18
-4
3
-10
-16
-32
-16
0
-8
-39
9
0
-12
6
-34
-45
25
-38
-29
26
17
-32
70
2
-29
54
-36
-26
6
8
4
4
20
-1
-16
44
31
-36
-9
-5
-16
8
7
-49
-6
17
-3
-59
29
-88
42
48
-23
-57
-27
11
-24
-13
15
-11
-44
56
36
-3
-3
3
53
-17
1
57
-13
-9
4
7
-1
-9
4
-38
-32
-60
-14
-8
-36
-38
-21
-35
22
33
31
29
30
-20
-11
-43
28
38
-6
3
98
39
-67
-22
-55
5
22
5
11
20
3
-12
-17
2
-9
18
-12
19
84
37
1
53
-6
-10
17
75
6
-14
12
-10
5
35
-16
13
29
-61
-50
-8
-2
-40
-62
13
23
26
45
23
9
-23
-30
-33
83
-13
-31
14
44
-14
4
58
-14
-5
61
20
-13
6
-7
-19
-19
-31
-8
-6
-22
-39
10
-33
-47
17
36
8
29
42
-21
6
20
49
-55
-58
24
43
19
-14
-35
-34
6
-27
-29
-10
-26
-33
20
45
68
12
-26
-78
-92
-33
74
32
55
26
27
15
5
32
15
49
9
5
-5
31
-37
-11
29
-71
-31
23
-29
47
-23
-17
-2
-30
4
-36
-28
7
-30
-18
-16
-110
31
-15
-37
54
6
34
4
25
-68
47
-33
4
-22
-57
41
-14
-30
-12
-27
-17
-15
1
-10
-13
10
6
15
-14
-3
34
-30
14
54
-15
-25
48
-26
18
46
24
28
87
19
9
-28
41
5
-24
44
14
-7
-8
1
-27
-14
2
-54
-7
-31
-32
-35
16
19
-16
-8
45
-38
24
37
30
-15
-50
8
25
-32
24
17
-35
-75
-28
36
83
10
-35
71
-25
41
0
12
2
72
68
26
-37
-5
8
-6
-9
-1
2
33
16
28
41
5
79
-3
25
33
7
21
-14
-21
-11
20
46
35
-28
-91
-105
21
1
36
5
-20
-18
13
8
16
25
51
37
-17
-7
-19
18
17
14
25
28
67
-49
-89
-39
17
30
-2
25
72
11
7
-54
-33
26
-9
-6
2
-26
-22
-15
-20
-17
-20
-55
-31
36
-21
-7
5
24
36
-38
20
12
-32
16
49
-48
17
-37
-52
37
-2
-17
39
-19
9
23
11
-28
-30
3
-79
-42
45
-59
-27
7
13
-11
-26
5
12
84
-25
12
-12
-19
0
12
-3
-44
-53
-49
-50
-12
-4
1
12
-4
-3
-22
-47
-27
41
-48
7
26
-1
13
13
56
34
21
-62
-31
-2
4
2
-42
23
-6
-19
-9
-42
-16
2
-53
13
22
-3
-3
25
-32
-46
34
-9
-27
-35
11
14
2
26
79
-24
-49
5
10
-51
-56
-70
9
44
-28
5
46
-36
-24
-29
-17
-21
-13
-3
-16
21
-1
-28
-1
-5
-13
-14
15
10
-53
-42
-27
-25
-25
7
-11
-36
4
41
23
13
30
51
-44
14
-43
-45
-23
24
31
-4
34
66
-45
9
20
-40
-61
22
-4
11
25
-25
50
16
-78
-4
-24
-55
-10
-14
-19
-37
-6
5
-11
-56
-43
-33
5
18
70
56
35
-44
59
26
-47
44
17
-15
18
12
43
40
17
13
30
2
8
0
-27
-21
5
3
-5
32
20
4
37
27
18
-12
28
-47
-30
-5
-29
-23
-5
0
-48
-5
9
-15
23
33
-68
45
2
-48
9
54
86
-86
-39
-83
17
-3
41
-22
-3
10
10
-59
-61
14
5
-10
0
-8
-35
-1
-26
-25
0
10
49
2
14
35
27
-34
22
-19
-79
-4
-21
18
-40
45
30
15
-55
-10
-39
8
6
6
4
50
78
44
8
25
71
-29
38
-4
-71
4
-17
27
6
-13
21
47
-27
21
37
-3
-44
-37
-29
-27
-17
-6
13
-20
5
-9
-5
-59
-94
4
28
-22
0
-47
-33
-53
-35
9
45
29
38
-63
26
-7
-32
-41
36
-13
-52
-9
-1
18
-28
-31
4
-13
-29
30
-3
-37
-16
-47
1
-34
10
19
-58
-11
22
-31
21
-19
-43
-31
-39
-18
8
-9
-14
-1
-9
31
17
29
6
27
29
26
25
-2
6
24
29
8
25
6
17
20
-4
-31
68
48
-21
-1
16
-15
21
5
56
-9
26
19
-11
9
46
-27
-12
-19
-22
-20
-7
-1
-19
-21
-30
-46
-6
43
-35
-21
35
-18
36
42
35
31
2
16
6
0
-17
-8
11
9
-15
-30
107
34
-28
19
-50
39
22
7
17
22
12
15
14
-15
-18
-13
-17
-15
-10
-14
-16
-24
-9
7
73
34
-11
6
5
-21
1
2
6
6
16
-16
-6
63
-4
-12
44
-3
3
-58
41
23
-36
1
33
-44
52
23
57
-20
18
-10
-81
-34
42
-4
-21
-11
-29
-21
-26
-7
-14
5
-63
-55
-4
-6
17
19
8
-11
69
-31
-13
-22
-16
-16
-9
-18
-4
-10
-14
26
27
18
39
28
-9
34
-20
31
41
-39
60
-10
11
-21
30
13
-42
-43
-2
-13
-16
-27
27
-13
-20
-22
-5
-8
-11
62
9
-42
72
9
-7
9
-37
-43
-20
-23
-13
85
11
-1
-17
-37
28
7
-54
74
40
-16
67
6
-38
49
24
3
9
-8
-31
32
-7
34
-18
4
47
16
-16
44
0
-40
-22
26
-26
-9
7
-38
-25
43
40
-36
9
39
53
-6
-62
-53
69
14
35
-70
-57
22
-56
-21
-11
1
12
8
21
29
18
31
18
15
28
41
-40
43
13
-19
-3
-14
-68
-23
23
61
25
-57
86
26
24
-53
-31
-5
1
-12
-19
10
-32
-40
-19
-27
29
-30
52
-21
10
-45
-12
-55
57
-32
-52
26
-20
-25
7
10
-6
54
12
25
-91
60
49
40
-69
-86
12
21
-1
-20
44
48
44
3
5
47
38
-65
7
54
-62
21
30
-50
-8
9
-43
-55
6
-26
-63
-8
30
-1
30
51
28
-3
47
37
24
41
30
-36
-44
36
-5
-34
14
16
-40
9
22
8
-2
16
33
-7
24
34
-38
-8
82
-1
54
31
18
6
-91
18
-43
8
5
84
28
-95
-35
39
-4
-51
-17
-5
-6
12
-8
127
36
-33
35
-19
31
-33
101
12
9
-1
-3
-15
-26
-12
-23
-24
-27
2
-32
-28
-39
31
-10
-59
56
-3
-14
31
