192
-0.019374534
0.005727193
2.9599294e-05
-0.00079956464
0.055689108
-2.0567095e-05
-0.005678905
0.08540872
-0.047910087
0.12461564
0.013571197
0.04245043
-0.031932373
0.12797682
-0.008753091
-0.049063478
0.031578522
0.0072698384
-0.038374037
0.039628312
0.01570011
-0.04032214
-0.039164778
0.047522187
0.0070304945
0.05882945
0.05589261
0.0060936585
0.04451973
-0.0033138855
0.032351926
0.01846222
0.038264535
-0.02710989
-0.083367094
-0.06740484
-0.056812122
0.04396799
-0.015213257
0.010230356
0.037875146
0.046628535
-0.03871859
-0.0012829788
0.028812535
-0.091064796
0.06204441
-0.014232153
-0.002276376
-0.040234506
0.02036768
0.1235042
0.034201097
-0.040207073
0.039863463
0.05387683
0.060820077
0.13450207
0.040595356
0.010703972
0.049704187
0.043616455
-0.09825386
0.018764574
-0.035853155
0.033279225
-0.01909363
0.05849409
0.009444071
0.011584694
-0.07577203
0.0052590035
1.47316605e-05
-0.02590126
-0.0070598642
0.04555194
-0.019117821
-0.010282268
0.01874105
0.08740934
0.041089304
-0.061230164
-0.018771712
-0.021245003
-0.00870573
0.041682575
0.17625192
-0.043907963
-0.06350872
-0.004157424
-0.0863383
-0.059288014
0.010884262
0.052520912
0.031267546
-0.09682304
-0.11663739
-0.011494661
0.055497147
0.03748402
0.11403672
-0.00045350846
0.109750435
-0.041221444
-0.055974647
-0.0014293427
-0.017158275
0.076761015
-0.0130030075
-0.0057977475
-0.0196056
-0.027037255
-0.0052007716
0.011937436
0.060567927
0.100787885
0.026098529
0.0058182343
-0.013089025
-0.013626977
-0.01347383
0.023244787
-0.025555596
0.11660198
0.015380533
-0.104113325
-0.0048047714
-0.018628487
0.035775676
-0.05810714
0.09538633
-0.011668055
-0.039480124
0.019100904
-0.01149587
-0.07503964
-0.0046567097
-0.022018977
0.08105766
0.07572958
0.026131606
-0.030981887
-0.060078643
0.08160447
0.040741216
0.04568194
0.068201914
-0.06538874
-0.07288396
0.016006628
0.030762304
0.04416026
0.03043978
0.016292423
-0.03758262
0.031299014
-0.018558579
0.070238695
-0.006147826
-0.025503745
-0.007538658
0.0164173
-0.03832826
-0.033353783
-0.005177096
-0.046812996
0.06347508
0.042204395
0.07230422
0.08887011
-0.015831195
0.12304717
-0.04973693
-0.08999135
0.047165833
-0.07969274
-0.030123359
0.050533324
0.077068634
0.008019921
0.019421529
0.11776107
0.061791204
-0.12173003
0.17470995
-0.07285792
-0.048775442
0.030946558
-0.09226845
-0.025313903
0.019451298
0.058257814
