192 32 1 1
-3
7
-40
-1
5
58
-24
27
15
-5
16
-26
1
14
30
6
-2
-11
16
-30
5
13
23
14
5
-7
-15
12
16
-25
25
26
-18
-38
-4
23
15
-32
19
-10
-7
8
16
-34
-10
34
0
-44
29
12
-14
-26
-21
31
-7
37
-51
67
42
27
27
-8
-10
-6
-22
-28
5
6
-43
-17
-7
38
4
-53
-38
3
-14
-33
-2
-17
-13
-23
1
6
-32
7
-30
-18
-30
46
-20
3
-30
10
-28
13
-4
53
-43
-14
39
-34
-9
-11
-15
-13
-28
-8
-26
19
3
-89
34
42
21
-19
-9
3
-20
-17
40
26
-28
37
1
-14
1
25
-10
-22
21
-1
24
3
2
1
8
-7
20
10
-17
13
-24
-11
-19
74
-5
-27
-35
-5
3
14
13
38
-13
-3
-27
10
-5
-32
15
1
1
-30
-13
-48
-8
1
62
28
-9
17
-36
-17
-7
6
-17
10
26
-30
0
23
-5
50
5
-31
-11
-22
-28
4
2
12
-5
-8
-14
-61
8
-9
2
0
16
-63
-4
-30
0
-22
15
-24
4
20
-15
35
-18
9
-15
-28
-33
15
0
2
-36
49
7
11
-17
40
-6
-5
-50
-29
20
23
58
-7
-8
-3
64
38
18
40
-25
-22
72
-8
69
12
-2
-4
-15
11
-28
7
-5
-8
34
-34
12
23
28
48
40
-20
33
-6
-34
19
-1
38
-10
2
5
8
-26
37
-53
0
49
28
-38
-39
14
20
-19
-12
1
-24
-6
-38
-1
-16
6
4
-17
4
0
25
22
-19
-11
-23
19
67
0
15
7
-18
-6
-5
16
-7
16
-43
11
-23
20
-14
-6
33
3
-22
30
35
-68
42
-41
30
-14
20
8
-23
30
-41
19
-40
45
-8
-19
-11
-11
23
-26
11
-57
-76
-26
10
39
25
7
24
-9
-10
23
-44
2
21
-15
-6
-16
24
-9
-23
-12
-22
2
11
21
-40
4
18
9
0
-23
38
-33
6
-6
31
-11
37
-3
11
4
-21
-45
1
-18
50
-52
2
-7
2
29
-34
41
6
-26
6
-78
40
-4
23
16
40
64
-31
-2
1
44
-35
5
-1
38
54
-8
32
59
-6
-8
-2
7
-16
-16
34
9
19
21
-34
-34
-7
22
-23
13
-14
-46
26
-3
-20
-21
15
20
6
2
6
-8
23
-15
-39
-22
43
-35
-50
28
-21
3
0
-22
-38
-15
-29
-27
-37
27
19
-35
-22
-36
-37
12
-28
-5
30
-11
-18
77
-24
15
-22
22
-14
47
-23
-19
-6
-33
-24
2
-19
-58
70
-17
18
17
15
33
20
-25
10
-20
-17
-58
-56
-2
8
12
5
52
30
38
10
-53
28
-33
-33
21
-6
28
36
27
32
-40
-14
-8
6
4
18
50
12
20
-11
2
49
-38
-53
20
-4
-39
-64
-15
20
-2
1
-13
30
9
16
-29
21
-25
13
17
-6
29
34
-13
14
16
21
-33
-26
33
-7
8
15
11
16
6
35
-35
-11
-20
33
7
-53
0
20
-23
2
0
54
27
-48
53
-17
19
6
-11
4
-6
-38
31
-23
27
27
37
-27
23
11
8
11
-6
-22
9
3
-11
10
33
-2
50
-7
0
20
-15
15
28
4
-38
12
-20
-18
-33
-3
15
29
-45
-23
10
-9
-47
-44
-1
-60
22
14
-11
13
8
31
-36
-12
29
6
64
-15
-65
-8
-24
10
-27
-21
7
47
-26
10
-17
-30
-8
-6
-38
-17
33
10
14
-7
7
-4
17
-44
30
-31
26
3
-29
10
21
-43
-12
-20
-25
6
-2
45
6
-11
-1
-15
-18
32
-26
-7
-54
13
55
26
-32
36
43
5
30
19
49
-8
62
2
18
-12
-15
53
41
-46
-21
0
38
-11
-9
43
19
18
5
50
19
7
-15
-6
-23
34
28
-5
26
5
26
-18
-53
24
12
10
-13
7
-23
12
-39
26
18
-21
-7
-32
53
22
25
3
1
-28
23
25
5
3
19
4
-38
-43
18
-11
-27
-3
-23
-8
3
-56
43
-51
45
50
3
18
9
-31
20
7
10
115
11
-37
10
11
21
-33
-23
47
-47
-11
6
22
11
7
3
16
-36
-51
-8
-1
3
49
-27
-6
-7
-2
0
21
33
30
-12
35
4
46
20
7
37
-8
-25
31
28
-40
26
10
12
-51
-32
43
11
13
-61
-82
-99
-46
-18
-14
22
-10
-38
-17
39
-9
-1
-14
43
4
24
43
3
9
36
-2
20
-22
4
-26
4
-37
13
-31
26
10
-38
-19
3
5
-41
28
20
-14
-49
66
28
19
-37
-77
-15
21
0
-44
-3
-3
49
13
-10
-9
44
7
-25
-8
37
2
-20
1
11
35
33
24
4
-26
-16
-4
41
4
-47
56
28
17
-8
-7
29
5
-15
-4
-1
15
33
-24
24
-14
1
-21
55
15
9
-23
33
39
6
-39
11
-2
-27
68
-7
0
-3
-22
16
33
2
-7
5
-7
-57
-33
6
-68
-18
-26
-3
3
-26
5
13
-10
22
36
10
5
-1
-24
5
29
-55
-5
21
14
-8
-45
9
16
15
6
2
29
8
20
3
42
-15
-15
-39
6
29
11
-11
32
-23
-25
-3
33
-22
-34
-21
-5
-37
6
2
10
-25
-31
6
-4
-14
-18
42
-65
-8
13
11
25
3
-17
0
11
-21
18
-3
22
-12
1
-31
-38
-10
9
-1
-12
19
4
-9
11
-5
-7
-15
-55
-5
-27
23
10
-4
-4
30
16
-12
42
19
-17
25
-40
-34
-23
-27
-16
22
-52
-60
-5
-9
-11
17
25
-24
-54
17
-7
48
-35
17
-9
2
-17
-1
11
19
6
-20
74
-15
7
41
-17
3
-9
-39
-3
-18
-6
39
3
-1
-14
62
13
12
-4
24
4
-2
-37
42
20
4
4
13
24
-18
11
-39
44
-17
-13
11
-6
14
-26
-28
-19
76
-6
-7
-19
22
-17
49
11
16
-2
-29
0
-13
14
-3
-27
23
55
3
-12
8
-17
-29
20
-17
10
-28
-21
2
-6
2
13
-1
-28
-14
-11
-13
39
67
-1
62
23
-23
11
-8
-46
26
-23
34
31
-25
23
21
16
-1
9
19
-36
16
13
25
10
4
1
-17
41
27
10
-9
40
-8
13
-30
-5
18
33
25
-10
18
16
8
13
35
6
17
-39
-7
-27
29
-11
5
-24
-2
-20
27
-2
-4
-9
46
39
3
1
-38
-4
42
11
28
-8
15
1
18
41
-10
-61
59
-1
3
-7
5
-25
-31
-3
-22
35
-40
13
46
-13
33
4
-2
-23
-33
-16
47
20
19
27
22
23
-78
-30
17
30
-31
-17
16
-41
-3
28
41
6
70
4
-25
18
-22
50
48
3
11
-20
-6
-54
0
-21
-4
6
6
-2
-18
-29
-7
-12
-17
-13
2
1
32
20
0
45
-33
-8
-20
11
-23
16
16
18
7
27
-14
-15
60
-18
7
44
-21
19
8
6
-41
-38
14
-6
-28
-44
-38
1
20
13
14
-37
-8
-8
14
62
10
-34
-1
-15
60
9
-17
-25
-6
43
-6
-16
0
11
38
-29
3
-29
40
1
31
-9
9
45
18
-2
42
24
3
-12
22
18
21
-12
21
72
-32
34
-17
-10
8
6
-10
-12
53
49
-2
3
-36
22
-49
13
-21
-31
-31
-28
46
-47
-3
43
17
4
38
1
6
16
-29
19
24
19
-35
3
0
3
-28
-7
10
-30
-22
4
-14
24
-4
46
9
14
41
-6
0
-1
-15
-11
1
-14
40
3
-10
17
-19
-14
-19
-52
11
38
-2
-4
6
-1
-2
17
-46
-28
33
2
-17
-41
31
-1
-3
-29
9
-40
2
-12
2
-21
-5
35
28
21
-11
-7
-51
-37
1
3
15
55
29
5
58
17
34
19
9
-24
-11
-42
19
28
14
-20
-1
58
38
16
67
-22
37
-73
11
13
-29
28
14
-53
5
14
-35
2
0
-16
-38
2
-19
-21
-36
-40
2
-9
-41
-17
-48
-37
-7
-48
17
15
-40
-19
-38
7
-16
24
-13
-67
12
-10
-66
-8
-27
-38
-2
26
36
-7
69
-45
-7
-41
-31
10
-14
18
-47
53
-38
-23
17
-48
46
-38
-67
9
-3
-22
-27
-34
29
-5
79
-11
-18
-5
29
-32
-8
7
-4
-13
-10
69
-6
23
-27
4
27
8
21
0
2
8
56
-7
12
10
73
7
27
51
-30
-9
-10
27
16
-28
-24
-32
39
45
29
-45
10
-1
14
-8
-14
-44
0
0
29
7
16
30
4
12
-10
-14
-15
-60
33
7
-6
17
-50
-24
26
2
37
-31
-10
2
63
1
-17
-7
30
2
-4
31
44
14
-25
-22
29
-5
1
3
43
15
4
25
-2
13
18
-7
6
49
-35
19
-21
-63
-20
-19
-16
-30
26
6
-27
-14
48
32
-11
-27
-45
-18
7
-15
-43
10
-25
-6
-50
19
-8
9
-2
-31
-14
16
-20
-12
-3
6
-19
-6
23
52
-19
-1
-68
-1
46
3
-1
-59
47
33
9
-2
28
-10
-55
-11
32
12
32
18
-7
8
-12
13
9
-3
-21
29
6
6
-27
15
-16
35
-2
-33
11
29
12
-6
42
-8
-13
-18
0
-4
16
34
-14
-12
-10
-4
15
-26
36
11
16
-31
-5
7
-11
-26
43
67
-4
18
-12
-23
58
45
22
44
-21
-24
-9
20
52
42
-4
15
-30
-4
34
30
-17
10
38
82
-24
-34
-6
25
-10
25
2
-1
8
-38
-11
2
-4
65
-4
-2
1
6
-5
-27
-27
-10
-52
10
2
-11
-18
30
-25
-14
-21
3
5
-38
-19
-45
-26
26
13
29
-5
25
19
-3
-14
-4
19
9
-8
18
-7
17
-15
33
8
-24
13
-8
13
0
9
-50
20
-35
8
-27
9
12
-35
44
-48
-21
-16
-46
11
11
-21
17
45
-39
4
27
-33
-16
12
18
9
-32
-8
-5
-25
7
5
-5
-29
-9
-5
3
-31
-2
12
-7
-9
28
14
26
-12
33
21
-3
-28
37
-3
18
-24
73
71
-18
2
41
-8
14
55
-28
-12
22
64
-17
-11
-10
2
-45
34
17
-42
-16
-30
-63
1
21
-19
-11
63
-16
6
-39
-32
15
26
-17
7
41
2
34
-10
-8
1
6
16
14
30
-35
17
18
7
-10
19
14
5
30
-19
25
1
-38
5
42
3
25
20
5
24
9
-6
-24
84
5
28
22
46
1
-23
-35
-17
-26
23
-66
39
14
-16
-21
-14
-39
44
21
17
-6
-22
-17
33
-51
2
7
-30
13
-31
-22
11
13
3
31
32
-1
-30
36
46
22
-14
-10
59
-18
-17
-25
-19
18
-10
34
-8
8
24
-7
-6
-40
4
-23
-3
-23
32
35
-10
15
-15
23
8
63
1
9
10
5
-37
2
1
3
-19
4
-39
40
-35
24
19
18
-33
26
19
0
-11
-46
20
-38
-1
30
-35
37
-6
4
7
6
-39
16
-6
2
-24
-2
-22
70
25
-6
-5
-33
-22
-8
38
6
-21
-39
40
75
-12
5
-9
25
-23
-8
-19
-6
-9
-3
53
-25
18
28
9
37
-5
-2
29
21
8
26
32
31
18
28
-2
-34
15
-17
-1
4
7
3
-11
-12
56
49
-3
-28
-28
-13
-10
6
-34
3
31
36
27
-2
13
-7
39
36
-16
55
27
12
4
-2
-21
13
30
-32
32
1
22
-17
-3
-9
14
23
45
18
-5
-6
-10
32
3
-17
-9
19
-36
15
11
-4
-28
11
-2
-39
14
16
-32
-17
11
17
-11
24
-17
-1
-30
-6
16
-18
-25
55
-15
5
73
-21
-22
9
-2
-13
-3
17
53
-15
27
44
38
13
13
-10
-37
13
-52
-12
-22
26
-2
46
29
28
-69
29
15
59
11
-11
-19
39
29
-5
-33
20
11
26
-15
33
-35
13
-8
-15
25
-6
27
-4
-12
-3
-1
9
2
49
9
-14
41
-49
3
-2
-10
21
0
-4
9
41
-33
15
25
-21
-40
17
22
-8
-25
7
-23
-35
-15
32
-1
-17
-17
13
-9
25
5
31
9
26
-9
1
13
-8
28
0
-13
51
23
-34
-18
2
10
-12
-22
14
14
-14
46
63
20
35
-19
18
45
28
-22
-4
21
-33
22
14
1
27
-32
17
-25
14
-39
5
11
-28
6
22
-6
-7
5
22
-9
-23
-10
-9
-22
-39
-8
17
-60
38
18
33
-37
-50
7
6
-40
1
1
11
25
7
44
-7
31
2
13
-10
-31
16
-35
-49
6
29
-19
16
-12
-1
24
5
26
-21
-11
-59
-5
8
16
27
36
65
18
-30
-27
-33
53
24
1
-31
14
5
19
-59
5
-63
-14
28
38
16
8
4
-17
45
25
4
14
10
80
-59
-35
-2
-42
-7
31
41
12
-15
-17
9
33
48
1
78
-32
-4
-57
1
14
17
27
-77
-40
-56
21
17
8
12
7
-4
-41
9
-76
-25
-2
1
-5
-12
7
13
-35
-36
-33
27
9
-18
19
25
-6
-3
-5
-10
23
50
-44
-58
21
-45
-21
-24
15
23
-14
12
-16
2
11
-8
-27
-33
19
-22
-47
40
-19
11
-53
13
-4
50
-14
-34
-18
25
2
17
-5
-43
-24
9
-18
2
36
68
-43
-8
17
5
-30
-4
-3
11
20
-31
-4
-19
-3
53
29
-21
4
-34
-11
24
5
-15
16
12
-9
10
25
-31
-45
70
47
38
32
-4
12
-26
33
30
2
-5
23
-2
-21
-19
14
28
11
5
5
-8
26
9
-19
-5
-7
24
92
49
-39
-2
-2
33
14
2
33
-35
-40
75
-6
-14
13
-19
18
-15
-55
-44
-11
-44
19
34
11
-2
8
-67
-32
-19
15
-12
15
21
18
4
-17
24
43
37
17
-17
3
36
13
25
46
13
28
11
-12
-8
2
-20
-21
-40
-11
26
22
17
52
11
63
23
-14
13
-85
-10
3
-10
8
-57
26
-41
-9
17
15
-44
15
-5
-10
-42
28
-46
40
10
-35
41
-13
2
-36
-59
-4
-15
-8
-1
-6
13
-25
14
24
4
-23
-24
11
10
-2
24
-2
13
-21
-8
19
6
57
-5
12
-25
-6
-35
9
49
5
-75
-18
-45
30
24
-26
3
18
-25
3
10
33
7
-29
68
-42
20
1
42
-3
0
-14
-29
-16
-36
47
2
10
-25
23
4
22
-7
-13
3
39
26
-13
-6
-37
7
44
40
45
-42
-14
-11
-28
-39
70
27
-29
11
26
-27
35
-6
0
-18
-1
19
-16
11
-16
-33
45
-31
17
5
-4
-19
9
21
26
12
21
7
39
-6
18
-41
21
2
2
-5
-19
-23
-18
58
26
-10
51
24
-37
-79
30
-32
8
1
37
-1
-51
24
12
-6
-19
53
-30
40
3
19
12
-47
7
-11
13
-19
11
18
-2
-19
16
7
9
1
42
36
-9
15
15
11
-65
0
7
25
6
31
-25
-16
29
64
-18
27
16
41
-57
7
-3
-24
-40
-27
-8
16
2
9
-13
-3
-38
-12
21
11
-30
-5
30
11
23
-33
16
-10
-37
-9
8
-42
23
6
6
-1
4
8
-10
-25
39
32
13
-51
21
9
4
2
36
15
12
-4
52
31
-2
5
28
-11
-29
37
-12
1
16
26
-27
-37
42
-44
11
15
-23
5
-26
40
3
-20
-12
11
29
-14
0
23
4
-13
8
42
-7
-37
25
-14
6
-26
-1
9
0
41
40
-66
33
72
-38
30
24
-18
-33
42
-17
-54
11
-43
27
-12
58
61
-19
-20
-28
-11
-11
24
29
-27
-38
-19
-65
-19
29
-46
-41
-30
-25
-35
4
9
6
29
1
-5
25
33
13
-24
-4
-23
-25
-5
62
-30
-16
-24
-2
-33
32
3
40
0
-37
59
20
-8
-31
16
-42
23
-21
-39
-7
-14
6
21
0
20
82
-29
9
-12
62
-39
-49
4
-17
-1
-58
-17
-7
-30
18
-15
45
-25
-12
-17
3
11
6
-34
51
-44
-14
-54
9
2
17
-61
10
-19
9
0
-17
-47
60
8
-50
-11
74
-1
-7
-20
-16
-20
-20
71
-26
-14
36
2
42
-7
22
-4
2
-26
-16
31
8
0
-5
-2
3
-40
-8
-38
-6
12
-29
0
15
-45
33
-32
-11
38
20
10
-30
45
4
-77
26
10
-33
5
32
-14
23
24
19
27
31
-5
-31
14
-20
-77
24
-41
12
-16
-8
-21
-23
22
-7
-5
-59
-67
88
71
-9
30
68
-1
-17
-52
32
46
-12
7
17
6
-16
-11
-42
-10
-6
-13
20
-16
38
51
23
36
24
17
30
37
12
12
-53
-40
-31
14
27
-42
54
66
50
6
28
-42
-43
-34
-1
28
-79
29
-6
-43
-63
67
-16
-19
-1
1
24
1
3
-31
-13
18
-15
1
54
-15
0
-30
47
-32
-10
17
-20
-28
23
22
-27
27
36
31
36
0
13
-35
9
29
-11
1
-28
2
-33
23
-43
-26
13
2
-15
-16
-49
1
33
32
6
-39
-20
-3
-5
-23
52
-47
-16
10
25
-8
-42
-13
8
-56
-12
-1
21
7
-25
4
-22
-7
-23
-7
14
20
-1
-61
11
24
10
21
-15
-5
-7
-12
-14
34
-1
1
25
-8
-7
31
13
-20
3
-24
3
8
28
18
-10
24
-26
18
-18
-22
5
-44
10
6
-6
6
-7
-34
-99
82
-3
-18
28
37
-23
-3
-37
-2
-48
-8
15
-28
-17
-33
-21
10
0
-4
5
-26
12
-13
-16
29
83
-25
55
21
18
-19
6
15
-5
-17
2
25
-10
-29
31
-13
23
25
50
-31
37
-45
38
-39
-12
25
-54
-34
-40
-15
-22
-47
-22
10
5
-11
-3
64
-21
13
-20
11
3
5
-25
-32
64
-39
-18
-19
31
12
-12
-32
24
20
30
47
14
1
32
31
-1
-16
26
26
-6
-15
-8
-64
-11
-19
9
47
-5
-33
21
49
31
-27
18
-26
-17
8
-20
46
-2
-18
-11
-33
-4
21
62
33
-27
37
-3
-39
-21
0
-20
5
12
53
16
21
10
-4
11
10
36
20
46
14
-23
6
25
10
-5
-6
0
20
-2
-23
33
-1
-2
5
8
-39
20
-16
9
7
-26
11
4
31
-12
20
-9
-13
17
-1
-12
-28
-2
-34
-20
24
0
53
44
-77
35
72
-3
-22
38
8
45
80
59
-22
7
-20
54
62
-2
0
-3
-24
-33
29
19
22
45
8
-16
67
-25
8
56
24
-51
34
-75
21
4
-33
-2
3
33
-17
-27
26
33
-10
45
22
-3
-28
-15
33
-12
-59
-39
-25
26
8
-3
24
56
4
25
-5
-19
34
-20
46
-47
-45
18
-23
16
-46
18
17
42
60
8
28
-16
16
-26
-25
-18
8
31
22
-68
2
-5
4
-5
-3
62
-9
-8
7
-19
7
-44
19
-17
-36
-8
-4
31
-50
22
10
-46
47
33
-55
-1
46
30
-17
-24
-17
0
12
36
-58
18
-43
18
12
-17
-5
-18
9
-17
-11
-14
32
8
-34
-1
38
53
16
-3
23
15
6
48
20
20
-23
-10
-27
-20
24
8
-11
19
-8
-24
9
-38
50
-33
4
7
4
-25
7
-21
-17
-27
71
-6
0
-14
10
-23
23
23
31
-29
-33
-27
11
1
18
30
29
32
29
18
-33
6
39
14
23
39
-9
-56
-9
-13
-25
-40
-44
-15
38
-25
0
35
-2
18
7
19
-34
-3
-7
2
5
-47
-18
-11
14
52
26
13
49
-18
-35
14
1
-4
40
3
45
40
-20
8
-29
28
-3
-62
54
53
33
-17
-48
-17
4
13
-21
23
6
-10
-1
-75
8
4
-55
19
-18
-30
30
-11
25
4
-5
-5
-19
27
-26
23
13
-20
0
17
31
-14
13
7
-49
5
-7
16
37
31
-2
-13
-64
-80
-26
-21
-12
-13
49
-27
-13
-33
47
22
33
-28
-47
-12
-8
10
25
43
55
-34
-45
15
-34
14
38
37
-13
26
18
24
11
5
-38
-10
-17
24
-2
-32
24
25
27
-47
3
-17
37
49
48
-29
-9
2
-27
31
-24
-3
-41
-24
27
66
6
-63
50
-47
-69
-11
63
24
52
-12
-23
-47
43
40
-28
13
38
49
-13
-11
-18
10
-18
14
3
0
29
-41
-8
-5
31
-33
18
9
8
25
29
-37
12
0
15
59
-30
25
4
24
18
-5
-58
11
-78
19
4
22
-6
-2
-9
-1
55
31
-6
13
-16
-4
9
21
-13
3
-6
21
-5
-40
36
-20
-2
7
-5
-76
-19
-44
38
-16
-5
-27
-20
-8
24
-3
-19
-26
44
-75
22
-35
-16
-27
-17
35
-52
21
-9
11
-34
18
16
-37
63
-13
32
6
-8
-29
21
31
17
-13
-9
-4
21
-20
8
27
-4
4
3
-43
-22
-33
40
28
-47
11
-28
-11
-33
-23
-14
27
-26
19
21
-10
-25
7
-14
19
8
21
25
36
5
-31
14
18
-48
-30
-8
14
-53
73
-8
9
-7
17
10
15
6
-26
-14
-15
4
2
13
19
29
-27
7
43
-23
10
23
-20
-42
24
19
40
18
15
4
-34
77
16
-20
-36
18
23
19
-13
-65
4
-1
-27
22
7
14
15
-12
-6
41
-18
-36
-24
4
8
-15
18
6
-36
12
-8
-41
46
-58
-16
1
47
-20
28
22
40
10
8
5
-21
-28
-28
48
4
-2
-43
13
-30
9
-32
73
-3
21
-9
-19
-35
-33
9
-18
1
5
-25
-30
-63
-35
-10
-68
33
9
-51
-35
3
-10
12
45
-61
-13
-8
5
-5
43
-7
-28
16
53
46
-73
-26
22
41
-45
31
0
46
57
4
41
-34
-16
-17
-6
15
-30
12
28
31
-16
36
12
58
-16
-34
-36
-36
26
33
20
-43
-5
-19
-7
51
29
7
-71
-46
23
10
15
25
26
-41
-12
-1
-26
-10
14
1
33
-7
22
34
-46
-7
69
-52
13
-19
21
-33
1
2
-39
-12
21
16
-23
15
-3
12
-28
35
17
2
11
-3
10
-16
2
-38
-23
17
-17
-56
17
-11
-12
-1
44
0
-41
13
27
-4
22
42
40
7
46
-74
-18
28
-8
13
2
-13
3
-8
15
-28
13
-44
-3
7
-5
65
-31
24
-45
37
48
4
-6
72
3
-31
-47
-12
-35
28
33
-9
-10
0
-20
-24
-3
14
-26
-41
33
37
-21
-21
50
-45
-24
3
-17
-46
-19
23
14
-34
-21
-3
21
-6
37
-4
26
-28
23
25
7
-16
-8
-42
-38
-27
-13
20
-6
26
-13
2
23
36
-43
-54
-24
-1
-6
17
24
-17
13
62
-31
52
-19
-3
20
-4
-6
40
24
-17
-8
43
-42
33
39
-56
7
40
11
-39
31
-4
-11
-9
74
47
-5
37
19
31
7
-22
36
-36
4
-4
-11
-5
-27
32
-2
37
-21
-23
27
15
32
-11
-23
-15
9
2
-1
49
16
30
36
35
-30
74
25
-1
65
-7
11
29
27
-8
-43
-17
7
50
51
-1
4
-2
-23
6
-31
-55
17
48
-2
21
35
-54
-36
27
47
8
-5
-1
13
-5
-5
23
22
-1
-67
11
-53
-5
-79
-26
32
-56
61
6
-4
0
27
32
-6
-4
-57
57
19
53
-79
22
-5
-42
13
-3
13
-2
-3
-12
27
-6
6
31
-40
7
-10
-2
21
4
5
-6
5
19
12
16
-27
-62
42
-17
26
-2
-80
-31
8
-9
16
14
-6
-8
-5
-20
-41
-21
4
0
-14
28
-28
23
52
34
1
-14
32
10
39
-21
-26
-14
-1
-41
13
-13
-1
26
-25
33
-43
4
-15
45
53
3
-40
27
-34
22
36
16
-38
12
2
-3
-14
-12
34
13
14
40
63
-3
-14
15
27
-43
-19
16
-8
-62
6
32
36
-19
-26
-15
3
-14
25
-43
-3
-3
11
-28
-31
28
24
7
-82
-24
33
-2
2
-27
11
4
-37
-7
21
-11
-32
-22
31
-1
-3
12
-12
4
-5
-2
0
-3
24
-14
21
16
-17
2
36
11
-7
-14
-9
39
11
54
-58
12
31
32
31
-18
-37
-15
-6
-4
-19
-6
-25
31
-29
37
-8
16
14
-55
-16
-21
22
-10
2
12
-10
14
3
26
36
32
28
-33
-32
28
-18
-10
9
-47
20
22
-15
38
16
46
25
19
4
-22
38
32
-20
11
-8
-28
19
-5
-27
32
9
-58
-18
-1
-2
-17
17
-10
5
15
6
-21
20
-49
40
-29
15
-12
16
-17
-43
22
-12
30
-7
-4
35
44
-68
31
46
-12
8
24
-20
1
-8
-20
-31
7
27
-8
51
-50
-12
22
-17
-16
-15
-13
-65
11
-5
-13
-11
-14
4
34
5
-31
-5
5
-1
2
0
26
10
33
-8
9
-5
13
33
-30
42
-20
14
26
-19
-22
4
-4
36
11
23
35
-5
-24
9
-20
-50
15
36
-9
-10
19
35
-26
-22
3
42
41
-21
-21
-40
27
18
-7
24
25
-5
73
-76
-17
-30
8
-4
-34
-7
-21
5
-8
1
1
-52
61
-21
31
11
-11
14
-7
0
2
1
34
-18
34
-9
-14
15
25
31
-8
-23
35
8
60
-30
21
-1
-29
-22
-20
80
21
1
14
-9
2
-21
3
25
56
-2
27
-9
39
-20
-8
-8
-18
29
-41
-1
-34
10
14
6
-18
-15
-10
34
-9
4
14
34
-2
-21
-27
-70
-3
-18
14
-1
2
-9
20
10
-33
18
-55
-15
-51
-26
34
23
-10
-66
24
-26
-49
18
12
48
-10
27
-28
3
-2
-1
-26
9
-20
6
-1
-20
36
-9
-43
18
26
56
-10
6
-28
-15
4
1
-13
48
38
13
5
32
4
13
49
6
30
14
52
19
17
-19
-31
-7
7
-3
23
-15
6
-27
8
-8
-21
-22
21
24
-27
-18
3
11
-25
11
30
-43
-38
22
8
-14
33
4
-9
42
0
-4
-2
30
-26
3
30
-63
13
33
39
18
12
36
16
3
-22
-35
6
38
-14
-17
18
41
2
-14
-42
17
-22
-8
-48
22
27
51
-3
-1
53
0
18
15
21
13
49
-9
28
-50
6
21
-27
31
-40
-14
-9
-34
-29
-53
-2
-8
-9
6
4
29
29
12
-4
-17
6
-21
-35
-20
23
-84
-58
-9
51
14
12
-11
-30
-9
55
7
40
8
-10
-52
27
-10
-12
-6
18
15
3
-6
6
-17
15
31
-15
1
82
15
-33
0
12
13
4
-26
-18
-5
-16
27
16
16
-30
1
-2
-14
-2
6
-11
28
34
-20
-35
22
12
52
16
14
0
1
5
3
-1
-12
10
-4
-12
-38
-34
-19
87
-1
-37
4
-8
44
21
8
26
-9
-9
13
-6
-33
62
9
10
-23
16
2
24
-7
28
49
5
-48
-37
1
-20
-6
-35
36
-3
-31
28
-40
0
24
1
21
-10
34
-26
-14
-6
36
-41
-71
-11
52
35
15
-47
17
47
-52
-17
15
-46
35
-19
42
19
7
-56
-23
12
-2
-35
-23
23
25
-37
-74
26
-12
35
-36
-7
-4
27
-28
72
39
26
17
25
-1
16
-26
-21
10
36
-8
-3
-38
-17
11
44
39
7
39
4
-3
-2
42
26
-46
-1
15
10
41
5
37
11
-28
30
-23
-1
6
5
3
-62
3
-53
-11
1
-14
59
5
-28
-31
6
12
-18
18
47
59
-3
24
26
7
35
2
-26
37
-15
-6
-34
-8
-19
-10
16
8
-17
5
-21
24
21
6
0
5
29
9
41
-15
12
-20
10
-3
-37
37
-43
-54
9
-35
43
12
-40
-57
-42
-38
-9
14
7
4
-32
-99
4
3
-25
-1
-13
45
-20
-12
-4
27
-13
12
31
15
12
53
-20
1
-25
34
-31
-69
20
-38
17
-39
2
-7
16
10
-5
14
33
-51
22
10
26
2
-7
22
51
36
9
-43
7
-23
-19
-6
27
-14
-27
-24
37
13
5
15
-24
-18
45
57
-32
8
37
46
0
-20
26
41
-34
1
29
40
-15
38
19
26
6
-14
18
0
5
71
17
33
7
-31
27
31
-70
7
-30
2
8
33
-14
-8
21
-71
-33
7
-25
-38
-28
10
1
14
-14
10
81
22
-27
39
18
51
-31
-11
-40
-8
-22
-7
38
14
24
-8
2
-24
31
-73
-34
-11
25
-26
29
-10
18
-5
-35
64
1
10
-34
13
-50
-18
19
4
41
26
49
-3
13
10
-37
-6
9
-15
1
15
16
32
26
32
-10
-22
30
-23
-18
-36
-2
0
31
18
-18
-26
22
-8
-20
22
-2
36
-16
-32
-13
-17
19
30
29
11
7
-27
-55
-1
-8
-4
-37
-19
-30
-33
-11
-18
16
-36
24
15
-32
-4
26
-53
3
-5
-14
-13
19
62
-2
-21
58
-31
-10
-11
-23
-8
3
22
-31
-41
-1
-10
-8
-21
-35
-31
21
10
-9
-32
34
-26
7
-10
15
-25
-19
34
8
23
-19
-36
-12
8
-30
7
2
5
-26
-64
-39
8
22
-35
-52
-1
-9
-9
-12
-19
-9
39
-10
15
-8
21
2
-34
54
27
11
27
-13
1
-3
-24
27
16
14
-8
-38
30
-26
4
47
22
-23
-25
-41
5
1
-4
30
33
3
35
-5
-1
6
39
19
-17
7
-8
-15
4
-22
-41
-4
48
-10
-33
43
73
-29
12
-21
-15
-16
-4
-3
-10
-28
9
56
-25
-33
4
-26
3
-25
-30
57
24
21
24
-24
-36
-50
23
-39
15
-18
-8
-3
20
-1
-7
6
35
-30
-59
-3
-13
2
-1
26
36
20
26
-4
9
-5
-9
66
-70
-12
-6
26
-2
2
16
-22
-14
41
24
-5
-26
18
1
-62
-4
-23
-17
33
-27
-13
-8
21
-24
2
51
31
-21
-31
11
-67
-27
-38
-78
-4
52
-42
-19
-11
-1
-25
9
-3
-11
10
-19
14
-4
-10
-6
-4
-86
47
30
0
4
18
-10
4
21
-10
18
10
3
40
-29
-39
36
-27
11
-37
18
12
73
44
-38
13
-10
-61
-49
-7
57
23
0
14
48
12
3
0
-24
37
7
-58
27
7
8
-50
70
-16
-8
-2
-26
3
4
21
-47
15
-42
-4
18
24
-41
-8
-2
-6
-14
6
-41
11
28
28
-16
-31
0
-17
-11
41
-14
-19
11
14
-6
36
41
-41
-17
-8
8
-16
-45
-13
32
6
-1
-9
-27
4
27
30
23
-18
-15
-3
17
-2
-26
-12
-50
46
0
24
6
-16
22
-4
48
3
35
10
0
-22
14
-38
-33
26
22
-10
5
28
-15
6
12
2
2
-5
-10
-7
-9
9
-43
29
-2
-15
27
-15
9
-10
2
-10
12
-10
1
-21
-1
4
24
-3
-14
4
-82
-16
-33
-22
35
-5
9
-6
4
19
-6
-25
6
20
60
36
-20
28
-15
38
27
24
-16
-8
-17
-10
5
43
46
2
-1
-24
-46
-19
26
-53
8
-9
55
43
22
37
-1
-40
1
36
63
-34
-31
-7
26
31
-24
19
27
-20
58
10
2
9
0
-7
30
27
-15
6
0
-1
18
35
8
-30
49
5
17
11
5
-13
33
-34
-1
-18
-2
-25
2
13
7
24
-24
9
-30
16
-25
-29
-3
-47
-8
16
-5
-27
-9
6
-16
-5
-4
-27
26
-4
35
-22
28
15
24
25
-27
13
-14
12
-12
6
6
8
-12
-4
-4
28
4
-10
28
42
4
33
31
-6
36
26
-40
-17
-20
35
-8
-12
-14
-6
-10
-32
29
44
-2
-13
10
19
-25
-12
-13
-51
-28
-5
-12
-20
33
13
-27
14
-18
9
8
17
-2
-37
-17
-2
29
29
7
-7
-51
14
23
24
7
12
7
-6
-38
20
-1
-32
-10
10
42
-3
-31
51
-14
-10
-2
-30
-13
2
9
8
24
39
-6
-49
-4
8
-6
32
-14
57
-19
-2
-35
-28
-22
-21
6
20
10
21
13
-2
20
45
-23
-28
10
10
29
6
2
19
21
16
-8
-50
-24
-4
-9
24
25
-38
37
-30
9
-7
3
56
-63
34
20
-9
7
22
21
16
47
-7
-29
-20
40
23
2
-5
-30
-41
-24
-26
-30
-25
-25
-20
5
-11
22
-43
22
16
-25
-4
2
11
31
-61
38
4
-24
35
-43
-67
28
54
35
-5
-13
-4
-32
26
-19
13
-42
-34
24
8
11
1
-18
22
29
-11
5
14
-20
42
23
-6
-70
-11
-45
