96 16 1 1
-66
-5
24
-29
14
7
16
-37
47
-12
20
-15
-49
-31
-27
-27
-36
-16
16
25
22
-47
-38
-3
-10
-10
-49
1
8
9
-39
-23
16
24
50
32
-15
3
-14
-14
-20
29
30
15
15
4
52
49
8
12
60
1
12
-29
-2
-7
-61
24
-48
-21
-8
-10
-61
19
-19
-14
-29
61
27
-22
-7
12
-7
-18
41
7
46
22
-28
5
29
35
-73
-22
0
-10
30
42
-7
39
-33
15
52
33
8
-66
-19
-17
-52
2
32
14
6
13
-27
27
21
-10
20
9
-41
-52
-16
-7
33
1
8
-2
11
-34
3
-48
-39
-6
-22
5
-24
30
31
-1
-3
-8
-30
13
39
4
9
-3
56
6
5
42
-19
-46
25
13
-2
-18
1
49
-52
-20
87
9
-24
-35
-40
17
32
13
-63
-22
-18
15
43
44
-29
4
-6
7
-41
28
-11
-5
34
8
-6
17
48
-16
-1
-11
20
54
-19
28
-20
-27
-58
-6
-36
-46
6
5
17
-61
12
41
1
13
24
-56
6
-51
26
-7
2
-4
13
-94
-32
3
17
-36
-51
-38
9
-24
-25
86
-5
48
-12
-3
13
10
-21
46
-15
7
24
-20
-55
3
20
-44
-85
6
27
-21
-3
-11
31
26
-15
15
21
44
36
-38
-18
-37
-23
-14
-23
5
8
38
-15
14
18
61
-8
2
-40
19
-2
35
7
40
-3
-38
-2
26
4
8
27
-12
-2
22
-13
0
-2
-21
72
32
-26
-42
12
-37
-41
1
-34
-19
-43
17
4
40
-20
-13
-7
0
57
-14
-69
-12
3
-37
25
-18
-34
-4
-72
15
4
-37
-63
28
-17
-23
-48
19
-30
27
33
5
3
-2
5
5
-32
3
-3
8
-39
-20
-24
-4
35
-50
15
9
11
14
-35
-36
4
42
-27
6
15
0
-15
44
55
20
1
-42
15
-6
7
-9
-74
-44
46
-24
96
-11
-67
14
21
-29
4
73
-12
-20
-69
-22
-67
-36
2
43
36
-8
12
-7
-36
13
42
11
-54
-16
10
-38
7
-48
49
15
60
-19
-43
32
3
19
-51
12
46
-7
72
23
-19
25
-21
70
1
-17
-28
6
35
13
-8
-28
13
12
22
66
-3
3
-43
32
29
-38
17
34
11
-7
40
54
49
34
15
20
-31
53
-89
78
4
11
-25
49
52
-14
19
-23
43
10
13
-48
47
-38
58
-25
-12
57
-55
-31
-28
32
-20
-36
-14
35
-5
-27
2
33
-23
-6
-17
-24
3
30
6
-20
53
15
4
-30
-34
32
-8
-9
-1
57
-38
19
3
-11
45
-1
33
-6
-36
-11
-15
21
3
-6
69
-35
83
-19
-5
-31
-72
-8
52
37
39
27
-29
0
-17
-5
23
21
58
11
46
-9
20
-37
-27
-24
48
6
-18
-7
-20
31
-16
22
-39
-34
-12
38
10
39
-34
-38
-12
30
25
-11
-5
-22
-17
-2
24
-17
28
1
-24
37
5
-8
39
57
30
9
-28
1
-23
-4
55
-11
11
25
-34
28
21
59
-22
15
-3
22
-32
68
-6
22
54
-3
98
-47
-1
43
-7
5
-17
-33
5
77
50
18
-67
1
-55
40
-8
-14
10
-30
23
27
-40
5
-25
9
12
32
31
21
-7
24
11
-27
15
-22
14
-69
47
39
43
1
-22
-30
41
-37
-65
12
33
0
17
-9
-10
-27
62
13
5
-32
32
6
0
7
6
-8
-17
10
-38
41
52
9
8
21
55
-17
25
-7
-2
14
-14
-12
31
-32
37
26
-58
-30
43
0
-10
3
8
-11
-11
-6
-37
6
19
-9
73
9
16
-51
17
46
22
-31
10
42
-34
32
12
14
48
-6
12
2
-8
10
40
-32
12
20
13
-13
-41
-41
-37
-19
29
25
15
-29
-2
-30
-32
15
13
-11
6
10
-61
8
53
50
76
10
-41
0
23
24
6
-18
4
-15
-2
51
48
6
-6
-37
-17
-5
21
-31
48
6
45
-74
-20
-14
12
-18
8
-21
-51
26
-25
2
37
8
-4
-57
4
3
0
-9
-42
11
-9
30
-20
15
19
-5
20
52
-49
-29
15
-33
19
70
62
20
-3
11
-11
7
2
-39
5
40
14
24
2
19
-31
89
-5
-5
8
40
14
33
6
12
6
-6
-31
47
58
-54
51
33
-24
0
-12
-33
26
27
66
27
33
3
24
-43
-33
19
-2
-28
58
4
-21
47
81
-67
-14
-36
-2
-32
-11
-16
48
18
2
-34
-22
-7
-3
-49
-16
-23
-22
-22
-25
-2
-19
-37
21
12
-6
69
29
-42
21
9
14
49
60
24
5
-8
-3
8
3
-29
22
38
-45
52
-28
11
14
36
39
50
6
-64
-21
-51
22
9
-40
50
40
49
-18
-17
-27
35
-20
2
74
46
-26
6
-41
34
2
12
-17
11
-52
6
46
-55
29
-24
-55
-29
34
6
16
25
-53
-15
-28
-7
-4
-10
-46
11
-40
-35
-10
-21
-48
31
7
-31
23
34
-24
-7
-14
-20
39
-13
33
-4
55
15
26
18
8
9
-6
26
17
1
-3
-37
-37
-43
-6
65
-25
10
44
43
-22
2
-20
-20
-17
9
-2
-9
-29
-15
-6
43
-63
-51
10
17
-23
-20
-32
22
38
-22
-3
15
-43
-14
41
-34
-27
-24
-5
20
-8
-7
35
16
-1
-52
-1
31
1
-47
17
-13
12
-45
2
33
38
-18
61
-33
-12
0
-6
-39
29
63
35
52
-53
18
8
-39
21
-20
-27
62
-45
-19
-5
-14
35
30
-13
29
0
-2
-24
60
-20
-51
-52
-19
15
13
-17
-5
20
-30
19
31
-31
57
-17
9
-13
-58
-8
11
-16
35
3
-30
60
19
-41
10
34
-20
12
35
19
40
-19
-59
-22
46
5
-4
-28
-57
-24
23
-48
27
51
-34
-8
-24
-4
-17
6
59
-44
28
-44
-27
-1
30
-57
26
7
-30
-17
8
-19
27
3
-11
-38
3
39
-32
-22
-54
-47
-19
-7
14
-71
-6
16
-13
-71
-3
0
-25
0
14
-21
10
-22
-43
19
-25
23
0
-13
-18
-47
16
-30
-16
11
17
-14
27
28
48
-1
-44
-16
-38
38
-35
-1
-31
5
60
-16
1
-15
16
0
11
-6
-1
-62
37
-8
-28
-41
28
-27
-20
-10
-37
15
-34
40
-37
-11
44
-17
-18
4
39
-4
-13
-51
41
-72
22
1
0
-79
17
-12
-9
-13
27
6
-9
-7
21
-27
-56
15
20
6
74
19
66
17
-29
0
-9
-9
33
-42
-66
-20
-4
19
-19
36
-27
-31
-82
43
-37
-76
36
-30
28
41
12
-38
7
1
3
1
8
4
14
43
-59
-40
32
7
-7
9
63
-65
11
39
42
5
-30
6
77
-29
-1
-63
0
-65
-5
41
-19
0
-20
34
-38
6
-14
15
25
-10
-31
-47
9
74
14
-13
-1
0
-11
-3
-26
78
-7
36
-25
57
15
43
11
-2
-38
-27
-22
57
-13
45
23
3
-46
0
51
-18
66
-35
-75
-30
37
-39
-92
-77
4
-23
6
-7
30
-8
-34
4
7
-8
-54
12
-6
-4
11
-53
47
53
13
48
-7
9
-16
-9
27
-9
-20
8
-64
11
14
-19
-2
-11
-52
10
-40
24
2
-31
-24
8
11
11
-21
10
-5
-13
16
-38
-4
-30
30
56
2
30
37
-42
17
-41
8
-13
29
15
-9
18
20
14
-26
-28
9
50
-5
20
-3
-2
-3
43
-3
-27
-14
8
-52
-26
2
33
-37
-15
5
-25
-26
18
-5
2
37
-41
32
7
22
22
-7
-26
-12
16
-26
19
8
-84
-26
28
-7
29
20
59
-60
-36
18
-1
48
10
-21
-14
-31
-25
10
31
-34
11
8
8
-10
18
-22
29
-14
35
-96
9
7
-19
-8
-44
-23
107
-8
-35
-103
16
-27
7
45
25
-45
-26
-67
33
-52
-28
-31
-79
6
-15
-1
-6
21
-7
-2
49
-32
-39
18
-11
-41
2
12
65
-4
-1
31
18
23
-25
31
15
54
-51
-8
-7
6
-19
22
-11
-3
-17
-42
