24 144 1 1
-10
3
19
-2
-4
-14
15
-54
45
-10
12
17
-19
2
-42
-46
12
3
-18
36
32
-17
42
-51
-11
-22
-13
36
2
38
-10
-14
11
76
7
-80
-40
-6
7
-37
-28
37
-12
-38
-28
48
25
26
0
49
29
-18
11
1
-29
-6
-48
-3
-36
-22
42
21
37
-14
-24
10
14
-28
17
-75
8
-17
3
30
14
46
-44
16
13
21
-12
19
-1
-10
14
-35
-17
11
36
18
-19
-18
6
8
-50
-28
-63
-36
-41
-21
-33
5
-28
43
-10
-6
9
-42
13
27
43
-26
28
-58
74
-2
-10
16
14
-32
-63
54
31
-45
-48
8
-35
-25
-25
48
-24
19
50
-28
34
-82
15
-35
-26
-17
23
2
22
-24
-35
8
45
2
44
5
-65
-14
-16
-58
34
7
-16
3
21
5
-16
59
-4
-6
-3
-30
24
-15
66
-17
0
-67
12
11
-30
50
-5
27
-26
-13
20
11
48
-9
-5
43
4
2
11
30
56
-39
-40
17
-44
-43
-17
74
-3
-1
13
-56
-6
-34
55
67
30
-3
41
-27
-63
3
10
-2
3
-13
-23
24
-3
21
-45
-27
-25
-12
20
-25
-6
9
23
-28
-35
-22
14
-24
-75
-20
-12
38
11
-32
-42
16
39
-16
3
-40
-1
-31
-51
-16
-39
48
-3
10
14
-12
7
-17
76
23
-64
-18
15
47
-14
-40
19
-9
21
-65
-19
44
-5
-26
-4
-13
-16
-24
13
-31
-26
-7
-19
-37
-24
-23
7
-27
-40
-13
26
-44
-55
-55
-20
23
-29
21
19
-31
-28
-7
37
4
-2
21
-4
3
-3
-4
17
-28
20
-23
-31
6
46
15
5
-27
17
9
-10
-20
-12
-55
-34
-4
31
-12
-11
-21
-3
-24
-21
18
-6
29
5
16
12
12
-11
41
-23
-21
12
-16
-29
-1
-15
-24
11
20
31
6
-29
-1
6
4
63
-11
31
-19
-22
28
37
-45
28
2
-16
-4
-32
0
-55
39
-28
21
-67
-34
-70
-17
53
92
-41
20
18
36
-24
-56
-9
-25
20
-26
1
-30
17
30
3
65
-17
8
-21
-6
19
49
30
41
11
51
67
-2
-21
-12
-31
-14
6
-63
23
60
-25
-23
-33
46
44
-5
39
4
-20
5
13
-16
6
8
-7
46
51
26
-20
64
9
-41
-22
-8
17
0
56
-20
-33
-10
11
10
2
-13
0
-20
-2
-2
-2
-64
-14
35
-19
16
26
14
-61
-4
48
7
-9
12
50
-12
7
21
-2
20
-8
15
9
15
58
-19
-28
-42
39
-46
-39
10
57
-18
-55
30
23
11
9
-27
8
-40
47
-44
-51
18
31
-25
5
-46
-7
-4
16
13
43
38
-6
-27
-6
-29
23
-19
-24
-19
-27
25
15
24
58
-23
50
27
23
18
1
-1
-28
-81
2
70
-20
-32
-3
-32
-29
5
25
-3
3
37
-5
61
16
-15
-15
-19
-22
10
-12
-6
23
5
-7
56
-15
1
-18
-15
19
36
-15
25
-63
-19
-37
-29
23
-17
-50
43
35
-13
9
10
-39
3
21
-34
12
-11
7
2
-8
43
-19
-4
-26
11
12
1
30
-21
-15
-18
-3
-15
-52
25
-18
-4
-6
17
22
43
-44
16
25
20
-38
-58
-49
-40
-6
-3
-5
26
-35
-19
1
59
-16
28
8
21
16
46
10
4
-14
9
-40
-25
-20
-36
24
-11
-30
-38
-10
-10
-63
16
21
-2
-4
-11
-33
-14
25
-16
-3
10
15
53
30
2
-19
-16
-7
-20
-13
11
-44
-4
-21
36
37
-1
-32
-2
6
-40
-9
-33
-28
7
17
-4
15
-7
9
3
-60
24
19
7
-24
48
-18
32
22
23
-21
8
-9
24
-5
-3
-15
-38
-28
56
13
18
-21
-23
4
-3
-31
6
-15
45
-12
11
-16
28
69
-1
1
34
27
-25
5
-43
59
-30
-20
-38
5
-75
74
-10
-26
-40
55
46
-105
-38
-17
28
19
-31
18
-24
2
-28
-45
28
-53
-46
24
39
-48
2
23
-21
-46
-11
53
-3
-31
-30
-17
-2
-15
-3
44
11
-50
-18
-75
-32
28
5
-23
-29
25
4
3
-45
-68
5
13
24
-18
-25
24
36
-90
25
-11
45
52
-8
-24
0
56
-13
51
37
-22
22
-29
-4
17
-25
-16
13
10
-36
-11
11
-68
-15
-22
-11
24
-1
-38
-9
-26
62
-52
-14
-59
41
28
15
-24
34
35
-67
-17
2
86
-64
-50
-29
66
11
4
-22
-17
-19
54
-1
44
-11
-68
-52
-15
-50
-74
15
9
22
-48
29
55
-29
2
-19
61
54
-33
5
-3
6
-40
-37
-62
53
-12
6
42
34
2
-29
9
-1
-55
29
-10
-16
5
-9
29
0
40
-1
-40
8
-36
-8
-12
-8
-30
-5
-2
-19
-22
-3
-52
-19
-16
32
38
32
-17
-13
-25
27
-15
40
-13
37
-30
16
-2
-21
-12
-9
35
24
-28
-29
-2
8
-4
-35
43
-22
16
-13
16
-53
-22
13
8
-30
-11
2
60
5
-49
-18
-4
2
-16
-12
25
7
2
-31
-27
20
-53
61
45
-27
-8
-40
-23
-14
33
-29
11
4
-19
7
6
47
11
21
8
10
-13
-17
-41
-18
-32
28
-14
3
72
-33
-64
-9
-24
50
-29
-31
-11
-46
21
24
79
-17
-86
38
6
3
-6
-25
18
-1
9
-48
-58
55
37
-41
-2
-24
-3
-5
-23
-13
-2
-11
-77
-6
68
38
-57
-8
3
23
1
-47
-7
-23
-12
-20
-41
57
2
-26
-23
71
-15
-50
-14
-5
-21
-71
9
-2
28
27
5
44
29
40
13
-37
-6
-16
-7
-58
7
-14
39
-5
19
-37
-3
76
77
-37
13
41
39
14
31
16
-24
25
-47
-25
35
-40
3
34
17
-21
3
-11
34
-10
-18
-44
-25
-63
22
31
2
68
30
8
-23
42
-14
-18
0
11
-18
-5
-28
-62
7
50
-18
-2
25
31
39
-26
-16
-4
40
86
-21
4
-18
-39
-1
46
53
11
0
-20
-2
-17
-6
-20
9
33
-18
-70
21
4
-41
-37
31
32
6
-5
24
-16
6
14
-8
-1
-37
24
35
4
-32
32
5
-9
-25
4
23
-36
-37
-2
-69
1
-30
-38
-4
43
6
-15
-11
11
-31
13
-9
-23
-22
11
18
-47
25
11
7
-18
16
20
-39
-15
-32
-18
17
25
7
-24
-1
-55
17
4
-22
5
11
-18
10
48
71
17
22
-6
-17
54
38
22
66
26
-19
-29
-46
44
-24
30
-37
-7
-35
-9
-4
-25
-22
-2
2
-17
3
-28
12
10
6
-36
25
-8
-13
-53
51
-18
39
-1
14
-9
-32
18
9
-34
23
10
6
47
8
-3
23
35
18
-12
0
4
-63
-55
-41
-30
-14
12
9
-21
-6
-13
-2
4
-41
-13
-2
6
22
-35
-8
-124
-6
-2
-37
61
51
18
-13
-22
-32
-46
-45
11
8
22
20
15
-33
-22
66
-23
7
-26
-41
17
7
46
-9
20
63
22
7
-35
-15
0
-24
21
-35
-60
0
-25
3
-2
19
54
-2
12
-15
4
32
0
22
-8
-33
-21
-28
40
-13
-40
-5
69
-8
-63
56
44
55
-38
-41
-14
-34
8
27
55
17
-13
-4
-22
12
3
-64
-10
34
32
-18
12
-32
32
46
-43
5
-44
47
12
-45
-7
55
17
3
23
-35
-28
-5
-29
18
7
46
-35
-64
42
-81
-16
12
51
-14
-24
13
-54
-63
-1
22
-12
8
58
-17
-29
52
47
-11
-35
5
51
57
65
17
67
58
-18
-37
10
14
-55
-4
21
3
-4
-28
-10
25
13
-30
61
17
-50
16
-52
-63
23
20
28
25
-35
-10
-36
-54
-15
-43
6
34
32
22
7
-4
-33
6
-8
-34
4
61
-35
25
4
-19
-57
27
-22
-6
44
-27
1
-2
37
-21
35
-26
53
25
12
-11
-45
84
39
-50
33
41
-25
-74
-22
32
-37
42
-33
-30
47
42
-26
5
-15
-36
-54
-13
15
-4
-18
32
-31
0
-27
9
60
16
23
21
28
7
1
-9
21
41
10
7
2
-20
11
-7
-40
-77
2
40
7
27
-7
-38
-14
17
14
-21
10
-24
-25
-25
4
-9
-17
-26
8
-8
18
53
-15
19
-30
6
-40
-71
34
1
55
37
-21
-47
-1
-12
24
-6
24
-16
-27
-19
0
-28
9
21
-6
0
-21
-29
13
24
34
-33
69
-26
12
94
1
22
34
21
13
-35
-2
0
-2
16
15
54
-12
-35
-5
-45
-9
-9
8
24
-15
0
-25
13
62
15
1
6
27
-12
-2
-14
-50
-18
24
15
-7
8
24
-18
-43
20
-22
-20
3
-37
12
-15
7
44
47
9
2
19
-18
15
-25
20
15
10
47
-26
26
-1
0
41
50
-55
-1
-40
40
40
-15
-17
-31
-8
-21
22
36
42
-7
-26
-13
-30
-24
-18
-6
-26
30
-19
62
4
4
-22
8
1
-28
-14
14
17
16
15
16
-11
-23
-16
22
-29
17
-6
11
-2
17
38
50
-23
-28
-4
-75
-43
-29
24
36
-11
-13
-12
-16
4
-3
53
-26
26
14
25
48
-22
2
-14
-25
-28
13
28
-1
-14
10
-11
-4
-7
10
-30
-23
77
-11
-53
30
85
-7
-23
-31
-31
-28
-47
9
-22
56
-11
6
-30
-37
14
27
13
-24
-23
10
-29
16
20
-14
-18
-12
-35
-20
-21
6
-20
0
13
23
21
-26
0
30
-33
-35
-26
-16
34
39
11
-23
-37
32
52
-44
19
20
33
-13
-23
8
-29
-16
-35
12
-28
-3
-17
-19
-22
-31
-6
-57
-7
32
23
5
-2
-19
-17
64
-2
-1
24
14
14
-12
12
-51
-13
-25
-26
-56
-51
-10
-39
15
-24
-11
69
19
-41
11
-20
6
1
-9
-2
40
-9
33
-30
-43
22
29
-4
6
30
10
50
-1
-39
-14
-72
15
-40
-12
55
23
-14
50
-30
4
36
14
21
30
-61
15
34
-16
-32
16
-17
-19
-15
12
18
-35
13
9
36
52
5
8
-16
-31
-17
25
44
48
8
-10
-9
2
14
33
-32
18
-18
15
22
18
-38
14
21
-23
51
5
-23
3
-9
-1
-76
-5
22
-11
-20
6
20
-43
5
-6
-30
-26
-62
18
-2
-36
3
-42
64
-45
45
23
0
-64
-41
12
-31
14
-33
3
19
-7
-22
-30
12
-23
-34
44
-65
4
-31
-34
18
-27
14
-8
6
26
-3
-15
37
19
-20
23
-30
-29
-7
-5
37
6
27
-8
-81
8
69
-11
-17
62
10
-6
39
11
-11
20
-18
12
-21
19
37
11
2
10
31
4
-25
30
7
-21
35
25
-36
10
-27
15
14
44
11
41
11
14
-4
23
11
-46
-4
18
36
16
-36
42
-4
-8
-5
4
-1
-63
-36
29
5
40
-18
-4
64
3
-8
60
32
-51
44
44
-39
2
-78
-17
33
3
-19
-5
-63
-29
-58
-5
57
-5
-33
32
-18
17
26
-12
-15
-47
13
14
-9
-9
-2
-4
65
37
-67
-42
8
8
-7
36
-15
17
49
-14
-33
20
-48
33
4
9
14
-2
27
-31
-30
-28
26
21
-15
42
37
-42
2
-28
20
-48
-41
-22
16
-24
-3
82
46
-13
-27
-20
-15
-3
52
27
-5
10
-15
-37
6
2
-49
-41
69
11
-13
2
-2
-7
-16
24
-33
7
-9
-31
45
-25
-28
43
1
35
29
-25
-11
-48
-20
-16
20
-16
10
14
20
-2
-17
1
11
-16
-16
-36
26
-23
-14
-19
25
13
-22
-42
-17
-40
-41
-37
29
-19
9
20
-65
23
-29
4
21
20
21
-17
-16
-16
10
8
-10
-29
-16
-26
-4
7
-24
-4
29
12
17
1
33
3
14
22
40
29
17
-7
42
-21
-4
-54
10
2
11
-14
-11
10
0
-6
8
6
12
1
10
29
8
21
1
-43
-7
37
-59
14
-24
-4
-8
-9
11
52
4
43
46
-5
-33
-29
-20
22
-5
-2
41
-8
20
-13
-53
18
-37
9
-12
3
17
-25
-32
-2
70
-49
27
9
-21
3
4
26
-30
-17
-7
10
-5
10
18
-14
-41
-36
37
21
20
41
5
10
-16
-52
-3
9
12
-6
21
-16
23
31
-8
-26
-5
-1
-6
16
49
0
-5
34
-32
6
-35
-40
11
-21
53
3
14
28
-8
26
4
-49
-65
-8
-23
3
52
-31
38
-39
45
47
-59
-64
-3
-28
-6
-3
3
-8
-13
-40
7
-52
20
-32
-4
-4
-1
-28
3
16
0
-9
-46
-29
15
28
-69
-69
-14
2
17
2
-32
2
-60
21
20
-15
0
1
-14
-2
25
-20
18
-19
25
30
-43
4
12
-3
20
-7
-10
-33
-25
15
3
-33
-28
30
-9
-18
11
-36
-5
-27
-5
28
8
-37
-3
2
-29
-26
-24
35
8
-19
-13
-43
24
-30
-13
6
-6
-19
11
-15
20
39
2
40
-12
-22
-38
63
-10
9
20
-39
42
18
-6
0
22
-45
27
-12
26
10
19
23
-12
-4
-2
7
-4
13
20
18
-26
-21
5
-3
23
-26
63
39
5
-15
72
-5
8
-17
3
-61
72
-16
-17
-62
-28
29
-28
54
7
-24
-20
-12
33
-27
42
-35
28
-9
46
-12
-18
54
20
-1
65
-37
-24
26
1
-10
-38
17
-27
47
36
42
52
80
-11
27
40
21
27
32
28
19
-31
-14
15
-8
-19
-4
-33
30
19
-23
27
-24
-12
29
-15
0
35
-6
59
14
-9
-28
36
24
-44
49
-61
30
-15
20
51
39
7
-14
-33
-12
50
47
-15
-12
22
19
35
-41
-7
-5
14
-38
-7
-32
-13
48
-19
-14
-6
-14
-20
24
25
43
-1
-5
-3
-5
-7
-51
-5
45
-13
-60
-7
-16
40
-9
0
-31
-24
-30
26
-4
-14
-24
-21
-3
40
-15
-36
10
11
-33
3
-29
-38
23
8
5
-3
-75
-19
-4
-16
40
29
38
-14
70
-4
-10
3
-26
-10
-3
93
-50
-52
-19
12
-17
21
26
1
-17
55
39
-9
19
20
-43
-18
-20
-34
-62
-15
3
-40
30
-2
5
-48
-8
-7
38
24
-1
-19
-12
28
22
26
-14
34
-17
17
-45
-26
57
42
-11
18
-1
11
-43
-18
11
51
-55
17
12
-12
-49
-23
-12
-12
18
-12
30
-11
4
-31
2
-22
12
25
-4
-53
26
-2
-11
-72
28
-42
-4
7
-38
-8
-22
-32
8
-3
23
2
-28
-16
-13
-9
-19
31
6
-40
28
-9
-1
-19
-29
-24
-46
13
41
15
78
27
-8
-32
-42
-19
-8
45
2
62
50
4
-2
52
1
-33
-38
75
-10
2
27
13
-36
-1
22
2
26
-20
1
-25
-20
-19
51
13
8
-2
-8
11
-8
-29
-28
-25
32
15
-8
8
17
-6
12
-34
-67
-56
-33
-22
49
-47
-36
-27
-56
46
15
0
37
-13
13
5
-14
2
-8
-2
17
14
53
24
-56
29
42
18
25
37
-21
65
-40
2
-8
3
38
64
40
-66
-12
25
38
33
-2
17
19
-29
-42
-3
-15
52
-25
-25
-4
-47
-10
28
-26
14
-35
-3
34
-14
-11
13
-19
-5
-14
-44
-2
-48
45
16
33
-9
-15
8
-9
42
-8
-23
5
30
3
-8
10
-11
53
40
-16
-15
28
5
-34
-46
4
49
16
55
13
15
18
9
-70
55
13
-16
31
-7
12
-32
-46
-40
41
27
19
-13
23
14
12
-42
-12
-34
41
-12
33
1
18
-16
4
-4
0
46
-1
-21
-54
7
-14
-42
25
27
-40
48
8
-29
19
7
-14
28
-22
15
55
-20
-23
0
-29
2
16
-33
27
-4
36
-7
-14
-20
29
19
-5
51
-50
18
49
-6
-24
-69
-45
-25
-14
29
-9
-39
54
11
28
-35
21
10
22
14
0
-13
14
16
23
-4
19
36
-9
22
-39
10
-29
-9
-39
8
48
15
-14
-6
6
25
58
55
-47
60
-21
-15
54
17
41
26
-5
-59
14
-29
31
31
47
-20
-25
4
-7
-79
7
-60
-26
14
-22
63
-54
-17
-36
-23
-31
41
-17
-29
-19
37
36
-9
33
55
23
37
-45
7
-47
33
4
-8
52
0
9
26
-5
-46
11
-18
-64
-70
49
-49
63
18
-33
6
14
63
24
15
2
-15
-37
5
27
-21
35
-51
36
-39
32
20
-22
19
24
5
-21
-21
20
-20
-15
-45
-26
74
13
-44
20
-3
-42
-7
55
13
46
-44
-6
-13
47
31
-13
10
63
-1
37
11
12
18
-34
-15
-81
12
-56
33
-8
8
28
17
52
-3
54
12
-20
-87
19
-23
44
35
-4
-18
-11
18
-10
-45
17
-26
-30
-47
6
-1
-79
20
51
-42
-8
43
23
-11
21
3
-16
14
-5
7
-72
41
-19
-1
85
26
5
-11
-47
-9
16
-16
-1
5
19
29
26
-8
25
-22
1
11
-12
8
7
18
51
-37
28
5
22
35
-35
22
13
8
11
-20
-42
7
42
-9
-58
-25
18
-7
-17
-5
18
26
4
-2
-52
-41
-33
36
-12
11
-9
-5
-48
33
-11
3
32
29
55
10
35
-7
24
12
-7
-46
-28
36
-5
11
-42
31
2
-52
-30
10
36
4
-6
6
-18
-15
55
28
-37
52
14
-26
-17
-86
-44
-5
15
-13
-23
-55
23
-36
9
-21
-10
-7
21
5
14
-23
-28
-2
6
25
-10
0
-7
-56
-26
40
70
-58
-5
2
26
-59
-9
-21
30
0
48
4
-29
-8
17
-17
42
49
26
-101
-39
8
3
55
-50
-25
-17
50
4
36
-31
-4
20
-31
24
-14
36
37
52
24
-60
8
21
-31
3
4
32
-31
-13
-24
-6
-9
25
-2
56
56
39
-21
-10
19
76
33
-14
19
13
-17
31
-25
70
-6
43
4
39
-17
-9
-4
-24
38
10
-24
-61
-1
8
28
-36
-17
-69
-33
-1
-11
-26
36
-39
-6
-16
18
-25
15
-14
10
33
3
45
-2
2
-19
0
20
-15
42
17
-2
-27
-20
-35
-32
-73
20
26
28
-31
12
58
-36
-32
-28
34
29
-28
51
-56
-22
13
-23
2
11
-27
48
-3
38
2
49
-5
-25
-30
21
25
62
33
-25
8
