384 1 3 3
36
4
-22
-102
32
5
-35
29
42
59
-28
-20
44
-3
-42
-11
-29
-27
-41
-40
-37
0
8
-26
51
59
-8
-8
-3
29
-66
19
17
-23
-43
-18
-39
-53
-6
-17
-20
-5
-17
50
34
-33
-20
-27
-10
-12
-44
8
28
12
-42
-38
29
-12
-24
9
-33
20
13
-43
-60
-17
-1
27
17
-38
-9
-68
-28
-28
-10
26
-11
4
61
13
37
-62
-41
8
-23
-29
78
-27
26
-6
-31
48
1
-35
43
-15
-70
1
-37
-33
-62
7
2
-15
-6
28
21
23
-28
-39
-24
-26
-15
-15
32
44
16
-7
-7
-11
45
26
56
0
-23
-12
-19
-37
-21
-47
-11
-14
-28
13
3
-29
-32
-36
-55
8
21
-28
6
44
9
-5
13
8
-5
-35
-43
-27
-36
-12
31
-12
58
2
-34
33
-10
-42
25
61
39
-29
-48
-8
-30
-40
-10
18
6
-45
-7
91
9
-21
10
-60
16
-15
-37
21
-34
-39
23
-16
9
-2
-24
14
-44
-22
-27
16
-41
-38
64
4
-19
36
-34
-48
2
-8
-8
-3
-11
61
-35
-10
36
-14
-19
23
22
19
7
8
-24
-49
-54
19
-54
-3
5
-58
54
26
-51
23
2
-47
47
34
18
3
11
9
11
12
15
22
-65
-13
64
-34
28
75
-23
-17
42
19
16
16
8
14
0
9
7
-15
-70
-13
24
-9
45
72
-22
-17
40
30
27
7
18
3
28
16
18
8
31
58
-9
-16
-32
-18
-75
-25
-8
-15
-57
32
18
-26
87
39
-18
-46
41
21
37
-50
9
-1
-66
84
1
27
44
-3
32
28
-4
23
0
27
22
-39
27
22
-56
30
-31
-40
-13
-34
-25
2
15
13
11
46
33
15
12
-45
118
4
13
28
-62
14
-24
-13
-22
-41
-18
-38
13
0
5
-67
-6
29
-31
24
38
-15
33
65
-10
-12
-40
-12
-16
-28
7
-3
-34
-43
-11
-20
4
19
-9
48
41
23
-44
-19
64
-33
-2
25
-40
-15
16
15
-31
16
21
-55
37
11
-64
53
24
31
-18
53
16
-14
9
4
-10
34
22
30
28
5
11
5
25
1
-42
48
38
57
86
-73
-43
-2
-26
1
10
-34
43
79
31
-3
9
22
-15
-9
-28
-30
-1
-33
14
59
18
54
24
57
-5
-37
-6
-29
-12
-29
13
-10
11
25
23
10
31
25
14
25
-6
15
-11
-41
-25
38
42
61
-43
-22
-27
-10
19
13
-1
49
67
-65
22
19
0
-45
53
17
-58
18
37
19
24
-12
-14
-1
-50
-28
-37
-56
3
-5
-11
-28
-16
-20
-19
-25
52
35
31
5
6
-5
5
4
10
28
61
0
26
21
-35
28
10
-28
-3
-46
-41
51
23
-78
1
21
3
5
-10
-38
32
-21
-24
72
11
-32
-14
-58
-2
-4
-14
36
-38
-42
9
-12
-39
-15
-2
-34
-36
24
4
25
7
39
17
-6
28
27
-16
-34
-15
1
4
1
-6
-1
-6
-46
-21
-46
-21
0
-26
-6
-33
-48
-12
14
-21
-11
17
55
-31
-4
44
-5
-57
7
26
-36
-40
0
5
-59
-24
-24
-2
4
-11
6
20
-19
-21
-27
-41
-13
8
-10
-5
11
3
-6
-70
-33
-35
-22
14
-37
-36
-21
-17
-30
-36
-18
-31
16
17
-16
62
2
-2
49
3
58
35
-21
8
35
-21
-1
20
-16
1
43
-27
3
15
30
19
32
5
-28
-42
21
78
15
-6
26
-43
-25
-3
-1
18
77
-100
-22
63
-80
3
-13
64
20
-14
-1
-54
-47
-5
-57
-21
-20
3
7
-39
-39
94
6
23
3
29
-48
7
2
-21
-5
-46
-32
5
20
-12
-28
9
-6
5
-54
-63
-39
-12
-2
-5
-22
-4
-33
-31
-6
42
18
-2
5
15
-6
12
38
3
-25
-1
-41
14
-10
-23
16
-42
-5
13
-13
-10
0
11
-3
15
86
23
-43
-51
47
-41
29
34
-25
5
-14
-23
-24
18
-46
2
27
-19
-18
42
38
14
-12
35
14
-20
30
-35
-30
-15
-50
-16
-26
-16
-39
0
3
19
-34
19
64
-5
15
70
-20
-27
35
-12
-51
-11
55
24
11
-1
53
76
12
18
-10
30
59
-18
1
8
-28
51
46
-17
-7
-37
-60
3
43
-3
49
32
9
6
36
-1
16
4
42
-26
-34
0
-14
-30
-40
-6
-31
-24
-8
15
-29
5
67
60
-36
-34
-11
5
-16
-49
-14
-21
-32
-12
-19
0
3
2
-17
12
39
-47
-1
44
-35
-8
-26
-78
41
34
-25
48
35
-41
45
23
94
-10
-22
-10
43
-36
-21
21
2
-27
13
-16
-45
11
-17
-45
24
27
5
16
34
5
14
15
7
-79
-4
-53
44
9
34
12
-4
-42
-1
22
53
-45
23
42
-23
35
8
-13
40
12
-72
-17
-42
-15
35
-48
51
9
0
45
21
-32
41
26
-25
-10
2
-2
18
25
18
27
43
73
-12
-11
104
-43
-25
7
-19
-33
-6
34
43
27
-16
-35
-18
-60
-36
-43
66
29
-17
5
33
-11
-1
-4
-5
35
55
21
6
17
9
-65
-7
0
42
43
42
-38
-40
-13
27
-21
1
-22
-44
-24
0
-4
53
-35
-35
-25
-35
-21
-31
-8
-31
-15
-18
-13
-19
32
11
71
-6
20
9
-43
-25
-36
50
30
-42
18
29
-55
-15
19
-5
23
-2
-22
59
44
16
34
35
-1
25
53
10
-40
10
41
-30
-8
38
-2
-40
-45
-6
40
46
22
55
35
-48
-31
-19
41
58
2
-21
13
8
-33
-65
37
-29
-33
46
4
2
28
-18
14
-25
-63
-52
11
6
-7
55
-23
49
-5
35
59
1
5
41
-30
-28
-39
-25
62
47
6
-44
-25
0
-25
-25
12
-47
17
0
5
64
46
8
-11
-50
48
-49
-30
28
-12
-2
22
-14
12
74
-27
-53
46
-21
-34
-25
-37
-6
83
-32
-10
38
2
-3
39
45
21
8
18
24
-18
-35
-2
-51
6
43
-30
18
9
-40
6
22
-42
-6
1
-67
31
5
-62
29
23
46
-30
-36
-15
-47
8
-26
-46
54
-23
-14
10
-10
-26
-23
-37
-22
-2
-24
5
-34
0
17
-14
-14
-64
-3
9
16
-34
11
31
92
-16
-64
9
-13
-23
-33
19
-32
-38
46
6
-13
2
78
37
-4
3
45
-8
-15
1
-22
-11
-24
-34
2
-42
-35
-6
9
47
40
39
12
5
-7
-13
-19
-27
17
84
-40
2
-2
-29
-14
-42
-47
9
25
40
-10
0
-38
8
-38
-40
-3
22
17
17
54
9
-40
-70
-10
-5
-59
7
-6
-15
6
-11
-30
-21
26
-31
47
-29
21
28
-48
-72
-2
24
29
40
21
24
20
21
-15
-11
40
50
14
5
18
-13
-12
-5
-36
-17
-9
-17
-32
-20
-6
-11
-20
-14
-25
-3
22
-63
-43
22
-35
-12
38
-34
42
15
-25
6
46
-36
-35
33
-36
-26
20
-53
20
50
-19
-10
17
5
-3
12
-55
10
-23
-44
7
-45
16
61
41
-9
-2
15
-7
8
-15
12
9
-31
34
-21
-47
-2
0
-39
-52
31
-40
-20
30
-71
35
6
-8
-1
-17
13
-22
-7
13
-66
-47
-30
-16
-45
45
73
-56
25
-16
-24
-18
22
5
10
14
8
15
20
12
36
-35
-66
-39
-11
60
-45
-12
24
-6
35
37
-7
6
-18
-51
0
-34
-37
60
-20
-46
25
-10
-8
51
17
-3
-28
39
-50
-65
-41
20
-20
-35
-16
-8
-16
0
12
70
37
-72
-30
31
33
-31
-37
30
-29
-37
-15
-23
-12
3
12
8
-1
19
45
-17
35
44
-27
-7
-23
-24
-43
22
-5
-32
1
5
51
-56
-28
80
-48
-34
11
-27
-38
-43
-42
-11
32
-29
-22
0
-35
-22
66
6
-7
51
-31
29
43
-19
21
11
-33
7
48
53
-12
33
32
23
30
23
15
12
3
-32
-57
-34
3
9
-22
77
34
-1
-17
-24
-21
-21
-46
32
-19
-5
79
-16
-8
18
-31
30
-20
-98
-22
38
-10
32
-7
-44
-40
1
-28
-27
-31
45
40
48
-48
12
1
1
-11
22
17
15
78
-17
-33
1
-9
-27
17
-42
-18
-1
16
13
37
61
48
43
-9
-13
9
-38
-28
-10
-39
-7
19
-12
-42
20
-48
8
-57
-29
51
-43
-55
37
6
-25
-21
-27
40
49
29
-17
11
-23
38
15
-57
0
42
-60
25
64
-61
-32
2
-14
-2
-31
-33
-17
-11
2
-87
-43
13
8
53
7
-16
25
14
10
34
93
-7
5
8
9
9
13
6
-11
-46
2
-6
-43
10
-1
-27
3
-49
-29
51
-41
-8
18
-5
-63
4
59
-12
-12
45
-29
-52
-10
-41
25
56
51
5
-30
-20
-4
-66
-21
-15
10
9
12
18
45
-54
-32
-11
45
28
22
17
24
23
-2
8
-3
-12
10
-11
40
127
32
-16
-7
-9
37
64
22
-7
28
-12
-29
-41
-21
-27
-12
-19
48
39
40
-35
-28
-30
31
34
70
-1
-10
37
-20
-41
-13
-30
-39
-54
-8
15
11
51
50
-4
55
56
2
31
-14
-11
13
7
-10
-27
-46
5
-33
33
5
-61
-24
-8
17
26
20
17
10
21
18
3
-8
-66
-18
-23
-2
28
-63
15
23
3
21
14
12
14
-24
-15
-48
-20
-39
-3
44
-14
-34
-3
-30
-30
-16
-15
9
8
-20
-12
30
-32
52
41
-29
44
29
3
5
-7
36
-31
-52
13
56
18
-14
-32
-4
-47
-42
-25
-6
-55
-47
-22
-28
8
-26
32
27
-25
2
-38
-32
-7
10
-40
-11
3
-34
-11
7
6
-52
-10
5
-37
8
-10
-12
-23
-18
-15
-31
-42
60
-20
-22
63
20
-54
15
18
-45
-15
24
-83
43
1
63
15
-8
9
-52
-44
13
-32
0
32
-17
-61
-41
18
-28
2
-6
35
2
-23
-10
-36
-36
-22
-22
-5
-12
-32
-19
-14
-34
-9
-28
-31
40
42
26
50
4
-12
17
-1
-1
-38
31
32
-29
12
22
-7
-7
35
-7
38
78
6
24
27
13
-33
-31
-45
67
-64
-89
127
-13
39
-68
-9
9
46
38
-32
-14
18
-60
3
13
43
3
-70
-5
1
-53
21
34
1
-22
-52
56
-11
5
45
-54
-2
-6
-45
-31
-22
-28
-19
-14
42
6
3
30
-62
-33
28
-57
-30
62
-21
37
-34
-10
-45
18
-25
34
60
9
19
-28
-31
-13
-21
-51
56
-28
-41
73
-87
26
-1
28
85
-89
11
-73
2
-25
-48
-30
24
12
-24
48
0
-38
-54
27
-65
28
39
32
-35
-1
-62
-9
-1
1
7
7
57
-6
57
0
-20
17
55
21
-26
12
-28
-59
-25
28
3
-24
79
19
18
20
-5
-34
-20
-31
2
-33
-26
33
20
8
61
59
15
30
-10
22
13
0
33
27
20
13
-60
36
79
-24
-11
1
-28
29
30
-18
0
-65
-40
-61
-14
4
-7
-4
-3
-50
-60
-47
3
30
32
-28
-26
-8
1
-25
6
-48
-12
-32
22
3
12
-14
29
1
-72
-36
-56
24
54
-1
42
18
13
13
-9
-20
44
-1
24
31
-30
-11
27
-44
-1
60
-37
-64
79
-1
-40
14
22
-23
-17
-35
-15
5
31
-22
-34
-41
-11
6
-22
33
-68
-26
16
11
-2
-70
-4
-44
-35
57
54
-27
11
21
-29
10
-69
-8
80
-34
-19
24
32
-34
-33
-26
42
-17
20
41
-50
-29
-22
-59
-56
-59
30
59
11
-8
8
-5
-2
17
-2
-26
-23
-46
-21
-13
-25
-3
13
25
-26
-13
0
-9
-59
-54
-30
-15
-27
21
-20
-6
-33
-41
5
-29
-46
-29
-13
4
9
62
39
26
-25
-31
9
-24
-21
42
-49
11
31
-12
-16
-17
-49
-3
28
-80
0
63
-3
8
-4
-4
-37
-42
-14
-24
-25
-22
-25
0
-15
-35
-34
-16
-7
1
-65
61
15
-43
72
-56
16
-21
-55
-17
-10
-22
-4
-11
-7
-7
-51
-7
117
-1
13
-43
-29
3
-1
-1
98
-28
8
-10
-47
-18
-17
-7
-27
-11
5
-28
1
34
19
-33
-10
-65
-17
-22
-26
-17
-2
-45
-8
-26
-48
10
-27
9
4
-20
18
31
7
22
33
-11
37
-10
-12
36
25
5
52
-29
-12
-5
-17
-30
-22
-18
-14
-24
14
83
23
-32
27
-5
-21
76
18
-5
-31
-16
21
-12
5
-12
53
49
42
-25
18
-40
0
40
-23
-25
57
-19
33
26
-3
38
11
1
27
-2
-11
61
-62
5
-38
95
-59
1
55
-77
-42
-39
75
-28
44
57
7
-7
-19
-10
48
-3
30
27
-15
-7
-54
-57
-2
36
17
-24
-26
-30
-38
-34
-13
-11
-20
-43
-26
-8
-25
-4
5
-7
-15
49
45
-60
6
-24
-45
16
5
-52
-63
5
25
17
46
41
-17
-75
-19
58
66
-3
28
-17
-55
5
-31
-12
-6
-12
-13
-26
-33
-9
-16
-38
-8
-26
-29
-24
-17
-31
-28
17
-32
54
30
44
56
-22
-12
9
-10
-4
-50
-21
-33
3
4
-20
-4
-23
-4
-19
31
-28
-32
15
-38
-29
45
-40
-6
51
-19
-13
20
-28
-4
34
58
29
34
56
2
2
23
-4
-41
-18
64
-6
22
36
5
7
20
-10
5
43
44
13
-27
3
2
-78
-37
21
-32
-14
7
-24
-13
0
-44
-21
-11
18
7
12
36
24
-25
2
73
-15
30
-21
43
-28
36
32
-5
-46
-62
0
-24
-9
-27
-46
-39
14
18
16
-61
-46
-66
1
-6
9
9
6
-19
-51
29
92
-37
-53
27
-50
15
20
15
-48
-20
-21
-27
-55
14
-20
29
-11
-45
-5
-15
-34
-28
31
29
-55
24
26
34
17
3
33
-1
-14
-26
-37
-55
-13
-8
-22
13
41
45
39
32
2
34
55
-13
-13
15
53
16
-30
-31
5
-1
-8
44
-69
-51
19
-12
-8
8
-13
21
-26
-50
-35
-50
27
4
-5
12
24
3
12
47
26
-10
2
-28
-48
65
8
-24
28
65
49
16
-58
7
3
42
-25
-97
-37
-7
-55
-11
-31
-13
-22
76
17
36
-37
-13
26
-55
31
95
11
4
37
47
-29
-29
62
1
-29
11
-9
-7
-57
-74
-24
8
17
-19
22
42
25
52
-45
-29
38
21
-11
29
-26
-33
-41
-14
3
-14
0
71
-21
-17
6
24
26
-41
13
-10
-25
38
16
-46
-24
-52
-9
5
-21
-41
-11
11
6
-26
-32
14
-33
-44
-11
10
-2
36
12
-9
0
20
43
46
45
16
33
60
24
2
-42
-2
-33
-37
-28
-30
31
58
-11
46
27
-9
-21
-27
-26
-26
42
-14
6
48
-14
-29
37
-47
43
44
4
19
-34
-31
33
-8
-6
-36
-30
-32
70
26
-58
18
-27
0
18
14
-77
11
5
-24
4
-38
-63
-21
-17
-26
0
-28
-11
-26
-24
-10
-28
32
-38
-11
42
-33
10
43
-26
-19
-22
-11
-11
-23
-16
-9
-25
-4
-25
-29
-21
-14
-16
0
33
45
53
-37
-16
-24
71
8
24
4
-7
17
20
7
53
12
-26
51
-9
8
37
-43
-66
-61
11
-48
7
1
64
86
33
-5
-78
45
32
-54
-1
15
-68
17
1
-29
16
27
-26
47
70
6
2
-18
-6
-11
-21
-37
-34
-17
-17
31
-10
-9
-20
9
63
-79
-33
8
-16
16
-25
-10
23
-30
112
-53
-35
-31
-33
-50
-25
29
12
-12
-24
-7
7
60
-41
-29
-1
-42
24
-4
-39
-31
-6
7
54
-2
-38
54
11
-32
41
32
36
-2
1
5
-6
16
17
-35
-9
-20
-7
56
11
-48
34
-69
-17
-13
-12
60
10
-53
78
10
4
-29
-57
-5
-40
3
12
-11
-11
36
-34
-21
-32
-22
6
-7
-28
-35
27
17
42
56
20
29
4
-20
-28
18
45
43
-5
34
37
8
-30
-20
-36
-36
-28
-26
3
-36
2
-1
-7
-15
-43
-51
-61
28
13
-16
1
34
2
7
-36
-20
4
-28
3
-2
-55
21
-42
-33
23
12
10
20
-51
7
71
10
-24
-50
-32
-28
9
-38
-2
32
-19
5
59
-36
-6
10
-61
33
61
-16
-36
-17
-22
18
-38
2
22
-60
0
-24
-53
56
44
-12
17
-33
-22
-52
-9
22
-45
1
10
-56
23
69
53
3
54
26
34
-16
39
-42
-45
-13
-16
-10
-5
-43
-43
65
11
43
-41
-1
19
-46
-33
47
-18
-36
11
12
16
42
13
-6
37
9
-3
11
-9
19
-5
32
61
25
-52
-29
-4
-22
-25
3
-27
-18
15
-16
-36
36
72
42
-4
-1
2
4
10
4
-26
-43
-10
-51
27
72
-15
-8
92
-8
20
37
-62
-9
-9
-34
-8
65
-26
20
29
5
15
27
23
25
26
-6
-14
-4
1
-2
-5
-78
4
-2
-15
25
-43
52
-4
51
37
15
37
-40
4
37
5
39
41
-7
1
23
3
-31
-6
-32
-26
-13
-16
10
-24
-18
-36
-56
23
-15
-26
-4
5
-5
69
-51
-10
2
-11
-14
-33
-4
-14
-18
2
-33
-16
6
13
1
48
54
58
28
-9
-31
77
35
8
18
-11
-18
-34
-23
-38
-31
-25
15
22
26
-3
-31
-34
45
-49
-18
-10
23
24
-57
19
2
-37
28
34
-43
19
14
-29
16
29
-16
-45
-23
15
-11
15
82
61
46
-19
7
9
-45
-7
22
-8
-49
-32
-7
7
6
-12
30
52
38
51
9
-9
68
4
-2
27
-27
-37
21
2
8
-4
-31
-32
-28
-20
-22
11
2
-5
28
5
-25
30
53
-10
-16
18
-30
10
36
-24
6
89
7
-65
-27
-40
78
57
14
-49
-5
-36
-61
-57
-57
3
5
-12
16
31
33
-20
20
3
9
46
-27
43
40
-43
31
-37
-11
-32
-48
40
-11
1
-52
-85
-48
14
-25
-4
3
33
57
-22
0
-16
-47
-32
12
-11
-1
-64
-28
-46
-17
62
18
-68
20
-5
-48
8
13
41
-7
39
33
70
3
-3
-13
-28
-18
-25
-31
-38
-27
-11
-21
0
0
-9
-43
35
19
-19
13
27
49
-46
-57
-53
31
37
48
-1
-5
-17
