576 1 3 3
-38
-5
38
-42
39
35
-47
32
21
-12
-5
20
0
43
82
0
-3
36
18
4
-39
9
-16
-6
-8
-56
-24
39
35
28
24
7
15
-25
-50
-37
18
-12
-44
20
0
-29
1
-40
-36
64
46
24
-9
-23
-31
15
12
1
-17
17
42
1
-11
-16
-42
-48
-35
-44
-21
13
-56
-17
17
8
11
37
30
23
42
1
-9
9
-31
-57
-34
17
37
14
15
3
6
3
20
11
19
-9
-24
19
-37
-17
23
-36
-25
-35
-6
-66
-36
26
1
-25
21
-32
15
28
1
18
60
13
-17
47
-23
-25
45
-19
13
104
23
-77
3
-68
14
-7
2
-51
-73
11
-9
22
22
-39
-19
-40
-3
22
12
-30
-30
-23
39
-20
-4
-1
-2
-3
-2
-38
-54
-30
-9
-41
-1
11
-4
-50
-13
-36
-60
7
-29
-64
2
31
-24
-40
20
-14
21
24
2
-17
16
40
76
66
46
15
-5
-1
25
-78
93
7
-80
-11
-35
-15
-4
-25
-4
-8
-32
-12
-47
-27
7
11
51
51
-35
-27
-58
18
1
4
31
42
46
2
-9
-42
-36
38
13
-20
40
10
-8
48
19
-37
-19
-47
41
72
73
-48
-5
-29
-21
-29
-69
-10
-6
-47
38
29
-14
-3
11
84
45
-30
15
-20
-82
-20
28
-12
-29
17
9
-31
37
14
-27
29
18
14
9
3
7
-49
-31
-47
-24
-36
-14
-10
-35
-19
21
9
-24
-33
18
3
11
54
2
10
64
12
27
-17
-14
-6
-40
-46
-15
-17
12
32
-24
-9
19
-34
-25
23
-33
-27
3
-11
-45
74
-5
-20
36
-14
-4
-20
-26
-32
-33
-14
-35
18
21
20
2
-20
-65
-2
-39
-3
-4
15
-1
-10
-11
-31
-31
-41
-16
33
27
48
36
11
0
20
5
-17
34
35
23
19
10
18
-23
-11
12
1
-60
-46
23
-7
-32
35
-5
-23
28
4
-39
7
-27
-24
-38
-34
37
11
34
60
9
2
-17
43
34
26
3
13
23
42
29
-13
30
56
-26
-42
-36
-64
2
29
18
-13
-31
-30
-42
-32
-26
11
5
-33
51
72
-12
-32
28
5
-34
-27
-35
-24
-12
-37
53
68
10
8
-17
-10
-1
-31
-16
-9
-25
-20
-56
17
20
-5
77
-81
23
9
-51
13
-34
92
-7
-44
40
2
-20
25
-14
-17
-19
-30
-8
-8
-6
-13
-26
4
37
43
15
22
5
2
-14
-13
-57
-17
-27
-10
1
-43
22
-2
-21
-17
92
-2
-27
31
-1
-27
13
-3
-25
-22
-18
-24
22
-24
-45
-9
-17
52
65
27
-9
32
8
-5
47
27
39
15
-19
-17
-36
-40
-34
-9
2
43
39
-15
6
22
14
19
10
-10
-9
-37
-16
5
-19
-24
4
-12
-31
-2
27
2
-21
1
-27
-30
-27
-38
23
-42
-3
-29
-5
9
-24
-22
-41
-9
6
8
-27
-34
-24
-34
-10
-9
-22
-66
-25
18
4
5
14
38
11
32
-48
-58
-46
-3
31
-47
-13
22
-25
8
51
-51
-11
69
-21
13
-55
12
8
15
-3
1
16
-12
-68
-29
-32
22
-28
-35
11
-16
-36
1
-18
46
65
59
-7
-13
-14
-27
-7
-37
-5
80
-36
-28
40
-18
-5
54
1
27
8
10
34
23
4
-8
13
4
-28
39
53
-29
24
12
-6
5
1
15
8
21
27
30
23
-8
-5
-8
26
41
8
29
44
-16
-36
2
-14
6
44
26
-19
41
8
-14
-9
5
-28
-11
-11
-43
2
-32
-24
3
-18
-14
-16
-20
-17
2
-2
-28
-25
-23
-47
-43
10
28
-4
-37
109
-11
-54
-16
0
49
-15
21
62
-21
-43
27
-68
-46
10
-11
41
7
2
66
4
-40
8
3
-11
-21
-14
-15
-22
-45
-7
13
5
6
35
25
9
31
22
22
-18
-18
15
-24
-7
-3
-49
-25
-35
-47
-37
-4
32
19
14
27
5
-12
-32
-25
-35
12
-3
-3
61
45
-26
5
17
-52
-26
29
-37
-46
18
8
-33
-28
-52
-29
-23
6
9
29
-74
-7
23
-10
7
42
-57
-31
27
21
0
-50
20
-27
-36
19
-19
-25
-28
-9
-4
-12
54
50
-13
38
22
-14
-15
-41
0
-49
-15
19
14
45
-69
-1
82
-59
16
46
-10
-11
32
-9
-24
-13
-14
5
-32
63
45
42
-27
60
4
-9
30
13
-47
8
42
-24
-42
39
-35
-10
77
-12
-17
34
0
2
0
20
6
35
20
19
46
-16
-10
6
-16
-24
-18
-13
-24
-15
-26
-39
-10
3
-37
-16
-36
-7
11
-14
-28
-31
-20
5
-2
100
28
-1
-26
-26
19
-8
-18
-12
-18
-24
-10
32
27
-63
-10
18
-29
62
26
0
27
-52
-42
49
3
-6
45
23
5
-19
-3
-17
20
10
18
33
48
37
2
-22
-33
4
-11
-2
-23
-35
-21
49
-50
44
-1
-44
-78
51
41
-5
-28
-19
-14
-5
14
-5
-26
-24
-39
0
-30
-8
-36
11
-4
-13
-20
-42
28
6
-10
42
-2
-40
20
-43
-50
-22
66
-39
-30
64
13
-23
15
-63
-16
-14
-45
-17
-19
-6
-13
-14
-21
-20
-35
-33
-27
-38
10
8
10
35
-13
30
31
18
7
17
-58
-47
-32
-35
-37
-26
9
20
19
29
35
18
22
3
-29
72
29
21
-38
-56
-26
8
57
-44
6
22
17
-79
38
56
-25
-14
1
49
47
33
12
1
6
-40
-23
6
-28
-16
-53
1
49
71
32
30
-20
4
-28
-47
43
7
-53
55
10
41
36
-31
29
-17
-9
-34
-17
-16
-34
-23
-17
1
-43
37
10
35
53
-17
17
11
-41
19
-33
-38
-7
17
44
5
47
13
13
-3
2
61
-62
-58
28
-76
-23
2
21
-21
-32
-19
6
-1
7
31
-31
23
86
25
8
1
50
40
41
-11
-19
-10
-25
-6
-21
-7
27
40
7
23
34
12
16
17
-34
-34
-2
-22
-31
-8
-6
-55
9
36
-39
8
-17
-52
6
36
13
-75
38
-1
-60
60
9
-63
-38
-35
-25
-5
-17
-15
2
13
9
22
-24
-39
57
34
-11
11
-29
-43
-9
-40
-16
-3
-36
-32
17
-20
10
-31
-24
-32
-36
3
-64
3
23
-4
-26
-46
-25
36
20
82
-16
-40
2
-13
-2
59
-8
-3
38
-11
48
13
5
26
47
-1
34
46
-39
-4
10
-6
-9
-62
-55
-7
-13
10
-36
37
58
18
-34
62
28
-4
-21
7
-35
21
32
16
21
86
61
15
1
23
5
-21
-38
-6
-14
33
-36
-28
-21
0
-28
22
-24
-36
4
-12
-18
-12
36
31
20
26
31
4
-10
6
-13
16
-27
-8
42
-5
-4
76
49
9
-31
7
-16
-47
-27
-30
27
31
6
-30
-6
-28
-11
19
-16
-38
-10
-39
8
15
-30
15
11
3
36
61
9
-41
7
5
-5
3
65
12
27
35
-34
-32
47
-38
-10
13
-48
-5
13
-11
-6
-50
14
12
-55
65
16
-75
12
0
-2
29
41
-14
75
18
-27
-18
11
31
-83
31
31
-25
-21
30
8
-31
-47
22
4
-48
37
17
-76
15
18
42
-1
7
14
-29
-22
-35
16
6
13
8
40
63
-7
-21
18
-37
-8
-34
-19
28
34
33
47
19
-87
2
65
0
7
83
-76
-7
-1
61
44
17
27
34
-4
-37
-51
8
-16
28
-14
-63
-49
17
14
32
78
41
-7
14
-16
-30
-44
11
-29
-18
-39
-38
-3
20
-32
13
1
-1
-43
6
26
9
11
37
33
-12
12
38
-12
-56
-40
-7
5
-32
-1
51
41
6
-39
6
-22
-14
-56
10
-27
0
48
20
-8
1
-40
-6
-34
-55
-5
-18
-42
-10
-17
-17
-16
-3
0
-16
-10
-34
-31
-27
1
-45
2
19
36
39
-28
-10
23
3
-27
28
-1
-49
7
33
16
21
19
25
20
11
-1
16
-8
-45
-35
-24
-19
-25
-14
36
-6
17
29
14
18
51
-13
-13
-8
9
-15
-34
54
-6
-41
18
-11
-55
-8
41
19
32
39
14
-39
12
-18
11
-30
-16
17
-18
-25
-30
-8
-45
-9
-23
-42
-3
-23
12
52
34
43
0
-12
-20
-3
-9
29
32
35
26
-63
-32
9
28
-46
-33
50
33
10
14
-7
-14
56
14
22
19
16
12
40
6
-13
6
-23
-16
-19
-42
-47
45
30
12
19
18
-5
15
19
-7
-24
10
4
-39
-15
42
-39
-2
61
-15
19
23
12
69
46
-46
-31
-34
-3
-34
22
18
13
2
37
26
68
-6
-9
-23
-15
11
-5
61
36
49
-21
-21
44
-29
4
60
-35
-19
-6
-53
34
57
-26
-5
16
-37
7
15
54
27
-30
45
8
-17
65
19
9
-6
-6
-3
-24
-19
-13
-33
-26
-15
-3
-27
-30
1
-12
-31
16
0
-20
-16
-41
50
-28
-42
-6
-10
-36
5
-23
-13
3
-38
-9
-51
32
30
30
53
26
15
-12
-34
-26
-10
-38
-43
-31
-23
-36
4
-22
-1
8
-15
11
44
41
34
-21
-1
-11
-51
-27
-52
-25
-30
-29
-12
-10
-29
0
1
-18
-6
32
38
-25
40
-3
-29
-37
-28
14
-31
-48
0
-15
-24
-15
-19
-11
-45
-26
-20
21
4
1
25
28
7
22
20
50
-13
-6
-7
-31
-32
-19
20
80
33
-16
36
-25
7
18
-4
-42
-36
-42
35
-7
-14
22
31
43
-18
-20
-20
12
-27
-12
-11
-25
-24
10
39
51
-20
-5
7
-4
-31
-44
-42
-24
-25
-16
-11
5
-18
16
67
-17
20
9
-26
-32
21
-81
12
41
-23
-17
-47
26
26
65
-29
-8
-49
-4
-6
-2
29
51
39
5
17
16
12
37
34
22
-3
14
-41
-43
-17
-34
-25
-55
0
-8
1
-8
0
27
-10
-25
-12
-11
-26
-6
7
-9
-39
-14
-9
31
-35
27
59
-30
18
12
-15
-2
18
-55
-15
-13
-29
15
25
5
-20
-39
-6
-14
-23
-2
-28
1
67
70
64
-13
15
-5
-12
3
-18
-30
-10
-27
-24
10
-10
18
59
48
36
66
-82
76
-6
-73
47
12
41
-41
-26
-47
-8
25
-11
-5
-16
-8
-6
-11
-9
-5
13
-4
19
24
69
56
28
18
29
10
0
-24
-5
-13
36
68
72
11
0
2
-19
-13
-22
40
48
10
6
-5
26
-12
-39
-18
-32
-57
-20
-8
60
-25
-29
-47
-4
11
-1
3
-11
-38
-40
-5
-14
-19
13
6
-13
27
23
43
22
19
-3
3
49
-3
-2
6
27
5
38
5
28
21
15
36
38
34
-27
-27
1
35
45
59
7
-38
-15
11
-18
3
15
36
64
22
19
-10
-29
-38
-42
-44
-31
-12
-9
-3
-10
52
63
0
-13
-5
-5
18
39
31
16
42
-1
-2
-26
-29
-28
-8
-6
-22
-13
-22
23
-25
-18
26
-4
-30
49
16
-58
29
-20
-66
23
10
-30
0
-7
-52
-1
39
-12
36
53
2
-20
6
-16
-81
0
17
-35
20
85
13
-39
-13
-8
-19
-39
-2
1
-9
-52
-1
-16
17
0
-10
-15
-47
11
-20
-42
15
30
21
32
-14
-12
-19
-25
-26
-36
61
48
25
3
-2
-38
-3
43
0
6
25
11
-25
6
-4
-25
-39
-43
9
12
-36
12
12
0
65
30
-21
1
-47
-16
-4
-23
-14
25
-6
-13
-71
-41
11
48
28
-7
32
24
-16
-24
-4
-34
-15
8
-22
-17
-43
-25
-3
30
-4
-16
-2
-12
-42
-41
-51
-8
-20
-17
-15
-20
-43
2
29
-50
-13
-1
-41
-19
-8
-20
-10
-15
-30
84
18
-9
31
-9
-26
-21
-44
33
40
76
44
32
-12
25
-11
-19
-26
41
1
-42
0
54
2
-32
52
39
-23
-38
-11
-13
0
-12
-22
-13
-17
9
-25
-35
12
-22
-10
-22
-37
-31
-8
-4
46
-12
-55
63
-33
-13
44
3
-32
9
10
-47
-23
59
27
32
-31
-14
-57
39
5
-33
3
50
21
-40
-16
24
-32
-34
16
-6
-34
43
0
-24
-50
24
-16
-2
29
-34
-46
26
10
33
-25
-21
-5
-24
-28
-52
-11
25
-20
24
72
3
-6
26
-41
-61
-17
16
-13
13
-32
-20
-9
-17
2
7
18
22
19
25
16
-7
17
-52
3
-17
-12
-30
4
-15
61
48
5
-11
-41
53
0
-31
46
-2
-28
17
-5
-35
66
5
30
-15
-75
-33
-3
-7
-15
41
25
-61
19
27
-53
-40
57
23
-51
17
35
-27
10
14
-44
-25
-48
17
39
5
18
-8
27
-3
-41
-51
44
4
-3
39
-23
-43
-31
-28
-17
-31
-31
0
-4
6
47
14
15
-61
48
17
-31
-68
-57
28
26
29
86
-1
18
-12
-14
-13
-40
58
7
68
5
-19
-46
15
-14
-13
-2
-22
-29
-11
4
-18
27
31
52
-32
-56
-36
18
14
10
5
14
-49
-19
28
29
-3
43
19
-52
-36
-6
-17
-19
-40
-10
23
26
29
29
44
-41
-16
-35
-20
7
8
-12
47
59
-13
-5
8
-1
-33
-64
5
1
-19
37
16
23
13
-2
27
-41
-40
-32
11
3
12
50
14
19
31
8
10
-16
5
-60
-2
80
-33
-52
82
4
-25
-6
-16
-17
-18
-18
1
-17
-19
-8
3
-23
13
8
-2
64
20
40
-38
-3
-36
-35
-12
-22
8
-24
-13
-35
-41
-13
-9
1
5
9
61
23
19
19
22
11
9
27
0
4
41
-26
4
-63
5
1
-10
0
0
-47
-10
-21
-1
92
15
-60
46
-12
-60
13
35
-10
19
40
-4
17
20
6
12
17
26
-6
14
49
-24
32
14
-92
33
-16
-31
69
3
-6
50
-45
9
-12
-25
7
-51
-21
1
-43
5
3
3
11
23
25
28
15
18
22
-25
-33
-30
18
34
46
-16
14
32
72
65
2
8
29
-45
-36
-1
10
4
-42
-31
8
71
-45
68
-29
-9
-10
-31
-52
15
20
-4
25
44
11
-27
21
43
-47
47
77
-29
9
7
13
29
25
-7
39
43
-25
-34
-29
0
9
-37
7
34
-4
8
53
13
29
61
-17
19
-8
-27
34
28
-15
54
37
21
0
-26
9
-46
-32
-1
21
7
18
58
28
9
-7
-14
-7
13
-30
20
22
-21
-26
-10
-66
-16
-63
3
15
-5
28
33
-14
41
18
-36
-9
-76
-46
47
-41
25
32
-47
0
-10
-1
23
27
48
25
13
64
-4
83
35
-13
7
-12
2
-2
-16
-18
-11
-26
-48
18
88
-25
-50
-21
-42
11
-5
-50
-12
6
-27
-12
40
-26
6
-19
-15
-1
-16
39
51
41
-20
-1
39
-38
-7
12
-45
-9
49
-8
32
37
26
8
37
25
16
-35
23
19
-25
16
25
30
-46
-58
-25
79
-1
-49
20
-20
-48
46
21
-26
-24
-53
43
-10
-8
27
-59
14
31
-40
-5
-58
29
-56
-16
31
30
-26
-32
-9
-35
27
46
54
-14
-26
-35
-18
-41
-29
8
-12
-20
74
28
-7
54
31
38
-43
-32
-54
-3
-26
-19
11
5
10
11
37
48
-10
-16
-9
-25
-38
15
-41
-1
19
34
43
46
-12
-34
20
-21
-4
65
23
-66
38
-13
-15
-42
6
6
-53
49
18
-33
-43
32
22
-18
12
22
-30
-75
-30
-7
-7
-44
12
9
15
75
7
23
9
-63
13
-16
-16
-22
-30
-3
-34
-41
-41
-46
-6
34
17
-12
53
-4
-9
25
6
-22
-25
-37
-33
-16
-3
-4
7
30
-24
-42
-49
24
6
-36
7
-17
-15
-16
-30
-34
-11
-24
-9
-20
-29
-38
-2
-35
-19
22
-6
-24
-19
-19
24
-19
-26
90
1
-31
66
13
36
25
16
-17
-26
-34
-23
-37
-20
-14
-39
-7
-1
-19
44
45
68
-6
77
-19
-43
-1
28
-44
-18
19
-28
-26
-22
34
-1
-12
29
37
33
-46
-5
-22
-39
-4
47
-24
-1
42
29
51
-1
3
43
7
-11
18
-8
-35
-1
-44
-26
-10
1
-28
16
-19
-31
-20
25
2
-17
-2
-13
-39
-20
-12
-23
-30
-9
-29
-6
-17
6
-15
-39
-36
-5
22
53
23
-25
-114
7
17
6
10
25
23
17
50
12
1
-39
-44
10
-12
-4
18
-37
23
24
0
-25
-17
-12
-36
-31
-7
9
-5
3
12
35
-27
-27
-21
-30
-12
-59
-35
-17
-29
-6
32
90
7
32
3
46
52
54
-23
-23
-15
-30
-12
-6
2
-37
-56
24
11
11
74
15
0
-28
-38
-39
19
23
12
-22
-36
-37
-1
20
-13
11
11
29
27
41
30
7
6
4
-2
12
5
34
47
56
-6
-11
-11
-13
-1
-17
-25
-7
-44
9
35
21
11
11
31
3
-4
25
-11
-12
-52
35
-14
-7
36
26
55
-42
-28
66
-60
-18
28
-2
-16
-14
-20
-24
-51
-10
-2
-27
36
29
57
-6
-1
9
28
12
17
17
18
40
8
11
39
-11
-5
22
-64
-41
-2
-41
-31
-12
11
8
-16
53
27
35
-24
-5
-31
50
38
35
33
22
8
5
-1
0
-11
-31
-22
-15
-10
-38
-44
-36
47
-28
-3
65
-1
-26
30
21
-13
-48
19
17
-37
-10
-11
-40
11
7
-45
28
6
-41
60
-7
-46
-61
-37
33
-36
24
57
-24
15
45
-37
-21
17
-10
14
53
-24
11
22
-4
85
34
-28
-19
-45
-38
-3
-9
8
-14
-9
17
20
23
5
38
45
16
21
1
11
17
9
-45
-73
-12
-15
-17
-42
17
9
-1
5
20
46
-46
-5
32
-1
46
61
-16
-35
18
29
29
34
17
-8
29
-4
-30
-48
-38
72
-3
4
44
12
12
43
31
-12
-48
-34
-4
19
12
-42
-13
-29
-7
-2
22
-18
-2
32
-2
61
52
-25
-27
4
-17
41
1
22
40
28
14
15
-40
-16
-2
-42
2
-19
-54
4
47
85
-7
27
66
16
29
-16
-1
-46
-20
3
-2
16
51
34
52
-5
-58
-18
1
-53
7
36
-22
0
-8
-20
-60
-74
-4
51
-26
9
48
-20
-4
2
-30
-11
16
-36
-28
-37
40
30
44
13
9
11
-35
20
14
-26
40
38
-46
48
49
-75
10
-4
-1
7
18
35
27
51
-28
18
9
44
62
34
18
17
-10
-3
-26
-23
1
9
-3
-22
-2
-5
-32
-33
-36
-2
19
68
3
24
37
2
4
-4
-18
-24
-42
38
0
-30
35
31
30
5
26
-6
40
6
-23
-10
-10
-67
8
-20
-13
-6
-17
7
-39
-14
-39
-13
-14
-38
-17
-16
-1
4
-22
-31
-9
-11
-63
56
25
36
-15
-33
-26
-10
-12
-55
-15
96
0
1
64
-55
-23
-16
-34
-20
-7
-6
22
46
47
-12
-22
-12
-20
-7
36
-64
57
30
-41
-33
-12
-7
-9
4
54
43
15
-19
-11
65
-59
-6
5
-31
-36
31
11
2
21
36
14
38
-4
-10
-16
23
-5
18
15
18
11
39
29
37
46
36
27
-37
-1
1
-37
-13
-69
25
41
54
4
-6
4
-12
-1
0
-46
-41
-30
-25
-9
13
2
22
24
27
33
35
13
19
-5
1
18
-7
-11
-24
-27
-7
10
-38
-32
-10
-5
32
27
4
58
34
-22
-38
-31
-20
26
47
17
4
27
-4
-37
-30
-30
12
64
7
-10
26
35
-3
4
-15
-14
-48
-52
27
44
24
52
-8
10
14
36
54
-25
-12
45
-29
-2
9
-16
-10
-7
-16
-22
-25
-19
-21
-13
-46
-29
-5
-25
-3
-4
-20
2
-17
-9
5
5
-44
-28
-7
-3
-31
-30
-7
2
-3
-40
-13
-38
-5
-17
-7
2
-3
-8
2
-16
-11
-45
-34
-20
-17
-37
-27
-19
-2
4
25
27
42
24
68
19
7
19
-18
-3
-6
-10
-54
-11
4
5
27
-12
92
22
-8
-15
32
75
11
38
7
30
11
-23
2
4
33
-32
-21
-26
51
29
49
1
53
7
7
28
-1
1
47
17
-71
2
65
30
-18
43
32
-37
25
5
20
16
-52
-50
-70
-22
-12
1
14
-9
-53
4
-51
-10
24
-63
26
18
22
4
54
19
-4
4
7
1
27
33
-49
33
34
-70
23
21
-62
1
-50
-15
3
-20
-9
9
-54
-20
7
10
13
-19
1
-4
-64
-32
-17
2
-6
4
27
18
42
-59
-18
-44
2
11
1
3
25
-2
32
33
28
-23
-6
-36
-26
-15
-11
0
5
-19
14
-25
-39
2
-22
-23
-24
1
-23
27
62
12
4
26
18
14
15
7
-28
-22
-14
-46
-10
-28
16
23
-18
20
40
59
-15
8
-22
-47
0
-32
-60
-10
-53
-4
-14
6
51
30
7
-38
-64
101
26
11
-9
96
-14
-30
-36
-11
-16
-3
-4
20
-21
-32
-30
3
-25
-51
12
-31
-21
18
1
-35
-28
0
-9
-24
-57
-33
30
25
21
-49
-52
9
-8
-29
-13
10
-6
-11
-17
-36
-7
-55
-6
29
-16
37
76
-32
-41
-41
14
-1
16
18
21
14
-29
-8
-16
-6
-45
13
-63
-10
24
-6
11
21
22
41
20
-28
-1
34
8
-57
-30
-15
3
-14
3
57
21
-26
-15
-2
-11
6
3
-27
-35
-23
-17
-34
12
65
47
25
7
-9
-23
8
25
5
-9
34
18
47
8
42
7
20
32
14
22
22
29
20
29
18
6
-28
16
20
-10
51
40
2
-54
23
34
-86
-18
27
-19
9
20
50
30
-3
54
31
23
-53
-30
17
26
33
11
10
33
8
-10
-14
2
-18
-39
-30
-8
-35
-16
31
-5
3
-47
-26
-57
-18
8
-16
27
-3
22
-21
3
-13
5
0
6
-36
-25
-55
20
38
-34
38
-2
-21
47
17
-6
-65
-26
-22
18
25
-2
6
-14
-32
-28
-30
8
-32
-10
-23
36
-4
-43
2
-23
-9
14
35
27
33
23
27
3
1
19
-21
2
-17
-47
-64
4
-8
-32
19
-37
-27
-46
40
15
63
17
-1
-45
34
23
-28
20
2
-19
-25
-31
-25
6
9
18
19
46
34
-37
25
-9
5
-60
54
-28
-31
46
-36
-30
-42
-5
14
3
-26
-6
-34
-30
-43
-23
0
-6
-3
-2
-25
1
-9
28
32
10
27
32
10
-69
-61
5
-55
7
-30
-72
34
45
-27
11
-13
1
-57
-21
-51
-9
-7
-8
-14
-35
-19
-65
-29
-1
-2
3
6
13
9
-2
7
-11
-30
-25
-23
-11
-28
-31
-7
-27
9
9
-4
-22
-24
-73
9
30
35
-55
8
-6
-60
4
-58
-11
-8
-29
15
24
17
32
50
37
35
79
7
-22
-14
-68
-32
23
22
0
-13
-47
34
3
-26
60
14
-1
-28
-63
-30
-22
34
-4
65
17
-56
-21
0
2
15
85
17
26
2
9
-15
-9
-10
11
47
-1
40
28
-5
16
-8
27
66
22
-14
19
-6
-3
-14
-41
-17
29
-7
5
-43
-39
-11
8
11
50
-57
42
-21
-11
45
61
-23
-5
-48
18
-31
-14
-3
-31
-24
-19
12
38
-3
22
30
-15
13
18
-12
-45
-28
-23
42
62
-7
-28
-67
-5
-1
-52
-1
10
-44
48
23
-65
-2
6
49
6
6
50
-5
15
37
14
8
-12
17
-4
-62
38
29
-4
-26
-22
-17
1
-10
16
-38
-26
9
27
-1
42
10
4
11
20
18
38
-21
9
16
41
63
73
-25
0
17
-40
0
46
-19
-12
-1
-26
-46
-27
-1
9
7
11
-6
-9
-36
-58
-8
-39
-47
-6
5
12
3
47
40
26
28
3
-5
74
30
11
-45
17
12
-61
-6
-16
1
44
-61
-6
55
-42
-53
2
-23
-25
12
-11
-7
51
83
-5
-17
-24
-35
-2
-7
-31
-1
-8
-39
-31
-33
8
-1
15
-1
21
41
43
-18
-36
13
-23
-50
-30
-28
2
52
20
-34
11
-8
-44
-6
-36
-27
53
23
28
-5
-21
28
-26
-19
-39
14
21
5
19
35
10
4
30
-8
8
42
18
-2
44
23
-6
39
17
18
79
7
-18
34
-23
-9
18
-3
49
35
-15
56
-22
-20
21
1
-22
-32
-38
-19
2
-39
2
31
31
38
-36
-46
-27
15
4
-5
49
58
40
39
6
19
34
9
12
25
12
-8
-17
13
-52
-1
64
-21
-1
64
38
61
17
6
22
-58
-81
38
-33
-8
5
12
-12
5
18
-2
30
47
32
-56
-30
-23
-6
-1
23
26
39
0
-35
13
6
-30
33
33
-36
29
37
-21
-18
-28
-10
-2
-18
30
67
14
24
3
-21
15
-44
-44
15
-28
-34
-57
20
50
-44
15
-84
30
-26
-1
14
54
34
45
15
-18
1
-15
-32
-11
-11
-10
-24
3
-15
-40
-7
-31
-4
38
-7
19
78
8
-2
48
-21
-23
-19
-30
-3
-2
-13
-11
-20
-28
-2
1
-17
37
40
34
-8
35
26
14
25
11
34
22
10
23
10
-16
10
40
58
-20
-14
-1
26
3
32
29
-34
-14
39
-25
-30
39
17
-55
-22
-2
-21
-34
-11
-14
-25
-15
-10
-14
-46
-32
-4
-1
-18
-12
8
-1
2
-42
6
-24
-47
12
-25
-18
-9
-16
0
-8
-23
-19
-35
55
39
31
12
-30
-23
-14
-57
-19
9
19
-17
38
27
-7
22
40
49
-14
21
-10
-42
34
54
-27
6
40
-35
12
-6
67
27
-29
32
22
18
-31
-29
-40
-12
-17
-22
12
-10
-1
-27
-32
-19
-49
9
9
-62
-34
19
14
47
55
28
76
22
7
1
7
-20
-24
-16
-6
-1
20
19
53
-11
17
21
13
20
3
12
-15
-21
-36
-29
-35
-13
48
19
-27
60
-26
-8
68
-50
20
-32
3
15
-47
-19
50
-40
19
33
-25
-26
18
49
0
75
10
-35
-33
-41
-34
-19
39
18
34
-24
-76
25
-26
-19
-43
11
-7
-16
-23
-7
-39
11
3
-8
-7
-32
-18
-26
-23
-41
-34
-57
-34
29
54
-3
33
13
-11
-25
-24
22
-40
-9
10
-39
-4
53
12
46
38
23
3
-27
-19
16
-21
-2
-25
32
5
-46
29
-16
-51
-24
-2
-22
-9
-25
-11
-24
-16
-21
-7
-5
1
17
14
21
46
26
16
27
-27
3
-49
-24
37
2
39
65
24
19
40
6
12
-12
21
5
19
8
17
-21
-4
-19
-46
-30
-21
0
18
-14
58
-45
-15
70
5
-76
20
-26
-25
30
-4
-85
37
33
-54
-8
-3
53
45
6
2
12
-24
-11
-11
-16
53
10
4
48
13
32
16
9
2
10
2
3
47
14
25
13
26
-10
41
24
14
19
9
-3
42
17
17
-22
-30
14
-14
-25
3
-30
-24
5
-13
-17
-20
1
-17
2
-16
-25
-31
-1
-27
-38
-18
13
-17
0
-26
-44
29
25
20
-4
-6
-32
-46
-47
-53
-64
-44
-7
-7
33
53
21
40
6
46
6
-42
60
-31
-28
24
-43
4
50
49
56
-2
-7
-40
-21
-3
11
-7
-47
-8
-11
-24
-31
3
7
-9
-36
-6
-28
-27
-15
-33
-11
-22
4
-17
-20
-31
-3
-30
-15
51
26
6
-30
-20
-39
21
-21
-17
17
-37
-20
-37
-18
-28
-21
23
13
53
49
16
13
49
29
-29
-29
-21
-49
-4
-5
11
-24
-53
4
-25
-3
8
-58
-6
-9
-41
-67
23
13
14
24
46
-1
