192
1.0252514
-0.7470736
-0.64762133
-0.81848705
-0.60265607
-0.409895
-0.6717987
-0.040708646
-0.6684234
0.0050302185
0.62350357
-0.41834936
-0.6177734
0.2325078
-0.63977945
-0.5276002
0.5247177
-0.77808934
-0.1708421
-0.013354212
-0.17774318
-0.62305254
-0.75898004
0.36076042
-0.8716276
0.82373667
0.3558711
-0.91141915
0.45775306
0.9288681
0.8575147
0.99607635
0.7839807
0.5536999
0.8095631
0.45912924
-0.752505
0.43477777
-0.074175194
-0.6735482
-0.51456356
1.1447202
0.7760721
-0.90543944
-0.67801225
-0.6921208
-0.40543014
-0.7980052
-0.3908394
-0.6029587
0.765217
-0.75613004
-0.47021446
0.7685123
0.08348081
-0.830245
1.2314249
0.60343885
0.70275223
0.72847074
0.40683496
0.87309724
0.42784065
0.6859618
-0.81535274
-0.13299544
1.0226951
-0.8570395
0.03787213
0.88701886
1.0020627
-0.8138034
0.5487645
1.0462462
1.0372343
-0.5831151
-0.7007959
0.824738
0.0645925
-0.7254825
0.358503
0.79343003
-0.89140666
0.6128755
0.56850797
-0.4167815
-0.8028052
-0.32187378
0.15280573
-0.0007576421
-0.7048723
0.5685688
-0.75655764
0.8164479
0.92442113
0.77622014
0.50408095
0.8435983
0.84364116
-0.8341001
-0.8986609
-0.4546224
-0.8294616
-0.93513495
0.9620882
-0.6669569
0.55800456
-0.7515386
0.4919485
0.9358489
-0.75147986
0.9197401
-0.8217166
-0.9036578
-0.14399627
0.7932437
-0.8781616
0.7981
-0.9934946
0.7725754
-0.33505338
-0.62003946
-0.7710839
-0.30007416
-0.3737442
-0.36149305
-0.8156868
0.8734619
0.6481678
-0.2552734
-0.7042175
-0.34545696
-0.7141934
0.6448721
-0.83469176
-0.6172718
-0.13526966
-0.78385913
-0.94902116
-0.83626556
1.1188272
-0.6998561
0.7358219
-0.6735482
-0.29437506
-0.27350584
-0.93711305
0.5763214
0.06280625
-0.81414217
0.3293047
-0.6815284
1.1066152
0.57122535
-0.8125162
1.0114026
0.8387891
0.72848314
0.89171284
0.9182151
-0.66675735
-0.9094206
-0.6448368
-0.2942883
-0.037757747
-0.61446804
0.82492614
-0.7263935
-0.48962224
-0.66153324
-0.67647964
-0.5628939
0.79336035
0.70782536
-0.065954044
-0.0066525466
-0.8593459
0.9571082
0.94126225
-0.741796
-0.056250583
-0.67050004
0.22641975
0.9599673
0.56391776
0.17805608
-0.7486837
0.8706265
-0.6838136
-0.7829134
-0.0924729
0.9543855
