384 1 3 3
79
32
-15
-30
-25
-47
-1
10
-38
-2
-2
37
-15
-13
-26
-31
-22
-35
41
26
19
20
-17
10
26
28
27
18
4
27
-9
-3
-9
-32
-47
-33
66
-87
5
13
51
85
-37
-36
-6
-64
-44
-29
5
36
-55
29
39
20
-15
-32
11
-34
-35
18
-18
-14
17
12
21
21
10
35
50
10
13
-3
-34
8
31
11
29
19
-13
-1
85
24
13
41
23
11
12
16
13
1
-49
-27
-34
4
-54
-10
48
16
57
31
18
19
-25
-48
-33
6
90
52
-44
-52
17
-44
2
31
-27
-39
6
-15
-39
-18
-8
-38
-26
2
-28
-23
-18
-24
-24
34
42
65
2
35
-11
-4
-27
6
-64
-37
-6
-1
0
19
13
-21
-56
12
-26
1
41
-47
-22
24
4
0
21
3
30
17
26
30
11
20
40
-6
64
4
-48
-60
-18
7
-33
38
-76
34
-63
-13
-23
33
-20
-7
-20
2
-24
17
69
14
60
32
-39
-26
-7
4
-11
57
57
-93
-55
-23
-63
-17
37
9
-69
21
37
28
25
40
16
-6
6
-2
7
11
34
12
-31
19
38
-47
38
-21
-36
55
-7
-14
38
-21
-54
22
-39
-30
-42
-28
-62
10
99
25
-28
1
-2
3
19
102
-39
-8
14
-68
4
2
-43
-62
-53
-33
-3
10
20
12
-4
-37
-43
-38
-28
55
13
-55
-17
25
-33
14
-3
-37
-26
4
-59
-24
3
-8
-25
-12
-24
4
-20
-3
65
55
20
38
53
-19
20
24
-15
-15
7
-38
5
2
-31
3
-37
-39
-8
-28
30
-12
25
92
6
7
37
-34
-23
7
41
45
-16
15
3
-25
-60
-63
-20
-33
-58
55
17
-55
47
30
-11
-19
-63
-24
-6
60
38
-27
-47
-36
-36
-34
-10
16
-13
1
72
37
7
-8
-96
26
15
-32
-33
-19
7
40
10
41
34
7
-115
-11
12
-12
19
-17
60
-31
23
22
21
-32
-35
-80
53
-23
-47
12
-12
-17
36
-31
-51
-97
-70
35
5
-1
19
34
14
-5
53
50
35
16
0
14
-12
-4
-8
-15
-31
-31
-17
7
-12
51
46
101
-15
-30
-5
21
6
-2
-19
-38
-36
3
4
15
-6
-2
-4
45
69
79
45
32
32
37
23
-5
11
35
-5
14
15
-11
-18
-24
-46
17
-10
-38
13
-1
-17
29
-13
-15
88
2
-30
4
13
23
-24
-32
-44
2
-20
-21
-42
-26
-3
-27
4
52
-26
14
51
-28
-18
-48
26
36
-16
22
28
76
-22
-37
-2
-16
-11
6
-16
-46
-1
38
1
-56
24
-1
3
45
-12
-49
17
29
9
-13
44
30
-41
-67
-54
-17
-14
-88
44
16
12
-23
16
44
10
26
-22
78
35
17
-23
2
-1
-49
28
45
-35
11
15
0
0
-112
-13
-3
-16
-53
-33
-75
14
8
36
-13
21
61
-60
-16
19
-45
3
10
4
-30
-38
6
-20
-19
96
6
36
-13
3
-29
14
-4
-16
37
76
8
22
2
1
33
-18
15
24
47
45
-43
24
4
11
71
-73
-25
-26
-15
-11
29
45
-39
-35
-70
-38
26
-2
25
-35
-14
-18
-28
16
39
68
53
-37
5
-29
-24
-2
4
-33
5
-13
-2
-15
19
22
55
-7
-38
-54
-47
-12
-3
-23
-9
9
-35
30
19
107
-32
-37
8
-40
-9
62
-16
-27
10
-44
-49
11
-34
-21
5
-27
23
31
4
46
-4
-6
58
25
-21
18
-1
-9
-26
-66
-35
-3
6
-5
4
51
47
37
26
-28
-2
-3
14
2
36
-51
-31
-9
34
33
33
-44
10
-63
-19
-24
15
-19
-14
29
-44
-26
32
-33
-65
-1
-37
4
21
7
-7
48
6
0
17
-28
-35
-61
-30
-30
-21
2
-8
0
28
-1
-9
58
28
36
65
97
23
-60
-112
-19
2
34
3
-1
0
-9
21
21
51
22
29
5
6
-62
-6
-22
-28
-11
46
29
-13
-14
16
-30
-29
42
-17
-42
54
-34
-2
-25
-58
-19
22
-6
4
55
-60
-20
-46
-36
-7
16
-3
-8
85
44
54
-6
-67
46
5
-10
-47
-7
96
9
34
12
-10
35
9
-22
40
21
79
15
-7
46
20
8
24
11
-20
-40
37
-61
-18
71
-4
-35
46
8
-29
-3
-3
-22
-6
50
27
14
40
-27
-68
14
21
15
52
11
26
22
-14
2
-21
-11
8
14
57
34
35
11
22
-50
-64
1
-33
-4
-22
-49
-5
-15
-70
-28
23
58
-1
20
42
21
37
13
-18
3
-51
-47
-30
-26
-36
-64
4
11
-22
38
29
-16
33
-34
-32
-56
19
14
14
12
82
48
93
10
-4
6
-5
-17
-25
-7
-22
2
3
-38
-11
6
-11
-2
71
68
-22
-29
-2
-37
-28
0
-30
0
27
-33
54
9
-45
18
-2
-43
13
-7
-42
-8
33
-6
11
44
-7
29
31
-15
23
-55
-6
38
-8
-61
6
-48
-28
-1
-7
28
36
-21
36
44
18
35
46
32
16
31
4
4
3
10
-3
-23
-9
-22
-12
-23
6
-43
-8
-7
53
-19
-68
-41
-58
7
8
27
-35
-26
-10
-40
-37
33
7
7
49
9
0
15
24
7
67
42
-2
-4
19
-9
23
22
70
18
-55
-45
-63
51
65
18
34
-15
-48
-9
-13
-2
-2
-2
-14
-19
-34
-8
-42
-35
-4
33
41
25
-14
-8
-3
-30
-31
-31
21
16
17
3
13
24
20
33
44
19
-42
-21
66
-58
-27
61
-7
31
1
21
-5
-26
-29
-35
-16
-42
-12
-2
-20
-16
-24
-2
-28
-48
-24
-11
45
37
-37
37
45
-60
17
-35
-32
0
17
28
39
-9
-2
57
25
-14
27
7
-84
-5
2
-34
23
10
-14
10
16
-36
26
42
56
8
-11
16
13
-36
2
-2
8
-23
-38
-23
-50
-28
-22
-55
-14
41
75
4
22
26
-34
-58
18
9
-16
-20
63
13
-65
-32
-52
-25
23
1
-73
66
37
8
33
36
56
15
-36
-1
3
-5
9
-2
-24
-24
-17
-21
12
-12
-31
-52
-69
-20
0
-35
17
56
-25
-3
-2
-71
71
-16
-48
55
56
-28
-38
-27
-10
-3
-6
-18
-38
-15
-1
-19
-22
-20
-31
-8
-25
8
-31
-10
4
-31
-27
110
30
-17
51
-38
-21
-20
20
-18
-41
-58
45
56
32
21
15
2
19
-16
-28
65
-77
6
-100
-43
115
10
42
17
-33
-21
-23
-43
-34
-32
47
-31
-45
18
-3
-39
25
33
21
-35
9
-57
15
4
-26
17
-30
119
49
78
103
-8
-39
5
45
-70
11
32
-2
-5
-34
-8
-23
-39
-43
-21
17
-8
47
-35
-40
-2
-32
-49
-35
7
-9
1
27
44
42
10
-2
21
5
10
-21
17
50
1
65
35
17
-22
-26
-1
-8
-21
-32
63
-4
31
1
-25
-45
0
-48
-25
-30
-27
-26
4
-23
-5
38
-10
-73
2
55
11
39
60
26
-30
-25
-2
-16
-31
-46
11
0
31
-45
-43
-29
-13
6
-26
40
23
44
-19
-33
-64
-52
17
16
-10
-17
29
-20
97
6
33
-11
-30
32
-15
-41
-23
11
41
-29
46
59
18
3
11
-53
-56
-3
-7
-6
-9
-28
-26
-34
-37
-15
-35
84
-35
42
12
4
64
-11
7
49
-37
-6
7
-20
42
-53
-29
54
-16
-10
50
22
42
30
45
-16
-1
12
-34
-28
-71
-2
49
33
-27
11
42
-39
17
-9
-24
-44
7
-16
-59
12
27
-13
32
24
44
66
14
13
39
19
-4
-14
-50
-36
-11
2
-24
-24
-7
29
12
53
47
62
-29
-15
-8
-14
8
12
61
36
55
36
19
-41
-7
-19
5
71
11
5
84
-4
-27
-34
-23
-54
41
-7
11
36
17
26
10
-13
9
-46
1
-31
-19
26
-14
-13
-24
-35
-19
-5
-35
-6
-19
6
-59
-17
-29
27
35
25
25
-71
23
-37
-41
19
32
20
-49
49
8
27
-40
-34
-9
-34
13
-69
-45
32
31
43
60
-71
11
11
25
46
36
25
-21
-12
-40
43
-5
8
19
21
16
3
11
11
-21
-28
18
-51
-21
-28
-6
0
3
-1
38
8
32
28
40
-11
16
14
45
-42
-73
1
6
14
3
-23
-24
-77
-15
90
-23
-7
18
-23
-8
26
-3
-62
-31
54
-23
29
39
-64
32
-75
1
13
-44
-10
17
-1
8
-15
11
5
-43
25
8
-60
37
24
-41
43
37
-4
-12
13
-40
1
-50
-32
7
-33
-50
-30
-23
20
-89
53
42
-13
-10
-37
-9
-35
4
-6
-22
-17
1
13
64
-41
-12
33
-20
-16
94
-3
-23
46
-38
-10
86
-37
-27
3
-19
-4
-32
51
60
-41
19
-8
-81
-63
16
27
-51
-47
15
46
-28
-32
-17
-1
-42
6
-2
-45
-18
-19
-18
58
40
-9
-6
60
-17
-14
22
-36
15
-29
-2
16
1
71
12
13
22
73
38
-21
-4
34
-9
-27
-4
-30
-29
45
-5
-27
-2
-60
-41
7
-25
-36
-53
-12
-61
14
42
45
51
19
26
-19
30
-2
40
48
-38
-53
12
10
-4
29
-11
6
-2
-10
66
53
-29
-3
-3
-22
66
-52
-18
108
-16
20
30
9
35
-32
48
71
-46
-48
46
20
29
53
-27
-61
47
-34
-34
33
33
21
-3
26
10
-31
-44
-54
10
3
-9
-22
-33
-17
-12
-33
-5
3
44
-31
-27
13
-33
-43
33
-11
-46
-34
-21
-22
-22
23
19
-4
33
-10
-59
51
-7
-27
22
-69
-8
30
6
9
-33
31
1
-34
57
22
-72
-21
8
-22
13
80
-6
-13
13
-83
52
-9
-17
53
-1
-42
66
3
-21
-54
-39
-32
13
53
-15
13
23
-38
-18
44
32
-61
11
29
-17
-44
4
6
4
42
28
54
37
45
-58
-31
-53
-22
58
113
-12
-74
-108
74
48
-61
15
-11
-5
126
-15
-31
7
-80
9
27
-10
2
41
10
8
15
16
-28
-40
-27
-3
21
38
-49
-40
9
-41
57
-9
28
30
1
-65
-23
-2
34
57
-33
19
59
-8
-9
6
-49
-48
-12
21
1
14
63
-58
-30
54
-39
-23
-32
56
92
27
5
-65
-31
9
-12
-90
26
42
-30
-7
32
-67
40
32
23
-47
-44
-31
37
0
-41
-17
-4
-48
-33
-12
-14
-4
-12
31
-34
-12
-26
-27
-33
-19
-4
51
44
-24
-29
-26
43
-13
-48
50
5
-51
24
6
50
2
10
46
21
15
16
-45
-25
27
-32
-54
23
23
-15
12
-7
5
-15
-21
-30
-30
-17
-22
-8
52
48
34
-19
-36
-27
-16
-30
-21
-7
-30
-34
-38
-44
-14
30
12
24
32
31
-36
-54
-34
-18
56
30
35
25
0
-6
-49
-43
-27
-15
-22
12
-28
-3
19
-13
-48
65
-8
-55
70
40
48
57
-41
-12
30
-9
-42
-10
8
2
4
-42
-29
-41
-18
-26
-7
7
-26
-4
-1
10
-85
21
17
-21
-8
-13
-21
21
-5
-41
43
70
0
-41
-42
-32
13
36
45
34
42
37
-19
-35
0
-38
24
9
-36
-17
-30
23
19
10
3
-2
-4
41
44
25
-34
-13
36
-34
-75
-22
43
27
46
68
-55
-26
26
-18
-52
-63
-7
33
36
-45
-35
0
26
-55
-20
22
-48
-18
-42
16
-40
7
28
-34
-20
4
-20
-27
12
-11
-24
-4
-20
-39
-2
-11
37
7
-24
35
26
-5
40
23
-10
48
23
-32
-26
60
-36
-29
-7
-30
64
7
43
-4
-2
-20
-20
-67
-26
32
15
-19
-43
27
-34
-56
59
5
48
27
6
14
13
6
-7
-7
95
76
51
-40
-33
-63
-50
-43
38
76
14
14
38
22
-69
-29
-12
-28
7
22
22
32
6
2
10
28
16
-35
-11
-49
19
-5
-25
12
23
21
-56
-4
-26
1
-9
14
70
8
47
-16
8
-39
38
-24
-3
-1
-78
-12
-9
8
-26
-73
88
6
-63
53
-20
10
30
32
8
26
42
31
-11
21
-18
21
60
22
48
40
19
-10
-16
16
10
-16
-14
-31
-26
-3
-29
-22
21
17
7
-1
36
13
25
31
5
62
23
-36
5
7
3
41
29
10
-21
22
49
-30
21
42
-20
11
25
-26
59
11
25
47
16
20
-32
-31
72
5
-16
38
18
-32
18
12
-18
5
64
46
-41
-31
-41
-14
-4
0
3
13
-38
4
52
-48
13
38
-47
30
2
6
25
50
9
5
32
0
-42
16
-3
-16
38
9
-45
22
13
-47
-38
-14
54
73
26
-50
-26
-28
27
67
42
17
-4
-13
23
-42
-36
-22
-11
-18
7
-26
-13
-19
-19
-42
1
-24
34
-3
47
10
-26
22
48
54
-77
-41
9
1
-19
94
19
-39
25
-16
-58
-71
16
23
41
-14
-56
31
7
-14
21
28
28
18
8
9
-10
23
11
-23
29
95
-34
-1
-13
-14
8
-17
-17
-37
27
-7
-87
23
-29
-4
54
-60
-38
-37
52
53
52
4
-28
17
-4
-22
-20
22
-60
-33
23
-23
-20
32
14
7
39
34
45
-41
-5
1
8
-16
13
99
2
-27
90
-17
-4
34
-50
-25
45
34
-5
15
-40
-53
-22
44
68
2
10
-21
-49
27
40
26
25
-6
-17
-25
-73
-27
-16
-68
0
22
13
18
34
41
31
13
26
-26
-66
-7
-20
-27
4
-2
68
-26
-24
49
-35
-30
8
8
-5
37
24
-33
29
26
-58
43
64
-14
53
-3
-11
12
-5
-59
-33
-34
-30
-45
43
-8
36
-6
-28
120
-87
43
1
15
25
-8
16
19
9
4
-16
-26
-22
76
30
26
-6
-12
-32
32
33
14
3
70
13
81
-6
-9
30
-8
-5
36
-28
-24
76
-3
-34
15
-20
11
74
12
-41
63
14
-16
26
22
21
-2
1
46
-29
-47
-61
-38
-98
-20
-21
71
35
49
51
-62
-7
-1
-2
24
46
1
44
11
9
-35
-15
-31
-18
-16
0
-30
-12
9
-4
24
45
27
-2
35
-6
0
27
18
27
-33
2
-5
-50
-7
-19
-41
24
-17
-39
42
-9
-16
52
-6
1
10
-33
0
13
-20
-37
15
-46
-47
16
-27
-6
90
48
-53
3
-32
-45
-36
-22
-40
4
26
-20
47
48
-26
-17
39
-4
5
50
58
-11
-10
0
8
35
6
30
40
21
11
25
4
80
66
17
-19
-20
-19
-34
-86
4
-14
23
-41
-1
2
-50
56
61
18
-25
-35
-26
-24
-20
8
-20
4
3
1
-56
-16
27
-21
14
39
31
36
-2
63
46
-11
20
27
-31
12
-13
26
-17
-56
4
-8
-32
20
-32
-32
-13
18
88
-41
-10
17
-41
2
30
-13
5
-66
-44
12
-40
27
19
4
9
0
7
-4
15
-2
34
38
28
29
-22
-29
3
-33
-9
-38
-27
-30
36
1
8
18
-56
-48
-57
-3
-20
10
37
-23
19
34
-37
22
13
8
65
-55
-75
-25
79
21
-35
-4
-5
-40
-52
-14
10
5
34
-33
-34
-17
-18
-19
-18
-15
1
-29
-5
-19
-9
43
0
29
-37
-69
-4
50
-35
8
-28
-17
-16
-37
-25
-27
9
24
18
35
30
-5
-16
-40
-21
-38
-14
-9
12
16
6
4
15
19
16
25
31
24
32
28
-5
35
-7
-21
36
6
-23
-42
-40
-3
-8
-26
-18
-2
16
0
-24
-10
73
-21
-48
36
37
-16
-29
-16
-4
-25
-22
-32
20
1
-19
-54
-30
-18
-18
-4
-10
23
32
62
10
32
-6
53
0
6
70
-10
14
6
77
-17
-35
38
3
-36
34
0
-8
26
70
-24
-37
-43
-27
-19
-13
-72
-29
-5
-10
-14
-36
4
18
12
23
-3
-53
21
-5
-29
35
1
-51
-42
-51
6
-45
43
64
47
-33
10
7
9
-50
2
28
-27
26
-30
-40
22
11
9
17
27
24
-4
-2
8
-35
22
91
0
49
17
36
-7
-39
-32
-48
12
-13
-32
-16
10
10
6
-7
-19
68
-23
-64
17
-31
6
-4
-37
-81
-28
4
19
3
-38
-3
31
-52
1
-4
-14
-44
-64
12
47
-1
-7
10
-20
-43
1
-8
-22
-7
-21
7
-28
12
20
-53
36
3
-42
17
61
41
44
-10
-25
-31
-26
2
-2
-9
-81
-3
-3
-3
27
10
-78
-18
-22
66
-2
-14
52
29
-21
40
-9
-41
-21
-47
15
61
53
-19
35
-10
48
32
9
33
48
17
11
6
25
-20
-63
-42
-4
29
-33
51
53
18
32
47
19
8
18
3
4
5
20
-7
-5
-10
-12
-24
-19
-6
-32
-18
-73
16
31
-25
-15
2
-41
-35
32
-12
-30
-34
87
13
-17
1
-4
-34
-16
18
31
-20
22
31
-18
15
46
-10
-12
-11
34
18
36
17
-20
63
-66
-30
32
-35
32
31
-44
30
13
-1
-32
-16
-15
-17
-4
40
39
49
5
43
-12
-6
41
-1
-5
43
4
-23
-34
34
-11
40
39
25
-14
36
-60
-15
7
59
-9
13
18
31
14
53
-9
38
-35
11
2
-79
0
-61
-15
-39
-30
17
-44
-31
54
9
-3
-13
-49
-6
43
-2
0
-17
-37
-68
-9
-50
-60
35
19
-45
8
-1
-5
5
43
-13
-7
68
-73
-27
6
-47
1
72
-19
-1
-6
18
-28
-60
69
2
1
-13
-63
63
-29
-51
7
1
-40
-58
-69
87
46
-8
0
8
18
0
-40
21
23
-13
-17
-55
-23
-33
4
36
72
4
18
58
-7
-71
-41
-35
-16
-35
-18
-32
-8
29
33
22
-18
3
11
11
23
9
19
38
17
-8
22
-46
-49
37
-7
-17
-34
-45
60
52
-5
19
-22
18
-4
26
-8
-6
-19
-32
-16
-22
2
-19
-3
-10
64
26
-29
56
-8
-15
37
-22
-24
-11
-16
1
-9
9
46
-3
37
65
21
-12
-20
-6
-2
-50
19
-39
-35
35
-30
-61
-1
-25
-30
23
-18
-38
17
40
-7
-22
51
7
-15
39
6
36
-12
34
-8
-64
-15
4
-60
-2
-10
39
37
-10
20
47
-42
-39
-6
-58
-44
-43
30
59
7
-12
0
-7
-25
28
8
-14
-56
-68
-4
-22
33
