144
-0.45195872
0.968656
0.7246308
0.82670367
-0.78659344
0.14239256
0.24909374
-0.087930724
-0.12444268
-0.10435369
0.8405017
0.2367777
0.105103716
-0.846516
1.3035043
-0.08114849
-0.043745197
-0.6241505
0.5975696
-0.7029054
0.074034765
0.0055595227
-0.07358731
0.7067083
0.6027484
0.5669232
-0.1040616
-0.11654278
-0.73193896
0.019426908
-0.17634675
-0.19686005
-0.27388817
-0.012968965
0.47461274
-0.42717487
-0.611051
0.7698497
-0.060179655
0.5118204
-0.46950394
-0.3868223
0.2945021
-0.07118393
-0.83092684
-0.23504096
0.36077607
0.07972522
-0.6900262
-0.4337235
-0.062325552
-0.013323396
-0.12545235
-0.20346749
-0.22078389
-0.16852218
-0.13986607
-0.22063702
0.5823433
-0.26202846
0.6852162
0.5728036
-0.47625217
0.62153953
0.48196247
-0.27347213
-0.15397763
0.30974507
-0.73051834
-0.3903425
-0.70488745
-0.10852395
-0.59916836
1.1093595
-0.72716564
0.46779656
0.73421925
0.019301042
0.7008563
0.1933364
0.5451717
0.045992218
-1.0316862
0.45854476
-0.10747334
-0.034281928
-0.13719109
-0.6492885
-0.4606897
0.73326373
-0.36765605
-0.5510216
-0.12704279
-0.08253477
-0.5723027
-0.023534346
-0.49911985
0.7143203
0.9256925
0.12901899
-0.32985133
-0.19431219
-0.2625173
0.09275621
-0.8601487
0.45289996
0.1803855
0.5086776
-0.06996028
0.21204616
-0.5562875
0.47338206
0.5252656
-0.19671491
-0.05145748
0.0048733875
-0.06374783
-0.3495016
-0.7419069
-1.2038517
0.60412526
-0.55361253
-0.065355256
0.53969467
-0.045185644
-0.39975566
0.62071145
-0.47880566
0.044102974
0.13913862
-0.060873367
-0.66908014
-0.33176717
-0.24784887
0.75196546
-0.741709
-0.23606688
-0.40523887
-0.41143808
-0.092725106
-0.14535266
-0.04136223
-0.11537875
0.8921573
