960 1 3 3
6
22
14
-22
7
2
-20
-18
-4
14
12
16
5
2
6
-21
-23
-11
8
12
21
1
4
13
-29
-24
-22
3
20
16
15
15
4
-21
-7
-24
-16
-9
1
-12
-6
-10
-10
-10
-20
8
24
32
11
2
7
-17
-22
-13
1
-6
-24
19
2
-22
12
-2
-23
-3
-8
-19
23
17
-18
12
-7
-13
-23
-19
12
-9
-4
23
10
15
-7
-24
-13
-19
-2
6
-3
14
8
14
-27
-24
-18
17
29
21
-9
-16
-17
-5
13
-19
10
-17
-21
-23
-21
-5
-7
-11
-8
0
-3
-1
23
22
20
2
-15
-20
22
22
2
-10
-10
-11
-13
-10
12
-18
-10
25
-26
-7
23
2
7
6
10
26
34
1
1
-5
-22
-27
-26
11
2
1
15
7
25
-19
-8
-17
-3
-6
-13
-5
-14
-9
6
9
19
-27
-24
-12
-8
-4
-13
2
-1
-10
-9
-30
-20
15
18
18
-15
-5
-14
-7
2
-19
-10
3
-13
7
-5
15
8
-4
1
-13
-30
-13
0
-15
-2
1
-6
-11
-9
-3
-12
12
25
12
8
10
11
-9
0
-14
-7
-5
-19
-22
-13
-11
15
12
22
-16
-14
-15
-5
-12
-4
4
2
16
-15
1
-11
-20
-12
-13
-15
-3
11
-18
-19
30
-14
-4
12
-14
9
6
-10
3
-17
-15
-1
-21
-10
1
-4
-7
-16
-28
-10
-20
2
15
17
16
-18
-20
-26
7
-8
-13
12
13
15
-6
-15
-6
3
-9
-13
-6
-18
-16
9
-1
8
-19
-18
-15
21
28
11
-24
-27
-17
-4
-3
14
16
11
18
-21
8
-4
-12
9
-16
-20
1
-24
-9
-6
-2
-5
-4
-13
-11
-17
-20
-10
-13
-12
13
15
25
-12
-27
-8
-35
3
15
-5
6
14
-34
-15
29
-7
-21
-17
18
12
25
-11
0
0
-2
-17
-16
23
-12
-27
1
9
3
34
12
-45
21
7
-14
1
-2
-18
10
13
14
-6
-3
-3
-21
-19
-17
-8
-6
-6
3
5
8
13
28
11
17
19
13
-7
-12
-8
18
2
6
-12
-8
-18
-12
-11
-11
2
-3
-3
11
-17
-29
18
7
-22
5
3
-6
9
0
-37
19
-3
-20
19
-5
-34
-16
-17
-24
5
13
26
-1
-9
-17
8
6
-8
5
1
-4
-15
-17
-23
-11
-12
-19
-11
-2
-15
11
24
7
-21
-18
-9
-1
-12
-1
1
3
3
0
11
6
13
18
4
13
10
2
-10
-4
-12
-19
-10
-12
-14
-12
-4
34
27
31
-14
-17
-22
0
1
-1
-16
-21
-21
-6
-6
-2
32
14
20
-35
5
19
-22
0
20
-6
-11
-21
-17
5
14
-34
-23
38
1
5
1
-10
-16
-14
-6
-14
-12
3
13
7
-22
4
8
-22
10
6
-25
5
21
-15
-7
-12
18
20
25
-2
5
-5
-4
-16
-15
12
-5
-11
30
22
19
0
37
-2
-13
10
-22
-26
-4
-15
2
12
7
-17
-13
-21
-14
-5
-8
-3
6
3
11
24
5
35
16
38
-12
-16
-24
14
18
2
-17
-11
-20
-16
10
18
-25
-4
14
-36
16
11
-8
-6
-14
-4
-12
-6
12
24
7
-17
-2
-11
-4
-2
-15
-18
-4
-11
-4
6
0
-13
-13
-6
-17
-6
-12
-8
-11
-17
-14
-16
-9
3
10
-4
-12
-11
45
-22
-13
57
1
-17
16
10
-14
-15
18
-3
-19
18
3
-35
-18
24
-16
-17
17
-14
-20
20
-20
1
4
2
-18
-12
-23
11
20
4
-19
24
-10
-19
25
-13
-20
32
-18
2
-18
-14
9
-18
-13
22
-10
6
40
-5
17
1
-7
7
-11
-23
-11
-18
22
-20
-25
36
-10
-16
14
-2
-5
15
-22
1
20
-24
3
8
-24
17
7
17
3
2
4
-29
-18
-21
-23
-20
-19
5
13
4
11
11
18
-11
-4
-17
-8
-4
-17
22
16
0
5
7
4
2
-2
-14
-17
-14
-18
-13
-10
-9
-11
-10
-8
19
18
21
-12
-11
-8
-8
-4
-3
-4
-9
-8
6
-20
-20
22
29
-1
-4
-5
-10
-19
-14
-4
-17
-7
1
14
17
23
-23
-29
-2
0
4
-9
2
27
1
-23
-8
20
-16
1
16
-26
-15
5
-21
-28
-25
0
1
0
9
3
-3
-15
-8
-13
-15
7
-7
5
-13
-9
1
-10
-27
-14
-18
-9
10
13
0
0
12
-20
-4
-7
-4
-16
-27
-15
12
5
-9
26
-1
-15
8
3
-13
-14
-4
-3
-22
-1
18
-21
0
17
5
-12
-21
25
5
8
-6
-19
-19
-11
29
-29
-5
22
-17
-16
1
-22
7
-3
-38
29
2
-22
13
6
-29
12
30
11
-4
-9
-3
-8
-23
-21
-5
-13
-18
18
16
-1
25
15
2
2
5
1
19
13
20
0
-3
17
1
14
5
-13
-12
-20
-22
-7
-20
-7
-13
-13
7
1
9
2
9
36
-16
-7
-18
-13
-9
-1
9
26
13
3
-9
-7
18
18
0
1
9
13
-15
-16
-10
-14
5
12
4
25
29
-14
-20
-13
-16
-1
10
-14
6
2
-11
-7
-10
11
23
9
-5
-13
-11
4
15
3
5
3
4
-19
-30
-26
-4
-9
-10
-16
-5
-2
15
24
11
-19
-1
-20
12
-11
-25
-6
5
9
-5
-10
-15
-18
-6
-12
4
25
26
-1
17
2
-11
9
-9
-17
-8
-27
-10
-21
-13
-13
-4
-9
5
6
4
-11
-10
-15
0
24
-14
22
24
-6
71
21
-32
54
-12
-33
21
-26
4
5
21
30
-6
-10
-9
-10
-13
-16
-22
1
-16
8
26
14
-28
-16
-4
-12
-10
-8
21
17
20
-2
-3
-12
3
19
16
-15
-7
-4
-19
-26
-13
8
13
22
-6
-1
-12
-10
-19
-25
5
-8
2
20
23
48
2
-1
-4
-15
-32
16
-20
17
4
-16
11
6
-18
-13
19
-19
-18
18
-14
-9
2
-5
-5
0
-6
0
0
21
23
23
-23
7
-21
-21
4
-3
-19
-6
-25
3
21
40
-2
-4
1
-13
-3
-9
11
-3
-30
9
8
-22
21
1
-35
-33
-3
-18
-14
4
-14
1
13
5
48
2
-17
51
-10
-5
27
-22
3
-21
-13
-34
1
2
-7
-6
-1
27
11
18
1
-19
-18
-13
-8
-2
-14
-14
-18
-13
0
-2
9
5
10
20
-39
-4
-3
0
-22
16
32
22
-61
10
9
-15
31
-13
-19
2
-24
-11
4
6
2
2
12
13
4
9
5
0
-19
-7
-13
-17
-14
15
7
29
-12
-14
-15
-14
-11
-14
1
9
-1
-6
-5
-14
14
24
23
-15
-12
-10
-14
-12
-30
4
11
-26
4
24
-14
-12
-10
-8
-11
-7
-4
-8
-16
-3
-24
-5
-13
-17
0
11
-3
17
29
-11
-14
-22
9
34
11
-14
-11
-8
-7
-37
-12
-2
8
-11
20
25
16
16
12
30
-8
-5
-4
-19
-12
-7
36
37
23
15
-3
-18
17
1
2
-26
-9
36
-20
3
20
-17
-12
12
-14
-7
-11
-4
3
-2
-15
-11
-20
-18
-24
-22
9
0
-3
21
25
8
9
10
9
-18
-22
-17
3
-7
1
-31
-3
-12
-9
26
2
-25
-32
20
-3
23
6
-17
-7
-12
-11
-23
-11
13
12
1
-8
-2
-11
-17
-17
-20
6
-5
2
2
-9
-13
-9
-22
-12
-20
-18
-12
-13
2
9
7
7
28
-14
-9
-13
-5
-3
-3
-13
-9
-13
-12
-12
-12
-9
-8
15
-26
-4
16
1
-24
-31
-8
-10
-15
26
17
22
7
10
11
-5
8
-1
-25
-19
-22
20
8
-25
19
7
-20
11
2
-15
-20
22
-27
14
31
-29
17
4
-25
-18
4
-6
-9
-6
-9
-11
-5
-18
-1
3
-23
-14
26
-29
-10
15
-19
1
4
3
18
19
15
13
0
4
-26
-24
-5
0
6
12
-5
5
-6
-11
-5
10
-11
1
16
-31
-9
7
-12
2
-18
-18
-15
-17
44
35
30
-8
-4
-15
17
26
21
-21
-16
-21
18
-8
-19
19
0
-18
25
-6
-19
1
-3
-7
0
-15
-18
-4
-14
-13
16
13
13
0
1
-4
-18
-22
-21
-11
4
14
-10
7
10
6
14
49
-26
32
-12
-21
21
-6
-17
10
-7
-20
-4
87
8
2
101
25
-13
38
-16
-15
-21
-3
-7
-1
27
16
15
23
-9
-14
7
-1
-32
-10
-22
-1
-9
-10
2
14
21
23
-4
1
-8
9
8
-10
5
-4
-19
-9
-25
-14
-11
-23
-12
-9
-1
-9
12
20
21
1
5
14
8
21
14
-1
9
-2
-15
-11
-14
-12
11
4
-24
-13
-13
-9
-16
-11
4
-2
6
22
11
21
-8
-25
-15
37
33
25
-5
-9
-7
-2
-16
-10
-19
-20
-12
28
18
32
-11
-10
-12
-12
-9
-12
15
24
20
-1
-26
-15
14
-15
-18
22
-3
2
-23
-16
-22
4
-4
-2
21
24
18
-17
-22
-17
8
35
19
-11
-10
-9
-14
-30
-25
22
24
11
-17
-4
-16
16
2
3
13
33
23
4
3
3
-15
-18
-11
26
15
18
15
11
20
-3
-17
-21
30
9
1
5
-16
-17
-12
-10
10
-22
-6
2
-20
0
24
-17
-16
-18
0
-14
-7
19
11
9
-3
6
-16
21
18
-27
10
11
-38
15
2
-6
8
-1
-9
2
-16
-33
-33
-6
25
-22
11
14
-8
-6
-20
5
12
-6
-20
-7
-20
-14
-8
-9
9
21
-9
-30
-13
-33
1
0
-3
-9
-4
-24
-15
-13
-13
11
12
16
16
35
13
-16
5
-7
-13
1
-6
40
23
-6
23
3
2
12
1
16
-18
-17
-19
19
13
12
7
12
16
16
19
-4
3
-15
-18
-21
-15
-12
-3
4
12
-11
-7
5
-22
-15
-6
-17
-6
-14
-15
1
-20
-4
9
-5
10
9
14
-6
2
-13
-20
-14
-21
-11
-2
-12
5
19
16
3
37
25
34
21
18
16
-10
14
9
-4
9
-17
-19
3
-22
6
6
-21
8
-1
-5
-8
-20
-2
6
2
-20
-19
-21
-8
-19
-6
-10
-8
-11
-19
-11
-10
14
10
7
0
-7
-10
-16
-11
-20
21
0
-31
25
-16
-3
7
-13
2
-26
-12
-5
-22
-2
-6
3
27
11
6
2
-1
13
3
7
27
8
14
-18
-16
-6
-11
-4
8
-22
-9
12
20
-8
-24
32
-16
-10
22
-15
-11
8
-3
9
23
16
16
-20
-9
-17
-20
-8
-13
5
6
-3
-14
-10
-13
17
-2
-26
23
-9
-16
16
5
-19
-26
-19
-22
-7
-8
2
15
14
9
47
-17
-28
36
-17
-22
15
1
3
-16
6
11
-11
4
0
-20
-14
-12
9
2
-8
1
-15
-15
13
-3
-28
27
-8
-32
22
-8
-23
16
10
-34
7
20
5
5
-8
0
-12
-26
-23
-34
9
25
-23
5
28
-18
-6
3
-20
-13
-20
8
5
5
-21
-20
-6
-24
-10
-4
-15
-7
5
-7
17
4
13
26
19
1
9
13
5
4
-11
-12
-11
-13
-31
2
3
12
-2
27
-6
-7
0
-28
-9
-9
24
20
42
2
-6
-21
2
-14
-18
29
9
-6
-26
-7
9
-30
15
11
-18
7
1
17
26
5
-19
8
-13
2
17
18
35
0
-17
17
-3
-15
25
-4
-18
14
6
5
-1
-1
-5
-18
-17
-17
-26
-17
-16
-10
23
3
-4
30
-2
-4
-3
-13
-11
-1
-1
-7
18
39
-12
-2
-4
-35
-5
-4
0
-11
22
-19
-18
-6
-2
-14
-19
8
17
11
-6
-5
-8
-15
-15
-11
26
35
11
21
-4
20
15
1
8
-26
-24
-26
-12
6
6
-16
-11
-7
-8
-13
-15
-7
-17
-17
20
21
21
-16
0
-6
-2
3
-4
15
33
19
-5
2
-4
-12
-16
-17
-6
-7
-14
-3
26
10
-1
16
-12
-11
43
5
-29
14
-10
31
-8
6
8
-33
-30
-20
23
13
16
7
-3
-14
-14
-24
-15
-2
0
-6
-16
-8
24
32
62
-9
-10
-25
0
7
2
-18
-12
-9
-18
-5
-8
-37
22
45
-17
11
1
1
6
-12
-11
25
-34
-18
22
-21
-18
-5
-7
27
-4
-27
24
1
-24
16
-9
-9
8
10
10
2
-13
-11
-1
-29
-26
1
-2
-12
10
9
-10
36
39
6
13
-20
-7
24
-14
-20
22
-13
-27
0
16
2
0
14
-3
-20
-22
-26
-13
-9
-12
-21
-7
-3
2
3
7
8
4
-19
36
16
8
0
4
-7
-18
-13
-14
-4
3
-8
7
23
11
-1
2
8
10
4
2
-35
-25
-25
15
27
7
-11
-8
-8
5
13
-4
5
23
11
-11
5
-9
-24
-18
-14
-20
-13
-16
-4
2
-4
14
20
15
20
34
10
-4
7
-3
-23
-3
1
19
14
16
1
0
6
-19
-19
-10
15
4
-2
0
-7
-19
-11
-12
-15
-13
-14
-19
-1
-2
-7
25
12
39
14
12
17
-18
-18
-14
-14
-16
-10
-7
-5
-16
-4
-1
-9
16
23
16
12
-24
4
4
-32
2
4
-22
11
-24
-29
-34
7
2
6
1
18
3
-13
-17
-3
-13
-16
-3
6
32
15
7
4
17
7
6
13
-20
-15
-20
17
-14
-9
-24
-25
-14
29
29
24
5
8
9
-4
-2
1
-18
-21
-20
22
-11
-21
21
-9
-19
12
-8
-26
-27
-16
-14
5
-6
-8
20
19
21
3
2
-3
2
3
9
14
22
16
-5
-12
-9
3
-14
-19
0
27
38
-25
-15
4
-19
-5
16
-3
-18
21
-10
-24
-26
-8
4
-3
13
16
10
-22
-14
-19
1
6
-5
11
23
3
-31
-16
-8
4
9
1
22
11
34
-22
-4
33
-24
-14
19
3
-6
-12
13
-1
-16
9
-6
-12
27
-2
-31
2
-4
-2
-23
-14
-21
-12
-12
-3
23
23
29
-10
-17
16
-12
-13
23
8
14
-13
-12
-6
-16
-21
-8
-13
11
13
9
-7
1
5
-13
-14
-29
14
30
34
4
-7
-6
-16
-8
-17
-26
-12
-18
3
-5
10
21
11
22
-9
-20
14
13
-6
-26
30
-10
-28
22
26
28
0
12
1
-3
-8
-10
-2
-6
-5
10
6
10
4
10
21
-15
-11
-11
-13
16
9
-20
16
24
8
0
-19
15
1
-19
24
2
-19
-29
-6
-23
-1
27
36
3
21
-10
-3
-16
-14
-12
-6
-14
-14
-8
-10
-12
-8
-16
-12
-7
-15
12
28
24
44
2
-9
4
2
-4
-25
-21
-16
26
18
14
1
5
0
-14
-7
-7
-22
-15
-20
12
18
13
-6
6
6
7
15
1
17
-8
-9
-2
-26
-24
-24
-11
-20
-10
3
7
-4
22
17
15
17
0
-13
-10
-19
-23
-1
-13
-1
15
2
5
1
-8
-19
-22
-19
14
15
11
7
8
3
7
9
0
-15
-7
-4
-8
10
6
-2
31
16
-18
-8
-17
4
-5
-6
16
13
16
16
-9
-15
20
1
-25
11
-1
-19
4
20
10
-6
-5
-19
-6
-17
-30
5
3
-9
-15
14
-28
1
46
-16
-23
-11
-20
-10
-1
-9
4
12
7
-13
-5
-19
37
-5
-7
13
-3
-11
-14
-7
-6
0
-10
-11
-16
-17
-13
-3
-4
-3
-12
-9
-6
-7
-8
-8
-2
-10
-14
-18
-7
-12
-9
14
-6
26
4
17
11
3
10
6
8
-2
18
20
14
-20
-15
-17
-11
-13
-22
-3
-22
-17
9
1
-3
25
24
9
-21
-2
9
-13
-2
14
-27
-4
24
-1
-4
3
10
7
12
-11
-19
-20
-4
-6
-32
19
-8
-24
17
4
-15
-20
-2
2
-17
5
18
-22
-15
27
11
14
6
-12
-18
-11
-11
-12
-21
26
1
-21
33
-10
-13
-2
-6
-21
-22
-21
-19
-3
-3
-7
21
15
4
8
-4
-37
4
17
-30
-5
33
-30
7
-7
8
9
1
23
20
-3
27
-29
-6
22
-24
-10
24
-10
1
-9
11
15
6
4
-2
-2
-17
-13
-25
-21
-8
-19
-19
-4
10
-7
1
-1
3
-4
-8
2
-5
-2
27
36
35
-4
-3
12
-25
-16
-14
-2
-6
-3
-18
-17
-17
-14
-19
-17
22
18
17
-14
-1
2
-12
3
30
-22
-20
-8
-13
-13
-32
0
41
-5
-26
12
-10
-26
5
-5
-27
11
9
-27
8
9
-21
-17
-12
9
-4
-11
10
9
8
-17
-2
3
-17
-10
-9
6
27
30
-27
-20
-16
1
3
-1
12
9
20
4
23
14
-16
-15
-12
-12
-21
-23
4
10
21
-7
-6
1
-19
-14
-12
-15
-20
-16
16
22
18
-3
-16
-29
-14
7
5
-1
6
-5
-33
-12
-27
18
0
-22
18
-4
-19
6
-12
-21
-24
-15
-14
-15
2
-2
14
17
8
12
8
34
-12
-17
10
-16
-11
-11
-17
-24
-22
24
10
-10
-9
-8
-15
-13
-22
-17
0
-3
-12
19
9
36
-12
-7
-9
-1
-2
-7
-9
-11
-13
-13
-9
-7
-15
-10
-13
8
2
-9
-9
1
-16
-14
-4
-9
-17
1
-9
49
5
-22
21
5
-16
27
5
-1
4
10
8
-17
-13
-5
37
13
15
24
12
-3
0
5
-1
-19
-30
-28
4
-13
-14
3
-14
-10
4
-16
-14
-8
6
-1
14
29
16
0
12
12
19
15
28
-5
-3
7
-35
-8
5
28
0
-26
19
6
-28
16
0
-19
-13
-8
-11
-12
-2
-8
17
23
14
-18
-2
9
-17
5
20
-21
1
35
-18
-13
-16
16
1
8
19
18
34
-21
-21
-21
1
-7
0
20
3
16
-19
-25
-17
15
4
-4
18
6
0
-28
-1
11
-32
-4
7
-23
12
14
10
2
-23
33
14
4
-5
-12
-23
-19
-19
-16
-1
14
11
-33
-5
-17
27
18
17
-10
-26
-13
1
-12
-12
-21
8
17
-26
-2
4
-15
-12
5
11
8
5
0
-3
5
-17
-23
-12
-9
-9
-13
-17
-2
5
-18
7
32
-26
0
18
-2
-7
1
-21
-14
-16
3
10
15
-8
-8
-13
-5
-7
-25
-10
-14
-16
-5
22
15
-25
-6
-19
24
-2
-31
25
-2
-26
12
4
-20
18
13
21
12
8
8
0
5
5
10
11
12
-6
-5
-4
-17
-11
-17
-21
10
27
-15
-6
19
-23
-6
-7
-10
-14
9
-18
-12
23
-20
-11
9
-25
-3
29
-21
-5
19
-15
-6
10
10
9
-1
9
6
1
-11
-25
-27
18
19
12
7
3
-9
-15
-13
-11
-21
-6
-13
-10
-9
-12
4
-2
-17
-14
-23
-11
-17
-17
-8
4
10
35
8
-7
-20
20
2
-27
14
1
-25
24
3
17
-4
-1
-4
-28
-17
-21
-18
-16
-18
-17
-8
6
3
16
16
-17
-18
-18
-10
-6
5
15
16
13
-6
-30
-17
9
-1
0
7
35
20
-8
-13
-16
33
22
20
-18
-21
-15
-16
-14
-27
-6
10
-6
4
21
18
8
23
25
-9
0
-2
-2
-9
-13
26
3
13
0
0
-8
-18
-18
-12
-22
-22
-22
-4
6
-6
15
3
10
20
11
11
-2
-1
4
-16
-25
-22
-8
-28
-18
-2
-22
-3
19
4
12
-3
-9
-12
-12
-11
-9
-13
-17
-10
4
-1
-6
-18
-6
-15
10
47
21
5
14
23
1
1
5
-13
-15
-13
17
10
7
-5
-9
0
-17
-25
-10
6
27
19
-5
1
-7
-19
-20
-28
-11
24
20
11
31
-1
-15
-27
-16
12
7
-20
-11
0
-25
-4
-2
-19
25
9
-13
27
-3
-21
11
-1
-21
20
35
8
-3
5
-14
-7
-8
-8
3
13
17
-17
6
17
-14
-20
-10
-9
-7
-8
-10
-14
-15
10
21
6
-20
-12
-21
7
-13
-6
-3
6
14
7
-17
31
2
-34
-12
28
-19
12
15
-15
-18
-11
-2
-21
31
8
-6
5
-1
-1
-2
-4
0
18
21
22
-24
-10
6
-23
7
8
-29
-9
-4
2
7
26
3
-2
22
-23
-16
-2
-1
1
-10
17
8
10
64
9
20
7
26
9
6
0
13
-24
-18
-17
-21
7
2
-22
-5
22
-31
-5
6
-5
4
19
2
3
1
-21
-18
-32
5
8
1
-9
-7
-8
-13
-12
-17
-14
-14
-14
-3
-3
-4
-2
-9
-16
11
14
13
3
-2
-14
1
-24
-17
-19
-20
-18
-4
-1
-3
12
6
0
0
-6
-12
-19
-3
-22
-4
3
4
-7
2
-3
-14
-11
-11
-17
-15
-17
-2
2
1
-5
12
7
5
19
18
-22
-17
-2
-32
-14
-3
10
23
2
-21
-9
-6
-16
21
41
-5
19
25
10
12
16
16
10
5
-19
-28
-24
-19
-19
-24
-8
2
-14
14
15
7
-13
-8
-11
-11
-5
-11
11
18
24
-2
-11
-2
2
9
-1
25
22
27
9
17
7
-11
-6
-21
-3
-9
-25
-36
-1
18
-25
6
30
-12
-1
10
-2
-10
-4
6
1
8
1
10
47
-4
-16
-5
-5
-14
4
59
9
51
-12
-26
-15
-11
-3
-16
10
12
9
-13
4
-17
-8
-1
-8
-10
-5
-18
-26
3
14
-15
4
3
-23
-4
19
15
-7
-23
26
4
-16
13
1
-19
-5
-23
-10
16
27
17
8
3
2
-20
-9
-16
-6
6
-7
17
16
0
-19
-6
-11
-9
-13
-3
-3
-5
-2
-2
19
-8
-25
1
27
-26
-8
32
-14
-14
-11
18
14
-8
48
25
49
-2
-8
-18
-1
5
-13
19
18
-34
24
33
17
4
-2
3
14
-9
-3
18
-1
-26
26
6
-23
3
12
-20
-3
-1
-13
-4
6
9
8
27
21
10
22
9
8
17
14
-22
-16
-18
-8
4
-14
-18
13
-18
-22
45
-20
35
2
-40
2
30
-27
-24
1
-4
-20
-22
-24
13
12
15
-14
2
-12
-31
15
-26
-18
39
-3
-20
23
-15
-20
-6
16
-22
-3
16
-19
-12
18
-20
-9
-22
31
30
-12
-43
-11
21
-17
-2
-11
-10
3
-6
-18
-4
-17
6
0
3
-13
-21
-22
11
-4
-12
-3
-6
-24
22
-1
-15
31
4
-1
11
14
16
-12
-8
-4
-21
-10
-22
31
-11
-18
9
-16
-6
20
3
-29
6
5
20
2
9
9
-27
-30
-20
7
-4
-3
-11
-5
-8
17
35
30
-23
-6
-17
-14
-7
-16
2
11
-3
-18
-16
-21
1
11
-4
6
10
14
-26
-9
13
-15
-10
24
-24
-1
25
-31
0
-19
9
24
4
-1
34
18
2
15
2
-15
4
-4
-24
-9
-24
8
23
18
-14
-29
-19
4
-22
-14
-15
-12
-10
-8
-4
-3
8
11
5
-6
-8
-33
10
13
-7
-4
3
-16
-11
-16
-10
5
7
-1
23
29
13
24
22
0
4
4
-5
-18
-11
-22
-10
-13
-12
2
0
-13
19
27
21
9
21
-27
24
2
-28
26
18
-12
31
0
-24
16
-5
-25
52
-26
-32
-17
-15
-12
-9
-6
-10
4
-2
2
-13
-13
-10
-8
-17
-17
21
13
38
-2
0
12
-12
-14
-12
-19
-14
5
19
16
6
-5
-11
-4
-25
-11
-18
-7
-5
-5
20
22
9
-11
-5
-15
-8
20
-7
-6
39
-36
-15
16
-31
-5
-9
-21
7
24
17
-32
-6
-15
-7
-9
1
4
3
8
10
17
34
13
24
2
2
10
-6
-30
-18
-18
23
22
24
-3
-10
0
-13
-17
-10
5
-5
-14
25
12
-36
13
-5
-17
-14
-2
-17
-7
-3
-19
13
20
7
-7
-7
-15
8
14
18
-31
-24
-22
-12
-17
-19
7
-16
1
14
10
10
-8
-9
-12
-5
-3
-1
-8
-10
-15
1
2
9
-3
-5
3
-18
-19
-20
-13
-10
-20
18
26
28
-22
-8
-4
-16
-9
27
-15
7
32
-12
-9
3
18
-13
-20
23
-18
-13
11
-5
-14
18
6
9
4
-4
-6
-27
-17
-15
-19
-24
-13
4
2
2
14
3
8
-25
-16
-22
-6
10
-3
14
8
6
30
5
-20
36
-13
-13
32
-30
-4
-12
-13
-18
-2
-5
3
21
17
22
-20
-25
-21
29
17
3
-12
-9
-22
-25
-3
4
-23
0
9
-17
-5
19
27
13
26
3
5
9
4
-3
-4
-14
-25
-19
-13
2
-9
5
12
9
9
-27
-1
26
-21
-4
5
-14
-7
-17
-17
0
-19
-8
9
-1
2
30
26
51
20
2
-11
-10
-27
-16
-17
0
1
3
-8
-3
1
-18
-16
-21
-7
-12
-13
-16
-14
-13
2
9
16
-16
-11
-8
-15
-22
-8
3
3
6
30
24
28
-11
-11
-10
-10
-11
-9
16
-9
-19
4
-1
-17
-10
-16
-14
-24
-4
-22
-11
-8
-12
8
13
21
-17
-18
-18
-9
1
-13
3
14
8
-11
-11
-29
0
6
-9
9
24
3
15
26
37
-9
-6
-4
-10
0
-6
-15
-16
-17
-12
-13
-8
6
-3
8
-14
-22
-18
12
19
25
2
-3
-9
-10
-24
-5
-6
-22
6
9
-28
16
-11
-15
-6
-14
0
-11
8
21
20
15
10
12
22
-10
-4
-18
-20
-20
-16
5
43
-12
1
39
-2
-5
5
-20
-3
2
-3
-2
-3
-12
-12
-7
-21
-21
-18
-7
-1
-2
5
9
21
6
6
3
-7
-9
3
-8
-26
-16
-3
-11
-25
-7
-1
-13
-4
10
8
33
27
11
8
-6
-20
-21
-22
1
13
9
3
8
-12
-15
5
-22
-26
9
16
5
-1
-13
-2
-16
-16
-16
-27
-19
-10
-6
-6
-14
26
22
-9
12
3
10
-14
-11
-13
-20
-15
-17
17
2
-30
21
5
-37
27
5
-30
-12
-14
-37
23
21
-1
23
0
-30
8
7
6
9
9
14
-25
-23
-26
-8
-9
-8
-14
0
-2
-5
3
52
6
6
10
12
-11
-28
8
-23
-17
20
18
13
14
9
3
-6
-6
-7
-4
-7
-12
0
4
-5
-12
-19
-20
-10
-15
-15
12
16
20
-11
-7
-5
36
17
-49
21
16
-28
-9
5
-10
-6
-10
-9
-12
-6
-19
-7
-6
-1
39
-3
-32
20
2
-19
12
-10
-22
-11
-16
1
-10
-18
-12
32
6
3
-7
-22
13
4
-32
18
-8
-19
11
-4
26
17
-5
-1
-8
-5
-21
-13
-17
-21
-6
-18
5
9
-3
12
22
-9
-24
-14
5
-9
-13
12
16
18
-3
0
-2
12
12
9
14
10
13
14
16
5
4
7
4
-29
-20
-22
7
4
-10
-7
4
-14
-14
-4
-30
-18
-6
13
-18
0
16
-15
-11
17
-18
-13
-10
2
-6
-3
3
18
30
24
19
21
-8
-15
-12
-1
-15
-19
-11
-9
-5
-16
-18
-16
-3
17
28
-11
-37
0
3
7
-14
-16
25
25
21
5
30
2
8
13
17
6
16
-3
1
-4
-18
3
4
25
19
44
-11
-27
-23
22
32
15
3
-7
-13
-27
-1
-10
5
-5
-16
26
20
4
-11
34
15
-5
5
13
-29
-23
-13
16
15
14
-16
-22
-9
-4
-11
-17
-17
-12
-4
-14
-7
-13
13
24
21
-26
-14
-19
1
0
-7
9
1
13
-11
-10
-14
-16
-6
-4
-2
22
5
-9
-15
-3
-15
-13
-24
20
5
14
-22
2
-2
5
25
3
2
24
21
6
9
10
9
9
2
-21
-14
-27
11
-5
-20
17
-7
-26
20
8
-29
1
-15
-20
13
-15
-17
18
-4
-9
19
10
-20
4
-4
-23
27
2
-24
-2
-27
-15
-20
-12
-4
10
17
22
-9
1
13
-31
-6
44
-24
-10
25
-15
-10
-16
16
17
14
-20
-16
-16
-1
21
13
-13
-5
5
-27
-17
-21
13
-6
-23
16
37
5
-23
-15
-8
-28
-17
-25
8
23
2
4
-7
-27
14
5
-31
18
-9
-19
0
2
-13
-8
26
15
-13
-4
-28
-13
-9
-9
-12
26
-11
-20
31
-12
-10
-1
-22
-6
-20
-23
-2
-3
-2
22
18
15
-10
23
27
-13
14
0
-22
-20
-2
-13
-17
-22
4
32
8
-2
7
1
22
3
-32
26
2
-27
21
-7
-8
-4
9
-8
13
38
4
11
13
-13
-16
22
2
-5
-2
0
-10
-32
-27
-4
0
-16
-3
-21
-7
-13
-2
-2
-25
-17
-22
-3
5
0
7
24
19
-10
-17
-14
-1
10
-10
6
27
21
-6
-2
-15
-10
-9
-8
16
24
14
-10
-15
-16
30
21
20
-4
9
0
-4
-15
-13
-2
-14
-21
14
18
21
-11
2
12
-19
-25
-20
4
8
-6
8
12
5
-8
-28
-15
-4
-11
-1
-17
-10
-21
-4
-8
-7
7
4
7
13
-11
-11
25
3
23
-10
-44
0
-22
-2
9
5
-4
37
-24
-12
13
35
13
13
15
6
5
4
0
-6
19
-2
-6
-1
9
-22
-22
-14
-16
5
12
-4
-16
9
-23
-20
2
-18
-32
-23
-23
0
3
-3
21
11
21
2
-2
2
-16
-15
-13
19
26
33
4
8
4
2
8
11
-23
-31
-14
3
9
6
-2
-1
0
-19
-22
-13
13
24
17
-10
0
-11
-13
-12
-24
26
18
27
-12
-9
-3
0
0
-9
-7
-28
1
0
-14
23
-19
3
6
-9
-6
-4
-1
-2
1
18
12
20
25
-14
-25
25
6
3
0
-28
-12
2
2
7
-22
-9
-18
19
18
21
-17
-16
-17
-2
-12
-8
13
15
22
-5
-18
-13
-4
-4
-12
11
31
14
14
13
13
-3
-7
-9
-12
-18
-19
-29
8
34
-21
-12
11
-16
-6
10
-7
-9
-11
-4
-14
-12
16
27
33
-16
-22
-2
-13
-12
-6
3
20
12
10
9
6
-13
-14
-5
-16
-20
-12
8
21
0
-15
10
-12
-16
-19
-25
-14
-6
-12
-4
-6
-11
-22
-5
-2
-17
-1
5
27
-20
-35
4
11
28
4
5
7
11
14
5
16
14
6
-19
-12
-20
11
12
7
-22
-17
-26
23
21
14
-2
-8
-6
-15
-18
-15
-7
12
-30
-19
13
-21
-20
19
-19
15
-7
-25
29
4
-17
1
4
-13
12
36
11
10
1
-9
12
1
-5
4
9
-26
10
11
-14
30
20
5
14
24
16
-18
0
17
-11
-23
-15
-23
-11
-13
-15
2
-2
4
13
10
1
20
11
-10
2
-11
-23
-18
-18
3
27
-5
-3
23
-16
10
27
6
-20
-6
1
-12
-2
-1
-12
18
31
-23
-5
-31
-13
2
-21
6
24
31
-19
-11
7
-18
-14
11
-19
-11
21
-11
-11
-10
-11
-6
-9
11
26
3
2
3
0
25
8
12
4
11
4
-8
16
5
12
31
7
2
17
-6
1
4
1
4
31
15
-3
8
0
-16
-18
-2
-17
-12
15
-11
-15
-1
-19
-9
5
3
-2
-22
3
-14
-14
13
-3
-25
13
4
-26
17
20
-32
8
15
11
-14
7
-1
-12
-25
-13
13
8
3
-5
-5
-4
-19
-16
-17
-22
-27
-33
10
10
7
-2
17
8
0
4
1
-6
-4
-2
-11
-20
-19
1
0
38
-9
-7
18
-15
-10
6
-10
-17
-14
13
11
12
16
11
17
25
25
9
11
10
6
-10
-5
-6
-20
-2
6
-20
-6
21
-31
-2
25
8
-1
-22
15
-3
-21
21
-6
-24
12
16
6
2
-3
11
-15
-23
-15
-5
10
12
-15
-19
-16
-4
-10
-4
6
18
14
-17
-14
-11
-13
-15
-13
-4
-3
-4
9
16
8
-8
-27
-23
-1
-12
8
20
8
16
-12
-18
-17
-17
-16
-18
1
-2
-1
20
7
8
-14
-8
11
-20
-10
20
-24
-6
17
-4
-15
-14
11
19
26
-25
-16
-22
12
7
-14
5
-3
-6
62
23
9
31
-10
18
9
-12
8
23
-23
16
-9
-6
-14
-13
-10
-1
13
26
10
16
-15
-32
29
-1
-24
-1
-5
-17
7
7
15
-5
2
4
-29
-17
-23
11
6
9
7
6
16
12
14
16
-21
-10
-18
5
-4
4
7
18
17
-18
-20
-14
-4
-4
-5
9
5
4
-24
-19
-17
17
14
25
4
3
-7
14
2
11
-25
-5
-15
9
36
23
-37
-5
20
-23
-6
30
-25
5
14
-5
-13
-15
2
-1
10
34
20
26
17
22
21
16
19
4
5
6
2
16
13
19
5
3
1
-12
-10
-14
-16
-4
-7
-12
-10
-13
17
22
35
-3
-9
5
-15
-16
15
-54
10
37
-9
-13
-8
-11
-7
-8
-8
-3
-9
-8
9
-40
-5
38
-1
-27
-8
-25
-19
-11
-18
2
7
1
-13
-10
-23
-15
-16
-23
2
0
-12
18
33
7
18
9
-17
19
2
-14
31
2
-10
11
11
26
13
29
6
-10
-21
-12
4
10
20
12
9
8
-3
-16
0
-19
28
17
-26
-9
14
-11
-7
-7
-16
3
17
-23
15
11
-27
14
-5
-13
-16
-25
-8
-9
-8
1
1
5
-15
-5
-15
-7
6
-17
-7
1
-17
-23
3
19
-16
-5
17
-26
-7
-2
-18
-31
-15
15
11
11
6
4
8
16
11
-3
27
10
13
3
-21
-1
26
8
-30
5
20
-28
-8
13
-29
-2
-5
-2
3
-7
0
22
30
34
-21
-12
-20
22
22
10
1
-17
-17
-12
-2
-20
2
-4
-2
-14
-11
-16
-25
26
-14
-8
15
-8
-17
4
-24
-21
-5
15
-19
-3
22
-27
-7
19
-9
-22
-19
-15
-3
-10
-10
15
10
-15
-5
-15
-14
-12
-14
-2
-2
-4
16
-12
-27
-3
-7
-11
-7
-16
-1
-2
-20
-22
8
-8
-14
11
4
-3
-19
-13
-24
18
14
-1
11
35
-3
-25
-12
19
-18
-15
41
-27
-3
31
-12
-17
-15
-13
-10
1
9
13
7
-29
4
-14
-13
5
-10
-18
-13
-6
-25
-7
-14
-7
13
9
11
21
16
-3
5
-10
-1
6
-1
-18
-28
-21
-11
-12
-16
24
11
-7
25
0
-10
-24
-11
-13
-6
-9
-8
16
16
21
-11
-7
-2
12
12
19
10
11
10
2
21
6
-4
7
-15
-15
-23
-14
9
16
12
-31
-20
-5
34
2
15
27
10
17
-8
0
2
-16
-14
-20
33
8
-27
11
16
-21
4
15
4
-17
9
1
-9
-8
-4
-11
-7
-13
-8
-18
-13
17
1
-11
26
22
-1
-8
-14
-7
13
2
12
20
8
20
3
-9
-10
5
8
0
16
30
16
4
11
-1
11
8
-9
-13
-15
-24
-16
-20
-9
-1
0
-1
16
22
25
-4
7
14
-14
-16
-13
-13
-13
-13
-19
-16
26
-22
0
24
-17
0
13
-15
20
5
4
12
2
5
32
16
-27
6
37
-21
-2
19
-28
-3
10
-18
-4
-12
-29
-13
-20
8
14
6
14
9
14
19
12
14
-4
-6
-1
-14
34
11
-10
5
-19
-19
-2
-26
40
12
-39
0
-20
-8
-19
-17
26
-7
-8
-8
-7
2
-13
12
22
17
-35
30
48
-24
-2
50
3
-35
22
-20
-20
-9
-10
-5
4
12
17
10
-33
-1
24
-12
12
30
-3
5
10
-9
35
-4
-21
8
-32
-24
11
-26
10
9
0
2
-4
-16
-8
-19
-18
-29
-15
-16
3
2
0
1
16
8
-17
-12
-15
-9
1
-5
-13
0
-5
-12
-7
10
-1
-9
-6
-14
-19
-8
31
17
5
12
-17
-12
-10
-21
-16
-10
-13
-11
-7
3
-11
8
31
7
2
8
8
-2
-4
-2
-17
-21
-19
-28
20
28
-19
-1
23
-19
-1
13
-2
-18
-7
-4
-5
-3
-28
-8
-1
-9
-18
-9
-11
-16
-11
5
2
4
-35
17
28
15
2
3
7
-38
-30
-18
-19
-20
-9
-5
-6
16
7
6
-17
-12
-21
-13
-2
3
-12
-10
1
-23
-19
-14
32
21
25
-8
-21
-13
-24
21
34
-14
-7
42
4
-12
4
-13
-19
-9
-12
-14
-5
19
15
-9
0
22
23
0
-5
8
-19
-16
-16
-2
-1
8
-2
3
10
6
16
24
-23
-9
0
-8
20
34
-27
-2
10
21
-4
-20
11
5
-22
6
1
-23
-8
-11
1
-6
-9
0
25
24
26
-23
-7
9
-16
9
16
-20
-3
36
11
18
19
-10
-4
13
2
14
25
7
-3
-23
15
4
-24
-4
-5
-10
18
14
-9
-2
-19
-37
30
0
-13
1
-8
-6
-3
-7
-1
16
27
18
-8
-10
-16
-6
7
-22
6
26
13
-29
-16
35
-18
-9
28
-25
-14
18
17
13
10
6
7
5
16
22
25
43
-10
-38
50
1
-39
6
0
-5
7
-4
0
28
-6
-8
33
13
3
16
17
6
8
-2
-5
-32
-21
-15
-20
-18
-14
-22
-14
-24
-1
10
-6
-12
-15
-16
-3
-1
3
-12
1
-5
-23
0
-5
5
-12
-21
16
-10
-6
28
10
15
2
-6
8
-11
-11
-15
3
-7
2
-3
0
7
16
26
18
-16
11
27
-23
-9
-1
-20
4
30
-5
-2
-7
-7
-7
-4
-25
-16
-14
-13
-7
-7
8
35
12
22
23
26
10
15
18
-5
-4
-3
-15
-18
-11
-17
-14
-10
-1
-2
3
23
20
9
-17
18
36
-21
-7
17
6
-11
-23
13
11
9
-7
-11
-12
-14
-10
-20
-9
-13
-7
8
5
16
31
15
19
10
-4
4
-4
-13
-4
-24
-21
-10
9
23
16
-6
4
-14
-14
-3
-34
-8
0
-9
-1
14
31
-36
-32
-3
-14
-14
5
-8
-12
7
-24
-5
10
10
-10
-14
23
3
-19
16
1
-28
-11
16
-8
6
36
10
-8
3
-1
-6
16
18
-33
6
10
-8
-10
-20
-5
2
-4
16
23
16
2
6
5
0
-1
-4
-22
-10
-18
-8
4
-10
5
23
14
-4
7
-16
-28
-10
-23
14
13
6
-8
-14
-15
-19
-13
-16
19
-4
-19
19
9
-26
9
-8
-26
-22
-7
-31
5
22
-2
9
13
8
1
12
3
-3
7
-11
-18
-12
-20
17
23
19
-4
3
-22
-4
-28
-21
-20
-1
-29
-11
6
-6
7
12
32
-23
-5
12
-13
8
20
-33
-14
7
-9
-4
-8
3
7
-1
19
29
17
-11
19
-1
-18
34
-7
-31
5
-23
-19
-5
-20
3
-1
-17
14
17
-34
-12
-21
12
-15
-12
18
-22
-13
3
-7
-4
0
-8
-10
-2
31
14
40
2
17
-16
11
-4
-31
9
8
-28
-14
-10
-11
-11
-3
-5
-7
8
-17
-17
-2
9
-23
5
14
-28
2
32
-5
-16
-10
2
1
5
14
26
13
18
12
8
18
9
12
8
7
5
-17
3
13
-25
1
10
-30
7
26
-5
-25
-14
-1
-24
-22
7
9
2
-16
-6
-1
11
5
13
16
17
27
19
27
-26
1
10
-25
-19
3
-22
-10
-14
-7
-6
-9
9
16
24
21
24
29
16
20
21
11
-17
-18
-15
-17
-16
-17
-5
-10
-12
16
9
13
-10
-19
-21
-11
-6
-6
11
7
6
16
-24
-4
-1
36
-38
-11
46
-40
-14
-6
25
-3
-18
7
-12
-13
-19
-8
-10
-16
-15
-13
-7
-13
-5
-10
17
8
5
-6
0
-2
-25
-10
-22
24
16
24
14
0
3
-19
-12
-28
16
16
17
-5
-5
-3
-16
-13
-21
-16
-13
-15
2
3
-5
16
21
16
6
6
3
-12
11
12
-30
-7
-22
26
20
8
-6
-14
-6
-15
-10
-10
18
4
1
18
-10
-17
-10
-13
-20
4
-6
-9
10
22
13
9
14
-10
-7
9
-23
-9
32
-25
-2
22
-29
-6
-15
-5
-20
-7
-13
20
17
9
8
65
22
-8
-9
-1
5
-3
-1
6
17
14
4
8
-1
-25
-22
-19
-32
-11
28
1
-17
0
26
7
-31
-14
-10
-7
18
19
20
-10
-17
-1
-3
-5
-1
22
10
13
-24
-20
-14
-25
-20
-15
4
-8
3
9
3
7
-7
-20
-11
-22
-17
-8
24
21
17
-7
-11
-5
6
-3
6
25
23
10
11
-2
-13
20
1
-28
29
-10
-24
-6
-18
-23
4
-6
-6
23
7
15
-2
-16
-14
12
-11
-7
23
1
-30
-17
-8
-14
-7
-7
-3
29
18
18
-12
-19
-21
6
10
-3
-11
-12
5
1
-8
-1
14
17
11
-18
-15
-19
-19
-15
-17
-2
1
-5
24
15
6
-21
-17
-9
-2
4
-10
16
22
1
59
2
4
12
-7
-12
1
-21
-35
20
0
8
12
-1
13
18
10
9
4
-14
-34
13
1
-22
19
12
-9
6
11
1
-5
-4
-20
-22
-9
-20
-27
3
12
-15
5
13
-21
-15
1
19
-12
-11
21
-23
-12
30
-15
-14
-13
-13
-17
11
35
27
-6
-11
-9
-12
10
-5
-25
14
11
-24
-13
6
-1
-23
2
-4
-19
-10
2
-11
1
-23
-5
-6
-11
-12
1
-13
5
29
-9
-25
-23
6
35
21
-13
-1
-16
-14
-17
-17
17
19
18
-6
7
-5
-5
-2
-7
-9
-4
-7
-6
-10
-15
24
31
19
12
16
8
-22
-18
-28
1
15
6
-6
0
3
-18
-22
-22
-13
-15
-11
9
7
1
22
15
2
-14
-10
-12
-14
-1
-7
-10
-6
-6
-3
-10
-7
3
-13
-11
10
-2
-28
-5
20
25
-2
-2
3
-28
-6
-19
19
15
19
-22
-11
-17
-23
-13
-16
-22
-24
-24
-4
3
8
-9
11
29
-22
-8
16
-18
-6
24
-17
-10
-10
19
27
23
-7
5
-8
-16
-17
-23
-1
1
-17
-5
-12
-19
15
9
23
11
11
18
-2
8
17
-6
14
11
-21
-17
-14
-9
11
-7
15
16
19
1
-13
-15
13
14
-34
14
5
-23
-16
-13
-18
-12
3
-9
-3
30
-7
22
-2
-24
13
8
-21
7
4
-25
-12
10
3
-16
2
-15
-22
-8
-25
-17
-8
-14
-6
-2
-8
-11
-11
-9
-15
-12
-17
-9
-11
-13
13
9
5
12
1
17
2
-12
1
-14
-27
-6
-1
-15
-17
11
-9
-10
14
-12
-21
-11
-8
-2
-10
-20
18
-15
-11
19
-24
-21
-6
-16
10
-3
-23
28
4
-6
3
13
-21
-23
-22
14
4
7
-2
-8
13
-11
-2
1
27
11
27
-14
-15
-2
-2
-14
-25
0
10
5
14
13
-7
3
-1
-22
-12
-16
-16
5
14
-26
19
2
-21
5
-10
-35
-9
-7
-7
-13
-9
-8
-18
-13
-9
-10
-1
-8
-12
-11
-23
6
-2
10
23
1
-18
11
7
-24
4
-3
-27
11
0
10
-19
-14
-24
-13
9
8
-15
-14
-24
-2
2
-6
18
17
21
-8
-13
-21
1
4
1
-4
15
24
8
7
10
-16
-24
-19
18
17
7
-24
-11
-23
6
-6
3
20
25
14
6
16
1
1
-3
-16
-16
-21
-24
-10
-6
0
16
13
24
15
5
19
-28
-8
19
-23
-15
16
6
-8
-9
-19
-34
-21
-2
8
6
-24
-26
-24
-14
-14
8
-22
-8
28
-12
-15
18
-17
-4
-11
-8
-1
-12
-24
7
-18
-17
-10
2
-9
-6
10
-25
-10
20
20
16
4
16
-11
-5
-3
-13
-18
5
42
-21
1
7
-18
-5
-3
-32
-16
-10
-41
-5
37
-8
-27
18
-3
-11
-31
-16
6
7
-1
-20
-7
-7
-16
-3
-15
-9
3
-3
-10
-6
-14
-19
-2
-17
-10
-15
-15
10
26
12
-19
-9
-16
3
-22
-8
18
22
11
15
15
5
6
14
12
-19
-14
-11
-9
-3
-8
3
-1
-4
15
31
16
-19
-3
-18
-10
0
-9
-16
-4
-6
-12
-22
-12
-1
-13
-9
34
5
9
-30
-26
-25
-10
-15
-9
38
18
21
-27
-13
23
-14
-18
-9
-1
8
-15
-16
-13
-23
-2
7
5
14
9
11
-21
-16
-11
-4
-12
-10
12
19
10
-6
-1
-4
-4
-5
-8
-14
-15
-15
15
6
-3
2
-6
-7
-19
-12
-17
-2
-6
6
9
-1
7
19
16
22
-15
8
-3
-10
39
24
-28
5
-2
2
5
1
-3
-6
-8
-15
-12
-19
-3
24
-5
-19
16
-26
-29
11
-21
1
-5
-7
17
16
-1
10
29
2
13
-13
-5
7
-19
-8
-2
-14
-19
-14
-24
-6
-7
-2
-8
21
31
9
-13
-11
-10
-9
1
-13
-7
-19
-17
5
-14
-11
29
5
-36
11
5
-13
-7
-18
-22
-11
-10
-10
4
3
5
1
11
33
3
8
34
11
-11
3
-37
-2
42
-26
-2
18
-23
-8
21
14
-40
19
-17
-35
39
-1
-30
4
-24
-14
1
-12
28
42
-21
12
-2
4
-11
-19
-32
-13
-13
-6
6
25
-10
-11
-7
34
14
23
-18
-24
-23
20
27
12
0
5
-7
-16
-8
-22
-7
-2
-4
13
20
24
2
14
5
-19
-16
-10
-5
-2
-5
11
18
-1
35
24
11
-3
-10
-11
-19
-23
-16
-6
-12
-4
6
18
24
-12
-27
-13
10
20
13
-34
-22
-16
11
-1
-24
1
8
12
-24
-16
-14
6
33
14
-12
-9
-13
-1
12
3
-18
-22
-32
-12
-22
-18
-8
8
13
3
5
4
14
6
7
-4
-3
-8
-19
-14
-19
16
27
-12
-13
-5
-14
-10
-17
-16
-13
-20
-17
8
-21
-2
22
12
16
-60
16
49
-24
13
53
16
-10
23
-5
-13
-13
-12
-13
-7
-6
-10
-17
4
10
7
-10
8
-3
-19
-11
-36
-19
-35
-15
1
-12
-6
7
-7
2
-13
12
1
13
33
23
0
11
7
6
-10
-27
41
4
1
-11
-6
-19
7
-4
-6
7
-11
-8
32
-21
-21
-2
-6
-12
0
4
-6
-25
-17
-13
16
23
37
-9
-20
0
15
6
4
13
11
10
0
5
0
-30
-17
-27
-17
-12
-12
-6
-10
-3
26
12
17
1
-10
-4
2
-4
2
18
26
28
-6
-5
-9
5
7
5
-21
-30
-31
21
-12
-22
15
-1
-20
27
-12
-21
38
1
-11
23
-17
-25
2
-22
-6
-17
-13
-14
11
28
15
-16
-20
-22
-20
1
21
-22
1
27
-28
5
14
30
12
-5
-3
-12
-1
-18
-13
-19
