64 384 1 1
8
3
20
14
28
-10
-6
28
9
14
27
-17
-5
-5
-7
-2
-6
1
-11
-14
1
2
10
12
36
0
10
24
3
12
34
-7
-6
0
-23
18
4
5
-20
-9
-14
-4
7
-17
-10
-40
39
-10
9
5
4
-10
16
13
-12
-17
-20
11
5
-18
16
4
10
-18
4
8
6
-6
5
10
2
-8
-20
-13
-2
-15
12
4
-6
10
11
21
13
24
-7
-27
-37
25
-5
-26
12
-30
10
-34
13
-17
-7
8
11
15
19
-1
2
4
4
-12
-11
23
-7
22
-3
-15
-2
3
-8
18
14
25
19
-8
-1
9
-12
10
-8
-6
11
15
-33
16
-5
3
-16
29
-5
-10
-1
-3
-3
-6
-2
-15
-25
16
3
-16
-10
13
4
5
10
-16
16
-6
-7
2
-12
11
8
14
-7
-11
19
7
-15
0
-18
-13
-25
-2
15
-36
3
5
-14
10
-12
6
-12
0
16
-19
-8
6
16
-22
-4
5
7
1
15
8
10
3
-21
-24
-6
4
36
-13
1
15
1
0
-10
6
10
3
-15
-5
-21
0
16
17
35
-4
-11
-17
-15
9
16
17
-16
4
-32
4
4
6
21
-20
-20
-11
-22
2
-24
8
-13
7
25
-3
-34
7
-23
-15
-22
11
-25
-26
-21
-3
12
-23
-5
-4
7
-3
-4
-14
1
-1
-21
10
-7
-16
0
4
1
-12
23
-17
8
-27
1
-7
16
7
-6
-11
19
21
8
-26
1
-9
-26
18
-6
5
9
-6
-15
-2
-4
29
-18
13
-15
-1
-10
7
11
17
-12
25
-4
16
-3
4
-14
-3
13
-12
12
25
7
31
16
13
8
4
-1
18
15
-4
15
20
-1
9
3
-15
-29
-1
15
-22
-7
2
39
2
-17
-35
-20
1
18
-8
-26
-13
-14
13
-30
-3
7
-16
-18
3
-15
-23
10
-22
-1
-12
2
-10
4
22
-39
-14
15
-8
-12
14
-18
-20
1
-21
42
23
30
-3
-13
8
7
-26
-15
0
2
-25
1
-35
7
18
32
7
27
-3
-20
-23
18
-61
-2
-20
5
-12
-6
-15
18
12
-5
13
13
-18
-15
-14
2
-11
21
2
20
-33
16
5
-13
-11
-16
-21
29
7
21
-17
16
-9
-9
-8
17
-9
12
5
26
-15
13
23
-35
-12
-17
-15
-8
22
30
-6
-32
-4
-8
-16
-9
2
-14
10
4
-4
-12
-27
-29
-21
-29
-7
-8
11
-15
-12
10
14
-1
12
9
12
2
2
3
-11
-10
-9
-4
-31
1
-27
6
-10
-12
-16
-22
-26
0
-36
-14
-6
15
-46
19
35
-33
2
9
26
-18
-6
19
5
-11
-6
11
36
-18
0
9
-15
-19
-21
-21
31
19
28
20
14
-31
0
-8
25
-18
-14
7
-38
1
-2
-11
4
9
17
-21
24
2
26
-28
3
-6
7
-1
33
13
9
-12
-25
-15
11
-36
4
-14
-7
7
-5
-15
-9
36
-6
-10
-7
5
-16
-20
20
5
-2
2
-16
35
-15
27
-1
31
42
-38
13
-4
5
-29
22
-17
31
3
20
6
-11
25
0
10
-2
17
-5
32
-31
-6
5
-10
-1
19
-16
-1
3
-8
3
-6
1
15
10
17
1
3
-4
-11
19
-12
0
10
1
8
-4
-2
22
12
-31
18
-5
-41
7
-39
-23
7
25
6
32
-31
5
15
-2
-1
-9
14
-7
13
-15
3
5
8
26
2
-16
-6
17
20
-7
-5
7
-14
-7
8
-5
-33
31
1
-22
1
-5
-7
3
-36
10
1
8
2
20
-4
-5
-3
14
5
-20
38
8
-6
5
6
-16
-40
-9
9
14
7
-3
11
-9
-23
-18
-37
4
-18
-16
-14
-27
23
2
-21
-7
-32
17
1
9
-23
35
27
35
5
3
-16
-12
7
-14
1
-11
18
-12
-2
20
-10
17
11
29
8
-26
0
9
1
-12
-4
-1
-12
12
-2
-15
10
-34
-3
13
7
-20
-33
1
-3
23
13
6
-9
-5
-26
-10
5
19
6
2
8
-18
0
19
-20
-1
-32
6
-16
6
5
-16
-3
-32
-26
-12
23
11
52
10
-10
13
0
3
52
10
5
-11
-28
18
-15
6
-20
-28
13
-34
22
-4
-23
5
-36
-3
40
-27
12
7
-33
-5
-32
-32
10
1
6
-14
15
-15
0
19
-16
3
5
-16
-9
35
-18
-16
-2
-4
-14
24
11
3
-21
13
-7
37
1
29
8
-21
18
3
-5
-3
4
1
33
-5
34
4
-3
-48
27
-16
22
0
-4
14
10
-4
10
43
-14
-26
27
18
-26
-1
22
8
5
-10
4
8
18
6
-8
5
26
3
16
10
13
9
-23
-18
-19
-6
-11
-14
28
9
-25
20
3
-3
-2
-16
15
-27
13
-3
-4
-11
8
-5
10
-22
-14
-13
-6
-9
4
-2
25
22
-23
13
-29
-15
22
-3
1
-6
-6
-1
-11
-23
9
-26
14
4
-25
27
7
-33
-6
-6
15
-5
11
17
21
4
19
2
-12
-1
-3
-14
28
-12
-19
-16
7
15
14
18
5
15
-8
-19
-14
14
26
3
55
-3
-6
13
54
-25
0
-5
-11
4
14
18
23
-13
8
-14
1
-14
-12
3
5
-10
21
-27
14
48
19
33
28
21
43
13
11
3
-10
-21
23
-9
15
-16
-6
-3
-12
1
-20
-9
-8
23
4
-24
-22
-8
18
3
-4
-27
-16
3
30
-28
23
-28
13
34
-8
-36
6
6
-8
-6
8
12
2
-5
-30
1
1
0
15
19
-1
37
-3
-14
8
20
-48
19
9
12
2
46
17
5
13
-8
-12
35
26
-18
19
13
-31
-9
-33
-10
11
20
-20
18
3
-26
-1
8
-6
-23
-16
2
3
-16
19
8
-19
-7
-19
35
6
-39
-2
-22
5
30
-16
-5
3
12
-17
-15
-8
8
6
47
-16
-12
-3
-8
-13
9
-28
2
27
3
7
-2
28
-17
17
0
20
6
2
30
1
-6
5
7
-24
15
-7
6
22
-27
-3
1
6
-1
33
2
-7
-28
-8
4
5
-2
-5
-5
-9
-26
30
-21
13
-2
6
-9
-13
-15
-8
-12
-5
20
15
-24
-9
-17
0
10
10
1
-2
-13
-8
-6
25
-7
1
5
2
11
13
-2
-12
21
7
-22
7
20
-4
-6
-44
18
-19
27
16
11
7
9
12
21
15
-7
8
-27
-5
-16
-23
-2
-18
28
6
22
-13
-8
-13
-1
-8
-30
5
11
-3
-17
10
2
6
4
16
7
31
11
-18
-1
1
16
-6
15
-35
21
16
-4
-25
2
47
-12
20
-23
38
-8
6
6
-7
8
2
5
1
20
-2
-6
-4
10
-10
-8
32
-10
7
-17
30
-2
-35
21
-7
3
-14
4
16
7
20
-14
43
-19
-4
7
-4
-1
13
17
13
-1
-25
-7
22
35
21
-3
9
-36
11
43
-14
24
10
8
-8
1
23
1
-8
-22
5
8
11
7
15
33
-18
31
28
13
-30
21
17
-13
-20
12
6
-5
-12
10
-12
11
6
12
-1
3
0
15
-8
-14
-6
-14
15
15
-18
-25
-1
-19
23
17
2
-8
8
-13
-19
-8
8
-3
-23
40
1
7
-10
13
-21
-3
-35
-12
16
18
-18
-12
25
11
6
-16
-17
-29
-7
-22
37
-2
8
-16
-13
4
-2
2
-2
-2
7
22
0
28
-10
-5
-13
22
15
-22
0
-6
-13
-5
-4
-15
-1
-4
12
28
9
-13
2
-28
-14
15
17
15
36
-15
-16
-10
8
2
5
31
3
-17
-10
-2
1
9
36
12
-28
-29
4
-16
4
1
2
8
14
1
11
1
6
36
-19
11
6
-9
-13
-11
20
-7
-10
1
13
-36
-16
15
-2
-16
-15
12
10
26
-4
26
-2
-40
-4
-9
20
6
11
12
-8
0
38
-3
-1
-17
-1
-11
-16
13
-20
-9
-4
29
1
17
-12
-5
-23
7
7
17
20
-12
2
18
-14
-2
4
-11
-19
-12
8
44
2
-16
-16
18
16
-10
-3
10
-7
15
-23
22
34
-2
20
-9
-20
4
1
15
2
27
22
-18
-20
19
-5
-24
-7
-12
8
3
-14
11
42
28
-50
2
17
35
18
-11
-25
5
-12
13
3
40
13
-9
32
11
-7
-2
-21
10
10
14
5
-24
-46
11
-22
37
-6
6
-3
-14
-15
0
-31
-15
-15
11
-15
5
-30
-1
4
-26
0
14
24
-5
4
-1
24
-19
-4
-22
22
-11
18
-7
-5
-52
29
3
1
0
-4
-31
-2
-12
-8
-25
7
-1
-6
-2
9
-21
-7
0
1
10
22
1
30
3
23
21
-3
-11
8
4
11
-24
22
14
-1
-13
-19
19
18
12
11
8
-2
9
-5
18
-6
-9
10
-39
-2
42
-11
11
17
16
-10
-2
22
0
27
-25
1
-8
5
-29
-15
-3
3
12
-26
8
8
27
16
-2
11
14
-12
12
-7
15
-18
13
-32
13
17
23
2
-18
21
51
10
10
-1
-17
-10
21
8
20
11
-2
6
-41
2
22
12
-11
0
3
33
-19
5
9
-6
-10
7
7
5
-8
43
18
-15
14
-26
23
7
27
38
-21
18
-17
-18
14
0
-12
-7
14
-12
-15
31
2
2
-6
-34
-14
-7
4
33
9
-3
-30
-5
9
12
12
-5
-6
-17
28
-2
-7
0
-14
-26
3
-1
30
3
0
-21
-2
8
0
19
34
-4
19
1
6
-19
13
-19
-3
-12
-20
2
-10
1
15
27
17
-12
14
-15
-29
38
-14
26
-11
-13
-18
2
5
-11
-16
2
3
9
13
8
17
10
-14
26
28
-9
30
18
-18
6
15
-33
-34
25
2
4
-12
17
22
-8
6
8
32
-24
7
-48
-7
-21
-3
-15
9
38
32
-18
-3
-12
16
-12
-14
21
13
-28
-1
-19
12
16
-16
-6
-12
4
55
-22
22
36
-8
30
12
7
19
25
-30
9
21
-24
-48
12
-25
-4
-28
6
10
-8
-4
-23
15
5
-20
46
15
13
24
-2
4
6
-27
-3
-13
-5
-18
-20
9
0
-12
4
-21
-24
2
24
-3
5
31
10
35
-8
7
-23
31
-9
-2
-9
-16
-13
18
-23
21
10
-17
5
-6
-3
-30
8
-31
-12
-23
-7
-17
-12
9
-17
0
-7
-25
-13
-4
36
20
-3
11
-15
45
42
-4
-11
3
0
-8
-20
-2
6
-16
0
1
5
16
-34
-3
-10
2
7
-21
10
11
-24
2
-35
-9
-30
-4
-3
15
15
9
4
-20
-3
0
-29
-4
8
2
-1
-7
-13
-1
8
16
34
-10
-17
15
9
-15
-8
4
-15
-3
-28
6
21
-16
0
36
-12
-8
2
43
-5
16
23
36
-21
22
-18
-4
-21
-14
-26
-26
-59
10
-13
-8
18
12
0
-2
2
-3
5
8
-1
-16
12
1
1
5
-25
-1
8
-16
11
0
-44
-27
13
20
-47
-13
-16
-1
-14
30
-9
18
-4
-9
1
0
18
-18
-26
3
-2
-13
-9
33
8
-26
-14
9
-34
-2
9
-18
-28
8
-12
-2
19
3
26
11
-31
-2
-13
-3
-22
-30
-44
-21
14
-10
4
-14
-23
6
-1
-38
19
-9
8
-15
-3
11
19
17
-13
-26
9
3
19
-9
-2
22
-16
-14
-4
10
2
-21
26
-18
-7
12
-32
-6
-26
8
-22
6
-16
4
0
3
-24
16
6
30
5
5
-25
27
26
-4
3
12
-23
21
13
9
-28
-4
5
21
13
7
2
-6
-1
-4
49
25
12
-8
-30
-31
1
18
25
-8
8
-32
-8
20
-9
-2
18
-11
-34
17
-13
-2
17
1
20
-17
-12
14
-15
0
-22
1
18
-30
-10
-8
3
13
5
-1
25
-4
19
-1
12
28
-15
-31
-41
-9
-5
-11
5
-1
25
-7
16
-18
1
3
-1
2
-18
-1
2
9
-13
-29
-6
-18
-14
26
-27
6
-9
-18
12
-7
-13
24
11
10
-25
-23
-7
-3
3
28
34
12
27
-13
17
-24
-19
-10
-6
-24
-11
-17
2
16
1
7
-4
9
-17
-17
27
-21
2
7
-21
23
-25
-2
49
-5
9
-28
-12
24
-15
17
-27
4
12
-2
5
-2
-21
32
15
-25
-41
-34
9
-12
33
0
9
-2
11
-4
11
-27
11
-20
-2
12
-5
-4
3
14
14
8
40
3
7
-14
-9
-2
-12
0
8
0
9
-21
21
2
40
-10
-3
1
-6
6
12
-5
-27
-33
-6
5
2
-27
0
6
-1
-15
-4
16
-9
11
12
0
-61
-12
7
5
-12
-10
-11
-28
13
43
2
-24
-10
-16
5
6
13
21
-17
-11
-3
-19
-15
8
-27
2
61
-8
-24
16
9
19
-23
52
13
15
-2
-9
14
2
1
6
-11
-12
-22
-4
12
-3
-5
32
-10
-1
18
-7
-28
-6
-1
-24
5
8
-37
-11
-22
-16
-8
-11
-12
-4
0
-4
3
-19
11
-14
5
-26
-9
11
3
21
33
11
1
-1
-3
20
-19
-17
-4
-6
0
-16
-8
-5
-24
-32
14
37
34
-26
8
14
-7
33
29
-8
-2
-20
10
-5
11
-26
5
2
-2
-13
-16
16
11
16
-29
-34
7
-20
-27
-18
30
42
-7
-22
-4
-14
-4
19
16
6
-10
0
21
3
-5
-8
15
12
-31
-25
4
16
10
-30
-15
8
16
16
-12
-21
14
10
-10
6
18
16
-2
0
-23
-2
9
-1
-22
-12
-21
17
6
12
23
-6
19
3
-4
-10
-19
-2
16
-6
2
21
-37
-27
-17
15
-26
5
-7
9
22
10
-12
-5
1
7
-36
27
14
6
-9
14
-6
18
16
16
-17
0
2
-5
8
10
9
12
-20
19
-21
1
-14
-3
28
1
-28
-10
13
-17
-11
-4
-19
1
-18
5
-3
39
-13
14
-32
-12
-7
4
-15
-34
-6
-38
-15
-27
-37
-17
-26
-1
-21
-14
-2
-8
-24
-14
-1
-16
23
-8
15
7
8
13
-33
19
-1
8
31
-16
18
-11
4
6
-10
-16
-22
-18
-9
-22
9
0
-22
-18
-26
25
-13
-20
8
-4
-6
-43
-32
24
20
27
-16
-24
-9
-33
35
11
14
-19
16
-4
-29
25
9
16
5
-7
10
-53
9
28
11
12
8
3
-6
-11
2
-8
13
-3
-8
15
2
5
40
-3
2
-6
-3
-6
2
13
30
-23
-5
3
-4
26
-1
1
2
-18
32
-18
-9
3
-12
26
4
-9
26
30
-6
47
4
-7
9
-7
-29
19
10
-35
-3
0
-6
-55
8
-7
6
-24
-11
1
-11
1
14
21
-1
-19
-9
-33
5
-1
-14
-17
20
9
-23
-1
-33
-22
28
3
13
11
23
-1
-16
22
-25
-5
0
-22
-10
-17
-13
3
3
5
29
-1
-9
19
14
-20
-3
-5
6
-7
-8
2
-19
14
36
15
-12
12
-22
0
-6
24
-23
-12
21
14
13
2
8
-5
-15
5
-11
10
-29
10
-2
-11
-15
-1
-34
26
9
-9
-1
-3
8
-11
9
-1
16
7
0
-6
6
-18
3
17
10
3
7
-9
15
-3
2
-4
40
-5
-15
-10
-26
-11
-30
28
-51
-10
-15
2
0
28
-11
-15
-7
-11
-3
-6
11
-2
-13
14
23
-13
-8
5
-7
-19
-3
-27
-29
12
6
9
-15
4
-19
4
-27
-9
3
-6
20
-10
-12
-12
-28
-5
25
1
1
26
-20
-6
34
-16
-23
-6
0
14
7
0
40
-9
-8
-12
14
8
-2
3
11
-2
-17
-5
-14
-5
-17
17
9
-11
-20
34
-2
-14
11
-1
2
-50
16
-5
7
1
8
-29
-14
26
10
-25
-14
10
-10
-32
4
-9
2
-20
-15
20
3
2
6
-8
5
17
10
-4
17
-9
3
-1
23
15
10
1
-18
-1
12
-11
-25
-9
-2
24
14
21
14
-26
-36
-24
31
-5
-14
-5
1
-12
-2
10
37
10
-16
-2
5
-15
25
2
6
-19
-13
8
9
5
-25
18
-26
20
34
-16
-11
-22
25
-1
27
-11
-4
-34
-12
9
1
16
9
-4
13
19
21
2
-1
27
-9
4
11
-2
-25
-2
-6
48
7
-8
-39
7
7
-30
20
-36
16
-11
-24
28
-30
0
-6
-25
-20
-14
-1
46
-13
-1
-14
-11
-17
18
-15
15
-18
-28
-20
1
-13
-7
13
-34
-8
10
-9
-9
28
-21
-3
-5
-5
-9
7
-22
30
-26
8
29
-15
0
5
2
6
6
0
-10
-6
-10
-8
-3
-33
-32
9
14
-9
5
26
0
9
27
0
-4
2
10
-3
4
-41
-8
25
3
4
0
4
25
-10
-12
-3
1
28
21
11
-19
13
13
44
-39
-20
7
5
8
-4
-12
-7
-5
17
21
-24
24
-2
30
12
5
-9
8
14
4
1
-9
-13
16
-13
-6
7
-20
9
-32
9
-20
-17
-4
18
7
-12
26
-29
-26
13
-15
-35
7
19
-13
-38
-13
-34
-56
3
-37
14
-32
14
-7
-11
-12
15
-15
6
-5
-20
-10
2
31
-23
35
25
1
19
-6
3
-49
27
-17
15
-16
-8
-2
15
-26
60
34
10
-20
11
-20
10
24
37
17
-4
-22
-42
-14
1
7
-12
-5
-8
5
1
15
22
0
8
-31
-36
3
6
15
-24
-7
1
44
-15
-12
-8
-16
-12
-21
-6
-35
7
-19
-11
12
-21
12
-14
14
-13
-6
3
-10
1
-18
13
34
-10
-21
6
-5
-19
-6
-10
-14
14
-13
17
32
-13
23
3
-16
-3
2
8
10
-9
1
-2
-12
3
-5
28
-21
49
29
-19
12
11
-30
23
-2
3
10
-12
-7
26
24
20
9
-5
30
9
-12
-7
-36
-6
4
-6
9
20
4
-17
7
4
15
-1
0
-13
14
4
-22
-11
-26
5
-16
-3
0
2
0
5
13
13
8
2
14
14
-16
12
-6
-4
15
9
15
-8
17
-3
12
-3
24
7
33
-4
-25
-17
-15
10
1
-7
8
-10
-23
-2
-14
-7
22
23
5
6
-1
-18
-8
28
-9
22
-3
-3
1
-8
25
10
-13
11
11
1
1
7
19
-9
3
-23
2
-11
-27
11
1
15
24
4
-15
-30
21
17
12
-4
2
3
-3
-2
-13
17
3
-7
-12
-6
14
0
-2
2
14
24
-2
1
-3
12
4
-9
15
17
-28
-1
-17
35
6
2
42
1
5
18
-8
-10
-7
-23
26
-33
29
-10
-1
-19
-9
-29
-1
12
-27
1
-1
13
40
-27
-10
1
10
-34
-3
5
35
16
-32
18
-28
1
1
7
-25
-30
-10
24
8
19
8
-22
-14
30
21
-2
12
1
15
0
13
-21
15
32
20
-6
6
21
-2
11
7
21
-13
-18
-2
-13
0
6
20
23
-10
-9
18
-31
0
-34
24
10
-2
6
3
-48
-13
-2
28
-17
54
-18
29
-27
-6
-17
6
25
-8
-6
-36
-15
-11
32
0
-3
19
0
22
16
25
-4
8
12
-28
-4
23
6
4
10
35
14
15
34
11
23
-14
-23
-36
10
10
-13
27
36
2
13
5
1
26
0
2
-17
-35
15
5
5
18
-3
-29
-21
9
-19
-21
-8
15
10
33
1
22
-2
19
-16
20
9
1
-8
-2
-2
-2
-12
2
-12
-19
22
-1
3
-14
10
-5
33
0
0
-16
-11
-7
6
30
1
25
12
-9
9
5
13
-3
-14
-4
-7
9
-2
-11
-9
-25
-7
-10
-8
-17
-10
-1
18
-15
-14
4
-54
-8
9
-5
-7
-3
-19
-7
-35
17
5
17
8
21
9
10
-1
18
7
29
18
3
-3
14
-5
-9
6
5
-3
18
-11
-18
-14
-17
2
-17
-14
-8
16
-22
-16
28
27
7
11
-21
-16
11
2
-3
9
-29
-1
-33
-20
0
-29
8
15
4
-11
-16
15
-24
-2
1
-10
24
-1
17
12
23
3
0
-24
-9
8
3
17
6
2
0
-4
11
8
27
-10
6
-5
-6
-6
-16
19
-13
-8
-5
-17
10
-30
17
-10
12
-6
-5
3
19
11
-4
-6
15
17
11
-4
-16
-10
6
15
-14
-9
-7
-26
34
-13
-21
-18
-21
13
-23
-5
-3
4
-1
12
-2
-11
6
-8
-11
36
7
0
21
0
6
-14
24
-13
3
-8
8
-19
-4
8
10
3
-19
1
1
43
-7
-4
-21
-18
3
0
-16
7
22
3
21
-18
28
7
-25
-8
-22
-29
19
8
4
-10
-3
-17
-9
2
-3
-6
20
0
21
-10
4
15
28
-5
15
19
-9
-2
20
15
-13
-6
8
-4
32
10
14
-4
-5
13
-12
18
30
9
-2
-19
-4
-7
-3
10
6
-7
-3
3
5
-11
-8
11
-19
-7
0
18
13
-11
-13
15
-28
-18
21
2
20
-16
27
-8
-3
11
20
-7
8
0
-10
-1
-8
-11
1
-6
-6
29
13
-13
-16
10
10
-8
8
-8
-19
-7
6
20
-38
-28
34
19
-11
3
33
18
2
11
-41
-26
-16
-6
10
-6
7
-19
-36
-10
21
-23
15
10
-10
7
-19
-1
-9
-10
53
-15
-14
18
30
-6
21
-12
6
-15
-18
-22
-8
9
0
7
5
37
19
11
-12
-18
-8
9
-19
11
-10
12
20
-23
-23
0
9
-6
1
27
26
6
8
-17
-4
-5
18
10
-8
-21
21
-41
4
-21
0
10
-10
-22
3
5
-16
6
-9
1
11
-15
-35
-4
4
4
-29
-12
0
-16
5
-12
-31
-30
-1
-3
6
3
-27
9
-12
-12
-17
2
-4
7
-11
-13
8
14
3
4
5
2
26
-9
16
-26
20
4
-16
11
-37
-14
-11
-9
14
-21
4
8
-15
21
6
-18
-12
-2
-11
4
27
4
36
-14
5
-20
18
1
-8
-17
-5
-7
21
-3
21
-9
22
32
1
-26
-24
-12
-33
-21
-6
19
-11
-7
-18
-5
28
-6
-13
10
14
10
15
30
2
8
37
-3
-15
8
20
12
-5
14
-2
-21
-6
-13
8
22
-14
-3
17
9
-16
-13
-5
-6
-15
-4
15
-1
27
-1
15
-14
1
-27
-19
13
-7
-13
15
6
10
11
2
-31
5
-27
-18
-19
10
-19
-3
-19
5
9
15
-8
-21
-2
6
6
4
1
16
-1
34
14
-45
13
-16
-27
10
12
6
24
12
-15
-21
-30
-47
-19
-23
7
-25
-18
-9
-10
35
-2
-8
0
-18
-36
-2
-10
-27
-10
-3
-5
19
19
15
2
16
5
10
-11
39
-6
16
-1
-31
8
12
-16
-22
23
-1
34
18
17
-31
17
15
-19
2
-12
-24
-32
-25
-11
41
16
-16
-7
42
-19
37
10
-27
11
13
13
-16
19
22
-67
-1
-32
16
14
-5
-20
4
-3
-10
-4
-25
5
-3
-2
0
18
-14
5
-14
26
-35
8
-32
16
37
33
14
-11
14
-18
22
-8
13
28
21
-9
-1
-34
-12
14
34
-25
11
40
-2
-25
-7
-7
-19
33
-17
46
5
27
19
44
11
0
64
8
2
49
17
-7
11
-7
-28
-30
17
-24
-24
-8
3
-1
-31
-11
12
-39
6
-38
-6
-23
-6
0
-27
13
-2
18
3
-23
-2
18
6
15
-4
-3
18
-24
21
37
30
19
-7
-8
5
-11
5
-33
-14
39
48
5
11
-27
-25
14
39
-61
29
-11
-6
-8
-5
3
16
-27
5
-15
3
-57
-20
15
-28
1
21
-59
-1
8
2
15
-8
8
-9
9
9
40
-7
3
-34
7
-18
3
-24
2
-29
14
-12
-51
1
21
37
46
30
11
-20
20
11
-10
12
14
-24
23
22
1
4
9
-31
-42
15
10
38
-2
-14
-4
18
-18
-19
9
-9
14
-7
4
-2
26
12
-47
-14
-6
30
-19
18
59
31
-6
1
14
-18
-9
-39
-2
17
-23
3
-51
-12
-22
-19
25
-24
-12
4
6
-6
32
0
-18
-10
20
-11
-12
23
-4
16
-15
5
-11
-19
-9
-23
8
17
-19
2
35
-13
-29
20
56
-24
-4
28
15
-22
-28
-3
24
5
-12
-6
32
-24
13
-22
12
-16
6
13
-3
28
-13
-17
2
-5
-8
19
16
4
-5
9
-9
18
5
-34
5
2
-14
24
-5
-2
-27
18
11
-19
2
-5
-1
-66
8
10
21
-33
18
14
-8
17
-11
8
-8
-42
3
4
12
27
-13
-18
-26
-2
7
-14
-27
-19
26
17
-6
3
6
-2
-1
-1
-21
-3
6
-6
35
18
-24
16
-1
-24
7
0
-1
-5
-4
29
-1
-15
-11
-5
-11
-2
5
12
12
-4
37
-23
-21
-11
2
6
14
-18
16
-13
-6
11
20
-20
-23
6
10
-19
-6
-14
-1
-12
-15
13
9
18
20
-5
-5
-17
4
8
-13
5
-6
35
35
-18
-17
8
0
5
2
11
-18
7
-34
13
21
7
-6
0
4
-22
13
9
22
-4
7
21
5
-13
-4
-2
6
-19
-10
-11
33
-9
31
24
-14
20
18
-23
4
16
-13
-9
10
17
6
8
10
-15
-22
-16
8
5
3
-11
21
0
7
-8
5
-14
2
0
-12
-6
-9
-12
-17
13
-9
2
0
-18
11
-9
-6
26
20
8
7
12
15
13
13
-10
9
-14
23
19
2
6
10
-9
19
2
7
17
6
-1
6
7
-10
23
9
0
14
26
0
15
-4
-10
-14
-21
-16
-10
-9
0
13
-8
29
-18
-30
11
8
3
4
-11
1
5
1
-12
-14
13
-11
-3
23
9
2
36
30
-14
-6
-4
-18
2
1
11
9
-26
-4
-3
20
18
-6
6
-1
-5
37
-1
0
-11
17
12
2
1
18
7
0
1
41
-1
-1
-22
-12
-1
-8
-1
9
6
8
13
14
-40
10
7
-20
27
6
9
4
-11
-4
-15
-2
6
14
-1
-13
-6
2
-1
6
-5
1
-12
9
38
2
12
14
-31
14
17
-31
-4
9
23
0
12
1
-27
3
-7
9
23
-8
5
-3
-11
-33
7
-6
-13
9
18
-4
-1
12
1
10
-25
4
-20
-24
-10
12
-16
4
5
-6
-13
-20
-12
-6
16
17
-2
13
6
27
-1
8
14
15
0
23
15
18
4
-15
-13
-8
-15
-2
-11
8
-2
21
11
11
-4
6
-9
22
-42
10
-8
25
7
0
-6
6
-3
1
8
-17
10
-4
-32
-12
-8
-34
4
-18
-14
-26
4
35
-16
-4
21
-27
24
9
-8
-5
-6
-24
22
-3
14
-21
40
-31
-7
-24
-37
-26
3
29
-20
12
-4
17
21
22
-8
6
10
-1
10
7
11
0
-8
-27
-5
-22
-9
1
7
52
3
-35
30
20
17
7
13
-1
16
10
17
-30
9
-29
-7
-19
43
-11
-5
0
-2
11
-20
-12
11
-1
-11
-62
-4
-1
-35
-10
-23
2
-9
-26
-7
21
-19
6
-21
-11
-1
-2
-16
-10
0
15
13
-3
4
-9
-3
-9
18
-32
2
23
22
-19
-35
-5
11
-1
19
12
-49
11
-23
-7
5
3
-8
7
13
-18
18
10
-8
19
-13
7
-11
-2
9
-53
6
1
-9
-17
-16
0
3
18
22
-9
19
16
-7
34
3
-14
-3
19
20
22
-20
-1
36
22
6
20
-14
16
15
-2
5
3
8
3
24
-30
-35
2
-5
-7
3
-6
4
-19
-2
21
-10
22
-24
-4
12
0
-42
29
18
6
3
9
30
-14
-10
37
11
-26
20
6
13
16
15
-12
-20
-19
17
14
-22
25
-3
10
-44
-33
-9
-25
7
14
24
-22
20
8
-11
4
6
5
0
4
9
0
13
-7
19
6
-11
-10
-5
21
-12
7
-11
-21
6
4
-14
-16
-3
7
9
-5
12
-6
13
6
-9
2
8
1
26
-3
-20
19
14
0
-2
19
14
7
17
-6
-3
-12
-6
0
10
27
11
-5
-7
15
-22
20
15
6
-1
-7
-1
0
-13
12
-6
-10
-20
-11
23
-29
1
18
10
-9
14
4
14
-4
-16
15
11
-33
-18
0
-1
3
11
-1
-9
-25
-13
10
-21
9
7
19
-6
-7
-21
-13
-8
12
20
5
-19
-27
-4
-40
-17
20
-37
3
-10
-4
-23
1
7
8
-11
-10
3
1
-13
-11
11
5
4
33
-20
-12
-8
16
10
44
2
2
6
-5
22
-14
4
18
-7
-6
-3
-8
31
13
19
-15
21
-3
4
15
-5
22
5
-19
52
-12
0
1
-15
2
-28
-14
-13
-20
-10
-3
-22
5
8
11
-7
-31
37
-18
8
-2
26
0
-11
-19
11
-6
2
-46
4
8
3
-18
4
5
17
5
8
4
-1
-13
3
22
-28
26
-3
17
23
-19
4
-5
-10
39
19
0
3
-1
-5
1
-26
-8
19
25
32
-44
-3
8
17
-24
-14
-2
9
-27
-21
14
14
6
-1
-8
13
1
15
15
20
39
-7
-2
14
-11
0
23
10
16
4
22
-37
32
-49
-5
1
-7
-28
22
-12
25
-14
8
31
9
-15
-7
-8
38
-18
-3
-3
-5
19
6
-34
14
10
21
-7
-27
-27
3
-12
-15
27
-3
-13
-18
-6
-6
-1
4
24
-23
-14
-7
21
14
-30
36
-18
22
25
5
-12
7
-6
-3
-18
5
-34
-12
41
21
-14
29
-5
-13
-14
-14
-16
37
-2
3
28
-37
26
1
2
-12
3
-12
10
21
50
-23
19
-20
13
-3
0
-14
-3
-5
-11
-3
7
23
38
8
-16
12
-13
-4
33
-33
-6
-23
-19
21
12
-1
-4
0
26
0
-28
-16
-31
-9
35
-28
-5
26
-3
8
-6
-13
-30
1
-31
32
-8
-18
-1
1
-12
-11
26
3
8
-6
1
-19
22
-16
2
-1
-21
-3
-22
-22
-21
27
7
-36
20
-11
16
-16
13
9
-7
-8
-17
-7
29
-19
-25
-19
19
23
6
3
6
9
-14
-33
15
-46
-20
11
47
-15
-18
-9
3
-2
47
-8
9
-39
17
-20
10
11
-7
-12
-34
8
3
59
-7
2
-28
-24
-19
-15
-34
-24
-9
-6
-4
-8
-8
26
-12
-30
-1
18
-8
-13
10
10
-32
-7
-9
-26
-1
11
6
-17
11
0
28
-26
4
13
29
-10
-5
-24
-4
5
-32
-12
-18
-20
23
-6
-34
4
20
0
-19
19
-1
13
31
-4
-10
17
1
28
-38
-15
-32
14
-19
-9
-4
-14
-19
-31
7
-43
32
7
-3
0
14
-15
-24
-40
-15
-11
7
-9
-9
-2
-19
9
6
-11
-29
4
9
-25
11
26
-1
-8
1
19
-1
-3
7
-18
-15
16
7
-13
13
18
-11
25
13
-10
23
20
-24
-3
-2
-4
1
-21
0
-5
-14
-16
-33
8
-13
3
-18
18
4
-4
-38
10
3
-12
3
-17
-19
-5
-4
-26
8
-6
-1
11
-15
11
-12
-26
-8
17
19
-3
2
-30
10
19
26
-20
-5
29
0
-3
-13
4
8
37
11
14
-7
-3
23
3
14
4
9
17
-3
15
-15
-1
-6
6
31
-37
6
-12
14
-19
12
2
-4
-27
-1
-18
5
8
3
24
11
-15
7
18
-14
-6
-14
12
-12
6
2
10
14
-9
1
17
-1
-3
2
10
43
16
-45
38
-11
-1
-14
-5
36
-3
-5
10
19
17
20
5
21
1
16
-22
-1
3
-2
-13
14
-9
2
-4
13
29
-10
29
16
-5
-6
14
-27
-10
-13
-2
11
15
31
-18
-8
9
-5
-13
-12
6
-3
-20
5
-7
-9
-7
3
-4
4
-6
-14
25
-2
0
-23
-10
-22
-6
6
-1
-39
1
20
10
-17
8
14
-18
-6
-9
10
-1
-9
-1
5
10
4
-8
7
4
34
-15
6
7
-4
-11
50
2
16
13
-14
-4
-10
0
-21
-13
10
18
22
7
27
-37
4
-7
21
-2
7
-14
-7
15
25
-19
3
-30
-5
9
10
-8
-1
15
14
-25
14
-29
-16
16
-27
-10
-12
21
9
31
-8
0
-1
19
-23
0
9
-4
-5
10
14
-9
0
21
-5
8
-21
34
-15
2
33
-20
-29
16
-9
-7
3
12
-8
2
-26
1
-1
-15
-5
-32
7
9
-25
-17
4
-10
19
11
-14
-15
12
-4
2
-1
-1
-4
-8
20
-9
-1
-5
34
1
17
-10
12
-5
2
-21
33
-2
8
6
5
4
29
-7
-9
12
31
-6
-7
23
-12
-5
9
-12
-31
49
14
11
-14
-21
-1
18
-4
-21
-8
-8
22
-30
10
21
18
8
46
13
-8
-3
-5
-19
-25
-7
-21
-12
17
-5
-5
-11
0
-24
40
6
12
-5
-6
-23
-33
1
5
12
-2
11
-26
-30
-15
22
10
5
16
15
12
39
11
27
30
4
-11
-23
-17
-6
-18
9
11
7
11
5
-8
-12
1
2
6
9
2
-3
18
-1
26
-13
-1
-28
6
13
3
22
5
4
-11
13
-3
-14
-2
17
8
5
-4
-4
-8
-12
6
3
-25
-35
-29
-14
-27
12
12
8
11
-22
10
6
14
-11
-17
5
-4
1
-12
0
14
-17
-49
3
-7
8
34
29
11
12
17
30
11
6
2
-44
-7
10
0
22
3
11
29
-22
18
-6
23
10
33
17
29
19
39
-5
-11
-30
18
23
9
-3
-5
0
7
24
-12
9
-6
13
5
9
-7
-3
-10
6
10
15
-20
-16
-11
-32
7
11
14
-15
-11
12
-28
15
-5
20
-17
27
34
23
-23
-4
8
-19
34
22
14
23
19
0
9
0
8
28
0
11
32
6
-23
21
-8
32
32
-8
7
12
-1
-23
8
-5
-22
-14
2
-22
-7
-26
18
-7
21
-12
-8
-3
25
9
-15
17
26
-32
-16
-2
7
-35
-3
16
11
14
-5
11
5
8
-6
2
-5
23
22
-5
3
-29
16
0
-16
7
-10
-1
4
-19
22
12
8
-2
-21
-18
-4
5
24
-15
9
-15
18
11
-11
-22
15
16
8
12
-4
-6
10
-15
7
12
-18
13
-7
8
-3
-10
13
8
18
-15
-9
-16
-23
30
-10
14
19
15
-4
13
10
-10
-11
9
-19
-26
17
-19
-5
12
4
-23
5
29
-39
-18
33
-3
0
-40
-28
-11
26
0
-6
12
-8
-17
2
-1
-19
5
-2
-9
4
5
1
1
-17
19
-6
2
5
35
19
3
-3
-17
2
-30
20
-13
-3
4
-20
26
-27
4
7
0
-22
-17
-36
-8
2
22
-15
-23
-24
-15
0
7
11
7
2
-19
-4
-1
0
17
-31
-8
29
-5
-14
-17
24
-12
11
-7
15
-15
-6
-12
8
19
0
-13
-18
17
-4
-4
-24
9
-1
15
10
15
14
-8
1
0
13
7
-2
-14
-9
-30
-18
-20
4
6
-18
-3
-8
-8
-12
7
-9
1
-2
4
3
5
-9
23
20
19
-21
-1
-5
12
-17
5
0
16
-47
34
6
-4
18
5
8
17
-7
-1
12
6
17
6
8
-7
-11
-5
5
6
-28
19
5
21
9
-13
18
2
21
3
15
9
-26
9
2
0
-8
-2
-8
-17
-21
-16
3
13
12
10
12
24
-17
4
-4
-9
-52
-2
19
13
-16
3
8
5
8
-16
30
-1
10
0
0
38
-23
-36
9
-3
-14
-18
-11
0
-10
26
-21
-5
12
-1
-6
-15
13
-18
3
12
-21
-3
-6
13
-16
10
6
-19
-34
12
-15
-12
13
34
-18
-32
4
-3
0
9
-3
7
-12
13
-3
-16
-17
7
-3
-10
13
29
-30
-17
-1
-30
-1
3
9
-17
11
-23
2
19
-3
-15
0
-7
-43
-8
-3
-14
-21
6
-14
6
3
3
31
-12
-5
20
1
11
-11
-28
5
1
-20
9
-2
-8
-35
-18
-15
-11
-9
-17
7
8
41
-28
24
14
20
-8
-10
-34
6
9
13
-10
-12
-13
-23
-8
-38
-37
-9
13
-2
-1
21
12
6
9
7
12
14
-6
21
9
26
30
14
-35
-2
-12
-4
3
21
7
-27
10
13
4
7
15
-7
6
10
-13
24
-10
-30
-23
39
18
26
6
-17
-2
12
-3
30
-16
25
-15
-3
28
32
15
5
4
2
-12
-5
-5
18
13
-38
7
-24
-11
16
-14
28
-7
-20
6
-10
-32
-14
4
-13
-31
-17
-16
7
28
-20
-12
-2
18
10
0
1
3
7
1
14
-3
-30
-8
-11
19
10
-2
-4
-2
12
1
16
-13
14
16
-24
6
2
14
15
-5
5
-9
10
15
-28
7
-47
6
-16
27
-15
-15
-9
37
1
-12
1
-1
-3
-44
-6
37
25
-8
18
12
0
4
-1
6
4
19
23
-5
19
22
-11
29
29
2
-10
10
-1
18
2
-6
-1
4
5
-20
3
5
13
-15
-16
-6
-6
-9
-14
-2
6
-12
0
-9
31
2
30
-3
35
2
-3
-5
-5
-11
2
-6
3
2
-23
-3
-23
-21
-14
41
-4
18
2
-16
-29
-5
8
-6
10
14
26
26
-4
-11
20
-16
-2
1
-4
-24
36
-3
2
3
-26
-11
25
-13
-30
2
-15
-9
4
22
17
-17
-8
-12
9
13
3
-3
-24
4
-18
-10
-9
10
-8
5
20
19
13
-8
6
7
1
8
-9
11
3
9
-5
-5
12
-21
-14
11
5
1
-10
-8
22
-6
-4
18
-24
-3
-15
-11
27
-27
6
5
23
-2
24
0
-4
-31
7
4
-25
-6
-13
-4
-13
2
5
7
-1
-27
21
-18
-3
4
-2
22
5
13
-5
-15
5
-10
6
6
5
9
-13
-13
-13
10
15
-6
-2
32
18
18
-2
14
8
-24
8
-17
30
-11
10
-5
-4
-9
28
-10
12
28
-28
-40
-15
-15
-2
22
-2
0
-22
8
-7
6
7
21
-14
-9
17
29
12
5
-7
-15
-12
9
4
-5
23
1
-9
26
-4
-13
12
-3
2
16
7
22
4
14
-19
22
31
15
12
-13
-4
-3
-13
21
4
13
-13
10
-23
-8
-17
-18
0
-10
-15
3
5
7
-8
2
20
33
17
26
-22
-11
19
20
-6
-8
13
-26
31
-6
2
5
10
4
7
0
15
16
-27
17
-9
-20
-43
24
-9
-17
11
11
-4
19
17
1
-5
18
-8
-11
6
-3
-2
-4
14
-16
8
1
7
2
-4
10
17
-9
21
-4
-31
-1
31
26
6
9
12
-9
-7
-21
-6
3
-3
17
-24
-2
12
13
-32
18
2
-10
2
4
1
-1
-15
-2
2
-9
-4
8
8
24
12
-25
7
-3
20
-12
8
6
25
-47
1
21
6
1
-13
19
2
-18
1
6
-5
1
-3
-34
-5
4
-13
12
-3
7
-21
0
-10
27
-26
-37
21
9
19
-4
-7
4
0
-1
19
-35
-4
-21
-7
-16
-24
-10
28
7
13
-1
17
2
9
-13
37
7
-3
14
-3
-3
30
8
-4
-25
16
-11
2
17
17
32
-6
10
31
2
18
1
18
16
-31
-4
27
6
-12
13
-21
-2
30
-3
4
17
35
9
29
-11
-15
7
2
28
5
-4
-27
-29
25
25
-31
-5
17
-16
14
-3
-3
34
15
4
14
-19
23
-17
10
31
19
-17
-23
-4
15
40
7
9
28
7
-16
-6
40
-7
9
1
-37
11
-13
17
-4
7
26
21
-21
21
-1
12
17
24
2
-9
-16
9
0
2
-17
1
-6
-1
-9
-50
15
8
41
37
39
-30
-3
2
3
3
-8
-28
3
16
-12
0
2
-16
6
-23
24
-7
-21
18
-6
9
-23
21
-16
-20
30
4
-1
-8
-11
-4
-17
16
-35
28
-12
-26
-12
-6
22
-18
34
14
23
19
-40
8
-6
-10
19
2
-19
-15
20
20
-3
0
19
18
-33
-1
-24
47
-26
15
-12
18
18
-15
-11
9
4
22
33
13
-29
2
4
37
1
-38
-19
-9
-8
18
-11
13
-6
13
2
3
13
-2
19
-6
17
-15
13
10
18
-3
-19
9
-10
-4
25
-13
-29
12
19
32
8
-8
-22
13
-13
19
41
-12
6
2
18
-1
28
3
11
-12
-25
23
9
-41
-11
32
-9
5
-4
-26
-1
6
-6
-6
27
-34
-5
7
-16
-19
-7
5
26
11
13
4
-8
3
-11
-7
-10
2
14
-22
10
5
10
18
-2
-6
0
-4
-15
-16
34
-30
-10
11
-7
-18
-7
-9
-8
9
-16
10
-4
-12
-24
10
6
3
-24
-8
-13
0
4
7
-5
9
7
25
-13
2
-16
-26
0
6
1
1
-3
14
32
16
-20
-7
11
13
-18
15
-7
12
-10
-4
1
15
-12
17
31
-18
10
-22
15
-16
-10
-26
11
-27
11
3
25
-2
-34
-13
-8
-12
-5
13
-33
11
-28
-5
5
-12
1
-14
13
40
-10
-17
1
-21
8
14
-52
-24
-6
-25
8
18
-9
-8
-11
-10
26
6
-32
-18
-1
-16
26
12
12
10
-8
35
3
-40
-5
7
-4
6
-10
21
0
12
-7
0
-15
-15
11
1
12
45
-3
3
21
-3
-16
23
-5
-18
-23
-3
-2
-18
39
11
-15
3
22
-11
12
35
8
30
13
6
25
17
-11
10
-28
2
-1
28
14
5
-17
-5
16
15
-11
-9
4
-14
25
0
41
-19
4
-2
-16
-1
12
-8
-9
-4
13
-19
1
-12
0
-14
11
-8
10
23
18
-12
-13
21
34
-18
24
-9
-10
12
8
-4
3
12
-4
-3
-24
-7
-21
64
-10
-11
15
-14
-22
-48
11
-5
0
-36
-14
-33
14
-21
11
-41
32
30
-7
-21
0
-10
3
-2
5
-1
9
-6
-5
-7
-21
12
-6
22
-1
-13
39
-2
-26
-18
0
21
16
14
-32
-11
-19
13
1
-40
-7
2
3
22
-23
22
3
-28
-18
5
-13
-6
1
-8
19
-38
-8
6
27
-24
-36
22
-4
0
-15
11
38
54
11
12
-4
-8
-9
-18
24
-16
17
-4
-9
-4
-8
-1
-16
3
21
-25
3
-14
8
-2
30
-10
5
13
24
6
-37
-1
11
-2
30
30
-46
4
-42
-24
-31
-17
17
11
18
-8
24
25
-11
-8
11
-10
-6
22
27
-7
14
17
9
12
2
2
-13
13
1
-5
25
-12
5
11
7
1
1
1
23
-7
9
15
5
4
-19
-25
-15
1
3
-4
13
17
2
1
-21
-6
-1
-19
-14
-2
11
-5
-8
1
21
-29
-6
17
-7
-8
1
11
11
-17
-4
-22
-7
-14
14
-6
-12
12
15
18
-21
23
8
6
5
4
-14
-10
3
23
4
-17
-6
-16
3
12
-9
-24
-17
13
-2
3
15
-1
-52
8
-14
0
3
-9
-3
-18
-3
-31
0
20
-2
23
-7
42
-8
-4
-17
-8
-6
-14
-9
-30
-16
-6
-15
8
18
-8
12
-10
11
-19
-23
-3
18
21
14
2
20
8
14
-8
13
33
6
0
13
7
-3
29
-6
-13
-38
16
3
-13
17
26
-7
16
-24
-5
-1
-8
-4
3
26
7
-12
19
-28
-5
-30
-14
-9
9
-11
11
5
27
-18
12
6
2
-17
13
-9
10
-21
21
-15
-17
-19
-20
25
-8
15
17
19
5
25
-17
2
-4
6
6
-7
11
11
-5
-1
7
-6
11
6
-10
-2
4
-1
-16
-23
11
-24
-12
-27
18
-19
4
-12
-6
-3
-9
-2
0
-2
-20
2
1
-11
11
6
5
-10
4
-21
-3
18
6
-8
1
-11
-5
-2
14
4
-6
11
8
-7
9
-8
-26
6
-13
24
-1
9
-7
-15
-2
5
-24
17
-9
-9
18
-7
18
-12
-27
1
17
-6
15
1
24
1
-4
-2
-5
5
9
-9
9
15
-10
-7
-12
24
-1
20
2
14
10
4
14
-36
4
-15
-22
18
26
2
-35
7
19
6
22
4
42
-33
20
26
6
-24
-4
-22
3
13
12
-14
11
-21
-4
28
11
-17
-13
15
24
-3
-2
10
-1
-24
-5
2
16
18
7
9
1
-24
-9
0
-1
3
19
-13
-34
9
16
-20
-9
-10
-15
14
-4
14
5
-4
-21
10
3
-16
35
6
4
7
-7
4
-11
11
-9
-18
1
0
17
-7
-1
-16
4
-10
-9
13
-18
-11
-4
9
-17
21
-28
-1
31
-1
12
12
-9
2
-1
29
-22
7
7
22
-30
8
20
-7
-20
-6
19
-19
1
30
-12
-4
-15
41
-13
-5
-9
5
-5
3
-1
-26
-1
11
-26
32
-8
-26
13
-26
-16
39
9
12
5
-24
-18
3
-22
32
-3
-5
-29
14
36
8
37
-32
16
-11
16
1
12
-1
-11
11
-5
-4
20
19
2
-12
-14
16
4
22
-2
-16
-5
-26
-3
-8
-6
-22
-11
26
-23
-11
-2
26
-12
-2
-10
4
22
56
-3
11
4
12
-16
-12
5
14
18
13
-16
16
21
11
-4
-13
19
-25
44
-4
18
-4
-3
-5
0
35
-6
-5
-4
2
-29
7
-37
-12
-17
-16
11
-17
-4
-11
8
12
-29
7
26
29
-3
-32
10
1
29
-7
-6
8
16
-3
4
6
7
14
-17
-19
-10
39
-28
-2
37
-13
-11
-9
-7
11
15
6
-21
-7
5
-30
25
-21
-4
-19
-1
9
20
-8
-17
-9
-11
-1
21
-4
-12
21
-13
-41
-12
-2
-3
37
-16
7
5
15
-35
-24
25
-6
-25
16
11
11
1
-26
26
-5
42
-38
34
3
-16
7
7
-23
1
2
-17
-19
-13
-1
-5
13
8
-24
-2
3
-8
24
-18
7
-18
9
14
-6
-18
-39
-1
-7
-1
-4
-3
-7
-21
8
11
-2
-12
20
3
-40
-18
-16
1
34
-9
4
9
-13
32
18
-13
-12
-29
-19
-4
-4
-25
-4
-5
9
12
2
-15
4
5
-7
1
11
-5
-11
-8
12
-43
12
-27
-6
-3
-17
-32
0
23
-2
13
-21
12
-5
10
5
-19
8
-3
-12
21
15
11
-5
-14
-15
30
-1
5
1
10
26
1
17
-34
12
-9
-8
33
14
3
19
16
-21
-14
-19
-33
18
-15
7
13
-3
-4
8
36
-3
11
12
42
23
-10
2
-36
15
-8
-12
6
28
8
8
4
-4
23
-9
-20
-7
10
-10
5
13
13
20
-3
-6
-16
9
-9
-15
-10
32
-2
23
-4
2
2
20
20
-34
-5
-12
-8
-27
20
-25
8
-7
-3
1
-3
19
11
-13
16
-12
-5
4
3
-12
9
9
14
-13
-4
-4
-2
-1
13
5
9
40
-20
4
-16
-2
16
-10
23
-3
24
-8
-16
9
-18
-18
-17
-8
32
-11
20
30
-8
-6
19
-9
18
2
-24
0
-9
3
12
14
15
20
5
-25
2
-3
3
1
11
3
-6
3
21
-15
-20
-15
3
0
-5
13
25
-12
10
-6
17
-15
0
-24
10
10
-10
-17
8
17
8
38
-14
-6
-4
18
-21
24
25
26
-5
-4
10
-6
-10
-28
15
-33
20
-26
-18
30
-28
-35
-46
-36
10
9
7
35
-10
28
13
8
-7
6
14
-11
8
-24
31
6
-6
-2
-20
-12
-8
8
-13
17
-10
9
32
10
-12
17
-8
-9
22
-11
-20
21
-27
-14
-15
-13
-4
11
-32
4
44
31
7
4
-23
-5
13
2
-5
0
-33
19
-17
13
13
-6
6
-2
-13
-27
-21
7
11
-2
-8
-30
-2
-2
-2
-9
2
-11
13
-4
-1
11
-17
10
17
0
-10
12
4
8
13
11
-6
-19
17
11
-40
-27
-15
17
-20
-18
-1
14
2
16
-18
-14
-35
6
-10
25
13
9
10
8
32
5
11
-8
7
29
6
24
-9
0
27
0
-7
-70
-13
8
-20
-59
14
10
1
20
-12
-14
34
10
37
-9
-5
-5
-15
-7
8
22
-1
15
-34
5
1
6
0
-5
-16
19
24
13
3
22
27
-1
30
-3
2
8
7
22
-4
3
-36
7
-16
30
2
12
14
-1
-1
-16
6
19
10
-16
21
-21
-5
-9
15
13
-37
20
27
11
22
-8
28
20
-4
15
-1
-2
-2
-18
0
3
-21
21
-19
-10
19
-2
2
-7
-27
6
-8
10
-14
-14
10
-7
7
-3
-16
-17
-12
23
-10
-13
7
2
-15
-26
-16
-8
25
-59
-11
13
-11
-6
-3
-27
11
-13
0
19
4
-8
-19
-15
25
-20
-33
-18
-8
11
-9
5
-24
10
10
-31
-4
32
15
-18
20
-14
-4
-36
-1
-25
-5
0
-16
-17
-9
-29
-4
-34
4
-11
3
11
3
-8
-4
-25
53
10
5
-21
-2
15
-27
-26
-20
32
4
29
5
10
-26
15
-4
-2
-62
23
-15
-22
-3
-19
0
8
8
1
5
27
11
16
-16
-2
-7
-3
0
8
-25
-7
-21
11
21
9
2
23
4
-15
15
13
-14
0
-18
34
26
23
13
-35
5
5
-32
26
-17
2
30
-12
-21
9
-13
-15
-10
0
1
-15
-7
2
-6
-15
-1
5
-14
-8
31
-2
0
-7
12
-5
13
-2
6
4
3
25
5
14
28
6
-17
-20
-27
-9
26
-20
11
14
-12
9
-6
21
-18
2
-10
-2
22
-8
-11
-1
-3
-8
-18
-2
3
-17
-19
-4
-25
-14
1
-16
9
-29
7
11
2
-8
-11
0
-15
6
9
-27
3
20
1
-29
-16
2
16
20
3
-2
8
-38
-14
-10
1
11
17
-20
-25
8
-3
23
-1
1
6
-4
-15
10
17
26
-22
-11
-3
11
-8
-12
-10
-4
1
-11
10
25
4
2
-2
-28
-20
-20
24
-1
-13
5
-3
-7
17
-4
20
-14
-5
1
3
7
17
-18
8
1
-2
-23
-12
-13
15
12
-9
-2
-18
27
17
4
5
-8
-6
6
1
10
1
-17
21
-27
-4
-23
-18
-2
20
22
-10
15
5
5
7
8
-26
4
2
-6
-11
8
-19
0
21
25
15
-5
7
-2
6
-33
6
10
-6
27
7
-7
-3
10
-8
-1
-16
31
-20
3
-11
15
-21
-6
8
16
-6
19
-13
-4
-20
5
-12
15
-3
-6
-12
-14
-5
-5
8
4
5
50
-4
14
8
-3
16
13
-17
3
-5
-12
35
15
11
16
-5
2
-2
-18
-21
0
-5
-1
1
-7
28
2
-1
6
6
19
15
1
33
8
-9
10
22
23
-20
11
36
20
-6
10
4
-3
30
18
5
4
-2
-1
23
-21
3
13
9
22
-4
23
-7
19
-40
19
-14
7
29
-33
9
17
-9
-15
18
10
-5
40
-10
-17
21
-4
-2
-23
-11
6
-20
-41
17
-24
14
-19
5
-27
6
30
22
2
-21
17
-15
22
0
-17
-15
10
-17
0
12
-31
-8
8
9
9
10
-20
-11
11
-24
-8
10
-4
-16
10
22
27
-8
5
4
26
24
17
1
26
-10
8
2
-1
18
3
-27
-6
6
-17
-14
1
10
6
19
2
-7
4
-24
-9
-8
-3
12
28
14
-28
12
-22
10
-14
-1
13
19
-33
-22
2
5
9
13
-11
5
-5
13
1
11
-23
-28
-24
3
8
8
-35
15
16
34
-8
-4
-28
-11
2
-9
-3
-33
25
2
-7
4
-18
-9
33
30
17
51
-18
-4
-5
1
-5
-17
2
-22
3
-19
0
-11
-2
-21
-2
-8
15
29
-36
10
13
-13
1
-26
-11
-18
18
-13
0
-25
0
0
-5
-21
-1
-35
12
8
-20
5
8
2
1
-12
0
5
-57
-8
8
-5
0
7
-11
-4
-5
9
-23
-20
9
-11
-10
10
-13
-17
-1
-11
-12
-9
20
4
10
-20
-3
-33
2
-9
0
4
-65
7
6
-4
8
8
-11
-4
-2
0
-15
14
-10
5
-23
-7
-18
23
-19
7
2
5
-11
25
-12
3
15
-1
-27
26
-15
-12
-14
-19
-8
3
-7
19
-5
-35
5
34
-18
-15
0
15
25
36
-7
-12
4
6
-10
14
0
-7
-10
-20
-7
3
4
-7
32
-38
12
24
-2
-4
-22
8
-36
-38
24
-12
-20
4
21
35
-2
-18
-4
-21
5
13
-7
3
4
0
2
8
-1
-30
4
-20
-19
9
11
1
0
16
14
-11
7
27
22
-9
-4
13
-36
-2
19
18
3
4
-1
3
11
-30
-2
3
-11
-20
-13
-5
18
-11
14
3
-9
21
-22
-3
19
13
-4
13
0
15
-20
-25
-39
6
18
-11
-8
21
3
-5
21
0
29
2
19
-12
4
-4
-20
-3
4
36
14
-6
7
-18
2
-14
-28
9
-1
8
-17
33
-9
-8
-3
-7
-3
-27
-14
0
7
4
1
15
1
-27
26
6
-28
8
7
-28
1
4
16
12
-2
10
-1
-2
1
-30
-22
-18
10
-9
5
-11
5
-29
-6
-1
-7
22
-12
9
14
5
2
-20
29
20
22
10
15
11
-19
3
11
-12
-9
-3
16
-17
3
-12
5
27
14
12
-13
11
2
-19
6
-9
-7
-14
4
9
-11
-8
-17
-25
-7
16
-11
-2
22
8
-10
-11
14
-8
-10
10
-14
-22
-27
-2
3
-36
30
3
-21
7
-8
14
-25
26
-19
-6
-16
8
18
6
8
-20
-3
35
1
14
-11
-6
-17
-17
-19
-6
9
-3
-28
8
10
-54
14
10
-11
-17
-4
8
6
-7
0
20
6
27
16
-22
-11
11
-3
-6
-3
28
-9
12
-10
7
28
2
-5
-27
11
-3
2
0
26
2
5
21
-25
-11
23
32
-20
-4
-24
-5
-5
-16
-3
-7
7
-2
9
-7
39
-15
-24
-11
15
-11
14
-5
-5
36
-15
4
-3
9
21
7
13
9
-11
4
1
-4
-15
7
-3
9
-3
-18
6
-10
-1
4
35
27
16
-15
-2
-10
-18
2
-15
23
-10
3
4
-5
-10
14
20
6
17
-1
-21
-5
6
-13
10
-14
-13
3
-3
-6
-3
-18
-9
-14
-4
11
33
17
16
-3
-6
5
19
-7
12
-11
34
21
16
23
-10
7
-2
8
11
-16
15
4
12
-2
-2
-18
-20
-8
17
9
-16
23
5
-10
15
-11
11
15
-1
7
2
19
-10
-3
-4
16
20
7
0
-5
-14
16
-5
21
9
4
12
-8
-22
17
-28
-31
4
6
-1
-22
3
9
-3
2
0
2
-11
-7
4
-11
-2
17
-16
-8
-15
20
2
-20
-6
1
-1
-14
10
30
-11
7
0
-17
-13
-10
10
-12
1
-2
14
0
6
-26
26
-7
-2
4
12
23
5
-7
1
3
-8
24
6
-5
-6
-8
4
32
-4
4
-9
-19
11
-36
-6
-5
8
-11
-16
-4
-12
-11
-2
-1
19
13
1
11
-5
16
-4
-17
2
21
7
4
-16
2
-3
-5
-23
-18
3
-1
31
-13
-10
11
-26
0
18
23
4
12
21
16
-12
-8
-13
7
11
4
-4
-8
-4
2
4
-11
1
7
0
-18
-10
3
-18
13
-13
2
-3
-1
5
-10
3
3
-18
23
15
0
-3
-4
26
-13
20
8
49
-12
3
10
-3
-3
-5
-36
-25
-23
-26
14
9
17
-42
28
-7
11
5
14
-27
12
-8
2
-1
-15
27
4
-19
3
-8
-10
2
-22
24
27
16
-15
23
-37
-3
-5
-10
28
-2
38
-14
-13
-10
1
12
11
14
-5
-37
15
-20
4
-15
-14
-32
-17
-13
-5
-8
-18
-8
-3
16
-18
17
11
-19
-3
7
25
-4
0
1
-25
24
-3
5
-6
12
-18
36
-2
-5
19
-6
-10
8
10
-25
18
7
16
25
7
9
6
32
-24
17
-13
17
-5
-18
6
5
13
42
30
-2
-1
-8
-5
-9
15
2
-16
34
6
0
-56
26
-26
-7
-40
-3
-17
3
35
-5
-16
-1
7
-12
-2
2
-4
-7
16
-14
-6
-28
9
-37
38
5
-1
-22
-20
22
-5
-6
-8
14
-7
5
8
-24
-33
-16
15
-28
3
7
24
23
-6
17
14
-18
-1
-4
-4
8
-10
-21
-13
32
-1
-21
-16
-29
6
-14
-3
10
-20
-5
-29
-6
17
11
18
15
-14
14
2
-2
-18
18
-3
35
-3
-15
19
1
13
4
-25
56
20
-10
-3
35
22
-25
26
-5
-10
-13
-18
11
8
-24
13
-5
-24
6
1
31
-14
25
27
-3
3
15
-24
-3
5
-25
4
-5
4
12
-35
29
10
-12
11
6
4
13
-10
-1
6
21
-13
18
-12
13
5
9
-13
-20
14
1
-5
6
-9
7
24
10
3
-14
9
-16
17
20
10
19
17
-2
-18
25
16
-13
-7
17
-10
-12
22
-16
-3
16
15
-10
-3
-13
0
-3
19
2
2
14
-1
-23
-17
-3
5
-3
31
48
-12
35
-20
17
17
1
-13
10
8
13
22
7
-2
-25
33
13
-3
0
22
-14
1
-5
6
4
-3
16
-20
-13
-15
19
22
7
-17
-19
32
-6
-18
-19
-18
-21
30
22
12
18
23
8
8
-5
14
-21
-13
28
-2
-2
8
-32
-21
25
17
-19
-31
-3
5
-8
-4
5
1
-23
0
-10
-22
2
-17
-7
-33
5
2
33
9
6
11
-23
23
-35
-3
-19
0
-8
21
8
-31
-12
-2
-49
33
-18
-14
-11
-1
11
35
-16
6
25
19
2
-29
36
4
9
-4
13
-7
-30
18
-6
-7
26
22
36
-13
-24
4
-23
13
-35
16
-17
9
-12
-13
5
-6
-50
-6
27
-55
22
1
37
-17
-35
7
-10
-15
23
10
-1
-6
1
-11
2
11
13
17
16
6
-21
31
32
-16
-17
12
17
-32
25
44
28
22
16
16
22
20
-19
-16
-13
38
9
0
7
50
36
-2
-41
-1
-18
0
59
-3
-8
8
-17
-34
-5
-26
-8
-10
4
6
17
9
-6
6
-4
-1
-13
-36
-22
15
-31
-12
-11
7
27
-13
-14
14
-18
-30
-29
-10
5
-12
-15
8
21
33
3
5
-13
-29
-35
0
6
-14
-21
-19
13
-1
24
-27
12
16
0
6
28
17
22
-11
-1
6
1
-9
-9
-27
-3
55
8
-8
9
-46
19
19
-44
2
13
32
-19
9
-8
0
2
-18
-30
5
1
14
-16
31
-4
-38
-12
5
-16
-15
2
-20
-22
16
14
11
2
1
8
-14
-9
-35
7
23
17
-15
-12
1
-19
55
16
-8
17
46
0
-24
-3
-5
-22
11
-21
58
1
-6
-1
-32
-17
-19
-7
-35
-11
2
-9
25
-36
-4
-17
11
-33
3
22
19
-13
-6
-5
18
43
43
-28
-16
10
4
3
0
-2
-17
-17
-19
20
-32
-8
30
-13
10
18
-7
17
18
-4
-33
2
-32
6
-29
18
19
-9
9
-15
8
32
15
0
25
7
26
-7
-2
3
-34
39
-11
6
22
30
-11
2
23
-6
39
9
-1
-1
-9
29
-32
20
54
38
-3
-15
-7
17
-14
4
-10
-1
14
6
22
-21
21
-17
-6
-6
25
13
-9
2
-4
21
16
-24
-20
4
-14
14
-6
-35
13
39
-1
-15
-14
21
-11
28
15
4
-5
18
-23
2
10
3
-9
-14
15
-18
17
-13
-4
-34
-26
10
26
-36
4
29
16
-7
-11
-17
-9
6
2
-2
14
25
9
-18
-21
4
13
44
8
18
-22
-19
9
-28
14
-7
-13
5
6
-10
12
-19
-11
24
18
-4
17
4
-18
33
-19
16
-27
2
-27
15
-44
17
12
-3
-10
1
-17
10
-11
-9
6
-12
1
-7
31
7
-32
14
-14
5
-13
0
-11
2
-11
-10
-24
27
12
22
17
-10
-17
-6
2
-24
-5
0
-12
9
-55
9
-15
3
2
-6
-29
40
15
-12
-10
-34
0
10
4
31
-6
-10
-27
2
15
17
-11
21
21
9
-13
4
5
-7
21
8
-4
-1
-15
-11
-3
-6
-12
25
7
2
-13
7
30
17
-11
-1
19
-18
39
4
23
-23
-1
-24
12
-40
-12
9
-22
42
2
7
-2
-20
4
13
-16
15
3
32
19
18
-29
-3
-22
18
-10
5
-28
-3
12
18
-16
-22
6
14
-33
-18
22
3
0
24
24
-7
-20
11
-2
0
25
-10
1
-15
1
1
-2
-29
-21
33
16
-24
1
-7
-8
35
16
39
6
5
4
9
24
20
-21
-16
-5
40
-4
27
12
25
25
-11
6
-9
8
-16
-23
17
-2
-21
9
1
16
-37
-9
-6
12
29
-31
-19
-12
-9
-19
9
-23
-43
-3
-5
-27
19
20
34
-32
6
-23
-27
5
-27
15
29
20
-45
22
9
-8
8
10
-20
5
-34
-17
13
-20
4
35
-18
-16
-21
22
2
-2
-17
-18
3
39
-4
20
11
7
1
-6
-13
26
21
-18
-34
10
-33
16
-24
-22
-6
32
-24
29
-5
8
3
-31
-3
-12
-9
6
24
10
-26
-14
-11
11
-5
-1
-6
1
-16
-16
-2
0
5
0
25
26
6
19
-23
18
-2
-25
16
2
30
11
22
-24
20
16
9
26
10
-56
-1
-37
-11
-4
-16
8
-9
-26
-12
-17
-10
27
-31
-8
18
8
-1
5
26
-5
-18
-5
-6
6
-14
-15
6
-2
12
12
-1
12
-22
-24
8
17
17
4
32
-30
-18
25
17
9
23
17
0
10
2
16
-23
2
-7
-9
-11
6
2
-4
5
-6
-3
-21
-29
-26
9
12
-14
2
-3
-11
-8
-7
27
23
-5
13
-10
-11
6
13
-25
8
2
-26
4
-2
21
17
-20
16
37
-15
27
11
1
26
-12
22
6
-1
-11
16
5
-1
-4
-6
19
-6
21
-6
16
4
20
-1
3
10
-6
11
0
8
-6
-4
5
-31
26
22
-26
2
-1
-1
2
-2
-16
12
13
-6
-7
-20
22
-2
-4
11
-13
-9
-8
-1
-1
3
-11
-16
5
5
11
-16
-20
-19
-10
29
7
3
-15
-22
-14
14
-23
17
2
-7
19
17
17
11
-18
3
-6
3
-1
12
-1
1
-18
-18
-11
-17
8
11
-23
5
12
6
7
-20
-15
3
-21
-8
8
-1
-25
9
2
3
5
-2
-17
4
-26
3
10
9
-19
-5
26
-23
1
11
-12
-8
33
17
4
21
-2
9
7
-20
5
-1
6
11
-14
12
-10
6
23
0
4
11
-9
8
-3
-8
-27
19
4
-17
8
-11
13
-34
-8
-9
-17
4
-7
7
0
-5
-13
-12
-18
-21
-22
-19
-12
3
-7
-9
-13
5
13
-6
-12
4
2
9
17
5
15
-5
19
6
17
-11
-4
-22
8
-25
9
34
3
-20
-12
-7
-29
6
22
-2
-30
11
10
-11
-8
-3
30
11
0
1
9
-8
5
-14
-5
-20
7
-20
31
9
14
-13
12
38
18
22
-4
-12
-32
-3
14
-25
-3
-4
-13
-19
-5
5
32
0
-22
-1
-8
-8
15
7
11
4
6
-11
-13
5
-1
32
-7
13
-7
-13
15
-6
-23
-6
2
-26
-8
13
22
-14
2
32
-41
22
13
0
-8
-5
26
0
-3
-3
9
40
-14
-15
21
4
3
3
33
-13
3
-10
-10
-20
8
10
-1
-24
-20
8
-6
19
8
-11
12
15
-4
13
3
-12
5
-29
7
-3
-19
-5
17
-28
5
-6
1
-11
-2
-28
13
-9
-42
-31
-25
1
5
7
12
8
-6
-13
8
-9
-16
7
-18
-4
16
-8
8
-17
19
-9
8
26
-10
-9
12
-15
-6
44
-19
0
-24
-2
19
-2
-17
-4
-20
-3
24
-44
-25
-4
0
44
-14
-6
-29
-27
17
-10
-1
-16
-28
-16
-2
19
-9
7
21
-26
-53
-13
34
-11
21
14
-33
-16
4
-14
-28
-19
-21
-34
-18
16
7
7
-18
-22
-3
6
-9
-31
19
-3
-3
0
-41
-13
-38
-20
-4
-8
-19
25
8
-18
34
47
-4
26
15
-4
-26
2
-5
0
0
-12
-16
-1
15
-13
10
0
13
-2
38
47
9
18
16
-18
22
-5
-3
11
-26
4
34
-22
-19
4
1
9
-7
-3
1
-26
-6
-34
21
27
-14
-12
-23
-46
16
-16
4
-23
-18
17
-6
-3
30
-9
25
-17
19
5
21
14
9
0
-45
-4
-6
50
0
-33
8
-6
-10
20
43
3
12
-39
24
-13
-13
8
-12
16
-20
-35
8
3
6
-11
-33
3
2
30
-32
23
-4
-3
-28
-27
-1
19
3
6
-4
4
10
34
1
-1
-9
9
18
-3
9
-17
-3
12
-13
1
-22
21
-10
26
-24
22
12
7
-13
7
2
-8
32
-11
-2
22
21
25
21
-13
34
25
12
-10
12
0
-16
7
12
-10
-4
16
-8
3
-3
-29
9
-45
-10
38
-6
10
32
-43
10
-14
-15
-6
13
-17
-30
-30
-12
12
19
6
-12
-5
-3
25
6
30
-26
34
-16
8
20
9
30
-27
-8
-4
-24
50
17
9
-51
30
-16
-16
-34
-6
-2
-13
-7
-27
17
-9
-4
-30
-6
-42
22
-4
31
-4
-11
-1
9
6
21
16
26
13
27
-7
-5
-2
25
-21
-5
15
15
1
14
-10
-25
2
-26
1
13
-9
-22
24
-31
13
5
-17
-3
24
19
-7
-8
34
6
-32
0
-2
2
-10
-15
-6
4
-34
-5
-13
17
4
-2
15
22
-19
5
0
9
-6
10
21
-18
26
-5
-45
16
5
22
-9
2
18
13
-16
-8
-17
29
-2
26
23
-19
19
5
12
17
-16
2
0
-29
3
6
-23
-5
-29
10
10
6
7
-34
-8
-12
3
25
11
-12
-15
2
-27
9
5
-25
-7
2
-6
11
25
-2
0
-1
9
31
4
-13
-6
-16
-21
-1
-1
12
-5
-22
20
-6
24
8
4
-12
11
15
40
-6
6
-31
1
-20
0
31
7
-12
-18
-28
14
2
-6
-18
3
0
8
3
-17
-5
22
-15
9
-1
-32
-2
-18
2
25
-4
-12
-17
24
12
-19
-13
24
5
-21
26
-3
-9
-20
13
-3
-9
13
12
-13
-5
36
15
13
-16
-6
-28
2
8
-4
8
31
23
4
-12
3
15
25
-6
-2
25
7
5
-8
8
22
-2
-25
-5
-13
-36
-10
2
18
-2
7
-10
10
4
8
8
-26
-11
13
-2
25
25
-15
14
12
6
-15
-14
-15
-19
-11
9
-8
3
-2
2
52
-16
8
11
11
-7
-6
-16
22
2
-16
5
-17
30
3
-13
0
-7
28
-34
-6
10
6
-37
8
-6
-12
-13
41
-12
-38
-21
-15
21
-3
-14
-3
-14
-36
-2
-17
-30
-21
17
32
-38
14
-5
-38
-12
-24
15
-13
-3
29
21
1
-25
-7
23
13
6
5
34
-7
-22
24
20
-11
-4
-16
5
0
-1
6
-3
-26
-10
25
-7
-14
6
24
-9
-7
18
8
10
-11
-18
-6
27
17
-4
10
10
7
-25
10
-25
34
5
12
-2
-3
-29
16
9
65
3
5
-3
-22
18
36
9
-14
8
-5
4
-14
1
-28
13
-4
-35
-14
5
-13
-29
8
14
-11
-2
7
15
26
-17
-14
-4
-17
4
11
17
-28
21
-1
22
-29
9
-20
-1
2
21
12
23
4
0
-35
-35
10
-8
-6
1
15
20
-4
-8
4
-21
41
5
-12
-34
-2
-32
-3
-12
7
-12
4
14
9
14
-24
5
8
1
2
-7
1
-13
2
-26
8
7
1
5
6
6
-10
41
9
8
-20
-17
0
12
4
6
26
-4
7
15
1
-23
-11
7
-4
21
15
5
0
13
-4
-8
-11
19
7
12
20
3
24
-8
-3
22
-5
-7
-4
-13
4
-13
30
10
-5
20
-6
-3
-11
17
-27
5
14
14
9
1
-9
-3
-6
-9
-7
-12
9
15
9
7
19
16
16
5
-8
2
-14
2
-2
17
5
5
-14
-18
0
5
0
-24
13
-15
-9
-5
-11
-16
10
7
-22
3
18
0
-19
13
-21
33
15
-2
-5
-2
10
-14
1
-12
-1
1
5
-2
0
-3
2
-15
11
-9
34
11
-1
-8
2
16
-2
18
-16
-3
-9
-10
0
-2
-3
-5
6
-9
-10
-12
5
-8
-4
28
25
-5
6
-29
18
11
-23
7
-5
8
-2
21
9
-14
-16
19
4
-8
2
-11
-4
-25
-5
-1
-24
8
-14
12
11
-10
21
6
-6
3
-13
10
-3
1
-20
11
-13
-8
2
-2
-15
1
-5
18
-10
0
-4
-2
17
-14
11
3
12
10
-8
-10
-5
-1
-37
-25
8
16
-4
-16
2
-15
-6
1
-11
7
2
-16
13
31
3
-14
-3
7
21
-4
11
18
-9
-3
-10
-10
21
-10
-2
-7
-18
-5
-13
-23
0
4
29
6
1
-12
0
-11
-10
-6
5
-8
8
-11
-13
8
-18
13
-11
23
12
2
8
-1
-12
55
20
-9
0
9
-18
-8
12
11
4
15
-4
9
-9
3
17
0
16
2
9
4
-7
4
12
0
3
-9
0
-1
16
26
11
9
-11
-6
2
10
-1
-2
3
-15
-2
-14
-3
-13
-17
0
14
9
6
0
-19
-10
-8
5
16
-13
12
-7
-3
-6
34
-5
3
-9
-3
10
-16
-13
8
6
28
13
10
24
16
-12
27
9
40
-21
-9
2
3
-11
-13
17
12
5
-21
27
5
-22
-6
-21
-7
-8
2
11
3
-5
-18
-7
10
2
-1
-3
3
-10
6
12
-1
-13
-24
-10
-27
10
-5
-16
7
-22
-15
0
-4
-2
10
-8
6
2
-12
-20
-1
0
-4
13
-7
17
10
-27
13
-13
-8
9
30
-19
-4
5
13
-16
1
-21
4
-4
2
3
1
12
1
3
-18
22
16
0
20
-8
-5
-10
3
4
-8
23
13
-10
1
-32
8
-15
5
7
0
4
8
-16
20
24
-4
-17
-20
-18
-4
10
-7
-6
13
7
-19
-8
0
-11
3
-26
-14
7
-13
2
-2
5
-13
1
-9
-1
13
-3
-3
-9
-1
-9
12
17
-2
13
-4
22
12
-9
-8
12
-11
0
-18
15
-9
0
-9
-2
-6
-1
8
18
3
15
8
-10
-1
7
-35
-28
-2
-14
31
-21
-6
-27
-2
12
-6
14
25
-5
-16
10
-4
12
6
-8
-3
-13
-4
-10
-5
23
31
11
1
-9
2
2
1
-10
25
3
7
20
16
12
-13
21
30
4
5
-11
4
-1
-7
-31
-8
-25
-17
29
7
-8
7
-25
8
-3
-22
-6
25
-1
20
-10
11
8
-12
-14
-11
4
3
-7
10
-2
-18
-8
-1
0
3
7
-25
12
-2
-17
-8
14
-18
13
-19
-8
-16
12
-22
1
8
2
3
-5
7
21
-15
-2
0
9
9
9
-1
8
-6
-19
-9
10
-11
-8
-16
13
10
-3
30
12
14
-2
8
-2
-20
-25
0
-1
-5
-11
5
8
25
18
-8
8
9
13
-10
4
4
3
8
-14
11
2
11
-1
0
-22
2
1
10
-33
23
-21
-7
29
8
-3
16
-15
9
15
-8
-9
12
-4
-22
-4
25
19
22
12
-7
11
6
24
-6
5
-14
-3
-20
3
6
5
3
-26
-2
-11
5
-5
-13
19
-22
-21
-11
7
23
10
8
-2
23
4
-14
-14
16
-23
-7
21
-7
21
-13
5
-12
-10
0
-16
27
-16
-11
4
-7
4
21
0
9
-8
0
14
-20
8
-7
1
-11
28
4
18
13
3
4
39
0
30
-20
4
-8
-29
-12
-1
-3
-4
2
-28
0
24
-10
-13
-4
-11
2
14
-13
0
9
-22
-12
6
-10
-10
10
21
14
13
-2
-26
-11
5
-9
13
-4
3
0
13
5
5
8
49
-7
-3
-10
-2
5
-33
14
12
1
-18
22
14
-6
4
-3
6
15
-30
-22
22
21
16
8
39
20
-16
-3
-10
28
-17
-8
13
-1
34
7
19
6
-16
-24
-3
-8
-30
-29
13
-6
5
-2
6
-10
14
25
24
19
27
-15
6
-25
6
5
-4
-23
3
-6
-11
-16
7
-33
16
8
4
20
11
3
2
-5
8
37
5
27
1
16
19
9
4
4
-4
-10
37
-6
18
2
8
6
9
-7
42
27
8
-18
-2
-11
-10
-3
-5
3
26
-10
-17
-37
-15
19
14
-20
8
19
-3
-5
24
8
3
-7
8
38
-19
14
-17
-2
15
-4
3
-2
-23
12
4
7
14
-5
11
-7
16
4
-5
1
26
19
-3
-16
33
-9
-15
52
-8
-18
19
-3
2
51
-4
-15
8
-17
18
52
-6
0
15
32
5
-13
28
-13
-5
37
5
-14
-17
-4
-3
-45
24
11
0
3
10
9
-4
-10
-27
4
-4
7
-21
14
-10
13
12
10
5
-38
-7
-2
-7
-25
-25
-11
37
20
-16
-22
-5
17
-19
1
33
11
-15
-28
5
8
24
-14
-21
25
-4
-12
-36
-6
7
-3
5
21
1
-9
-4
-11
24
-13
1
-25
11
-3
-27
-11
-21
4
14
21
-19
8
8
1
-39
-8
0
22
13
-23
4
-4
-40
35
-30
5
9
2
27
-5
15
9
11
19
-5
31
19
29
10
-27
16
-4
-23
-16
-11
6
22
-16
-11
12
-1
-16
-20
0
-15
-11
9
-19
36
19
8
-4
6
-9
7
25
-26
15
20
4
-13
-12
-10
29
43
0
-14
5
10
-12
-2
-19
0
-5
-19
-2
45
-5
7
-46
28
-25
-25
-8
-1
13
-18
-27
5
21
12
-25
-14
0
9
4
11
-24
1
-36
-20
-2
-2
-27
26
25
11
-22
0
5
-12
-3
9
4
-1
-29
-16
14
-12
-18
5
12
39
-5
-21
-8
-14
3
3
5
-1
34
-3
25
1
-6
-1
10
-9
-1
14
-6
-11
12
-12
14
-11
-14
4
-8
-15
-11
17
14
-3
29
-7
2
-9
-3
-28
-18
-10
15
7
5
3
-25
11
-13
-2
7
4
-11
-12
11
-1
-9
-38
2
-8
17
-24
22
8
14
14
9
13
-26
-14
-15
6
18
-38
2
-18
11
13
-46
13
-4
10
39
7
-4
0
14
-11
-37
3
-12
8
-5
-1
5
13
-15
-4
34
31
-15
1
8
31
-6
-12
-19
-1
-11
16
-7
-12
10
-27
25
4
10
-18
-6
-1
-3
-27
6
-6
16
-17
1
-22
-4
8
15
10
-15
2
-17
8
-2
-18
2
-7
5
-5
25
20
2
10
4
19
-43
0
10
-2
8
31
3
12
-17
13
-21
-13
24
-31
-19
3
29
-6
0
-31
-14
12
-10
-14
-12
-35
1
36
-16
10
-7
40
-19
-16
-21
-10
-3
40
2
6
11
6
-15
11
-1
-6
-21
-8
-9
24
28
5
21
12
4
18
-19
0
21
36
-1
3
-8
0
-17
-9
26
-16
-10
18
-15
-17
-16
6
2
6
-16
10
-19
-16
-10
-31
-8
5
-13
-27
-33
-28
13
1
11
1
-2
7
16
-27
21
3
22
14
-27
-19
20
-13
-15
25
-22
-27
1
-3
11
-41
-21
-5
8
36
4
-22
-1
-8
1
-23
-22
-8
-10
7
4
-4
1
11
0
13
-22
10
-8
27
3
9
3
-11
2
-18
-10
-17
-3
-12
29
-6
17
-8
-5
-10
2
-13
-5
3
-6
-25
19
9
9
-26
18
6
-13
-31
-14
12
6
-12
7
28
-22
14
-6
2
21
9
-5
19
4
2
25
-9
-19
-11
-8
29
-5
18
14
-11
13
12
0
-6
-39
-8
8
-26
5
7
6
-15
-10
-7
8
-38
-19
-18
6
-7
-13
-2
-23
-12
-12
-7
6
-3
8
-13
-1
-3
3
4
-7
35
-3
-20
-15
-18
18
25
21
-8
8
-34
18
14
-51
16
-13
-12
48
0
-45
-10
6
-30
32
-5
-43
-25
-13
0
-3
19
-16
10
-45
-28
4
-25
5
-9
4
-3
-3
-3
-11
-4
-19
25
-24
0
21
-8
0
-37
-8
28
-5
-3
3
9
-36
-21
29
9
2
10
-10
-47
-38
8
0
3
7
57
23
-36
-16
-10
-16
11
24
12
-4
-1
-21
-13
-11
-19
-23
-13
-1
-1
-22
6
-20
9
-4
9
14
21
3
-1
-9
-25
-2
22
2
0
13
19
-30
-25
14
-24
-16
-3
4
-29
20
-3
19
16
-16
-12
9
-1
-20
-24
-5
-46
26
-2
-17
26
-36
8
-8
7
-13
-33
9
-43
-9
-26
26
10
21
-14
-17
-5
-12
-8
-24
-11
19
6
3
11
-2
-33
-9
-8
31
20
37
17
-16
-17
-1
10
20
39
14
-40
-1
-11
16
11
-10
-12
7
-9
18
-20
14
-9
2
-27
13
-13
27
13
2
-4
-6
-4
-11
14
-13
11
12
4
-35
-16
-31
3
12
-8
-41
-33
9
-25
-20
-31
1
7
5
-2
-1
-4
12
13
-2
-33
-1
21
-12
2
-39
-1
-38
-19
-4
-6
-7
10
-5
-26
-2
-13
-4
34
17
-3
-12
-17
-18
-8
-19
4
-34
13
5
10
12
6
6
29
15
-1
16
2
14
4
8
-3
-12
20
-8
5
-18
2
13
-13
4
-1
-13
-22
-1
1
7
13
-2
-20
-13
23
11
-2
1
14
-9
35
24
9
-23
11
38
27
27
0
-2
12
-6
3
3
17
-9
19
0
-7
-8
-22
2
-3
39
-19
13
-12
6
30
17
13
18
9
0
-6
24
-3
-1
-28
32
18
14
-7
25
7
5
-11
-18
-7
28
4
6
-6
23
15
-27
1
30
29
5
5
-3
-14
-35
-13
18
-13
-6
0
18
47
5
8
15
11
-17
-14
-39
20
25
28
-5
21
5
7
17
1
25
17
1
-13
-4
21
-4
8
7
29
24
-10
-6
-9
7
-7
1
-20
10
-12
27
5
22
-8
-6
14
-26
19
-7
8
-9
11
-13
-1
-11
-26
5
-8
10
15
-9
-5
17
-14
15
46
4
-15
2
-1
8
5
18
-4
7
19
34
14
-15
-13
-22
-27
-25
16
2
-8
12
-28
2
12
25
-5
25
22
6
7
-30
16
18
-8
10
-33
23
-3
-16
-19
7
5
13
23
-27
-35
3
-11
24
-30
-10
-20
56
24
27
27
-19
-51
2
3
-14
-11
12
28
22
-5
28
-9
6
-13
-8
8
26
-15
15
-1
1
-10
-27
-1
-10
-3
19
11
-12
2
15
-14
0
-4
-8
9
25
-6
-11
19
-14
-2
26
-14
-52
-10
2
-12
-1
15
-27
29
-14
-14
-12
-24
-10
-3
-14
29
-11
-6
-19
15
-4
-10
2
12
-20
-14
21
5
-31
-1
4
5
5
24
-4
39
17
0
5
12
12
-8
11
-17
-2
-3
-26
22
-9
-3
-14
12
-13
15
8
-12
-16
30
-27
23
-2
0
21
-16
5
19
-41
22
24
-9
53
37
11
-20
7
-3
12
-7
-28
-2
21
-4
14
18
35
43
-7
11
-25
-1
-22
-28
3
7
-25
-2
-29
1
20
17
29
-11
34
20
27
11
3
23
-7
5
-27
-11
-1
3
24
31
-7
11
-4
5
-12
2
-17
4
-28
9
-1
-4
21
-14
9
-16
1
-4
-5
-7
-29
-20
-7
-11
14
-12
-17
-23
23
15
3
-25
-10
9
2
9
7
-20
-17
17
-15
-1
-21
-30
-30
12
-21
23
-25
15
-18
-9
-18
26
-16
-6
0
-8
-3
31
-1
-8
-9
3
-3
10
-37
-9
24
-28
7
9
-7
16
15
7
4
-6
-27
-7
21
23
5
-1
26
-33
13
-14
33
3
4
14
-22
-21
15
26
-9
-15
7
17
17
-12
25
9
17
-2
-6
-18
-11
-16
25
1
-4
6
-9
-21
-4
0
-26
-32
18
-28
11
-15
-5
9
-1
-12
11
-7
-21
-14
-4
5
9
12
5
11
-4
-11
-2
9
11
-1
-24
10
10
30
-2
12
-29
-19
12
-24
-15
4
-14
-19
1
11
-1
4
-12
33
-18
38
1
-4
3
-32
14
19
1
-2
24
3
-10
8
-18
23
6
28
1
-11
-21
-3
3
-10
-19
-46
28
12
38
26
1
14
-22
8
23
-6
-17
11
-33
5
12
5
3
9
-36
-14
15
-2
-33
19
-8
8
11
-13
-22
-40
28
-10
-4
5
17
-27
13
13
-19
-2
-12
-13
22
-3
-24
-7
-25
-1
10
-5
-12
8
-13
-16
9
8
5
-8
-8
10
3
-27
2
-8
-31
2
-12
-16
47
-22
-8
19
15
-27
7
8
-10
17
-31
-3
-34
18
18
-18
1
28
-24
-36
-42
-6
1
6
16
10
16
26
11
30
-6
-4
-14
35
-13
3
-4
16
-8
13
-23
-5
23
15
43
11
0
2
-2
-6
-2
1
-25
22
-17
-18
0
-7
13
-15
3
-29
-26
-1
-29
-7
-1
-6
-2
0
7
-16
-8
-30
-24
3
3
7
-3
5
21
-7
7
23
-23
-24
7
21
-4
-53
11
-8
21
7
4
-7
-22
-14
-2
-2
-25
14
-22
14
-24
-10
15
-35
-17
-9
-4
-8
9
9
13
-17
21
10
40
-6
7
5
-4
-12
7
-14
-13
-1
30
-28
-24
-8
-11
-14
-29
-19
-8
15
5
-3
14
-11
1
-10
17
-2
-28
-26
0
-13
-28
14
21
4
0
-4
-2
-12
-15
3
-1
13
0
-20
-18
34
-2
10
29
2
-10
7
0
17
5
-32
7
-16
17
18
56
-7
-15
-14
5
-14
15
7
27
-18
15
-39
30
-15
21
-20
39
-8
-4
7
1
-7
-2
-7
-3
-19
-1
-30
0
2
31
5
-17
-15
4
23
-9
4
-20
-7
14
-6
-3
-30
-6
-8
18
1
25
-4
21
3
0
-5
20
1
-9
-2
-1
3
8
17
9
15
-27
14
-7
-3
0
6
-9
9
-18
-2
1
13
-9
10
15
3
15
-2
39
-17
15
23
-7
19
11
7
18
1
3
21
-2
0
11
-20
-9
3
-11
-19
16
13
6
26
7
-8
-13
6
-10
-14
5
10
-21
-12
43
6
-7
-4
-16
15
-2
-4
-1
-3
15
20
-7
-9
-7
-1
27
-3
2
11
-13
-4
20
1
-1
-1
31
19
-8
30
44
24
27
-25
-4
24
-35
14
-17
9
15
9
7
8
-9
33
-18
21
0
-7
-2
-14
-7
19
7
16
-1
-13
2
-15
-11
13
8
40
-4
8
4
22
-1
17
-6
10
-15
32
1
1
9
-16
11
3
-17
-9
-12
6
18
3
-10
-2
21
-35
-6
-8
-3
-37
0
9
2
-9
12
3
25
-8
12
-10
-2
-6
6
20
-33
7
0
-17
-9
22
0
40
-7
-7
5
11
25
-28
-12
-1
1
-2
0
-23
-5
-7
1
3
16
18
-4
-4
10
14
27
20
-11
9
7
21
-23
18
5
-3
16
-5
-3
7
-11
-4
-14
14
16
30
23
-4
38
2
-24
-10
10
-22
-23
-15
-24
8
19
-23
-7
-12
1
-8
24
25
4
-8
-2
-24
-17
11
-27
-4
-14
-7
-9
11
37
-26
5
10
-14
4
26
0
15
-4
-30
19
-4
-15
-3
25
-3
-12
10
9
3
13
-2
-20
1
-16
0
16
16
-1
-6
18
-20
-11
-26
19
-11
-29
7
5
-12
7
1
13
20
12
0
14
-14
24
-15
18
-11
18
-14
-15
2
23
-8
-18
-6
15
-19
-4
15
-15
28
-6
6
25
-10
-2
-4
7
-5
-10
13
-14
-18
-7
-5
-4
9
-20
17
-9
-8
-27
-28
-16
-24
-1
30
5
-19
-25
24
-14
-6
28
-9
21
-1
-22
11
-10
23
8
12
-23
12
1
3
17
-8
1
2
-8
0
-12
4
6
5
1
19
32
-51
0
30
-14
38
-5
-5
26
-31
7
7
-8
6
14
36
17
-26
10
7
-21
-6
-1
-6
8
-12
-47
11
-10
9
-12
12
-15
39
4
-39
56
14
-9
-9
-4
-14
4
22
11
-1
1
8
12
2
6
-6
0
-4
-9
-38
37
8
3
15
7
11
-14
25
-2
6
-17
-5
-12
-28
-19
8
-28
-10
10
14
-7
-1
26
6
-7
-22
27
4
-17
-7
24
7
-20
-22
-17
2
10
-1
-10
-7
-7
16
15
12
-14
14
6
16
-22
13
-24
2
24
-53
-38
17
-18
-11
-42
24
0
18
10
-31
-14
-4
25
-3
-23
46
-54
11
5
0
-14
-22
1
17
-5
23
-36
-18
-5
-3
-5
-5
-20
-8
-3
6
12
-43
6
-8
-37
-11
4
-40
-14
22
30
-25
23
-13
25
-20
-12
3
-11
21
-49
-10
3
5
-4
26
30
26
-13
15
17
-8
10
-3
14
9
-18
0
-3
15
-20
11
17
-14
-8
6
-11
-7
-5
24
8
15
3
8
-3
-20
3
29
-16
12
16
21
-3
-14
29
18
1
-29
-7
-9
-2
-9
5
-2
9
-26
-33
8
10
-13
-31
1
-13
5
3
-26
4
4
15
26
12
-5
-13
-25
-4
-2
-15
7
-10
-25
20
3
9
6
4
24
-11
29
27
1
1
-6
4
-21
-30
-5
3
3
-5
15
-10
26
4
3
13
-17
-14
16
-3
-4
22
12
14
20
28
3
0
12
-11
17
4
27
30
21
20
-27
-23
-10
-7
-5
-27
-49
-11
13
-47
8
-4
-6
17
25
4
2
-12
11
8
7
-7
-12
24
-13
-8
28
23
5
30
-19
13
3
6
-2
25
9
3
-5
1
-24
-32
-3
6
-33
-21
4
-8
21
-6
-28
-22
32
27
-20
-24
-9
-11
20
2
-12
-1
-14
30
17
-15
10
9
0
-10
15
-30
7
12
8
29
-35
-8
-14
-8
24
8
19
32
-16
-44
-7
1
3
21
7
13
-32
-1
12
4
6
-12
-25
19
10
14
7
-1
4
6
-9
-20
11
-12
13
-5
-3
4
-22
-11
23
-28
-38
14
-32
-6
18
-1
32
-36
3
14
-9
-1
18
-1
9
2
12
-18
0
6
-31
-8
-8
12
-7
1
18
-1
-5
-18
3
-4
0
7
0
0
-1
-3
28
-8
4
-19
-1
-3
-2
-4
-3
6
14
3
-8
6
30
10
-11
2
-3
13
-23
9
-1
7
8
-13
-11
-19
3
-5
11
-11
-12
-5
-43
12
-21
-1
-6
-10
-13
7
7
10
6
-21
4
7
-38
9
16
-14
-1
4
-3
-21
16
16
28
-1
-21
8
8
-14
-24
-11
-12
-8
-27
-12
-14
12
-27
27
-11
25
1
-8
8
-27
3
-27
13
7
10
16
3
5
23
7
1
3
-10
19
-15
4
2
-9
12
5
-15
-17
6
-2
-3
17
2
45
-27
-14
7
6
27
32
-20
14
25
28
-21
1
-3
-3
23
-10
21
40
5
-10
-13
3
13
-23
16
3
29
5
0
-19
-12
-13
11
22
-14
-10
17
27
29
-5
48
-24
17
-12
-16
-29
17
12
7
46
6
-12
13
-29
-13
2
17
-15
-24
-14
12
-13
-3
6
5
-14
22
-16
0
-31
10
-8
5
11
13
29
-5
4
-32
12
-17
-6
-22
1
-12
19
0
33
-14
-44
-5
2
1
2
0
-13
7
4
4
4
30
2
7
-2
-12
-6
10
-15
21
-7
-9
-11
-19
25
20
-6
-15
-25
12
-3
16
18
-20
22
12
1
-13
-22
-8
10
-5
0
-9
-12
7
-4
23
-22
-4
17
-22
5
-7
-2
9
-25
10
-6
-6
5
-12
22
7
-3
-12
3
-2
-17
17
24
33
1
-26
15
-29
26
7
-1
6
-16
-12
-13
15
-39
-1
9
7
-16
8
-27
7
-16
21
-31
-2
3
9
-20
-12
-10
16
-29
-20
-13
13
-24
-1
-13
-9
0
-18
-26
4
-25
6
-19
20
22
-13
3
-10
11
11
-6
-32
-34
2
4
-4
-15
-1
-20
-34
-2
7
-12
20
-21
16
6
-9
1
9
-4
-34
-1
13
6
9
-15
8
-7
-16
10
-14
26
-13
-24
-42
18
-17
20
-4
17
-23
9
16
-7
-31
-12
29
-30
10
3
-35
-45
14
21
-33
8
26
0
-11
15
-69
-1
-43
8
-10
17
6
25
9
25
-52
-25
-19
-32
19
3
-5
50
-8
20
-5
-17
-12
6
-15
-39
-26
-15
20
20
19
-34
-8
17
-11
-25
14
-38
0
8
-8
-5
-4
-32
-26
22
3
6
2
8
7
-3
8
-18
-28
-2
-10
-5
-10
-22
9
-17
-9
-12
-14
8
17
-7
5
14
-4
0
19
-37
1
5
-10
-15
18
-13
13
-18
-3
27
18
13
-16
-8
21
33
-3
0
-22
0
18
-1
-21
17
-28
-6
-31
17
-43
-32
-8
12
1
-19
-19
22
10
37
-4
-6
26
-1
-9
9
-39
-7
-7
28
28
-8
13
14
-1
-10
6
-36
17
-8
-15
16
-23
6
-18
-12
4
5
13
8
0
36
-23
-1
-32
-34
-8
14
-16
-22
2
60
-7
-7
7
-1
10
-31
18
-1
-10
1
-9
-1
-6
-5
16
-19
37
-12
-21
7
-12
20
15
22
-2
6
-35
-2
-13
4
14
6
-2
-6
23
17
-11
27
19
-33
-21
-33
-5
6
4
37
19
12
-21
-25
-1
-14
19
20
-18
-13
-1
12
-20
23
-26
1
-6
-15
-1
0
24
-5
0
-28
-19
1
8
5
-18
-11
-27
-27
-18
39
1
46
-16
34
-17
40
-22
10
15
-12
-24
-15
21
0
18
1
-9
-1
3
13
22
-23
27
-6
13
26
12
-13
-5
-8
-41
25
26
-11
-37
6
21
19
-3
24
-8
23
29
5
3
-7
12
16
-28
21
-15
-3
-36
-4
-1
3
27
-18
12
39
-37
-15
-6
0
-2
3
21
-5
-30
0
40
-1
-8
-1
-17
27
-8
8
25
-3
7
-11
0
-18
9
-35
1
-7
-24
11
-19
-4
-14
-11
-26
20
-4
-6
0
-21
-10
7
13
0
-7
19
-3
27
17
-11
22
-5
3
-3
-10
-10
6
37
-10
-12
11
5
-14
-9
-1
-18
-1
-13
2
16
-4
-26
26
12
-6
-1
-5
-15
-5
-1
2
-17
16
17
22
10
-13
14
-13
-4
-4
-12
7
-4
-20
1
13
2
-20
-2
-18
-24
14
3
3
-22
38
-16
-28
1
-30
-5
-12
-1
4
3
35
20
-9
-27
-14
2
2
-19
-13
19
-14
0
-9
-8
-36
21
2
0
-10
23
1
-3
-22
6
18
-1
12
-3
3
0
-8
-11
-26
8
-8
-26
17
9
17
2
7
-15
18
4
6
4
4
-13
-12
-2
15
-9
14
4
24
37
31
-22
-7
-3
-6
-5
14
-43
-22
-2
-28
-12
30
-6
1
-17
-16
1
-19
27
9
24
6
1
-4
4
37
16
25
-2
-15
7
5
-14
24
28
10
-21
-24
6
11
36
31
-11
-2
51
12
-31
-4
-9
33
-8
18
9
17
-6
-17
-2
1
5
11
23
-39
15
13
-4
6
17
-16
0
-10
-9
-8
-15
40
-34
13
10
34
2
14
7
12
-14
8
7
-35
3
-4
-31
1
-8
5
-3
-10
-12
3
-2
11
0
-8
-2
-1
-30
-6
10
25
-1
-24
19
-15
14
1
-16
23
5
14
33
-29
-5
-25
-10
15
14
5
21
10
12
-3
-23
8
5
-16
-21
10
-4
15
16
-22
18
-15
1
21
-10
-11
12
11
11
1
2
-1
-22
-19
3
13
22
-9
12
-12
0
-6
-35
-28
19
20
22
-17
25
-9
5
-5
2
-7
8
29
15
-19
5
11
9
-5
-11
-22
-17
28
-3
16
24
-19
2
8
9
-17
3
-3
14
-7
20
-19
-5
10
-15
-16
-9
15
-9
-3
-12
7
32
-25
7
4
-8
-8
-2
-2
-9
13
9
6
-4
24
-6
2
-14
-7
-23
3
19
19
9
1
-3
16
6
3
0
29
-10
-15
-14
24
-6
6
29
3
9
2
18
-9
7
-19
22
6
0
-12
-10
6
5
-18
13
6
-17
30
1
7
-6
-2
18
33
11
2
-18
-1
0
14
-6
-25
2
-1
-15
-5
8
-20
-1
-9
-10
7
20
-1
3
14
-2
4
32
11
-4
-18
-4
-7
31
-8
37
15
-5
-2
1
7
2
-15
-2
-31
7
1
8
-26
7
9
8
10
-2
-22
-30
-22
-6
-12
-2
14
5
12
-23
-16
18
8
9
-13
-9
16
36
-11
-12
-6
-8
5
3
-3
35
-5
-20
4
-11
11
5
2
-6
-5
-12
1
12
-29
-22
-11
-9
-10
-14
0
-19
19
-14
-4
-11
7
-19
-14
36
21
-14
-17
-1
13
6
-15
10
-22
-28
-19
10
18
-1
34
-7
-20
-5
-10
-1
-24
-20
19
-12
39
25
-8
0
2
19
-8
-6
14
-7
-18
24
4
-30
-37
-25
14
-20
-1
-13
1
-13
18
-21
-28
-10
32
-29
2
1
-1
17
-3
2
-8
-15
7
23
9
10
-6
0
33
-5
22
7
0
-21
-4
-18
2
0
0
-14
-12
16
-11
1
-8
-2
19
-16
-30
0
2
-14
-6
19
-1
-14
8
16
-1
6
13
6
1
-7
6
-10
2
-12
8
-5
-28
-12
9
-8
-9
7
-12
-19
4
-8
-15
5
1
5
-12
2
-32
-22
-11
9
-1
-41
-9
23
-23
16
12
-1
1
12
0
21
15
20
-10
0
14
-30
4
25
2
-8
7
17
-10
-11
-13
8
-16
12
-14
-13
-24
8
15
-12
-19
-2
0
-20
-19
6
-19
-11
-23
32
-29
16
-2
-9
-13
-8
-3
20
0
-11
4
0
9
10
-28
13
4
3
-6
6
-6
-20
14
-23
-9
15
32
10
-9
23
-25
8
10
10
-1
-22
0
21
6
-7
15
-8
3
-14
-34
19
3
-7
-5
-11
-23
9
-22
3
16
5
-2
0
13
5
-2
-22
25
8
-22
-7
9
-4
11
-1
-19
-10
-10
-24
-8
-14
12
-7
28
6
10
8
39
3
-5
28
-4
3
1
-28
-13
-3
23
-12
-10
14
11
-17
9
18
-7
-3
-11
-15
-4
7
-16
-13
-3
12
8
1
0
-2
-21
-5
14
0
12
-13
-11
-3
-20
-15
9
-24
-13
-20
16
23
5
21
35
3
20
4
-8
-3
3
-11
-3
-22
17
1
19
-3
6
20
-12
-2
15
3
-30
-23
-1
-38
4
-15
33
16
19
-6
-22
-23
7
-13
10
4
16
2
34
-2
-6
-15
-12
-27
7
-18
-15
1
20
8
2
-20
-4
-10
1
0
-9
21
-16
-4
17
-12
-6
-4
-19
-6
41
-16
24
10
9
-6
5
-21
40
-19
25
6
34
-5
26
36
0
0
-34
-5
17
-1
-8
23
-13
-6
-9
6
17
9
-8
5
7
-11
-15
5
-12
11
-6
-1
28
2
-6
-2
8
15
-4
-19
-5
8
-18
12
14
11
-4
-28
5
-11
19
-15
-6
-9
-7
-1
-13
-17
0
-10
-1
-16
0
12
-4
-32
-10
7
-15
-30
-7
16
-4
0
-10
-27
-16
10
-14
-10
-6
-6
-5
-4
-25
-23
18
-21
-16
5
-30
7
6
-12
-9
2
-8
-4
1
-12
-6
2
25
6
29
-5
-5
8
18
23
-5
2
-6
5
-5
25
21
-9
26
-21
-11
24
-18
0
-18
-17
31
-1
-9
-18
-7
-7
-11
-32
22
-24
15
17
25
9
17
4
3
8
-6
-7
-29
-10
-18
21
7
-6
-12
1
-35
-4
-7
-17
-5
-44
-4
9
-17
6
-1
1
9
14
-2
12
3
9
-10
-11
5
1
21
3
-1
7
-16
-35
-13
-10
-5
0
-12
-13
-33
-13
24
19
9
-13
-4
22
-20
1
-25
17
7
-6
2
7
-6
20
-11
8
-1
-1
0
-13
33
-27
9
5
27
-20
-17
-21
6
-24
-17
-5
3
17
-13
-9
-4
-19
-3
-27
-8
8
13
37
67
2
7
17
14
12
-2
-6
2
-22
13
-18
-10
18
33
11
6
17
-12
-31
-2
-20
21
9
-10
15
-20
-25
3
12
-7
-3
7
-23
-21
-6
-1
-16
25
-3
-49
13
-9
16
20
5
20
-27
-14
-28
-24
6
22
4
4
9
11
18
-37
-2
15
11
-8
-1
17
-9
-21
-3
19
8
-19
4
-3
-2
27
-14
2
22
-9
-15
-34
4
-3
7
-28
4
-22
12
-3
-10
9
28
8
18
28
-35
13
4
23
-5
-7
-21
-23
29
-24
29
18
-17
-4
-31
3
43
-6
-5
-18
9
-17
1
11
-20
8
-8
5
9
0
-7
-8
-20
24
5
30
-8
-14
-18
4
-10
3
-54
15
-5
13
3
17
-20
14
7
-1
4
-27
4
-3
-26
26
1
-6
-8
10
20
6
-23
-7
-34
39
6
2
32
-13
-7
24
19
6
1
-8
-9
-7
18
-3
-15
-7
15
3
15
-4
22
-1
-7
3
15
-2
18
-19
-5
19
10
-18
-6
-13
17
-6
4
-4
-4
10
-3
-26
1
-11
1
-7
-12
-11
11
8
-7
-1
-6
-8
-2
-12
17
20
-30
-10
6
21
-6
13
-3
11
12
-32
-18
3
6
-20
12
5
-4
-5
26
20
17
-19
-22
18
-12
20
25
3
6
-1
20
38
13
4
13
-21
13
37
28
6
11
-18
39
-12
-29
-15
14
-9
-28
-21
28
-6
71
11
8
1
4
-27
28
-15
15
-56
-10
5
29
30
-18
17
28
-5
-7
-38
-7
-18
3
44
1
15
-9
-3
-6
-28
-14
-14
-18
3
-12
3
-2
-1
-9
-3
13
-15
0
-16
22
-7
-10
11
-35
9
-9
29
3
-9
-10
-22
-17
-12
-7
-18
23
-1
15
6
-28
-12
-2
-9
7
39
19
7
20
27
23
-32
7
19
-2
10
18
-6
25
-5
23
-11
-2
-41
17
25
-9
6
-8
8
1
2
-12
32
-25
3
27
-3
18
-18
0
15
-10
2
5
2
-45
19
8
-11
-15
-15
11
10
0
-5
30
-13
20
5
24
-5
15
14
0
-7
-6
2
-35
-2
-32
4
6
6
18
-12
6
4
3
-34
8
42
-5
-12
38
-5
9
-20
-18
0
15
-23
24
-54
14
-2
12
-7
-6
-14
16
-15
33
0
-3
-18
-4
-19
-12
-15
-6
2
10
-3
-1
4
-15
23
-10
7
18
-6
13
11
16
8
-3
9
-20
17
9
36
10
15
-5
-3
17
-28
34
21
25
-19
-17
-10
-50
14
16
-15
1
-11
-14
33
-26
7
-9
-28
-18
-16
-18
1
19
-21
17
1
-5
-18
17
0
-21
34
0
23
-1
16
7
-6
41
25
1
29
-16
15
17
6
4
0
-1
-1
11
-14
19
-4
-1
29
-3
-10
-7
24
-2
15
3
4
2
43
2
-17
-4
-11
13
-4
-4
-23
-10
-6
21
-11
-5
31
1
28
6
-16
9
8
-18
-30
-6
-2
10
-12
-4
-6
-19
-11
1
-23
16
0
-9
3
21
-29
3
-1
35
10
-12
-5
12
4
9
13
-5
-23
-20
-7
15
3
21
9
-9
-26
27
9
15
1
-23
-19
-5
-15
13
-3
-7
-3
26
3
5
23
-42
-13
23
-3
18
-12
3
15
25
-8
0
-8
-19
-1
20
-13
-4
18
-3
-22
12
7
-2
6
12
-4
25
15
-46
7
17
17
24
-2
26
11
15
14
2
9
10
1
36
41
-8
29
-21
-24
13
-6
-34
5
11
21
12
23
5
1
40
20
-26
20
-11
-7
8
-10
-23
11
-18
2
-20
-2
5
-9
-22
6
-29
21
1
-3
30
-33
24
-35
16
21
24
-12
5
-23
6
9
-5
8
-1
-25
-4
7
-10
-14
-20
-4
-2
0
9
-20
-29
28
25
-2
5
-17
-19
-15
-3
-8
-6
-3
22
8
-1
-10
4
22
-7
50
-10
1
-31
0
-40
-1
8
12
21
-8
1
6
-23
2
5
2
-9
-2
-7
29
-4
-25
-5
-17
-21
21
-3
2
13
-35
22
27
-31
-13
27
7
21
9
-20
21
-22
-25
-13
16
-38
-5
-11
11
6
-2
-22
27
14
25
-44
-5
-33
12
-2
12
6
17
24
-8
24
-25
34
-3
13
-20
-19
14
4
-6
15
-9
-7
-20
3
10
0
-5
-14
-16
17
24
8
12
11
-3
19
21
-13
-27
-15
19
49
1
-9
21
-26
-24
-19
-14
-3
18
-13
-27
-32
5
-17
-23
15
26
2
-29
0
23
-15
38
17
-4
0
18
-25
-27
28
8
5
-6
-2
-20
0
-37
-16
-28
8
-2
2
17
7
-5
16
17
-9
-12
-10
-9
-18
17
-15
21
42
-20
-34
-15
-3
-5
41
26
-7
11
-9
-1
-20
17
8
10
-44
12
-23
6
-20
18
56
20
5
-1
8
-21
-4
16
12
-18
14
-50
-3
8
3
47
-11
-17
-14
-3
5
-18
5
-1
16
9
-18
13
4
-19
-33
-13
18
-5
2
-6
-15
2
19
-17
33
-10
26
44
11
-1
14
9
-12
14
20
-14
5
10
-40
-26
10
-12
36
39
-5
-14
34
23
5
-1
-19
-39
20
-19
9
-16
7
-18
-5
-9
8
5
-17
26
15
9
11
-26
-14
-35
-10
-23
13
13
-22
-2
14
16
-24
3
10
37
-17
24
-20
-13
12
-3
-37
4
-23
0
15
-8
-3
-37
16
12
31
3
-2
22
-18
3
1
-37
-39
-5
-2
-13
-15
-2
-3
-19
-3
57
-49
43
29
-5
-52
17
-21
25
-38
21
1
-14
-9
28
19
4
27
-20
-20
18
23
-18
19
8
6
-21
-7
-5
12
-27
-29
-14
-5
18
-11
-37
20
19
-3
42
16
23
-32
32
12
-9
12
-3
-1
4
-21
29
6
16
-2
29
-1
-8
61
-19
11
6
-45
22
3
-34
5
2
10
15
-22
11
21
7
6
-22
2
-32
-36
1
12
-2
-2
39
-5
-15
-7
-9
54
2
45
11
-1
14
15
-13
-11
-6
1
11
11
-3
4
-7
28
5
3
-6
13
-16
10
-18
-14
1
9
-23
8
0
10
14
-10
-32
11
-2
-14
-6
6
-22
-21
-41
-8
-8
-3
-39
16
-14
-7
-13
-9
-13
-21
2
-26
-5
12
13
-8
1
9
-6
-11
-3
-21
12
-27
5
-3
-21
-18
8
-11
18
-1
6
19
21
7
2
-43
-27
-24
17
12
-5
-10
39
10
18
-26
-8
-3
5
-13
-2
-11
-28
-3
-6
5
-16
11
15
11
-1
-3
3
-34
6
-12
-27
-39
-33
12
44
-8
2
-32
-32
9
-1
28
-14
6
-9
-7
-36
-20
-3
12
-2
9
-23
7
7
-4
-20
-1
-1
-9
5
-2
-1
18
12
13
24
24
-24
-12
7
40
-16
-3
23
4
-14
-4
-4
11
33
0
9
0
18
12
8
1
8
-6
13
-2
19
0
-21
0
3
6
-2
8
-10
-9
24
8
2
-9
-12
-34
14
36
5
-9
-7
3
3
4
31
-22
3
1
8
11
22
-3
0
-11
-20
-13
10
-28
14
10
13
15
-4
5
5
4
-8
11
-11
12
28
-15
-11
12
5
16
-1
-6
12
4
27
-3
13
-4
18
-2
10
15
31
-6
12
9
32
-16
3
-51
42
12
-39
7
28
-8
23
-12
-13
2
2
-20
5
-4
-4
-10
-2
19
31
11
-8
10
7
10
8
13
-8
5
4
-8
-14
22
29
-27
3
14
5
51
-32
15
19
6
28
5
-7
-2
14
31
2
-21
-7
-9
-15
4
-8
-24
-11
-9
-4
22
-32
0
-26
-10
-26
-7
12
13
-16
-8
13
7
9
-5
-8
-16
-1
5
1
17
-3
-14
-8
11
-19
-30
2
29
-13
0
-21
11
6
-13
-46
-4
-26
33
45
12
17
-11
20
-8
-10
46
1
10
-4
-10
3
-9
-21
-18
7
-17
-27
17
9
-11
6
16
-5
-8
5
-25
2
36
-22
13
6
2
-3
7
-28
-4
4
-42
10
-19
-3
-20
-34
-24
17
32
-7
7
10
6
4
-7
23
-18
-10
-5
17
4
-14
10
7
-35
-27
15
-31
8
27
-16
-14
10
-16
-12
-33
14
38
5
12
18
-17
29
-15
-12
-4
1
-6
28
-9
23
15
18
0
10
-7
0
-8
0
-11
-29
9
8
-39
3
-28
-36
31
20
-5
-2
6
6
-5
26
-4
-9
-29
21
-2
12
-7
-20
7
32
6
-36
7
15
1
7
-22
-8
-27
20
-11
-5
-23
-14
-18
-25
21
19
2
14
-9
-2
20
46
10
-10
-10
-5
-6
-11
-21
10
-1
11
-14
-9
2
-27
-9
-25
13
20
-1
-6
5
-28
19
11
-9
21
14
31
-19
-10
-25
-26
3
22
5
-22
4
6
-5
3
7
6
0
-25
-12
0
18
-2
21
-22
17
2
7
3
-2
-11
-23
-17
9
18
5
-7
2
-19
8
-12
-5
-14
12
0
-2
-9
41
9
9
-8
23
-7
-36
-9
-19
-34
-2
12
17
-4
-25
-12
17
11
8
4
33
9
-10
37
-16
12
12
8
-9
-30
12
-13
-2
-28
2
2
8
-5
14
-8
-21
7
10
24
12
3
-1
-4
-24
7
18
2
-3
33
-13
-11
-6
-23
6
6
-4
14
-45
-19
-31
-3
-2
36
-2
-11
-33
-16
-11
-1
23
15
26
11
-8
35
11
-34
-7
5
20
-2
-15
-13
36
-2
9
15
2
5
-11
-13
-4
17
-20
5
-12
7
28
4
8
10
8
-11
-22
6
12
14
-8
-9
-10
-5
20
-32
-1
-1
-6
2
-7
6
18
4
-15
-21
-16
33
23
-18
10
-13
33
11
5
-18
13
6
-18
-39
-14
11
14
-15
5
-22
0
9
8
-6
-3
24
-3
-35
21
-21
29
-8
-29
-18
9
-4
18
41
15
-32
-3
3
9
-23
17
20
-26
23
-28
18
38
-22
5
8
5
4
1
6
32
2
-4
7
-7
3
-2
2
-27
-8
23
-30
8
11
-12
-40
2
-3
-37
-17
3
17
-1
-5
6
-15
31
9
21
27
-37
6
7
12
36
-11
24
-12
14
-10
-38
25
7
41
5
-7
11
-1
25
17
-12
8
-13
27
-3
7
11
-12
-5
-22
-13
-14
8
2
7
0
-5
-21
-16
-9
-12
-16
-4
23
2
-29
11
12
-2
-15
28
-6
-13
7
-13
10
-9
-8
5
-10
-4
-3
-6
17
31
-24
-17
-17
-9
16
10
13
12
-13
3
12
24
-5
-19
14
-3
6
32
-9
11
23
14
-37
22
-8
-31
22
-8
-12
10
-18
28
-27
7
-25
11
20
24
-18
-21
18
-15
-18
-40
-15
-6
10
-31
25
10
-20
-21
6
-36
7
-34
-4
18
-39
1
6
-6
-13
-26
17
-19
-12
-9
5
14
5
18
8
-30
6
7
19
4
39
23
-17
1
-18
-2
11
21
-10
-11
12
25
-7
-7
6
10
-10
14
8
-12
-1
12
-22
22
5
32
-16
-5
6
29
3
10
1
-3
13
-21
6
13
50
-3
20
3
-1
21
8
-17
7
-5
13
25
-3
-47
2
21
-4
38
-37
10
6
-1
-3
19
2
-39
19
15
-7
-27
7
17
-12
9
46
1
-1
4
-42
25
3
18
-2
2
6
10
-7
-14
40
-14
42
21
-5
6
-5
9
-30
12
-4
25
9
3
-6
-25
27
27
-13
-19
26
-10
4
-3
-15
17
45
-21
-22
-1
28
25
18
-38
30
0
-14
19
21
8
26
0
-17
4
-16
26
18
-22
-18
1
17
9
16
22
-14
-3
0
-8
48
-11
14
23
-8
24
-17
-9
2
11
0
-29
-1
-7
0
5
30
10
-10
4
-9
6
18
14
18
-18
-21
-10
-16
11
-4
2
27
40
9
-31
4
41
16
29
4
-17
-11
-10
-3
38
-6
-7
10
-25
4
2
-1
-4
12
-31
-10
-12
1
3
3
-20
-4
36
14
16
-16
16
9
7
25
9
21
8
0
16
-28
-6
-28
53
0
-23
-5
-6
-1
-18
30
-15
-9
-3
-13
-12
-31
-4
5
19
-7
19
22
-1
12
35
22
-1
-33
-30
-13
11
2
12
23
13
-21
13
7
-20
-9
-12
17
-10
-23
-1
11
14
3
17
26
-6
14
-11
16
-1
0
-15
0
33
-7
-3
-28
3
0
-12
38
19
2
-18
-7
2
11
5
0
5
17
26
2
37
6
-9
20
-21
6
-17
3
26
37
-6
-6
30
18
24
27
21
1
-23
32
-27
-9
13
1
19
0
-40
-1
-15
-13
15
32
13
-12
-33
-13
33
3
28
-14
-14
-22
-24
9
-1
-17
-35
10
-22
6
1
6
26
10
48
18
-16
-29
18
-24
-6
49
1
-21
7
14
-3
-20
-21
7
22
17
1
-9
10
-26
1
10
-5
5
-15
29
-16
9
-13
-5
-2
5
8
15
3
-7
3
-7
-19
3
14
-32
2
-4
-12
0
16
-12
-3
22
-11
6
-2
7
3
-12
13
-33
4
21
36
-16
14
-21
-24
-10
25
-23
-1
1
-4
-16
-38
23
15
-20
-16
18
4
5
-1
17
-21
3
-5
6
-21
23
-10
-5
-4
13
24
3
-13
1
0
-3
16
14
-19
-3
15
3
31
-10
27
-15
-2
-8
3
-17
-5
-4
-19
-4
-13
21
13
-5
2
-1
-6
19
-17
22
24
-5
12
-7
-5
-7
19
-19
1
-10
-20
-8
-8
-20
12
25
4
11
12
-33
-12
-9
11
-36
-14
-5
-14
-41
8
-12
-1
4
-21
4
8
4
12
-23
6
35
1
-3
-6
-3
30
-6
-46
14
1
17
34
19
-37
4
11
-16
-41
-1
-2
-6
-30
2
26
20
3
-3
-54
20
-6
-5
-20
3
17
15
3
-8
5
-32
0
19
-9
4
-16
-4
-10
-12
17
28
-34
14
-1
-2
-11
-1
4
-13
-13
-33
7
0
-29
-9
-23
-22
9
11
31
-4
22
14
-17
41
18
8
-15
-32
-11
-2
2
3
-14
3
-23
11
-5
19
24
-2
-6
-18
10
10
-2
1
-15
-8
16
-10
13
-19
7
-2
10
11
-12
-6
6
-31
3
-20
-1
26
-33
-5
0
13
-29
-25
-3
-22
22
-16
19
-8
-33
-4
-3
-9
34
-20
-13
-6
-6
8
5
1
32
-42
-9
-17
8
-32
-7
-9
-14
2
12
11
20
2
-18
16
-3
2
14
23
-5
11
-30
13
-10
26
2
13
3
-6
22
-17
5
8
29
-14
-16
13
-1
-2
2
26
32
20
0
31
-7
-21
-6
-18
7
-6
16
21
16
13
-6
-5
-17
10
17
-4
28
27
11
27
8
-13
-2
7
-23
16
17
-8
-5
17
-11
-15
-22
41
-10
4
5
-20
-10
20
-4
-3
18
-12
3
-58
-1
7
-8
-4
-1
40
-11
-17
-4
-30
32
-2
10
14
-40
4
-19
-15
6
23
-31
-14
-38
16
-2
8
-26
16
-34
26
-20
-20
26
10
9
10
-28
32
6
-30
-4
23
-27
6
-2
23
0
25
-4
14
10
11
13
49
3
5
-9
-15
-28
-16
-7
-8
-13
-5
3
26
2
20
33
-13
-2
-1
9
-15
-58
-10
-3
-19
-13
-26
3
-22
-16
-8
-32
17
10
17
-51
-8
-4
1
31
-12
11
-2
-9
5
1
-31
-34
-38
-31
-36
11
-3
4
25
26
-2
1
-27
-11
-7
35
6
7
7
-6
-13
26
-16
-6
15
7
28
-1
-14
-11
-7
-19
9
-26
21
-7
-7
-47
-11
21
-3
-4
-13
43
19
-18
27
9
47
-12
4
-18
-33
-13
6
-16
-3
-4
-15
8
-5
25
-7
9
29
14
-14
-7
-18
20
-6
2
5
10
7
-4
-14
-9
25
23
14
12
-10
-24
-10
-25
17
-10
-29
-15
36
8
-22
-7
-3
-7
13
-9
-6
1
-3
-18
7
35
-21
-4
10
-8
10
28
-14
-15
4
-2
-17
-1
2
7
32
-1
-29
16
23
-18
2
-6
-25
4
26
-7
14
-8
-28
11
18
-4
-5
-2
9
-20
7
48
31
8
16
23
-25
-20
-20
5
37
2
-20
19
7
-14
27
-9
-50
27
-13
18
-1
8
-1
-23
2
-8
-39
0
-16
18
-15
-7
-15
-1
-16
-1
1
12
33
-14
-8
3
14
-6
-13
-21
-12
-11
-11
0
9
22
6
3
8
29
-31
6
-26
-15
8
-12
-17
2
-14
-10
-7
9
-13
18
7
-10
-15
-5
-14
-34
-4
12
-18
2
-9
-3
-3
0
15
3
-4
-9
11
11
21
-17
8
23
0
-14
-19
-1
-11
7
20
8
11
-5
-27
8
11
-16
5
18
1
-22
-17
-26
10
-18
-1
-1
-4
-13
19
2
-4
0
-16
11
-1
-20
19
2
23
2
-10
-4
20
2
-13
16
-11
1
12
-22
10
-26
27
1
-20
-31
-19
-2
3
-1
31
9
-1
-1
6
8
-21
-9
-12
-37
8
0
18
46
-18
-6
6
22
6
11
10
12
-5
-1
-20
21
-6
0
-17
-19
-18
21
7
-36
-2
-13
-1
-8
-14
-6
14
-23
2
-18
9
-11
7
-28
-14
-7
-17
19
-20
-19
16
3
-8
-6
10
-1
7
7
12
-10
-1
-9
18
10
5
-23
-18
13
15
7
-21
-22
23
-24
-14
-11
14
13
16
-14
-21
-33
-4
-24
-33
1
25
19
-7
-6
8
-8
1
-8
-3
19
-12
-10
-28
4
23
12
-14
-24
1
12
14
26
-8
7
9
-9
20
-13
-7
-11
-9
10
26
4
17
-2
10
-7
24
5
-5
-4
9
-9
3
8
11
2
29
6
13
-2
21
18
21
-36
-13
-13
0
-10
-9
-40
-4
-3
32
-8
41
8
-17
-4
24
9
-27
17
0
-8
2
5
4
0
14
4
-15
20
-27
-33
-25
-24
-15
-14
-5
29
6
-1
-2
8
14
-23
-4
7
2
-18
5
11
-5
-19
14
-20
-1
-5
-19
13
19
0
17
-13
-12
13
-27
-7
-4
-17
12
-1
21
-4
1
-2
2
29
5
-8
-33
5
2
-10
-14
1
2
12
4
-6
-7
-10
-1
13
2
10
-9
-26
-12
-12
-18
13
-6
-8
-11
-22
7
25
8
33
4
-13
9
-2
14
-13
-3
-5
21
2
-40
-33
-11
15
18
-5
8
23
5
-9
6
14
-20
2
10
-3
3
9
13
7
-33
0
-12
-25
8
8
0
-22
-27
17
-21
6
18
-2
-5
11
14
19
-1
-4
0
14
-7
18
4
2
13
4
-30
-13
13
-12
12
-33
14
-24
24
3
6
-12
12
-20
-6
-11
32
38
-27
13
21
7
25
-24
-6
8
38
2
-6
-11
10
-4
-30
10
-12
2
18
18
11
-12
7
44
27
2
-11
-23
-22
24
8
12
45
-2
-18
1
21
22
5
-1
1
-9
26
-17
11
8
-1
-1
4
3
-13
9
-31
22
26
-2
-13
-15
5
-11
-13
28
-7
-3
-12
-22
29
17
30
-19
-12
-17
21
20
-5
0
2
-5
9
5
36
31
-26
-14
-5
16
-6
-23
-17
-5
-11
11
7
-13
23
-5
-30
-38
-5
-33
19
-4
28
-30
3
22
-9
-9
34
14
13
-6
-9
9
-21
-17
30
3
25
-15
-3
22
-23
-20
-14
13
1
-1
-7
-7
20
-16
0
47
-7
-19
-7
-36
15
-5
1
11
-17
-17
-16
-4
7
1
7
-1
-5
-21
-29
3
7
24
-29
8
24
-10
8
-11
27
11
-12
44
35
13
9
11
4
1
-12
-24
-22
-6
8
7
-15
39
-22
-5
-1
-10
11
-8
12
-25
35
9
-7
27
-12
0
-17
-53
-12
11
-14
1
-14
-20
-3
-1
-46
-13
9
-5
-22
-21
12
-6
-24
6
1
-24
-3
-19
-15
-9
-3
7
66
41
-23
-15
-34
-2
1
-17
-8
-5
-14
-27
2
-12
25
-5
17
-18
19
-21
63
-17
-4
15
4
3
-30
4
2
13
0
12
-1
-20
14
11
25
16
2
20
7
-21
-33
3
-8
3
-20
24
-16
-1
9
9
-10
37
40
3
27
7
-14
21
49
-27
-6
9
8
10
-18
32
13
-29
-10
3
-4
-6
13
-15
20
3
12
-18
22
38
-12
28
-7
0
1
16
-7
16
-19
-11
8
27
-2
13
-2
-13
8
6
34
-20
30
21
3
-16
-2
-3
4
12
-9
7
-9
-15
-31
-7
10
-7
18
4
-10
20
-20
-3
0
-36
18
19
-6
33
32
-2
-22
-1
-10
-21
-1
-6
11
11
-8
13
-9
9
-8
-31
4
-3
-19
14
-1
7
-18
-2
-11
0
-15
-18
20
16
9
-23
7
-7
-2
6
5
-8
1
2
4
-3
9
-14
0
4
0
20
-14
5
1
1
14
-7
-9
-5
4
-12
0
-8
-9
15
7
16
15
5
-2
13
-3
20
16
0
26
-15
14
14
-2
-18
-1
-2
-8
-2
-16
9
5
13
22
-11
-22
-13
0
-1
2
8
4
28
25
-6
-19
-19
0
3
-1
-10
20
-7
23
17
1
-8
6
-32
19
-13
25
7
5
-16
0
-1
-18
-1
5
-4
-12
8
25
-11
14
0
16
20
-37
17
6
5
-18
-5
5
-12
17
-1
-12
-11
-9
-7
-1
9
-6
0
-9
11
-2
5
-5
1
22
13
8
2
-20
7
1
-17
-3
4
12
-11
10
20
9
-3
8
-21
-3
0
-3
9
8
26
-16
7
-10
13
-11
-2
-28
12
2
-4
4
-11
11
2
-10
13
-16
18
-18
13
3
-21
-4
19
2
-2
5
10
-7
0
0
0
10
-2
19
9
19
14
-7
-17
-10
-15
-2
17
-16
-1
-18
13
1
4
33
22
22
-28
-14
4
0
-1
-10
-15
-5
13
19
-13
-15
-8
1
-11
-30
10
25
9
-2
2
10
1
-23
10
-14
-22
-7
7
-26
17
20
-6
11
-19
15
-26
4
11
3
4
0
-16
-7
-11
-5
-2
19
-1
20
-17
8
-1
13
-7
-18
4
-4
2
3
2
-27
-18
-8
-2
-29
-49
-7
0
-5
0
-10
16
11
12
-2
18
-9
6
11
-15
-11
-14
10
-5
3
28
-20
-35
5
-13
23
-7
28
-15
16
-13
-29
-9
13
18
10
-16
14
-32
-20
2
-24
-4
1
-33
-22
26
10
13
5
-6
5
9
-25
-6
-3
-13
5
-7
1
19
-24
9
-4
-15
-24
10
14
0
-9
4
-26
-38
5
12
8
-1
-20
-4
6
10
-23
-10
7
7
0
-13
29
0
29
-11
-20
7
-1
-15
11
12
-8
-20
14
13
-11
29
-3
-1
-4
-6
21
-11
-2
4
-6
-18
4
6
-8
16
15
-2
2
-3
17
24
-11
18
11
15
-1
-15
-14
-28
-6
-10
7
-5
-10
25
10
-11
9
-1
2
-11
4
-6
-11
-13
-1
22
-15
-8
19
-8
15
-14
11
3
1
-11
-1
-5
10
1
1
3
-6
-29
-4
-1
-2
6
-13
-23
-11
-1
0
15
-5
-17
-24
17
-6
19
-3
-2
26
7
14
-3
-16
-6
-9
7
-1
-11
-11
-22
8
3
-14
-2
28
-9
-5
-8
1
-18
0
8
17
-16
2
-7
-10
23
-10
1
22
-5
-23
8
10
-2
15
-8
-15
16
6
23
-5
11
-14
-9
14
-19
-19
18
-1
-21
4
9
16
-22
4
5
-21
14
11
-6
-7
7
3
-11
8
14
-5
1
-18
-9
-10
20
-2
22
1
-13
-8
-17
15
-14
8
-4
15
-11
-12
1
9
7
10
16
9
2
20
5
-21
-7
24
22
0
6
9
-37
-23
-5
12
42
7
10
-24
-4
-17
11
-26
5
1
14
19
20
-12
5
0
-7
37
-2
1
6
8
-5
9
26
-8
-6
6
-8
-8
18
-4
-7
13
-2
2
2
-3
-8
11
2
-2
13
-25
9
-13
14
-3
-2
7
13
-15
-12
-12
15
-3
-6
17
26
18
-11
-24
2
-30
-5
0
3
-16
-50
-17
-13
12
23
-26
-2
-13
-2
-11
-18
3
-16
24
-9
28
-1
-18
27
-22
-10
2
4
-2
-11
11
-12
8
-4
10
-9
-7
-5
10
11
-17
18
24
5
-7
13
-5
17
7
2
5
11
20
-11
19
-22
-22
-30
-9
-21
-3
-9
2
-13
4
-23
-15
-18
17
-13
20
13
-9
-12
-6
27
-10
10
16
2
-22
-16
-23
-8
-15
0
23
-6
-7
-1
15
-7
0
23
0
19
6
22
9
-6
-15
33
-6
1
-6
-8
17
-1
-15
-5
-29
-12
-1
-17
-8
-3
38
-20
-22
-7
-19
0
12
15
9
-7
-12
-17
-22
-30
7
-18
-25
9
18
3
-9
-17
-18
16
-3
-4
10
-12
-34
-8
45
-12
-29
2
-4
1
10
9
8
-4
-16
-11
-7
-13
17
33
38
-19
22
22
9
22
8
28
-11
-9
22
-38
-3
4
27
9
17
5
12
-6
17
-35
0
-34
-2
-11
-19
4
10
-3
12
-4
30
5
-10
-16
-4
-17
6
8
-21
16
-19
-3
-8
16
16
-13
31
-20
-2
-9
22
-36
18
23
-2
18
-8
-2
14
12
-19
-14
9
-5
18
-2
-3
2
-1
-1
-42
-15
-36
11
-3
0
42
-4
16
0
4
-7
0
8
-21
-30
-12
1
31
8
-23
-1
2
4
-24
11
4
8
48
-6
13
-29
34
-2
-7
-1
15
3
13
17
-32
11
-1
2
15
-34
6
30
15
5
13
-13
-15
-10
-41
36
13
-1
-19
7
12
0
12
2
11
-1
-23
1
2
-7
15
-26
5
-1
-16
37
12
-13
5
-40
8
15
-7
3
33
-17
-15
-12
18
-19
-26
-7
1
-14
-8
14
-29
20
-22
-34
-7
-1
-24
-36
41
5
32
16
13
-12
3
-6
13
9
19
23
2
-11
3
-56
-8
27
23
-3
-4
17
23
-32
-19
4
-13
-16
-17
8
-12
-45
-6
23
-3
5
-4
3
25
-8
10
2
-11
-6
-5
-40
29
-45
34
-22
4
9
29
-8
-23
33
5
-3
11
6
-7
5
-10
-10
12
-8
0
18
3
7
17
-1
8
-6
9
-20
-6
-40
17
-13
7
46
20
-2
10
12
-1
32
-17
-31
-5
-6
-16
-9
9
17
14
22
-9
-35
-6
-24
-33
-11
25
22
22
-10
-32
-27
-22
35
19
-17
15
-7
-19
-3
1
9
7
2
16
-10
-17
-14
-13
37
-22
3
23
33
-4
27
12
-16
31
24
0
-19
7
5
2
-4
23
18
-5
9
3
10
-18
-8
22
9
16
16
-11
15
-28
0
-6
4
5
-14
-15
-31
0
-45
11
9
19
15
9
6
-18
27
-10
1
-6
4
-28
-11
-14
-29
-14
-12
-30
19
-11
0
-10
-6
-27
9
5
13
-30
21
-24
-29
3
16
-16
0
16
-30
-14
13
-6
-1
13
3
8
1
17
-8
-4
-17
17
-5
21
-5
-2
-9
31
-10
-12
-7
-22
23
2
-24
11
6
-10
50
24
-15
-5
1
12
-7
-19
-1
22
-26
2
1
16
-3
7
13
20
12
-7
-14
0
20
-2
-43
4
-7
-27
-21
-9
20
-6
19
21
14
27
-13
5
11
4
9
14
4
-15
-7
9
2
17
-3
-8
24
-4
36
0
-11
19
17
15
-19
-12
1
39
-5
13
-41
-6
16
-20
-7
-2
-1
2
17
22
-11
16
4
14
25
2
-9
9
0
-13
-7
-7
3
5
-12
10
19
7
5
-11
14
5
-6
-1
27
15
-21
-24
0
-1
-5
-6
-6
20
-7
14
-14
5
5
16
6
-20
-31
0
-23
-1
8
-9
-5
7
-24
15
-3
-27
20
-19
7
-2
30
-9
1
6
-4
-6
26
-9
-9
3
12
-8
-1
-8
-1
18
14
17
-1
-56
10
-17
4
-29
32
-17
12
-5
-1
-9
-11
3
9
9
-20
6
0
17
2
14
-5
22
21
-11
-12
0
-2
19
12
16
-9
-19
1
-5
-29
-4
6
-15
-4
-1
-25
12
-1
-2
-2
-6
-13
4
3
-14
43
9
-8
12
-1
27
-18
1
5
-17
11
9
21
7
-18
0
-22
23
-42
22
-12
-13
19
5
-7
-19
-4
-9
-5
-26
26
-10
23
-4
-6
-17
12
-29
1
-10
1
22
-36
12
-4
-7
20
-5
6
13
-3
-18
-18
-22
-5
2
4
-6
-10
-15
-30
-35
-4
-16
-13
5
-6
20
-14
-25
8
-4
26
-15
11
-12
-18
-25
-6
3
0
-6
-19
13
-4
18
3
4
-13
1
-26
2
-15
19
2
6
-10
-19
11
1
6
11
-4
-11
5
-12
-4
-15
-19
6
-8
3
9
12
-20
0
0
18
-7
-23
15
2
10
11
7
-4
2
10
40
-31
-8
35
2
2
14
8
7
-27
6
2
-12
12
17
-11
2
22
-2
6
-10
-25
-24
-4
-22
8
-4
18
19
-5
15
12
-3
1
22
0
-15
10
-6
25
16
-20
-26
-5
-6
7
1
12
21
9
-22
2
-13
-23
-5
8
-23
-1
2
12
-19
11
-1
-2
-5
4
5
17
6
8
-7
14
-19
21
2
8
17
-22
4
7
12
13
1
22
9
2
2
2
-8
14
-26
22
18
11
2
-14
1
-35
-28
-6
-8
-6
10
-4
0
-6
12
-12
21
5
-5
-4
11
6
17
-15
11
-11
-3
-24
-11
5
12
35
14
-11
-11
-15
-13
-4
2
-12
16
-6
18
-3
10
-2
15
11
8
14
9
-20
16
46
-22
-11
-12
7
4
3
-12
-6
4
14
10
-31
-9
-9
16
14
-19
-2
12
-14
-1
-12
-8
5
19
15
14
4
-6
-15
-9
-13
-21
8
-8
10
1
-12
11
-3
13
-14
30
-33
14
-28
-8
14
-1
1
-11
-13
5
9
7
12
7
1
-9
3
6
-2
5
2
-3
-13
8
-15
-4
-16
23
-8
-7
0
20
24
15
1
-10
-3
-10
5
12
-6
9
-21
6
17
0
-13
-23
4
-9
49
18
22
9
-14
-13
1
-31
18
3
-8
0
-1
-8
-18
-11
-4
-24
1
31
1
6
1
0
-8
26
-9
-10
-11
13
-9
-4
-6
10
7
-2
-3
2
-3
-6
-17
-10
-6
-12
10
11
17
-33
-6
12
25
-5
-43
2
1
4
-12
15
32
2
-1
2
14
-15
-11
-10
-13
-11
23
3
6
3
7
-15
4
-23
7
-12
-8
-18
-2
-1
13
-5
-14
10
-2
4
-4
-12
15
-13
-14
-29
7
-5
7
7
50
-6
2
-17
-6
3
-16
1
0
-10
-21
-6
12
-11
24
13
16
0
-30
18
-34
-9
8
6
-37
-28
26
21
-11
-31
-6
-8
-7
-23
1
-13
19
-12
-36
10
-18
-1
0
-18
36
5
-25
5
-22
5
-4
28
7
-26
-21
5
3
-2
-19
0
-11
5
17
2
27
-14
-30
9
4
19
7
5
-9
-9
-29
4
-9
-6
-6
-23
-7
-15
12
0
4
-5
22
-11
-7
2
-15
-3
-3
45
7
11
19
-14
14
-8
-10
12
-13
-9
13
-15
1
11
26
1
-1
-9
-11
15
-9
8
1
-4
20
-2
-8
1
-31
5
2
-15
20
-5
11
8
-2
-6
-8
24
15
31
2
20
-23
-43
-11
-1
-5
-7
15
-10
8
24
-5
-17
-2
6
-36
7
-5
8
2
-6
13
13
16
-18
10
38
1
12
13
-10
0
0
-14
-20
10
-3
2
8
-33
-7
-18
12
32
5
-6
6
-27
17
-4
-2
12
2
4
9
2
-13
-8
-46
11
26
-12
-3
4
-2
-3
12
-12
-16
-2
-8
21
-42
-9
38
-16
12
11
-8
0
32
13
11
-11
-27
5
13
-1
-11
-24
-5
-3
0
12
23
7
26
12
-17
6
-6
-19
6
-42
15
15
8
-22
18
0
3
9
5
-25
-3
-25
-31
26
-11
-13
0
4
0
-31
13
18
-9
-2
-6
14
-23
2
14
-22
2
20
11
5
-4
-34
23
12
7
21
9
-12
26
27
-3
-3
12
-4
12
-2
-7
28
3
-7
0
6
-6
0
2
6
-21
-6
-12
-13
7
33
-25
31
29
17
-38
-31
-15
-7
8
-16
-36
2
34
16
-11
11
-19
-16
-4
23
23
15
33
-36
-31
11
8
-17
-27
11
17
33
-13
13
-5
-3
8
-34
-24
10
0
15
4
-10
16
25
11
8
34
-14
-12
-15
4
29
15
1
-39
-1
-38
6
1
-7
-7
11
7
29
0
-8
33
27
12
1
-15
10
-10
-10
15
23
-1
15
20
-24
0
19
1
24
7
23
-28
7
3
24
29
-3
22
-25
22
1
6
-6
22
3
-1
-32
-10
27
-6
-5
-9
1
15
2
10
3
-1
20
-24
-5
17
1
20
-19
-23
30
-35
4
-3
-9
4
17
1
-27
-40
6
3
-6
-8
-31
-1
8
-2
-10
23
-9
17
21
21
17
-18
-13
-7
-3
10
34
2
33
0
-10
3
-8
-15
9
-8
38
10
18
7
-8
-15
1
1
-12
11
34
25
9
16
-19
-1
10
-1
-30
-7
15
4
24
1
-5
5
2
6
18
6
1
-28
8
-7
17
10
-8
-7
-8
-14
4
-14
3
-5
8
-6
-24
-5
24
0
-1
-3
3
12
13
4
9
33
-13
7
5
-11
4
17
30
-7
6
-9
3
21
-3
20
-27
1
18
4
22
-15
1
-15
0
-7
-10
-9
-15
-34
-7
10
-31
2
20
-9
12
-17
2
-4
-23
-11
-22
-4
10
11
7
6
1
32
-6
-3
9
3
-13
-17
0
5
-24
12
17
-27
-1
1
22
-10
-27
11
3
-4
24
-10
2
-20
-13
-9
-23
-32
21
18
15
7
17
-7
-13
-2
-8
13
24
-19
20
-9
10
9
-25
4
0
31
22
-19
21
-3
5
-37
17
5
-17
18
-4
-6
-8
8
2
3
-3
-18
-15
-13
12
6
1
-1
9
5
-19
29
-23
-26
6
-5
29
11
10
-5
-8
-8
20
14
13
23
-4
-26
2
-10
-2
-11
-3
14
-23
12
9
39
13
-3
-7
-3
-2
8
10
9
0
3
7
25
-18
13
0
-3
-4
14
-2
16
-7
-8
-4
-7
7
-6
6
-14
-20
29
-29
-17
9
8
6
1
10
-17
4
5
19
8
-15
-18
-20
11
-5
-31
-16
2
1
-8
18
-1
-13
-3
-16
48
19
11
1
-40
4
-11
28
9
-30
-4
-26
14
13
19
8
-46
10
8
1
4
12
1
5
7
-4
9
7
21
-12
-5
