192 1 3 3
-3
-6
6
-40
-22
-15
-9
-24
-25
-11
10
14
8
25
12
23
35
46
1
33
40
18
51
22
-2
-11
-6
-2
4
-13
46
28
15
34
23
12
-1
12
-23
23
20
25
4
26
33
10
22
15
-13
21
60
-61
-5
12
-4
6
-21
6
39
20
25
29
25
-13
-35
-47
-18
3
1
-8
58
54
-19
3
4
-4
33
5
21
49
19
-20
-32
-75
4
-7
17
34
34
34
7
16
-36
7
-6
-13
-8
-21
-49
16
38
57
-5
3
5
-42
-7
7
13
29
16
1
52
28
-35
-9
10
9
50
43
-19
17
9
-22
-63
-64
1
49
22
-2
14
46
-41
-7
30
10
2
-13
9
37
10
-43
7
66
24
3
-59
37
-6
-55
52
-18
-46
-1
5
-8
11
36
22
16
34
21
2
-32
-61
-1
13
1
44
53
6
-28
-19
-60
32
24
-30
-15
43
35
-15
-45
-27
-39
7
5
1
68
53
14
53
19
29
46
12
5
-27
-44
16
16
23
29
16
6
7
19
2
-11
34
9
-27
-11
7
-67
26
-51
11
18
20
-9
46
24
15
-14
26
-13
-39
-22
-2
-2
-35
14
-12
-15
13
-12
-5
-26
-53
-47
42
5
25
16
23
7
46
37
17
4
12
10
-12
35
4
44
-29
-30
-17
-21
-56
-13
-36
-15
-6
-15
-21
-8
-26
-20
-26
-5
-2
16
-25
-42
7
-32
-32
-18
-31
6
-23
-10
-17
-12
-24
-22
-20
-28
-8
-32
-6
4
-4
-39
0
39
-6
-11
-1
-16
-15
-22
-34
-31
-14
-28
-33
-12
-8
-19
-40
0
7
-25
-60
-76
-6
1
-14
29
44
16
-5
19
15
20
16
14
8
15
26
24
-6
-53
19
-15
-13
17
-10
-31
-28
-21
-42
-48
1
51
6
34
39
-23
0
5
12
18
16
44
25
34
-22
-58
-9
45
56
47
8
36
15
-25
-18
8
-16
-25
-31
-4
-28
-26
3
-54
3
14
-18
-18
-13
-42
-9
34
36
7
23
19
20
-5
14
16
-6
-16
-21
11
5
12
25
57
62
4
18
24
-6
-1
27
6
33
13
41
-22
-11
53
7
-58
25
20
17
11
20
38
18
46
19
-10
21
5
18
30
-13
31
38
-16
18
0
-39
4
11
12
17
21
23
2
20
13
-50
9
23
-30
-9
12
-28
-25
-28
31
12
14
45
31
48
-8
-20
-14
-20
-14
-24
14
18
16
32
39
19
-43
-4
-14
-25
-42
-6
-18
-2
24
-17
-62
-20
25
22
-27
8
26
22
7
12
9
11
25
18
6
17
33
-7
-18
-21
-35
-18
-27
-14
-18
-31
-57
-22
-62
-6
-9
-3
4
50
10
6
-49
-8
2
-27
11
-27
-29
13
-4
19
4
-5
3
-66
-24
-14
-31
-8
-50
-62
-15
16
12
-8
5
18
-3
-37
4
-9
-27
3
-31
-21
-18
-5
-24
-31
-48
-32
33
-31
-4
53
-3
-3
-1
-7
-61
13
-34
-20
-25
17
3
-3
26
49
22
-1
16
11
-13
36
43
-25
-5
31
-41
-25
10
-48
-24
-8
-21
-12
-31
12
-17
-20
15
0
19
33
27
43
-4
4
-1
13
25
25
6
76
11
-38
-52
-67
-4
-33
-27
13
0
-36
-5
-6
-46
-36
-36
-27
-38
-55
-1
16
20
-13
21
44
32
2
14
28
6
2
-6
-58
-8
41
-25
-50
48
-20
-22
-13
-7
-17
-15
-31
-32
-7
-17
-24
-5
-3
-52
-28
-52
-17
6
-35
17
-21
-12
13
62
-22
47
33
-21
10
11
3
19
10
13
25
20
17
21
-1
21
8
6
-12
-39
-74
2
-2
-21
61
-60
-105
8
40
53
-17
28
-34
-19
11
-3
22
33
31
11
33
24
-13
-43
10
-6
-36
17
-6
-24
17
-12
-13
-9
-19
-40
23
-35
-32
9
-5
23
16
23
21
19
20
24
3
14
-19
27
-14
-34
-47
3
-8
-43
-9
-48
20
-25
-23
9
-39
-12
15
12
25
6
-27
31
34
-33
-7
15
-7
-1
6
14
17
35
19
36
14
27
-35
-14
43
33
-18
20
32
-31
-33
-6
15
-46
4
31
-23
-4
25
-8
-10
19
-15
-12
53
-51
-25
36
-9
19
-1
29
17
-2
16
38
26
36
-9
13
25
-17
-23
-36
-49
-23
-2
2
27
26
38
9
-9
18
16
-42
-8
-14
-20
-32
3
-10
-6
-32
0
-14
10
-39
-21
-22
-20
-38
-16
1
12
-26
12
-26
-43
32
-23
-58
-25
-34
-25
-103
15
29
-8
24
37
16
-23
1
3
-38
-25
2
-28
-31
-12
-31
-26
7
-25
-13
16
-43
-19
-14
9
-2
26
28
14
18
20
46
18
14
7
23
33
35
11
23
20
-24
-52
-16
45
29
12
17
58
13
45
8
-7
37
46
30
-17
-7
-1
35
4
24
7
40
-9
25
14
28
-18
-26
-2
-18
-28
-2
-24
-24
-8
-5
3
-18
6
30
32
10
28
32
-1
-64
-18
-63
-10
1
16
5
30
13
3
17
8
25
23
17
25
6
-3
-37
17
-49
-4
14
-52
-3
17
-2
-1
-18
7
-11
-31
-21
-40
-17
-9
14
-6
24
44
16
36
24
-2
-4
-27
5
-13
-15
-14
-28
-34
-12
-14
24
18
-1
21
30
2
14
37
23
-16
10
16
30
25
33
20
1
9
-43
-9
28
23
-28
44
24
-34
-22
-21
17
-14
-37
-18
-19
6
-24
14
21
17
22
23
26
-2
24
9
-14
-11
-14
-3
-47
-45
-22
-4
4
5
19
19
22
28
27
24
25
10
1
-30
-30
17
-17
-35
-34
-10
4
5
-14
-21
50
45
-30
38
21
-24
5
30
0
36
25
7
22
1
-5
2
20
1
-3
25
25
9
27
28
51
40
-27
43
-3
-46
32
-4
-31
-48
-39
21
6
-29
32
6
43
61
14
19
-14
24
40
-80
71
-32
5
17
3
0
5
31
26
10
7
20
-23
-34
-6
-21
-20
-2
-22
-28
10
-4
2
1
-46
-37
-6
-10
-1
-27
17
50
-7
38
40
-15
-23
-10
-54
-3
12
0
20
39
10
5
35
12
25
35
-84
-66
28
27
21
-4
54
-12
21
-2
17
23
21
11
21
32
18
-32
12
5
-41
-4
-10
-30
-18
25
36
46
31
24
-9
12
8
-19
-11
-13
-2
-22
47
-4
28
59
47
-41
-51
-47
13
19
19
23
38
31
2
4
-9
15
12
13
34
41
23
17
10
24
17
26
22
16
27
11
-1
-13
7
25
24
25
21
45
28
-1
-1
-37
-26
-19
-11
-19
-42
-10
-5
9
3
7
16
15
-4
37
31
-11
-12
3
-11
-18
-29
-11
-24
-2
-6
14
26
8
34
25
13
25
-8
29
-8
-21
49
-3
-47
40
22
-10
28
-63
-19
54
-48
-28
49
52
17
11
24
21
-3
35
21
27
8
23
0
24
4
-4
-2
-10
-13
-15
-79
41
57
-10
35
4
-25
6
-43
-74
12
9
11
-2
8
31
20
25
22
-69
17
-2
38
-35
-41
42
16
-40
1
8
11
40
10
14
-46
30
32
-19
-30
-5
5
-83
-1
-40
-4
10
-39
-30
-30
-4
-12
-9
-19
22
12
-12
19
25
9
39
2
15
22
4
-10
-36
-54
0
10
-32
-41
-6
-6
0
-60
-15
-4
-20
-17
-6
7
-10
-32
-8
2
-14
-16
3
-26
-26
-5
3
24
18
-21
-22
-16
-62
-40
-33
-5
-7
-10
-22
-43
-11
-28
-3
-23
47
8
6
19
35
0
13
37
-34
21
5
15
6
20
41
14
33
-8
-13
3
2
27
8
21
43
20
12
-12
-39
-32
38
30
19
34
9
-8
31
57
45
-5
16
5
-67
-43
-23
-6
-3
-15
34
26
-24
31
22
42
-23
-56
-59
-19
13
-14
12
23
-5
-10
3
24
-11
32
38
1
20
47
3
24
31
-21
6
54
-25
-19
17
-41
32
60
9
20
41
-2
1
-5
12
-4
7
7
27
20
7
21
24
-40
14
19
3
32
18
5
36
3
-23
-18
-36
-21
-37
-3
-6
-6
26
2
-28
4
-39
-35
-8
-41
4
21
-4
44
46
-1
-11
18
-26
-33
-37
42
61
-19
14
13
8
-13
-37
-55
0
14
20
19
23
30
21
27
-7
-4
6
-18
-15
-13
-35
-23
-44
-21
-3
4
1
-9
-20
-56
-11
-33
-11
31
13
13
23
25
-1
23
21
-7
-50
-72
1
-21
8
33
23
88
-21
-10
-1
4
6
3
7
16
30
52
-21
-7
10
-43
27
2
-51
22
3
7
4
0
-12
-20
-43
-22
-37
-19
-59
-45
-4
23
-34
-17
16
-14
-7
-49
-35
25
-32
-18
44
-19
-2
36
-13
24
25
17
31
26
14
18
8
-7
0
-7
-24
-13
-10
-32
-23
-17
-2
26
12
-10
14
43
-4
14
27
1
8
-16
27
29
9
3
53
17
14
-25
-23
41
22
-4
40
26
-63
-6
-15
-16
-17
-24
-21
2
-31
-20
