384
0.32575616
0.6664245
-1.0951868
0.5085752
-0.3100226
0.366294
0.6461334
-0.77873445
-0.67898184
-0.9972151
0.35109654
-0.5126474
0.7534305
1.0686922
-0.6917762
0.5881337
0.6387672
-0.8011865
-0.045800395
0.48893777
-0.5285913
0.099348694
0.6408892
-0.75488937
-0.07937865
0.31350607
-0.018211126
-0.16493386
0.90122074
0.46681756
1.0020448
-0.18957509
-0.7288244
1.0380913
-0.5989307
0.3515281
0.099794194
0.5890779
-0.31477094
0.6430607
0.16485924
0.31955478
0.43217826
0.31048617
-0.7837841
-0.47709063
0.7179264
-0.75269973
-0.88435024
0.64717376
-0.34324527
0.57317865
-0.062711485
-0.413603
0.90890193
-0.019600462
0.3001737
0.026354581
-0.6708997
0.52282315
0.8305733
0.12792711
-0.15724991
-0.43292242
-0.80318254
0.37902993
0.59327984
-0.524683
0.65703565
0.34583092
-0.42458066
0.43939328
0.6920707
-0.68018574
0.5020798
-0.7854968
0.32032916
0.4205154
0.38176307
1.0717719
-0.8116361
-0.17654446
-0.89190686
0.44353917
0.15538514
0.3896128
-0.15048471
-0.47797418
-0.715518
-0.8573726
-0.14942893
-0.42761979
-0.4938637
-0.58676285
0.9716228
-0.14059658
0.50077695
0.14724354
-0.38806912
-0.13313061
-0.46223986
0.54714596
0.17742705
-0.54007316
0.6923084
-0.69923013
-1.0429584
0.6719321
0.60244995
0.32862163
-0.9309391
-0.035585128
-0.39425954
0.9296037
0.09769446
-0.8280403
-0.0755769
0.8773875
0.8001481
-0.17737034
-0.78555393
0.35888597
-0.8358699
0.79583603
-0.3176877
0.43376893
0.1598455
-0.6311389
0.8594059
0.36739513
0.05149938
0.89449155
0.7543471
-0.45086128
-0.42945436
0.3057231
0.74228734
-0.21324842
-0.1933029
-0.5900292
0.7925928
0.85228086
-0.8239133
-0.8288416
0.18367615
1.3065492
-0.060281098
0.10641362
0.54540974
0.16189823
-0.5520398
-0.52050877
0.5449571
0.465932
-0.51540196
-0.2819705
0.19892538
-0.5053652
0.6005493
-0.8316093
0.57557553
-0.58879054
-0.64279497
-0.11176029
-0.7804427
0.6279379
0.68369424
-0.047686774
-0.10398324
0.11815419
-0.55925643
-0.8098452
0.72958547
-0.8220001
0.5006921
0.06307958
0.12575574
0.5323358
0.1707694
0.25043148
0.5320912
0.82380617
-0.55217
-0.004095697
0.2612735
0.7420924
0.8371965
-0.56887764
-0.7078599
-0.3297242
0.78587323
-0.08128837
-0.3358724
-0.7078891
-0.19935378
-0.4358378
-0.20733976
0.05531741
0.72193587
0.16778412
0.49677664
0.4729814
0.05609093
0.07784998
-0.46957144
0.345418
0.0049289763
-0.73858064
-0.28223675
0.2565764
-0.74345934
0.5369837
0.06669496
-0.3654544
-0.1345017
-0.09400609
0.40926233
0.14182675
0.6662017
0.3572851
0.46315077
-0.9515992
0.54704124
0.8247734
0.035009637
0.5958386
-0.23249787
0.73223054
0.037454225
-0.32082856
0.868634
0.44334567
-0.32825398
-0.5690839
0.75504756
-0.86659473
0.16706367
0.44135523
0.7148562
0.45397592
0.8663527
-0.7102407
0.027547557
0.036726285
0.23330696
-0.6861354
-0.15114316
-0.26197028
-0.8915018
0.2517135
-0.2764888
0.7262434
0.09225011
-1.0164385
-0.9263525
0.7634004
-0.96476394
-0.7391415
-0.553394
-0.5226774
-0.5574052
0.124455556
0.14289743
-0.88749886
-0.015305591
0.04544867
-0.46024615
0.87602276
-0.7116799
-0.09835529
0.49668497
-0.84969753
-0.5193493
0.742424
-0.19108306
0.7954477
-0.7735313
-0.2677077
-0.5104198
-0.1718756
0.18232203
-0.1822856
0.40540558
-0.14413026
-0.6255038
0.51122624
-0.034538075
-0.7336637
-0.17997244
-0.92595315
-0.17067812
-0.54938823
0.1273128
0.15348531
-0.721972
0.8089168
-0.8766635
0.56300825
-0.19721583
0.72103757
-0.051060468
0.065110505
-0.65094036
-0.9064776
0.092791915
-0.20709422
0.6355633
-0.31119722
-0.59854424
0.68610454
-0.25661445
0.49289662
-0.76684326
0.8349673
0.70749605
-0.5263113
-0.004889205
0.757628
0.7296243
0.11266871
0.5935589
0.5029969
-0.716277
-0.8295811
0.906966
-0.19665724
0.84776866
-0.012055241
-0.9396332
-0.45138058
0.43767148
0.61340404
0.32886967
-0.04734408
0.21075618
-0.74893546
-0.70753175
0.6883409
0.3472459
0.70819545
0.7259924
0.4479993
0.16977748
-0.3154602
0.9383023
-0.8170259
-0.30953163
-1.0741736
0.15667036
-0.9742363
0.8086695
0.58745414
0.08193992
-0.70372623
-0.6413934
0.24935941
-0.18901956
-0.683293
-0.5314814
-0.4149469
0.39394158
0.4594153
0.80698407
0.65843785
0.11668056
-0.27053097
0.3664718
0.09874152
0.79749763
-0.34281078
0.2806313
-0.6658426
0.7011465
-0.69218796
0.76160747
-0.47862798
-0.6184609
0.73921776
0.64414847
-0.75106674
0.60893327
-0.13758287
0.24071875
0.7767921
