192 1 3 3
-58
-33
-10
-69
-16
30
13
33
18
-26
11
-13
11
23
30
-49
-45
-37
0
-32
-8
-13
-17
-3
-8
-17
-18
-34
22
24
-56
36
4
-58
-7
20
-14
35
-42
22
51
12
-17
58
20
39
-29
4
-3
11
-9
-94
-11
1
-59
-66
122
-8
21
-78
57
-13
59
53
53
18
-48
-27
-31
-10
34
38
67
13
47
-5
-93
-57
6
-74
13
47
70
-31
-22
-13
-29
61
-79
-63
41
-71
-8
77
-70
-53
23
-31
49
-10
-62
-41
0
9
22
22
14
51
29
27
-9
-17
40
14
-3
34
43
-21
4
15
68
12
22
32
19
22
-18
16
-3
-23
47
-33
-40
49
-47
-5
-11
34
-18
17
13
38
-7
69
-2
2
38
13
52
27
-22
24
21
-2
-28
-52
37
5
54
-26
-38
-51
-6
-35
-3
-13
-43
3
10
-38
17
8
-56
-21
-23
-56
48
12
19
50
-61
5
57
-70
-10
42
-36
9
17
-10
-26
-34
7
-2
-48
-21
16
13
-16
-2
-50
-27
-40
-31
-16
67
27
-1
-4
-8
41
14
22
53
9
4
-20
-28
19
10
16
82
-9
-30
31
8
-1
22
-5
-34
0
-49
-28
-35
-55
-41
39
-14
71
-49
-10
39
-41
-50
1
-38
25
72
38
-9
41
-45
19
4
11
-10
-21
63
-11
-18
47
-43
-44
-55
7
66
-1
46
34
9
-36
-5
-31
18
-42
-22
5
123
51
7
80
-24
62
-12
10
-49
8
-31
-47
25
-20
20
127
-19
4
-18
-48
-3
-34
95
-7
2
-43
-52
-11
7
-19
-26
13
-10
-26
2
-9
-54
-6
-37
-72
-19
45
85
82
-23
-78
-35
-17
10
-18
-31
-58
-41
6
-25
-17
-54
-3
5
-22
7
43
24
54
-5
8
46
-32
-44
-23
58
-23
-26
63
11
59
8
13
-1
-25
-50
-83
22
-3
11
7
93
26
33
-37
15
-51
23
47
-14
33
38
-42
-30
35
-17
-5
26
65
23
3
-20
-93
-62
-23
15
15
-43
-17
-49
16
-8
-39
-9
28
-34
-35
50
4
-4
14
43
-48
-48
4
61
-39
-33
15
-50
-41
-9
76
-7
-48
35
32
-40
18
17
-4
46
49
-79
7
23
-25
74
-40
-32
-14
12
6
-20
-20
-24
-15
-26
-30
-7
26
-3
17
-9
33
39
27
7
-5
18
-25
-2
80
-43
2
24
-52
-92
-98
14
-7
20
25
-36
37
13
-41
-36
-25
70
27
-64
36
34
3
-1
37
-35
2
34
-17
-67
46
20
-19
-14
-48
-11
26
18
6
44
52
-38
22
-31
-50
40
-43
-33
58
-29
-13
-20
-8
55
14
11
40
22
37
-16
-22
-18
-7
-21
-18
-5
-11
-23
-9
-42
-55
39
9
20
-51
-46
-14
30
39
7
-9
-4
0
-71
-61
-11
17
11
-12
26
44
6
10
55
25
-13
8
-4
-30
-17
-33
-31
-3
-27
0
-45
28
-26
37
26
-85
-19
40
12
-49
21
-33
-38
-13
88
34
-26
64
88
15
-11
-32
-38
-7
-30
-50
4
23
-8
18
46
68
-50
-32
-10
-16
-57
-45
17
31
-33
-10
19
16
-16
-20
9
-20
16
-64
-39
-8
-17
-20
0
4
-42
-48
-19
-15
-18
0
24
51
-22
32
14
-12
-5
-75
-60
-31
-114
-43
-3
54
-3
47
52
1
7
15
-16
3
-33
-19
-32
-48
-3
-5
-59
-38
44
10
6
-9
-43
-14
-4
-46
-24
-12
-27
-35
-13
-19
-30
8
13
2
-14
-25
-10
75
27
7
80
-91
1
50
-28
-27
76
-33
-7
24
29
-1
-31
-36
9
-14
-29
-9
14
-13
-12
34
-4
17
12
38
27
-13
-1
-13
24
-50
-22
22
-41
-36
-22
-8
-9
20
30
-11
22
70
1
18
47
34
-27
12
52
-30
-31
-12
7
14
-77
-29
-16
-7
-21
-35
3
87
-22
-9
6
-1
-38
-46
8
-11
56
31
19
11
5
-8
-50
-30
-70
18
11
16
26
41
17
-8
31
-13
-11
92
-13
-7
15
-20
-18
-1
-43
-40
55
42
-48
35
-2
-37
-27
-34
-49
12
-49
21
96
38
-34
-37
-95
-35
-8
15
-85
32
65
7
-19
78
20
23
10
-11
-35
-32
-11
-70
12
-1
-51
20
-49
15
-29
-8
-22
-28
18
-38
20
-22
-45
9
1
-20
9
-19
-37
-31
-43
-17
6
48
40
45
-36
23
105
20
-45
-14
-8
-11
-22
-48
-32
-50
48
40
-43
48
-22
-9
-51
8
-7
-29
49
15
-56
43
35
35
25
-23
9
35
-37
-15
14
-51
-13
-10
-49
-23
-31
-9
-6
-4
25
17
-28
-12
23
-8
-60
-8
-16
-41
-18
-13
-17
-19
-16
-20
-19
-9
-9
26
-4
-34
23
-2
-24
37
2
-31
19
32
-13
-1
20
-1
15
8
48
-34
21
13
-65
18
70
-51
17
19
-21
-17
-15
-10
-32
-29
-4
-6
-15
20
-2
45
-12
-44
-23
-16
-35
-17
4
8
26
25
33
21
8
-10
18
-21
-12
-27
0
-25
-27
-7
-39
-15
-8
13
9
-4
49
61
-55
-12
13
84
-15
-57
10
18
-44
-6
-15
-13
-44
-9
-39
-14
-5
13
31
33
58
17
36
-72
80
37
-83
3
13
-48
12
18
17
3
83
-26
-8
21
7
29
2
-4
-18
-45
-32
-20
-36
-39
-15
7
-4
-25
-27
-23
2
-27
-13
33
14
36
-52
-114
-14
-15
8
10
7
-38
-31
-8
-27
-13
-11
-36
4
32
70
8
9
10
-6
-20
-54
-22
11
6
20
-10
76
45
-5
-6
-25
25
-8
11
-45
-7
-9
-33
-26
-32
-17
-39
38
-14
-36
58
-15
-7
58
60
-49
-20
14
-3
-24
17
6
-16
-57
-31
21
4
11
-51
71
24
16
-11
6
-32
-25
16
-18
9
-88
15
82
29
21
-25
-13
6
-87
-72
-12
-50
24
-21
7
29
-20
-30
-58
5
5
3
-20
-27
43
18
-22
-35
-64
15
-44
-32
-67
40
-37
-39
34
-17
8
9
82
-1
21
68
-53
-15
-39
-4
-4
-15
9
-4
19
34
19
80
73
-15
-13
29
-46
-12
43
-44
-6
-9
-90
-42
-8
24
19
14
4
28
9
15
21
-15
-2
76
-49
-19
-40
5
0
-25
12
-47
-26
69
52
-23
52
62
22
-7
-12
-30
8
-43
-4
1
21
4
8
41
3
22
20
11
-10
0
-12
-6
-53
-7
-3
-22
-21
-18
-5
102
4
-17
30
-59
-9
-8
4
44
36
15
33
33
5
27
31
7
5
23
28
52
-3
3
24
-4
33
78
-20
4
41
7
-3
-9
-4
53
47
53
-23
-5
9
-17
-16
9
16
-31
-68
-9
-16
-61
44
36
-19
-8
4
-60
37
71
24
-3
-28
21
3
22
-52
-62
92
3
-16
28
-68
-41
21
-7
16
-5
-34
-22
-38
-17
70
51
6
0
-15
-32
39
-61
6
-8
-4
-28
40
40
-20
38
-3
-59
21
29
25
15
18
23
7
14
-29
-9
15
13
-53
-21
-26
-10
-18
3
11
23
9
8
16
26
0
40
6
110
-128
48
83
-79
-9
58
-33
-34
8
-9
-37
13
-22
-26
16
-34
-24
13
-33
-11
-1
-10
-25
-25
-6
-33
-5
-25
31
-70
-51
-54
-4
33
-39
15
11
-34
70
-3
-11
66
-12
-39
-91
22
7
-29
-7
-19
6
30
-66
14
-11
-28
15
50
15
10
40
19
-22
-49
39
17
23
35
-24
-58
-14
-9
5
-14
14
-1
-37
23
-7
-48
-27
38
-7
-68
41
-3
-28
13
6
72
49
16
-34
-3
43
-58
-26
-62
-37
17
73
-31
0
23
-21
-7
-56
40
20
-11
5
44
14
35
24
-43
-45
-12
34
-20
-47
52
-48
5
30
-30
-33
-54
27
25
0
21
49
-6
26
-14
-44
28
37
-70
30
28
-50
-19
-41
-14
-31
-17
-44
23
47
14
74
13
7
-11
3
-16
19
38
-4
16
38
36
-1
0
37
-4
-7
-6
-8
-25
-16
-9
-5
-16
-23
-16
-33
-20
-14
-21
-19
-41
-21
-15
-27
15
13
-60
8
-59
-19
-18
3
10
-20
28
64
16
16
54
-17
-14
-19
-39
19
8
9
28
34
-14
38
-15
8
-8
-4
-26
24
29
21
37
15
29
-5
23
79
-6
4
24
-4
-22
-25
-32
-45
-34
28
-6
-8
48
72
-19
-24
33
24
-25
-37
-40
-12
-41
12
-23
24
-4
45
5
-10
51
-49
-89
-47
-47
-26
1
2
-7
-6
11
-3
5
-33
-27
43
-65
-27
38
-13
-7
-62
-3
3
-28
20
43
-27
3
13
29
69
31
17
-19
2
-42
-27
-10
-58
-11
-11
27
46
34
27
41
2
29
-16
-22
-14
-33
18
-63
48
78
104
-56
15
-66
46
32
30
12
-70
-9
-36
-33
13
-3
-15
-75
13
37
-5
-24
-1
-13
-32
2
-15
-31
-7
-5
26
14
19
13
13
13
47
0
64
36
-9
32
57
-62
-3
-58
-36
25
-11
-41
-17
14
-21
-29
22
-75
-31
8
-12
-34
51
-37
-3
64
-91
