192 32 1 1
-38
-13
3
-15
-33
-46
16
19
32
21
-52
-56
75
71
-58
75
-67
64
-38
-26
11
-8
9
91
42
-34
-5
-9
127
-11
-72
9
-3
52
-33
48
43
9
34
2
-44
-8
82
-61
-26
-25
-48
6
-29
6
-71
-40
-3
38
78
50
5
20
59
28
56
48
5
-13
46
48
-72
-32
74
17
107
-79
5
-17
21
65
59
-43
43
31
-10
-21
-35
36
1
12
26
30
4
63
25
26
3
-26
-28
-36
37
-104
9
17
-32
-24
-54
25
-27
-18
19
23
-39
59
-24
36
-39
26
-19
-89
-47
-82
-26
52
-8
39
49
-21
-50
-45
55
26
-40
38
24
50
12
47
-51
-18
43
36
-25
-21
11
3
47
8
-21
-31
-11
-5
22
73
-30
-107
49
-59
-4
5
-29
-35
-29
9
-40
-9
33
89
33
32
-54
44
-28
-4
-128
57
-3
-52
-49
-3
24
64
-33
22
-116
127
-28
6
-24
-41
-4
66
49
-33
33
-16
-41
-40
-28
2
-35
19
-25
23
35
-11
24
-56
13
53
-41
-60
4
30
-91
-2
-42
-39
57
5
8
-46
8
58
-3
-36
15
-39
20
1
16
-5
69
-52
-3
-3
13
18
-11
3
-51
-56
-58
22
-13
32
-10
-85
29
-31
10
-39
15
-34
40
23
-13
17
28
5
-32
10
-11
21
-31
37
32
51
-21
41
5
-45
46
-27
3
17
-30
23
16
-47
14
34
-18
-25
81
-31
-34
-39
8
-27
18
-22
-20
-22
33
19
-26
21
16
-24
-61
1
-89
-32
48
14
38
25
6
52
-31
53
-1
28
-37
-16
-1
19
-55
28
55
0
49
18
-10
-38
9
-23
-43
20
-10
1
-2
-50
44
22
34
48
0
-3
-22
102
-39
-34
54
-2
-1
-6
-70
16
-15
40
-27
15
27
52
0
-44
-24
38
-70
-47
36
-38
-44
-31
15
16
43
14
26
48
-22
86
-13
-78
32
-13
29
14
22
31
55
-73
61
33
-21
-57
-7
20
-24
31
-40
-5
55
-3
74
9
-17
-43
34
-46
-5
21
73
9
-2
2
6
52
6
18
19
-24
37
-8
-2
-15
54
-46
44
-7
52
6
-57
-20
-6
43
-29
0
8
-15
10
-30
12
-25
-11
20
14
35
-69
38
80
2
17
-8
-23
1
2
20
68
-11
-36
18
-26
48
28
-58
21
-5
56
59
0
63
-19
-14
53
-19
29
120
-25
-45
2
-29
64
-1
-46
12
-3
21
-28
66
-57
18
-45
-19
-51
-14
6
45
23
18
-3
28
48
9
-27
7
11
61
-9
14
27
36
-40
-16
70
-14
35
-3
2
-71
1
33
-19
74
32
-44
-25
30
-97
-46
43
-31
41
7
-14
-35
-36
-16
12
3
9
31
-26
-60
16
-12
16
66
21
-34
-38
-7
-71
-19
-34
-37
-47
-34
78
31
32
-71
-1
27
43
-1
-3
37
-27
15
-45
-87
-32
64
23
-30
-2
0
30
-23
6
-103
-18
88
33
-5
16
-16
10
41
-43
-42
-9
-54
5
49
-62
-3
-3
-2
-53
-10
105
-14
15
73
-43
-15
44
50
19
72
-65
4
-38
4
0
-1
-35
31
37
79
-39
-34
-55
-74
-72
92
27
0
-12
-33
58
41
-38
25
3
5
24
95
-4
-8
40
50
-115
-81
-36
38
-15
22
24
-43
17
10
9
15
23
47
15
-47
-28
-23
-85
-9
28
-60
17
-33
9
47
-36
-28
-19
-42
-52
1
14
22
38
40
-73
31
-4
-22
0
38
-6
-12
35
-43
76
-24
22
-16
3
27
-4
-34
5
-3
-8
-73
-50
54
23
-21
35
96
14
5
6
30
-5
-19
-18
19
75
-31
65
-7
-26
41
-45
26
-69
18
-31
-30
15
1
10
-25
10
19
86
95
21
-18
-1
11
-42
89
47
-53
67
-8
-22
70
-11
31
27
9
-8
22
88
10
-50
-6
-35
1
-16
17
-35
16
-16
71
-66
-20
13
-17
-14
-89
-5
35
-3
28
17
42
24
1
-23
13
34
-7
17
51
52
-59
-29
31
-41
67
-28
69
-22
-22
35
15
36
-23
-13
-8
86
-45
30
-10
-36
-5
21
15
24
40
1
32
-8
-72
28
92
-51
21
-52
3
-30
-56
0
18
76
-46
3
-16
-25
-20
8
-41
-1
0
12
-40
21
25
-12
-35
36
-8
32
-101
10
23
7
-79
28
-32
-38
36
-8
-18
-21
-22
127
-2
-62
-3
83
22
-32
15
-19
13
-10
30
7
-3
67
-16
91
-2
-33
22
2
8
18
35
-2
-25
0
14
-24
18
3
37
48
-24
-30
-53
19
-41
-23
-27
16
25
-26
-40
71
-10
-36
-52
-12
35
69
-6
29
-34
-97
-25
-99
-43
10
1
42
-10
-16
46
-16
16
-20
-54
-48
-16
0
7
-11
39
-60
125
-4
77
-93
-47
-42
-36
-55
-18
36
19
-12
6
40
-19
-14
0
17
-25
20
30
20
24
14
49
-47
-19
-13
-1
-18
-27
-25
31
-22
-5
-16
3
1
-39
-41
-9
43
-30
-49
59
-25
-53
23
-11
44
-35
-31
-50
-38
-31
-26
-25
-4
40
43
50
11
-3
55
-13
-14
-83
37
-19
49
29
-74
21
118
21
-27
-20
-38
59
50
48
29
71
-37
-101
-79
46
33
56
61
22
-12
-40
4
-10
18
-33
-27
-2
-10
-17
-23
18
-19
-1
36
25
-23
14
17
4
-74
1
-14
-5
29
4
-44
73
-36
-15
-24
38
5
18
-1
7
-8
-4
-37
-3
-24
4
-9
-20
32
-60
-79
36
-34
-98
-23
111
-81
1
-3
34
-12
28
54
61
-29
-65
7
104
32
-31
4
58
-12
-1
-5
61
-7
-10
17
-33
24
20
39
-9
-9
-86
49
10
-10
-16
-21
14
-55
-10
5
-27
-23
3
8
16
-5
0
-57
-33
-43
50
-41
38
-14
-7
11
-61
-54
-56
21
-8
-49
-21
-32
-28
5
-32
13
-29
4
0
-25
29
-53
37
-28
18
14
-37
-10
-30
-12
-23
-11
7
1
-44
22
-3
23
-51
-23
42
13
1
-14
-28
-32
9
25
-94
-8
25
-25
-2
-39
55
72
-7
-47
8
10
-64
68
-75
37
31
34
39
-22
-52
41
12
3
32
-53
-125
38
5
0
4
-39
18
-49
-39
-25
-18
-12
-27
7
-25
-10
-18
3
13
-1
18
-31
27
50
-21
-53
-29
40
35
-42
-27
-28
-6
-43
-44
10
-24
58
-40
29
-22
12
-26
46
-45
14
64
4
52
-6
42
2
-14
-39
86
14
-37
-2
-21
48
28
-49
19
7
28
-7
30
24
-7
-48
28
6
-7
-30
20
6
9
14
-33
-25
-15
-10
53
7
45
19
-3
8
-56
10
46
-21
15
43
-44
-52
32
33
1
-10
19
-17
47
-2
10
-15
-2
-46
48
8
6
-62
7
-8
-20
-7
21
-48
-48
-50
1
14
-38
6
41
-33
-32
-46
-89
-4
7
56
-36
-9
-15
45
-32
-90
28
22
-31
1
5
-21
7
-3
-2
9
15
-3
25
-30
-31
-69
-95
-32
-17
24
-12
-20
-48
-16
16
14
-42
-9
-25
32
-31
13
-13
-42
42
-14
49
-42
-35
-27
-16
17
-4
-36
-2
-70
-41
14
-12
-1
-59
-75
24
33
-29
-11
-63
22
-7
3
-3
-41
-67
36
-17
-45
-39
59
-16
50
-63
-35
31
127
-20
43
84
-9
114
41
-4
64
27
33
15
39
6
36
24
19
-47
7
37
-69
-9
-61
22
32
3
17
19
41
-17
6
-63
81
-14
8
20
10
39
-37
28
-11
2
59
-35
-39
-38
-39
-25
-68
6
4
-56
-26
-17
7
-46
49
12
11
17
-28
-31
26
-70
7
25
-45
-41
-18
51
-34
13
22
-79
-11
54
-27
-14
-62
57
49
2
0
-60
-21
-23
-19
9
28
15
-10
21
-76
-6
-79
-2
1
61
-63
-84
32
-7
2
-47
-65
-10
5
14
-18
79
-83
-1
45
16
8
29
53
5
27
-41
-22
-2
-47
-11
27
33
-35
16
-10
4
-8
3
4
-27
-21
13
-40
-7
47
-45
41
5
-68
-62
5
-73
12
93
-48
18
15
59
24
52
94
-31
17
48
-49
61
6
42
-57
-13
51
-22
-4
29
35
35
-3
39
-71
-57
60
45
-24
-14
-18
19
14
-19
10
-24
12
24
-5
-27
-39
4
42
15
4
-9
35
24
-27
-10
-19
-28
-56
15
-12
-16
1
-10
-34
-14
9
9
-20
-24
-6
66
-11
-13
-7
-2
72
-32
-13
-21
50
0
-20
45
-18
7
36
-2
30
36
-63
-21
-47
34
24
24
-61
-80
29
-15
9
-17
44
-44
-8
-18
7
-21
44
6
8
30
7
-28
8
-57
-68
1
-4
-32
-18
-58
12
36
-57
34
20
87
39
36
37
15
27
5
12
-63
11
-12
28
56
-24
-13
-46
53
30
54
25
-32
-31
-25
51
-9
3
-16
16
37
8
-13
52
18
79
17
24
26
-77
-13
62
-20
15
47
32
51
-21
14
-8
45
63
-41
-8
-63
12
-24
-6
32
35
20
-14
-104
29
46
90
-14
-9
-21
-27
-43
-43
-46
-38
-82
-15
-15
-7
-30
-51
-13
-30
28
16
-36
-23
-10
-17
-38
-18
36
-29
-40
-28
-36
76
20
4
27
0
3
45
30
14
-4
11
-21
34
25
26
-6
10
-60
12
86
-2
87
-62
-15
1
-67
62
10
85
10
-16
-9
35
1
-45
6
-29
-24
-15
30
55
-23
-14
59
-1
-27
45
-8
8
53
-98
-45
-4
-33
-28
2
33
-16
30
-80
-60
-3
22
-35
4
-38
100
83
14
-61
48
-103
26
-68
-23
-124
-18
97
42
-83
-2
55
-11
7
2
-16
0
39
-5
43
-35
-70
100
-26
94
25
-35
-10
-43
25
-75
0
-30
50
47
-10
15
-41
28
-52
15
24
25
68
-31
19
10
10
-14
-84
-19
50
-39
-7
20
-54
-29
68
58
108
63
-15
-114
-72
61
12
-13
55
28
-8
-15
72
-15
15
36
38
9
-21
-89
40
0
-11
-14
-57
73
-22
-50
27
-36
-40
45
-49
-70
43
-67
18
-25
17
31
39
20
-13
-42
-3
-10
19
-35
-35
26
47
45
40
-14
-1
-17
24
30
-56
-46
-9
41
-8
-16
91
-4
17
23
16
44
-44
-38
50
68
10
21
37
87
-42
57
-2
-70
47
7
50
-32
-40
38
-53
-104
13
61
-33
-30
-1
-50
28
12
24
0
55
20
-9
-44
51
11
50
-63
38
-56
-3
-35
17
2
-21
-10
38
-26
57
-69
39
7
51
17
46
-1
5
-45
-28
0
-50
52
-41
25
32
45
-61
-38
-85
-30
-18
-43
33
-22
-23
15
-35
36
-64
80
-21
-38
-15
-31
-104
31
-46
-6
1
-15
24
10
-44
-47
-63
13
11
16
-46
-2
23
38
4
36
-34
27
7
-35
-40
-23
50
-4
42
30
-31
-50
-34
14
-22
-32
-6
34
-31
47
22
16
-4
-38
-64
42
-28
13
5
-66
-12
-12
3
21
56
28
-42
-31
29
-5
-7
-42
54
20
68
-49
8
49
-33
15
53
-22
62
-8
-31
46
-8
-22
17
-101
-47
11
59
8
46
-44
-33
-43
127
52
-12
-65
-24
-18
-39
-84
5
13
57
15
5
28
-83
-27
46
64
25
-16
47
-60
-50
-13
69
-68
-22
19
13
28
9
6
69
4
-73
5
-45
-62
55
15
-31
13
28
112
-103
4
42
18
-16
-120
72
-64
23
87
15
11
-42
-53
-35
11
49
21
38
-17
-37
-50
-8
-79
-12
5
-44
3
78
52
11
75
9
-15
24
-24
-28
58
-17
2
48
37
14
19
-57
-54
-59
10
44
-20
-24
12
20
-10
-76
-28
-25
-9
-51
42
-10
12
24
-42
-23
-8
9
12
-17
-14
-77
68
35
-16
-13
27
16
6
-11
39
0
-2
38
3
-2
-44
-87
-5
-43
-24
62
-48
31
31
-29
17
16
13
-38
-1
-6
-14
-71
52
-75
47
14
29
-18
-16
6
46
3
-106
-87
40
-75
14
9
12
-14
58
28
-9
-104
-17
56
48
-4
42
-32
-49
23
44
39
-87
-15
52
45
-52
22
-8
35
21
66
21
-40
98
66
-60
36
-9
-7
-5
-15
-34
-90
8
-27
31
-27
-6
-42
-11
-17
-41
-5
54
-17
-1
-21
-27
-9
44
-38
-128
33
-21
70
-18
-5
-44
-4
-20
-54
11
1
9
-18
39
0
-61
-11
1
23
32
-88
43
6
-74
25
-42
-44
-9
36
19
-8
-21
40
20
-10
-2
-34
45
31
-61
19
16
27
-39
14
-11
29
-2
-19
50
-3
-28
4
-29
-36
-40
0
43
-14
3
20
23
-1
-21
-3
-84
15
-23
-12
-48
-8
6
4
-28
-9
-63
-15
-10
-26
-12
8
-39
12
-26
-48
44
16
-29
-37
-40
30
-13
-10
-5
59
15
23
-31
-15
48
31
-30
-4
-17
7
-20
-15
8
15
-34
-128
-1
-31
-34
46
-24
-13
47
-86
29
-40
5
14
-27
83
15
-32
92
-64
7
-27
-10
16
-16
27
-29
-12
31
-42
-68
-29
-34
39
50
-24
75
15
-59
10
-35
33
-17
-20
68
-12
4
-55
-24
-50
43
51
47
-19
29
-72
-34
5
0
-12
-30
-44
-12
15
85
41
-15
-33
27
-35
13
-31
93
54
0
74
3
38
-3
88
6
59
-34
-56
-29
48
-3
16
12
68
-14
12
-15
-13
17
-17
20
91
77
45
-30
-1
33
31
39
-33
-10
127
-4
-11
52
-5
43
3
-1
8
13
6
2
-3
-4
16
38
-16
-21
61
86
30
-6
-31
12
-12
5
3
15
-10
12
2
-7
7
-37
-6
0
50
7
6
-44
-34
-25
10
19
88
78
-7
-28
-106
60
-10
-51
-37
-83
-55
-16
53
26
-30
-8
-86
30
-17
11
-2
36
-4
-41
-26
36
76
54
-42
-34
-11
-22
-37
-6
42
49
-5
99
90
8
28
24
-8
4
37
9
7
-21
-48
-1
2
35
10
4
-44
-8
-56
-43
-20
29
0
58
-3
17
-35
-32
-51
-13
-87
32
18
18
-75
-6
26
40
-20
-50
-31
10
15
-31
56
82
35
61
-28
7
-101
-30
3
69
-18
23
-7
1
41
-37
64
10
58
-38
46
-1
21
37
5
-27
-22
64
52
-13
-80
41
24
-21
-19
-4
127
20
10
-29
-12
-19
51
-1
-31
16
-3
-29
22
-49
12
-33
17
-46
-10
47
-2
38
-16
-47
41
-23
-50
14
24
-21
14
40
2
5
20
-29
9
-10
35
64
-24
10
-30
-12
80
6
20
-49
-15
80
-43
-6
26
15
-43
18
-29
9
19
26
-60
-43
-24
43
-26
4
24
-39
-34
-65
7
-21
-4
27
27
-2
-78
3
-27
-32
-2
-8
-18
-7
-38
-23
6
7
-57
14
-13
-22
-35
1
-68
-1
-25
51
42
12
53
-63
17
-14
-7
-8
15
1
5
-5
13
-27
-54
2
37
-38
-1
-25
-51
-3
39
-13
-52
-56
-55
61
-54
-25
-81
-103
1
9
21
11
-24
28
20
-39
-18
18
24
-33
13
29
11
-56
-60
5
-12
11
-41
-49
-8
41
-8
-10
25
-3
-42
48
14
-3
81
-19
-11
12
-36
24
36
82
-15
70
-28
9
-47
7
-11
-88
-36
-54
46
-22
43
60
22
-29
-50
83
33
18
115
8
11
-18
-17
21
74
31
16
44
-5
-56
35
-5
21
11
37
-17
-20
-73
-14
34
8
-8
38
-47
9
-15
5
-44
-39
45
23
-33
46
21
52
6
12
68
-22
23
94
4
51
49
52
-9
20
-12
-56
1
-21
-82
66
10
-47
-104
-2
13
18
-13
5
-51
-8
-19
41
11
28
-11
29
4
-59
-12
-71
29
-1
18
-26
-9
-31
1
11
21
-64
34
-21
57
-28
64
25
-29
-22
32
73
28
-9
36
-2
-8
-14
7
-20
-71
9
13
105
-16
-31
10
6
-20
9
-11
-35
31
-22
55
-81
35
49
38
71
19
-43
36
1
26
40
-9
12
-15
50
5
11
-10
3
0
-25
-13
16
54
32
26
29
37
4
5
4
-55
-9
35
-13
20
14
15
15
-1
17
80
23
-28
8
83
-68
-60
-18
-71
-19
-76
-75
57
-14
65
-15
10
-7
19
33
1
-52
-65
-62
63
11
-43
-20
73
-32
65
-3
-50
-22
-86
45
17
5
24
21
-7
53
-6
-3
-20
11
-22
-35
-12
15
54
-42
-3
17
31
-35
-38
-20
4
6
-38
17
19
67
108
46
-13
-56
-43
39
-62
33
-31
-114
1
127
-32
-1
11
-62
-72
63
80
-18
6
89
-48
70
-41
-4
-60
20
-73
-20
68
45
24
-68
24
40
42
41
-84
23
65
-13
-28
-44
-74
-7
20
49
-3
63
-8
9
11
67
-47
-14
82
18
-22
-14
44
-8
31
-66
-25
15
-5
-34
-48
-6
24
-2
19
-30
-52
5
31
-41
-34
48
-70
38
37
-6
31
-13
36
45
31
-22
-33
12
44
68
-46
10
1
13
-61
11
45
12
-47
4
72
10
42
-1
6
-51
-13
-31
16
37
63
4
6
-14
55
23
-20
-15
-45
-29
-10
-19
-14
-31
17
57
33
-102
16
36
-31
-84
33
4
49
-29
-8
-31
-39
-12
-58
-38
-11
65
-6
13
-2
-37
-49
39
65
19
0
-54
54
39
24
2
9
-42
-35
-12
82
46
78
25
48
38
-46
9
84
21
44
-37
63
-20
-13
16
9
-15
-47
18
3
-17
-11
-18
-6
3
-23
-39
20
73
-10
-75
-15
-9
-27
33
-67
6
-8
20
-26
-8
10
77
-9
5
33
42
-27
26
15
-32
1
15
-62
13
36
1
-8
13
7
18
27
21
20
31
-43
89
-42
2
-26
35
-31
42
-35
-24
21
33
-33
-57
-57
-47
-68
-15
3
-39
-32
34
50
69
80
63
36
-38
8
4
22
3
19
-2
39
7
-65
-28
-64
24
0
68
-71
-5
-26
-19
23
51
20
-77
-62
35
28
83
25
51
30
-13
27
36
-4
-1
8
18
4
-11
-3
4
-36
10
-9
32
-51
63
19
-35
-15
20
86
14
52
68
59
10
-28
37
23
31
53
11
21
-18
-7
-80
-70
43
15
-60
28
20
35
28
15
-42
-56
-61
-41
-80
30
-79
-44
-127
-3
0
16
-38
42
-6
-27
18
31
16
44
12
64
53
13
31
-20
-31
-18
-35
-39
25
36
65
-120
-11
28
24
-38
81
-4
-42
-37
-17
32
-9
10
43
5
-48
31
19
-2
20
50
-31
6
29
-50
4
-23
-2
-52
19
-15
-75
-12
-5
-7
39
-6
21
-1
23
-27
5
12
-58
-61
37
29
41
25
48
-20
35
75
22
70
-70
-16
-45
-10
-71
-27
0
-23
113
66
-49
-14
-27
28
-20
-32
59
-9
-25
-42
17
-14
-14
29
-29
33
-10
6
-108
-29
46
-40
-57
16
-12
-40
20
-5
-12
-38
-17
25
2
-20
35
-10
17
-37
-23
-3
-58
-51
-30
55
26
-4
34
1
23
-9
49
-67
-30
14
-34
15
4
22
19
34
13
24
-61
-25
-3
75
-26
44
-68
45
-5
-17
-41
-4
-11
-110
14
50
25
44
52
-71
20
-43
-38
-17
-46
8
-46
-19
-55
16
21
-12
-52
-12
-22
-10
-48
63
-37
52
23
-1
11
-38
-1
41
-43
33
-7
28
7
11
-34
-96
45
17
-42
20
23
46
22
-29
7
78
-36
-38
61
-10
-9
49
-11
0
43
-11
-44
1
11
68
-18
-18
21
40
35
8
-39
-51
-21
-81
43
12
-14
28
-55
-27
14
-45
29
-44
102
-3
-48
11
37
10
2
-35
-7
-4
18
-65
75
35
-51
-64
78
17
39
28
-42
10
71
-99
37
-74
-49
-27
-38
19
60
6
-56
-14
-49
-6
-12
-64
25
-37
-27
50
45
36
45
6
-4
-56
-60
75
10
1
-13
-47
77
49
22
30
91
-17
-15
78
55
5
-14
13
54
29
10
-17
-119
-1
44
5
27
-44
-55
-5
8
32
35
60
-11
67
23
-36
-42
25
-16
-73
48
47
12
49
33
12
63
-50
-16
15
78
-25
-99
90
-32
8
0
53
50
61
15
45
56
-25
-28
16
-7
20
-35
-30
43
-39
-54
-33
-12
27
14
-1
40
28
-63
0
2
-3
78
75
-56
8
-20
0
18
19
-20
19
49
-57
-65
-91
-33
3
-8
24
14
-8
18
-43
-43
-7
15
42
-10
15
-30
-4
42
-7
30
-37
-23
-77
21
38
5
-18
59
-34
29
-47
21
23
-25
34
7
2
-5
-8
-16
-45
-3
25
-11
-40
-53
10
-32
14
-61
45
46
-6
-57
11
-14
-40
19
-36
-31
-11
-37
-11
-7
60
48
-12
-36
-57
-17
-21
15
13
22
-8
15
41
-29
-40
-28
28
-12
-35
48
30
21
-51
-1
78
43
-18
43
20
2
29
-5
-32
2
26
27
17
-4
8
-86
28
2
49
-3
-55
-21
-23
14
-78
44
39
-57
18
-2
9
79
51
-27
25
47
-1
8
-64
-8
-67
-13
-64
19
17
48
-11
17
11
48
0
35
42
-1
25
-49
-2
15
37
-46
19
-8
13
12
-1
44
-10
-25
45
32
45
-3
-15
31
31
-7
-6
17
20
23
-12
36
7
-41
-2
-12
-63
-8
55
-40
-9
125
-54
-76
44
-25
-6
-71
-35
-21
-3
26
76
23
-31
20
16
68
1
9
17
4
-15
-30
-36
-22
-41
9
-52
27
29
-25
2
19
21
-53
-30
-35
12
-7
-26
46
-11
-35
-11
-14
10
-21
11
57
-19
-20
-57
-82
86
-47
-47
-40
22
-42
27
7
-41
-36
-3
-126
-17
-34
-24
17
-13
-59
-52
6
11
-53
58
21
15
-28
-58
90
3
16
-28
-67
-56
22
-75
-16
-76
1
45
-5
73
22
-29
18
-7
66
-59
-40
45
43
-89
-29
-46
7
87
-37
8
-12
-69
29
-54
-73
-52
-4
-26
-33
26
41
-6
90
-52
-35
-28
4
-32
17
63
10
10
5
-35
15
70
-42
-57
3
22
11
40
5
-14
56
9
-9
43
5
12
54
9
11
79
1
29
28
127
13
-56
-23
46
78
27
-10
-44
23
35
-1
-8
20
26
-25
4
-23
1
6
-10
0
-59
59
12
17
18
59
41
-41
37
59
8
-16
11
-32
10
59
-51
-36
-16
-69
23
-84
-49
82
-67
49
55
13
-36
-1
-30
32
-23
19
59
-27
-51
9
94
-39
22
-64
60
32
12
35
5
-12
1
22
-35
1
22
-16
10
72
-19
-43
46
-17
14
31
36
28
52
5
88
119
60
39
-1
4
44
-19
-45
-104
-11
7
98
-75
-2
25
-8
43
-33
-31
-31
-30
31
42
-18
16
-21
-41
11
-21
76
-1
-18
-116
-56
-25
-22
81
62
44
-6
92
8
-31
61
-37
18
-1
-37
-95
28
36
44
19
-53
-22
72
96
38
-10
11
0
50
74
-34
-49
15
-19
-27
85
-21
86
120
57
-28
50
74
-58
16
71
-60
20
51
24
34
3
6
-45
-2
-42
29
-9
-41
-2
-27
-41
13
33
-72
9
11
-48
-4
-11
35
19
27
-7
22
51
-51
65
-5
-41
14
6
-4
43
1
-22
24
-14
9
19
33
52
30
30
47
11
-4
45
59
29
-19
55
-10
14
-8
-32
1
6
69
-22
14
-46
45
-47
40
-3
11
-51
-62
-10
12
-15
-9
36
-40
14
3
23
-32
-33
-18
-21
-35
15
-1
7
-39
20
-31
17
73
-12
0
-33
-17
-45
-46
29
73
-118
-39
9
50
25
91
-29
-27
76
9
26
99
-53
-55
-26
-3
119
16
12
8
83
-43
-1
36
-10
-16
-20
-20
-36
17
-17
-12
-4
43
20
6
-44
-60
81
-30
49
14
39
-27
19
28
-19
-20
41
-51
-53
-12
43
24
47
-20
-68
66
-25
14
27
-35
64
-9
-49
57
14
6
-7
28
-12
10
5
-51
-61
10
97
58
-26
39
16
63
5
0
-57
-68
-1
57
51
0
26
29
-72
-20
-94
41
-59
32
20
11
-58
77
-16
4
-37
26
-88
55
-67
-94
-15
26
-23
51
43
4
-55
-72
6
-128
-31
12
14
-44
-2
-41
10
-53
-18
-49
86
-41
6
44
57
54
66
127
42
-37
78
52
-14
-2
-34
-39
66
-47
47
11
-28
-87
-3
4
59
-55
27
19
-21
29
20
11
52
31
59
12
25
-3
-9
10
0
-42
16
0
2
40
3
91
-32
12
37
34
11
-60
35
-50
81
-38
34
8
50
12
57
2
3
-36
55
-4
26
-2
22
-60
-38
-18
107
16
31
26
24
95
21
14
-12
-5
-47
-46
47
9
2
-35
-20
-15
8
19
2
-37
-33
-17
83
-19
40
-64
-56
-15
43
93
16
-37
59
-5
-56
40
-5
-96
5
-34
-88
64
54
-15
-35
13
-18
-37
-25
13
105
-29
35
-51
-26
-71
12
-38
12
98
-6
54
39
25
10
20
33
25
40
6
23
32
29
-34
-18
25
29
-35
-13
28
-5
-1
-23
-22
39
-17
-25
49
-22
55
-47
-14
-36
-5
0
11
5
23
-1
-27
23
18
23
-33
-56
15
12
5
-1
-2
-20
-36
-20
66
-35
31
0
7
10
-3
62
-22
16
25
-23
-11
-5
-18
-7
-43
40
-7
-3
-15
5
-24
38
3
-3
127
-60
5
15
30
3
-30
-3
-46
-46
-41
11
-13
64
79
-37
-77
-10
11
24
-27
0
-36
42
19
-66
-13
-44
3
-19
-21
57
-19
-85
63
7
-39
36
-14
19
19
20
-2
-26
-46
53
-66
16
12
-4
-32
-61
-35
-29
-6
-11
-62
55
30
-44
49
14
-13
7
20
5
38
-54
5
-53
-18
-128
17
3
-45
-13
-36
34
-31
39
-11
-3
19
-40
10
-27
-4
-40
-2
31
57
8
-40
-27
-9
-14
-32
32
-15
75
30
48
88
-11
6
21
2
44
-68
-21
4
-72
41
37
38
7
-2
3
38
-33
-55
-14
29
61
-2
4
22
-39
-55
-16
-1
31
-10
-13
55
-17
46
1
20
-3
53
31
15
27
-16
9
-60
-6
43
-54
-36
6
19
16
40
-32
30
13
-10
57
-5
-20
-37
30
11
51
-25
-21
11
-27
4
-24
51
23
-14
20
47
-23
-8
-7
81
-42
12
-42
54
11
59
-13
19
13
-62
29
48
55
-38
21
35
69
40
11
-24
10
38
26
8
-34
-66
-37
-15
36
38
7
41
-1
32
14
-19
24
-13
-27
-8
19
-22
39
66
1
-74
31
-33
43
-42
-2
-11
15
-11
4
15
-27
-8
-26
1
-15
13
2
28
23
14
-67
2
12
-22
-12
4
32
4
23
36
-40
31
7
-15
6
47
6
93
-21
24
10
13
-43
15
5
-6
-12
-37
89
-18
-11
20
30
51
-87
58
-6
53
-34
-29
-8
24
-8
6
6
85
55
8
-13
80
13
61
-3
-65
-7
-21
-23
-37
-70
-15
-15
21
-7
18
-94
9
23
-45
77
-40
-27
-94
44
-85
-94
-62
3
25
-12
26
45
25
-10
4
-15
13
23
48
-32
-7
39
-18
38
-67
-17
-32
-6
46
-68
58
51
7
67
46
-79
-28
14
-29
-2
-35
20
1
-26
-35
-13
-7
-22
-80
-42
-26
8
60
68
15
-27
78
-21
-63
-26
14
2
-16
11
-43
53
-11
90
-19
-66
3
-66
-63
-28
25
-11
-27
-27
7
-13
31
10
15
-10
-21
-20
7
-9
30
14
48
41
53
58
-77
33
-21
0
42
-49
61
-31
57
-16
28
-18
5
-38
-22
-44
-21
0
63
-23
-23
20
27
84
-9
-13
-48
-6
-38
48
-40
-1
-15
11
-4
-7
-49
63
1
29
-1
19
81
-26
25
29
-22
12
-6
-23
-9
-24
33
-1
-12
4
18
35
-46
-21
13
16
-1
-20
70
-25
-2
26
-28
72
-24
-57
-14
0
31
18
52
-30
24
-42
20
-2
3
5
3
48
47
4
-21
51
-45
30
8
52
4
71
-17
-44
78
6
-13
49
-23
-17
-12
-11
2
-13
-15
-75
-51
40
11
-33
-25
-14
13
-13
52
1
25
-67
66
16
17
9
31
-38
-59
-6
-11
76
42
-14
-95
-125
-1
-50
1
-25
-27
-63
-29
-20
-41
8
-27
-34
29
14
33
-8
-34
30
20
11
-15
14
-18
21
-4
-9
9
21
44
-64
90
-71
68
-53
-1
-97
-77
32
5
-49
9
44
-12
3
-14
-61
53
-26
-4
-47
59
-42
21
-56
-32
-46
-16
31
34
-19
-128
13
7
-60
3
41
54
-27
115
-23
33
50
-8
-57
-3
11
82
64
-8
45
21
65
-44
-13
-34
-27
-24
42
8
-98
-31
2
15
-2
31
100
-47
-111
-65
20
-49
27
37
-21
11
-45
4
-43
18
-62
22
-20
1
39
2
-15
5
-40
-41
-4
9
33
56
17
37
79
-22
17
8
0
-14
-40
-32
-13
89
60
-27
-74
36
4
20
-18
102
46
35
51
16
-65
8
28
-60
-1
86
-1
57
-37
-48
44
66
8
-22
13
-109
2
81
-30
-87
15
21
-8
-58
-39
35
-26
-6
-4
-56
3
3
22
-7
2
45
-43
-87
24
2
-16
38
48
-18
3
32
-17
-39
-51
-47
-21
-71
-26
-3
-50
58
-18
-3
67
29
41
49
-49
-1
29
65
42
4
-14
-48
-13
7
72
-20
16
-46
-5
45
-69
-66
-16
5
-18
48
-13
-53
-51
-17
-12
55
-52
-4
-13
5
111
-30
-44
50
19
10
-51
-19
-6
-29
-26
8
-42
27
13
18
90
-69
1
34
-70
-34
5
17
53
-8
20
-50
64
-8
48
95
-73
-74
-33
26
118
-55
29
37
-17
-37
6
-43
-44
3
23
-29
5
-3
-5
-29
1
2
30
-43
-24
24
-12
1
-61
-18
-25
26
-58
37
28
1
-1
7
-57
-1
6
79
22
10
26
-93
36
72
-20
74
7
60
-68
-47
19
57
21
-93
-77
-11
108
57
4
60
-14
39
40
-33
-59
-80
0
36
-46
-3
-50
-11
50
-18
10
-17
-27
-8
-2
50
60
3
24
72
21
-60
7
2
-86
58
41
-25
-41
-12
51
39
-37
8
11
-22
-32
-8
51
-42
10
-53
-37
22
-18
-79
-51
-53
21
14
-88
-4
17
-11
7
-31
52
-13
-5
28
12
5
-34
-35
-20
2
3
-25
-54
-41
51
-78
24
62
-8
-4
23
-28
53
47
39
-48
-15
33
20
-49
-19
-29
50
49
85
8
-15
-93
26
-6
-17
-20
7
-19
15
-11
-63
16
47
13
-54
63
-66
25
-26
69
-45
-62
18
-13
39
103
62
-14
34
22
-128
54
-6
17
-14
-2
4
9
-15
7
31
-29
-57
-59
-24
11
-32
8
30
-33
-62
31
64
-13
95
-82
53
82
27
42
-27
52
-22
-9
-6
-9
-74
32
34
-10
-23
5
5
8
72
-10
-18
39
-5
38
-15
-13
77
-21
-9
59
-8
-3
45
-12
-24
113
23
-4
-78
-14
33
38
-21
-22
71
62
52
76
-32
-13
-16
39
-48
-50
-36
0
-2
56
-23
17
-58
-30
-28
-11
6
48
37
13
66
25
-13
68
-21
71
-35
-1
-18
-55
-60
-18
5
-32
43
-28
-33
8
-30
-52
-1
7
-33
-12
45
33
95
-65
23
26
100
29
-30
89
5
10
-17
1
35
67
14
5
23
-51
-9
64
25
-26
-74
-1
-40
39
35
16
10
5
16
17
-79
-73
8
5
12
21
-6
-2
7
-6
61
31
1
25
-30
3
36
31
-66
16
-39
-59
-2
-6
-20
-10
-20
-54
-44
-19
-69
-28
-41
-89
72
44
-42
62
-33
9
-72
-43
65
-16
-11
9
31
26
42
-41
15
-11
-34
5
-17
-11
42
-36
-48
1
41
80
-38
-29
63
-50
-5
-50
5
90
-21
-12
-41
-9
70
38
15
8
-7
32
-66
-23
46
-30
-1
54
20
11
27
-68
11
-11
-26
62
-17
26
-28
-6
6
-48
0
-8
-40
-7
10
-38
26
16
37
-12
-21
-11
13
52
26
-97
88
8
-4
8
-34
40
38
-34
-2
37
-17
-35
6
2
7
17
60
-59
38
84
37
-43
5
39
-7
-31
36
-5
-56
22
-66
