144
0.12777123
-0.8858356
0.9351274
0.4998491
-0.7763668
0.94416416
0.09924919
0.99745417
0.7328961
0.31655902
0.84148175
-0.91509557
-0.58225906
0.2842728
-0.6515756
0.86643535
1.15441
0.5327998
0.77210915
-0.1005567
0.35524458
1.0013453
-0.67696774
-0.8609665
0.6695178
0.8987984
0.013219245
0.75857675
0.6915692
1.1584679
-0.76103246
1.0633997
-0.32201615
-0.74932575
-0.0055803526
0.68498737
-0.5114676
-0.8855399
-0.8631692
0.8397143
1.0166848
-0.00028899312
0.24126506
-0.520906
0.97028476
0.18680146
0.8514182
-0.055522885
0.26744646
0.98090225
0.836428
-0.92084295
-0.8004256
-1.0524746
0.46622202
-0.5826714
-0.75497836
-0.83753383
0.74607056
0.5996289
0.5079335
0.58099294
-0.9418954
-0.6555732
0.7798377
-0.47915703
-0.28574306
0.19001806
-0.7001918
-0.58728075
-0.54524636
-0.37252828
1.2413462
-0.7852861
-0.78596056
-0.5962097
0.75170803
-0.9621924
-0.8553416
-0.16783583
1.0068947
-0.7335212
-0.8647727
-0.26535362
-0.8872568
0.9922164
0.9123351
0.6979739
-0.6349232
-0.7710191
-1.0920106
-0.7293482
-0.97824174
-0.34512356
0.19136682
0.9832839
-0.6754226
0.42164922
0.45214844
0.7675883
1.4060974
-0.75092196
0.89545053
-0.65132314
-0.57423854
0.54637694
0.70729995
0.8618626
-0.8734028
-1.0286785
-0.14448369
0.97953963
-1.0797316
1.0412508
-0.059844337
-0.79337126
0.70026416
-0.62153065
-1.0394274
-0.7285199
0.6885381
0.8123597
-0.5023935
0.64082754
0.57840586
0.30154884
-0.17284754
-0.6283277
-0.82341504
-0.7657313
0.22534955
0.071235284
0.84401536
1.633037
0.03155666
0.84277797
0.7294647
0.7423726
-0.8144234
0.93862057
1.3009682
-0.7082495
-0.6902096
-0.61997503
