144 1 3 3
59
47
-18
18
29
-29
-8
-10
3
-23
-26
48
-34
-41
20
-22
-78
-25
-47
5
-11
-8
-1
-21
-74
6
-9
-85
16
-21
-84
64
-13
-64
52
-2
24
3
6
40
14
15
18
2
3
4
-17
46
-24
-19
28
-30
-26
11
-79
-5
6
25
9
-43
35
-27
28
-68
-35
-22
120
39
18
-81
7
17
-27
-1
69
-46
-25
78
14
-4
-44
3
51
-23
19
-95
43
-39
79
-28
-43
-8
13
-17
-30
-15
-5
-18
-18
21
68
30
-51
18
-35
-29
2
-69
29
-4
-37
-17
19
-62
32
38
-20
7
4
54
-20
-16
19
56
18
24
-17
-22
-80
-11
21
-40
-16
16
-60
-32
-82
-13
39
60
6
-35
20
38
25
-67
-52
5
115
-3
-37
-42
39
-15
-29
4
-11
5
108
-46
1
91
-10
-24
-8
-2
31
6
-30
-87
2
-2
24
71
25
14
-56
13
23
9
-9
24
-66
10
-44
105
-21
-6
-14
12
-59
45
16
-25
-15
-20
46
-11
68
2
-24
24
-35
-52
37
14
-15
2
-1
-7
-25
-17
-15
-30
-45
9
-10
-31
2
-19
5
-13
-5
-67
6
-10
27
-38
-26
-21
39
-15
-58
-30
50
62
43
-3
-19
-22
-20
-16
-50
-16
104
-96
10
-48
67
6
-45
16
36
10
15
26
39
38
-20
-7
-21
-54
-48
21
-21
-3
-80
81
80
11
-20
-73
34
9
-17
27
28
112
-79
-16
-10
43
-37
-58
101
-62
26
32
12
-43
73
-14
-2
25
10
11
-15
-45
-32
29
-74
-20
41
46
-1
52
25
-24
1
-44
40
-54
-8
-39
11
-118
-39
-19
-6
56
28
19
54
94
22
-32
18
20
7
-6
45
12
25
-10
-33
-17
4
-26
-22
-36
-3
7
-63
-16
-6
-15
31
39
-7
11
16
-22
-69
15
-28
32
27
-38
9
-14
-42
-23
-18
71
25
-2
49
2
11
-1
32
-43
7
93
44
-44
0
-25
-3
33
-4
-77
-63
-53
58
46
24
12
-28
-3
1
70
55
-6
-33
-67
-47
-16
-15
14
37
40
-19
99
45
2
-55
8
22
-37
4
48
-12
54
-51
22
7
-58
35
5
-36
16
7
-11
-17
-47
7
15
-30
-8
14
67
-70
103
13
34
23
9
62
-36
13
12
5
12
30
5
62
-34
24
-17
115
15
-33
47
12
-89
47
-15
-96
17
40
68
-32
11
8
-20
-50
-51
62
-83
33
-81
76
12
11
11
-25
-12
14
-17
5
96
-72
20
-88
72
7
-6
2
-13
-26
46
-11
-18
68
115
-53
-23
8
37
9
-7
-36
-30
81
-5
-65
-46
15
35
-58
12
55
-52
106
110
-54
20
1
-72
-36
10
3
-41
-54
-18
0
-41
40
21
-10
28
-2
5
17
58
64
9
-56
-85
13
-48
-11
25
-49
-6
-4
-17
-16
-67
-16
-48
-13
36
5
-22
36
-9
-8
33
-19
-27
48
-15
26
45
-6
-11
-8
-26
16
-23
-19
-7
-29
-1
-10
-49
0
2
-30
22
11
-40
18
83
-105
40
-29
54
31
5
40
-66
9
-18
-27
-37
5
114
5
11
-28
-33
-24
14
-18
-20
19
5
80
-85
7
37
42
0
50
19
-14
13
-19
47
47
40
23
17
-7
-13
-21
-46
39
-20
40
11
41
15
-9
-32
35
-7
-29
3
29
-5
-15
49
-43
45
-26
29
22
10
51
-3
12
49
-31
-33
17
-54
-44
5
-9
-44
5
-9
-7
27
11
18
48
21
-7
17
-9
61
-85
6
48
-112
21
42
-76
26
-35
3
23
16
-46
-72
-27
-12
16
12
-46
-5
13
7
-15
-46
78
-13
20
-16
-25
-13
26
-13
-58
-46
8
-40
-3
-48
-12
60
6
13
34
-49
48
-64
-34
43
-57
4
12
-36
-9
30
83
-5
1
-42
10
-31
-32
-33
29
39
-18
-9
40
22
51
-18
43
2
-17
-29
27
-9
0
6
-19
-48
-19
33
-7
-15
77
-3
-53
22
-23
-81
12
-30
26
-28
-29
39
66
18
3
-58
55
-41
-9
64
2
0
7
-2
47
-24
-10
54
23
-24
25
29
-11
3
24
-35
45
26
1
6
32
-17
-1
-38
-3
-30
-26
18
-15
-19
-17
-18
78
51
-10
29
34
25
-112
2
-36
-40
22
-23
44
49
48
21
50
-10
20
55
-9
-34
-17
11
-47
-22
39
34
-13
-53
47
-37
-44
64
-30
18
34
22
4
-11
-18
44
69
0
-50
-44
21
57
40
17
-1
-39
-3
-39
-17
8
26
29
31
46
12
-3
-2
-16
0
-49
-15
23
-49
-12
-3
-49
-47
-12
-30
-31
-7
9
-2
-33
17
-49
-36
20
83
-17
-18
12
-56
24
57
12
70
-34
40
-34
-35
30
-18
-24
49
4
-25
42
2
-21
40
66
15
-14
6
-20
-60
2
10
28
-21
1
23
-50
34
-74
68
-36
-38
21
-1
1
123
81
9
-7
-41
17
-11
-17
17
-40
-38
32
-15
-11
-118
-11
-33
45
-5
-17
70
6
21
16
9
3
-12
-49
-25
27
-10
-38
-50
34
16
-45
-23
67
-25
24
5
-16
6
-52
-33
83
-4
-6
45
-69
-26
-22
19
29
45
59
4
19
1
28
-23
22
-53
-26
23
-30
16
-38
-10
-24
-47
-6
19
-27
-35
33
-18
39
-9
-62
-13
78
60
-33
-7
-27
-41
33
-6
-61
36
18
-53
40
24
-5
-22
-21
9
-21
66
-15
-56
47
15
23
-48
-29
-42
66
-60
58
26
-25
-51
-28
31
-41
79
80
-6
10
-14
7
29
12
40
23
-2
10
13
26
19
15
73
27
12
-1
12
25
16
5
7
-48
-43
-25
9
-20
-14
-39
25
29
7
-5
36
0
33
10
-10
33
-27
-57
72
-1
-12
1
0
-15
-38
9
-2
-29
-49
22
-10
3
3
51
43
26
10
-58
-28
-41
-20
79
17
-66
21
25
-12
-50
7
73
-13
-35
1
-14
-14
-11
-17
-16
-2
-12
6
-2
24
20
14
-16
64
-27
-44
74
-44
17
-69
67
-17
20
-32
-54
21
9
-68
42
26
-52
35
17
65
56
50
-39
-36
-40
-10
-26
-18
-42
-24
29
3
-1
28
24
46
38
63
-25
-13
75
-14
-62
5
64
-45
-18
-69
-79
-3
36
44
53
41
35
-11
-1
-59
-9
-6
-47
-16
12
-24
15
41
18
25
-4
-11
-3
15
26
51
0
-109
78
-30
-4
-66
31
77
36
-4
-12
9
0
-24
75
-19
15
62
-12
-44
0
94
-36
-41
-56
81
-66
74
24
80
-39
-47
-27
-31
39
-60
33
69
48
-62
-9
-5
47
-36
1
28
-86
-13
2
74
-3
9
-7
-29
-29
-21
-37
43
12
3
57
17
-38
9
-10
-14
-43
8
-15
-7
-38
