960
0.07544701
-0.2807063
-0.015399798
-0.066224895
-0.10649611
0.09512468
-0.047332056
-0.15271764
0.0027410714
0.0612327
-0.10114774
0.04066352
-0.08130734
-0.054536715
-0.22608705
0.08914406
-0.061434995
-0.025373248
0.054351155
0.019403895
0.03915638
0.0015578496
-0.16376911
-0.04639224
-0.09244214
0.04539084
-0.1614271
-0.01809025
-0.13298735
-0.087687485
-0.0841071
0.0013833174
-0.07712085
-0.029820994
-0.009270427
-0.05911143
0.019605651
-0.00051247445
0.052335303
-0.08666041
-0.021135453
0.057461686
-0.078335784
-0.11424523
-0.047504492
0.13543028
-0.10244148
-0.10944387
0.019220466
0.02715028
-0.029448481
-0.0026912633
-0.019531555
-0.111081526
-0.050890815
-0.04884227
-0.012491774
-0.05715854
-0.034729082
0.028234432
-0.09076507
-0.09489596
-0.13907804
-0.051283207
-0.145889
0.040793158
-0.113504946
0.12405752
0.024462761
-0.045817718
-0.06459294
0.059058983
0.004653624
-0.13308793
-0.014097335
-0.11763993
-0.004235453
-0.0066098147
-0.09204175
0.03889203
0.0073142075
0.041759506
-0.075855896
-0.0183193
-0.057912897
-0.05033295
-0.12793279
0.050673492
-0.032078616
-0.067822896
0.106244355
-0.046676178
-0.026487518
-0.057534084
0.02562044
-0.050466336
-0.041295636
-0.017515276
0.022917105
-0.16493948
-0.06734535
0.030459447
-0.04562844
-0.02987893
-0.15575732
0.034650926
-0.094935484
-0.017578764
0.006121899
-0.05911018
-0.032778025
0.11489817
0.095391706
-0.013317062
-0.038280614
-0.0029575413
-0.13008997
-0.07602852
0.12304745
0.12278813
0.06527308
-0.075875096
0.107763946
0.039882228
-0.18644637
0.05774974
-0.011813253
0.06338844
-0.08020094
-0.12617412
-0.040614102
-0.0022402937
-0.032728117
0.10705446
-0.32204118
-0.02980252
-0.087564506
-0.051449258
-0.04242039
-0.0077687083
-0.08693969
0.009274795
-0.023177043
-0.06765917
0.057134185
-0.007123205
0.02304005
-0.03472979
-0.010006452
-0.05910912
-0.022683563
-0.030019553
0.026470665
-0.093836196
-0.024024796
-0.0023608366
0.06690115
-0.026939249
-0.042515446
0.020135628
-0.20037158
0.121922575
-0.0017891078
-0.004469958
-0.10807406
-0.18503676
-0.012964157
-0.0876344
0.013649415
-0.04072298
0.0237734
0.11151652
-0.026490454
-0.07072167
-0.091015145
-0.008074734
-0.016015239
-0.14852375
0.015560908
-0.074319825
-0.1005256
0.057810254
-0.18533735
-0.036032554
0.1728773
-0.14502199
0.13943925
-0.07070883
0.031020198
-0.028082715
-0.014882547
0.018386425
0.03964869
-0.038564242
-0.039589677
-0.10926542
-0.021877903
-0.03278727
-0.07784581
-0.0059864423
-0.026320148
0.007994913
-0.06506805
-0.002630742
-0.004066622
-0.0657053
0.032180972
-0.07103251
-0.026868502
-0.029791778
-0.13131356
0.06295808
-0.098747596
-0.094450906
-0.17032087
0.0012366383
0.03086616
0.11719501
0.047114797
0.055591013
0.0024336977
0.058544584
-0.111325
-0.027581163
-0.12298058
-0.059226424
0.08801024
-0.014899215
-0.04817206
-0.09922426
-0.025973659
0.0153069915
-0.14251675
-0.20415191
0.08342349
-0.0064923726
-0.010168723
-0.08622713
-0.073042355
0.026788015
0.013759041
-0.17983946
-0.07161248
-0.010748878
-0.076606035
-0.068343475
-0.053629167
0.0049361517
-0.12833416
0.015784092
-0.043646403
-0.05186602
-0.022869438
-0.04354198
-0.03741931
-0.13853224
-0.021972891
-0.019969655
0.043543857
-0.09809043
-0.06849557
-0.07938478
-0.027755147
-0.09821694
-0.0049576247
-0.08612
-0.09399233
0.06811377
-0.07639955
-0.1292501
-0.03233265
-0.037626386
-0.15359978
-0.12938312
-0.062309522
-0.13906446
-0.0659681
0.0497765
-0.0036531184
0.056673758
0.011897944
-0.05446049
-0.049031675
0.041284308
-0.015434794
-0.05408728
0.017593764
-0.03478542
-0.059801936
0.006541752
0.002575451
0.08940306
0.03606796
-0.1587314
0.12776747
-0.0060470183
0.09400184
-0.100234546
0.003654317
0.045203984
-0.0594628
-0.12314359
0.090327315
-0.09853046
-0.1993886
-0.14315617
-0.07209572
-0.076249495
-0.014855986
-0.09265716
-0.008787078
-0.057114158
0.06485144
-0.08371837
-0.031231165
-0.14460883
0.10832453
-0.016268127
-0.114592195
-0.09340575
-0.05746499
-0.048776936
-0.1730555
-0.059614602
-0.044505045
-0.08699604
0.0026610412
-0.1621598
-0.06918993
0.08577615
0.02456879
-0.18437755
-0.00521019
-0.087804146
0.048979267
-0.07110085
-0.08540891
-0.06377579
-0.062547885
-0.25966752
0.028477062
0.026763288
-0.09383717
-0.14364806
0.07695067
-0.06089964
0.049139082
-0.079509884
-0.1265759
0.015604391
0.04519571
-0.06472778
0.0470132
-0.04430795
-0.0045136707
-0.0452732
-0.13169111
-0.0076054344
-0.023305513
-0.09152182
0.028430512
-0.15635788
-0.13551255
-0.0056828437
-0.048251938
0.0041009
-0.102258064
0.0012800607
-0.038310952
0.017748294
-0.0025620812
-0.0060457042
0.0644805
-0.09838571
-0.049839817
0.02364383
-0.07206366
0.03551241
-0.0555295
0.07136252
0.055499453
0.043849126
-0.04551525
-0.0338478
-0.002720192
-0.044872172
-0.17459647
0.1804036
0.046714284
-0.042508632
-0.010000436
0.035653684
0.0051643816
0.0027161762
-0.033497613
0.058144607
-0.09638107
-0.00071375247
0.15713759
0.07743587
-0.054998167
0.019336633
-0.12625702
0.035135042
-0.009295478
-0.17595083
0.028936543
-0.012090007
-0.030623538
-0.061888993
-0.07581967
-0.015692282
0.018143792
0.08800211
-0.040502258
0.1457408
0.00037688762
-0.017586254
0.03443098
-0.12513743
-0.17138551
-0.083856456
-0.11695786
0.056599233
0.021353956
-0.042021092
-0.11999253
-0.0026421233
-0.020143554
-0.07094427
-0.040714025
-0.031300955
-0.08737901
-0.038706746
-0.17841963
0.04449782
0.07481304
-0.05894605
-0.007287759
-0.032051694
0.03933936
-0.04763325
0.03301864
-0.07798127
-0.057629306
0.015591093
-0.07597608
0.00542332
0.009398168
-0.11114739
-0.1531884
-0.038352497
-0.009325887
-0.07533738
-0.047776986
-0.04331539
-0.025680054
-0.029022183
-0.09954352
-0.11470139
-0.0229901
-0.05119515
0.05205201
-0.09043608
-0.06401221
-0.0075406944
0.08360333
-0.04859018
-0.07142944
-0.119991645
-0.08550098
-0.02476617
-0.059221644
-0.009842086
0.118250355
-0.044121683
-0.020584397
-0.10969205
0.045743197
-0.011042226
-0.20397405
-0.081789576
-0.031627793
-0.057052817
0.011720018
-0.17569777
0.006794339
-0.038436823
-0.12808049
0.072863065
-0.03821482
0.033843916
-0.06341837
-0.03044815
-0.1980842
-0.044704556
-0.017825818
-0.009920234
-0.0596407
-0.022112934
0.015820758
-0.031240713
-0.00021942379
0.01901839
-0.050735924
0.08354179
0.018084286
-0.04440687
0.008515461
0.02327831
0.07328041
-0.15396641
0.107472435
0.025450818
0.051673938
-0.03965951
-0.072997384
0.0103790965
0.022142269
0.07135291
-0.1438913
-0.053838402
0.057530493
-0.09111256
-0.0045426013
-0.107935004
0.087881446
-0.099719934
-0.10248366
-0.03828576
-0.15432753
0.030775692
0.017103681
-0.04177532
-0.063895755
0.03662016
-0.085957244
-0.014687118
0.009659589
-0.01808008
-0.004781259
-0.012614595
-0.028734373
-0.075540885
-0.01992935
-0.012877185
-0.035907917
-0.04500526
-0.1665824
-0.07568244
0.038031355
-0.15692759
-0.114233255
-0.08704939
-0.06692385
0.02792416
0.059886318
-0.081188396
-0.08014102
-0.058884326
0.015396608
0.051463824
-0.16533612
-0.082880735
-0.060666386
-0.039125368
0.009236182
0.03014126
-0.12162354
-0.055491153
-0.21189506
-0.0752053
-0.10296502
-0.02329876
-0.11112773
-0.02664604
-0.06644139
-0.017024301
-0.06418328
-0.06265443
-0.033225775
0.026202882
-0.06314814
-0.15943311
-0.039457317
-0.03890545
-0.015756657
0.0004789205
-0.0033160937
0.043077093
0.057006836
-0.04512154
-0.14813468
-0.0006988372
-0.080736764
-0.09581972
-0.048333976
0.01561784
-0.05238058
-0.03789309
0.0038450195
-0.08293244
-0.10907596
0.009652715
0.08366354
-0.006181448
-0.017415248
0.0606676
-0.23992641
-0.12582983
0.06389859
-0.048042186
-0.012022278
-0.058915384
0.058639836
0.030648112
-0.010355892
-0.08851958
-0.02660331
-0.1012084
-0.00034015323
-0.01503068
-0.055734072
-0.17380244
0.046509158
-0.088010155
0.060368992
-0.13256258
-0.023044124
-0.22337335
-0.11524965
-0.07413733
-0.047659386
-0.03352917
-0.13235489
0.052909482
-0.10700861
0.0023444965
-0.12726323
0.0013637865
-0.020069543
-0.10193739
0.021428425
-0.048590966
0.001801637
-0.14110167
-0.05076733
-0.021249844
-0.120872684
0.009225466
0.045611084
0.000784611
-0.037770294
0.006476397
0.03530408
-0.039683662
-0.0976064
-0.12809175
-0.19448367
0.021685239
-0.010157019
-0.13404769
-0.09088086
-0.10842936
-0.09599713
-0.0019062615
-0.08853049
-0.029466642
-0.0034647365
0.007755871
-0.09079773
-0.0066395067
0.055924505
-0.07931363
0.05856137
0.080037445
0.0038146155
-0.027900241
-0.087995574
-0.007956198
-0.15614586
-0.06519828
-0.050500553
0.03269657
-0.19604903
-0.14141604
0.15147887
-0.10094773
0.047237564
0.07111678
-0.097750306
0.040882125
0.065642856
-0.1226763
-0.1865685
-0.08419463
-0.06295361
0.010967412
-0.063529216
0.047334954
0.016374867
-0.085382886
-0.017818986
0.0015184388
-0.0020285845
-0.1210124
-0.0030141538
0.04085666
-0.048695844
-0.17835493
-0.03925992
-0.1171854
-0.11264002
0.0016864509
0.025732052
0.104091115
-0.01736966
-0.013843591
-0.08022748
-0.007159376
-0.13758627
-0.041268528
-0.08859432
-0.050742637
0.027472783
0.034431163
0.0038924776
-0.010829813
-0.07951192
-0.066321395
0.11023062
-0.027078766
-0.039863367
-0.081411034
-0.03511661
-0.13073945
-0.029394567
-0.1615502
-0.0981672
0.033551436
0.080589205
-0.042928144
-0.09116815
-0.053890016
-0.0819878
-0.028316205
-0.004316624
-0.0074478243
-0.10914641
-0.04133431
0.15016429
-0.07661309
-0.040445976
-0.020086002
-0.04409426
-0.024306256
-0.004005756
-0.10857025
-0.10690602
-0.12709035
-0.010070411
-0.124712415
0.0064080423
-0.0399764
-0.109355465
-0.11435748
-0.02865843
-0.015206134
-0.053882238
-0.046867304
-0.084508754
-0.05399224
0.0027214312
8.63442e-05
-0.11481385
0.07327552
-0.12022093
0.007093216
0.039803058
0.03739039
-0.096349336
0.00029183907
-0.054834478
-0.08262886
-0.103782125
0.022481475
-0.08037979
-0.091208845
0.042205226
-0.109127335
-0.08655159
0.019742467
-0.0038306233
-0.010053051
0.07983472
0.045707416
-0.10551976
-0.02389281
-0.041905124
-0.007103973
-0.068218045
0.027958384
0.04364026
-0.030583631
0.0034540638
-0.07002279
0.059106454
-0.073584855
-0.064385846
-0.0014811469
0.010274281
-0.057901945
-0.10798949
-0.035621867
-0.1347985
-0.046498578
0.025779132
0.012271536
-0.088311166
0.004650603
-0.08904272
-0.07511849
0.048912335
-0.037592325
-0.11617661
-0.013657967
-0.04408915
-0.021388033
-0.12272817
-0.05042425
-0.16628306
-0.07941458
-0.05272535
-0.078178495
0.097577654
0.11425334
-0.01726669
-0.035217315
-0.054960255
-0.017064821
-0.027069181
0.072198845
-0.104454175
-0.02723396
-0.041035194
-0.020643512
-0.003935042
-0.06630309
-0.07149944
0.037712745
-0.06571645
-0.05530629
-0.11055885
-0.056864403
-0.0051606847
-0.031910006
-0.14697582
0.068224795
-0.0032603482
-0.09822988
0.062164955
-0.016734753
-0.13891867
-0.05413498
-0.029526051
-0.08529681
-0.087477565
-0.0903552
-0.01775444
-0.06501946
-0.03102814
-0.0119232405
-0.08012328
-0.0016358673
-0.020271948
-0.05875559
-0.109785154
0.07114913
0.07901244
-0.102431215
-0.13188568
-0.09395614
-0.07342582
-0.076037005
-0.1463548
-0.060759284
-0.072661966
-0.010178552
-0.110794656
0.03805689
-0.0217308
-0.0050035734
-0.01676414
-0.10887983
0.027177611
-0.09302388
0.018615905
-0.030015657
-0.14394297
-0.059727866
0.018581547
0.04683858
-0.106506824
0.004492781
-0.026067184
0.102456994
0.02900344
-0.14260009
-0.013249001
-0.099535845
0.043083597
-0.054427177
-0.112161405
0.026639089
0.0103097465
-0.10249678
-0.05320195
-0.0215307
-0.0889596
0.003120479
-0.013112689
-0.06374612
-0.037675247
-0.16089508
-0.035940975
-0.055609934
-0.13513768
-0.06264146
0.02295143
0.07192231
0.034780353
0.054945253
-0.08632106
0.07756212
-0.0332429
0.028120087
-0.03600118
-0.12562293
0.001658261
-0.23421332
0.061488915
-0.020980973
0.016870946
-0.0642704
-0.06653993
-0.09703962
-0.022684649
-0.054743078
-0.13380893
-0.08747948
0.07029535
0.08008575
-0.015458796
-0.024985133
-0.18234906
-0.08638398
0.056230634
-0.026235526
0.048189007
-0.079165876
