32 3 3 3
-18
1
47
4
1
48
3
20
11
5
22
-11
-60
28
-32
-32
24
-30
-67
-43
15
-7
-1
24
-7
-22
35
-22
-5
-28
24
47
14
-14
-13
-24
-47
-3
-20
-19
5
-30
-36
-30
-12
8
-33
34
2
2
64
34
7
50
-20
-21
-12
-1
32
-14
13
21
-11
6
2
-7
6
-5
-4
-2
25
21
10
0
14
14
32
-1
-2
2
0
2
-7
13
-6
-13
-1
12
-13
5
8
-9
11
0
10
0
12
13
-11
9
-6
31
0
16
10
11
6
10
-12
-24
-2
-1
2
6
-4
-9
-3
-31
-5
2
3
-15
-15
0
8
11
-10
-26
2
-8
3
10
9
-5
1
-7
-23
23
17
-43
62
28
-1
5
26
20
41
2
-14
5
-13
-8
9
-15
-11
16
1
-15
4
-6
-24
8
14
2
8
18
-7
2
5
-8
-16
-3
-22
4
-12
8
26
-14
6
20
-3
-22
6
16
19
37
-14
-3
39
1
-14
6
13
-2
-11
-5
-8
5
5
-19
-19
12
-33
5
-6
3
-6
11
12
10
4
-9
-7
-1
-23
-32
-56
15
-34
9
-25
27
-16
11
8
11
-32
31
-11
34
-6
17
-11
25
16
11
-8
-49
-52
-29
-16
42
-12
2
-20
16
-4
-4
8
-37
-6
-22
-25
1
-9
-25
-24
-2
-1
-5
13
8
-6
15
2
10
-16
4
19
3
35
-6
18
15
0
15
-15
-14
5
10
-14
1
-30
13
-14
3
-9
-5
-29
-14
-47
-1
-5
2
13
-5
-18
27
32
75
-5
-39
0
-62
-33
-38
-10
-13
-42
17
5
-3
5
36
-4
7
-8
-65
47
41
2
40
61
2
3
-9
-9
-3
-6
6
-9
3
-2
2
-6
-16
-4
2
-1
-20
-17
0
-3
-4
3
12
-11
-8
9
-6
-7
6
37
3
4
24
11
25
9
29
-22
-13
13
1
-13
23
-14
5
-2
-16
-16
11
-24
-23
-13
-8
2
-23
39
43
-14
-26
4
-31
-7
0
17
36
22
-13
23
11
4
-31
4
23
6
18
-18
13
2
24
-14
-22
-42
-26
-32
-1
-38
20
-1
3
47
0
6
39
22
-15
-6
-2
1
60
-7
-9
40
-18
5
-4
-22
5
17
7
10
7
32
-9
5
5
15
-11
14
-2
10
-25
-25
1
-29
-9
-26
28
-4
-20
4
-7
-26
9
8
-14
-14
-31
-9
-25
-16
50
50
15
-9
-2
-9
-24
-60
-33
-51
4
19
16
36
-20
-19
-55
1
25
68
0
10
-14
-13
-11
11
15
2
-23
-20
4
7
-6
12
6
6
5
0
6
-4
-1
-5
-4
2
-32
-9
-19
-3
-14
-22
-22
4
13
-14
1
-7
-3
-4
1
-16
-4
3
0
3
20
-15
-19
8
-23
-6
-16
4
-10
-16
12
-13
10
-49
9
6
-44
20
16
-31
-24
-17
-1
23
45
-2
17
-19
12
5
0
-26
16
4
-17
-38
1
-20
29
33
-21
5
9
-4
14
4
14
-1
15
3
3
5
-2
2
25
18
20
7
-16
8
-3
-2
7
11
1
3
-13
3
-12
9
-6
-4
-7
-4
-11
-9
6
-9
-12
-8
9
-4
-4
-7
-5
-9
-3
5
-7
9
-9
3
-13
-9
37
32
41
-17
-14
-31
17
26
11
-8
21
-21
22
-21
24
-63
-39
-22
79
4
20
15
5
-20
1
-6
-7
-5
-13
-28
2
-29
-11
12
6
-1
38
8
2
9
6
-22
9
25
19
-12
-19
-10
15
-52
-24
7
-9
-19
-7
30
0
22
108
26
3
23
6
1
-17
-39
-64
-49
-32
-19
-34
-23
33
26
15
-2
36
-15
-14
71
-8
17
24
0
-6
3
-7
22
6
-7
13
1
1
8
1
-10
-8
-7
15
-5
8
1
7
22
5
12
12
-9
38
-39
-11
-5
16
27
32
-14
-16
-3
-61
-5
7
4
-37
-12
-37
-6
25
32
-10
-12
5
-14
1
16
-2
1
-15
-10
8
-39
-28
-18
5
-28
-2
7
11
1
-2
17
18
-18
-5
-1
-2
17
7
-17
-18
12
12
-19
8
5
-3
-10
7
-3
-6
-3
6
-6
-3
-16
-4
-1
-15
-19
-25
11
-7
-15
-3
2
-2
-10
0
-7
6
-5
14
-1
-30
51
31
-26
9
4
-35
13
-7
-20
-7
-10
-56
-10
-13
-38
-19
16
1
3
-21
15
28
19
0
-11
-2
-14
-5
13
15
4
-6
-4
-21
5
-7
-5
-19
-16
-20
7
1
18
-4
-5
-17
-2
-5
-17
8
