576
-0.69309384
-0.66888964
0.47348624
-0.30241546
0.05802849
-0.13587168
-0.089616224
0.113128446
-0.5447857
0.63617015
-0.3940018
-0.2666533
0.74202585
-0.10455175
-0.8033546
-0.047380634
-0.78532284
0.19653533
-0.10352103
0.36021227
0.21730736
0.95104533
0.34215367
0.7315084
-0.76711285
1.0326427
0.8835562
-0.15894243
0.1683285
0.19997606
-0.8448233
-0.37978855
0.8174038
-0.5031625
0.02173309
0.88891894
0.49495217
0.49980453
0.40829638
0.05926899
-0.663675
0.35795754
-0.30062878
1.084956
0.8612583
-0.7810975
-0.33753356
-0.46415722
0.6918442
-0.088084646
-0.17684954
-0.6956938
-0.87096745
1.09981
0.43409738
-0.03986253
0.9747055
-0.38534153
0.6484622
-0.7157798
0.96825033
0.19312814
0.406016
-0.012648337
-0.7844855
-0.35422665
-0.6353671
0.13049044
-0.67961186
-0.89234805
-0.90020525
0.028189883
0.42892012
0.823078
-0.8034781
-0.268439
-0.1041018
-0.50534517
-0.29494417
-0.87704116
-0.0010803938
0.85554737
-0.28885514
-0.17099239
0.688123
0.8161286
-0.518151
0.5707272
-0.7104751
-0.59295607
0.8872805
-0.33262965
-0.9300739
-0.84631497
1.0704321
0.38349447
-0.23027171
0.5964991
-0.24723499
0.3311308
0.832071
-0.37192738
-0.5102093
-0.7252878
0.83360356
1.0324192
0.878496
-0.4313633
-0.51090586
-0.16529876
-0.6782642
-0.037527956
-0.58124465
-0.014553579
0.92972755
-0.29296243
1.0066959
0.24297488
0.8174447
-0.6671087
0.95499736
-0.06709066
0.056682467
-0.844311
-0.079124354
-0.4635003
-0.74187213
0.6456734
-0.4117398
0.48116654
-0.8020463
0.18577886
-0.75841427
0.7635871
-0.42733106
0.5791784
-0.17650962
-0.5906328
-0.045031846
0.9025471
0.4851721
0.8038062
-0.89787436
0.16309105
0.55347884
0.5735692
0.5815144
1.0748768
-0.24805202
-0.7847633
0.90150523
0.33418682
0.36685833
0.7635151
-0.8340791
0.83542925
-0.09443566
-0.40676454
-0.71859485
-0.19266532
0.075100616
0.9647316
0.7640775
-0.7287739
-0.6600803
0.86242306
-0.106568664
0.3254903
-0.5809095
0.8151511
0.113803215
-0.56289345
-0.14779681
0.6182903
-0.60753447
0.73464835
0.3471114
-0.6748697
0.37083718
-0.59649104
0.10605647
0.73148453
0.10999797
-0.31284958
-0.5155879
-0.3605736
-0.13396066
0.82344484
0.00455229
0.6643419
0.048057288
0.37776926
0.5268518
0.48264194
0.04809671
0.6904146
-0.031559277
0.49585995
0.78013915
0.34487352
0.087227255
0.41818592
0.6919092
-0.6674034
0.030561153
0.22986084
0.92237127
-0.5081624
-0.40824276
0.71196264
-0.22737902
-0.19964376
-0.6667899
-0.55872256
0.6514511
-0.07268483
0.64669114
-0.4283122
-0.63242847
0.19069181
0.40726772
-0.4291063
0.29004025
-0.93076
0.8127774
-0.06963034
-0.034169193
-0.6404269
0.76725656
-0.710549
0.8175743
-0.41835338
-0.60579354
-0.45080942
-0.84474224
-0.025928104
-0.26080203
-0.23016447
-0.22713383
-0.5381314
-0.6063839
0.46851122
-0.7919866
-0.26494956
-0.078844234
-0.79386604
0.25758377
-0.56391424
0.8854317
0.42384535
-0.29764897
0.90645015
0.8359537
-0.094833806
-0.6598616
-0.44197237
0.12913792
-0.1145712
0.73223764
-0.55097044
0.8538208
0.2532423
-0.58970094
-0.7461197
-0.73581994
0.15600477
0.3396508
1.0173455
0.6763785
-0.8130269
0.27816743
-0.07518023
-0.031347997
0.8193257
-0.47405097
0.61076766
0.5034472
0.77489984
-0.877126
-0.17294332
-0.78144646
0.80986434
0.27815637
-0.12052296
-0.31041962
-0.094518706
-0.19469948
0.72087306
0.31752223
-0.34544164
0.17317373
-0.7195378
-0.49778858
-0.5508487
-0.6220057
-0.56091297
-0.22625287
-0.796232
0.7156707
-0.4964973
0.006688051
-0.84719694
0.38167462
0.7774028
0.5224492
0.94341916
0.6744775
0.90838987
-0.594695
-0.8222635
-0.1004383
-0.26063555
-0.63091993
-0.105051525
0.75611466
-0.03289544
-0.7363619
-0.059274018
0.17965472
-0.07092552
-0.68603575
0.9137538
-0.18205233
0.73389256
0.8619714
0.53892004
1.009021
0.52632964
0.5044582
0.5118829
0.637035
0.8619986
-0.926474
0.89224297
0.9284999
-0.83842224
-0.047846444
-0.7986724
-0.70309675
-0.36715358
-0.34217212
-0.053387463
-0.021212116
-0.7546716
1.014237
-0.61321306
-0.6833846
0.3692292
-0.037329424
0.10599206
-0.5878767
0.24732454
0.44878212
-0.3700909
0.6035985
0.16740274
-0.8103508
0.59394675
-0.07055612
-0.84991586
-0.36200505
0.6815116
0.6657563
-0.29026273
1.0472723
0.02346811
-0.64757144
0.25867492
0.75273603
-0.15952837
0.69805974
0.2814988
0.15795566
-0.46525204
-0.8395605
-0.612819
-0.40864137
0.46720937
0.7461985
0.70859206
-0.3555405
-0.80711776
-0.57923
-0.39241993
-0.8400433
0.06826086
0.24806145
-0.7560508
-0.53148365
0.44522735
-0.4502221
-0.30937454
0.47963575
0.7370623
0.7608033
0.6871466
0.5813963
0.30707234
-0.19461274
0.6454223
-0.1622147
-0.15681809
-0.67901385
0.35008383
-0.8415347
0.12204653
0.65583086
-0.58006513
-0.49656352
0.80460286
0.88207686
0.09516306
-0.70775455
-0.89360654
0.21118547
-0.40475997
-0.56385034
-0.7845808
-0.19844377
-0.504899
0.7949151
-0.22920658
-0.8322831
-0.119346224
0.18670043
0.7707921
-0.27837375
-0.4038374
-0.267399
-0.78099746
0.807665
-0.23941141
0.70308167
0.22454219
-0.7792714
-0.15070306
0.5834981
-0.47483307
0.85007876
0.63964707
-0.09447608
-0.6173033
0.39484406
0.38723382
-0.11463698
-0.077655554
0.09177157
-0.15038183
0.7029587
0.42634284
-0.22746949
-0.12314902
-0.5102842
0.4893911
0.5825896
-0.85858506
0.6530226
0.89910394
0.2623252
-0.62046754
-0.6171262
0.6353885
0.33739403
0.2671926
0.669656
0.86739075
0.86313295
0.6600245
0.48415
-0.8802614
-0.52915335
-0.81285435
0.50174963
-0.61209184
0.09637631
-0.7463213
-0.6875406
0.82157576
-0.15537481
0.26016122
-0.05804635
-0.0023795255
0.7936334
0.14824149
0.05925602
0.5028453
0.69386715
-0.28237128
0.96919394
-0.010335058
-0.74044865
-0.5992092
0.40696025
-0.001896143
-0.59738964
0.68249154
-0.26228338
0.2040733
-0.7599435
0.8461552
-0.010645144
-0.65398157
-0.82140696
0.63190484
0.8973896
0.7577289
0.7562404
0.10990629
-0.68575734
0.20872268
0.057429988
0.12357895
0.10441795
-0.2395094
-0.3998924
0.98122597
0.16804838
0.60649544
-0.96866417
0.21953154
-0.2941763
-0.23432204
1.0354232
0.530235
-0.6112752
0.83132833
0.6835374
0.72739106
-0.4888405
-0.22750059
-0.85162693
0.15831804
-0.62905127
-0.6658556
0.11086604
-0.13841787
-0.17921364
0.81365
-0.1744914
0.048338324
-0.45736146
-0.8376488
-0.34778523
-0.1124935
0.19902004
-0.7543483
0.79041
0.69395447
-0.80732894
0.6352918
0.09914054
0.31954485
-0.5843749
0.8610041
-0.91030085
-0.2560917
0.79192066
0.20807834
-0.9278287
0.75161374
0.97608733
0.8182872
0.7849428
0.7856056
-0.56083345
0.41712564
0.6300907
-0.21622625
-0.22735861
-0.4032132
0.7869079
-0.00097185746
0.63575226
-0.13111106
-0.11187065
-0.32251316
