160
-1.403837
0.46981052
-0.23913191
0.45124575
-0.2588372
0.09915537
1.166978
0.09684386
-0.16383334
-0.15831578
0.840244
-0.019993555
-0.22207528
-0.52222496
-0.20094968
0.53378797
0.40052143
-0.793957
-0.4146983
-0.5699438
-1.0114728
0.20814176
-0.11237065
0.70800936
0.074920915
-0.48431018
0.7036209
0.23107737
0.36045513
-0.8805203
1.0471338
-0.60578036
-0.05094644
-0.20743343
0.58248514
0.17803569
-0.32979637
-0.2895609
0.5540263
-0.014623237
-0.59372973
0.108072646
-0.3259512
0.32619122
0.5965759
0.70758855
-0.33127335
-0.34286624
-0.86913913
0.009254647
0.66318923
-0.65533334
-0.2845165
-0.39314613
0.13753141
0.6605089
0.84908813
0.7094968
-0.78595155
-0.6285359
-0.29114717
-0.21738821
-0.08147873
0.06362289
-0.06861071
-0.010275208
-0.34108025
-0.40614864
-0.3413038
-0.077109925
0.25282612
0.63292253
-0.1741464
-0.3423141
0.82211685
-0.75109285
0.0859927
0.4046355
0.4035042
0.18459494
-0.6029919
0.5582018
-0.21142668
-0.37956077
0.49921122
-0.21119817
0.49620348
-0.70206344
0.4716404
-0.76191896
0.63675636
-0.8887373
0.5521473
-0.1069412
0.32969832
0.2105479
0.16349441
0.19044721
-0.35440543
0.7093395
1.02394
-0.64882076
0.20287248
0.74046147
0.10674894
0.0046810475
0.0441617
-0.039562713
-0.13483478
-0.36257082
0.50586027
-0.47429836
0.9657857
-0.12973987
-0.9040711
0.6815156
-0.2678422
-0.08084877
-0.5774206
0.005684903
-0.118922085
0.3460547
0.5119151
0.23140205
-0.1028065
0.055233967
1.0125041
-0.1483264
0.24010281
-0.054997507
-0.7535597
0.765127
1.0230023
-0.73309344
0.9049856
0.62822783
0.29423767
-0.9900059
-0.59727556
-0.3080515
-0.04103796
0.7271618
0.4060946
0.15569943
0.2096807
0.0016993769
1.43327
-0.6553644
0.090351574
-0.58546114
-0.1815736
-0.09878518
0.79190934
0.16073862
-0.94081223
-0.5011661
-0.26519978
-0.24840394
0.43894368
-0.33757842
