960 1 3 3
-26
20
-8
-78
5
67
-40
7
52
-37
-10
34
-39
-19
39
-31
-20
16
-47
-20
-25
-11
-8
-57
31
22
34
43
-12
-50
29
7
-35
32
-3
-36
-2
-17
-27
8
27
47
-13
18
38
59
7
-53
53
9
-55
21
7
-33
-47
18
27
-63
-4
45
-64
-31
13
18
-40
-72
44
16
2
2
21
21
22
1
-11
4
-31
-5
-12
-52
-30
17
-10
-30
31
14
-37
60
-18
-44
-26
-43
-26
-27
-11
-11
29
29
66
-28
92
-34
-48
36
-30
-21
21
-68
19
68
1
-26
24
-15
-54
-14
-53
-32
-29
-33
-11
-7
-12
52
68
69
-38
-42
-26
18
18
37
32
37
48
-31
33
35
-48
5
57
-62
-38
4
-17
-26
-9
15
72
-11
-15
-51
-21
-35
-16
54
-51
-29
61
-64
-5
47
-23
-22
-40
-11
-34
-21
54
33
41
45
4
-5
37
-23
-50
32
-20
-28
-29
0
-14
-21
-4
-14
-39
-11
-28
-7
-44
-45
6
-20
-3
23
16
8
-46
-18
-28
-17
14
13
21
48
52
-21
-27
-17
-17
-23
-14
9
-1
-11
35
-11
-8
44
-33
-34
45
-31
-29
-12
-21
-4
5
-10
10
57
33
52
-24
-9
-52
-4
16
-37
32
47
43
25
16
18
-34
-33
-25
19
19
23
-44
-24
34
-42
3
35
-46
-13
55
-13
11
26
12
28
4
19
40
26
-45
-54
-38
-17
-10
0
24
16
36
51
48
68
-12
-15
-47
-39
-22
1
-44
-31
-31
38
71
36
-32
-47
-30
-55
10
-1
-47
32
0
-64
14
4
-46
-5
54
-34
-5
83
-10
-45
17
-19
-26
-23
17
-3
-24
15
50
35
-27
14
-8
1
59
11
23
50
-5
19
36
13
-5
3
13
-36
-42
-36
24
-17
65
38
-40
-33
34
-66
-51
-54
-8
24
-38
-6
36
-48
-28
7
-41
49
34
-2
-33
-24
-50
-20
-23
-23
8
-31
-4
76
41
-34
-27
-59
-30
-15
-27
-25
-4
14
-42
2
58
-34
-26
21
-48
-10
39
-41
5
7
-2
7
19
30
30
38
8
11
-5
-45
-40
-39
-18
-21
-8
31
20
20
32
30
17
-20
-16
-12
-25
-38
-53
34
3
-10
-2
-20
-50
0
-46
-29
-22
-15
-41
-23
-6
-17
-19
-47
-39
-33
-25
-39
-20
-32
-17
36
34
35
-30
-35
-10
-9
-35
-6
10
13
52
-28
-21
-19
17
13
6
48
24
32
-26
3
-27
-36
-21
-21
-24
-3
-23
-43
12
7
-14
-2
14
-27
-39
-42
37
18
37
14
-30
-10
10
-51
-51
-22
-9
-28
-18
-15
-39
-18
-7
-12
24
-2
4
-20
-31
-26
-7
-45
-37
-1
61
-7
-69
-40
-76
19
35
8
16
-24
-44
6
-18
-33
28
44
36
-19
-9
43
-56
-13
79
-25
-38
53
-12
0
7
9
10
-4
30
35
29
37
21
-72
2
44
-9
-26
-21
-23
34
41
35
26
-11
14
-6
15
-19
54
1
-38
24
-43
-39
38
-48
-32
-27
-33
-32
36
31
28
36
38
20
9
-6
3
16
47
29
-28
-49
-29
-33
-39
-5
-4
4
-7
9
41
41
-36
-26
-8
-28
-28
-14
55
36
41
-48
-15
20
-38
-29
23
-35
10
36
-43
-25
-52
-18
5
-6
27
19
10
-54
-28
-15
27
35
-7
38
-23
-37
-48
-30
-22
-18
-16
-19
26
39
49
4
39
9
-11
8
1
-38
-43
-57
1
37
-71
-11
46
-65
-32
56
-19
37
22
37
-24
5
22
-33
-28
-38
-93
56
32
15
69
-89
-3
-23
0
-11
7
-31
-24
-31
-17
33
35
15
52
40
47
12
1
-12
1
-7
-4
-18
-13
-23
-7
-42
11
-50
-24
13
-63
-17
10
-39
65
-29
-25
20
4
57
-15
10
34
-13
-19
10
-45
-58
21
-41
37
16
-53
21
32
-68
1
-33
-37
-32
-25
-28
11
3
20
48
-45
-39
-9
-22
-38
-28
20
50
39
-11
11
-1
-24
-8
4
-29
-30
-16
-12
-18
-34
28
12
-8
48
47
22
-32
-23
-11
-23
-25
-26
47
44
36
-50
-6
37
-42
1
70
-56
-32
49
-10
-4
-18
3
61
32
-62
-56
-31
0
4
3
13
16
-1
-50
-53
-39
47
51
74
-45
-35
0
-27
-28
-59
-21
-26
-15
-7
-18
-8
-28
-32
3
33
29
19
3
-4
-25
-43
-34
-33
-18
-18
-5
-28
-16
-9
-25
-27
-1
-12
-37
-64
9
-30
-66
124
36
-47
-41
-29
-30
0
6
1
25
48
41
-37
42
67
9
-17
-12
-14
-31
-65
3
7
9
-9
7
-2
-34
-38
-38
43
-4
38
19
4
5
-53
-41
-42
-30
5
-31
-22
2
-17
-51
-35
-32
-44
-14
-20
4
-38
-37
-9
19
13
-50
-3
16
-69
8
42
-49
-8
56
4
-12
-31
27
12
-49
47
-19
-38
15
-26
-35
37
-10
-35
48
-8
-33
21
17
29
2
-5
-7
-39
-41
-61
-53
-9
36
-34
-8
38
-19
-17
18
-65
2
-33
-34
87
-7
-32
73
-51
-15
-45
-46
14
47
14
-18
-9
9
34
9
-32
54
21
-63
51
3
-60
15
22
25
-21
-27
-20
25
62
38
-23
-21
17
-23
-20
7
-31
-31
4
-27
-17
63
-60
-14
58
-24
0
28
-4
-26
-1
-28
-35
-27
50
45
12
-19
-21
-11
-17
-25
2
-12
-4
-20
-26
-19
-35
12
-14
-37
5
-13
-31
-36
-17
-49
-31
-18
-42
19
12
33
-50
-26
-36
-5
-13
-16
55
33
62
18
-13
67
-47
-29
67
-48
-48
42
5
62
-38
-9
11
-38
-31
-16
-62
31
58
43
-33
-9
-13
-18
-13
-35
19
-11
-49
37
-16
-33
8
6
-40
-38
-33
22
-15
-32
-11
-6
-20
-17
-39
-8
-30
-33
-10
-12
29
41
40
13
-21
-58
8
96
-26
-54
47
-34
18
16
49
2
18
21
-34
-28
-22
-54
-39
-34
10
21
-4
28
68
11
-32
-33
-33
21
5
-5
35
15
33
-43
-31
-58
30
-37
10
52
3
31
-27
-39
-27
-28
-23
3
39
46
33
11
-59
21
35
-61
35
73
-52
9
-53
-54
-30
41
-8
33
73
-8
39
-52
16
22
-63
18
17
-69
25
11
52
1
-21
59
-8
-53
50
-13
-63
0
45
46
13
2
-19
-49
-47
-45
-63
-39
-7
-39
1
44
11
18
10
12
22
54
0
12
4
-50
-17
-31
-11
-14
-38
-43
-14
-31
-10
-11
-7
-28
-45
-61
-7
27
-19
2
62
-21
-23
-37
-2
-14
-19
-27
16
37
20
-41
10
-10
-13
-24
-25
-22
-9
-13
-48
34
-57
21
82
20
-77
1
-63
-18
-23
-4
14
43
39
-33
-27
-54
28
51
47
-21
-23
-30
-10
-7
4
10
-14
0
35
5
25
31
12
32
12
3
-46
57
-1
-57
63
-12
-40
-29
-35
-28
4
-28
-4
51
40
41
-43
-31
-20
-22
-16
-12
50
20
31
-35
-47
-46
22
-2
-22
33
26
-40
-36
50
27
-28
8
-9
-47
-45
-20
-60
27
32
-52
43
20
-36
15
5
-32
-17
-33
-11
-25
13
38
50
19
23
62
53
-34
-16
-29
11
2
-4
-9
-62
-33
-28
-28
8
18
0
35
-16
-52
-46
15
7
50
-16
-41
2
-25
-39
-42
-7
37
3
31
23
15
19
40
32
-21
-14
-35
-30
-19
-31
-13
-78
18
-10
-30
-9
-11
-28
-30
-21
21
-38
-30
5
-25
-34
-33
-46
-12
-28
2
-13
17
41
-58
-31
27
-54
-31
27
-30
-18
15
-20
31
6
41
37
27
0
4
-4
-39
-41
-32
-30
-55
-36
0
-11
-32
32
12
43
16
28
23
26
30
20
5
0
-7
-58
-46
-54
3
8
23
24
19
11
-47
-47
-49
43
49
57
-19
-22
-13
-36
-21
36
-55
-13
53
-60
-23
65
-28
-17
-31
-23
-30
-20
21
9
27
-14
-32
-27
-3
0
15
-25
-21
-48
-18
-44
-47
35
30
37
17
15
49
23
33
34
-16
4
-19
-29
-42
-43
-36
-24
12
-16
-15
27
-59
10
36
51
66
21
-26
-12
-13
-23
-26
-24
-15
-18
-31
-20
-23
-26
8
12
10
-53
-42
12
-14
-7
52
-33
-15
15
-45
-45
-57
10
17
-9
17
37
41
31
-4
-16
64
-8
-42
23
-12
-53
12
24
26
-19
-2
1
-41
-52
-32
-46
-16
-19
38
40
56
-17
-21
-36
-23
-9
-21
16
-17
8
37
36
18
-32
-26
29
-30
-4
53
-49
-18
51
6
25
3
-54
36
-36
-50
11
-45
-40
-49
-64
0
40
13
15
15
-6
-64
26
32
-53
42
7
-54
-4
31
43
45
26
-4
18
-14
-56
-51
-43
12
49
-25
5
10
-1
-50
-63
-49
-33
35
-57
-46
30
-57
-48
30
-39
14
31
-1
-33
-25
-30
-13
-12
13
-14
-45
-38
-10
-9
-15
23
55
28
41
26
31
-7
-23
-43
6
-26
-38
-52
-34
-25
15
23
40
-43
-35
4
-5
-25
-23
19
38
29
-63
-34
-19
47
39
-9
-1
10
8
-44
-53
-24
25
-4
4
19
10
25
15
21
23
-49
8
26
-33
-16
42
-35
-6
6
-10
4
61
-46
-28
48
-4
-27
-17
-18
-19
-36
-5
61
31
-31
-35
-28
26
24
4
-24
-37
-32
-20
-6
-27
2
3
-13
-21
-22
-38
-27
-22
-22
45
-5
-44
39
23
-37
12
-15
-69
24
56
31
-35
-36
-25
-23
-37
-38
-33
-41
-44
19
32
16
-1
-12
1
-7
-19
-32
-12
-18
-17
-36
-16
-29
-60
19
21
-53
-10
22
-48
3
19
27
-41
-56
-3
-36
-45
25
27
43
51
39
64
-23
-37
-28
18
-12
6
8
29
-6
-4
22
-14
-52
-7
-69
31
46
35
-24
-41
-37
-14
-6
8
-10
-30
-23
-20
-39
4
-3
-7
56
-20
-32
-33
-25
-13
-19
15
30
31
31
51
17
-4
7
6
-28
-14
-32
-52
-46
30
8
-19
-13
55
24
5
14
-27
-25
2
2
-7
12
51
83
-19
-42
-14
15
-45
34
62
-26
74
-44
27
1
-30
-22
-18
8
-21
-20
-14
-24
-23
-9
-5
-17
-15
-25
-39
65
95
70
-48
-24
16
-29
-34
-47
-6
-35
-53
-47
-22
-26
19
25
16
-40
-22
-40
-18
-28
-19
38
8
27
-46
-19
-47
-20
-10
-15
-4
-18
-30
31
45
18
-18
6
-26
-20
-34
-23
-29
-4
33
-44
-5
44
-58
-13
40
11
21
-5
-13
0
-17
-67
-50
-39
-38
-13
-11
13
80
27
-22
-5
-1
49
-6
-67
44
-25
-29
23
-32
-17
-42
-7
-19
-20
-6
-5
40
58
45
17
14
28
-35
-5
8
-42
-45
-33
-21
-28
-21
25
41
13
-32
-20
-20
-23
-16
58
-62
-29
56
-41
-9
-15
-22
-26
3
-36
-35
-14
-4
-28
-3
-27
-30
-31
-5
0
5
21
46
14
-28
11
5
-40
-6
50
-42
-28
6
18
-21
2
30
-38
-41
44
-76
-14
-27
-18
-49
38
58
-54
-34
17
-56
3
-26
-47
15
-19
-62
51
50
-16
27
-74
-26
25
-47
-20
12
24
46
-12
-2
-27
-3
56
28
-55
-48
-37
-35
-45
-3
-24
-26
1
13
22
26
-30
-15
61
-68
-3
42
-22
-46
25
-37
-10
34
-32
-23
51
-82
-4
61
-7
-38
-5
29
-3
-48
38
-3
-44
18
15
-46
26
11
-36
33
-7
-40
-38
-35
-55
3
0
-3
20
28
4
-89
8
17
-62
10
-3
27
41
36
31
-15
-41
29
-11
-33
15
-15
-40
-56
-20
1
13
77
22
-22
-8
-48
-30
-27
-41
-25
-4
-22
37
16
5
17
54
31
0
7
16
-18
-1
-3
-43
-44
-37
-10
3
-19
-5
13
-19
-3
-48
-3
12
-1
82
-32
-15
-21
32
32
35
-22
-14
-19
-39
-39
-37
-18
-67
-9
-16
-31
-25
22
31
21
-26
-45
-54
-9
3
-2
27
20
46
27
22
31
-9
-10
-15
-44
-38
-52
-39
-3
-24
19
-15
-47
-32
-39
-21
2
6
3
-8
-16
-16
-25
-27
-23
-33
1
57
-31
-18
39
-46
-38
-21
52
41
52
2
0
5
-38
-41
-31
-55
-35
-47
26
10
13
25
20
47
26
37
-74
-2
56
-48
-13
27
-63
12
58
15
-3
55
-6
-34
-17
-42
-18
-35
-28
-30
-13
-23
0
20
39
9
0
-49
36
25
-33
18
0
-46
-59
-46
-44
4
-7
2
22
10
15
37
40
25
-28
-23
-8
-57
-53
-53
-32
-43
-66
29
33
44
-19
-39
-23
-29
-20
-11
-20
-7
-18
-30
-27
-23
-6
34
16
-22
-5
-24
-36
-36
-21
11
23
32
-16
12
15
17
12
21
-30
-49
-58
-12
7
13
29
29
46
2
-5
14
2
-34
-13
27
-31
-56
-31
-8
-36
-43
-17
-31
-1
27
0
-19
-5
2
-53
-37
3
-35
-9
10
-43
-35
-1
8
12
-29
52
26
18
0
-9
2
-19
-29
-22
34
45
29
9
-5
13
-16
-30
-16
-15
-33
-29
16
-23
15
19
-12
10
77
16
43
24
34
76
-2
7
-21
-23
-32
-30
-17
-22
-21
3
5
6
17
33
32
-34
-23
-52
-19
-10
-27
16
42
50
-13
-30
-32
7
-20
-22
51
45
46
-26
-41
-27
-17
-27
14
18
23
33
-36
-18
-19
-14
-16
-16
-19
-20
-29
8
26
-45
15
14
-18
-18
-33
-50
-29
-28
-41
-3
-5
-15
40
4
-11
-46
3
27
-49
-2
38
-63
-44
77
39
48
63
33
-20
20
-13
-9
4
21
27
18
5
-50
-32
14
-58
-50
-44
-40
-18
-4
-13
-19
14
50
66
-31
-19
-17
24
-15
-36
22
-1
-25
-24
26
-34
-37
63
-32
-37
58
-37
-40
-39
-41
5
9
-19
27
32
42
28
22
28
-8
12
-13
-44
-26
-44
-26
-21
-36
5
38
40
-15
-47
-43
-57
-29
-20
11
15
-33
35
2
-1
-19
20
15
-28
-7
-5
-26
-29
-23
-10
-27
-41
3
-17
-4
35
47
31
61
-2
7
19
-19
8
-35
-43
-37
-42
-35
-34
23
17
31
18
20
4
-32
-43
-29
58
37
41
-22
-20
-26
1
62
14
-67
14
-67
-25
30
-19
-25
-7
34
-53
3
40
-56
-14
57
46
-11
-45
36
10
-39
26
-27
-5
-5
-14
-2
6
14
6
-46
-35
-37
-46
-39
22
0
-27
-7
65
-20
20
-73
-27
-8
-10
31
38
-23
-63
27
-40
-55
-39
16
-3
-24
6
26
34
-27
-14
17
-49
-22
39
-43
-33
44
-46
-23
-50
-10
-19
-20
-10
-12
2
21
25
17
-5
-6
-20
-26
-32
-50
-31
-4
53
-30
-9
30
-44
2
17
-22
-26
-39
26
17
-2
12
70
6
-25
-28
-20
22
61
18
-9
-32
-21
-34
-37
-56
13
24
27
19
15
-10
-39
19
38
-36
-11
13
-17
-50
-15
-27
-27
-42
-17
-35
-13
43
35
34
-11
33
1
-23
-5
-11
-30
-51
-52
-16
-46
-38
22
25
39
6
12
-13
-53
-18
-8
-27
24
21
-21
22
43
-1
-15
-25
28
11
-45
48
6
-26
-15
-8
-20
-25
-27
-21
54
63
22
-43
-28
-27
-17
5
8
22
31
9
22
23
3
11
-7
-36
-22
-36
-33
46
-32
-50
27
-13
-25
9
-26
-36
-28
-46
-33
1
25
-16
-15
102
-7
14
7
1
-64
-11
-29
-1
-34
-7
57
56
16
-1
-23
-18
25
-42
-58
-17
-10
5
-20
-15
25
-45
-26
39
-26
-26
-39
-7
-18
-4
11
31
3
50
-24
-27
41
-36
-27
23
-17
-32
6
-36
-47
-7
-42
-8
-12
-26
1
24
59
29
-11
-15
-7
-7
-36
-14
69
27
-79
47
3
-53
52
9
-38
-79
-52
-43
20
44
34
-53
9
-10
0
-33
-27
28
-17
-40
42
-27
-24
44
-22
-31
-44
-46
13
-30
13
53
32
26
57
-28
4
23
34
-29
34
25
-37
-66
86
36
-26
4
-10
-69
-59
-17
-7
-30
2
15
-40
-14
9
-24
9
-10
-33
-6
-30
-19
-6
-41
14
4
31
-2
12
16
-57
-44
-35
-27
-17
-33
-10
-12
-3
40
8
64
-18
-18
-28
-9
-29
-30
33
51
30
72
39
54
17
-20
21
-2
-28
-29
9
14
5
-24
-15
-25
-45
-16
-33
51
33
39
-4
-18
2
-15
0
-16
-31
13
-8
-24
-23
-19
-10
-21
-17
-29
-26
-16
8
22
32
-33
-13
-11
-46
16
-8
-33
-54
-14
2
25
4
-15
-12
-11
-9
-10
-9
36
44
40
5
-40
-21
9
-26
4
73
16
108
58
49
9
-22
5
-22
47
42
43
-8
9
-10
-14
11
29
29
43
27
-31
-32
-25
-9
-11
-11
29
42
34
-59
47
-34
-27
54
-35
-28
38
-44
3
-46
3
28
-35
-25
22
-7
-44
-28
-30
-31
26
48
22
-29
-42
-23
17
13
10
-24
-16
-13
-40
-45
-49
-32
-35
-31
8
31
-37
8
29
2
-8
31
1
-57
-43
-29
-31
127
49
-58
-32
29
2
53
0
-4
-65
-67
-24
-41
-38
-17
-9
-26
7
13
22
58
20
-59
11
13
-37
34
20
-44
-57
-37
-47
26
32
-9
14
17
10
-69
-1
-65
-27
30
-20
10
70
18
28
-19
-15
46
-41
-32
35
-37
-48
-36
-9
-39
-5
-8
-23
45
66
39
-3
-10
-13
-7
-33
-2
-19
-44
-4
37
30
32
18
15
-7
2
-42
-14
3
11
-1
-18
-9
-25
-24
-32
-33
-26
-39
-17
-11
-20
-24
14
11
6
-34
-27
-29
-16
-14
-21
11
10
7
-26
-21
-23
24
67
47
-19
-18
-20
-40
-16
-3
-10
1
-6
-4
45
90
39
45
-3
-28
-8
5
-44
-43
-19
-33
-18
-32
36
35
44
-22
-11
-23
-17
-38
-15
-30
-21
-26
-7
-7
0
-57
-45
-7
4
23
29
-9
9
30
-9
-11
-44
12
-13
-24
44
5
-59
17
16
23
-43
-41
-31
-12
-5
-32
61
48
22
1
-13
-46
2
35
-34
49
35
52
10
-32
-54
-40
-27
8
-11
22
-6
26
86
-2
0
45
-19
-39
-14
41
-46
10
37
-26
-27
4
-22
-20
-25
-9
-24
-27
-39
-29
-11
-99
82
-23
1
-69
32
65
-27
-65
46
25
-51
-1
33
-1
-38
-32
-13
31
-3
-44
36
28
-61
15
-21
-26
26
-9
-44
36
8
-52
51
-1
-67
29
19
10
17
-28
10
50
19
17
-1
7
40
-42
-69
14
-2
-25
31
-11
-11
-63
-20
30
-37
16
40
-4
-1
-51
-29
51
74
35
-44
-34
-4
10
101
-105
42
50
-72
-13
-16
-2
45
54
20
13
-18
8
11
20
3
37
18
32
-7
10
9
-45
-47
-33
88
-36
-42
56
-50
-23
27
-79
60
-19
-8
-27
-53
-21
-44
-33
-4
-12
1
-36
-34
-27
12
-55
55
42
-62
-50
-5
45
-30
-3
43
-7
-21
11
-61
-40
-44
-21
-7
-41
49
41
49
30
14
1
-5
24
5
-30
-64
-43
-35
-5
26
-38
11
31
-54
-16
9
3
46
5
-32
-30
-17
-16
-33
-27
-8
-6
58
57
21
2
-15
-16
26
-44
-41
-9
-39
-10
-21
29
12
9
49
27
-15
32
10
-45
-19
-4
-43
-8
-25
17
-36
-44
-18
-8
4
16
-6
23
4
1
12
27
5
28
57
-28
-9
-19
-18
-36
-41
14
3
-3
19
5
14
-2
10
-7
-43
-24
-44
-42
-3
20
-38
-12
64
-18
-31
27
21
33
-17
-19
-13
-18
3
64
37
2
-9
-56
81
3
-12
13
-5
-5
15
-49
-4
33
-51
-16
12
-32
-15
15
6
12
11
15
2
-54
-37
-39
-11
-12
-17
-17
-14
-19
32
38
30
35
36
16
-16
-11
-37
-32
-41
-15
-25
-60
-5
27
-56
18
42
-15
12
34
26
33
26
6
6
-11
-4
6
13
25
16
16
40
-1
10
8
-10
-32
-27
-32
-1
-12
-5
26
35
51
-31
-37
-16
-13
10
47
-7
31
57
-29
3
38
-52
-23
36
-23
-36
-10
51
3
-70
61
0
-27
2
-36
-9
20
28
23
-23
-18
-9
-37
-30
-26
11
5
7
-51
-38
-36
42
44
42
-44
-27
3
-32
-8
19
-27
-17
-2
-6
31
30
-75
-23
84
-71
6
74
-21
24
19
-64
13
46
-47
-14
51
-25
-5
-14
-4
21
13
-3
64
28
-7
2
-4
-19
-70
-30
33
-5
24
46
4
-44
63
4
42
-45
-88
-7
2
-9
-21
-32
-23
-35
16
13
-12
-34
-4
-11
3
-1
-7
-28
-46
-38
49
22
-47
44
2
-38
24
-36
-54
51
39
16
16
-1
-24
13
26
32
7
44
17
-32
55
-23
-71
3
-46
31
20
27
15
-9
10
-35
-32
-44
-28
-34
-12
-15
4
4
-7
14
63
-14
-6
-23
-10
-22
-2
32
46
22
-2
-5
-13
34
55
68
-53
-53
-9
-34
-19
-13
-18
-13
-12
0
47
19
-2
45
26
-37
-11
-40
-35
-4
-23
-44
-50
-8
42
63
76
-36
-74
13
-20
-43
56
67
-38
-54
66
0
-64
13
-29
-17
2
-13
3
43
61
47
-49
-19
-54
-17
-23
-21
52
29
42
-8
-15
-23
-21
5
-19
-26
-13
-30
-3
0
-1
-21
-19
-14
39
44
24
16
28
-28
8
36
-47
56
39
-9
-2
-8
-3
-10
-11
-4
-18
-46
-36
6
34
45
-36
-1
7
-34
-30
-23
-17
-19
-32
31
40
39
-14
-9
-13
-30
-33
37
-41
18
34
-35
0
17
-1
5
-14
-26
-13
-34
-30
-28
-36
-27
-29
-45
68
52
-20
-57
-15
41
11
4
-50
30
22
-54
48
50
-86
10
0
27
-21
16
13
-38
-60
-54
-7
-42
-40
54
10
32
-22
-27
-30
6
9
-11
31
-7
12
103
0
33
-40
-25
-34
-19
-11
-5
-16
-10
-20
5
-3
-40
-19
-19
-54
34
34
23
-42
-23
43
-50
0
56
-38
-57
37
49
66
33
-6
-54
-20
-19
-40
-26
-47
-38
-36
0
15
-23
-19
-7
-33
10
57
7
-26
34
24
-19
-72
-53
24
18
-79
37
-2
-37
22
-20
-50
-46
-33
-21
10
8
1
29
48
17
48
10
-47
-1
17
-39
-8
6
-51
3
22
16
4
23
-8
-23
-36
-62
-25
-37
-38
-8
-1
-13
22
17
22
-54
-2
3
-47
23
35
-21
-9
-17
-3
-13
-36
-31
-36
-12
17
53
62
11
63
-39
-1
-33
-32
-22
-27
-23
29
28
11
-15
-22
-14
-18
-37
-22
-27
-41
-28
-24
0
-32
22
14
24
50
-53
-1
21
50
-44
0
-103
-29
6
19
-27
8
46
18
-66
-29
-44
-13
3
-48
-30
17
-28
-30
-13
-39
-17
18
8
-5
54
-5
-48
-37
-44
-7
35
2
-4
53
60
-50
-12
9
41
-8
-34
41
-14
-30
35
-3
-48
-10
14
-19
25
61
25
-34
-12
-50
-2
86
-75
-23
80
-67
-4
-9
-33
6
35
-54
48
27
-77
31
-25
-55
19
2
-62
44
39
-70
37
37
-73
24
-38
-46
-18
-13
3
60
18
-70
12
4
-43
52
3
-48
53
29
-14
-2
63
61
-30
-26
-5
-44
-30
-31
1
36
-30
-19
75
-67
-29
76
-77
-13
-5
-20
-29
-16
-27
-37
-7
-27
-48
-17
-30
-10
-8
-16
-26
-29
-28
0
14
7
13
22
18
-40
-54
-52
-6
-15
-13
-28
-39
-27
-23
-11
24
18
7
4
-48
-45
-42
21
27
10
-31
-35
-32
-11
6
-20
-24
-23
-21
55
31
69
-3
-19
-7
-34
-40
22
67
5
0
52
5
-10
1
-26
-31
-18
4
-1
-24
-15
-24
-28
-32
-22
-9
-13
-27
47
-20
-48
32
21
-37
-27
63
21
-50
72
-14
-47
18
-35
-32
-37
-77
2
2
-4
35
35
42
-7
55
-41
-17
41
-25
-64
-18
-40
-6
-12
-18
-20
-14
18
-34
-35
-34
-33
16
75
-15
-42
43
33
-32
-21
-25
4
12
-7
3
73
-13
-31
88
58
1
-9
17
-6
-31
-12
-25
-24
-33
-10
-27
-18
-22
-17
-22
-20
-14
47
87
-72
5
7
-65
-17
-8
-33
-13
-14
-23
16
32
26
16
29
33
-17
-34
-37
-17
-6
9
10
26
12
4
33
31
10
2
-11
-30
-44
-26
-44
-27
71
-67
-49
56
-23
-29
92
-49
-49
-16
-6
-14
21
21
-13
42
22
-18
-42
6
52
-70
-1
13
-32
-26
-23
-25
0
-20
-51
14
24
-15
-62
-3
20
-24
-14
47
-50
20
51
26
11
31
7
-19
-11
-42
-39
-28
-43
-14
20
-36
7
39
-25
-6
28
27
34
42
-18
-10
19
72
47
65
2
-47
27
7
-82
34
1
-44
20
-24
-9
-7
-26
-5
-10
14
56
37
-23
-16
2
4
-2
15
18
25
59
-24
43
-39
-43
73
-42
-46
66
-1
5
-8
-17
20
50
21
-16
20
15
-39
59
-13
-33
32
-8
-21
78
9
-21
-12
13
-18
-9
4
15
74
39
8
-18
-40
-24
-7
-17
4
-28
-25
18
48
35
-40
-31
-53
-23
-19
-10
-26
-33
-40
-29
-15
-32
2
29
6
-44
-18
-39
3
16
1
61
51
38
-14
-26
2
-32
-31
9
-4
-43
0
13
11
-8
37
3
-20
73
28
-25
13
-44
74
-4
-110
82
11
-67
28
15
31
18
-20
-29
0
-39
-48
-37
-10
2
-20
57
40
28
-54
-58
-42
-30
-22
-24
4
-8
-12
-41
-25
-24
39
41
37
7
-9
-11
14
-2
7
-30
-14
-23
-11
-17
-8
-20
-18
-9
22
66
6
-15
-26
-40
-7
-25
-56
3
28
17
-19
40
40
-44
18
62
-29
-16
-17
15
9
14
34
49
23
-7
-23
-16
-6
-10
28
41
37
48
-4
7
-16
-6
-3
-2
26
71
28
39
24
8
16
8
16
-44
-70
-62
11
-16
-7
-38
-16
63
-40
-35
41
-54
-20
-42
-45
-18
-23
21
7
34
-34
-42
15
-28
-3
40
-27
4
27
30
49
-2
-68
-57
-32
-1
39
9
50
52
-106
66
12
-69
-45
-3
-1
-22
4
-15
-22
-26
-23
-8
-7
-43
-13
-5
-65
1
76
-1
19
20
-3
33
16
35
17
19
14
-69
-46
-66
-43
-17
-31
-22
-13
-21
47
32
61
-38
-8
-34
-2
19
61
-30
-11
5
47
-14
-46
-1
15
-50
16
30
-43
52
16
17
22
0
-2
10
-3
1
-27
-11
-34
-10
-10
-22
-11
5
-21
24
10
-19
51
-6
-33
8
-21
-57
-41
-2
49
-25
31
48
-29
-13
45
-67
-21
64
-39
-28
56
-30
-41
17
-46
-37
-11
-6
-16
3
11
20
25
-41
-39
-23
15
-2
19
29
38
42
-52
2
-1
-22
-44
-25
15
13
17
-44
-44
-62
37
21
17
13
13
-61
43
44
66
-44
-7
-49
-44
19
-38
10
4
-31
24
35
-61
30
27
-53
-24
-8
-39
-35
-15
29
2
30
44
53
49
-74
27
3
-43
28
1
0
27
-8
-20
28
-23
-88
-38
8
-15
-27
-20
-23
5
5
-9
55
70
2
2
-17
-76
53
32
-15
-3
9
-41
59
-35
-42
50
-9
-37
11
-2
-14
-30
-15
37
-41
-10
25
-37
-38
63
-32
-8
1
-37
21
45
-51
-40
37
-69
30
10
8
49
-1
-38
-26
-34
-37
-42
-49
-12
-11
-13
24
30
38
24
63
-19
37
-25
-42
19
-27
-55
18
18
22
7
-12
14
47
5
55
11
23
49
-30
-23
-23
-23
-28
-21
-16
-6
8
-39
-4
34
-49
-39
35
-29
-13
-33
-25
-16
-23
-7
11
-2
49
45
53
-8
-6
-18
-14
-45
-40
5
24
16
-28
-10
-30
-35
-20
-46
45
3
-47
28
6
-39
7
11
-48
28
9
14
-38
-26
-19
-29
-28
-14
-18
-23
-24
-40
-10
-1
37
27
14
-19
2
78
-32
-22
33
-46
2
18
1
34
-21
-24
9
-44
-22
-35
-20
24
17
10
22
8
-9
-38
-50
-53
18
-1
-15
46
12
-37
24
-7
-48
-35
-13
-13
-35
-22
1
-40
-14
32
-35
-3
-30
-28
-7
-16
-13
-12
-21
-23
-38
-46
9
42
26
-28
-38
-38
-8
40
25
19
12
61
-25
-24
-13
26
-38
-37
8
-4
-32
16
4
-31
-19
-17
-4
-2
-8
-10
51
79
48
-7
-14
6
-33
-40
15
-44
-16
22
-10
14
8
-2
-3
-7
-45
-54
-61
-16
-39
-39
10
-29
-8
24
21
46
-41
-25
-36
-24
-29
-10
28
26
24
15
-45
34
-79
26
32
-51
-6
-23
19
-18
4
-37
-26
-3
-16
-34
-48
1
-18
-26
26
-8
-25
48
1
-47
5
11
24
-13
-9
-27
-33
-31
-42
-15
24
-40
-12
84
9
-65
1
-70
49
63
60
-25
-4
-24
-34
-31
-57
-52
-36
-18
-18
-8
-8
8
55
54
-36
-37
-53
3
9
-11
28
23
7
15
-3
-49
39
-12
-38
24
-33
-33
18
-8
-19
29
16
-9
38
64
5
-39
-40
-46
-15
8
14
40
34
29
127
-18
-58
-66
26
2
-10
-30
43
-46
-7
31
-45
11
38
-28
-19
23
-21
3
2
11
73
27
11
-6
1
29
35
43
-33
-28
-26
-16
-40
-1
35
22
33
-24
-42
-18
-49
-51
-22
-40
3
56
-16
-19
-7
38
-2
-47
8
42
53
-4
-7
32
-7
-48
11
1
5
7
-21
-38
-20
-19
-22
-19
8
13
16
-18
-29
-25
-36
-32
-21
-22
-20
-33
49
-20
-25
84
-26
-34
16
41
36
-7
-1
0
-21
-38
-33
-24
-58
-30
-38
-12
2
-4
38
37
-26
-22
-41
-15
27
-47
30
27
-53
2
-2
-2
15
36
10
16
38
8
22
-27
-68
77
53
32
-56
7
21
-23
-16
9
-47
9
37
-80
3
49
15
34
12
-14
8
-10
-38
-39
-26
-37
-36
-42
-27
-21
-23
8
-8
-21
-27
-86
-18
25
23
54
5
-23
-62
-34
-32
-23
-8
19
-14
9
92
15
-73
9
59
-38
4
38
-77
-13
92
14
11
13
-11
-55
-26
37
39
30
-37
-51
-51
23
-2
2
-29
10
5
-58
-23
-44
-30
67
12
-17
25
25
-22
16
15
-28
28
25
-39
-34
-17
64
43
40
19
7
-2
-22
-27
-27
-2
-4
-41
-8
-3
5
3
-55
-39
20
21
29
13
22
3
-66
-40
-48
-40
-34
-55
-7
-3
-7
-4
60
36
43
12
35
-9
-41
-43
13
-32
-34
-17
-29
-26
-3
-4
13
25
75
49
-40
20
35
-43
-2
25
-47
-3
-30
-19
20
-64
-18
-5
-45
11
19
-11
-34
-15
-24
-16
-34
-40
27
15
29
-62
-37
-37
34
29
28
-59
-36
-43
-17
-14
-64
27
54
21
-12
-32
-37
44
-28
-14
35
-28
19
-10
-48
-48
44
39
35
-2
-8
-8
-6
-31
-27
-40
-34
-28
-13
-8
-9
20
22
62
-40
15
-2
-58
53
28
-58
29
17
-24
-10
47
-43
0
27
-53
3
26
-21
-53
-67
26
41
61
-49
-40
-30
-26
-26
-7
-18
-46
-25
2
-9
-14
-9
41
-42
6
38
-56
-8
45
-51
-48
-57
-47
-9
16
25
20
45
1
-31
-29
-26
-18
-22
-24
-17
-48
-1
27
69
40
8
5
-15
-34
-10
-26
14
16
-1
-16
-23
-8
-27
-24
-23
-50
-49
-61
10
10
14
2
32
40
-22
-27
-11
-25
-16
-16
-16
-26
-29
69
-5
-27
47
-11
-36
67
-23
-8
-49
13
17
-50
13
-5
-39
26
32
-42
-20
-35
-7
41
13
-51
2
-14
-37
-43
-38
-35
10
64
46
22
-40
34
22
26
8
36
33
4
6
-23
16
45
51
-46
-46
11
-27
-47
11
24
20
13
-35
-5
-4
-67
-19
-23
28
77
2
12
19
-37
-23
-28
-43
-12
-21
-68
-10
6
-57
40
47
13
43
-36
-53
26
-10
-60
45
-3
-47
-14
-23
-9
-26
-32
-1
30
7
52
53
-30
6
66
-35
-18
21
-33
-2
-48
2
17
-39
-4
40
-40
-23
1
-41
-35
2
37
24
27
-18
67
-73
40
44
17
26
8
-7
-31
-21
-20
-21
-28
-16
14
-40
1
23
27
101
-43
-15
-35
-6
-11
-11
31
57
63
-21
-21
-23
-17
-30
-28
3
-12
5
-9
-18
12
-17
-17
18
-52
-10
50
83
22
79
1
-13
26
-36
-10
-23
-43
-37
-22
10
-1
17
20
43
20
4
9
6
-30
-15
-15
-27
-36
-25
-53
-38
-48
22
48
22
-6
46
-33
13
-1
2
-20
-26
-10
29
69
22
27
19
16
-2
-8
-18
-7
-71
-66
-31
-23
22
-35
-7
43
-31
9
26
48
10
55
18
-23
-26
6
-61
-43
-31
70
3
-19
35
13
0
47
48
46
37
46
-34
1
-18
-58
-31
-63
45
-42
-52
51
-46
-25
19
-30
-23
40
-48
-49
5
-24
-57
45
19
26
71
42
76
-20
-17
-34
-15
-21
10
-22
-17
2
22
7
16
39
23
29
13
14
15
5
9
-6
-56
-46
-56
2
-7
2
-35
48
11
-35
-55
-40
-25
-18
-24
-30
-12
-21
-1
3
4
56
32
-67
20
29
-33
-43
-5
-16
51
-8
-4
25
-2
-33
-33
-33
-29
25
21
37
-23
2
-27
-22
-46
-40
-42
-33
-44
34
20
29
-33
-21
-24
-41
-26
-4
-39
-33
-25
8
1
-22
-54
-5
50
-40
-5
3
-23
-25
-15
-20
-22
-28
-19
-8
-14
-18
-20
-14
-18
-13
-15
-8
-3
-6
-26
-8
-25
67
77
29
-48
-22
-29
-29
-11
-24
56
-4
-55
32
-36
-35
56
-15
-61
-15
-15
-2
-5
19
28
35
37
44
-2
52
7
20
18
-9
-1
-28
-47
17
35
11
-14
-20
-23
-32
-28
-30
-22
-27
-26
-6
-16
-16
-14
-23
3
2
21
41
-13
2
-6
-49
-36
-67
6
-3
-21
58
1
-64
41
10
-54
-30
-1
-20
-32
-17
-34
-5
-2
-6
-65
77
-19
-55
76
-56
-66
-12
-35
30
12
44
31
-21
0
-28
-33
-36
-12
-24
1
-18
1
2
-11
-29
-43
8
20
-1
-38
-35
-46
-38
-2
-47
-50
-31
-5
-58
-31
11
5
31
63
28
23
11
-16
-21
-17
-18
-19
-33
34
-14
-26
36
-25
-41
17
-38
-52
-17
2
-2
0
21
6
-30
-29
-73
-24
-42
-22
32
50
45
-28
-30
-43
-44
-48
-40
16
-32
30
57
-9
15
-6
17
16
-26
-14
-1
-26
-24
-27
-54
-40
50
-6
-35
40
8
-18
10
44
12
-116
-16
33
-11
2
-21
-46
-38
-24
-28
-48
26
39
-14
-18
17
-17
24
-17
-39
79
-34
-73
60
-16
3
0
17
38
29
52
-27
-24
-33
-1
7
0
-2
12
4
-41
-51
-51
-60
-11
11
-12
70
6
-26
-32
-37
-19
-16
-44
-13
3
1
10
20
78
-48
-33
-30
-8
-12
21
-45
-8
19
-51
14
-5
-1
23
15
-31
-58
-57
-62
-4
33
-48
-15
38
-25
5
1
-41
-43
36
-44
14
45
-19
12
24
-37
-8
40
-48
0
61
-17
46
53
-25
-38
-21
-44
-29
-29
14
31
22
-27
-12
5
-39
-7
18
-34
-8
51
-53
-26
81
-39
1
26
-43
35
20
-37
-45
-52
-16
-21
-21
25
30
62
-42
-31
-21
23
-7
26
50
8
21
-14
-29
-53
27
19
-38
-30
24
47
34
-7
-44
29
18
-46
29
31
-55
-13
-24
13
-17
-38
2
-5
-25
6
5
29
1
-41
-30
-45
-25
-20
-17
-27
-7
0
-31
-28
-7
-39
-9
4
-34
-21
-18
-40
-13
-43
34
37
26
-45
7
6
-39
41
-3
-16
37
42
60
19
-18
24
13
-48
-51
-31
-20
60
51
58
19
-54
-29
-25
-31
-29
9
17
5
-25
-44
-40
-2
-33
27
-35
-20
-72
22
55
15
-19
13
-11
47
-7
-46
40
-13
-37
9
-5
-23
11
-4
32
-48
-15
16
-42
-28
-7
-29
-49
-3
-14
-27
-45
12
13
11
-41
-48
3
85
42
29
-49
-37
-50
18
32
24
-6
7
-6
-23
-38
-39
-19
8
3
-42
1
-45
-43
0
-29
43
27
34
3
-11
-13
-27
-34
-40
-32
-37
-25
24
57
29
-15
-2
-37
17
17
-51
34
12
-61
13
-11
-37
-12
-10
-15
-42
-13
1
-25
-14
-23
-45
-36
-43
-2
24
40
-44
-35
-21
-25
-23
-33
-13
-21
-28
11
7
7
38
29
36
41
-15
31
-39
-33
-26
-15
33
-47
-14
108
-21
-30
48
-9
-63
-22
-53
3
-39
-5
23
75
54
21
-46
-55
45
-23
-25
46
-4
13
5
-39
-51
-19
8
9
-46
0
29
45
15
24
1
-11
-16
-45
-20
-40
-4
-1
39
-17
-12
4
-70
-14
69
27
31
49
21
10
-33
41
32
4
-4
40
28
-27
-26
-16
-41
-14
-41
-26
-7
-42
-2
52
-43
-2
4
-81
50
50
18
-29
7
-40
-57
-60
-33
-8
-10
-13
-21
-28
-32
36
54
44
-49
-27
-33
8
-6
-28
-8
-18
-23
-9
9
2
22
24
29
6
3
15
25
1
4
-13
0
23
-45
-64
-4
-14
-7
-7
-84
-10
73
-8
-2
-14
-12
66
-56
14
56
-34
-22
-12
-63
36
2
-41
46
8
-47
72
5
-74
-11
-18
41
-65
-18
2
-35
-49
34
-49
-33
-37
-26
-19
-24
18
17
20
0
-2
-18
-11
12
17
16
88
44
44
-22
-69
67
-4
4
21
37
7
-35
-42
-57
21
11
-23
6
65
37
-24
-25
-23
-23
-18
5
39
38
9
-33
-45
-32
4
-22
-13
-7
5
-18
4
50
25
10
3
-21
-34
-49
-57
14
9
14
-18
-26
1
-26
-44
-29
39
62
47
-7
4
-9
-2
12
-1
-36
40
22
-42
53
4
11
40
5
40
-19
0
32
-53
19
6
-55
-30
-13
-10
-29
-19
-16
-26
-25
-23
-18
-58
8
13
-56
4
22
-74
1
15
18
-5
2
-3
-25
-21
3
-37
-25
-36
-32
-43
-22
-27
-13
30
24
6
-9
-24
-20
29
20
-8
4
48
42
-24
-12
-36
-30
-21
-27
-6
-30
-15
-50
-16
-3
10
42
60
-31
-19
-8
-72
-8
46
-14
9
25
57
33
-66
12
25
9
20
15
14
-61
-19
-66
24
11
9
-39
-26
-24
-37
-16
-40
-59
-6
-11
1
47
88
-35
-21
3
-34
-24
-34
-17
-12
-11
16
37
36
-19
-41
-41
5
-3
6
30
45
17
-15
-6
-32
-24
-9
-11
-37
-16
-28
-39
31
-23
-30
78
-23
-47
49
-21
-37
-46
-33
10
-13
29
47
14
37
0
29
13
-28
-2
-12
-6
-19
-66
-11
-42
-33
0
-42
-25
18
3
28
-40
-40
-19
-8
-9
-17
-5
6
-28
-38
11
44
-57
12
56
-64
11
20
-23
-1
6
-5
-29
-38
-68
42
82
9
-15
-20
-13
-8
-29
-43
-20
-39
-35
-22
-30
6
-5
1
24
44
50
-30
-22
-8
-43
-22
-20
-17
11
6
-82
28
25
-62
53
2
-31
16
-35
-47
-23
50
-23
-14
38
-14
-8
1
-100
-6
18
13
0
3
13
-12
-91
-32
-2
-39
-50
36
-42
-45
22
-27
28
17
-62
12
19
-50
24
24
-45
-30
-28
35
-46
-16
15
13
19
-2
-7
-39
-2
-22
105
-16
-2
5
-31
11
4
-12
33
52
22
-61
-48
-68
-25
-1
-59
-6
44
3
-40
-17
-55
-3
-37
-33
-23
-20
-6
24
33
46
-25
-63
-14
1
-32
-27
31
-5
45
-41
-10
-13
-18
-10
-5
30
10
61
-6
6
9
-4
31
21
1
31
32
30
15
33
2
-43
-20
-25
-31
-41
13
-19
-36
43
14
-45
60
25
-58
-18
-25
-18
-20
-15
-6
36
42
49
50
20
-28
45
7
31
-30
-45
-34
-82
0
16
-57
11
7
5
20
-23
-36
-39
-29
-28
-24
-28
0
-2
0
33
-63
8
-3
-78
1
7
-50
14
14
41
22
-1
-10
-15
-38
-49
-18
-22
-55
-41
4
-17
-13
26
-6
5
35
11
-25
2
-2
-12
-3
-45
-44
-37
3
-49
-32
61
5
-48
47
-29
-43
21
-37
-32
43
-51
-27
-5
-49
-33
-46
-36
5
4
2
19
16
40
0
-9
-10
-13
-34
-10
41
71
26
38
-24
-49
-112
74
14
-76
1
29
15
19
-26
-40
-40
-24
16
5
7
-38
-1
-19
-75
18
34
-5
36
15
-2
-13
-8
-46
-19
-57
16
31
4
-28
70
-3
-24
61
-32
-55
-33
-54
8
14
2
6
-25
-9
-3
-38
-64
15
26
69
16
-2
-15
-39
-30
-62
37
37
45
5
5
17
-6
-6
-9
-31
-32
-37
-7
-6
-4
28
22
33
-11
-58
-13
7
-8
-18
29
46
21
-18
-41
-46
-5
25
9
-8
75
10
-29
-42
-33
-30
-12
6
-21
-3
34
-40
35
-21
-69
54
-34
-63
37
-4
15
21
-87
24
25
-38
49
2
-72
22
-5
-29
25
-11
-47
4
-37
-30
7
27
-11
20
44
-28
24
10
-36
43
16
-29
33
8
-11
21
-46
-40
8
15
10
-17
-13
-19
-36
-19
-30
-19
21
-11
-25
48
0
-57
-33
-29
0
-60
-41
16
28
9
-22
21
32
27
-11
9
23
7
10
101
51
21
-72
3
36
-53
-8
40
-38
-22
21
-39
-33
-52
-15
-2
-12
-4
19
39
1
-32
-10
34
4
21
40
50
57
8
9
25
4
-2
21
13
24
23
10
-12
-72
39
-17
-38
39
19
-26
41
8
-10
15
-4
-38
-8
-48
-34
-25
-39
44
6
-9
71
-31
-60
42
-29
-30
45
-18
-31
40
-19
-8
27
-44
-20
22
-36
-16
7
-9
-21
21
-35
-45
-51
-12
-10
-13
-31
-24
-22
-2
-36
-18
-6
-19
-31
54
36
27
-25
-38
-38
-3
-22
13
18
-44
58
23
23
38
-14
-21
0
-28
-26
-30
7
4
-6
9
65
-10
20
8
6
-5
-11
-8
4
-2
-4
62
35
22
-31
-38
-41
-12
6
1
-16
2
-2
16
14
18
-3
-4
-8
73
42
24
78
-16
52
27
-57
-39
45
-101
0
-14
-19
-16
22
40
57
-45
-24
-30
12
-3
-12
61
-18
-19
79
-51
-89
-13
-20
-21
-33
-18
-12
-27
-10
2
-39
29
74
-32
13
-10
-30
-62
-24
-53
-8
13
-51
18
27
-79
2
28
38
-11
-56
34
1
-46
0
39
-24
4
25
28
-29
11
-6
-29
-34
-44
11
39
9
15
19
-19
-38
-41
-38
7
-6
2
-4
-37
1
-17
-41
-28
-29
-35
13
-58
41
45
2
7
-7
-1
16
-3
-30
-19
-15
-28
-7
-33
-34
-67
-57
6
-17
39
32
-31
-33
16
10
-33
53
4
-49
63
-36
-74
-3
-28
-31
-22
-18
-9
2
-17
-24
4
-4
1
-27
-13
-31
-19
-42
-28
-35
-23
-23
24
37
52
-9
11
12
-63
0
-6
-12
89
-3
-53
-9
-38
-24
0
-14
-36
42
40
-67
-28
-9
-71
10
-8
-24
76
-20
-31
-4
-35
19
46
55
-22
0
-27
14
4
-10
-7
49
24
-20
16
35
-25
-43
-49
17
42
1
3
1
-16
-34
-38
-35
-16
-17
-13
4
0
-5
15
47
32
-14
-53
-20
-24
75
-9
-18
3
-41
-38
-10
-76
68
105
36
-65
-2
-40
34
3
-32
24
-14
-25
-36
-38
-30
6
-17
-7
-48
-23
-26
-5
-31
-14
44
-12
127
-6
-14
-24
15
-21
-10
30
14
10
-20
-10
-30
-34
-25
-29
-46
-11
63
-42
-4
40
-52
22
-3
-49
-36
-37
-5
-31
8
20
19
22
-3
-16
-32
-3
-20
-39
-13
39
-40
-18
85
-36
-38
84
-39
-54
-19
-43
-7
50
49
-10
-17
-35
-16
-22
-31
-16
-24
-28
-19
-30
-5
49
39
55
36
34
-6
3
-10
-6
-37
-24
-29
-30
-14
-45
-36
-13
-28
-27
-26
-10
-45
16
-3
-27
0
28
-50
-44
21
-21
-21
-6
-30
-21
-28
-4
-8
-9
-16
-16
-30
74
14
-25
15
-6
-13
-58
21
20
-19
-33
-7
-22
-22
-43
39
-2
69
-3
-19
-21
-17
-22
5
18
5
12
3
7
3
-43
-56
-43
-2
-7
-10
3
-10
17
43
9
83
-6
-26
-12
-3
-34
8
45
16
67
-52
2
40
-72
48
28
9
-1
-84
-47
-5
-27
30
41
-7
28
29
-23
-40
-42
-8
-39
-6
16
-27
16
44
-38
-22
-28
32
43
23
-23
-8
-23
-17
-6
2
-32
-17
-17
-25
-21
-39
59
24
50
-4
-23
-2
-21
-19
-28
19
4
26
7
21
2
-39
-46
-44
-18
-38
-1
-46
-35
-61
-9
-2
-15
-49
-3
45
-31
-17
17
-18
-32
1
1
-2
-2
-9
-11
10
32
44
55
-7
-14
-14
-18
-14
-22
39
39
31
4
-37
4
-53
-14
42
-94
6
31
-43
11
-21
-17
78
-71
-4
41
-66
-32
-24
-4
-39
22
33
-54
8
24
57
-9
-79
24
35
-4
1
-42
-31
11
-9
-46
13
47
64
-60
-46
-49
49
46
34
-8
-5
0
-30
-13
-36
-34
-12
-21
-29
-15
-20
-33
4
-21
-47
-45
-46
0
0
8
12
17
24
-1
-38
-42
-1
-42
-12
5
-24
-28
-12
-24
-20
24
43
50
11
8
19
-25
-13
33
-21
-18
25
-35
-24
42
45
31
23
-4
-11
-4
-42
-26
-49
8
7
28
-29
-37
-33
-42
-24
-27
-11
-32
-65
8
0
-19
36
12
-39
44
29
33
7
-7
6
-5
-10
7
51
4
-46
60
-7
-64
57
23
-87
-24
-39
-36
-16
-20
-17
49
13
-4
