96
0.5868588
-0.6493635
0.17871143
0.54525185
-0.3620292
0.3127983
0.392875
-0.81707263
0.27479753
-0.1534774
-0.312801
-0.8598242
-0.7439064
0.08412269
0.0023857078
-0.40448123
-0.6627323
0.23260757
0.078646176
-0.30872932
0.47264728
0.039857183
-0.084671326
-0.26042283
0.5289909
0.5478555
-0.6554424
0.07235997
-0.5036312
-0.5538006
0.3183881
0.5517957
-0.017532079
-0.77137244
-0.39019743
0.2306886
-0.24763183
0.5769699
0.034410354
0.3883766
0.6653491
1.0556586
-0.07289357
-0.66683173
-0.056830697
0.18969359
-0.23079138
0.53780633
-0.07192641
0.1223757
0.02235566
0.56543136
0.80623174
-0.3136258
0.6408124
0.24768023
0.5995887
0.59031236
0.030167865
0.30302855
-0.27487364
-0.005697135
0.3883969
-0.61922956
-0.2173888
0.16312353
0.2497962
-0.14482188
-0.17311399
0.3897638
0.16505538
-0.181793
-0.16628468
0.08451467
0.1762307
-0.26324236
0.29139885
0.24453722
-0.43049148
-0.64440143
-0.087036915
0.52265644
0.104190275
-0.9158425
-0.22216159
0.20660311
0.55400354
-0.73949504
0.20487593
-0.19758768
-1.032918
0.7250039
0.2629895
0.43112406
0.5581481
-0.8476634
