960
-0.16479294
0.16236517
0.39052695
-0.011865675
-0.50820607
-0.23642656
0.44286028
-0.11513369
0.53072274
-0.021419525
0.34173787
0.054948986
-0.027817175
-0.22757657
-0.42321807
0.057483383
0.07294981
0.020711124
0.039717138
0.0817117
0.6614819
0.36042497
-0.2653829
0.78321934
0.1300982
-0.51376027
-0.1018511
-0.18134981
0.03755738
-0.7319291
0.5400146
-0.1321451
0.03264828
0.40911677
-0.12917309
-0.055940516
-0.6646937
0.045117483
0.29185882
0.55099267
0.48036987
-0.09898353
0.21944095
0.43785107
-0.8255048
0.5029336
0.5672869
0.6145922
0.7405321
0.33024538
0.28997454
-0.32901457
0.7735026
0.6564197
0.16505869
0.8926999
0.63796747
0.3906723
-0.028683996
-0.0783834
-0.6702383
0.08879858
-0.728291
0.44256994
-0.4659507
-0.15599309
-0.073001
0.046076216
0.2660375
0.360588
0.2592103
0.12185417
0.5020213
0.11332159
0.07032169
-0.021851502
0.13508683
-0.6086455
0.6297748
0.25701743
0.24118683
0.2752052
0.3855119
0.4326002
0.5530669
-0.49560264
-0.017305508
-0.057613723
0.26347813
0.42565525
0.24524748
0.7289828
0.2604892
0.5781125
0.27143377
-0.23813689
0.025740534
0.44366944
0.1558885
0.964215
0.6409144
0.17256555
0.22692218
0.19188868
0.3541662
0.07012603
0.032104187
0.0632619
-0.3493864
-0.5293381
0.4937451
0.015377957
0.027690463
0.56202483
0.712945
0.5952971
0.06208944
-0.044149544
0.39983597
-0.15801471
0.27552697
0.69593245
0.03678901
-0.15839179
-0.40168646
-0.096916236
-0.07492146
0.19194594
0.12599637
0.06092143
-0.14181611
0.2951784
-0.11315629
0.1673386
0.2927347
-0.0960526
0.8117447
0.2212705
0.06552531
0.59983206
-0.004386425
0.086046234
-0.25695425
-0.7717243
-0.17032993
-0.009038911
0.21492252
0.5750913
0.2702155
-0.19145209
-0.076098025
-0.28099784
0.58946866
0.3629802
-0.084496364
0.45435008
0.73339283
0.9635383
0.21297687
0.35828477
0.10334027
0.46844947
-0.6385521
0.36984524
0.11668296
0.16799459
0.34569323
0.52900094
-0.47470075
0.3530547
0.0771935
-0.18237028
0.5597327
0.31285208
0.087116346
-0.01772546
0.34428257
-0.12732422
-0.29740396
0.05531344
0.44439992
0.27805087
0.073915675
0.072165556
0.3354099
0.60534686
0.31875244
0.057701312
0.119517505
0.22862908
0.2634102
-0.022859134
-0.73615336
0.12917338
-0.004134245
0.11730822
0.5151749
0.7100528
0.20764068
0.4808603
0.12071073
0.8603996
0.43571743
0.28624913
-0.3369366
0.46261588
0.06534716
0.48663968
0.24992505
-0.29530546
-0.06012454
-0.37203342
-0.025304548
0.43160748
0.77989274
-0.22277153
0.6522902
0.4958394
0.93791574
0.06423421
0.011103362
0.925242
-0.35969886
0.4184369
-0.23395862
0.47089067
0.19044486
0.3409111
0.9574493
-0.12883526
0.18041722
0.522633
0.39141572
0.11330339
0.34531105
0.36359465
0.4196032
0.26798928
0.09954061
0.3596178
0.067330584
0.35225886
-0.05355401
0.49854454
-0.10414245
0.5049773
-0.5830115
0.7461727
-0.023719765
0.31544572
0.51942086
0.27473247
0.5957843
0.76263
0.50752884
0.46617323
-0.3843171
-0.17379734
0.034092657
-0.35784122
0.46827817
0.027140468
0.5552079
0.51417077
0.4353216
0.71189743
0.4835574
-0.6934383
0.046674296
0.5285131
0.92951167
0.7124673
-0.02083245
-0.09124699
0.66475743
-0.662494
-0.1460892
-0.17545424
0.050128385
-0.13004044
0.33048317
0.86217177
0.33678257
0.3822969
0.05214694
-0.60393834
0.43368995
0.007029373
0.41235498
-0.060554024
0.052271657
0.3499526
0.37085843
0.45482096
0.5288056
-0.092925355
0.3025897
-0.031842478
-0.08496013
0.15616342
-0.031257898
-0.092859454
0.5778404
0.12464201
0.37830085
0.36962146
0.41965646
0.98712903
0.52459705
-0.00070926547
-0.2773317
0.055859864
0.015014678
0.42079222
0.29509598
0.6565541
-0.12680374
-0.04305369
0.009733744
-0.10190394
0.17134382
0.5058163
0.31956196
-0.04057853
0.5166859
-0.049470685
0.22450078
0.46101516
0.24360263
0.8044
-0.097204566
-0.31805086
0.56562567
0.42608833
0.2244144
-0.7891508
-0.022555918
0.6157768
0.5795959
0.21058433
-0.02462731
0.14671686
-0.47510436
0.62462217
-0.40676883
0.7443844
0.12362615
0.58029234
-0.44624355
-0.43937322
-0.6986384
-0.7363154
-0.015383769
0.20024389
0.59006375
0.24807635
0.6801668
0.10485964
-0.25495195
0.47777566
0.667354
-0.17464328
0.12884355
0.109483674
0.28337607
-0.16062418
0.6677036
-0.40805957
0.66114056
0.58813167
0.6245386
-0.31628805
-0.22179794
0.28463125
-0.108133964
0.7053558
-0.04681993
0.4595134
0.55631876
-0.38987473
0.041909542
-0.66645306
0.27464816
1.0410103
0.33452168
0.005987406
0.0046088845
0.08411324
-0.82024914
0.4039412
0.20944205
-0.19178592
-0.34107035
-0.73863083
0.04869429
0.032456383
1.0589671
0.49461934
-0.09288403
0.28711572
0.24352348
0.27594835
0.52284235
-0.6808785
0.6738204
-0.04836794
0.5603103
-0.81958455
0.66383415
0.43509918
-0.0076227784
-0.4330219
-0.19360153
0.5767086
0.26194325
0.026943665
0.43750823
0.33353478
-0.6449854
-0.6986607
-0.031590957
-0.20350736
0.28178936
0.05813553
0.48002294
0.009050105
0.62095433
-0.2562711
-0.17620218
-0.5464057
0.47572678
-0.034847923
0.5104167
0.6731291
0.12015682
-0.8356745
-0.18770745
0.25642517
-0.035849724
-0.058935758
-0.29056397
0.14179723
0.35595286
-0.009906638
0.11014183
-0.51417124
0.38583282
0.6845467
-0.19194958
-0.5903253
0.6869137
0.15662146
-0.2267677
0.021968901
0.8561193
-0.083555296
-0.0657067
0.41777405
0.06702739
-0.7662344
0.83176786
0.1897744
0.123244815
0.10815479
0.8523027
0.041993864
0.27302435
0.030084781
0.27566236
0.36534733
0.37751675
0.30231282
-0.021054821
0.41461298
0.4029585
0.48264962
0.1581382
0.21504074
0.7863143
0.24346346
-0.5953666
0.11685484
-0.21873453
-0.118082225
0.2393285
-0.14276682
0.21819653
-0.33352667
0.28410846
-0.19959171
0.6425466
0.78569615
0.2641059
0.5595761
0.4389021
0.80270755
-0.35927027
-0.384368
0.89017475
0.17813376
-0.2138181
0.10541642
0.41615456
0.7601546
-0.22572848
-0.5173596
0.12454608
0.951164
0.02951102
-0.5348417
0.19862697
0.089679524
0.1700042
0.37874135
0.27218676
0.5133165
-0.15650174
0.31769547
0.0128237605
-0.8468659
0.5327856
-0.10110467
-0.5194098
-0.15826863
-0.60357136
-0.5382484
-0.402637
0.69849706
0.36267158
0.6950789
-0.23803353
0.7381187
-0.5490602
0.17747238
0.6491308
0.08871795
0.87868106
-0.6620207
0.7173251
0.041945696
-0.77662754
-0.44263417
-0.40967852
-0.5367742
0.3844951
0.1510946
0.70381963
0.095859915
0.22532478
-0.039364904
0.6833644
-0.33222008
0.005130429
-0.04410249
0.027659953
0.12950331
-0.60707384
0.8645989
0.074831024
-0.38276833
0.12285687
0.3191977
-0.024469208
0.5158496
0.3111955
-0.0018222295
-0.14422931
-0.013078945
-0.20106371
0.510443
-0.35007185
-0.009256363
0.04112278
0.2128918
0.20947811
0.13487843
0.34104916
0.07435534
-0.853598
0.3402632
0.1578263
0.6181308
-0.09697507
0.7282023
0.04826408
0.43481505
0.12009314
-0.17241782
0.53822464
0.4371102
-0.027599886
0.6840457
0.8588075
0.49883348
-0.52959794
0.438334
-0.52609915
0.49042684
0.8545693
0.26638907
0.5083854
0.31251457
0.7192451
0.16328607
0.6448151
0.08468751
-0.08865629
0.2075479
0.3670294
0.3171938
-0.5904062
-0.00033941865
-0.34332675
0.1550898
-0.67461735
0.18926746
0.60062325
0.053466097
-0.42681688
0.6036471
0.6670773
0.06633132
0.020540077
0.44077715
0.4244239
-0.6734658
-0.3713636
0.24284457
0.27784428
0.87105316
0.37631175
-0.20234299
-0.11354524
-0.15744491
0.50299084
0.05426383
0.18241788
-0.45183218
0.71537286
0.1875358
0.22565958
0.42244664
-0.32879418
0.29159385
0.40608078
0.4508821
0.8528821
0.20598331
0.32901266
-0.15634596
0.1392492
-0.15283716
0.0476429
0.3761868
0.92774266
-0.0010200292
0.22409421
0.956712
-0.39820302
0.47930115
0.3017323
0.9098941
-0.35527983
0.13591239
0.32946286
0.09569505
-0.8353396
0.1584295
0.5196419
-0.17168173
0.29461664
0.43066406
0.04032673
-0.26831973
0.26744196
-0.15239559
-0.32700327
-0.18273616
-0.27452642
0.73368996
0.1493156
-0.4680525
-0.09321422
0.5722106
-0.01532756
-0.36972472
0.6947394
0.08199868
0.22147104
-0.6853149
0.53916115
0.43764308
0.29288906
-0.3486362
-0.55294263
0.5005057
0.45104137
0.7375217
0.0016373545
0.38992938
0.5861912
0.5079314
0.69393057
0.5151617
0.82780266
0.71283495
-0.04183825
0.18938166
-0.5958691
-0.11895591
0.5551374
0.66660434
0.5696766
0.04447045
0.81776565
0.29390162
0.07476576
0.59904516
0.7377196
0.23229083
0.53788376
0.43826386
0.5201404
0.16798632
0.3159638
0.44084474
0.16059342
0.44126573
0.34368375
-0.09499711
-0.35444605
0.49867177
0.2754075
-0.17893098
0.67079175
0.6916654
0.4151849
-0.0033826604
-0.39976528
0.66431105
0.25549367
-0.18278317
0.42255238
-0.27062815
0.10593346
-0.083572015
0.551298
0.5544359
0.6381742
0.4264908
-0.34622335
0.18753648
0.038182754
0.5298474
0.07731945
0.11902164
0.4258629
0.6193079
-0.057714656
0.22718999
0.8196837
0.10936247
-0.03739193
0.23380843
0.49460542
0.8576183
0.58098185
-0.32648736
-0.4222782
0.14557981
0.13100855
0.46739364
0.26152784
0.016405445
-0.7996501
0.30373392
0.45231038
0.4356575
-0.05462973
0.8785397
-0.73502415
0.29417634
0.22028404
-0.0888471
-0.37657878
0.4585774
0.75131786
-0.6509329
-0.4832169
-0.026983436
-0.024701
0.837648
0.32003453
0.6065675
-0.7185064
-0.6418416
0.21921164
0.806753
0.49226558
0.5435599
0.6114463
-0.4753911
0.85360193
-0.12737942
-0.18762973
0.18405795
0.7553812
-0.26730615
0.24350303
-0.02930589
0.7771513
-0.13841902
-0.03639641
0.31317544
0.5801117
0.8365175
-0.13112405
0.12676273
0.796889
-0.1357153
0.6531333
0.17585962
0.06289154
0.6652006
0.6590169
0.016952157
0.005264789
-0.12747814
0.01031455
0.56615293
0.15550628
0.40904036
-0.15945049
-0.70247763
0.27521735
-0.0726713
-0.11540398
-0.18387385
0.3885391
1.0093132
0.6103167
0.32141337
0.5678086
0.46637976
0.17091586
0.7572388
0.15623748
-0.22893299
0.31137455
0.37974325
0.110876046
0.47202107
0.30456674
0.2773632
-0.21342011
-0.58227897
0.2016661
-0.05729317
-0.100595824
0.6418496
0.34116134
0.08988053
0.6653235
-0.41653883
-0.122510195
0.5716801
0.34190357
-0.016550235
-0.77501214
0.5097819
0.45375696
-0.5985681
-0.70646733
0.13952318
0.47421664
-0.058768846
0.015944168
0.50042385
0.78964114
-0.001716733
0.44958028
0.21466704
-0.6606409
-0.44650206
0.49107397
-0.77916086
0.10287267
-0.12506813
0.060212314
0.7821941
0.21663967
0.510587
-0.0015042871
0.49714524
0.23913878
0.5249177
0.041619316
0.4943858
0.5320816
-0.038097173
0.8160043
0.7797247
-0.4205804
0.20657042
0.36008978
0.32188442
-0.41753265
-0.044030935
0.32474917
-0.28554514
0.39070335
-0.29906154
0.5246253
0.791973
-0.3878079
0.46703285
0.048471473
0.3915877
0.521125
0.07910733
0.112038046
-0.15049048
0.22882098
0.7805437
0.46368524
0.7583886
-0.16591051
0.5093707
-0.1704805
0.47229406
-0.66235703
-0.1880518
0.22407258
-0.2602532
0.4503302
-0.01647839
0.8562077
-0.15534282
0.11346033
0.91885036
0.37640655
-0.49932432
-0.078430116
0.3177818
0.17476258
0.1964271
0.018433526
0.042106748
-0.13612492
0.874568
0.4068996
0.9277611
-0.70041704
0.10009733
0.15659863
0.6771663
0.41435635
-0.6644907
-0.25460166
0.53822994
