576
-0.33486387
-0.72631925
0.6102845
-0.22801805
0.6051061
-0.62550217
0.5141902
0.36899102
0.11868716
-0.7269797
0.5205306
0.7917615
-0.633204
-0.16295502
0.31440514
0.8771249
0.5273998
0.9729421
0.77469885
-0.78011435
-0.102393344
0.85092217
0.26524222
-0.53952557
-0.57033473
-0.08902979
0.5292762
0.022495568
-0.06375042
0.297183
0.77226436
-0.74205
0.60671955
0.48188555
-0.11746584
0.61862606
0.6178858
0.17182104
-0.85200965
0.4573634
-0.0013529845
-0.18632996
-0.7758463
-0.026728628
0.764099
-0.5202484
0.12865952
0.66340095
0.08494135
-0.38414103
0.7628069
-0.55927765
0.6862345
-0.34686714
0.93792176
-0.8105244
0.5757533
-0.74684703
0.8416982
0.6169395
0.5732959
0.79880714
0.16036123
0.7856052
0.020257682
0.4153749
0.66179675
-0.38722768
-0.6973702
-0.73818743
-0.4204751
-0.60940224
-0.52394575
-0.54622
0.8911951
0.7870107
0.15192412
-0.4138418
-0.18582612
0.7437702
-0.76522577
0.73673314
0.09928994
-0.10971254
0.59348786
0.6791982
0.4610181
0.51697665
-0.54978186
0.2660497
-0.21705419
-0.3734014
-0.4974895
-0.16915558
-0.65620315
0.8200279
0.8511093
-0.15681584
0.66443807
-0.3719151
-0.3140248
-0.6838117
0.7285787
-0.033478536
0.88856447
0.6708621
0.23257858
-0.03440636
0.9039356
0.44481343
0.27841982
-0.227926
-0.011749508
-0.46525115
-0.7401614
0.28024504
0.18403071
-0.5273986
0.5387864
-0.06402836
-0.69942683
0.57838213
-0.466786
-0.73173183
-0.4772148
0.36535987
0.4493162
0.07360863
0.6738581
0.07092506
0.8480842
0.9414445
-0.02465824
-0.6130264
-0.6025763
0.7862316
-0.41575003
-0.7340335
0.6388888
0.5737123
-0.7316215
-0.7001434
0.41151398
0.7292864
-0.7184162
-0.6871361
0.45845702
0.4842063
-0.54208255
0.034745503
0.6256573
-0.06910416
-0.76218337
-0.42272204
-0.021049043
-0.51225066
-0.08165437
0.33910125
0.7209441
-0.7293453
0.23165408
0.6037641
0.5287384
0.84898514
0.50228333
0.036950074
-0.9037701
0.5899786
-0.5921933
0.3378092
-0.54340726
0.7086553
-0.26599
-0.47429723
0.2642607
-0.7096974
0.7015919
-0.78559524
-0.011247323
-0.33788675
-0.6554199
-0.620877
0.12455023
-0.14496225
-0.76040465
0.6797669
0.5604049
0.7543521
0.14501676
0.49416018
0.5352188
0.16330269
0.82102454
-0.033940338
0.8081689
-0.09767377
0.044597946
-0.7281363
0.047427356
0.795384
-0.13354442
0.23754646
0.30587932
0.3517595
-0.6916451
-0.15846843
0.63383746
0.76685256
-0.47037607
0.40963572
0.723565
-0.6422647
-0.21887092
-0.42719167
0.7279658
-0.55084866
-0.5820104
-0.53352916
-0.41782022
0.9129372
0.6367985
-0.67006505
-0.7666712
-0.55238914
-0.46347177
-0.22874989
-0.07032881
-0.65789807
0.76639825
-0.018300705
0.6365142
-0.51927656
0.010639757
0.7599603
0.49253505
0.23578507
-0.66343427
0.35991234
-0.41301283
0.57673436
-0.19184203
1.0470732
0.6242011
0.7901461
0.78543913
-0.3914577
-0.673848
-0.6322524
0.9325552
0.97799236
-0.25530076
-0.21395008
-0.024024563
0.39360172
0.568298
0.39931652
-0.5432713
0.635493
-0.78804106
0.009687111
-0.034158792
0.3024071
0.08878613
-0.33859265
0.01648651
0.368732
0.5356979
0.45673057
-0.48512423
-0.28973043
-0.21432208
0.5960023
-0.08285565
-0.45296633
-0.033526972
0.6886976
-0.016846653
-0.7453363
-0.14026767
0.77441746
-0.5842331
0.8575653
-0.07239834
-0.7707063
0.7366727
-2.2923807e-05
-0.72977054
-0.7291197
-0.031001106
0.7803517
-0.81646615
-0.28636423
-0.49619764
-0.09437438
-0.18502104
-0.54661006
-0.33772555
-0.48055556
-0.5490802
-0.1013608
-0.6660203
0.5701988
-0.4482565
0.6915518
-0.7126148
-0.4661837
0.48284188
0.45469186
-0.34231725
0.03681135
-0.75672925
0.19040161
-0.17310132
0.10884635
0.5191354
-0.03978713
0.05970072
0.24847195
-0.54582536
-0.32331076
-0.1184573
0.35012102
0.50759494
-0.52292407
0.6730997
0.1724948
0.6630229
0.4095428
0.9055753
0.9150445
-0.31204936
0.2641392
-0.2451446
-0.04004375
-0.28158104
0.22540544
-0.6707426
0.7205407
0.7098956
0.7524995
0.5006261
-0.848351
0.32138368
0.6508521
0.77958614
-0.41285545
-0.20106862
-0.26340255
0.72667766
-0.7328144
-0.7038493
0.8646362
-0.8050834
-0.3235779
0.37960005
0.048810128
-0.8033291
0.31205714
-0.2736624
-0.5738458
0.59749675
-0.056046717
0.4786337
0.0396863
-0.24565913
-0.15336664
0.10172541
-0.7458349
0.19863999
-0.20609772
-0.39231595
-0.31539482
-0.8743296
0.93182343
-0.60665953
-0.4277773
0.80572516
-0.7155185
-0.48231643
0.7062558
0.3519184
0.5976561
-0.6670237
-0.2942862
-0.7593224
-0.67139834
0.69988775
-0.7837668
-0.1466625
0.21006164
0.7290802
0.91314316
0.06526305
-0.22595939
-0.043065198
0.038239516
-0.035366442
0.25486153
-0.62101203
-0.80546
0.20055155
-0.67955303
0.3900824
-0.7898654
0.88738966
-0.23874718
-0.23423934
-0.6621752
-0.29937342
-0.48139036
0.88855934
0.5974144
0.6781833
0.80407035
0.69773006
-0.043275867
-0.614731
-0.2580149
-0.7816455
-0.48646426
-0.73879737
-0.439442
0.7340493
0.61132497
-0.6916363
-0.032563202
1.0503434
0.5993825
0.16042346
-0.7535026
0.7245625
0.8694133
-0.8372733
0.6766961
-0.06117305
0.19942561
-0.52925855
0.69809175
0.53982043
0.43451387
0.84783036
-0.037065253
0.0180303
0.646344
-0.7566074
0.09000614
0.69422626
-0.47939026
-0.8047603
-0.8968131
-0.60792637
0.30972046
-0.5269065
-0.6389659
0.629
0.5459916
0.82601684
-0.51932955
0.58113897
0.7585495
-0.73580384
0.7314236
0.16877234
-0.01803286
-0.30363518
0.14134035
0.70405996
0.81969804
-0.09280142
0.5176894
0.9917034
0.7418669
0.69018364
0.95123833
0.4929556
-0.56709886
-0.2591411
-0.10531282
0.30184552
-0.69637465
-0.5343938
-0.64738536
0.705711
-0.67363507
0.8715673
-0.60930854
0.4201284
0.3823896
-0.79107016
-0.20275623
0.6028137
-0.7287606
-0.74183667
0.5587753
0.53713626
-0.27810422
-0.7742348
0.3863834
-0.16928491
0.71880037
0.09043445
0.7486203
0.46427187
-0.22205132
-0.6424101
-0.8289235
-0.61055124
-0.4802293
0.17269103
-0.31407875
-0.7083927
-0.47993678
0.28305894
-0.8545967
0.14973344
-0.33681417
-0.13118735
0.5718511
0.5740339
-0.6583761
0.69665986
-0.7390294
0.81001675
-0.8054565
-0.7271267
-0.7391662
0.23705016
0.951542
0.63725007
0.8530163
-0.13691801
0.55771416
-0.8883546
-0.26564443
-0.31189287
0.7618875
0.008409135
-0.4515282
-0.741388
0.5237021
-0.62058425
-0.030710034
-0.25693607
0.40578926
0.90160173
0.8330133
0.045211464
0.26163718
-0.438464
0.48007432
0.83431906
-0.7719289
-0.44631383
-0.76891255
0.64238924
-0.011367192
0.41272706
-0.34466645
-0.76579094
-0.7205656
-0.77672535
0.6439688
0.61131805
0.97527117
0.7642987
-0.26890066
0.026843607
-0.5547482
0.749788
0.93519044
0.09688148
0.7650059
-0.32583705
0.20287673
0.6283408
-0.054498825
