144 1 3 3
34
-5
8
33
-40
-58
31
4
-35
15
-6
27
-4
31
52
-45
50
27
-47
-36
37
-42
-20
32
-66
1
-7
10
-13
-5
21
-21
-28
-40
10
-32
4
25
26
8
9
27
14
27
-14
-27
-4
-19
-15
-22
-14
-6
-25
-9
2
38
-5
-3
-31
-72
-17
33
23
3
-42
-1
5
-45
-19
-16
-26
-17
-5
-18
-4
-14
-53
1
11
-43
3
-75
-43
-31
-20
12
5
45
30
10
-19
-23
-48
1
-26
-90
42
-32
44
7
37
9
26
25
15
19
39
-5
-20
15
4
14
24
-1
54
32
-6
-57
0
33
-26
-20
25
-10
-10
5
11
31
22
20
28
16
-15
5
-1
-3
-17
-33
-19
10
-50
-5
-14
-10
-33
-33
-5
-13
-48
-18
2
-11
-29
9
9
-7
-1
-13
-23
24
-21
-55
11
-8
-38
15
-22
-46
-29
10
-22
12
-43
27
66
-65
7
18
-27
8
-45
-50
-8
-22
-7
-4
20
20
17
-31
-30
-9
-20
-28
-29
-14
-1
-2
6
16
3
5
35
15
23
31
7
-7
43
56
7
13
28
14
27
-14
-17
-1
-14
-22
2
-4
-12
5
-52
2
-12
17
-17
-28
-34
-17
-20
-22
52
-63
-6
38
-44
55
-51
-48
40
10
-8
20
-14
-41
-41
-11
-6
-49
-6
9
27
7
-51
-43
-51
-7
0
-25
-40
9
-21
-43
-28
-12
-17
-13
-22
27
30
37
9
12
38
2
-2
9
-31
8
-37
-8
-41
-9
-15
-56
9
16
-8
45
13
-27
38
-6
-9
-1
38
4
4
33
34
1
4
14
-40
41
44
-29
20
19
-67
-22
37
27
15
11
-22
-21
-30
-55
-28
-19
-1
31
44
10
45
32
-36
-20
4
12
62
-16
27
60
22
43
4
-54
34
20
-5
31
46
2
10
30
2
35
-30
-48
34
-78
0
-2
-38
-4
20
-35
-41
-6
-27
-51
-28
-22
5
-66
-26
22
-11
27
15
33
17
-38
0
47
-69
-27
-47
62
15
-15
-42
-6
59
-4
56
52
-68
57
-36
-32
-26
-9
5
-36
-23
1
-12
-52
-5
-122
16
39
0
-11
28
-3
-31
40
-19
-18
-8
-2
-14
-37
-12
12
-47
79
6
-29
37
56
5
-56
-87
-15
6
-52
-75
-53
-8
23
57
40
8
-9
-23
-22
-24
-37
-3
3
-17
-42
-4
-7
-50
-51
-29
30
-6
-30
-12
1
2
9
22
20
16
18
24
35
30
7
5
19
22
14
8
33
10
18
-3
-2
37
32
25
-12
44
40
-17
-36
19
-57
-1
95
-60
-79
52
-2
28
6
-8
49
26
15
-22
3
39
21
-13
23
0
0
23
18
9
-22
22
-16
-35
24
58
22
32
66
13
-48
-39
-27
10
-10
-47
-4
21
-32
-18
-23
-25
-6
43
-21
-32
-14
-27
-37
-27
-5
-14
-14
15
21
0
35
-14
1
-39
-9
-16
-39
-39
14
19
7
22
8
35
27
-1
32
14
-2
45
38
27
4
-7
15
-5
5
6
24
17
-20
-11
18
-57
-55
-41
-11
1
-55
8
57
25
24
48
4
29
-2
-24
-11
44
-53
38
41
4
34
-17
14
34
-39
-26
27
-39
-30
-17
-21
6
20
-2
13
60
52
6
37
32
-8
-24
41
46
-2
-15
25
-12
17
32
-19
-3
47
-5
-21
51
-8
16
40
-18
27
13
-69
29
21
-2
-11
19
-50
-30
-25
-46
-46
-48
17
21
12
10
32
13
-7
12
19
20
34
15
25
37
19
-6
26
13
-10
7
-22
56
38
-16
16
47
12
-21
-14
-3
-10
-22
-28
0
-14
5
3
47
32
-3
36
59
-37
-1
23
7
24
-2
16
36
25
6
12
27
21
-47
4
52
-54
36
29
-51
32
-11
-7
-16
-26
-16
-13
-2
-38
-26
-7
-2
-15
29
37
5
29
40
-2
16
30
25
21
41
33
-11
16
-5
29
-49
-27
0
-4
29
53
42
-27
12
24
2
33
32
23
7
26
12
-2
-9
-21
-50
-9
-22
-20
-22
-7
2
-18
-18
-59
-30
-23
9
-20
-7
2
10
6
-13
-18
-11
-43
-45
-10
7
16
4
14
35
6
18
18
4
21
19
20
35
66
-5
-9
-15
-9
22
35
39
25
42
18
-7
11
25
13
27
1
28
34
11
19
24
-12
9
-2
42
50
55
59
-17
10
-19
82
26
-20
9
-17
-11
8
-5
3
18
65
28
-13
-69
-12
-5
-18
-43
-25
-5
-2
-15
3
-24
-11
-31
-34
-30
-17
13
45
49
22
1
32
11
12
-17
-54
29
26
3
-11
-47
-27
10
36
-5
3
-3
-43
-60
27
-63
-35
-56
-100
-21
-10
31
50
17
-2
9
-12
-19
-36
-26
-26
-30
-35
-51
16
-1
14
16
39
28
27
31
-19
5
-35
-30
-37
-33
-29
8
-3
-6
27
24
24
25
26
19
-26
-17
19
-9
7
14
5
21
28
12
26
9
-2
-1
-4
-42
0
7
-44
-20
1
-7
-44
15
6
-37
0
-24
19
-61
-34
-31
-9
-1
-24
-25
4
-29
3
11
18
19
26
28
4
26
23
1
37
41
20
-3
12
56
10
6
10
24
29
-60
42
48
-6
15
3
-31
-1
-17
-20
-5
-45
-24
-13
-31
-7
9
24
3
39
38
19
26
32
3
-3
-12
9
-22
-46
-43
-16
-27
-8
21
37
-71
13
-67
72
-39
48
-29
-7
21
-7
-6
32
25
-17
39
47
-3
-21
-30
-20
-2
-14
2
-25
-19
-22
11
-8
17
35
10
11
19
32
7
8
11
34
46
21
26
49
0
1
31
7
8
20
37
2
17
15
-21
-24
-6
-2
-21
12
-21
-19
-15
-33
11
-9
-34
-26
-27
-6
-6
10
-13
-3
29
3
-22
-28
27
59
34
0
-24
13
-1
-57
4
-53
10
-3
18
7
3
-3
-5
-10
-49
-36
-22
-15
-40
-6
33
36
5
-35
-26
-26
28
45
41
-11
35
40
-17
-69
-70
38
23
31
7
30
26
-24
-22
-8
-27
37
25
2
37
43
21
-2
20
21
27
13
11
48
41
-11
13
25
10
18
13
26
25
28
-68
-61
-40
-27
6
-53
22
25
-25
41
21
-22
-16
-7
-8
-29
-21
-14
-31
-14
-5
-16
-31
-38
-43
-48
-8
-39
7
-23
-23
44
-50
5
48
-55
49
-52
5
-4
-26
-17
0
-24
-13
11
-35
-15
31
-21
-17
-40
-8
18
-56
-23
3
-18
-27
-16
-14
-22
-7
24
-16
-41
14
21
14
33
41
16
-21
0
11
-14
-10
-7
-18
-20
-19
-17
-33
-6
-55
6
2
-13
-64
-36
-17
-17
-4
18
5
-33
26
30
8
24
30
31
12
-15
4
24
30
-14
17
49
20
6
29
33
-1
3
40
12
5
-12
