192 32 1 1
1
9
5
-20
-10
41
-26
1
0
-5
26
-23
3
-8
-16
7
-16
-7
-14
1
-48
19
24
26
22
-7
-8
0
13
27
34
-26
-22
-7
6
20
-11
-13
10
-42
-30
15
10
-2
-12
-1
-8
5
-3
3
2
27
29
-54
14
37
-24
15
6
19
-4
-22
31
6
-29
-14
-21
8
-12
-14
-16
-7
52
3
-6
19
15
8
-29
33
-6
16
16
34
3
0
-7
37
-6
24
-8
15
-19
9
-5
6
-10
6
-15
7
-15
5
-20
11
43
29
-4
-20
6
1
-22
-28
-1
-18
9
-3
5
-9
9
-11
4
-6
-6
-16
-15
-8
5
24
-4
33
25
-20
56
-4
15
3
-26
13
3
-27
-9
-7
17
33
11
-12
-12
2
11
-22
28
22
-12
37
19
37
-20
11
-11
7
-14
23
10
13
-29
41
-31
7
43
12
-7
-19
-11
20
-13
6
-16
-31
36
19
6
-10
-2
-22
17
-16
-18
25
29
-21
-7
10
-28
6
-1
5
-22
4
-4
41
-7
23
-39
-14
12
6
8
-11
-30
-19
-13
13
29
-27
-10
-16
13
3
-7
7
-38
-5
30
44
10
-11
-5
-18
-1
-13
34
-9
-10
-8
-5
20
34
-4
-12
-6
-19
26
8
-39
29
12
-33
-13
-27
-9
-4
-7
-42
20
5
-32
-28
-17
1
-1
23
14
1
-6
3
-6
-18
-10
9
13
-5
14
-10
44
9
7
1
43
-11
-2
-15
6
28
-3
-15
6
-44
-2
-26
-25
-12
7
-7
4
19
37
11
12
-44
31
-22
-8
-7
-10
-33
-18
-20
-20
-17
-6
-35
1
-4
27
-44
27
-21
-17
8
-16
-15
-10
11
0
17
-10
-6
-3
24
-29
36
-12
-24
8
-7
13
16
-10
7
-21
8
34
-32
7
-31
29
-51
3
22
-17
-5
23
-11
-20
5
-17
-2
7
10
38
36
-20
16
-1
-16
-7
16
26
-16
13
-30
15
26
-16
-13
59
-1
-13
17
2
1
12
-46
5
14
14
1
57
13
-30
-17
23
3
4
37
-23
37
38
-31
7
1
-29
-19
32
4
-11
7
30
-6
-12
41
23
-15
-4
-15
-11
0
20
-1
28
-44
-13
35
24
-16
-9
28
13
-11
-12
-16
12
-2
-21
7
0
17
-7
18
14
-16
-29
24
-11
-7
-12
35
-15
-7
-14
-5
-10
-41
3
9
-7
21
-6
5
-7
-16
46
12
-29
19
-1
-24
20
-3
-3
-9
-16
0
-1
-1
26
-1
-20
-3
-17
-22
0
37
-17
10
-14
-31
-48
11
-18
12
-22
4
1
2
2
-7
-13
-10
-8
-11
-34
-19
-6
-9
-4
6
46
-23
-3
-26
-22
30
-19
17
8
0
-18
0
-18
15
-17
43
-33
-14
1
14
-5
-12
8
20
-31
-45
6
11
-11
-52
7
7
17
-1
-10
5
6
-24
13
-8
-48
18
-3
-25
-12
-4
20
-2
-9
14
26
-13
37
9
1
-41
23
-8
13
3
-19
11
-20
6
13
13
0
20
11
21
28
8
15
-16
11
-14
-2
14
20
18
31
8
-7
-11
-17
-13
7
-3
29
26
7
23
26
3
-9
-18
13
-4
-19
-5
27
17
38
-12
9
-25
-6
-22
32
-30
-17
34
-5
-4
-26
23
-7
9
0
-20
11
-29
-38
28
-2
22
36
23
1
9
-13
6
-25
-29
29
-26
12
22
-6
23
5
4
24
-31
-19
-25
16
-16
-8
-9
-13
-20
12
37
-1
-11
33
-43
3
-4
13
-22
-29
24
-15
8
-10
14
1
-15
-1
9
-1
33
-12
38
-15
-8
8
22
1
-25
-6
-13
-5
-14
-7
-22
16
-18
14
-7
-39
-1
-4
-13
-19
4
32
34
18
6
-23
-32
-32
50
13
17
-1
-19
-16
22
-6
-17
-1
-7
-24
2
37
27
-41
14
13
-8
21
-27
-2
37
-2
-12
13
-18
-7
3
15
54
-12
21
27
33
-19
28
-3
11
-30
52
-27
-8
28
-34
22
9
7
-16
4
-2
-31
22
-5
7
17
6
8
-5
-6
-8
24
-3
-20
30
36
8
-7
20
-7
5
25
-27
-21
14
-34
-10
13
-22
30
2
-3
5
11
-13
-25
56
-9
15
-38
4
5
-7
3
6
-2
9
38
39
5
0
17
-19
24
-34
-42
-9
-49
-10
1
-27
-5
-9
4
-9
17
2
-34
25
19
8
-28
2
9
-8
-23
-4
-10
-20
2
22
-32
-20
17
-11
-11
1
15
13
12
2
14
-6
14
-36
1
33
11
-53
20
-5
16
-17
24
3
46
7
3
19
17
44
-12
-30
-25
-21
5
-9
-18
-12
-26
7
26
18
11
2
39
1
18
-2
-9
-11
-2
5
-15
25
11
-18
13
-18
7
19
20
14
-18
-22
-19
-18
-19
-9
17
-13
24
15
30
8
-36
34
26
-8
21
-1
-9
14
4
-36
21
-14
45
9
53
12
29
31
-8
-17
-55
-18
16
13
9
-8
6
0
-17
11
18
0
-21
-14
51
-23
-27
26
4
8
32
-11
15
10
-19
-27
18
28
-20
36
-31
9
30
-44
19
9
28
28
-15
-8
-58
9
1
23
-14
-69
-16
3
-20
-33
43
18
27
3
-36
11
-8
8
23
-2
14
-13
13
-9
35
-10
12
-36
-3
0
22
-38
24
-5
36
12
15
-24
11
-44
8
43
-1
21
37
-30
19
-13
-17
5
-17
4
-4
37
18
-15
1
14
-10
20
-25
13
12
-9
1
-3
-4
-30
1
5
-7
-2
-12
-34
5
12
28
-17
13
-33
36
24
24
10
38
-31
-2
21
22
2
24
4
26
5
-16
4
-6
-43
-2
-20
21
-27
-11
-2
38
1
6
-15
-2
-26
13
-23
34
-21
-7
23
23
-30
12
-1
3
-29
-27
-22
-11
7
-41
-13
2
5
11
27
6
23
-3
3
-12
-4
4
-35
19
19
3
-19
11
-29
-11
2
-8
7
4
23
-14
1
-4
14
41
-18
-2
5
-12
13
-18
-14
15
4
-2
-8
3
-35
-20
4
28
-18
28
22
22
-4
-7
3
-9
-10
47
7
13
-15
16
21
6
22
29
-12
-14
-18
14
15
-13
13
15
4
-11
10
-8
-5
-25
4
35
-13
42
-10
18
-1
-24
7
7
29
34
-4
21
12
9
-41
16
11
-25
-12
3
6
-37
-6
35
3
14
9
-10
27
10
32
4
20
-15
-12
19
-20
37
-18
20
7
21
-4
-12
-9
16
-14
-7
14
12
14
23
37
-37
1
24
18
7
19
-3
19
-51
-27
-3
11
-6
27
22
37
2
-3
-27
33
-27
10
-3
-20
-1
-19
21
6
22
11
-1
-5
13
7
13
-28
10
27
-21
-14
3
12
8
10
4
4
-9
38
27
9
-31
-22
33
-19
-12
45
17
20
24
26
-10
-13
17
16
6
-39
-26
-9
-13
12
-8
27
-1
4
14
-2
-13
-4
10
1
2
-12
17
-10
18
37
-4
1
45
3
-22
16
-22
-14
-11
16
-19
13
-31
5
0
-15
2
13
12
0
10
23
-16
8
15
12
16
-38
-25
11
19
-27
-24
-15
-4
-53
-35
26
15
-6
24
19
7
-30
16
-11
10
-17
-26
13
-29
-14
20
6
-7
16
-7
-38
-6
-2
0
-14
33
0
16
11
-18
-22
-5
6
27
-14
18
-12
11
-20
-42
26
15
-26
42
-11
-27
6
-21
21
5
-9
11
4
-17
8
-8
13
4
34
-9
9
-15
-55
0
-15
21
6
8
-20
16
4
-35
8
-44
-20
12
-10
-2
-19
9
8
41
-12
-29
-7
-22
11
7
-8
-1
-15
14
-7
-27
4
-9
1
-12
-32
3
19
9
19
25
-4
17
15
7
33
-11
-1
-10
-38
-36
-7
-1
-34
-1
-45
3
-5
-18
-62
16
22
-12
-19
20
13
-4
-23
23
-2
3
-2
-13
17
-26
-7
21
-20
-22
-13
2
-20
17
6
-13
10
23
-6
-14
-9
-2
35
-28
-22
11
-13
-12
-17
-40
14
-12
-28
-3
-3
34
-13
-5
-36
-36
-31
-12
-12
-15
5
-12
-4
11
20
6
29
-23
6
37
-58
0
-18
-18
11
11
-3
-24
14
-15
-7
-39
14
-36
-18
44
-1
-21
4
6
-52
3
8
3
-6
-5
-14
-9
-26
16
-7
9
-17
11
-16
6
-11
-22
-9
-23
-29
-10
1
13
-11
2
12
10
13
20
-7
-4
-5
23
16
-7
-18
19
20
-34
13
-33
-5
-7
4
-23
-40
4
6
-16
-19
19
2
20
-1
-28
-4
48
16
20
-1
-28
-15
17
1
7
-7
-16
-12
35
-20
33
22
25
-36
5
-7
4
2
28
-14
27
3
5
6
-2
-38
19
5
29
-27
-18
15
-23
17
-15
27
13
-6
12
41
-34
-25
-14
6
42
-14
0
-35
-1
6
14
-13
-17
-2
-19
57
35
1
2
23
-22
24
-9
-12
-20
24
21
-21
37
11
35
13
-4
17
40
-14
40
30
7
2
-4
0
-10
5
-13
-13
6
22
-21
48
16
-14
-15
19
10
4
6
-4
3
-8
-15
31
21
-15
-18
16
5
6
15
-5
-7
-3
7
-14
-87
-26
-26
-26
22
-10
22
-1
-20
-3
-22
-14
23
16
12
11
9
-12
-4
3
-16
-48
-3
-21
-3
18
-3
5
-14
-2
-1
27
13
8
-5
-5
-1
-2
6
39
-28
-8
6
-5
19
31
-5
-10
-18
-4
13
-3
-3
-7
-16
39
-3
-8
4
-11
-11
34
-41
43
-2
2
0
-6
5
-45
-20
-12
-1
-1
-31
-2
43
-10
30
21
-34
-8
7
-43
0
-20
-22
13
18
-15
-10
19
-27
13
4
-11
30
8
-8
4
-17
-28
-16
-33
-14
-36
-8
-7
9
-1
0
-10
-14
-8
21
5
16
-14
-6
39
4
-17
-47
14
12
5
-22
-21
-3
8
12
12
7
8
6
-8
12
3
20
0
-34
5
15
-1
-18
-5
4
-1
23
-7
-7
43
27
14
14
7
0
36
1
-42
12
24
-3
-32
-2
21
12
-14
-14
18
-2
62
5
-31
4
18
-6
33
10
-14
47
-6
35
6
-25
47
1
11
32
-1
18
-2
-30
-10
11
24
13
-26
-28
-29
3
-44
10
-24
13
-2
-7
-58
-4
-6
-10
1
-25
18
18
45
-13
12
28
-22
10
-26
12
13
-5
-19
34
-11
-1
-11
9
19
4
-17
-16
-47
23
-16
-8
6
-6
-1
-1
-20
4
13
35
25
-19
31
-9
-33
-12
3
-23
27
-5
-17
-3
-36
-16
23
15
-7
-15
-2
-10
8
11
8
23
-14
-14
-25
-23
-15
8
-12
-30
-28
22
-8
-9
1
4
24
-8
-14
15
34
-22
-4
-29
-2
2
-6
7
2
-35
7
-39
-1
0
1
-7
-9
-13
6
2
5
18
-21
8
-18
-10
30
2
-7
-12
10
-10
-18
-31
31
-33
-20
-14
5
-19
-15
35
-11
-9
29
-17
-9
10
7
-14
19
-29
-2
2
-11
9
-47
12
-11
-63
-8
-6
26
-3
13
16
-50
-5
2
12
18
-32
16
2
-49
-23
-21
31
5
-26
21
10
-3
46
-12
44
-22
10
11
8
7
15
-16
0
13
37
-6
-12
37
1
-19
19
18
-4
-10
-32
-1
-13
9
-23
-20
13
-4
23
0
14
19
5
10
-18
-3
7
28
24
2
-14
-9
-6
32
18
-23
-3
13
-26
-31
4
-18
-24
12
-3
11
-12
4
-16
25
-7
-3
-3
11
-25
5
21
-26
16
-13
-37
-1
22
28
45
13
-4
-2
25
-18
-1
2
-12
-15
-3
-11
-12
-14
-3
-8
-4
14
5
-24
21
23
-20
-19
5
5
1
-3
-12
36
6
-28
-8
3
6
28
-31
22
9
8
1
47
17
-72
-17
3
-23
-14
17
32
37
-35
-13
-9
22
-25
2
-2
-15
-16
-11
-5
-3
14
5
-9
15
4
4
13
36
20
-28
0
-5
-1
2
3
1
2
3
2
-14
-7
17
-38
11
-8
18
-18
1
-7
-7
4
6
-31
-10
-20
2
12
-21
18
-1
-20
5
-15
20
13
5
3
-9
-5
-33
-5
30
-32
17
-28
5
0
-1
23
-9
-3
17
6
-5
-9
-15
3
-6
5
-39
-14
-13
14
-25
1
-4
-15
12
16
-19
13
-19
21
2
-10
21
1
-6
12
4
-34
-26
6
17
26
-24
-9
5
11
-9
25
-21
-12
-12
-33
18
-4
5
-9
-6
-6
15
6
-9
2
-17
-15
-2
-16
8
-16
-25
-20
11
5
8
-2
-19
22
70
-19
3
-31
-29
11
13
-23
1
1
-12
-53
3
15
4
-19
-12
-20
-10
-24
-6
3
6
8
-19
18
-21
-1
29
22
9
-28
-5
16
3
9
38
-3
-4
13
35
-21
12
-46
-25
3
-15
-13
3
-9
-8
-24
-23
-1
36
-11
25
-17
-24
-1
-65
-14
48
11
41
-11
-2
17
11
4
-61
16
21
27
29
-2
14
32
-8
43
2
24
20
3
-4
-13
17
8
6
29
-17
-15
-7
-3
1
5
-11
-31
-6
-5
21
-17
26
-8
0
19
20
-17
-5
-23
-3
-25
51
-24
-15
-21
-16
5
5
-24
-17
-15
-8
10
15
-7
-5
-4
24
-41
-4
4
32
11
30
44
-6
-24
2
32
-17
-7
-4
-21
-28
-8
-45
27
-15
-21
40
15
22
15
25
15
7
31
-33
-1
-23
-36
3
-17
6
46
-1
-5
6
2
20
25
-2
11
-29
4
-3
-21
16
-8
31
2
26
-34
-3
6
-9
-20
-1
-54
-6
-21
0
39
0
44
-52
18
-8
5
46
14
30
4
21
-29
-47
-10
27
25
1
-23
-16
8
31
-4
7
-23
32
0
0
-1
-2
-22
1
31
25
-41
7
-28
45
-16
-34
-1
19
9
-3
-34
-34
-14
-7
-15
-13
14
6
13
-6
16
-23
-12
-13
35
-2
-24
-2
-9
-32
-10
-12
7
7
14
0
33
24
-18
1
1
1
1
1
-26
-21
-12
16
-19
-29
27
-33
-5
33
-31
-5
20
8
-7
2
14
17
-18
18
-3
-8
-39
0
2
7
-39
-11
-15
-3
-39
1
-6
-5
-6
9
37
26
-6
27
-27
-23
30
29
-6
8
33
16
-13
29
-5
-15
3
-15
-28
26
42
3
3
-12
9
-21
-14
-11
-2
17
-11
8
5
52
18
1
13
-18
-21
-42
13
-30
20
-33
-8
15
-9
12
30
-34
-2
-6
13
5
-21
-4
29
29
-1
-24
-28
27
-22
-1
2
9
-1
-9
19
-18
-8
-27
16
-47
-4
4
-8
-20
-25
-29
-7
-6
16
-39
11
13
-15
25
12
1
8
-15
-42
-13
-27
-17
18
-10
32
31
-12
-37
5
1
10
-8
12
5
14
-22
41
45
-6
-50
21
0
21
23
-23
32
-22
18
1
-31
0
17
6
3
-10
29
11
-4
22
16
-34
21
16
24
11
-4
6
-15
28
28
19
-13
7
11
0
-8
22
16
11
-32
-8
28
0
29
-16
-5
36
-5
-24
3
2
-9
-21
-34
-8
-4
15
1
-12
11
-2
8
19
-13
-19
-25
0
6
-3
22
8
-33
-3
-32
15
-11
10
10
-19
-23
-12
-34
52
-13
4
22
5
3
-21
9
-2
-29
23
-17
-7
-12
6
-1
-27
9
-6
52
-3
-13
25
37
-17
4
-12
11
-29
14
-51
-5
15
6
3
-4
30
21
-2
5
3
2
-9
29
-1
-23
-18
-20
6
21
2
8
-3
10
-5
-4
2
17
3
26
23
-46
26
-23
4
7
34
19
28
18
-21
-36
31
-38
-10
1
-38
0
22
4
13
47
24
12
15
-36
-27
-7
-15
5
-12
8
-20
50
17
4
8
21
-10
-2
-30
23
-30
37
-20
-24
-14
-33
6
-14
-18
-5
29
15
7
-3
-9
13
19
-8
-12
15
22
-9
-4
-43
-52
26
-10
-8
7
-36
-7
-6
-5
-19
4
-7
-15
-9
-21
15
4
12
2
36
10
22
5
18
-32
-14
-12
-6
-3
-19
-7
-9
-11
8
6
5
23
14
-17
-10
-30
21
10
-16
20
14
5
15
12
21
-17
-2
-5
-4
-21
11
3
2
-6
2
-15
-24
-6
-21
8
-4
-2
13
12
15
-3
-14
0
-33
2
26
-18
-1
-25
27
49
-7
-25
-12
-28
-4
11
17
3
-7
8
-22
14
-12
-8
4
46
11
14
-26
25
-4
19
-19
6
12
-1
-18
21
-9
8
1
33
-12
4
-5
9
29
19
25
12
-27
23
-26
-51
-3
-22
-40
12
-2
-15
-15
10
-6
20
-5
-10
-32
22
16
59
-23
-13
7
14
5
-24
0
-16
-3
18
-31
-27
13
24
-27
-18
-22
-14
-39
-26
16
-31
10
5
7
3
12
-1
-11
39
13
13
-23
18
9
-8
-32
-46
6
-1
4
-7
-18
-6
18
16
-20
25
-11
8
25
-17
3
4
-34
6
-37
-19
18
-1
9
-19
9
-30
1
-13
11
3
16
5
40
-25
8
37
11
1
-3
-1
52
-34
-13
-13
24
2
11
-24
10
16
12
-1
-10
21
11
18
-2
-13
2
0
-8
-1
-3
-11
16
5
24
-15
10
12
-31
23
46
34
8
-26
-12
7
18
-1
-46
9
-16
-5
-4
-14
-22
27
15
-17
-3
-19
8
4
17
-19
25
4
-14
-10
-12
1
19
-15
2
5
-22
14
-10
3
-8
7
2
9
57
-6
15
1
-34
7
-23
21
-2
11
-45
-9
16
13
20
-30
-9
-12
-11
2
-2
34
29
65
-3
1
-7
1
25
24
1
27
-20
59
23
1
8
-34
9
11
-11
15
-2
27
7
-18
15
-10
6
10
-13
-4
3
-33
13
6
-20
30
-7
-37
20
9
-22
25
-27
-11
-14
-12
-7
-8
-6
-5
8
19
4
22
-21
5
-20
13
5
27
-34
4
6
-18
-19
14
-2
-10
-28
1
-15
13
59
-20
-23
22
-2
34
17
2
27
-27
18
-26
-23
-7
-6
-28
-7
-3
-6
29
-12
-23
3
-17
-27
16
-4
30
9
11
-9
-3
-60
7
1
-24
-10
-6
1
-23
31
-8
5
-5
12
-4
10
-49
-13
-4
13
25
3
52
9
-22
-16
-28
3
-33
4
-2
-3
-24
23
22
3
-30
-17
14
15
-8
1
15
-11
36
-3
-30
-13
-12
-33
25
37
28
-8
-3
15
13
73
-45
-57
-38
32
4
-49
28
32
10
-14
33
-7
47
8
-27
38
-6
-24
-4
-8
5
37
-5
-12
33
0
-15
8
-25
18
23
-11
-23
3
0
-14
-1
-16
5
22
-3
-1
-9
-11
3
4
27
-11
6
21
-7
20
13
-10
-18
5
-16
7
-13
13
-20
-5
22
-2
-17
-27
-5
9
28
10
24
-19
8
-26
-58
33
20
21
-19
-27
-36
5
-1
12
-44
3
-9
-6
23
20
15
-27
31
-25
-14
-44
18
7
-21
-25
-15
18
-8
-15
1
-7
-9
-20
-35
-6
-13
4
8
-19
-17
-13
-10
40
35
16
5
-24
-12
20
7
18
-3
-15
-27
25
-16
-21
-18
-36
-9
11
7
7
2
-5
-3
17
5
-10
6
-36
6
32
23
-31
-6
-23
-70
8
-17
-19
-8
22
10
6
-20
-47
2
6
9
14
47
15
4
-4
-3
-2
-24
-7
39
19
-38
5
-6
-13
7
23
-2
-14
6
-6
-7
-8
23
19
-37
-26
-34
12
26
-10
22
-20
-11
28
-6
19
9
5
-33
1
10
12
33
60
6
-4
-14
4
-34
16
-22
-9
18
30
-30
16
8
-27
6
-23
-27
-45
4
30
9
2
23
38
28
-18
-7
-1
27
-22
-19
27
-12
6
30
-19
-3
-47
36
7
11
22
25
-14
-21
10
13
10
4
-10
-17
-14
23
-2
-55
-15
-5
0
17
-12
-10
17
-27
-4
-9
2
2
-14
30
1
-14
7
17
1
14
6
-15
-31
-20
-25
4
-22
-14
17
-21
4
8
31
-21
12
-19
-4
6
-9
-11
5
-24
41
5
-16
13
9
-13
0
0
-18
11
-15
-10
-9
10
-16
-11
5
13
-23
-8
0
-18
-47
-16
-40
-12
14
12
-17
-19
15
6
48
-22
13
21
-21
11
6
-47
-10
5
-11
-7
-33
-31
46
12
20
-32
25
1
5
1
-15
16
-10
-8
-9
3
2
12
-18
4
-33
-9
-13
15
-16
-20
-8
-19
23
-15
3
14
-15
1
3
36
-27
-19
26
-7
0
-24
-1
-32
-3
-5
20
-41
-46
-18
7
21
6
30
32
-18
18
-13
-12
4
4
-29
-2
34
-47
10
32
14
9
35
40
42
-24
-19
-20
-26
-47
25
26
1
7
-2
-30
-13
-58
-13
3
23
17
-1
-15
-40
-6
40
10
11
-45
5
35
-18
-2
-17
-12
-33
29
17
-9
27
2
31
0
28
-28
11
-4
-30
6
-14
6
3
-3
-17
25
0
-3
-17
-11
-49
-26
13
-21
3
-27
-3
6
-37
-32
-23
4
-14
0
5
14
40
39
22
-22
-1
-11
-17
-3
10
-25
25
-4
5
16
27
11
5
11
10
-21
-12
6
23
3
-45
-8
34
24
21
13
24
5
4
-19
21
-9
-6
-16
-25
30
-30
9
-40
-5
47
-25
1
-5
-3
28
4
-19
-32
21
-8
-1
-13
15
6
-6
-2
36
27
16
14
14
-25
27
-19
35
15
-34
-27
-8
22
-44
5
21
35
24
14
16
18
3
-30
2
2
15
11
-4
-12
-27
-42
34
22
13
20
-44
-7
-5
-26
9
-17
7
5
31
1
-36
-2
23
-4
-4
2
16
5
-9
52
-35
19
-26
-16
-18
8
4
-4
23
-7
1
-17
-18
35
-26
-17
-15
11
19
38
35
6
18
4
9
-4
0
34
-24
28
28
-14
-5
-2
38
-44
-18
8
0
11
5
3
14
-41
-5
-27
-25
-12
-31
19
6
14
13
39
-28
-33
36
24
-1
45
-29
-3
-8
0
-23
-6
-9
4
2
48
-2
12
-18
-24
23
-12
9
-1
3
-13
23
-8
0
2
16
11
13
-9
46
14
12
-12
19
-23
2
14
24
-6
46
10
37
24
-1
8
12
44
-11
-29
16
42
-14
13
19
-32
43
-21
3
35
23
30
-4
-14
-13
-15
-4
25
-29
3
-9
51
-32
6
-7
-38
-15
16
-26
3
-22
-4
-5
-18
-24
-38
13
-35
39
-41
-2
-4
25
-13
10
-17
11
29
-30
-1
39
-23
14
31
23
-12
-1
-16
32
52
30
-16
23
7
-15
-40
5
36
0
-2
12
38
1
10
21
-18
-20
-48
5
5
-29
-25
-16
-9
10
-2
-14
23
-6
1
-18
36
-10
6
-18
22
52
19
-11
-35
-7
12
19
-32
17
39
-3
-17
27
25
15
-5
-6
-14
-27
18
-4
-20
-2
-12
0
3
-17
21
-10
25
37
18
4
3
18
9
42
-16
-29
-19
16
-8
18
-8
-14
42
-1
-30
-9
21
24
-16
-28
-3
17
-14
-5
9
17
17
-27
-17
35
26
24
16
14
-42
-22
14
-5
-30
9
6
10
-12
-3
17
-21
15
8
-15
8
-24
13
29
-14
2
22
13
21
3
-7
7
-1
21
9
18
-27
-19
-26
-5
35
0
-9
-58
-12
-11
2
0
24
10
28
-49
20
11
-5
16
31
-34
-22
-1
5
-20
8
13
-18
21
-10
-7
13
9
38
18
3
-5
11
13
-2
4
5
16
4
13
0
7
7
-32
6
-11
56
-22
30
-51
1
-9
-10
-5
17
-17
24
1
22
-15
55
3
29
24
-8
-3
-15
-4
-5
-32
-18
5
-22
-28
4
-38
28
-16
-20
-29
-11
9
-2
-19
-44
0
-35
-1
11
-14
-22
-26
5
-18
-22
-23
25
-25
14
2
6
6
-8
-64
-3
10
4
-36
13
-12
4
-7
15
-23
-38
5
16
19
16
-9
7
4
6
11
-37
-7
-8
19
1
24
8
8
20
2
-12
2
-31
-4
38
7
21
-15
-20
-8
15
-22
4
-14
-25
-57
25
7
-2
4
-14
8
-2
2
-21
11
41
4
-21
54
-8
-2
15
23
12
26
-13
3
18
-4
13
-18
22
-44
1
5
9
-8
-29
14
5
-28
-20
2
-22
-24
3
16
-1
19
-21
7
44
15
11
14
-5
-11
-29
-50
8
14
-7
-5
15
-21
-17
-35
-4
12
-4
23
9
3
17
-6
-2
-39
-18
-11
9
-41
2
34
-9
10
-13
-8
-13
17
3
17
-10
25
3
-12
-33
6
6
-36
-8
-16
-22
-8
17
15
-13
-16
0
-6
32
-28
13
5
7
-5
13
16
20
10
1
16
-8
-11
-3
1
10
-10
-47
7
2
-3
16
-9
-32
-30
3
14
-2
41
15
-7
1
6
21
-6
-20
-2
32
5
3
-16
3
4
-31
14
11
5
-11
-8
15
-37
-5
2
-21
-4
-2
-16
6
-14
10
-15
-10
-6
-25
-20
-10
37
26
35
-48
-4
19
12
3
7
12
-10
-7
9
22
0
25
-30
20
2
-3
46
-19
-12
14
5
21
20
-5
3
7
-13
5
-31
13
4
-23
-12
-2
8
51
-4
31
8
26
34
-16
-17
-15
-14
41
-22
-36
-24
9
-17
7
-29
1
-2
2
24
-3
-9
-49
7
-35
-31
-35
-9
26
33
-14
-18
29
-21
-39
-5
23
-19
-17
16
0
-12
17
-21
6
-16
-33
-10
9
-47
27
-32
-11
3
11
20
3
-8
3
6
14
-18
-14
-5
-3
20
-6
10
-6
13
32
-22
8
19
-12
-34
-3
21
-24
25
-41
26
-13
-10
9
27
2
-22
-15
-29
17
-25
-7
-19
1
4
36
-7
-38
-32
0
-10
19
13
-10
15
-1
22
-16
2
5
-14
-20
5
-10
-19
-18
-7
-20
-31
9
-21
-4
-2
-32
3
10
23
1
34
16
42
15
33
11
7
40
-12
-12
-20
-2
-46
5
16
-12
-12
9
-16
48
30
23
30
15
24
-13
17
5
-4
17
0
-26
7
-1
7
8
3
19
-13
-6
-15
10
11
4
12
-26
-41
22
25
-1
4
7
-47
-2
11
-23
-2
-6
-43
-19
-12
-5
26
-23
-11
-20
-25
8
-39
-11
12
8
-29
7
4
6
1
6
-1
-22
-25
7
25
12
-19
-25
22
2
2
-4
-10
-16
10
19
2
-2
0
-9
-14
4
-8
25
23
-17
41
-11
-16
-6
-31
-18
32
25
7
2
1
-2
-23
0
-60
29
9
37
-8
37
-40
37
-21
6
-42
-2
-10
7
2
-9
12
-33
-3
6
-10
59
-35
17
18
-28
17
-16
19
-20
-15
4
7
56
-11
2
-21
19
-48
-13
3
7
13
14
-7
-1
7
7
0
1
4
10
-21
-7
-3
-1
12
-14
13
-14
-8
12
16
4
10
0
12
-6
7
-1
1
-7
9
16
-25
23
10
20
-30
3
-38
7
-4
-7
-12
-18
15
-1
37
9
10
-13
-27
-18
-7
27
-33
-6
27
15
-4
14
9
-8
29
-16
-4
11
39
37
23
-16
-4
-33
19
28
6
6
9
14
-20
-34
-17
-12
14
-27
-32
-17
22
11
-5
-19
-20
-12
13
13
1
32
-8
6
-30
47
39
33
7
-34
-15
8
-8
9
-12
31
-2
3
-13
28
34
3
-13
20
-1
1
-2
10
15
-47
-26
16
-12
-29
-3
-10
30
28
38
13
1
-23
-3
34
28
21
19
-21
13
13
-2
12
13
-35
1
26
30
-8
-21
3
3
4
-1
-13
9
24
-7
-22
-18
-11
6
-1
18
-13
-12
1
-9
-11
6
-12
8
24
-20
18
-6
33
-5
-9
13
-23
-24
5
11
8
29
-4
-3
-12
26
14
2
-2
-5
-30
-4
9
8
-11
-11
-10
-3
2
19
-7
11
-28
-9
-16
3
-24
2
16
24
3
14
6
28
4
-8
-5
4
19
-18
4
-17
-41
17
-5
-14
-7
0
24
7
-4
-40
18
20
-20
-44
21
16
33
16
23
25
34
0
-16
-13
16
-17
-1
-36
-30
-7
28
-14
-10
4
-10
35
4
6
-31
-5
0
10
7
-10
-13
-11
10
-33
-23
-18
-8
-36
-16
-30
3
19
17
-29
18
-2
8
-20
27
24
24
17
-5
4
0
-14
15
-18
-3
29
0
-17
-31
22
17
-9
-50
6
-24
-24
-7
-7
9
36
-4
-3
19
16
21
-19
32
-9
4
36
18
-21
-3
14
24
-20
-28
-24
-47
-6
32
16
-14
5
-32
36
30
2
34
-8
16
24
6
-22
1
13
-11
-11
45
25
-8
32
2
-8
23
-8
-5
-20
-2
-19
1
-11
29
42
-15
-9
-3
-23
35
5
18
-6
12
3
17
9
1
16
33
-2
1
19
-8
-30
-20
-14
-27
31
39
-19
-12
-42
27
7
-10
2
52
42
23
44
-18
-30
-18
-5
-14
11
25
2
-35
29
-3
15
-6
-48
26
-1
13
18
-6
27
-17
-7
18
37
13
3
-19
-16
-3
15
25
-5
25
28
-34
-16
-21
-9
-3
-4
-15
18
-7
5
39
38
-4
-21
24
22
-16
-30
27
-38
0
11
-1
14
26
-10
-2
-1
27
33
-63
8
45
-51
35
15
-16
-28
-30
2
-43
-13
23
3
-19
8
20
-15
14
-3
-49
-23
-35
-47
12
24
-9
44
-4
-4
27
18
14
19
-7
19
9
10
14
-12
-8
2
20
4
31
-1
-28
-1
9
32
11
2
16
0
14
-40
21
-18
43
-24
5
7
3
24
32
-19
18
1
14
1
-3
-9
11
-9
-9
-16
-22
25
-13
32
32
26
-8
24
4
-1
-4
-46
-8
-47
1
-29
2
35
-1
1
11
4
23
-23
16
18
-47
2
38
19
-22
-38
-14
6
14
7
26
19
-32
-24
-3
5
-27
0
41
46
-2
33
31
16
-24
11
3
5
-24
21
18
-6
27
-24
-7
30
-10
-4
-7
-18
-22
10
-20
-16
-43
-10
-18
18
8
1
13
0
21
8
37
13
-8
0
2
15
-14
-25
-14
-9
12
3
-17
-10
2
10
-10
17
3
7
-17
-14
11
-20
-22
-11
-10
12
9
12
23
10
8
-14
2
-6
-22
-18
1
26
-31
14
-13
19
-36
-14
12
-7
17
-32
8
21
23
42
15
-4
-5
33
-11
-31
23
-5
-10
18
4
24
-9
10
15
-4
26
-10
21
-3
-18
2
23
27
18
-3
39
19
3
19
-42
20
16
-7
-7
16
-23
1
20
-34
-13
38
6
11
-23
19
11
19
7
19
-20
-21
0
1
3
-21
-32
29
14
18
-8
30
-21
-7
-11
-13
9
4
15
3
12
14
7
10
34
15
6
-31
12
-6
0
31
-32
-17
-24
-10
-17
2
39
3
8
-12
-10
-48
-5
11
3
-35
-13
37
-12
23
-14
27
-30
-29
-5
-10
4
6
-2
-13
2
-34
18
-18
21
-26
-35
0
-6
67
38
-12
4
-12
-32
6
-5
-27
-7
-38
-8
-3
-52
8
3
-27
57
-30
25
-28
34
15
-6
11
1
29
-55
-11
-12
0
12
2
-18
-2
-15
-1
-5
22
9
9
-10
1
-3
-9
-5
-8
-11
32
-16
26
-4
10
6
35
-43
41
-10
-10
0
-2
-19
4
-13
5
12
26
-11
-11
15
20
9
25
8
5
-29
-27
0
12
46
-11
26
26
13
21
17
-38
-15
43
14
-14
-13
-5
2
24
11
-20
-22
-11
-35
25
14
41
7
-1
17
2
-7
-13
5
39
10
1
4
-10
32
0
1
-6
-1
2
6
-49
3
6
7
5
3
-41
17
27
-45
-3
-20
9
22
-25
-1
-29
-36
-25
21
10
3
-18
-15
15
-17
-8
5
1
-1
-2
27
6
13
-11
-1
21
-12
14
-34
17
10
-50
10
-28
-16
-7
-11
26
1
-24
-37
20
-3
-5
44
17
38
16
-16
-4
-6
-1
8
9
15
5
-12
-20
-32
-50
14
-29
-7
16
1
15
-12
4
27
0
-31
-2
-11
-20
-21
-14
2
20
-10
-3
11
1
4
-16
15
19
-20
12
6
0
17
-2
23
3
23
-17
-1
30
-25
-5
36
9
9
-22
5
-6
1
-11
14
23
53
22
36
-16
9
2
-5
-11
11
-38
-15
0
9
30
2
-12
9
-12
-21
29
10
19
0
-9
8
7
2
-40
-7
-6
23
34
37
-12
1
-51
-6
-20
14
17
38
-36
11
