576
-0.049698297
-0.04425552
-0.015483217
-0.05413603
0.020572893
0.003630522
-0.055738755
-0.023128659
-0.12600067
-0.014173516
-0.016268235
0.0596256
-0.03273286
0.005258055
-0.065936565
0.049103633
-0.03306043
0.09852401
-0.07198171
-0.035700653
-0.017324362
0.053614527
0.026960736
-0.12469153
0.015468106
-0.021839477
0.025419686
0.018172758
-0.093218476
0.011581446
-0.038684253
-0.04768342
-0.034157764
-0.031620026
0.06511669
-0.052821785
-0.047963817
0.0056028767
0.03438255
0.02932724
-0.046116766
-0.018560523
-0.054628577
-0.025303286
-0.030797083
-0.24327245
0.0027918245
-0.08068466
0.02959784
0.026335698
-0.024281343
-0.0045949477
-0.061850578
0.05728127
-0.009616469
-0.055846326
0.007911809
-0.018032707
-0.016347019
-0.07502595
-0.0154988365
-0.0031132074
0.09440579
-0.06282907
-0.030367399
-0.033027936
-0.06391434
0.061830346
0.025950579
-0.054514896
-0.19826157
0.049012184
0.025848344
0.011317823
-0.040168576
-0.024898255
0.0009469221
-0.03635554
-0.014168224
-0.10236811
-0.036922377
0.0023157394
-0.045626123
-0.00061578583
-0.0072983094
-0.02958666
-0.062770866
-0.07395156
-0.08399073
-0.09155436
0.061023228
0.026498567
-0.04896003
-0.027531395
-0.09337759
-0.066151194
0.030429516
-0.041043233
-0.029901113
0.048414573
0.0057479525
-0.04221904
-0.07388644
-0.031080734
0.014111196
-0.028203065
0.059850596
-0.024678618
-0.08919847
-0.018200768
0.01474588
-0.031680293
-0.08709509
0.011479512
-0.017880345
-0.035569225
0.016613944
0.015285673
-0.015780048
-0.020618003
-0.013844781
-0.02627407
-0.09682888
-0.12834899
0.022003952
0.0017863297
0.022117924
0.034194857
-0.097779654
0.060575955
0.020579927
-0.009388946
-0.013990259
0.018524406
0.040035844
0.02203972
-0.014958916
-0.028382959
0.0564011
0.012221913
-0.035931893
0.04411117
-0.027072996
0.032734353
-0.004031416
0.0014295424
-0.025266074
0.07523001
-0.012166373
-0.09876471
-0.01493598
-0.054924063
0.059383977
-0.036318462
-0.051884275
-0.032915816
-0.035041638
-0.08345491
-0.16911824
0.020405656
-0.011542608
0.021573603
0.09633068
-0.06550062
-0.11631241
0.002890855
-0.089718826
-0.00069705094
0.010334322
-0.08179792
0.09786461
0.00064947316
-0.0689222
0.0012764693
-0.028293733
-0.094300315
-0.12515645
-0.06426047
-0.037637267
-0.06305431
0.05599559
0.00060114404
-0.0056673195
-0.06854812
-0.038347345
0.12043059
0.01978517
-0.02178489
-0.07262087
-0.063900076
-0.04268586
0.06661357
-0.055054896
-0.11231679
0.029370451
0.0062740687
0.018192478
0.064321965
-0.00916245
0.08082425
0.013979971
0.054664895
0.0228303
-0.042068765
-0.03350084
-0.026509602
-0.006987274
-0.09147274
0.058879197
0.0969117
0.023863163
0.014863772
-0.039247435
-0.023156608
-0.013405033
-0.030239295
-0.02497063
-0.18635324
-0.04448179
-0.021032542
0.047846172
-0.021090543
-0.108247474
-0.047924783
0.029706763
0.0075017572
0.0541959
-0.1367035
-0.026452595
-0.06240415
0.0051960777
-0.0069917417
-0.0022937502
-0.07506132
-0.08299431
-0.00565301
-0.00762177
-0.06767999
0.0065053413
-0.024712713
0.020416604
-0.021815259
-0.08374501
-0.008294478
0.04959082
-0.06404734
-0.041146312
-0.0029439186
0.036092542
0.015455732
0.00030505145
-0.001869274
0.0058564194
-0.014121331
-0.059259087
-0.124492325
-0.038575456
-0.048485078
0.0043308637
-0.020185594
0.03704639
0.013151675
-0.2073073
-0.032890987
-0.009569189
0.019096766
-0.024600325
-0.0065803127
0.056915663
-0.06725386
-0.065734185
0.11709226
-0.009912426
-0.005052341
-0.008993657
0.012823293
-0.015787138
0.012311936
-0.020140186
-0.006917665
0.016499134
-0.017581772
0.04229157
-0.022613034
-0.019053254
-0.016362617
0.08117726
0.026332948
0.023072874
-0.007845738
-0.012784027
-0.08934842
-0.12754758
-0.028544873
-0.13315596
0.012894633
-0.01833533
-0.05194184
0.020335054
-0.02889583
-0.005466284
-0.06304689
0.007181592
-0.042537294
0.05745282
-0.06434063
-0.105937324
0.054089077
0.052547783
-0.0685706
-0.05083541
-0.055006687
-0.023263853
-0.048470873
-0.0070125274
0.011006108
-0.100944266
-0.15047579
-0.066239774
-0.029417492
-0.084846154
-0.02107736
-0.044914555
-0.06862431
0.04223216
-0.07832199
0.04523499
0.013071124
0.006420669
-0.016725555
-0.012803668
-0.04042182
-0.12540238
-0.006065956
0.055731528
-0.068119936
-0.0017679455
-0.07313674
-0.0037509422
-0.060245838
-0.0057903053
-0.0039087217
-0.10168132
-0.08928233
0.009597892
-0.064151004
-0.06831476
0.005139557
-0.01845013
-0.101037785
-0.020205064
0.0022120667
-0.0038115783
-0.008465193
-0.08171618
0.09521008
-0.10721612
-0.057326376
-0.08025614
0.011775201
0.0023187485
0.069126025
0.04480592
0.011545255
0.02197786
0.039439905
-0.06224761
-0.08893612
0.04084517
0.030878864
-0.049528282
0.0028857214
-0.035720415
-0.011852244
-0.14096847
-0.02791174
-0.0032490045
0.08551457
0.05437683
-0.043386683
-0.034396414
-0.023433859
-0.078652754
-0.013897625
-0.043537147
-0.12501281
0.045787934
-0.0742519
-0.037057873
-0.08212679
-0.15075274
-0.08580684
0.0147619555
0.0040579885
0.031135146
-0.043653022
-0.05531346
-0.09349987
0.007876832
-0.12444104
-0.06638151
-0.032997604
-0.08067114
0.015667485
-0.027472299
0.03233622
0.014960219
-0.03762732
-0.06497956
-0.028035909
-0.06448825
0.0018697274
-0.039294306
-0.054178044
-0.06143985
-0.09878525
0.043075513
-0.042153634
-0.044435352
-0.0731526
-0.019081578
-0.0038605067
-0.04088526
0.10225732
-0.053438
0.09672348
0.0053058965
-0.022715013
0.001616721
0.011323962
-0.06527771
0.044383183
-0.010351827
0.018715443
-0.022679146
0.00584435
0.04377733
-0.042247348
0.0046065417
0.008501085
0.08549027
-0.13744676
0.0056315046
0.012152011
0.017164169
-0.0034569493
-0.021160027
-0.02831452
-0.045044202
-0.035511494
0.033013392
0.05675469
-0.011526937
0.021979982
0.027611515
-0.18738604
-0.057182502
0.045831256
0.1808424
0.008727171
-0.042233307
-0.07304072
-0.021550406
-0.018080967
0.034661576
-0.05448525
0.025147025
-0.06928705
0.049331367
-0.074809335
-0.041115448
-0.056250878
-0.030604094
-0.045790542
-0.060896855
-0.05902727
-0.050641168
0.10092552
-0.032780446
-0.06368546
-0.014982745
-0.0106135355
0.034966275
-0.025953097
-0.055650122
-0.04318744
0.00090965535
0.053057615
0.041117966
-0.003517659
-0.017987441
0.009704647
0.01402172
-0.0992011
0.06839319
0.03718836
0.04077649
-0.052141476
0.046814714
0.010699973
-0.080110304
-0.16003327
0.0067204135
-0.0343298
0.020164356
-0.05941504
-0.017627923
-0.011221103
-0.014691017
-0.044230692
-0.012956177
0.012472708
0.03269315
0.075116105
-0.12437188
0.10969961
0.035003453
0.058711052
-0.08922639
-0.0047301417
0.027224714
-0.012612937
0.042196944
-0.012935139
-0.06462284
0.02737631
-0.0130711375
-0.018751899
-0.010269891
0.021190237
-0.014668794
-0.019588355
0.020326437
-0.06097767
-0.12013663
0.030584646
-0.032223348
-0.06537469
-0.008976542
-0.076814115
-0.01945787
0.00584408
-0.124635115
-0.032419804
0.052172706
-0.021468677
-0.020341713
-0.024219522
-0.042695265
0.09408037
0.093843006
0.033970498
-0.05628065
0.022047462
-0.07687314
-0.09750206
0.023649788
-0.011930015
-0.010650402
0.0118853245
0.053365383
0.08003968
0.04599366
0.027953034
-0.07070627
0.039827127
0.09586004
-0.09820522
-0.046731636
-0.08250445
-0.035350874
-0.034705695
0.009672231
-0.06764059
0.019981578
-0.08001188
