384 1 3 3
29
12
24
16
0
19
35
30
21
-45
-3
-21
-18
-25
-31
28
38
43
-29
-24
-62
-3
-15
-8
6
11
-9
-43
6
16
-6
54
84
-8
-20
12
-13
24
-32
-9
46
-27
-35
35
-52
-26
-68
2
-5
-22
4
2
-16
4
-32
-12
-12
-2
34
43
-22
24
41
-4
-23
-30
14
-20
-25
16
-21
-6
-12
35
-15
-48
17
-41
-52
52
-50
15
-7
-29
17
101
8
8
29
-13
-9
-48
-2
52
6
47
23
12
13
-47
37
-88
32
12
11
-48
-64
24
-5
3
-12
-24
2
-26
-35
-16
-32
14
-13
-39
1
-1
-8
-6
-32
-43
-22
-22
63
-27
-24
52
8
-41
26
-23
-49
-25
-23
-17
64
-15
17
24
-13
5
-8
-9
-23
-22
-28
-27
-38
-5
-48
26
-39
-3
-23
-15
-23
-33
-14
-24
-3
8
-9
-16
8
-27
-42
-39
-35
42
-9
-29
18
-10
-8
39
-73
-18
2
2
-30
-24
26
39
-32
3
67
46
-13
-51
-18
4
36
19
-43
-10
45
-12
73
29
-21
20
-69
-52
12
12
-42
15
6
-55
5
9
14
13
60
-4
-18
40
8
-38
-24
-14
3
-8
-26
0
-36
-37
-5
-25
-43
-27
-22
-15
-25
38
11
8
50
37
49
32
2
1
10
14
0
19
13
-6
-11
25
23
20
54
15
16
56
19
-104
30
-19
17
31
-38
11
20
-12
-2
-10
-35
-14
6
-48
-11
-15
-36
-44
-5
-13
-32
29
26
-8
-13
-25
-61
13
36
-31
16
58
-19
-49
-54
-35
23
54
24
26
-12
-27
11
5
-24
-8
-42
-25
-47
-19
-28
-21
-43
23
-27
2
51
-25
-40
15
1
11
-6
19
44
4
-8
45
29
18
42
23
44
21
34
5
10
25
17
2
-17
6
-36
17
-31
-43
-45
7
-42
-16
-19
-10
-14
-10
-40
-24
9
6
25
-56
-30
-24
-28
-10
-41
3
42
-64
-18
51
-76
-39
17
-32
-17
21
1
-8
37
-9
-8
52
11
-20
-13
-14
-18
5
-25
-24
-38
-15
35
32
1
25
43
28
-32
-50
1
24
12
16
11
34
29
1
15
3
-57
-53
-3
42
53
-7
31
-19
-54
37
57
43
26
-23
-10
-42
-18
-13
-5
-23
-14
-8
-13
-34
-26
-26
-26
6
3
-32
14
87
-5
7
29
-11
-26
3
23
-6
23
39
22
66
19
11
-12
11
28
-9
74
-11
-8
24
-10
5
9
12
27
11
36
60
13
-63
8
-48
2
67
-21
9
28
31
-1
11
37
-61
-24
0
-23
-26
29
-2
-10
-2
0
-21
-71
-31
-4
-3
-3
-4
49
-19
-10
13
-23
3
50
14
-8
-25
57
-35
-38
15
-12
-38
14
52
-61
-23
31
-43
-42
28
-41
18
-19
-8
-25
-11
-38
60
43
36
-30
-53
-45
-24
-6
33
40
61
11
-46
-5
8
-54
-10
-12
-21
-28
-21
32
-13
-35
34
-20
-35
27
19
-6
-30
27
-62
-5
11
-35
-4
44
-26
-27
3
13
-33
19
42
-39
-2
36
-24
-47
-45
-30
8
9
3
29
20
-25
1
13
-20
-9
48
-40
-18
40
38
-11
4
-14
62
-8
7
25
23
2
-4
20
-49
-8
-14
0
-15
-38
-75
46
9
72
31
-34
-5
-87
18
-15
-14
0
10
45
22
1
62
25
31
77
15
-17
1
-17
-16
-24
-14
3
8
-60
14
21
-62
-6
27
-49
-41
21
23
-30
6
60
-31
-22
-46
22
1
-17
43
36
0
21
15
-1
-30
2
22
0
9
76
-16
10
27
21
11
41
-3
-16
-27
-42
-38
-24
24
-62
-9
-2
-44
-9
4
-15
11
-13
-2
-70
-14
-5
-47
9
28
27
-18
4
35
20
-79
2
52
-10
-41
-19
-13
-23
-9
-2
-15
-11
-27
-32
-1
21
18
-6
13
7
15
56
40
7
75
12
-43
19
-59
-3
24
-36
-21
-1
-18
-18
-7
-33
-18
-21
-32
-29
-29
-31
18
-1
8
5
38
20
21
-67
-52
58
54
18
25
-3
-17
-3
17
18
42
55
12
-18
-5
-24
-36
-11
-43
-7
-21
-21
-7
37
14
-14
-14
-5
-54
-62
-35
29
12
28
-25
9
-8
14
43
13
2
40
27
-12
-20
-23
16
24
43
20
27
-7
-7
-8
3
0
16
-12
33
36
62
-33
-20
-40
-4
-17
-18
-34
-21
-19
33
51
91
3
33
-47
-21
-22
-24
-32
-39
-24
21
12
-8
33
60
2
-32
-2
2
-11
-13
60
-49
-24
10
16
17
46
17
15
50
-23
-67
-24
10
-36
1
49
-73
38
-8
-3
29
20
47
19
-60
-49
-8
1
-17
-25
-48
-16
-10
-34
-44
-13
19
-26
-14
-47
-4
35
-4
27
73
6
-40
25
-35
-42
-39
29
-4
-15
26
1
-34
10
82
-10
7
23
1
0
15
4
32
25
35
13
25
37
11
9
-2
27
-32
-2
5
-29
-49
11
72
48
24
11
3
-11
-48
-27
12
-31
-41
14
-60
61
52
-27
-37
11
49
-22
33
51
35
6
-4
-12
-32
-5
-29
10
-5
14
-23
-37
-35
-13
-36
-15
-42
-63
-67
10
13
10
18
10
-6
16
27
7
-42
-54
-14
-29
-22
-3
-9
-4
5
17
61
39
36
3
27
-17
-15
-17
0
-27
-29
9
59
14
-13
-27
-14
-12
-8
-28
-18
-23
-31
10
34
30
-47
5
38
-21
38
21
41
-14
-22
-31
-19
13
-4
-88
-12
-4
29
33
-38
26
41
-23
18
13
-38
18
30
-84
2
94
-20
32
-11
-85
53
40
-59
25
18
-27
-9
14
-48
-36
-21
-18
-9
-31
32
33
33
2
22
-9
-40
15
-43
-23
-9
-45
4
8
21
32
35
8
12
10
0
12
29
31
13
26
20
-16
2
13
-16
-24
-21
45
33
27
-22
-26
-21
11
13
-38
-1
35
-13
-13
69
-28
25
48
13
5
27
27
-19
9
-7
-44
52
5
-34
5
-34
-22
40
31
-32
-43
-7
-25
-13
1
-22
-35
2
5
-25
-34
39
21
36
-19
-29
-39
6
-12
-20
1
-31
-24
-8
-33
-19
23
-44
10
-3
-55
-6
5
-45
15
-11
-7
23
-27
-4
-15
-5
-52
-22
-21
50
49
14
14
-11
13
-57
-4
17
9
-45
-10
-46
-31
38
-15
-8
-6
-18
-1
-10
-11
-12
-53
-30
-20
-12
18
-24
-24
-55
-41
-12
-15
3
36
24
43
9
23
-6
-10
-15
-4
0
9
-59
57
6
-31
50
6
-7
17
3
-30
11
40
43
-23
-22
-49
19
26
15
-5
16
18
-67
-17
-43
-15
-32
3
-10
-18
-15
-33
-50
-46
32
16
-27
69
63
-22
-64
-26
-42
38
-3
-53
33
-13
-40
36
-9
-24
-22
-4
48
-32
-22
42
-26
11
17
-56
-50
-27
25
53
4
1
2
-11
-5
-4
-68
34
50
2
-47
5
-37
-10
-30
-39
-15
-35
-17
-21
1
6
31
23
58
-34
-1
14
-37
-25
11
-5
34
19
-37
60
3
-47
28
9
3
-43
22
-8
-36
4
-24
-52
15
11
18
31
-23
18
52
-9
13
60
20
74
37
2
-30
-38
-32
-2
-16
-9
-4
-10
-2
96
-37
-56
4
38
72
5
-49
0
28
0
4
5
-12
-37
-14
-33
1
-19
-20
-40
-25
-19
-27
-23
-7
-18
-28
-23
9
-24
-14
-10
-14
-12
-3
-3
-14
-21
-41
-29
-13
53
-28
-8
48
32
-15
1
-15
-52
-21
-24
-38
-9
-5
18
4
16
-51
-16
23
-53
70
58
-45
21
-37
18
7
-1
0
44
52
-52
-48
39
-20
-8
-16
-36
3
41
-48
-5
70
32
30
35
-5
-7
-2
-42
-41
-31
3
12
20
-12
-27
-11
-56
-33
-18
49
24
32
-45
-29
-32
-23
9
-24
-43
-44
-39
52
35
13
-32
-4
13
-20
-50
-4
23
50
32
-16
-17
-28
-18
-23
-3
-41
-9
-40
-21
-20
-37
-31
51
27
-2
-42
79
3
-23
-21
-42
-48
-2
-30
55
43
-46
67
-16
-57
-57
44
9
14
-69
17
33
-23
-54
-21
44
21
-15
-74
5
77
-37
7
-4
-1
27
26
-1
39
44
20
22
17
20
-4
-16
-18
-16
-15
-50
-39
3
15
-44
-31
35
-10
-18
37
10
-26
-37
41
-24
-30
30
1
-12
32
13
10
64
13
-2
46
16
-13
29
25
23
33
20
-18
38
-19
-6
63
1
-46
-10
-28
-43
-18
-48
35
-9
15
-31
-19
75
-11
-8
27
-13
-22
-63
-12
-3
7
-13
4
23
-59
-33
-11
42
27
-4
42
-56
-30
0
-21
-53
-21
-11
67
50
-16
7
-41
-50
1
31
-11
-24
5
-38
1
-58
45
-13
-35
49
-33
-21
30
1
-30
-16
-16
-65
-32
-11
24
6
25
55
-10
43
58
3
18
14
-16
19
-16
-45
-2
8
-32
2
-4
-40
-10
-31
-29
-28
-13
-17
-23
-17
-14
-11
-23
-34
-19
-17
-20
-5
-6
-42
-6
-34
7
23
-5
54
43
-2
26
18
7
-53
-13
-17
8
-23
0
60
47
32
4
-73
44
7
-51
28
1
-44
7
-14
3
-43
-18
-17
2
-7
76
35
14
13
39
-1
-49
-14
25
-14
-65
-1
16
13
45
21
1
-27
-47
-45
43
-10
85
-2
-9
43
8
1
14
-34
28
8
-48
27
14
-69
35
-41
-23
-32
-26
-25
-19
-12
-34
0
-6
49
52
72
-16
-29
-33
-13
-25
-15
49
34
21
19
-9
13
23
-6
-26
-22
9
11
0
15
15
-14
32
47
-32
2
4
7
32
18
19
30
29
1
-1
-6
-4
61
18
-5
3
35
-25
-16
59
22
-39
38
14
-31
31
-33
-35
-19
-18
-35
2
-58
-6
17
3
-5
28
-30
12
-34
10
-95
12
40
42
46
-29
-22
-22
-13
-22
-17
-24
-17
-48
41
27
37
-9
-44
-34
-10
-34
-16
13
-16
-4
-50
-44
-10
14
-6
23
-33
-29
-20
-24
-20
-49
5
-37
-42
46
8
-1
-37
-51
-35
-6
21
52
-22
-31
27
-20
-36
-18
20
24
-30
23
7
-46
24
-32
-45
-11
-51
-30
-26
-4
-10
51
37
50
-11
85
30
-13
0
-23
26
-55
-19
-26
-73
-11
-43
-4
-22
21
35
20
19
30
44
-11
-34
-33
-11
-25
-20
7
52
38
15
85
59
11
26
20
24
23
34
-28
-42
-24
-46
-37
-30
-12
-26
1
-19
-26
-30
-29
-31
-25
-86
16
55
-31
-10
-20
-9
46
3
36
55
31
-7
-23
-1
-20
-21
-44
36
7
59
-13
-5
1
-47
-36
-47
-3
34
0
-2
27
37
-18
29
18
-30
-8
17
-9
7
50
-57
-45
34
-55
-56
-39
-7
6
-21
3
41
35
48
84
18
19
54
70
-44
2
-35
-6
38
7
-14
-12
-15
-65
-14
-22
-35
38
34
-50
-3
56
2
-32
-8
-2
-41
-11
17
5
19
18
-56
-68
-4
-10
32
-32
-47
34
-22
-23
16
-24
8
-11
-35
85
-20
-31
35
-17
-22
-49
32
-22
-12
27
25
86
74
-21
3
-1
-10
-23
-33
-21
-24
-39
23
2
20
13
26
9
1
49
32
18
14
-31
13
14
-35
25
65
-7
-1
-7
-37
34
30
-46
22
-23
-21
0
-9
0
31
51
51
6
-7
-18
-23
-8
-9
-19
-26
-29
-34
-26
-33
8
4
-2
-40
-22
-5
-1
-44
-14
-41
-9
24
-36
-57
-23
10
3
-3
35
25
-40
31
35
-24
33
28
-62
26
-13
-75
-98
36
70
48
-54
-6
5
4
20
18
8
14
-12
29
37
27
1
-36
-2
-35
-62
21
-54
3
-23
44
19
-47
45
39
-33
23
28
-42
-36
-10
-53
-2
11
7
10
43
5
50
50
-16
34
37
-15
20
-5
-44
-43
-17
-12
-15
-40
41
17
27
45
60
26
-12
-19
-25
-12
-32
1
4
-34
-8
-4
-8
-30
-40
-16
-25
-8
-32
-16
-15
-22
-25
-10
-27
-2
23
26
61
-21
9
-21
7
-27
-27
56
53
30
-18
-8
-13
-20
-28
-8
10
23
14
-44
-27
-3
-41
-13
-26
-3
-11
12
-44
-17
-13
-33
-24
0
4
-10
-10
23
-5
-31
8
53
93
13
8
-9
-36
-10
-19
-31
-28
-32
-47
-35
20
-11
-49
-2
8
6
14
-47
-39
-9
-13
36
-10
16
35
52
-36
-53
-39
-14
20
0
27
46
15
-1
11
-5
7
38
2
11
51
-7
-41
-45
-73
14
21
10
-32
14
43
40
17
-12
3
60
45
-18
53
33
-13
-36
-24
-15
-19
-24
-10
-7
-14
-44
10
13
59
44
29
-25
-11
-88
-4
-3
-36
9
2
3
35
54
31
-36
29
-29
-45
47
-40
9
31
-6
-45
-36
-69
22
67
38
10
-22
-47
-13
-19
-20
13
13
36
21
36
44
-56
-12
-14
-53
11
-5
-15
25
11
-95
-21
14
-15
48
11
-27
-37
19
25
24
-26
23
22
17
38
48
27
35
68
6
-17
-7
1
26
-43
-64
27
20
12
36
35
17
8
6
-15
-30
-36
-16
-7
-14
11
-35
-38
9
15
-25
11
21
-41
-42
7
-14
-32
12
7
-24
-12
21
18
-19
56
78
-5
21
2
10
30
26
-3
46
36
-18
-19
-44
-27
-19
-27
-12
-15
-15
-44
-11
-24
-4
-21
-32
-3
-16
-30
14
37
37
2
27
-1
-23
-31
-46
16
-49
8
-7
-21
-24
12
-25
-20
6
-2
6
25
29
27
2
24
14
-24
-3
10
-6
-41
-5
17
53
41
55
43
-64
-33
21
51
-31
-26
-12
-25
-40
-49
-21
-17
-34
16
33
7
2
78
-14
-10
32
1
4
3
-14
25
13
20
3
9
-2
-37
-75
-40
8
15
44
-23
61
20
-7
-27
-45
-22
7
16
1
58
36
-1
15
42
-23
-1
-21
-14
-14
-43
-34
-18
-46
-25
4
-36
-54
-37
8
-5
35
27
31
-18
26
-13
21
24
-25
60
7
-40
-9
-11
-9
1
-22
-30
-25
-10
6
-4
11
-3
-42
4
-15
-64
-1
-4
12
2
26
36
19
18
23
36
5
-36
-37
14
-23
-22
5
-46
-20
-10
-2
9
2
16
0
10
64
23
-9
18
-11
-29
37
30
-30
37
-16
3
16
0
-15
0
-20
16
62
51
3
4
10
-48
-47
-32
-23
-14
10
-28
-8
-12
-28
-7
16
-42
-27
54
-18
-5
-20
-6
-4
-26
23
44
84
21
16
50
-10
-1
42
-12
2
17
-41
-44
-40
-20
50
-13
27
56
30
40
59
36
-3
8
-12
-9
-3
0
-58
-24
-65
0
-6
33
48
-5
36
4
-25
-22
19
20
8
-55
-52
-31
3
26
4
8
61
-28
-1
19
2
72
4
40
-21
19
-21
-56
13
33
11
15
-26
11
-46
-9
-21
-43
-19
-9
45
-29
-25
-15
-28
-29
16
-45
9
31
40
-9
-2
21
-51
-24
-60
-4
-28
-21
-20
4
5
32
43
37
19
0
-4
31
29
-14
22
28
3
-49
-33
-15
-33
41
62
-22
33
40
10
-26
16
4
-17
-11
-35
-66
-10
-73
-23
48
4
4
-21
60
-8
-60
31
-28
-21
58
-3
10
22
-16
-24
4
19
12
-2
8
-11
63
82
32
8
1
22
6
47
43
-2
28
27
-35
78
22
-10
-45
-26
-21
-32
6
26
16
46
-28
-14
-2
-37
-7
-39
-56
50
31
19
71
-26
28
-22
-26
-35
-13
-17
-5
19
-34
-44
-13
-19
-38
-20
-50
-1
-27
-15
-17
-12
-19
-39
4
-51
-4
-2
-24
3
-25
-4
33
10
11
51
26
-6
10
-24
-30
39
17
3
-17
35
2
-49
-43
-23
-4
3
-17
-31
-21
-10
-22
-37
-38
-18
11
32
26
32
28
7
23
8
-1
-27
-11
-13
-19
-13
-31
-15
-35
-6
-23
0
-10
-51
-60
34
30
22
-2
9
-9
5
3
11
20
90
-11
2
-20
-14
-23
-2
-30
-14
-23
-20
-4
19
17
-48
-14
-27
-14
-29
-37
18
9
-50
0
4
-39
2
14
-66
-18
-8
23
-27
-9
61
-25
2
29
25
57
-28
10
18
-66
19
43
-27
-10
11
14
-33
-19
-13
-37
-32
-39
3
32
-2
-30
-26
-62
-41
-4
-23
1
32
-51
65
-5
-26
69
25
-33
-11
7
5
-10
-20
-27
-30
-29
-54
-82
-11
-9
27
-17
-28
27
-6
-41
-42
-45
-18
-6
3
-27
29
58
23
22
2
15
-8
30
56
-28
-25
48
-46
-17
-36
-2
-2
-24
30
72
48
10
9
4
32
27
13
9
20
11
-2
55
1
2
44
-21
1
46
0
28
31
25
-9
-32
15
-41
-30
-13
1
18
-27
-21
-29
-34
-8
-26
-16
-40
47
23
-11
42
52
-39
10
-6
44
64
55
10
6
-18
-20
-29
-51
30
-8
-18
34
-11
-18
44
-16
-37
-15
-30
2
-25
-3
61
-14
31
41
2
-31
-18
-24
-5
-28
17
53
62
20
-19
-32
59
1
-54
39
-42
-9
2
-72
-51
19
19
47
-21
-22
-33
5
-41
-7
46
27
26
-15
-30
-9
0
0
-11
26
76
8
-34
-26
-47
-29
-32
-34
-7
-2
-31
-23
-9
-33
55
-35
-60
36
36
-52
17
57
-68
-26
-47
-21
-2
-33
11
30
33
-21
1
48
86
5
-9
27
0
-60
-15
-16
-11
14
-15
-23
-15
-23
-41
-21
47
30
48
-30
-22
-26
6
-15
-31
14
-4
-36
3
-5
-38
24
-12
-34
8
63
19
-51
11
31
-29
-5
-13
-1
22
5
10
62
27
-15
14
11
-10
-12
-40
-37
-26
-23
-23
-18
5
9
1
6
-49
-12
-12
7
-40
-31
15
47
36
-38
34
-4
-15
37
1
4
-60
-19
-37
-17
28
-55
9
53
56
-3
36
-66
-35
-79
24
-20
13
-73
-39
-9
-12
2
1
-17
35
42
-14
9
3
13
28
24
8
38
40
27
-15
-30
7
-37
-12
-1
-28
-58
40
1
-32
34
23
-31
36
5
-29
5
15
12
19
39
17
8
23
16
-26
2
-6
-9
21
16
12
49
77
-17
-1
-5
-16
9
7
-29
99
58
-21
37
3
-27
28
4
-26
47
10
