16 32 1 1
56
-32
10
-71
-50
-17
-39
-44
80
-23
-4
44
1
-27
35
-13
14
72
6
-15
-24
-70
-8
15
-32
30
85
-15
48
-6
-31
54
78
-99
59
-9
-41
-24
25
-75
-7
60
60
-17
74
14
-14
-26
-22
21
-39
49
-56
-49
36
69
-24
13
13
-2
-85
35
27
-69
-36
114
19
-27
53
25
-82
6
83
12
-5
-9
17
44
-35
82
21
-36
-83
6
3
-80
16
41
-36
4
-51
-5
42
18
-75
-79
37
-4
-52
-9
21
55
26
27
-10
38
-67
-2
29
-62
-89
-91
-28
-2
-38
23
20
-41
-23
106
38
36
34
44
14
114
74
-11
-24
-22
-50
0
16
2
32
16
7
-35
-28
-7
38
34
24
-14
55
51
-48
31
-51
27
28
-33
6
-24
-39
-31
-22
-28
62
61
-18
-55
22
-44
-28
-86
16
43
62
-29
48
33
-6
-12
-35
12
34
31
-24
22
-43
-19
-37
-51
2
53
25
-14
-77
-32
-7
0
7
3
2
-48
-39
-45
29
-44
30
-42
40
0
0
-32
-4
6
-1
1
-20
29
16
56
-22
45
19
-88
3
-3
27
18
-43
62
-6
-15
-38
-24
91
11
-19
89
-90
57
65
-2
-38
-63
10
-11
-46
-30
-34
36
11
-4
-95
2
-48
-6
7
9
-37
-4
13
-23
-45
-24
56
5
10
-10
29
67
1
9
-5
26
4
7
22
-61
-55
-12
2
-34
54
56
-65
-55
14
-17
-26
17
-9
-22
-24
-67
-76
20
23
30
-8
3
-13
36
17
-29
-13
6
-47
-9
0
-55
-81
-46
-2
-54
-72
37
8
-14
107
75
42
95
-6
-8
14
32
43
7
18
-15
14
-22
-56
16
37
-28
3
16
-20
-38
-32
28
40
43
46
-24
-12
28
2
57
-10
-19
-44
29
10
-18
19
-23
-2
19
37
-14
-13
-14
34
-15
18
-34
30
-25
24
-15
56
32
-17
-10
-40
58
-32
-40
19
-43
-16
25
36
-3
-11
6
20
7
-25
-41
9
74
80
22
14
5
20
13
12
-1
-62
27
-46
-69
35
30
-10
26
-19
-59
31
78
-8
44
-72
3
55
-1
39
-49
-76
31
-13
98
-29
44
-26
-48
57
21
22
9
5
-5
38
-25
20
81
-45
-16
41
57
84
88
-6
4
-24
-3
-18
40
19
10
38
-44
57
40
-41
-46
-78
9
-32
-52
-9
9
9
-51
24
-10
-1
28
35
39
-35
-80
-33
-58
92
2
-11
5
17
70
-49
19
63
13
18
31
57
48
-36
-6
-26
27
19
32
-35
-29
56
43
60
-1
4
-22
22
-65
29
-70
-3
-33
3
-41
-18
-14
17
7
