384
0.078488566
-0.022670118
0.08950977
-0.07511984
-0.023536596
-0.05695539
0.00982281
0.10663108
0.006064821
0.09119149
0.057970442
0.025252232
0.0176894
-0.02813814
-0.06996493
-0.0119586075
-0.06909579
-0.0299341
-0.047387917
-0.045855008
-0.012129951
0.022372983
-0.034005538
0.0095636025
-0.061775886
0.15505865
-0.005507479
-0.08509959
-0.062348586
0.005250546
-0.07279904
-0.03753189
-0.015874276
0.0023654485
-0.10634261
-0.07233781
0.010925226
-0.07761179
0.029053865
0.0023367356
-0.020984571
0.005174323
-0.0035817279
0.03903762
-0.005009764
0.058756504
-0.13105613
-0.08808886
0.004528531
-0.012044831
-0.032492403
0.032237154
-0.05736795
-0.03845945
0.035807155
0.017531965
-0.032791637
-0.1005513
0.10123042
-0.034894355
-0.10045007
-0.018122207
0.04871943
-0.017580032
0.0013388027
-0.113314666
-0.06742428
-0.039518174
-0.015168541
-0.0031489604
-0.017408203
-0.015797123
-0.0410834
0.057531454
-0.0360791
0.032156833
-0.039920308
-0.054434396
0.007443647
-0.070357166
-0.059572496
-0.019098729
-0.011593158
0.071713544
0.061999824
-0.0005116239
-0.10837212
-0.10362017
-0.11717083
-0.010000939
-0.02664657
-0.025170524
0.027749745
-0.018835511
0.031058371
0.043412477
0.0737935
-0.07789806
0.108249456
0.008498516
-0.07618353
-0.11403643
-0.05464796
-0.09271353
-0.08595345
-0.09576692
0.082594775
0.046273317
-0.054423824
-0.0007798335
-0.024954963
-0.0064245644
-0.023101388
0.041027002
-0.11883564
0.009080213
-0.09216204
-0.021855913
0.0708611
-0.028113436
-0.10817278
0.00737483
-0.01067052
0.0131799085
0.022721482
-0.047558084
-0.047870997
-0.041234896
0.023230651
0.044550907
-0.027680757
-0.026861195
-0.08320143
-0.012930055
-0.16180153
-0.042706303
0.040537022
-0.086601794
-0.020169571
0.08445598
-0.077953406
0.048296347
0.026724257
0.0037460844
-0.030865625
0.052699454
0.01421899
-0.030642362
-0.02814609
0.04053302
-0.004819146
0.029381705
0.061195556
0.035479985
-0.008172072
0.021725953
0.012964748
-0.087134406
0.104045615
0.05307662
-0.0091515295
-0.048743825
-0.02867341
0.030922007
0.07189713
0.027492858
-0.071523964
0.027069245
0.0014806536
0.009376003
0.010533598
-0.033508673
0.00030418485
-0.062160313
-0.14611796
-0.03077364
-0.029492158
0.04968175
0.06381257
-0.022079855
0.035416666
-0.0495758
-0.012792416
0.04152211
0.0063127987
-0.103806034
-0.021770928
-0.07267264
-0.22464766
-0.038079727
0.0016969908
-0.057885535
0.015819808
-0.10440554
0.052129667
0.011398153
0.024151955
-0.010101908
-0.04089029
-0.015964925
0.020674327
0.027915303
0.070253536
0.023198772
-0.026325429
-0.07770945
0.012075017
-0.04134896
-0.022879465
0.05352305
-0.054183073
-0.020315653
-0.053862046
-0.06497625
-0.089491114
0.00786381
0.053516574
0.05178161
0.016797073
0.014381455
0.0039890837
-0.023198992
-0.09924981
0.021343319
0.049679946
0.030437093
0.07694949
0.05633298
0.025023857
-0.071268
-0.056690004
0.014029641
0.016860934
-0.018352298
-0.02761983
-0.04956032
0.016150638
-0.109356634
-0.043593716
0.021893565
0.051586572
0.0035087115
0.010274436
-0.02824715
-0.04368153
-0.0122498525
-0.015039006
0.07087594
-0.000639169
-0.028465724
-0.029923273
-0.11753973
-0.017932355
0.011584482
-0.12991513
-0.046269737
-0.0273074
0.048348404
-0.015494112
-0.026332192
0.013887216
-0.15985756
-0.018147707
-0.03356058
-0.034916423
-0.04332432
-0.08295352
-0.0058209533
-0.045776762
-0.014742157
-0.025513468
-0.023867887
-0.101047315
0.024348926
-0.041898727
-0.024730215
0.007899706
-0.075552076
0.008353755
-0.042411696
-0.071923696
-0.05122957
0.005338502
0.02182569
-0.04918998
-0.06642025
0.083401814
0.0007299816
-0.032124944
-0.052501313
-0.0021388303
0.06340498
-0.053775065
-0.002424339
0.074262634
0.01468846
-0.033924423
-0.07836498
-0.024515867
-0.064257905
-0.017813247
0.10617703
0.051738475
-0.0070327297
-0.065278746
0.026807211
-0.046197437
-0.1493164
0.06559957
-0.02698007
-0.01597457
0.006893234
0.0037001672
-0.048836768
-0.03302353
0.00384189
-0.021948704
-0.031647928
-0.0095677925
-0.036497757
-0.12942976
0.1698508
-0.08101099
-0.01413987
0.064331904
-0.0068135974
0.02890005
0.094330296
-0.0061874343
0.026648128
0.040147472
-0.084852085
-0.020796163
0.05237971
-0.068430506
0.019570889
-0.05879752
0.10107223
-0.034111034
0.008697035
0.013607831
0.021217912
0.012520855
-0.069103785
0.070599005
-0.02236938
-0.0030183368
0.075780265
0.033835907
0.011434171
-0.03361214
-0.04760704
-0.15811944
-0.003266055
-0.05587579
-0.003662117
-0.037114196
-0.08528897
0.017869137
-0.011015391
0.022550745
-0.052882075
0.039015092
-0.011438525
-0.007694172
0.032673787
-0.017878558
-0.03794625
0.023777295
0.032811314
0.010273406
-0.0054484857
-0.0979016
-0.051889285
0.12362036
-0.09027758
0.024715366
0.07820541
0.024561778
-0.016841456
-0.03776941
0.10126115
-0.007899627
0.0948814
