96
0.13642083
-0.7646554
0.3946669
-0.7321457
-0.38185865
0.1234812
-0.12437264
-0.1107682
0.4585921
-0.607436
-0.8832004
0.5907582
-0.38804072
0.22604336
-0.09749655
-0.037310053
-0.15869899
1.1928387
0.8148347
0.95597357
0.34447607
-0.08261568
-0.7848703
0.042634714
-0.12556958
0.6406593
-0.53278154
-0.5468887
0.055853106
-0.014367357
-0.9790084
-0.45081294
1.0611051
-0.014747305
0.19790472
0.26564488
0.4106787
-0.09933858
-0.033371147
0.83710307
-0.4091111
-0.03455199
0.049945056
1.408416
-0.1096053
-0.10909906
-0.020768302
0.48203224
-0.51569694
-0.23739529
-0.38883135
0.14683025
0.06645385
0.11147285
0.38176277
0.0761952
0.04130852
-0.43662253
0.34433812
-0.052430153
-0.45203936
-0.037179563
0.26649904
0.1259107
-0.39738414
0.32485864
0.26768076
-0.28233084
-1.4833754
0.4327328
-0.042534303
0.9365711
0.32039157
-0.65121645
-0.6999178
0.39722103
0.040444896
0.33439967
-0.16038789
0.6066358
0.47643062
-0.22388197
0.83038646
0.3937136
0.73008823
0.17099003
-0.19837151
-0.42165563
0.8822063
0.12026518
-0.48527542
-0.66385245
0.26795617
0.079341106
0.4980623
-0.027477805
