320
0.5852767
-0.29724026
0.41390333
0.02294552
0.1641899
0.50889874
0.26724297
0.32699472
-0.016713692
0.20289603
0.10752779
0.17803372
-0.006567374
-0.4099422
0.03172878
-0.27149466
0.88775605
-0.552452
0.029145172
-0.057344016
0.24190663
-0.2500934
-0.22790235
0.29349452
-0.37613216
0.66761583
0.59307116
0.4666037
0.73195493
0.08264428
0.47437283
0.17422034
0.688004
0.40775362
-0.4740596
-0.028187072
0.03466367
0.47545102
0.08387544
0.41319162
0.09217975
-0.14755161
0.22639054
0.39165244
0.79404944
-0.47879252
0.08772542
-0.16837034
0.059725992
0.3821715
-0.1709792
-0.07404057
0.5685749
0.11828897
-0.0034588613
0.97964954
-0.055887714
-0.03470377
0.33155766
0.04752728
-0.062010456
0.12605835
-0.17285492
-0.7051895
-0.52885526
-0.065841645
-0.4906669
0.36224756
0.60925174
0.1551227
0.489409
-0.17463319
-0.4463458
0.07647563
0.21587163
-0.09686867
0.3363703
0.06613409
0.0895614
0.5691577
0.28586248
-0.03802457
-0.07045805
0.108968504
-0.0069713774
0.27222148
0.12891904
-0.2786082
-0.46793738
0.43133947
-0.20942174
-0.39047542
0.4037727
0.05600371
-0.024927147
0.41373035
-0.016967729
0.4703005
-0.05434278
0.6280005
-0.51012254
0.4161911
1.024238
0.055224482
0.058662523
0.39133078
-0.5520416
0.004530634
-0.11451262
0.28228083
-0.43691084
0.14342105
-0.4883525
-0.16917299
-0.1977556
0.94391614
0.038891133
0.6780824
-0.0016470702
-0.38199544
0.14451319
0.022521928
-0.44382098
-0.47898713
-0.6211401
-0.697809
0.58625674
0.6345595
0.3097279
0.073256545
0.12630889
0.80181146
0.026788665
-0.023472255
-0.16914403
-0.33000097
-0.30216768
-0.40243092
0.11045645
0.5878708
-0.0025983383
0.3622006
-0.6797803
0.43310806
0.33324417
-0.18268475
0.46575934
0.8120276
0.56759155
0.15502328
-0.40081787
0.48861498
-0.33659205
0.29241645
-0.2375482
-0.19916277
0.42540532
0.38288155
0.28112856
0.012719201
-0.02945518
-0.21801333
-0.67809224
-0.3096621
-0.07266805
-0.20124365
0.35391143
0.05872708
0.021424297
-0.31407547
-0.05560062
0.03745603
-0.19328763
-0.045435596
0.10727983
0.48174083
0.2186555
-0.12775347
0.6408796
0.4814976
-0.07087613
0.4908351
-0.3920864
-0.3774201
-0.17901024
-0.40036574
0.36141992
0.023097644
-0.8738493
0.42511502
-0.2604037
-0.22288184
0.4560101
-0.60780793
0.49597073
0.08071905
-0.26260644
0.2558096
0.23495418
0.1863192
-0.32516947
-0.22844876
-0.34622103
0.4822459
0.6070509
0.6123162
-0.58322316
0.12590657
-0.01873248
-0.38032708
0.8610905
0.018628048
-0.43877676
0.16147442
-0.16401635
0.22736225
0.23791718
-0.26224306
0.15350354
0.20961827
0.18650873
-0.36835548
-0.13439019
-0.21821263
-0.31956854
0.084355325
-0.47918403
0.12542813
-0.15773363
0.1800707
-0.4208446
0.4625668
0.006099906
0.48938915
0.36277324
-0.29828185
-0.2369265
0.70760405
-0.41150865
-0.45468676
-0.50853306
0.18649635
-0.040982977
0.033827864
-0.31800878
0.25787368
-0.37517777
0.2582096
0.2159513
-0.21711363
-0.17233999
0.23335038
-0.055782013
0.07321267
-0.12070342
-0.054152675
0.48785535
0.1334017
0.44456086
-0.12888332
0.7400474
-0.71421075
0.33758134
-0.117901094
0.70830923
-0.11662172
0.06984957
-0.26377994
0.5199213
-0.65737647
-0.064576864
0.033260874
-0.18416221
-0.010461797
0.39078125
-0.30787796
-0.04794971
-0.15264785
0.17332506
0.8264094
0.075554535
0.08724124
0.039958395
-0.13473889
-0.46930492
-0.040862046
-0.33573535
0.53371054
0.32361948
-0.24711771
-0.39303976
0.59047234
-0.034826454
0.59883696
0.11793619
-0.44519424
0.8173375
-0.7156504
-0.0844675
0.020636305
-0.25450268
0.7567589
0.24889939
-0.4383784
0.5107139
-0.27052268
0.06750476
-0.45403877
-0.33705094
0.008652646
0.43469104
0.6759378
0.007769667
0.001601914
-0.5132011
-0.3998062
-0.16516764
-0.19213185
-0.28588095
-0.14237
