960
0.07619026
0.0030161655
-0.08254451
-0.103849955
0.062231302
-0.16104169
0.0046018567
-0.05503144
-0.010815665
-0.03296862
0.015618175
0.010121625
0.014037635
0.013823268
0.032338135
-0.13539952
-0.059593003
-0.036637504
0.058026224
0.01449085
-0.07462926
0.02839808
-0.002795877
0.037327565
-0.034027644
-0.016066827
-0.115158364
-0.01543688
-0.006692042
-0.04626938
0.16465127
-0.01533075
0.03516841
-0.0498283
0.00070559303
-0.09035533
0.0438408
0.10277338
-0.004345679
-0.011856338
-0.0660307
0.01319911
0.020796774
-0.050121337
-0.04644145
-0.017138852
0.09624543
-0.024436839
0.048490018
0.0720221
-0.027630942
-0.011122031
-0.12335842
-0.026459428
0.11111837
0.053726513
-0.014010814
0.08883285
0.036660288
-0.07976469
-0.008888073
0.04162162
-0.06879484
-0.2108572
0.031207442
0.04602433
0.024726257
0.027599176
-0.007617806
-0.01863241
-0.17888002
0.050869923
0.066884406
-0.045059834
0.036628656
-0.0326863
-0.042140808
0.073123954
0.014170506
0.12605041
-0.08837087
-0.01886948
0.051552508
0.0035718181
-0.022557084
-0.044528138
0.097961314
0.009777697
0.0025698193
0.07889605
-0.02901812
0.10169698
-0.10462327
-0.0055475114
0.0108673405
-0.018334925
0.05490803
-0.019128917
0.029849198
-0.08159694
-0.08906789
-0.11104452
-0.05171936
0.10372685
7.628958e-06
0.12372431
-0.011714791
-0.046285786
0.061201528
-0.019687558
-0.012343282
0.084926195
-0.042154267
-0.04433512
-0.052616265
-0.2973233
-0.054722257
0.00041089254
0.0019636464
-0.08023869
0.06816904
-0.17458625
-0.046981227
-0.017658519
-0.037233744
-0.11456887
-0.058763023
-0.07296269
-0.018689102
-0.17677224
0.04225546
-0.053451926
-0.009732222
0.09509646
0.020960331
-0.013667465
0.053798296
-0.038586356
-0.074281864
-0.06784447
0.021589084
0.04054584
0.028344136
-0.056897506
0.09143317
-0.19609122
0.024328925
-0.00044334354
-0.08754286
-0.021219548
-0.10475862
0.029159153
0.11694173
-0.02464578
-0.0552344
-0.055138264
-0.031502344
0.07785341
-0.020338211
-0.01514191
0.11738864
0.009678979
0.049976252
-0.044197924
-0.009795467
-0.012457602
-0.11900997
-0.024205716
0.054954216
0.05301946
-0.03709852
-0.1277101
-0.02893593
-0.35939056
-0.041111853
0.017113224
0.00085972465
-0.0137210395
0.07002627
-0.0054136673
0.0006699979
0.006658796
-0.17549357
-0.00033765117
0.09661661
0.042764127
-0.03664785
0.09187549
0.06478662
-0.17007175
-0.1032915
-0.008035226
-0.027757768
0.0024646136
0.016466705
0.022335257
0.040291227
-0.07932027
-0.07732438
-0.024356905
-0.080328874
-0.15619761
-0.074570246
-0.04859416
0.009842606
0.037240982
0.033414166
-0.1437918
-0.14133248
0.043222763
-0.04171004
-0.072200306
0.009861426
-0.024216069
0.062209498
-0.04511948
-0.059749868
0.01712082
-0.031110529
0.0050896546
-0.031321336
0.12916641
-0.14971787
0.023954784
0.009750028
-0.13493301
0.07832225
0.008540749
0.056734975
0.046952125
-0.10564252
0.04923912
-0.1106459
-0.043116994
0.006007098
0.08294971
-0.03877811
0.007327818
0.11823902
-0.04307818
-0.06600092
0.099796616
-0.016590916
-0.021192888
-0.108605996
0.0110194525
-0.034163002
0.088875905
-0.06897458
-0.09234716
0.023311038
-0.14717181
0.020628015
-0.068221934
0.009094853
-0.033947214
-0.10239146
-0.1803515
0.11388557
0.10161238
0.03420384
-0.04513962
0.07349171
-0.054723285
0.06440499
-0.07353208
0.006265956
-0.06298312
0.08029589
0.035972804
0.038559612
-0.08621897
-0.0045270906
0.017722424
-0.06878007
0.101505436
0.015894549
0.032275368
0.0965948
-0.037853803
0.016062776
0.01283841
0.074963525
-0.050968744
0.04982066
-0.025594141
-0.12898996
0.006074553
0.017299946
0.063824825
-0.11299588
-0.017395807
0.066048294
-0.124459654
0.06153023
0.0048725726
-0.08602005
-0.0419093
0.014027601
-0.009230834
-0.114787884
0.064788684
0.13817994
-0.101882204
-0.03486442
-0.011603098
0.03696497
-0.02545047
0.0067550214
0.004979468
-0.045236837
-0.044316027
0.016724098
-0.010315694
0.0007480781
-0.00650527
-0.015746403
0.015477069
-0.105927534
-0.004210369
0.015589548
-0.001305964
-0.10415919
-0.045962296
0.009491708
0.06262999
-0.006135881
-0.0021834397
-0.0013707263
-0.1155364
0.100647
0.17394434
-0.051064577
-0.051984
0.0045723547
0.04104574
-0.019430017
-0.0061920388
0.044074163
0.019211061
-0.033505432
0.11713585
0.015741218
0.01556926
0.045696132
-0.08290011
0.012233873
-0.1229272
-0.018341975
-0.019486738
0.01813776
-0.09071785
-0.04145855
-0.019411774
-0.019341402
-0.08406252
-0.038315795
-0.10835221
0.052931838
0.08843897
-0.07171001
-0.09465114
-0.086607285
-0.076990746
-0.011346138
-0.00280474
-0.1228668
-0.09040773
0.007551825
0.12957764
0.04464152
-0.09431514
0.035967268
-0.0036138147
0.07505718
-0.00070277904
-0.043590736
-0.062842034
0.0701839
-0.07874761
-0.04135702
0.00155157
-0.06060805
-0.041695826
-0.047456484
0.09646576
0.0076450086
-0.020862384
-0.039466172
0.0033472967
0.11179521
0.07666685
0.03369903
-0.05837865
0.051411845
0.0009300909
-0.04459493
0.09554787
-0.03477047
0.027124347
-0.03661399
-0.035564803
-0.00934091
0.04556018
-0.070618205
-0.021876937
0.03150993
-0.07215663
-0.064223
-0.07290408
0.039954726
0.07262033
-0.023155585
-0.014900147
0.0007733578
-0.011464992
-0.012287157
-0.018190097
-0.21312866
-0.063198246
0.07461797
0.11365606
0.026159583
0.042794522
-0.024890456
-0.012210489
-0.017936772
-0.04679336
-0.069841355
-0.060734406
-0.19681746
0.027248517
-0.016143216
0.020064758
-0.04754036
0.0216082
0.12532678
-0.06699148
-0.14315686
-0.03137456
-0.04079332
0.09056162
-0.040112503
-0.07543137
0.08084096
0.07505778
-0.015966887
-0.23767686
0.005967385
-0.102790505
0.058692187
-0.011624326
-0.057182234
0.0042813574
0.08111286
-0.04628936
-0.03555917
-0.011798827
-0.01737472
-0.036735967
0.007158516
0.0050484478
0.0860672
0.0015431752
0.19909224
-0.06791662
-0.07716038
0.031068515
-0.059290763
-0.13119523
0.021057282
-0.056778505
0.02506507
0.032090597
-0.017439568
-0.01094152
-0.006509902
-0.08054728
-0.17804441
-0.05540604
-0.10105106
0.065680355
-0.07118685
-0.032695867
-0.014282931
-0.025966497
-0.03380107
-0.065315716
0.09882961
0.049754307
0.07882859
0.0712176
-0.0013015727
-0.06967898
-0.014322521
-0.038497806
0.006520805
-0.057699792
0.059787933
-0.01600627
0.035703413
-0.123921305
0.05091011
-0.09815637
-0.019695757
-0.05313818
0.11759147
-0.011972627
-0.01305989
-0.24615687
0.043863636
0.026728923
0.013042004
-0.08054561
0.023514895
-0.07619957
0.07649498
0.022278791
-0.06335629
0.06665604
0.013419863
0.059847035
-0.0004747426
-0.029198464
-0.061356895
-0.047555394
0.10206787
-0.035218183
-0.030818015
-0.10055118
-0.005776596
0.0071775876
0.12754668
0.072798364
-0.0527393
-0.025054142
-0.030271783
-0.050670188
-0.03494591
-0.0150439665
0.011447112
-0.057371885
-0.053854614
0.0765243
-0.015498329
0.034274623
0.052236643
-0.0055219196
0.03499168
-0.016138121
0.029049754
0.021629304
-0.0055289646
0.025724338
0.015053131
-0.06163571
0.068017796
0.037141856
-0.11572472
-0.09606124
-0.05839398
0.022302002
-0.1023873
0.012737799
0.061399754
0.024346886
-0.030510012
-0.01918266
-0.09049505
0.088191055
0.042625427
-0.032925464
0.008464443
-0.019961353
-0.098536156
0.06290915
0.117632896
-0.008357222
0.046880234
0.03328344
-0.056442942
0.01306246
0.04479216
-0.063759945
-0.051699154
0.034415938
-0.10900024
-0.050420966
-0.01500626
0.054757286
0.0035032104
0.0060993563
-0.10919812
-0.022520753
-0.035459515
-0.07155133
0.03178691
-0.059874136
-0.029107045
-0.106222
0.084320545
0.0074684764
0.06348014
0.025940537
-0.009537263
0.045138545
0.008482255
-0.01130805
-0.009302489
0.0122480355
-0.010124487
0.042292926
0.08443199
0.061833836
0.03890886
0.0017202229
0.020985017
-0.0034233895
-0.067378365
-0.029654551
-0.022116011
-0.049095362
-0.001616616
0.13721505
-0.108309805
0.095314935
-0.018932294
-0.07876104
-0.05761464
0.011174511
0.03818117
0.0059605828
-0.07736268
-0.020216892
-0.0037707768
-0.05125875
-0.05016666
-0.033674497
-0.0728956
-0.016022384
-0.06813667
-0.069230035
0.10624532
-0.011032964
0.061598834
0.092259295
0.0040527657
-0.018148689
-0.014216473
-0.11947465
0.050988764
-0.077984504
-0.026397068
-0.023205508
-0.031197578
-0.0150905745
0.012707935
0.030546136
0.0036728524
-0.00013862847
-0.15295257
-0.015146851
0.054127567
-0.1059324
0.08386439
-0.12913151
-0.018333051
0.036375776
-0.07578007
0.072781
-0.09472174
-0.10279327
-0.16312967
-0.013736575
0.07278888
-0.09909319
-0.10074217
0.10230717
-0.05579728
-0.048260137
0.01885315
-0.13550143
-0.0002896028
-0.008320292
0.0031434651
-0.031054713
0.02164309
-0.017978966
0.14302275
-0.01883108
-0.016597228
0.074991524
0.033494104
0.05671866
0.031361714
0.04346642
-0.078507185
-0.024680099
-0.012694707
-0.076054856
0.067883715
-0.12181383
0.062128212
-0.025393082
-0.026868027
-0.031812396
0.00031012367
-0.020407945
-0.04997584
0.035704613
0.111872256
-0.07287469
-0.014654521
0.0064043165
0.061795864
-0.020880336
-0.022986645
0.02099149
-0.018623918
-0.12206292
0.023927111
-0.09160321
-0.046543688
-0.13730998
-0.09969379
-0.004408936
0.0015306543
0.009953945
-0.20995256
0.016952977
-0.10781262
-0.010550269
0.0024706114
0.036991563
-0.058679856
-0.046568744
-0.10276048
-0.04422614
0.017022477
-0.049385402
-0.04496738
0.014461546
-0.008926071
0.101414874
0.022893919
-0.12320253
-0.11238864
-0.078285016
0.05522055
-0.048749126
-0.057952553
0.049975526
-0.06937792
0.07607166
-0.14349383
-0.008252794
-0.1101495
-0.036631584
-0.0014658559
-0.10516721
-0.0878119
-0.15594748
-0.06327341
0.062458325
-0.12485239
-0.01052185
0.003244358
0.00047562737
0.018258803
-0.014823153
-0.04074621
-0.17335823
-0.0018743414
0.04809121
-0.114888676
-0.0082000345
-0.108243115
-0.005519818
0.05222047
-0.026872935
-0.006985443
0.009315539
-0.047971692
0.055261575
-0.060345013
-0.044494264
0.035659533
-0.040406026
-0.084567405
0.07412942
-0.025297483
0.021279648
-0.06527152
0.064569704
-0.10105223
0.010952093
0.0033497293
-0.081847526
0.04310109
0.02616346
-0.00911308
-0.037781548
0.024060667
-0.11487648
-0.028299958
-0.116108306
-0.069931656
0.008884214
-8.0397935e-05
-0.20894225
0.028030077
0.05580506
-0.06885183
-0.029402506
-0.052568283
0.0031937526
-0.043946687
-0.018051744
-0.0074226493
-0.00605269
0.0011985018
-0.014604997
-0.001490041
0.038039148
0.06480522
-0.14832217
0.019949377
0.012168076
-0.041771274
-0.024672326
0.06495978
-0.07544803
0.07673856
0.010166648
-0.03710644
-0.008732502
0.00043783826
0.025563369
0.02462053
0.0058976123
-0.04271127
-0.06861848
-0.02294411
0.039243303
0.06018267
0.028786294
-0.014398781
-0.11081923
-0.010485584
-0.032330584
-0.045741282
-0.05232198
-0.06514193
0.016673522
-0.16720246
-0.009066312
0.057917606
-0.0530335
-0.037664704
0.011339602
-0.053671107
0.12500247
-0.0020140556
-0.1257746
0.002155532
-0.045225773
0.025619505
0.03901995
-0.03580851
-0.005882522
-0.044240847
0.04458
-0.11603503
-0.012379464
-0.08725402
0.0016976399
-0.0387423
-0.060483858
-0.060530927
-0.029025914
0.027933072
0.09784895
-0.022686686
0.05661132
-0.047358133
-0.034277167
0.10260759
0.01641981
0.004575425
-0.047887992
0.07049521
-0.08575651
-0.10762025
-0.16623214
0.04420556
0.07623393
0.013492147
0.061543632
-0.030632688
-0.048608825
-0.07849665
0.005048873
-0.040327355
0.012379958
-0.05004785
0.014495776
-0.050343
-0.0113028465
-0.15142922
-0.01953483
-0.0035205786
0.06518039
0.040452547
0.020608148
-0.022204693
-0.10758824
0.022777675
0.057895605
-0.032738887
-0.04448498
-0.016062051
-0.0060153226
0.028590068
-0.0063384213
-0.10333361
-0.14778091
-0.11373929
-0.09175575
-0.037589323
0.05735149
-0.08180758
-0.1102409
0.02917586
-0.097228356
0.039501853
-0.12089216
0.0786122
-0.084275275
-0.061657924
0.056694813
-0.008093135
0.033842467
-0.23086089
-0.0025392273
0.0863172
-0.13321358
-0.15509479
-0.029256819
-0.011605734
-0.025716893
0.051635932
0.08937519
-0.024394538
-0.014425033
0.16196331
0.052278772
-0.05905177
0.06859656
0.012121443
0.018937651
