384
0.03885739
0.23908176
0.17610832
0.44828483
0.372981
0.43390948
0.4022411
0.9817879
-0.36982387
0.3867367
0.51324904
0.20304027
0.3187431
-0.42320886
0.7685636
0.5447219
0.570952
-0.16833848
0.15826434
-0.13344634
0.45263627
0.978148
0.012652628
-0.19290446
0.45888594
0.21346402
-0.85446703
-0.16699483
-0.73005277
-0.040784575
-0.8836841
0.40471292
-0.37199745
-0.20715977
-0.6826034
0.114680424
-0.34418905
-0.4572716
0.7342683
-0.5198305
0.81805766
-0.27012047
0.10127728
0.008766215
-0.66084427
-0.9142609
-0.33744007
-0.8356082
0.0950885
-0.10409561
-0.8243041
-0.49793845
-0.2949727
0.10305849
0.43924835
0.9424113
-0.83525467
-0.52939767
0.41956413
-0.045581307
0.5025659
0.5258375
-0.33344048
0.667011
0.8576234
-0.10773416
0.75781846
0.61796653
0.7449274
1.0406439
-0.6496438
-0.6416575
-0.76918644
-0.06947729
0.32337978
0.5968942
-0.0011440422
0.4967345
0.71818423
0.6832917
-0.66086245
0.62301457
-0.7555976
0.26613715
0.24084967
-0.23556481
0.57603806
-0.5540059
-0.638468
-0.48869687
-0.17041983
-1.0686808
1.2424845
-0.31256613
0.8599379
-0.11136174
0.026648007
-0.43791237
0.67521495
-0.92084163
0.30362156
-0.55764586
0.6279644
-0.6967893
-0.84106416
0.21103825
0.6547594
-0.54718256
-0.38479102
-0.24549586
0.6424751
0.98189557
-0.13905556
-0.15702458
-0.7952943
-0.64393556
-0.5593007
-0.16024986
0.21912168
0.4034499
-0.682019
0.16014668
-0.36903968
0.45001742
-0.0998779
-0.056760788
-0.621465
-0.00027807802
0.45650178
0.5551945
0.84197176
0.6840125
-0.37197444
0.49175912
-0.5933818
0.83859974
-0.46444952
0.38112244
0.17077047
-0.014398918
0.62666565
0.33323207
-0.8862868
-0.35936996
0.81491715
0.58544123
-0.12570575
0.13224518
0.6696997
-0.6469334
0.4731564
0.55805933
0.9499929
0.24227606
-0.8052961
0.66602683
0.3338685
-0.31770042
1.0160148
-0.14296769
0.75664294
-0.83954144
0.6878599
0.071834534
1.0370425
-0.63252795
-0.8728183
0.12541679
-0.33275485
-0.11537357
0.41754693
0.21810675
-0.55660653
0.69698447
-0.8539238
0.7377397
0.5662606
-0.15444568
-0.07409064
0.7948685
-0.1250994
-0.85418385
0.75327873
0.84117895
0.2594828
-0.016226875
-0.058960445
-0.79746693
-0.5419052
-0.15387125
0.050386086
-0.44585222
0.014905456
-0.6219721
0.7326269
-0.7989014
0.55111325
0.44447255
0.47302982
-0.31060386
-0.35389534
0.4925531
0.73837745
0.7575947
0.5398011
0.6956716
0.20825191
-0.19378103
0.7023855
0.6666338
0.93026525
-0.9645288
-0.38851517
-0.60062885
-0.06552965
-0.18268344
0.12774059
0.28546125
0.6624166
0.3448972
-0.11701137
0.5217636
0.3207292
0.38807
0.34721318
-0.7011743
0.23763758
-0.5817091
-0.067273244
-0.93793595
-0.22391133
0.8861676
0.73045695
0.91598517
0.5667392
-0.6813552
-0.2810632
-0.08727808
0.69140494
0.79169524
-0.14863567
0.119734064
0.31329867
0.33246782
0.5719318
0.6624395
0.72921705
-0.10707457
0.29676557
0.41018993
0.8056029
0.66799724
0.4523974
0.7957413
-0.55736727
0.766373
0.43208867
1.0990698
-0.5214238
-0.6183575
0.7699352
-0.605202
-0.47881892
-0.0020454638
-0.6608549
-0.034830555
-0.33233908
0.08139714
0.57827806
0.8223004
0.06256409
0.31272674
-0.2228336
1.0091429
0.9105303
-0.7789733
0.77042633
0.3817728
-0.644554
-0.48437524
-0.74562323
0.18515792
0.83302546
-0.79760987
0.07688384
0.48761702
0.8977137
0.10724259
0.71741164
0.7299824
-0.69011366
-0.058261395
-0.882258
0.69651324
0.95384836
-0.9595511
-0.40779084
0.3216583
0.06755662
-0.54204977
-0.13960132
0.2988345
-0.005145669
0.09399468
-0.052965082
0.76997817
0.5254984
-0.7367825
0.4665189
-0.42563906
-0.21885595
-0.36018515
0.2922402
0.6384308
0.7923427
-0.13393581
0.74320084
-0.29933363
-0.27981627
-0.8579495
0.113823235
0.3829248
-0.7053101
0.9871165
0.115491375
0.021504179
0.7546906
0.36369538
-0.1295854
-0.8545687
0.41411978
-0.33811072
0.48866445
0.8790509
-0.76550466
-0.4605201
0.6252188
0.46820214
0.6148519
-0.19473003
0.79096895
-0.21736127
0.7704308
0.017242923
0.16641504
-0.57752043
0.04862992
0.56050116
-0.7306429
-0.3107891
0.5416062
-0.6409602
-0.38464725
-0.028014548
-0.870396
0.6719645
-0.7572959
-0.836798
0.9761611
0.19626762
0.8278191
-0.64918303
-0.6121334
0.52730185
0.6113748
-0.10537155
-0.34040546
-0.41652355
-0.20867261
-0.5264519
0.7103097
-0.63300097
-0.52571154
0.29298025
0.6090479
-0.36221585
0.6198367
0.39541203
1.099481
0.40672344
-0.9262373
1.2211632
-0.46519032
0.37293723
