384 64 1 1
-8
29
-16
12
-31
8
-16
2
-35
34
38
43
-24
-17
14
32
17
7
9
-16
7
58
-29
-17
-9
25
-39
16
33
-60
-34
20
19
15
-24
0
22
13
11
-18
12
15
-13
-49
-2
2
21
-26
-41
37
-6
5
-11
-20
-21
-24
-5
18
-22
-8
-17
-4
0
7
4
-11
-39
31
-17
-3
15
-23
-8
18
34
-10
29
-48
-31
9
2
5
9
-23
19
16
-21
27
-6
6
-11
-12
-30
7
31
3
-12
-26
-46
31
25
-36
8
-48
12
-65
60
31
6
-19
47
-25
-46
15
-19
1
-6
-8
11
29
16
20
-16
-6
0
-41
-24
41
-24
3
-27
-8
16
10
-8
2
-26
2
31
9
8
11
40
-22
-20
-9
-14
5
-32
-25
-31
4
42
-11
-14
-55
-28
-2
6
35
22
-21
-13
10
-20
-17
9
-25
-22
-8
-27
-32
-6
16
-4
18
29
6
-8
17
-16
-3
-1
-57
-10
4
-5
3
-19
13
10
-10
-13
25
-13
-11
28
23
6
-12
-14
-5
31
19
-13
-16
-5
25
-6
18
43
9
14
-5
-15
-6
-33
3
10
17
-22
1
0
15
-9
-12
-37
-13
34
-11
4
-21
10
5
3
26
6
-25
7
-27
-18
18
30
-24
-2
40
3
-34
-26
19
-16
-2
-13
-24
-21
-8
4
25
14
26
10
-29
14
-26
-16
16
-14
7
7
-7
17
6
36
44
-11
-29
-34
-19
13
-8
-17
-37
-83
40
32
-26
-22
-12
-22
24
12
1
15
-7
27
-4
-18
-32
-1
-29
-22
8
-25
-8
23
43
-44
23
-31
-20
9
-2
5
7
-4
-44
-25
15
4
-3
3
-12
16
-25
1
-6
15
-28
1
29
-17
19
5
-53
-35
-31
7
16
-43
14
24
7
-7
20
-8
44
32
-15
1
-5
7
-9
16
-15
-11
25
-7
-14
-24
17
7
-27
12
-5
-3
23
-30
51
-28
30
32
22
6
5
21
13
28
-8
-10
1
5
9
-17
-57
5
-6
26
-52
-4
2
46
-9
-48
28
-42
-35
3
-69
-16
-20
15
-31
12
8
-22
33
-21
-15
-28
1
-48
10
36
18
-20
29
-51
-50
-12
25
9
36
4
32
-42
7
20
11
9
-2
-62
18
-54
-36
6
12
-4
26
27
42
2
20
5
33
23
-19
17
-16
-16
43
24
-14
-9
9
-1
-4
-42
16
-7
36
4
36
13
0
-29
41
-29
4
-53
12
-17
-2
21
-27
7
22
-25
-37
-16
56
-11
-10
-2
-22
35
4
-32
-27
-16
10
-27
-29
-39
-58
-13
26
-7
5
-46
37
-2
-15
-3
-8
25
-35
16
35
18
23
17
4
-21
-14
9
31
57
-41
-57
1
-18
32
10
-22
-23
18
-15
7
-19
-24
-3
-8
11
19
44
20
-52
-8
0
-69
-25
11
32
-25
20
38
-9
-17
-22
-39
-19
-40
-28
-29
-2
17
-20
7
4
40
-28
7
27
15
-36
-3
-10
1
47
-42
7
3
-4
39
-1
-8
22
-19
15
-13
33
24
33
6
-20
11
5
4
-39
-13
36
-29
-10
-62
-11
30
22
-49
59
-1
1
-41
11
3
41
-2
-30
-1
-18
19
-22
-12
-65
13
-2
11
0
30
12
-36
49
17
-12
44
17
-10
24
10
-5
7
1
-21
7
8
43
-10
-8
7
-2
7
14
14
-12
-34
36
5
-8
9
-3
17
-37
-5
-23
-37
-27
-35
-12
-23
15
-46
-33
13
6
19
-36
23
-22
32
20
26
34
-39
14
4
1
46
-25
-11
-20
26
-13
-30
-14
48
-11
-3
-11
-8
-41
21
10
-19
-54
18
-25
-15
-36
-31
16
-33
57
-8
-18
-51
-31
-8
-30
29
23
-18
29
34
-12
17
-13
-17
15
-45
3
7
40
-24
3
-28
22
-9
-21
19
27
5
6
15
9
5
-4
10
2
27
31
1
-4
12
-12
2
2
-22
-11
5
-33
-16
26
22
15
2
-24
-21
8
3
19
0
12
-26
1
20
33
25
19
-19
4
-21
-5
24
5
-21
17
-26
28
17
26
-18
-19
-1
-29
-11
-14
32
-4
23
-4
24
-7
-35
13
-34
-33
23
-4
4
10
-13
-54
-33
19
4
-19
-15
14
-23
-35
-20
6
38
-51
45
33
6
18
25
12
22
-2
-19
37
26
-16
-13
-3
32
24
30
-12
25
27
-1
-6
3
13
43
25
1
29
-22
20
-22
-56
65
14
-48
-4
12
-45
53
30
-32
-7
3
15
9
30
35
20
-3
11
25
5
66
11
-26
-23
-19
45
7
25
-20
84
-17
1
17
-37
41
-32
10
-20
19
-35
25
16
-96
23
-31
16
-25
20
-13
38
-19
6
11
-22
19
-28
-45
32
-4
41
12
30
-39
30
40
-24
71
5
14
1
-54
-25
36
-48
20
-14
-26
-9
-1
8
-36
44
-51
18
26
58
-2
34
19
1
17
-7
21
42
7
4
10
21
-17
8
15
-24
-5
33
42
4
-26
6
14
-25
-17
23
-8
3
36
10
-16
-23
-97
12
-13
20
14
25
29
27
7
-25
15
-27
-16
3
-50
28
-18
-48
22
-15
20
7
-21
-16
-1
16
-29
4
4
38
-48
-23
-32
13
25
6
8
31
-39
-14
-10
16
-13
0
9
-10
32
2
-24
-12
19
13
29
-17
-31
35
12
-5
-21
-33
-3
-2
21
8
-33
-11
4
-41
27
-12
-7
7
31
-23
12
-56
-21
23
-22
0
3
-24
13
12
-54
-26
-22
11
6
-25
12
36
-16
-15
-34
28
4
23
-7
46
4
-21
19
34
6
-12
38
-4
-15
7
-11
3
-15
39
27
-47
-51
15
11
-13
5
-31
13
-23
18
-5
2
25
22
47
23
-46
-2
-20
-24
22
-29
-35
-10
-33
-16
8
-16
9
-26
46
26
20
-9
-30
15
13
2
3
10
4
22
0
-18
18
-34
11
-11
-40
-64
-43
-37
0
-8
-24
-3
-5
-1
-15
-9
17
35
25
-14
-24
1
30
-2
21
-6
-17
30
-22
-18
11
-22
10
-37
-10
-28
33
10
-31
7
16
22
11
15
8
-13
-15
19
-9
-10
-25
-8
5
-10
-15
11
2
-5
-9
-21
3
-14
8
47
-1
28
-9
-6
17
20
15
32
6
17
-23
11
-23
-16
-4
-16
-17
4
-36
36
-4
23
-18
-19
-2
42
8
-16
25
52
17
22
-22
24
-28
-20
35
-15
3
15
2
0
20
8
54
-32
-8
-6
23
-11
-16
25
-11
-31
0
12
-19
18
-16
10
-8
-10
13
-22
11
39
-6
-1
-16
-4
-28
45
34
0
6
1
12
5
-8
-5
-5
-9
1
-3
-9
18
-33
-2
10
-13
33
-3
4
-8
-13
-13
-6
19
-23
14
-29
-1
5
-31
0
-21
-26
-2
-61
-4
-12
-12
-53
-8
-18
-32
41
11
-17
7
10
42
8
-22
29
-2
-26
-34
-33
13
33
1
11
-25
26
3
-35
-10
15
15
2
29
-2
-13
10
-20
18
13
8
-15
12
24
-13
20
-25
23
-22
40
13
27
0
-22
21
21
-17
3
-69
19
6
10
5
-56
-35
4
-11
22
42
7
-25
-9
31
-50
-8
-1
9
0
-7
27
5
-6
27
8
-16
26
-9
8
15
22
-6
-4
-22
18
16
-17
-16
-5
0
34
-21
27
24
-12
-24
-7
-8
6
-28
42
15
24
-9
5
5
33
41
2
-1
-46
-37
3
12
-41
16
7
8
-11
-8
56
-19
24
-13
2
9
-30
20
-7
22
5
25
0
1
-52
-1
-5
19
-13
-16
-27
-4
-6
-41
26
12
4
-21
4
32
7
-19
22
-12
-23
15
26
-13
-19
5
-3
10
15
2
35
-36
-1
22
1
17
-19
6
-18
1
9
20
24
-15
0
-11
-19
32
-3
4
21
-11
9
23
71
-1
-11
19
44
33
10
-10
-4
19
-16
0
-17
-15
1
26
-28
-7
38
1
-8
10
-12
-2
25
-4
17
5
-57
5
-17
-48
-9
2
-11
22
17
29
23
-33
-85
21
-24
-8
32
4
38
45
11
6
17
-46
5
-25
-41
7
0
-29
31
-20
-36
27
42
16
36
-29
34
10
31
43
-44
-13
58
-57
11
3
66
10
-2
2
-9
-1
-5
-41
17
40
40
35
6
14
-61
6
-6
6
-23
7
27
9
-21
63
-22
29
22
-20
-54
-9
-14
-6
-66
-17
-21
32
-6
-10
21
3
10
11
18
-32
-3
-21
14
-19
-1
-8
-12
-15
10
-11
22
12
3
42
4
-48
34
6
4
10
55
0
-27
-29
22
14
11
25
-9
-35
-45
40
16
0
29
-74
79
-42
6
8
28
-27
1
-21
19
40
-19
-3
22
-10
16
-21
22
-8
1
29
-50
11
3
-67
-3
13
-3
27
6
36
13
31
35
10
-6
-27
-10
32
19
10
-5
-12
46
-27
-5
-10
-39
-24
-34
-34
-11
61
17
46
18
-52
41
-66
-17
-44
28
-31
-6
28
-1
2
1
40
9
18
7
42
34
27
13
-33
1
41
-8
-30
-14
-4
19
18
19
22
-14
-3
0
-10
-9
0
0
-11
-3
8
39
25
15
0
2
14
27
-5
3
6
-17
13
-17
2
0
-36
-5
13
-15
34
-9
50
42
25
28
43
20
34
18
-16
-36
10
20
22
-25
23
-3
2
4
14
10
-26
-10
3
-12
18
14
24
-9
-21
-31
6
2
3
-3
-4
-8
31
24
-8
-8
-4
3
-8
2
4
-6
-42
-16
29
-18
-5
14
11
14
26
6
9
10
34
-20
-13
-39
-13
-13
-57
6
3
2
36
20
2
16
-23
3
8
19
-27
12
-34
11
3
-23
5
-5
30
4
3
19
-29
41
16
-12
32
17
21
-5
-15
39
25
24
-4
-20
12
-13
-3
19
-8
-10
-9
28
14
19
-19
-6
-2
-28
51
12
-6
47
-17
-5
1
24
-24
-38
-32
43
3
9
-12
-16
31
-1
6
5
-23
-8
6
-18
-1
8
-31
20
3
13
-2
-5
19
-4
-35
-36
15
6
10
26
13
29
-11
43
48
6
18
-37
53
-16
-8
-7
-29
1
-41
50
-15
-9
-24
6
-16
-17
42
3
11
-9
22
-8
-6
43
-44
-9
-15
18
-7
-56
23
34
-7
15
11
46
-39
39
-18
-10
-18
-28
5
17
29
23
52
-6
4
-11
-21
47
-19
-11
43
1
27
-38
40
-62
-26
-37
33
-37
35
-9
22
-4
-22
-2
-18
14
-27
2
-21
-15
-31
-55
-5
-26
-9
4
25
3
14
-33
-49
-72
23
6
-10
46
-18
-26
39
-12
58
9
-35
-28
18
8
25
-13
-59
19
34
-12
-17
25
19
-5
54
-36
12
-60
21
-38
-24
-11
-13
-53
-6
-6
-24
25
-25
-33
-16
21
-2
-24
-17
-39
-4
2
16
56
-31
-12
2
3
-15
9
-6
-18
-9
18
3
-7
-1
-29
15
17
37
24
-18
0
25
-1
-49
-5
4
-11
-6
-6
19
-7
-6
-9
-19
-18
-19
-8
50
15
28
-5
-31
28
-33
-16
-13
-46
1
45
21
-15
-17
-2
9
1
31
25
44
-58
29
16
-46
-9
17
-15
17
-45
9
55
-8
1
8
-5
23
19
50
-20
-19
-3
20
-23
5
11
13
18
1
6
-15
3
5
21
-30
-7
6
-27
-14
9
-12
9
2
-8
-32
-12
12
4
-14
10
-35
7
-19
35
21
31
-5
-16
-2
27
-47
12
2
2
7
24
-14
-19
26
29
-13
-31
11
-52
-25
-29
-25
-31
14
-4
-63
-14
57
-15
11
-4
2
17
23
-37
53
-3
24
13
46
28
42
2
17
-32
-36
-24
-7
-22
2
-1
16
-6
26
53
-30
32
-21
-45
28
-8
-19
2
-5
-9
-6
-24
39
-58
-6
22
-50
2
5
-33
-1
-1
-21
16
-8
5
-51
43
2
16
-37
8
-4
-30
-21
7
-36
-35
19
-55
17
-15
3
52
-38
-16
21
29
32
22
11
-16
18
-4
-25
-16
8
-29
-25
2
6
15
-12
-18
-5
-14
-19
-4
1
-27
27
-15
-11
-53
18
1
-23
59
38
17
-22
-13
17
11
-34
-38
-7
29
-31
18
25
-22
47
-17
8
21
2
14
5
16
-10
-5
-29
22
-27
35
0
8
-35
-6
-27
20
1
5
39
6
-7
19
0
-19
-7
14
13
3
-63
-39
40
7
19
-3
-9
-2
6
2
-8
23
-16
-40
-3
7
-14
10
52
-14
12
-48
-7
-31
-16
-37
-8
14
16
9
-31
-23
25
-3
-6
-10
16
-13
20
-12
5
46
11
-8
3
-28
32
-2
-33
16
-3
-8
-22
18
11
2
-62
46
9
18
46
-8
-72
17
-19
19
-12
20
5
-2
31
-22
-35
26
39
8
-50
39
-4
-8
-9
24
-28
16
35
-8
-15
5
-4
14
12
-10
-3
-53
-45
15
16
13
-8
38
5
-7
-52
-18
-17
-26
-31
20
-26
5
40
29
3
16
24
-2
-2
-13
-19
6
26
-3
15
13
-6
2
11
-23
15
-12
1
-13
-32
7
-28
8
38
-23
12
0
16
-5
-22
-5
1
-36
-5
1
-24
18
1
14
12
16
-10
8
-21
13
21
11
-1
-14
18
-29
-7
13
37
34
29
3
8
25
4
18
12
10
-51
-8
35
5
22
31
12
19
8
4
3
-12
-8
-10
8
13
-12
27
8
-14
6
14
-16
11
-3
14
-7
19
42
-17
10
25
-14
8
12
-34
-15
-2
33
18
-30
37
-28
2
-38
2
-3
-25
0
-4
-34
-18
24
11
40
-18
4
-2
18
-11
6
49
72
16
-36
26
-6
23
-38
8
20
5
-8
-16
30
-37
34
13
48
4
2
-23
46
-11
-44
33
10
15
10
36
-18
33
30
7
49
12
-29
11
42
8
-8
-10
43
17
26
34
47
-9
-36
31
18
-29
9
-3
24
-8
-27
4
5
34
-30
10
32
17
9
-1
-7
-55
16
-4
16
34
-25
44
-21
-53
13
13
48
-27
15
19
-27
30
-36
13
31
-20
-3
16
11
-1
24
5
-29
-32
2
4
-18
-8
21
-22
14
14
-33
47
-9
24
31
0
19
19
6
-23
20
-44
32
-49
7
9
24
22
46
17
-10
13
7
-15
4
-29
17
-3
15
19
-13
61
34
-13
19
-33
3
-6
29
-46
0
-10
6
-7
36
9
-23
9
13
23
-13
-35
14
33
7
13
16
-11
-12
31
-3
-13
5
17
23
22
-18
8
7
5
-38
14
-22
-19
26
-13
24
12
5
-27
-54
12
-11
-18
1
-20
6
-4
9
39
29
-2
-11
-8
1
34
-14
-28
-10
31
21
13
26
6
-14
4
-21
13
0
-15
9
9
-45
1
-30
40
-13
23
-20
-15
-21
-7
31
-13
46
-6
13
12
56
-61
17
25
-41
-8
26
57
24
-1
-22
5
2
-10
-7
-24
-22
-25
-31
13
20
4
-11
-14
-18
24
-49
-8
22
42
-10
-7
-55
-4
24
-19
42
2
16
-15
44
-5
-20
-8
-14
12
40
-14
-9
-8
-35
-44
60
-27
-4
0
48
52
1
2
27
-27
-37
-51
-16
-26
22
-40
9
19
23
1
3
-8
-36
11
4
13
5
-9
-2
21
-35
-18
-18
-19
10
-8
-6
-36
-8
-1
0
-4
-16
2
-51
36
-37
-26
28
-11
-9
38
-6
1
-22
-21
54
-10
-14
12
5
8
43
18
18
-31
20
12
12
-25
-18
16
-10
8
-39
-21
47
6
-6
-7
-15
-13
29
11
-6
16
16
25
1
-18
3
-16
-31
5
19
1
-30
-9
1
-15
16
0
-24
14
-9
14
0
15
18
-6
-16
-3
-7
-28
14
-4
29
16
7
14
-21
1
10
-30
35
6
5
29
-12
-2
-3
37
34
-10
34
-16
-15
33
8
-38
11
16
13
-10
30
-9
15
-16
-20
-21
-22
12
29
24
2
16
-38
13
15
-14
-6
-12
-4
-13
14
15
13
14
38
-9
39
8
-17
-20
-9
13
-11
-5
40
31
52
-14
34
38
5
-6
-30
34
28
33
10
-2
36
3
55
51
31
-12
18
-39
-18
15
-6
-13
83
-31
8
28
37
10
4
15
-20
-12
13
-30
15
9
-12
8
-9
-33
11
17
-2
32
-41
1
23
7
-17
-11
28
37
14
-7
2
-4
17
-29
33
10
5
-9
-7
-1
3
15
27
17
45
-13
-9
52
-18
15
-2
19
22
-7
19
7
17
-13
-49
-4
-51
-33
-9
-8
48
-30
-54
28
2
43
8
19
-5
45
6
-51
-42
4
-13
16
6
-21
-12
-4
-13
7
6
2
-24
5
22
6
29
-39
-3
16
-2
-13
37
18
-24
13
21
-31
-28
37
-18
-25
7
4
14
20
17
-25
-31
-16
8
-11
8
59
0
37
16
13
17
20
-33
5
-9
2
-14
27
20
21
12
28
-6
-11
10
-13
-5
-24
42
-31
18
-7
21
-16
-5
-36
58
-18
-7
-5
1
-50
-20
-14
35
-6
-16
-11
-17
-22
15
43
-8
35
-19
-47
37
-16
-16
24
-3
-39
49
-40
-1
-6
8
13
-4
-4
61
-15
-54
-39
6
10
10
10
-28
-32
-21
-25
-24
-29
12
18
-43
16
-16
6
-13
14
-12
-29
-36
10
1
4
-24
9
32
-21
2
29
53
30
-3
73
42
24
22
5
16
3
4
-4
7
4
4
-7
-29
-55
0
25
19
-11
-5
-3
10
18
-24
-43
-7
-6
31
28
-17
-17
-64
25
-20
1
15
24
-5
5
-3
-10
-18
7
-26
26
-19
-24
33
-14
-14
-7
2
9
-12
-9
-3
6
26
-5
12
15
-11
30
-29
-2
45
9
-34
21
32
8
-73
41
-18
9
-1
29
27
-6
-24
16
-21
-13
-19
18
-2
45
-2
-1
-36
24
-15
-32
33
17
-31
-7
-4
4
48
30
15
11
18
11
-4
-28
7
15
-32
-5
-34
-6
11
-11
21
43
-6
-23
8
14
-11
46
-19
-72
-4
-22
-46
0
-12
-1
-29
-16
31
10
38
-41
36
-54
-10
-19
-4
-25
-50
-18
31
6
0
12
-3
-38
14
-64
10
17
-38
1
4
3
8
-13
-4
-63
-31
-7
23
-19
-38
7
-24
23
-16
-12
29
-17
-13
1
1
-24
9
31
17
1
8
-5
-3
-8
-2
22
-22
-23
15
-40
5
-39
35
-35
-23
15
27
15
2
-18
-8
-11
10
2
-12
4
-1
-24
-6
14
25
-13
26
4
-10
1
35
10
20
-5
85
-10
15
0
14
-1
-10
-4
3
2
55
-23
-11
-45
2
-37
51
12
-12
30
41
9
40
21
-27
-5
45
46
29
-3
-28
48
-16
-19
2
44
-15
-26
-7
-9
-7
-12
-31
6
23
-8
15
46
-16
5
3
1
2
-30
-22
8
51
-9
-21
-15
-18
-7
18
-4
49
-11
23
28
-39
14
34
26
10
-22
-18
17
9
-15
1
30
10
-5
-8
-18
14
6
7
15
28
-18
-2
-8
-5
60
-18
-34
-25
23
22
42
18
21
-5
30
10
8
-26
26
-46
41
-17
24
-15
10
7
-28
1
20
-25
5
6
-3
44
15
-53
-5
18
-41
26
5
7
22
-20
-7
6
-20
17
-42
-5
-11
19
24
-61
4
-16
-13
3
-19
-19
-2
14
-28
-32
-25
39
38
5
-12
-19
8
-33
-12
-11
25
-35
10
3
3
-23
-15
-10
18
-17
-13
-20
11
13
-19
-21
-16
-13
22
-19
-4
-11
51
-13
16
12
36
57
5
14
-44
12
15
10
-1
34
-31
-7
39
14
6
1
12
8
22
-5
2
-1
-4
10
-41
14
15
22
31
-32
-22
-14
5
-16
32
53
-1
19
-62
-5
44
22
-5
-27
-31
5
-22
35
70
-20
-15
-6
-14
29
-23
17
-7
13
-31
-9
4
17
38
19
-11
28
25
-2
-23
-8
13
18
-23
-33
13
-21
5
26
23
13
-18
-45
9
12
-7
46
38
13
11
-8
-7
2
26
35
-13
-26
-12
5
-29
-3
-8
-3
31
32
32
-13
-10
2
2
9
40
42
1
-16
-3
18
-7
22
-14
-14
-5
-11
8
-14
19
-12
-2
-2
8
-10
19
-4
6
35
-29
-9
-19
1
-29
8
9
20
3
45
60
-4
15
34
-7
17
27
-31
25
-36
14
28
-9
22
26
-19
-12
29
-13
3
-3
4
29
-38
-53
-8
-19
-21
3
35
-15
24
20
-25
-6
13
5
-24
-6
2
26
8
-36
7
23
-23
30
-31
9
42
4
0
-34
-11
12
15
37
-9
18
36
-10
15
-32
9
34
24
48
-4
-12
-20
4
-26
-4
-44
-49
-15
9
1
33
10
26
26
31
14
-7
-18
-16
-10
33
-9
55
-49
-20
6
-24
36
11
-30
-2
49
10
40
-36
36
-9
-7
27
-2
10
9
-22
-31
-38
1
16
-38
5
-23
-37
-5
-27
49
-28
14
-23
16
-37
21
44
65
-17
-31
-10
-50
2
37
-13
-66
30
5
-44
5
-15
57
32
-6
-20
5
24
-29
23
-11
-19
-13
8
-15
-41
24
-51
-23
-9
22
9
21
-23
-36
24
12
17
-20
40
-36
23
-5
-4
-29
2
-26
-17
27
-16
16
15
-11
14
40
6
6
-36
21
-19
44
-22
-19
30
-10
10
17
-6
9
13
-41
51
3
-48
3
-4
-4
48
9
15
-38
-5
23
-1
-32
-2
-3
2
0
10
0
26
2
39
-51
9
-41
16
-8
-35
25
-24
-24
23
42
-7
18
9
-17
-45
-3
-21
-30
-22
-7
-44
33
-31
-9
-18
11
-2
-7
14
-1
0
19
5
10
1
5
4
-45
-8
25
-13
2
-15
-7
49
-3
9
16
-14
50
-39
-24
-14
4
3
8
2
-7
24
3
-20
5
13
64
47
-27
16
-9
14
33
29
11
24
-11
-31
-33
19
-6
13
10
-12
5
-11
-18
2
15
21
11
7
-21
6
10
30
25
25
-16
-9
-14
5
3
-7
-16
-20
-11
7
16
21
36
-6
-49
-6
2
-24
-16
-26
-9
-6
-38
12
-17
-3
-21
-7
-21
21
-36
37
14
-5
31
-26
-41
-33
12
-28
-2
44
-32
-2
-9
12
26
-11
-14
-22
-8
-24
5
53
-26
15
16
-5
-13
0
-30
4
-42
52
6
27
13
-21
67
-29
-15
-12
-44
29
12
13
48
-65
-29
-48
18
20
18
63
6
32
-11
9
24
-6
-8
0
-33
-24
-26
6
7
-27
-24
10
11
18
33
-15
36
-56
19
-51
15
9
55
-15
-16
-11
28
-21
6
-3
2
-25
-20
5
7
-6
7
-9
24
56
-5
7
10
-58
38
-13
25
-20
3
46
-22
14
35
-1
4
9
52
2
-23
-24
4
-20
-35
-1
18
14
-78
5
-7
-14
7
49
24
-29
-6
1
-25
6
-44
-35
33
-39
29
-6
18
-42
-9
26
-1
25
16
31
-28
70
3
-19
-8
-8
-15
26
-19
1
2
-9
33
-14
-16
0
-2
31
1
-7
-22
22
-29
-10
10
24
-22
-22
14
-33
-7
-22
6
11
24
-8
5
18
-6
-25
-26
-16
-6
-19
-18
16
-13
-8
6
-6
-12
-4
26
-20
-28
-20
-15
19
-12
-26
-44
-14
-27
-14
64
-5
-10
-4
25
34
21
3
11
6
7
30
41
4
-53
-38
-20
27
-3
-63
-7
32
17
40
-15
9
-13
10
8
39
48
-16
12
-47
-30
-55
5
-3
25
-15
8
8
-10
-27
8
17
-23
-33
26
20
-3
-38
31
-22
47
36
33
2
21
-20
19
-8
-21
3
34
9
-34
24
16
9
-9
-19
-17
5
-88
14
-4
33
25
22
-8
-42
15
-8
9
-16
-27
-3
-34
-20
51
-24
-31
21
18
19
-3
16
9
18
-15
5
-46
7
-13
62
-3
24
-18
-14
-16
30
0
20
-54
2
-37
-10
-11
-62
-6
29
-16
-6
-45
-35
-15
-24
13
14
-11
-3
-13
18
-5
-28
-9
-17
15
16
-8
-9
-32
18
5
-11
-4
37
13
9
39
16
-10
3
-16
13
-28
40
-25
7
-4
13
-21
-4
3
14
8
-8
-9
-15
-21
33
8
4
5
-13
-16
-9
-26
-14
-16
-24
13
1
-10
19
22
-5
18
1
-11
-11
-25
11
10
-4
2
36
-2
28
-6
-4
18
-10
13
26
-22
9
-4
-19
-8
-4
-42
-2
0
-15
-35
6
1
-3
-2
-33
54
-1
-1
12
0
-16
-24
2
-30
-29
33
22
18
-9
27
-6
8
-2
13
-11
28
-54
35
-25
15
0
23
5
-26
-19
3
40
-25
-27
-10
-35
18
19
-44
15
-11
29
-20
26
40
-37
2
-3
26
-6
5
0
-5
9
21
-46
28
-3
26
47
-4
15
-41
31
3
-7
27
-16
1
-4
18
8
-27
-40
37
-20
3
11
3
-9
33
0
12
8
-7
47
-17
-22
-40
8
-4
7
-25
0
25
-14
27
21
-3
6
18
-4
16
-17
7
0
-24
5
21
14
0
-31
-21
8
5
30
2
-4
-3
28
29
-9
15
29
-44
-8
-8
11
-10
-26
1
32
-3
-16
17
31
-17
-7
22
7
-27
-18
-7
47
8
20
-25
0
2
45
-9
-9
30
4
1
1
21
-5
-17
33
-13
-34
-17
2
-16
52
0
8
-9
33
-22
18
1
-35
23
14
-28
-19
-12
-13
-22
-12
-7
-2
-31
2
26
1
-17
-25
3
-12
11
-11
12
2
-16
29
8
1
-29
7
-2
29
-4
19
13
-64
17
5
-5
-15
19
-6
4
-9
-35
-16
-6
-33
-14
7
21
100
-39
-6
-18
-21
-25
-61
-40
-22
9
-48
-26
9
-35
14
13
32
-24
2
-12
-62
-10
-22
30
10
-4
5
-3
16
-5
-3
-35
1
26
-7
-15
-16
19
-15
-3
-42
31
24
3
-22
-27
13
0
0
25
3
-14
-8
10
43
-16
0
-36
39
-8
-27
-3
-18
15
23
-5
2
-32
-3
13
-35
-27
9
-13
-10
-7
14
17
20
7
6
27
7
-10
20
2
-3
2
-3
-1
-10
-43
-16
2
4
8
-5
21
15
-15
-10
36
7
-23
12
4
-13
-18
-19
22
-51
9
-16
15
-13
9
-12
38
-17
5
-6
2
-43
-9
-2
-13
39
7
8
-23
35
-35
-39
4
-38
-11
-8
-23
-8
-16
8
-4
-8
8
-10
-3
-21
-8
-12
15
-16
-42
23
-20
30
3
9
-7
-15
-43
-5
3
-45
-4
-7
43
60
-44
26
3
-8
-18
-21
-33
22
36
-18
3
55
-1
-6
21
-11
-9
-44
-9
26
7
2
22
-59
-8
12
-38
-19
12
1
26
-16
-20
-25
14
22
-37
-25
11
2
-3
9
21
-8
-7
-55
-37
0
7
22
-23
48
16
-15
30
-18
-22
-4
-42
-4
-49
-24
10
43
-29
-24
-1
2
28
27
85
7
7
4
-7
12
-4
10
-30
-51
-9
21
-3
43
31
8
-4
28
5
10
-33
-11
-15
17
-25
4
9
29
14
1
-8
10
-23
13
42
-34
-14
-35
-22
29
8
1
-57
4
-25
-32
-11
27
1
-12
-34
37
1
16
-24
-26
37
27
14
11
-12
-4
15
-3
-23
15
22
33
8
3
-44
-42
-14
0
11
2
4
22
-54
41
-4
-7
48
10
-51
-62
-2
46
-2
-18
11
17
35
-45
3
-4
-26
8
-28
-63
20
64
0
37
19
-15
-29
42
29
-30
-11
2
-1
24
-27
11
0
0
10
-36
5
12
23
-22
-13
-19
18
-46
5
8
-19
25
7
-21
27
-63
15
40
4
-14
8
-28
1
1
-15
-16
28
18
-6
15
-18
-13
6
-15
8
-9
-44
12
-27
47
-32
-3
5
-2
7
-2
-28
-37
8
-4
-18
-22
-4
12
-9
21
20
9
-14
22
25
18
-42
-30
11
17
-1
-2
5
12
-15
-22
-10
32
5
-7
-4
60
-25
-10
16
-7
13
-12
-25
-12
-12
15
8
8
2
14
-11
-6
13
29
18
5
12
-5
35
-10
-2
-27
-42
31
-28
40
-8
24
-15
0
-22
8
57
-44
-18
54
-34
32
5
12
13
-14
19
-14
2
-4
-19
-28
-35
-9
21
31
5
19
-3
-3
-30
21
-16
7
8
13
-6
1
19
41
78
-23
1
-26
-13
16
-24
7
-15
3
-35
5
19
-22
-25
19
20
15
42
13
41
-10
46
16
-40
3
-31
0
3
18
10
9
6
-44
7
16
63
27
7
-57
-6
55
11
-35
35
-31
8
4
21
-2
-7
-9
33
-21
-16
37
-35
12
-22
7
-37
-23
3
-27
-16
5
16
10
-5
-9
-3
-35
37
-13
-26
-14
-7
-28
-40
-4
-5
-21
34
-19
-2
25
9
2
-4
-9
-2
12
12
8
-3
-11
-19
14
-33
44
21
20
4
20
17
-6
-14
8
-17
-26
-37
-16
8
5
-2
4
41
-16
2
-2
-15
-15
2
21
-2
-25
-7
2
18
-10
6
-31
1
-38
-19
12
-70
28
43
49
-10
18
21
2
33
2
-26
3
-11
27
30
-28
37
-71
31
-8
-23
1
60
-43
-29
-54
4
22
19
-26
41
-17
-25
-16
-14
1
62
13
-17
-9
23
-15
-43
-39
16
-20
25
-34
52
-10
-5
25
6
-41
54
54
31
3
-51
32
-6
-8
-10
7
42
-1
-14
-41
-3
-3
-23
-13
-7
-1
-37
21
23
0
22
-26
6
-2
33
43
10
-16
-2
-19
24
-29
13
-12
20
-4
17
-16
16
-16
-34
25
27
2
-22
4
7
-4
18
15
17
2
-4
19
15
2
-6
-6
44
6
42
9
20
-5
-7
13
-5
43
-48
-15
-22
10
16
16
-41
4
23
7
38
3
-20
-47
-19
26
13
-19
-11
-22
10
1
-7
-1
5
19
-33
8
-6
-7
38
-9
8
18
2
25
3
-27
-10
22
8
-18
18
6
18
-17
-11
2
-14
16
18
0
-2
4
-31
0
6
1
21
-13
3
10
-39
-15
10
20
31
6
70
19
2
17
3
20
-8
4
-42
-12
-9
-63
22
-49
-7
-37
34
-39
20
-11
43
-9
-12
37
42
-63
16
-39
7
-25
-16
4
14
20
-15
2
25
-8
7
21
-2
26
46
-32
-16
-2
-7
32
-6
-3
-15
10
13
-6
-18
-4
7
30
-5
3
-24
-13
31
16
-23
-5
-4
38
-21
-4
-32
39
-17
1
-22
24
-48
20
7
-28
-20
0
-22
-39
-39
-21
35
-17
-33
4
-6
23
12
8
48
29
-21
40
-34
4
58
-1
-25
21
-3
-28
8
21
49
-12
53
16
-26
0
-45
-13
-6
1
-49
-80
-8
-4
-10
20
-24
-24
2
37
-3
56
-35
23
-5
16
12
-7
1
-2
18
-32
7
10
-4
1
-28
-4
-21
8
21
25
63
-4
1
-20
55
-15
-7
30
2
62
43
-15
7
5
-1
1
10
16
18
-3
-11
5
-2
14
-20
44
-27
-16
-11
9
3
-11
-3
-24
24
17
-5
4
-2
-36
7
1
26
11
10
13
-16
33
-2
6
-15
-68
0
4
3
20
-22
1
-13
52
-7
3
53
-14
30
2
5
12
-22
-16
-24
6
-4
33
45
-5
24
-7
-16
-37
-25
-34
-19
6
-6
28
-7
-12
-36
17
3
23
-18
-6
16
19
1
24
15
54
5
21
-10
14
12
-16
6
6
2
12
18
-34
21
-25
-2
-11
-27
12
-19
31
-16
-9
-9
8
3
-19
-14
22
-31
11
49
-15
6
4
6
-8
-7
-3
-28
1
-17
-68
26
16
2
7
-55
-39
2
19
-25
30
-33
11
-6
-10
-16
7
7
-28
22
-6
-13
18
-11
10
7
23
-26
62
-9
1
-81
-10
-29
4
-25
36
-43
-24
-60
22
8
-27
-12
-36
55
-20
5
-22
-18
-22
6
-20
6
-74
23
-7
15
7
-15
-20
-9
-28
51
11
8
-36
-34
-7
-18
14
-40
-8
4
31
31
-32
-63
7
13
8
69
24
-28
50
14
80
-14
7
9
-33
-34
9
10
-18
14
21
17
27
40
40
-5
-18
-19
-13
6
-2
-17
0
-24
-51
-21
-45
26
4
-12
31
-26
-10
13
14
-9
-7
20
9
-7
-30
13
22
23
-11
35
7
12
-14
18
-21
3
8
2
-3
-28
24
19
25
16
6
1
28
-29
44
41
11
-24
-21
39
-29
-11
66
2
31
76
22
1
-6
-17
-8
-24
-4
-16
27
-15
30
-24
-35
-12
-62
-3
63
18
26
27
-24
-44
-2
8
0
-1
10
33
9
6
2
36
-9
21
16
-47
-10
9
-14
-28
-30
-26
8
10
9
-5
-42
-24
0
22
18
9
9
3
18
-6
-21
52
5
22
-5
5
-2
-3
-8
21
13
-19
-22
3
-52
-2
-17
4
35
-4
-11
32
4
15
-29
9
23
6
14
14
8
-2
6
-26
-4
24
8
20
25
-15
-15
22
-33
13
4
0
10
4
22
3
26
21
12
-21
-7
-8
4
-27
-23
-7
15
13
-16
16
-10
-23
13
22
-8
-27
-38
7
-13
2
8
-9
-4
-18
10
-18
-38
-20
1
-11
-52
-12
-1
0
-25
-3
-11
5
-9
-2
13
17
33
23
-37
-14
-41
-26
8
-20
39
32
34
-3
-10
-25
-5
8
53
-28
-19
18
-17
-50
-10
-4
-16
-24
12
-1
-30
-3
-25
-21
-5
-22
-47
21
7
14
-8
8
-36
30
45
4
-26
23
2
17
-18
12
-11
-27
3
51
2
-14
27
-8
10
34
-27
-9
2
10
30
-2
14
5
-28
-2
10
3
49
-3
26
43
-64
37
19
33
46
23
-46
22
26
-6
-10
-4
-22
67
25
-16
-7
-8
5
-28
19
-41
-54
-16
-25
20
-26
24
11
-2
-11
20
5
1
-13
12
-18
-30
-6
-36
1
-28
-3
-15
-44
35
5
-2
24
3
-6
-12
18
17
-7
34
-56
3
21
6
44
9
-14
-11
-6
-25
10
32
25
13
16
-8
12
-37
32
-20
9
-13
29
-5
6
64
-5
-2
-17
3
-57
72
11
17
18
-20
52
-6
19
85
-5
-1
0
-3
-4
8
-54
5
10
-25
33
35
35
-23
-3
24
4
-3
21
-1
30
-1
7
-34
-26
10
11
-18
20
-58
24
-24
25
0
-20
-65
-34
-43
101
-43
-7
31
-23
-65
-7
8
-4
-2
50
17
-18
8
9
17
17
13
11
-23
0
-5
1
18
-3
-10
-25
-56
-8
-2
35
13
5
7
-21
-24
-11
42
-12
-2
20
-21
-24
-2
26
-52
44
-9
25
-15
14
15
19
-11
-11
9
11
-3
0
12
18
46
-4
19
13
3
12
-6
-8
-14
-1
23
9
17
21
-5
-36
-16
14
15
23
23
-13
-20
17
9
46
-31
5
-55
-12
-31
-41
-2
6
-4
-5
2
-41
-51
-24
4
-43
-18
28
15
-6
-10
-14
-16
37
1
22
-26
39
-10
-7
-23
-39
-4
43
-1
25
-15
-19
-38
-8
-1
-4
-2
-4
-20
-11
-2
24
-2
13
-3
16
-23
-4
51
0
-45
1
12
6
-2
20
-14
53
16
-23
-15
42
19
-1
-38
10
34
1
-58
48
10
17
16
26
-32
9
-46
-2
-11
66
-37
-11
1
39
21
-18
-2
21
69
-42
-5
-35
17
-28
49
51
-17
10
30
7
-62
-15
-23
-35
-26
-13
-23
-12
-24
22
20
9
5
34
-3
-30
18
-21
29
41
19
-4
-39
-4
-28
-41
-25
-13
23
-27
42
-38
-31
-4
16
-28
-16
22
-10
-19
1
-13
-21
-8
-5
13
-25
-21
28
-9
-19
-2
49
-1
-25
-26
3
-27
3
21
39
26
-33
19
-33
32
0
5
-35
46
25
-22
4
9
-29
-11
4
-19
33
5
45
13
-14
31
-29
7
0
-61
-11
-8
-13
-13
7
-3
-20
-9
35
-8
31
-11
-19
9
-16
18
-8
6
-4
-13
-20
30
-2
25
-12
45
-4
-1
24
-11
-50
-4
1
-13
-1
-18
-9
-24
22
16
-29
20
-1
-31
-21
-34
41
-38
-6
33
-44
26
3
-12
-1
17
12
-27
21
23
-14
-8
34
13
-3
-14
-3
4
-11
-35
-25
10
-48
-53
38
4
23
-9
-17
17
28
4
26
2
-6
28
4
2
25
-27
1
-3
-7
0
-15
-18
7
-10
11
31
-23
22
0
17
-17
1
-2
-2
0
1
0
-2
8
38
22
-9
6
12
10
-22
15
-1
-3
-10
16
-3
-13
16
14
-1
1
-13
8
3
-21
3
44
3
-12
0
4
-27
-18
17
-7
-11
-3
6
-16
-13
-14
-11
-13
32
3
4
-16
3
-6
21
-12
35
22
-12
-20
-11
19
-28
21
1
-10
-2
0
-21
-5
32
41
-33
60
20
-14
2
-31
-21
-16
-27
23
7
57
8
22
-5
22
9
-48
-3
-15
-41
28
1
-24
-38
-4
41
-21
-19
32
-11
5
-5
36
9
-16
11
-7
16
-10
3
2
69
-6
6
-14
58
1
-14
42
-45
-14
26
27
6
-26
47
-20
-12
-61
-13
-1
35
44
-11
13
-9
21
29
37
1
23
10
-5
-31
14
-17
52
1
-12
-34
19
-14
-24
11
-53
-20
-42
-23
11
1
-17
39
-21
-13
-22
-12
-15
-15
-6
23
19
-5
36
0
-14
-32
53
2
0
-22
13
-24
-7
37
-20
1
37
12
-14
-35
22
32
-10
-23
31
-48
32
21
-22
-24
-15
-20
11
-8
-42
24
32
-1
-9
0
11
19
14
-39
0
33
-9
-8
-10
19
-22
-31
-15
2
-22
0
-2
9
-31
6
29
-40
14
17
-4
22
-6
-9
-41
-18
1
32
-23
28
-23
13
-48
-22
-1
4
-12
-11
-10
24
-6
-23
0
3
60
-30
23
-42
-16
8
-35
15
-15
-37
-3
-23
-8
8
-14
6
-22
-1
16
31
1
40
-16
45
24
32
-45
21
-23
8
-5
-35
18
5
-27
-2
-28
5
-5
14
-38
36
28
-4
-33
-1
3
37
-4
18
33
18
21
17
17
3
-13
-9
16
-14
42
-12
17
21
-3
19
33
13
13
41
0
-18
-41
-6
36
51
23
23
-42
42
-25
0
-8
2
-1
-8
-10
-21
16
8
-9
-28
25
28
11
3
-17
46
-2
0
3
9
-2
-30
12
24
6
-21
12
12
-35
16
-9
-10
18
-16
-6
3
5
-38
46
37
-18
-42
-8
-13
-31
13
-5
-17
-17
62
-5
13
20
-9
40
-10
-15
15
-20
-20
-87
-28
-21
-55
2
9
-3
22
92
2
3
-13
12
-8
-37
-21
32
8
1
-6
22
-9
-3
22
52
24
19
49
-11
-68
25
21
28
-4
48
-44
6
-11
-32
-7
35
-10
22
-39
38
50
54
5
-9
19
8
27
35
16
0
-8
11
27
-11
-18
-3
-29
-5
5
19
14
32
50
-1
-19
-8
-16
-14
-14
-38
-1
-18
-59
22
12
24
14
-40
24
-1
-9
18
-50
-1
1
3
19
-18
-17
-1
-26
4
4
15
-1
11
14
11
26
-14
-13
-14
-46
12
-7
-54
13
-16
-3
-11
18
14
37
63
35
-15
-34
-11
6
14
-33
7
25
-4
4
-9
18
-5
-37
-31
13
38
-8
-37
-17
43
-1
23
-31
32
-22
-1
6
23
14
18
-9
-6
24
-24
-1
-12
9
-21
3
-43
-13
-5
-19
1
-1
8
-59
13
1
28
-8
24
-15
-12
-18
15
5
3
68
15
-32
-24
-12
-19
42
14
19
-30
29
-17
14
15
-7
-22
-13
-2
-16
-28
3
8
7
-2
-52
-2
-26
2
18
9
-22
-52
-11
-25
13
-2
-27
-23
-21
-33
-49
-22
-26
-9
-14
-6
17
47
15
15
58
-18
-11
31
36
-27
-17
-8
7
5
-9
4
35
-32
-49
-10
-19
14
12
-3
41
18
40
-16
18
-6
5
-11
-8
5
-17
-5
12
19
20
6
34
-4
5
11
30
-11
-9
-5
25
48
2
5
-15
-11
15
-34
-31
-20
-7
-9
-15
14
-53
-23
-22
-5
6
22
22
-5
23
-11
0
-24
6
-3
10
30
40
9
-47
-32
7
-7
8
-2
45
-30
-15
-5
-6
-19
14
-2
3
39
18
3
25
19
-23
34
-17
-53
0
-11
1
3
-24
39
-58
38
-8
7
22
-16
18
14
9
58
40
-21
12
9
5
-14
-26
-16
-18
2
11
-11
58
4
28
0
4
-11
0
11
-28
2
-41
-60
15
25
7
3
7
40
17
34
-62
-17
-23
5
13
7
19
-24
24
15
-7
19
-40
33
-1
-21
24
-31
16
-33
18
-18
7
-22
-7
30
11
-2
18
13
-33
10
53
21
40
17
-11
44
-14
-8
1
-30
-7
0
-15
20
9
-4
-19
11
-18
-13
31
3
-23
-7
18
5
4
-4
-6
17
1
22
-6
4
-17
-4
26
36
-7
8
-18
-5
31
22
10
-13
-1
45
39
-15
6
-24
2
3
-30
26
-6
11
12
-23
44
61
8
-32
4
-2
10
8
-8
19
35
17
-7
54
-6
-8
-34
26
12
0
-7
2
7
-35
8
8
5
32
-15
16
-1
8
29
26
-11
52
-19
9
6
-12
-7
-13
-14
-14
-8
-28
-14
37
-9
2
-5
6
38
15
-4
16
30
30
-12
9
19
11
-52
29
3
3
13
-21
-45
-23
-7
-17
39
28
-42
14
16
-3
14
-5
2
7
-46
1
-2
39
49
-6
1
35
-61
5
-28
2
-32
-16
34
-6
-12
44
-25
3
17
-31
-16
2
-43
5
2
-20
-4
43
15
-27
-2
33
29
12
7
9
-26
-39
-15
2
-30
-7
-13
11
11
26
-7
-31
-7
0
13
6
-28
-2
8
-16
-12
44
8
57
4
15
-13
23
-20
27
24
39
-6
37
28
50
-29
-15
-14
-13
15
-10
8
-8
72
-14
27
20
28
7
-45
7
22
-24
-11
41
-12
14
19
10
-22
54
8
-7
27
-38
-29
-36
-26
-19
-33
-19
26
-45
20
3
18
-22
-56
5
-33
20
-2
-30
15
25
-26
21
7
1
-27
26
-17
-22
12
-10
-25
32
14
-20
-26
6
49
-4
-62
24
45
-27
-19
-34
-5
-11
-25
9
24
14
-14
10
-5
-40
4
5
-39
-27
5
18
-26
-47
-12
5
-1
-7
-18
6
46
0
5
35
2
30
-37
-41
-5
-23
39
-1
-10
-1
-5
9
23
42
59
-20
-51
-34
21
30
36
18
-23
7
19
-1
31
0
10
-5
-21
14
-3
-20
-10
-20
-11
-25
-11
-18
-5
15
14
13
13
-30
1
9
-5
-18
5
15
-3
-1
0
-24
6
-1
-1
-30
11
-27
-15
30
-7
-17
51
-30
14
22
-8
-33
30
3
-8
-11
21
-2
33
11
12
-15
-30
-6
-12
-7
19
-32
3
-3
11
-25
25
21
23
-8
0
50
-12
-16
-27
-24
32
-18
-11
14
-10
-19
-21
33
-6
17
-17
8
-31
-7
-22
1
35
-1
-15
33
-26
35
2
3
8
78
-11
-33
33
-1
-1
7
-33
10
7
-6
24
32
-64
-2
43
2
8
-17
-17
7
23
7
-13
2
7
22
27
-33
7
-8
9
13
14
-27
13
8
-3
-1
-86
-5
21
15
32
1
22
10
-19
17
8
-7
26
-1
-3
20
4
15
-2
34
-11
19
15
6
-33
15
31
6
-13
-46
-21
25
17
21
13
-42
-1
4
-9
-25
16
6
15
6
-17
-24
-8
43
18
19
1
2
12
-28
-2
25
31
0
-1
8
18
-12
1
-3
-31
43
-13
-18
-11
-23
12
12
60
22
26
17
-10
54
-3
15
-36
-9
26
-11
20
-9
-8
-10
12
-5
-2
25
-22
26
-6
-2
-6
-9
-23
-34
12
8
6
-8
14
-16
20
17
9
3
-17
-15
-11
33
-1
-32
5
-24
-70
-15
47
-26
-4
58
-25
-50
-35
29
13
-34
-56
-5
-21
67
17
26
-49
34
1
4
0
-11
-29
26
33
-5
37
-19
-54
-66
-47
3
3
22
33
0
-22
-25
-9
11
-4
-59
-3
-20
-18
42
-28
10
14
13
17
-8
33
-9
-26
-15
49
51
32
-37
-33
53
-56
18
7
-6
-35
-25
2
-15
30
-35
21
-25
12
-23
5
31
-26
9
-23
-6
-37
0
-11
19
-41
-21
-21
2
-6
-36
-30
-16
-15
-17
6
26
4
15
-44
36
-11
-10
-23
-32
-14
10
-28
7
13
10
31
18
-29
33
-21
32
29
-24
8
16
-41
30
22
12
-15
14
-14
10
-6
7
29
-7
0
24
16
53
-17
-8
-45
35
42
4
-6
12
-15
12
26
-2
2
2
-12
-4
-4
-35
9
7
-26
-11
2
27
28
16
8
24
10
-7
36
3
10
3
2
-29
17
43
-27
-3
3
23
16
-12
6
-40
11
-2
33
-28
-55
14
0
1
2
5
-4
5
24
10
13
15
-32
-25
6
-7
0
-34
-6
-8
50
-11
7
-40
-1
-4
-5
15
10
-26
41
10
-24
72
13
-32
-28
-16
-1
-15
12
20
10
18
3
26
47
-10
18
1
-14
-12
27
8
27
10
20
30
18
14
-7
16
13
-35
6
-3
-7
-17
33
-19
18
-31
-22
24
-3
20
-42
-45
7
15
46
24
-39
13
-6
-45
13
0
-6
-45
-34
16
-40
32
-9
2
-38
16
56
-3
12
-2
-23
-28
19
-14
4
21
10
17
17
7
3
-31
23
-17
-51
15
-1
23
3
-16
-7
10
20
-8
19
-10
22
1
-11
-16
-1
3
-17
7
-54
-15
20
0
14
-29
-41
-4
3
-6
1
8
-14
-5
17
-14
4
10
7
-33
-7
3
48
49
21
0
46
-14
5
-10
15
-3
9
-13
15
22
22
15
20
-1
22
12
-24
-11
-21
-43
-19
-23
7
16
28
-17
-7
0
31
2
-16
-21
-16
-12
2
0
-23
-5
15
21
6
4
35
-27
27
-17
2
-2
29
-1
-74
-8
6
-1
-7
4
-24
6
-54
-24
40
-14
-13
-31
-32
4
30
-24
-32
14
-52
-12
17
-2
63
11
-7
-13
33
-12
-14
-53
34
-15
-17
-25
17
-25
59
-27
-27
16
19
-7
3
-45
-26
-11
-47
28
-30
18
4
45
12
4
-26
10
23
24
2
-19
-23
9
9
-30
4
-7
-14
-29
19
28
-25
-37
-3
42
-59
-14
0
40
26
-28
18
68
20
-14
25
14
-7
12
-1
-15
23
28
31
1
4
-8
-36
-21
-6
45
24
-1
18
31
0
-28
-59
15
-14
38
11
5
10
22
-1
-7
-1
10
39
-5
0
16
2
5
-24
-17
-38
-15
13
6
4
22
-11
6
-7
-1
32
-20
-9
-19
54
-2
-11
21
-31
26
2
-13
-35
14
7
-21
30
1
-32
0
36
30
38
-10
-25
-14
-9
-8
30
35
-4
-10
12
0
13
50
-16
53
-18
-76
17
48
-29
44
-22
31
5
35
-4
34
-4
-15
-26
10
-1
19
24
34
29
-23
-27
5
-65
-45
11
11
18
-5
3
24
-9
-20
-11
2
-16
6
-32
-1
35
9
-2
-3
-21
-42
92
-35
19
-5
-15
21
19
10
-11
22
-14
57
-23
41
52
1
-71
22
-28
32
-18
21
21
-13
-5
-13
-24
38
-3
3
15
39
-48
-9
14
-22
4
-22
-4
16
6
-6
19
-10
-31
9
-3
-50
12
-33
-46
-11
-29
14
-12
24
11
-14
-5
-7
46
-1
-3
29
27
-23
87
-17
16
71
19
8
-19
-20
35
15
9
26
33
-12
40
14
18
-7
-10
9
20
-13
34
6
34
2
23
24
-11
-60
-57
15
-5
14
12
15
25
-10
39
1
-34
35
-28
-66
23
-4
-19
-19
-43
-36
7
-52
9
1
-7
41
-12
-6
-40
21
45
24
-15
-16
25
-9
-8
-1
7
-19
-29
-17
-19
-12
11
11
0
21
2
-42
9
0
2
-11
7
3
4
-31
-19
2
-2
8
40
54
-14
3
-4
13
-18
-38
-18
2
-24
-4
15
3
-16
-27
8
-2
-3
-11
-10
10
-9
15
-4
-1
-2
-12
-4
-3
18
-14
-16
4
0
31
17
7
7
-7
-36
13
-2
-6
15
-12
13
22
12
-35
10
16
-14
-18
-20
-40
23
-19
-23
-14
2
30
26
-41
-1
-4
-14
-17
51
-3
-15
-47
8
0
1
8
9
39
18
-25
27
22
19
18
-44
6
0
-30
-4
-32
3
-4
37
-19
-5
-24
-15
23
7
5
2
30
47
-16
-9
-20
1
15
9
33
-1
31
14
43
31
11
11
-1
-3
-3
14
0
-11
6
10
3
-16
-5
1
-1
-1
-7
10
8
0
-22
-12
-14
15
-9
-20
-6
-14
2
8
-3
-24
14
20
-5
10
6
5
-3
1
-14
-13
-1
16
17
30
-2
-8
-11
-13
-8
-10
4
6
-18
-2
-5
-27
-15
11
-25
-18
-1
-39
-25
45
-16
1
-13
16
41
32
-36
6
10
-17
5
13
-7
-20
-10
41
18
-8
11
-4
-21
17
18
18
-17
-9
-19
7
4
-51
5
-11
-20
-3
-15
-43
10
-16
-18
-1
19
-17
12
35
33
-27
57
7
-7
-22
14
2
-13
-10
-35
-4
2
-10
-6
7
21
-4
-38
15
53
12
24
-7
-5
15
-5
26
-50
80
-55
25
19
3
33
35
6
25
-9
13
17
-31
29
2
-10
0
32
-3
5
2
9
10
-8
20
0
-19
-27
-41
0
23
-8
-43
-10
-25
-57
-17
18
-36
-48
65
-21
35
-35
3
-12
-20
6
-2
16
19
-5
-3
22
-17
-4
2
13
-26
-46
36
-22
45
-12
12
-4
-4
0
12
11
23
28
3
-10
34
17
41
29
15
-1
15
23
-17
19
-39
-10
-36
-31
12
-9
18
2
7
10
-2
7
-20
-11
2
12
-3
-8
-2
-1
-20
-21
15
10
-14
0
2
19
-21
-7
-17
11
-19
49
-36
25
0
5
8
-21
1
43
20
27
-2
-3
-25
-21
22
-40
-22
8
2
-2
-30
-2
14
-42
-4
34
18
-11
8
-4
36
-21
-3
26
21
32
-19
-1
18
22
-8
31
-16
0
49
8
-30
17
-29
1
-6
4
-2
24
-7
18
42
-7
-13
-3
-38
7
-14
-7
-23
-17
-5
10
1
-22
-12
-18
-24
-5
17
-51
6
23
16
51
50
20
-2
13
-2
21
-9
13
-30
0
-46
-4
28
-24
-29
9
18
-6
46
-14
-12
17
11
-55
3
11
-31
24
14
20
42
19
-13
-13
-14
-1
18
-4
22
-25
-25
13
28
14
-14
-21
-5
-51
8
24
9
-24
-5
-40
14
-10
-3
-4
37
-30
-23
-8
15
-13
-28
8
23
-7
-14
-10
-24
-38
0
18
34
14
1
9
6
52
13
14
-17
-18
37
-2
17
20
-25
4
-13
-22
-23
16
4
-6
20
-6
-1
-11
-7
2
3
-28
-19
-8
40
-16
-20
-13
-5
-30
-10
18
16
-19
8
37
-19
-21
-15
-19
5
-20
-11
4
32
-11
-57
58
-15
1
-11
-19
20
35
-1
-14
-38
-40
-1
-7
17
12
15
37
-7
-2
-30
-23
-13
14
54
-7
27
-8
3
-8
2
-41
9
6
-16
-11
-10
16
-1
22
3
1
-35
-20
27
1
26
2
-33
42
35
19
19
-40
7
-13
35
-14
5
6
-45
46
-6
1
-26
13
-21
-2
7
18
24
-56
11
50
5
-14
21
10
6
-7
-27
33
31
25
16
-5
-1
34
8
-4
-34
29
-1
-29
-49
29
-31
-18
-9
19
-23
12
-4
11
-7
32
17
-11
-11
25
-14
21
-12
9
0
8
18
-8
-17
-4
-11
9
-5
-8
26
-16
39
-15
19
-17
-10
-30
1
35
2
1
-42
-17
25
4
-8
10
-8
-23
-7
46
7
-4
9
20
16
12
1
13
18
-11
20
-9
-14
5
-7
29
-2
12
-15
22
20
-15
31
3
4
-12
13
12
-31
19
-9
17
24
10
-40
-18
-36
94
-9
-16
31
-12
44
-3
39
16
-14
-9
16
-28
-4
-9
-4
40
0
26
-1
-6
9
-25
-10
-14
7
-52
-4
18
21
31
10
-68
-5
-21
30
22
5
-4
30
-9
13
28
-10
3
16
-10
16
-101
-38
0
28
-46
36
-36
-38
-38
-5
15
1
5
-10
-30
-17
-25
25
-19
25
-30
-10
6
-4
10
37
44
30
23
-31
18
17
-36
33
5
-18
-27
24
7
-3
52
9
-52
16
6
11
23
23
17
30
38
-18
-14
38
-16
-1
0
46
23
-8
-18
-9
-1
30
32
-9
26
-3
30
-4
-9
-11
6
4
-18
2
-14
-3
29
-7
16
-20
12
15
-29
-7
4
27
11
12
-33
8
-10
13
-5
9
-29
-10
53
51
-5
3
9
40
-10
-32
3
-39
-25
38
19
42
19
-20
42
-4
-4
9
56
-7
20
-44
11
12
13
4
24
-44
-2
7
7
7
-15
-4
-19
-55
11
34
11
8
-11
15
-26
-88
14
39
-39
-10
52
0
-19
-44
-60
9
32
-34
0
-22
-15
-31
-41
-7
-31
-57
48
-27
13
6
10
3
-6
-45
41
14
89
31
70
9
47
22
-3
23
11
1
32
38
-21
-34
-77
-29
30
12
26
31
19
-8
5
-4
59
10
-20
-19
27
18
10
-20
29
2
-14
37
-36
19
8
-20
-38
10
-16
-30
-17
-26
-1
-13
33
-19
-7
27
-1
-29
11
22
27
32
15
-26
-4
43
-8
10
9
-13
38
6
17
3
-17
34
-14
0
-45
6
-18
25
34
-32
51
50
16
42
-4
-30
9
-12
9
-20
12
3
32
30
-36
-16
32
32
0
12
-19
13
-39
-8
24
-23
25
22
35
-5
-4
13
8
6
-27
-1
8
43
8
2
6
-32
1
3
-16
-19
40
-5
-22
-41
10
-43
-24
-56
-27
8
13
-45
0
-13
-9
-20
17
-8
-43
-3
22
-8
28
-62
-7
1
70
8
23
-11
-54
-18
5
-3
-31
28
3
-11
23
9
22
40
-6
6
25
-34
6
10
19
-11
15
16
2
-4
27
-23
2
44
-1
-3
9
11
41
-42
-10
-29
-7
-39
-36
-22
-3
-25
20
-25
-31
2
-23
-6
53
15
29
44
20
9
-17
2
-27
-38
-12
-14
25
-5
13
14
17
-30
27
-16
-2
-13
-19
7
14
-27
-32
-57
20
-12
5
26
-10
12
-2
2
-22
19
-22
12
51
26
-6
1
13
17
1
7
-15
-38
16
20
3
-17
19
28
-40
-2
0
-31
-12
11
39
24
20
14
13
-45
15
-26
43
16
35
27
1
9
-22
-26
26
30
-21
-33
-10
58
-16
4
-5
-29
41
-58
41
-3
1
-12
3
-14
22
12
15
-19
5
39
9
-10
-7
65
26
-3
-5
-18
27
-33
-12
1
17
-2
-31
-40
-26
-58
-9
35
-3
-38
-16
-33
23
-35
-15
2
25
32
25
-12
28
-23
15
8
38
-53
-2
-3
-6
11
-46
-21
19
-5
19
-12
36
-52
-22
-5
-5
20
-20
14
-7
28
14
-56
-14
-1
3
-23
47
-24
6
-7
5
-38
15
35
-18
-2
-22
36
30
27
11
-14
35
-35
13
7
3
5
11
7
14
13
53
-1
-33
-10
25
8
5
49
18
12
-7
-14
52
-1
19
-21
-27
4
-8
0
19
32
12
-30
-8
-25
-9
21
2
-5
-27
-20
18
3
-4
-1
-58
29
1
4
23
-3
-26
44
3
-53
-29
17
-62
-13
-30
-16
-2
16
-4
38
18
-1
0
37
42
-20
-17
-21
6
-18
12
-20
34
13
-6
-33
-27
-7
11
16
-11
17
-41
50
13
-52
5
44
-16
12
17
18
-23
29
-37
4
11
14
-10
-12
27
-27
-59
36
-8
-6
-6
29
-6
-7
-24
9
-18
13
11
20
2
27
45
2
-18
7
18
12
-28
-7
38
5
-11
2
-7
7
-12
11
25
4
27
-37
11
-20
6
1
22
-8
17
-7
13
-55
1
-5
30
-11
-21
15
-15
35
43
4
37
0
-17
-8
-40
-29
-15
1
1
-8
21
32
44
-26
-37
-12
19
-31
6
-23
8
0
-24
1
-8
-31
-26
1
-14
12
-29
-9
0
-37
21
-13
-18
-13
-31
-13
2
55
-29
-4
-36
11
-13
-15
2
21
-8
18
22
18
-21
-10
-32
20
17
-26
-2
-8
13
28
-9
18
17
-8
13
17
35
-17
-36
5
25
8
3
8
1
9
20
5
16
1
1
-29
-32
-25
-5
-9
-15
19
-13
12
-2
23
-11
-23
14
4
-11
31
-4
-6
2
-10
29
-56
-45
17
-15
-12
14
10
0
5
-23
-23
1
14
2
21
-29
-11
-19
7
11
14
-13
7
-2
15
-8
38
13
-1
2
15
22
19
-5
24
-7
-13
-7
-20
0
-22
-7
16
-49
-4
10
10
-1
13
-12
4
-13
17
-7
5
-6
20
8
-3
14
27
-32
-3
5
7
13
-3
31
20
33
-3
5
-40
12
-8
35
-19
-1
26
-5
-22
-15
5
-12
6
3
11
-1
37
2
0
12
5
-12
-12
6
-3
11
-2
-26
3
-13
-27
-19
24
-8
-5
-23
-14
20
0
-4
2
24
-9
-26
-3
9
9
-10
20
2
20
2
0
43
-33
24
-16
45
-15
10
14
5
9
-42
15
22
-3
23
-26
-37
-18
-19
34
17
-6
31
-10
-2
-1
-12
13
-25
-32
19
19
-36
-34
34
-1
-43
-14
-13
8
17
24
37
-20
-35
6
66
26
2
-1
-11
71
22
15
2
9
7
-16
-22
-10
0
8
-25
11
7
-40
9
1
-9
0
-11
-29
6
9
-9
-42
-20
5
85
-67
30
-22
10
-17
-49
-16
2
8
13
-22
22
-26
14
18
2
0
25
-6
-12
-18
-37
7
9
51
-22
-49
-19
-15
5
-23
12
-26
-21
20
-20
-32
-22
33
-63
3
2
-30
9
12
3
9
34
18
6
-3
9
-11
-62
-17
47
-48
-38
23
-13
28
-7
-10
-31
7
22
16
-13
6
-27
44
56
-37
-20
51
27
25
4
-26
7
31
35
78
-10
-12
22
-10
-16
3
-14
-28
17
25
2
46
-37
-19
-16
-37
-9
-10
-25
-33
-29
12
10
11
-18
-28
-33
-29
-49
31
61
-33
-29
-3
-16
12
30
37
0
0
-44
41
-12
-4
7
-38
-1
-6
39
10
-35
-19
1
-12
17
30
-20
-11
20
9
-15
-3
24
72
11
-25
36
-15
12
-9
2
-5
17
-18
1
4
21
-29
40
-32
9
6
-23
36
2
-37
-34
18
14
5
-22
9
-4
-26
9
-18
-15
6
-15
-23
10
-10
-25
27
-8
-51
25
20
10
-1
-27
36
35
26
-57
31
6
-36
-18
42
-7
-18
1
-4
-35
8
4
26
-33
13
41
-36
-12
3
-5
-16
-53
-43
6
-30
23
42
1
-24
7
-17
-15
-13
-37
31
52
13
12
36
-14
48
8
2
22
21
-16
4
-1
-17
18
-21
22
-11
19
33
-12
-21
37
14
10
-14
-13
17
0
37
11
4
-20
-20
-18
-17
-27
-15
2
33
-10
7
-17
-12
4
50
22
-17
-28
33
42
-33
-24
-21
-48
6
-13
-46
-5
-15
10
28
-14
-16
-9
-17
-55
19
-15
26
-4
5
-1
-19
-8
-8
10
25
84
-4
-12
-1
-12
-15
22
3
-13
17
-35
16
23
10
1
16
10
16
-28
3
8
-10
-3
-31
-25
-11
16
1
-3
-20
3
0
18
-2
-31
-23
-11
6
4
8
-1
-8
44
2
-23
4
-10
27
2
-27
10
-30
11
20
-7
40
0
7
36
7
29
-6
0
-5
1
-21
13
19
-7
7
-26
-18
-9
-9
4
-38
36
-14
24
-9
-7
11
-45
-12
31
5
7
-1
-6
-5
-12
29
37
4
49
-8
-16
-20
1
-15
6
8
23
16
10
2
23
-15
-16
14
-37
43
31
-16
-27
-6
-14
6
17
22
6
14
4
31
27
-1
22
19
25
-12
-3
-15
18
-6
6
-12
-9
-9
-25
29
-3
0
26
1
-2
26
-21
30
22
23
22
-12
-12
-37
-43
20
14
8
24
-50
-36
29
54
-30
-41
24
-19
21
34
-39
19
-20
-3
31
-7
-15
-30
14
14
-3
18
3
21
10
-15
13
6
-4
-7
46
-33
-2
-7
14
4
-33
-10
-19
-19
-10
-1
-50
19
29
-16
0
17
23
-29
15
4
18
2
-5
-17
35
-5
44
-13
-21
34
26
-48
38
18
12
-39
-8
12
26
-16
-10
-6
-20
11
17
3
25
-6
-12
30
15
-8
12
-6
9
31
-40
9
-2
37
-13
22
6
-8
21
5
12
-7
-23
-26
-41
-17
14
-1
39
-40
4
-18
9
25
-2
-29
37
-20
-27
14
-3
35
4
34
-12
-11
-31
19
-50
11
19
-8
16
-24
25
-5
34
-10
14
5
18
-2
16
12
5
-18
-4
7
7
15
11
0
1
25
-12
19
13
-29
-4
24
-15
10
12
-29
52
24
18
15
19
-6
-23
39
-11
20
-27
62
50
9
-4
-23
27
-11
24
-21
-22
-37
-31
-23
-44
14
16
9
18
41
-3
26
2
19
14
13
-20
1
20
13
24
-14
-26
-15
8
10
-4
23
27
40
5
-5
14
-4
-8
-22
-27
-47
-16
-13
51
2
0
30
-33
-25
-22
-2
9
19
-1
31
5
-23
25
-18
24
6
-44
8
53
-18
-15
-30
-11
-24
22
13
11
-10
-37
-15
6
0
23
38
-2
3
25
27
23
52
-11
41
11
-29
-3
-4
-36
-6
6
21
24
4
-18
46
38
-32
60
2
51
-28
-21
-25
-15
11
-2
-11
40
-11
9
-11
0
-13
-23
15
29
-4
-31
-5
4
10
36
18
66
-46
24
19
45
-16
-53
-9
6
-23
-8
20
-23
-24
7
25
24
5
-2
8
3
12
-35
1
-28
7
-3
15
18
-1
23
29
-15
-32
0
36
-12
23
9
18
-7
-8
-9
-16
40
17
25
-34
12
-21
6
-31
15
45
-1
11
-11
-36
2
-2
8
-31
-18
-24
-35
5
34
-16
-10
15
-47
-6
-30
25
12
32
33
13
2
20
-13
7
12
-9
-22
4
15
-10
32
13
-48
-9
-2
-32
-8
32
-9
-36
-11
6
-29
14
-19
1
-24
-34
-9
-41
28
-23
31
37
-28
30
17
14
-45
-8
-19
-22
15
14
-28
15
-4
-27
7
-11
1
24
-11
-4
-16
1
24
-6
-4
14
-17
10
30
-15
-3
22
11
23
26
7
-29
25
-9
24
-2
-11
30
-4
3
18
-16
12
7
-14
2
-3
-33
-26
-7
-29
-40
18
0
-14
21
8
2
12
22
-8
-7
-21
-19
9
4
21
-34
30
40
0
17
-14
-40
27
41
42
-20
-20
-32
-30
-48
-30
59
-15
-16
-25
-3
-6
-16
-68
18
-12
6
-8
-2
-1
24
-9
-4
0
2
-20
24
-18
-2
-5
3
17
0
-43
43
-3
28
4
0
-10
32
-45
-37
12
-8
10
-1
-24
32
-36
14
3
-18
0
-12
12
-20
-7
-6
37
3
2
6
-30
14
-9
5
8
-38
-16
24
-3
-4
35
6
22
0
14
-33
-19
15
-29
59
-13
81
12
6
-64
-29
13
-17
-28
12
-44
23
-50
33
-1
-31
-67
-20
31
65
14
27
0
-13
37
23
-49
25
-29
28
24
17
-21
32
-9
-6
-6
-11
18
6
20
-33
-9
-10
-24
-15
25
-4
47
19
8
7
-20
6
15
-28
-13
-8
51
-9
-8
12
16
40
18
-23
-37
-4
-5
5
-20
-12
-19
22
-30
-16
11
-28
-21
-3
2
0
19
11
-16
-15
27
-14
7
9
7
-2
-12
19
-38
11
25
12
-39
-48
-28
-9
3
-27
15
-3
-7
9
20
-30
-20
32
-15
-9
-18
-9
2
31
-11
5
-13
-26
-22
-7
-20
13
6
10
-49
-1
-4
12
-53
5
16
24
2
-15
17
4
17
27
7
-40
-12
-27
-26
-24
-40
12
-14
26
4
-14
-12
10
12
-13
-5
-28
-45
-5
14
35
13
-21
55
-2
19
5
-30
10
-1
6
-6
-1
-2
-9
-23
7
15
-3
9
10
21
18
-5
14
7
-17
10
-18
13
8
-73
58
1
-10
-16
-11
-16
-36
24
-30
10
62
62
-23
-11
23
-16
37
-19
23
-48
-9
15
2
-5
-2
45
-14
22
18
2
16
-6
50
34
9
3
-1
15
-15
-20
8
-3
21
34
-12
-4
-9
-20
-18
-24
12
7
-3
-19
25
10
28
7
-61
-30
19
10
-4
24
0
14
18
-16
5
5
28
-12
4
-1
4
43
41
7
60
30
16
-37
-32
-37
45
33
11
8
-5
-48
12
-14
3
-20
33
36
11
-2
21
2
54
2
0
10
6
2
2
-5
-20
0
-2
12
-7
-1
-16
11
12
8
6
-1
-24
4
14
-7
23
2
-23
-46
-24
47
19
-35
-10
0
45
-6
-53
-7
-2
-2
19
1
2
4
21
-10
-23
4
34
43
35
5
-13
11
-2
40
7
-11
34
-15
-61
25
10
40
17
-23
3
-6
-9
7
14
-2
13
3
20
14
28
6
26
12
5
-23
-17
-8
10
-3
6
26
-10
-11
6
8
13
65
-27
-10
4
-6
-12
-16
3
1
-17
-12
13
-21
-16
-65
-16
7
0
-56
-21
-1
-18
8
50
13
-27
-7
9
-18
24
-1
-4
0
5
8
9
-5
13
20
21
-4
-14
-20
-1
-28
-23
-9
-39
-14
2
0
-42
4
-10
4
8
30
-8
5
9
16
5
-13
-1
-28
-2
-12
-10
-25
9
-24
-30
-16
27
-1
21
-19
14
-22
-16
-13
-7
2
0
0
-20
-8
-10
-12
19
5
2
6
-10
-29
22
-20
-37
-8
26
-5
47
-12
21
-12
-7
6
4
18
-12
-7
-20
28
2
5
4
-11
33
3
-29
20
7
-18
-29
18
48
22
25
-5
-23
12
-8
-31
-33
-1
-13
21
-11
38
0
-19
8
-21
-24
26
35
33
-27
-11
-20
-23
0
-15
-17
13
-19
-38
4
-24
-7
27
23
29
25
-6
30
-39
2
-9
-8
-53
8
-42
-21
-39
-1
-7
-7
-27
-7
-15
10
-27
-23
-3
-14
25
-3
30
-13
-19
1
-3
-3
-7
-13
-15
-35
16
7
-13
-3
-9
-33
-31
-4
-27
-8
2
29
-2
-3
-22
16
13
19
10
0
49
6
-41
19
22
13
22
-7
7
4
-18
-1
1
-9
-20
8
-4
4
-11
23
0
21
-13
26
14
-44
-28
13
-11
22
-23
-23
8
-11
-19
-3
30
-4
-12
10
-16
22
39
49
47
14
-14
29
-19
-25
1
9
7
-26
17
-8
25
0
10
58
-33
1
-34
25
-44
-50
23
33
-30
8
35
-28
-12
-7
19
-8
-22
-8
-6
-2
10
16
14
13
-1
20
-17
3
-19
-2
-21
-9
21
1
10
0
14
12
-14
29
8
11
-18
4
-3
-1
11
-16
14
17
2
32
24
-11
-33
-34
7
-2
-18
19
35
13
-32
26
-43
11
7
-11
7
43
-2
39
-12
-10
32
-19
-52
-4
8
-11
12
-7
-43
18
-6
14
10
4
14
32
17
-11
13
24
-14
-18
20
22
-46
-12
7
13
-13
-14
-7
13
9
-20
3
12
24
-4
-9
-3
33
29
-23
47
5
-2
-1
17
5
-14
1
25
7
-27
-13
-29
9
-34
51
-48
14
10
1
-28
33
6
-10
-21
9
8
27
18
14
-20
15
9
-16
-44
-40
17
-29
-17
-16
32
1
18
-22
-18
18
-4
5
17
-19
-15
-29
30
17
14
-13
-56
-6
3
-17
1
25
24
35
33
-19
19
-15
-9
40
18
17
28
-3
11
-24
-69
13
25
29
3
30
24
-39
15
-20
16
-14
3
3
11
2
19
-8
-7
-12
29
10
17
6
-12
30
-13
44
-22
34
17
-53
-18
25
57
-22
-9
6
-32
-39
5
35
5
9
-28
11
18
33
-9
-35
6
-38
10
26
25
-33
-16
-13
23
-6
60
-16
-16
15
25
-24
-3
32
-24
-26
10
23
-2
8
1
11
-30
17
2
-24
-79
24
-6
42
2
42
8
-5
-15
-8
-6
-13
19
-14
-12
2
-4
9
-12
-32
-21
-6
-19
-27
-16
-36
38
19
7
-14
29
-16
-25
-40
33
-20
-24
-26
-86
-26
-10
4
33
-32
-19
14
-27
37
-24
-30
-64
-20
-23
0
-1
26
-17
-10
11
24
-7
29
-2
-4
-23
14
-4
44
-15
48
-30
28
10
16
-9
-5
-26
13
-4
27
16
35
-16
-11
4
7
5
-7
-23
11
7
-7
8
-32
-49
-11
-2
-7
-29
-16
46
-10
24
18
51
20
-35
11
1
68
-33
15
5
13
14
-33
-19
7
3
-7
10
-42
-2
-28
25
22
20
51
-26
8
12
-32
-8
11
-3
6
3
-14
-32
-30
-41
11
6
19
-10
55
-15
0
23
29
-2
-21
31
13
-23
-42
-5
24
-32
23
-1
11
-22
-24
-39
38
-4
17
29
-19
68
5
22
-8
16
-7
6
-49
35
-24
-1
-20
5
-22
1
22
-18
13
-7
2
43
24
20
12
25
-11
44
2
21
3
8
18
-21
-16
-5
-3
-7
31
-1
22
26
31
22
44
-32
48
20
26
39
46
25
-13
4
8
5
36
-32
1
-7
-16
-21
-6
31
21
38
-6
32
-33
-38
-8
20
18
1
5
11
-20
6
-24
-15
9
-15
20
-13
21
2
-31
-10
-40
-9
22
3
-8
-5
14
-53
-45
64
43
-37
-11
0
7
-63
-19
9
-15
-30
-9
55
2
21
36
-56
-32
9
-42
-1
-30
-9
62
9
-6
-34
-9
-63
27
-21
-26
-38
2
-20
-2
-1
0
-1
40
-31
37
-20
21
11
44
16
2
-39
-10
14
38
70
-12
40
-2
-35
9
24
-31
16
-9
-14
-2
-7
12
8
21
13
-60
0
-9
-13
-2
-20
-3
42
14
-38
20
32
-37
9
-36
9
-7
21
21
-40
0
20
6
4
-19
-21
15
52
21
-52
15
-3
15
-45
28
-7
-15
-8
19
11
39
-34
17
40
-23
-25
-6
37
-53
-47
7
14
-18
14
-29
29
-9
18
8
-26
-51
-12
23
-38
27
15
-63
25
-79
39
-13
30
29
-33
9
-16
26
-10
-36
22
-33
16
58
42
-82
-32
-49
-6
5
-4
-7
6
21
-9
-13
14
17
-3
14
16
48
-12
38
-16
24
-41
11
-1
-20
6
20
-14
-6
14
-36
-9
-2
25
4
-69
37
30
3
32
-39
-37
36
-16
-27
-44
-23
-23
15
29
-37
55
-6
9
20
3
-28
14
36
-18
-19
-2
36
0
-26
-52
-8
24
-10
15
51
-35
11
3
42
-19
-31
-34
21
-29
11
25
-44
38
11
-4
-1
-14
-17
-12
-15
19
54
-1
3
-8
-27
13
35
54
41
7
44
36
9
10
-9
-15
11
-9
2
-2
37
40
4
28
-3
32
0
31
-21
16
15
23
26
-14
11
-12
14
-2
59
8
25
1
-10
8
7
51
-70
26
7
20
-22
19
13
-8
16
13
-15
18
-23
18
20
47
-45
-9
-21
13
-29
-62
-2
4
-28
-60
-18
14
-20
-10
24
0
29
-9
-46
-1
5
8
5
44
-2
-20
33
-44
24
-9
-3
-21
9
-22
26
-11
28
25
-35
21
7
-8
-48
16
8
1
48
10
19
18
-42
54
-16
-8
17
-75
-26
-15
-15
12
11
21
-7
25
-24
27
1
-9
2
11
-1
53
42
32
16
6
-16
-29
27
3
-25
11
5
17
7
33
8
6
-10
26
40
36
10
-26
0
-13
39
-19
-19
-20
34
32
2
-40
12
0
-29
-34
-4
-9
-30
20
-3
-21
28
-8
-5
2
-25
-21
-7
17
-4
-44
2
-18
-10
16
-7
34
-20
-13
4
3
21
47
23
-52
7
24
36
23
38
-16
-44
-10
26
-50
-20
-23
27
3
-37
9
37
31
-57
27
-16
29
12
-15
-37
9
24
22
35
-13
9
25
4
21
-21
-1
-4
-24
50
1
-14
2
-14
22
3
-43
39
-17
-8
-20
-2
-10
25
-29
18
-50
9
-27
-11
-26
-23
-5
-7
-37
8
11
27
9
-46
-9
15
19
5
-40
7
17
19
42
-32
-29
-33
-25
6
32
-2
-20
13
-5
6
5
18
1
12
11
-17
-50
18
-5
6
10
10
-28
4
32
-5
-20
-16
15
36
37
16
27
26
-14
-24
-7
23
25
-22
22
3
7
15
15
0
-12
-22
18
9
31
9
5
6
-46
-19
19
6
26
-22
17
31
-42
10
-25
7
4
0
-45
-28
47
-15
35
-19
-61
28
-23
7
-36
27
2
-31
-6
-51
-15
-23
-55
-3
14
25
-13
-6
0
-22
0
-2
-41
16
0
4
19
22
7
16
8
-2
-10
-11
29
38
14
22
32
22
-15
37
-39
5
-22
-39
-33
34
-14
-3
-13
-35
31
-18
16
-14
-2
33
13
37
51
-21
21
59
-21
48
-2
23
22
6
14
-17
2
36
6
9
-21
-30
-41
8
17
4
-28
26
-64
7
-5
-4
22
-25
-2
-6
-13
-7
-15
9
-2
-2
-28
25
37
-34
3
-27
-24
-6
-6
-18
-25
-11
20
-17
3
-64
-2
13
42
-14
28
21
-40
-17
-39
-48
27
-24
-12
-31
20
14
-6
16
8
-1
-44
-74
-12
30
-11
22
-5
-9
23
-39
-6
-25
3
46
9
-21
-8
10
-19
-6
26
4
-26
-26
5
-3
-11
-2
2
-12
-9
41
22
30
34
22
-2
6
-1
-22
14
13
-10
5
7
0
9
21
16
-16
4
12
21
2
1
-21
17
-5
-22
11
1
-20
-2
8
22
38
17
-22
8
-7
13
23
-7
32
8
40
1
5
20
18
-19
-13
-62
-19
-33
17
16
15
52
9
-26
21
-24
-44
6
10
16
-6
-60
18
15
11
-3
48
14
-18
-14
28
-5
-15
-36
21
44
-45
13
17
27
-9
-5
1
1
25
-13
12
-27
14
15
3
82
6
2
55
12
-16
-16
-22
-27
-26
-31
-45
4
0
-11
27
5
5
16
40
22
7
9
-13
15
7
-8
13
37
-29
1
-5
0
-7
17
-3
9
16
49
25
-4
-25
8
8
-11
-13
16
-20
7
7
-4
6
-12
26
9
4
21
18
41
-34
22
-13
4
-4
-12
11
-13
5
8
-1
54
22
-19
16
16
4
-16
6
-54
-2
1
-49
32
15
-15
2
-24
-8
-16
-1
-47
-1
4
5
-5
42
29
-24
-7
25
5
-5
-30
7
15
45
4
21
-23
-8
36
-35
55
10
7
-7
-10
10
-20
-3
-4
-17
-40
-37
15
24
-27
-15
-1
0
-12
8
19
-17
-54
-2
15
20
-32
19
51
18
1
-29
31
21
-7
14
-57
0
-42
24
-19
-22
0
45
61
-16
23
-32
-18
29
-19
18
-17
12
9
-33
-48
-32
9
-37
11
-18
-18
-30
35
0
0
16
5
-53
70
-42
33
19
-16
29
-19
12
-2
38
-5
-25
-35
76
-15
-4
-49
-10
12
39
-15
-1
-20
45
4
-13
-2
35
32
-3
-5
24
-40
4
21
-37
-27
9
-9
-33
-28
16
52
-14
-16
-11
20
-7
-2
-7
-4
4
38
-6
-51
-1
18
37
-25
-8
-9
-9
26
5
28
42
-17
2
26
-19
-23
5
13
0
12
17
-1
45
-29
21
33
21
-15
3
17
-14
-34
-25
-37
-5
29
50
-12
14
11
17
-2
-47
31
-1
20
22
12
-26
-7
-8
-34
25
-21
17
9
-12
-20
1
-10
-14
14
11
2
9
-29
-16
29
19
12
-13
-12
61
1
2
-12
43
12
57
-7
39
10
-41
18
-22
-43
-13
9
-1
13
13
-30
1
-16
-36
7
-10
9
-4
11
-2
-16
-25
4
6
-5
5
47
-26
1
-32
24
8
57
-23
-45
19
-25
32
-9
-8
-15
27
-5
-35
-31
8
51
-19
9
8
48
6
-11
40
-18
1
-45
50
-11
-30
-13
6
-37
-22
29
-3
-21
30
-7
-6
-33
25
5
-52
8
26
-33
50
27
1
-19
-36
-22
3
20
-29
-38
23
31
0
24
-17
12
0
16
-3
-11
20
-9
16
-3
30
-83
13
-19
-28
-22
-13
-15
-39
50
39
66
31
-48
-11
25
-19
42
-10
-30
24
43
28
-4
13
-8
-15
45
16
50
48
12
6
39
-3
29
46
19
-6
-32
6
-17
19
-56
-18
-24
21
-6
24
3
17
-24
17
-7
-3
-8
-13
4
10
29
-5
24
-31
-17
-1
-21
23
-19
-8
16
-11
16
19
34
2
39
-12
-41
-3
-24
-23
23
13
28
26
1
12
3
-17
8
17
-13
4
20
40
24
48
5
52
-34
-21
33
-25
10
-41
17
-19
12
2
14
24
-29
-14
-15
0
-11
-29
-14
-4
7
39
-9
1
17
-7
-2
-2
6
21
20
-19
37
-8
-37
8
-11
16
-15
13
15
1
-26
9
23
-11
26
13
26
24
-4
-4
23
-18
18
39
15
-1
-10
-20
-1
-31
-13
-28
33
-24
0
-35
4
16
-4
22
12
6
21
82
-36
-4
19
-16
16
-17
24
10
-1
-19
-4
4
6
-40
-10
-28
15
-22
-32
52
7
22
-42
9
10
-19
8
13
-4
-17
7
1
-3
6
-12
27
37
-30
-2
20
-6
28
-12
-7
12
10
-7
-4
5
4
-57
30
-1
34
38
-3
-11
9
-60
10
20
3
31
17
-15
-22
-11
-3
-25
29
-27
-25
-30
18
10
6
5
-15
4
11
-24
10
20
-20
15
33
-22
10
20
25
11
-42
21
8
-5
27
30
5
19
-15
6
12
12
-2
-11
-3
-18
-31
-6
28
12
34
31
25
24
33
3
9
56
-27
-38
-31
32
37
-20
-32
-6
20
19
-28
33
4
33
1
16
-4
-6
-21
-20
-25
26
-6
5
24
-10
-4
-25
37
11
-16
4
-17
18
-13
15
4
5
-28
-6
21
-3
25
-23
32
41
15
14
4
1
8
2
-14
-15
-20
18
-19
-50
-25
6
14
-17
-1
37
-11
7
26
13
23
-11
-2
-65
-21
4
-19
-7
-9
-25
-13
-26
-76
-6
10
-16
-28
-19
10
46
-1
44
-5
28
-19
18
-37
-4
40
4
-36
14
28
23
-8
17
-14
-50
0
0
-4
-34
-22
-5
22
-7
-13
42
-8
28
56
-14
26
69
52
43
-27
-61
55
-39
22
24
2
-35
-38
57
-32
40
34
20
-53
-12
-2
-1
-3
6
40
36
10
1
1
-31
13
-18
64
9
-42
-4
-52
-25
8
21
17
-5
-15
-4
-23
3
16
8
32
-36
-1
-35
-33
-33
-6
7
-13
-27
-12
7
-13
27
-15
-42
12
-6
4
-17
5
8
30
-65
-30
10
20
-17
10
27
6
22
3
1
-3
16
17
-7
17
-5
23
33
-18
-30
42
18
-12
-12
12
-26
19
22
-17
-27
-16
37
18
12
1
-9
0
43
-14
4
19
24
20
-23
-3
8
-24
14
-7
8
-6
13
-10
-1
31
37
-5
-31
-26
-10
-7
-1
40
15
3
-3
9
11
-9
19
5
-15
-6
-42
15
-6
-19
52
33
22
-9
23
1
-31
7
-13
9
-17
-42
-12
27
-1
13
10
-8
-13
15
10
5
17
17
-19
-48
-63
38
35
0
1
13
26
3
50
-24
-21
2
28
-21
1
17
-20
-11
-7
-36
15
26
6
30
35
-9
5
10
-26
19
18
20
7
-22
19
24
-37
8
-22
11
12
-9
-25
-19
18
4
30
5
-22
-18
-20
-18
7
-11
-30
5
-25
7
3
-28
15
28
-10
-4
62
-17
26
-2
1
5
7
4
40
-11
-1
36
21
8
-10
-7
-13
-16
-13
25
17
24
-8
-22
0
-26
41
-17
-25
-6
-26
4
24
17
41
-32
-11
16
-25
9
-40
-3
19
9
31
28
-6
-20
16
7
8
-1
-21
-33
-5
8
24
2
-23
-28
30
15
2
0
2
16
-3
4
-6
-38
-12
3
-1
-5
20
-6
27
-19
13
-9
17
1
26
0
-8
12
-12
-8
4
4
3
7
7
8
41
1
6
-16
15
-7
-48
-7
12
36
-44
13
-9
10
37
-3
-67
22
-9
5
-16
-10
-13
9
6
7
7
-30
-1
2
36
34
8
20
-9
-15
-14
11
-18
8
-15
-40
-3
4
-9
-30
11
3
19
24
23
40
7
-11
37
26
15
27
-8
30
-47
-13
49
-18
-5
-8
-25
-22
46
25
13
-7
21
-11
2
18
-12
56
16
23
53
-17
-23
-28
-2
11
18
-26
30
-7
11
-18
-6
-28
-19
5
-18
2
5
-51
-29
16
-7
-5
1
-20
-11
8
-37
18
-60
32
13
12
-22
-15
28
40
17
-26
-9
-39
7
13
20
-14
8
20
-43
-9
0
21
26
-8
-19
1
-8
-21
-2
2
7
-16
-17
-5
-38
3
10
-7
-33
-27
-12
-8
20
16
-14
11
-15
28
4
-39
22
23
-7
-43
-15
32
25
-10
25
0
43
-23
3
-9
-24
21
23
12
14
-41
38
19
-26
15
-2
14
37
10
-5
20
-24
11
23
33
-35
1
5
-16
-18
45
-11
72
10
-26
5
45
-9
-15
27
-32
9
1
-12
42
3
-10
4
14
-5
7
17
2
-16
9
8
-8
22
18
4
-22
-18
-7
28
3
38
10
-9
-21
2
56
3
5
59
-16
12
-5
-15
31
12
30
-5
2
-21
-1
-22
14
-3
13
13
4
8
-9
-11
-6
-5
4
2
1
-15
22
3
-13
7
-4
4
-19
-4
1
15
-16
-16
37
-25
5
26
15
6
-7
-6
0
3
-2
-9
-29
-5
-13
-5
-2
2
1
-12
13
31
6
-20
9
-18
-34
-4
21
-2
-4
45
-34
-22
-6
3
-28
-14
5
-21
-9
17
20
-23
-24
35
26
-8
-8
31
6
-35
-13
56
-12
1
-10
-27
17
20
-60
9
-58
8
12
11
28
-1
-3
-22
-40
-36
42
-14
-31
-18
-17
-80
-1
-22
-32
-29
4
-30
-11
34
-11
-2
-17
-9
-11
-2
49
-1
-19
-26
21
-13
-54
5
15
43
5
-12
-67
19
30
19
-19
26
29
1
2
-15
32
-1
-22
16
27
9
20
1
-13
-20
-14
0
11
-38
-7
10
11
-38
-12
31
-14
17
23
10
-4
23
-26
-2
-14
-19
-32
-4
-10
-29
-2
-13
-3
-9
1
-8
37
-7
-31
7
18
10
-2
10
25
-9
29
24
-16
-16
29
-66
-23
-12
-45
14
21
6
2
-28
36
-31
-32
-8
-38
-4
-43
-36
21
-31
-18
0
30
-37
0
-12
25
23
3
-3
1
18
58
36
11
16
14
-6
-29
-23
-27
-11
18
-19
-35
-42
-13
-67
-6
35
49
-21
-12
-20
10
-33
-48
-10
-13
0
-3
37
-22
15
-20
2
0
-6
-42
-18
-8
67
15
17
-3
-21
-22
15
-22
-35
56
19
-4
-37
23
-2
-13
-9
-15
-10
-35
23
32
-43
3
-26
10
-12
6
-8
52
-10
-24
30
10
-2
-40
-39
3
25
26
49
-27
-6
-8
2
-31
-52
25
-24
7
-22
11
-47
-6
11
-32
-10
-31
-59
32
24
1
-25
-25
-15
-7
25
3
-18
-6
20
-14
18
2
30
-3
5
0
23
40
3
24
-13
-4
9
-5
-2
15
-3
-9
-7
-19
-3
12
15
38
29
-7
-28
-13
3
16
17
-20
-15
18
-8
40
31
-22
-17
34
-2
19
22
5
-4
38
-23
-3
17
29
-16
-23
25
14
13
29
19
7
0
-6
9
12
-12
-38
-1
-15
22
-7
-7
13
18
5
11
35
-30
4
-13
16
-6
-8
16
3
26
17
6
3
-34
7
-2
17
12
6
11
-3
17
6
-22
-26
1
-10
-24
-7
19
-27
8
-5
-8
6
8
-9
-12
2
-42
-14
11
33
11
-28
45
-35
-23
-18
22
-5
-34
-4
12
49
-1
1
-13
-9
21
-12
0
37
14
-17
-45
-9
-19
11
-4
-34
6
58
-50
-19
-3
-32
19
17
-5
66
14
-25
-12
4
12
-62
35
-3
9
15
13
7
-28
-23
-36
34
-40
-19
8
27
19
32
10
24
-35
45
-51
-28
3
11
-26
-6
-3
-29
1
-12
27
-31
-33
7
4
-28
-45
-30
-38
61
42
11
-16
16
-32
-13
4
-14
-39
-3
31
-2
-1
30
-7
-1
35
-5
36
0
6
22
7
2
14
-18
49
-3
-57
5
50
14
8
-16
26
-22
18
31
-30
15
-47
-31
11
17
-22
-1
-6
2
-7
12
25
-4
-36
20
1
30
-2
-10
-21
-28
6
-7
8
0
29
-6
-18
-4
8
-19
1
-59
-2
-20
-32
2
-8
-7
17
-17
-26
5
9
-39
3
15
-14
-17
10
22
7
-9
-30
1
-17
-23
-31
35
29
-45
-24
-7
-13
10
-6
17
-30
-31
66
-8
-16
-6
-29
-4
-44
18
14
74
2
6
-23
-12
19
32
-21
-54
59
-25
-30
-74
0
-15
-4
31
34
-32
-18
32
5
6
3
-8
-20
21
16
-2
-39
15
31
9
-52
-23
-39
-18
69
30
-26
33
-23
33
-44
-30
42
-47
-56
2
-18
-38
-38
-61
-23
-19
6
-21
20
-22
-16
-43
-30
-38
-35
-16
-23
-11
1
18
0
-35
48
41
-10
48
-4
-24
-21
-19
-12
-5
-14
-5
9
-43
22
22
-1
51
-3
30
-12
12
-9
-10
-29
-17
-25
-22
3
20
11
-3
-1
7
-26
12
35
10
-3
8
23
-9
12
10
-15
-29
2
-5
7
-6
-67
1
24
10
19
-44
-20
-35
14
-11
-17
49
-7
-41
17
2
21
-26
-68
57
14
29
-10
0
-11
-20
-67
-31
10
-25
49
9
-21
26
-2
-8
-27
-41
-11
41
24
10
-63
-1
-16
20
-28
-15
-34
21
6
-4
-21
-9
30
-24
59
-1
-6
18
61
18
-34
-8
-23
-18
-16
-41
18
3
-3
3
-13
-17
-9
9
13
-28
-30
-12
26
36
24
26
-8
-10
-5
-29
-25
-3
-51
-6
-26
-11
16
8
-38
-11
1
-11
-22
-22
-2
-1
-22
30
32
-42
14
25
5
-52
34
-7
1
17
-22
27
-19
-14
16
-38
-13
-10
15
17
7
9
-13
24
11
0
5
33
-35
16
5
-29
-6
-21
-5
24
8
-9
74
35
27
22
-7
-20
7
-2
16
32
-20
-3
-26
2
-8
15
-44
10
3
-14
-46
32
-33
-37
39
-18
-27
24
24
5
6
-8
29
14
-17
-12
22
30
4
-32
26
-8
14
11
-36
15
-1
-1
-1
47
13
1
16
3
-9
-14
-1
-27
-11
-9
-2
-27
-5
10
21
27
24
37
0
2
-24
11
-3
-17
-27
10
-15
0
5
6
-17
-23
-18
-25
6
5
-22
2
-17
-15
16
2
0
16
-28
28
-19
-8
9
-11
-14
25
-23
29
-18
-2
-21
4
-16
-17
42
4
-19
13
-3
-8
12
-32
-11
18
13
8
14
4
-62
6
33
29
22
17
-36
-25
-19
0
47
12
-43
-18
23
34
-34
7
-19
-18
14
0
-24
-7
23
-17
12
-4
-43
-19
16
41
40
1
52
13
-39
23
-5
-3
28
39
-1
-28
20
-16
-34
22
5
13
49
26
37
-7
-26
-15
-11
25
33
-55
-74
50
20
13
60
-45
-49
-40
-30
39
-16
-38
-13
49
5
1
38
-26
10
33
-27
15
-31
-18
27
-28
-23
-30
19
-24
-6
0
16
16
-25
10
46
-37
24
-15
-10
-23
-2
16
12
-1
21
1
-20
13
20
-26
-15
5
-2
-53
15
20
3
18
-2
17
1
-16
12
17
-5
-1
26
6
5
15
-2
-21
-19
8
-13
-19
-11
-15
-13
13
22
12
-3
-4
5
47
-13
-28
-9
-21
-4
-11
0
-14
13
-30
-13
5
3
18
0
4
-10
4
-24
24
-13
-24
0
46
-4
-62
46
-19
-27
-13
8
26
6
-8
44
42
-38
-17
4
-23
-12
28
5
-8
-16
30
-11
-22
-4
-7
-11
-34
-11
11
49
-24
43
9
-1
-6
-13
26
-18
-10
4
6
-11
26
-14
20
10
-10
-2
7
-14
19
-28
5
35
19
34
60
23
3
8
-21
-2
23
1
-22
-16
-5
28
27
32
-8
8
35
21
60
-12
-32
-1
11
4
28
4
-29
15
-15
12
-37
-15
-24
-12
-30
17
24
17
-18
18
28
11
-44
-5
-14
-1
-49
-9
-4
-3
20
21
-17
-19
-22
8
41
-22
35
33
9
14
33
-6
0
6
-8
11
-36
7
7
9
-29
7
-13
-18
8
7
-36
-11
-10
25
-15
-20
24
52
6
18
-3
-22
26
3
24
23
2
4
-23
-8
-3
-2
-23
-16
29
18
-16
6
22
1
-36
22
6
-3
-6
-13
-9
-18
-7
-26
-14
12
-35
1
-5
3
28
11
2
-24
-40
-39
-14
-20
-1
-45
-20
-32
-26
40
16
-21
22
-8
29
11
-45
-22
-63
5
20
-29
-17
22
2
-34
-49
20
4
19
-35
7
2
6
-50
40
16
-2
6
-13
62
14
24
39
17
24
0
66
5
65
3
-6
51
-16
14
-42
11
10
8
40
-33
14
0
-40
-51
56
-4
18
56
1
-40
-2
-16
35
9
3
12
-19
-1
-41
10
-5
12
22
15
42
-9
-9
-21
-40
-31
7
5
3
21
14
-19
-52
-7
-21
-9
-14
-14
-21
-63
20
21
8
3
17
-17
24
-16
-55
-12
10
3
22
-1
-30
-12
48
-5
8
2
7
16
-8
40
55
-24
46
-6
24
-51
28
3
-32
-18
-3
-26
10
-10
-47
23
47
-3
9
-8
0
-18
7
-34
60
-12
-10
3
-2
-33
-8
-44
8
46
-13
25
-64
13
53
-32
37
-12
-23
-24
-50
-33
-22
-34
-43
5
5
23
22
-14
5
0
-27
5
-8
36
6
2
-8
26
11
50
10
-56
-73
56
-30
25
20
-37
38
-6
-8
-12
16
-34
-22
-2
7
-48
-24
13
7
12
-16
18
-46
-11
17
67
-14
26
-4
-40
-12
-10
1
-1
-24
-15
-16
-26
1
24
6
-26
21
4
-33
20
42
-24
0
1
0
21
-34
34
5
6
-1
-3
-2
5
-5
-17
45
1
1
25
25
-12
13
11
-12
2
-25
40
43
-15
-25
3
-17
33
47
11
-1
-21
-6
-1
2
-4
-4
9
15
1
0
46
-35
-1
-10
29
-22
16
-12
-24
-54
-21
15
-1
10
19
7
1
-28
-4
16
31
-10
21
-13
-1
-10
23
34
24
7
2
-28
11
19
-7
33
-20
-51
-3
-12
-17
50
-2
8
-4
3
-4
20
-60
-3
-4
6
-16
-1
-7
4
22
-24
26
-22
1
23
28
5
8
70
-18
-8
7
-6
5
-14
16
-6
9
14
-38
-10
-17
20
-13
39
24
-16
-29
-24
-21
0
-11
9
-35
13
-34
-8
3
-70
-17
6
-13
-30
4
-44
18
12
9
-17
-15
52
18
-19
17
34
-45
23
-54
21
64
-40
-6
-13
-1
19
30
-3
10
-26
2
-21
-37
13
3
-11
-55
11
20
4
28
-4
-2
13
-12
48
-12
-48
5
-17
21
-33
-38
-44
38
9
72
-86
15
2
-10
-25
-3
-7
24
-6
4
35
-40
21
-16
42
-14
2
-10
11
-6
-7
1
-5
9
4
-7
15
-14
-11
-10
47
-14
-18
-30
8
8
-18
19
-18
7
-25
8
35
25
-6
-4
26
32
-22
29
3
1
-27
8
0
-7
-10
-3
9
-3
6
41
20
-31
10
17
6
17
1
-2
56
-29
-12
-3
9
6
-5
-30
11
-5
4
56
-46
-25
-8
2
54
38
33
20
-8
33
-17
-37
2
11
15
-26
-47
-7
-22
37
-12
44
-43
-2
7
-12
33
8
12
-54
-49
19
10
-10
-2
-10
-15
-4
-16
32
13
31
-30
-41
-35
25
-8
41
20
-11
15
18
22
-7
20
3
1
-13
-18
20
2
-7
47
28
-34
-38
31
-23
26
13
11
-5
22
-28
36
0
-27
-27
-3
-20
25
19
3
7
11
1
-5
39
-5
-37
-9
-16
35
-9
32
-20
-8
-22
1
5
-35
-22
-29
12
17
6
32
-15
17
-17
23
-13
5
-41
6
33
1
-40
-49
-47
51
2
-13
34
-4
-17
15
-5
-48
46
36
19
7
19
-14
8
38
57
-18
-31
-23
19
32
-46
13
15
28
4
-16
38
-16
49
-34
-22
1
25
5
35
-8
-18
20
55
-33
-16
0
0
-22
45
-23
-15
22
-13
-9
51
-8
-52
17
42
-28
10
-2
-7
-15
8
28
-34
10
15
24
-66
-3
-11
1
-43
8
12
29
52
23
18
30
-39
0
4
46
-21
33
-47
-4
-29
-37
36
14
-9
-16
12
-9
29
-47
-13
-17
15
-5
6
22
-4
44
17
32
26
22
-8
-9
4
49
23
-34
-52
33
-9
-22
-2
-32
61
42
33
28
44
-72
-33
-8
24
7
6
-13
-26
16
7
22
-12
12
5
-8
19
-2
-23
-11
35
-18
19
-22
-15
17
16
24
-13
12
-36
45
23
18
-15
40
7
18
16
-34
-55
-14
28
-19
-10
-27
-9
-33
11
-24
11
-2
14
37
25
11
-12
24
10
18
6
-17
17
-22
2
10
12
-1
-18
-37
2
-3
-21
-1
-6
-3
-27
29
9
15
-11
-2
-8
-33
3
46
-9
3
-38
-47
7
-2
-22
-34
33
-50
25
3
-7
-19
-24
19
-12
8
-22
1
-5
1
-16
-28
-2
10
-15
18
2
15
19
58
-1
-18
-24
-9
12
8
-60
17
3
-7
-23
-8
-75
-21
5
0
36
41
-5
46
-16
-24
12
-10
14
-47
4
61
17
-23
51
-37
33
-5
13
-2
16
14
4
18
3
45
38
-24
-46
-4
-7
14
-30
-16
22
27
15
-22
-9
-23
-15
3
15
-11
-5
34
-25
-18
41
-4
11
-11
-1
-2
-10
9
3
-22
14
2
31
9
-15
37
-3
-26
1
38
-17
-11
6
3
-74
-16
-17
-14
22
0
42
-66
-27
1
-40
9
18
-25
14
-9
-44
-43
45
26
55
-4
10
15
24
47
-2
-3
-2
-18
40
4
-16
22
-33
41
-14
-11
9
53
-53
48
31
63
12
13
32
30
20
7
29
-49
44
-21
-55
-18
-1
-21
8
44
14
39
-15
30
-37
9
26
77
-4
25
1
46
44
48
14
-10
-33
-31
-25
-10
0
33
72
19
-2
15
6
-40
-19
-38
-47
-41
-5
-7
-6
20
2
-10
2
-12
1
21
22
9
31
47
-12
10
32
-12
6
-46
9
-6
-8
0
6
-15
-14
-6
17
1
34
-13
-15
3
8
-17
39
3
-14
-33
17
-6
17
13
19
27
3
15
4
-4
47
3
-26
-2
14
-9
-17
30
5
24
-19
15
4
2
8
7
13
4
27
4
-31
-9
-6
-18
-54
27
20
41
8
35
-19
1
-25
-21
24
4
27
-32
-6
11
9
-19
-27
-40
6
-8
25
-2
-6
0
-23
-3
5
-13
8
-14
-17
-3
-5
26
13
-13
9
25
-4
-17
20
-12
0
3
-2
10
36
-5
-16
-10
-34
36
-1
-22
12
-17
-11
9
15
-3
8
8
13
-40
0
4
-4
-31
22
49
-9
20
-10
9
-2
31
-49
-8
-15
-5
15
15
47
5
-16
-23
-25
5
-35
14
-5
-2
-21
-5
-23
13
12
-8
17
16
-1
12
-32
9
-4
-25
39
6
-54
14
53
8
-40
37
18
-40
70
3
15
3
6
-1
-30
-41
39
-34
-41
-15
-49
-67
-23
-11
13
23
-18
2
14
-32
17
11
-27
-4
3
-10
-47
-5
20
-1
20
-6
69
-6
10
-41
3
2
-7
-18
0
-12
-7
-17
-20
-16
-31
-38
-2
26
11
41
-21
30
-23
-12
20
-32
1
26
16
-36
2
-50
41
-6
-43
-38
25
-27
2
1
20
-14
-28
-51
7
-28
26
31
-17
-30
20
55
28
45
-6
31
26
-2
26
-31
-33
5
-11
-36
22
45
-10
-5
4
-17
-20
-26
-28
8
-16
28
20
-52
-30
-49
15
15
-10
36
14
-20
27
13
-25
3
17
6
-20
2
8
-23
6
-45
46
0
16
15
0
10
-19
1
-24
-22
-25
15
12
18
16
10
4
-11
-15
10
-11
-35
-12
-42
0
17
-31
-16
1
-62
27
6
19
1
6
39
-4
-2
-9
20
4
-3
21
8
-13
-10
-11
-14
21
34
45
-9
-47
45
22
6
5
38
-5
8
-22
17
22
-15
11
8
-38
-6
4
-16
35
-18
-3
-23
-10
12
7
18
-5
-30
34
-6
-48
5
-17
-28
10
21
-1
27
-11
20
48
-19
1
-14
-2
7
21
4
-13
7
7
-2
-8
-8
4
-23
-9
9
-63
30
-8
-10
-19
23
27
13
-15
26
0
14
5
12
-13
13
-51
-31
33
41
-22
-8
20
13
5
12
-54
-15
-31
46
18
21
11
42
17
-15
-26
27
-32
-8
22
-7
-7
37
-22
-17
6
-12
-2
-4
-23
-3
-17
-47
-7
-4
-9
23
60
-21
-9
-8
25
34
4
-3
0
11
16
5
-10
12
10
17
-11
-27
46
6
7
0
22
33
15
-17
0
18
-16
4
40
1
6
5
-9
-9
-5
38
37
-47
16
33
37
-25
-21
-9
4
-36
27
24
-33
40
15
6
-50
14
-13
35
-10
-12
23
7
-80
-2
33
17
-1
-29
-13
20
26
-5
11
-19
16
-13
-41
2
-15
-20
-23
-23
-7
49
-9
17
-9
9
48
25
-14
7
14
0
25
-10
-4
-1
26
22
-66
52
29
43
-13
5
-15
-6
15
-26
53
0
24
11
-11
-1
-24
28
-24
10
0
-11
0
32
-13
21
-23
21
-41
40
-1
-35
-13
-11
-8
-2
20
4
-5
-13
-9
-13
5
-15
-2
22
-7
-40
31
8
-2
-12
-11
-12
-3
-5
3
-25
-24
30
-9
-14
-42
8
-9
9
10
-13
-30
-13
7
14
-2
-3
9
-2
-52
-15
-2
-11
-26
30
10
14
26
15
-1
2
-4
-22
-2
-17
-21
-23
-6
-51
49
10
20
-24
-37
1
-6
21
-27
21
-12
-27
-5
2
-11
-5
8
-32
-3
12
-47
13
-7
-59
-6
2
24
3
-42
10
-29
9
-17
3
5
-39
-19
-6
-6
27
34
12
-4
-2
-35
-50
-25
24
-3
32
-14
31
14
-28
-15
-17
-29
-23
32
11
-4
20
-15
2
11
0
0
19
2
7
-17
-18
-1
-11
32
-33
0
-17
38
39
-8
-20
54
11
7
0
43
3
-39
13
-5
-31
36
-5
8
17
30
44
25
3
39
15
13
0
18
-22
-41
24
14
-6
12
7
-5
12
-12
3
-17
-11
-1
-18
44
23
9
14
29
-15
22
53
15
-39
-30
14
-3
-42
-4
11
66
-27
10
6
6
19
-8
-13
-27
11
7
-24
65
-19
-42
-2
-67
-7
12
19
-6
20
-12
9
40
-13
23
-11
13
34
14
-8
12
17
-26
-5
3
-54
-1
-17
3
-32
51
18
37
7
27
22
44
-44
54
-65
-12
21
0
-9
-11
28
10
28
-14
45
-17
-2
-30
48
-25
-15
24
-60
11
34
4
30
-33
-16
0
-11
-25
13
57
3
-10
-11
23
-15
-13
36
38
0
-53
-14
-30
14
35
-10
-32
-49
-19
0
-35
6
-15
23
-21
-13
11
8
-67
16
-7
-4
-36
-17
35
3
7
27
-45
-39
-6
-7
28
-27
10
22
-29
6
11
-30
-5
1
-9
-50
22
17
8
3
-5
41
31
-5
-7
-36
-8
6
-4
7
23
7
30
-27
8
-35
12
5
-17
8
59
-36
16
0
4
-24
27
14
11
63
-36
-1
5
-60
16
-14
-26
-4
26
25
-12
17
16
-12
16
-32
13
18
13
-40
-43
-24
13
19
-20
8
22
17
3
-29
18
45
-34
9
-28
-3
7
25
13
37
30
20
5
-34
7
-4
-12
3
12
-7
-18
1
-26
-3
-16
11
-10
-25
36
-5
-13
54
36
10
-47
18
17
13
11
-8
-45
-56
-7
-9
24
-17
13
-25
1
20
-43
31
-33
-37
-8
-23
-2
-30
-2
-3
-6
-6
-9
-51
-4
-50
23
-15
3
-31
-8
-10
-29
-1
-26
-26
27
1
-28
15
-47
28
-31
-6
22
-33
45
39
-26
22
2
-44
29
20
-32
-28
7
0
18
-26
10
1
36
2
1
-15
-34
7
12
11
-8
-3
6
-1
54
-21
-4
22
23
21
-29
19
-35
11
1
60
-12
-12
-6
-27
60
3
-1
-11
19
32
-6
4
11
42
-12
-12
18
-23
-25
-23
74
39
29
29
-52
58
8
-6
23
27
-25
-5
-29
21
-26
12
-18
-21
34
48
8
-8
-4
-12
34
-60
-9
-22
-6
33
3
2
-20
26
-30
15
1
-2
-24
-37
4
42
32
-6
-18
-2
-68
5
-34
-29
-8
15
-20
10
28
-16
-6
40
-5
-35
48
-53
-2
43
-4
0
19
-3
-11
-13
22
43
-19
-1
3
11
-3
-50
-20
25
-6
-2
-13
25
27
-10
-5
37
2
0
-9
7
-29
-11
-15
27
9
2
-17
-10
14
-54
-20
-12
45
15
-11
32
-3
15
5
-11
-24
-5
8
0
13
-7
-6
44
6
27
-17
13
-8
-1
23
20
1
9
33
-2
15
-23
-42
-3
9
7
8
13
-11
41
5
-34
35
25
35
-25
-61
-25
-1
9
-2
-32
5
-33
34
18
-22
-18
-7
4
33
13
-28
1
28
30
-43
21
12
-40
28
-24
-18
23
21
-9
-32
-6
-21
19
24
-13
-10
13
10
19
3
9
21
-32
-19
19
11
-6
25
5
12
-27
26
-36
-3
11
-21
-10
4
23
19
-5
9
1
24
17
-14
-3
-25
-4
63
5
-14
-3
-3
19
9
20
-22
-19
7
4
14
-15
4
-9
-2
20
-23
-46
-5
-10
-4
-12
-20
27
-8
33
-29
-8
-8
-52
-3
15
44
-30
15
-10
26
21
21
0
-22
12
-28
45
-8
-2
-12
48
11
7
35
12
0
26
-14
-23
-4
-3
-4
4
-45
-10
-32
3
-6
10
0
-25
3
-17
2
-8
4
12
32
-10
-6
19
10
18
24
1
-7
-46
-4
8
6
-6
40
33
-34
-9
25
20
-4
-1
-25
27
19
18
57
-12
0
8
-32
-79
30
7
-4
-3
-37
7
-27
-10
-3
26
36
16
-2
51
-1
-27
8
-31
-4
-1
-36
11
-39
-40
-22
11
18
-4
-5
7
-17
-15
7
13
12
-19
-9
0
8
-29
-19
11
-29
-48
0
-50
-21
-40
16
18
1
14
21
-1
4
-8
-9
-22
-16
19
-71
-26
20
-5
-24
-14
28
13
21
-16
-30
-9
-2
54
-9
-1
1
0
-16
7
-39
-14
3
-77
13
-23
8
46
8
-10
37
-50
-17
-15
-8
-22
19
44
-6
-35
14
-11
17
8
-8
19
-41
-13
-8
-8
-17
-5
-2
7
-12
7
14
18
-25
-35
-5
-18
-11
25
-63
-22
-11
0
-24
26
10
16
2
7
24
-4
-24
29
-19
13
-49
6
29
6
28
-18
-49
-26
-31
32
5
3
14
2
-14
11
36
44
16
26
31
-25
22
22
71
-10
-34
-18
24
34
-3
-8
-13
39
-44
28
-12
-8
38
9
-1
-21
58
41
12
18
-58
23
34
4
3
19
8
10
-18
-12
-33
11
0
-25
9
-8
6
-20
39
-6
14
11
-4
-25
19
2
-31
-14
15
-10
-39
-5
-4
-6
-9
-30
-13
-5
30
4
44
12
-1
-13
2
0
13
1
-12
30
-18
-19
-18
12
21
43
-24
31
26
-20
3
21
16
12
-7
25
-19
-5
-6
-2
8
-1
-1
26
-7
34
18
36
30
-25
-37
3
-6
-27
-12
-2
29
-2
-38
-37
-29
-3
-25
7
30
-8
-9
-13
-22
25
-14
9
70
-30
-3
17
22
26
-28
-15
-15
11
-13
27
15
-34
5
40
-14
-48
-22
-11
-31
-19
-1
14
-2
-26
-48
9
-5
5
0
-19
10
1
25
-91
39
21
-15
8
4
-34
-10
52
1
-10
19
-2
0
42
22
-7
-39
8
12
-1
55
-4
-40
-16
30
6
19
-1
-5
-3
21
15
-30
29
-21
3
-37
16
-2
18
13
31
-3
-12
19
45
27
-7
-29
-2
-8
17
23
29
21
-38
21
-2
14
56
-16
-39
22
-66
-30
-8
18
-7
-4
-9
-18
-50
-46
-5
-17
19
-10
9
-4
30
-2
-4
-8
5
15
-33
-13
-18
19
-20
-47
-2
-16
7
18
-33
-9
-18
10
16
8
-39
-18
-19
-23
-24
22
-12
21
4
-5
2
3
19
4
22
-23
8
17
-11
-3
-7
-37
-29
-17
34
18
33
-36
-51
13
-9
12
8
18
9
-3
-3
28
-88
0
8
8
39
17
27
-22
-3
-28
-19
-5
13
-15
-32
-1
-17
-32
-18
-22
8
-54
3
-68
-14
14
1
0
-3
-24
-35
35
9
-50
-20
37
-18
13
-2
-23
-2
-16
-10
-14
-18
30
32
-5
2
-12
-23
-8
21
9
-6
31
12
2
20
-30
8
-1
-23
7
40
38
-7
4
-8
33
-10
34
24
-7
4
38
4
2
3
4
50
-12
28
6
-2
14
8
9
21
-3
-38
9
-6
-8
-4
8
-15
45
-19
16
0
30
29
5
13
48
41
1
5
58
-27
52
2
-8
0
6
-14
23
37
-23
-23
-1
-31
32
4
26
6
19
30
-23
-19
-22
-5
14
-8
-31
6
-28
29
9
-19
37
-17
34
15
10
4
17
-36
10
32
-51
21
52
-9
43
-10
-5
5
24
36
-27
40
9
-7
23
-27
28
11
3
22
2
-15
4
-13
-9
21
-1
29
-15
-53
25
-13
-51
14
41
9
-12
-33
31
-9
9
-41
-19
7
-30
-28
1
-13
-21
-9
-30
-34
-2
-30
67
-25
-14
-2
29
-37
-31
9
-3
-1
-35
30
-1
34
-13
-25
56
-33
-10
19
-21
-49
22
26
4
-22
-22
-16
9
-53
-13
28
-13
7
-23
16
18
6
16
-4
-28
-36
9
-8
-23
3
15
13
10
2
21
-29
-7
-18
-47
-32
-26
-3
-19
45
-10
-21
8
30
25
27
-24
26
35
-20
31
24
-2
31
-18
21
-7
23
-11
4
-4
29
22
20
31
-20
-18
9
-10
-18
29
21
-9
5
18
-19
22
0
18
-2
3
27
-30
-52
18
-15
6
30
21
42
-8
-25
3
5
5
-27
-2
17
-21
-23
-3
-19
18
11
20
2
-21
-10
-13
-11
15
0
61
9
12
12
-4
59
27
-25
-15
-13
18
-25
-52
-27
3
34
20
-1
9
-19
-11
-36
-45
-1
-26
-14
-3
6
-24
-19
-18
25
11
54
-10
-18
-7
15
-27
9
-47
-26
-22
4
3
-23
-2
-28
-15
-6
16
14
-40
40
-10
26
28
-18
18
0
-32
-40
24
-17
37
27
-2
12
31
-1
-33
-1
6
-6
2
-58
30
-6
15
1
21
-17
-56
6
-3
-22
10
-27
-4
-33
-10
-16
18
-4
-6
0
3
23
-39
6
-26
-5
18
-43
-1
-11
-27
10
-20
13
25
-7
-25
-12
14
-10
12
-7
11
-28
-3
-8
30
-33
9
-17
-9
-37
10
-5
23
-10
-17
21
-14
-4
12
-21
-8
8
-18
-11
14
7
-10
29
-13
-11
11
29
-24
26
-6
0
2
-3
5
-24
10
-17
-43
-18
17
9
15
-9
-9
16
-14
-34
-10
44
-30
9
12
-18
-24
-6
2
-4
-8
5
-7
-10
-3
23
14
-26
-17
33
-13
-20
-19
-3
-15
17
10
-7
18
-1
-2
-5
-28
-32
-19
-38
-7
-4
22
17
9
55
31
-8
2
-11
-29
-32
-8
-9
-16
35
9
-11
-6
-6
-1
-5
-37
13
-51
4
13
8
37
-12
68
-66
4
91
-31
37
4
-43
-4
-23
33
29
18
0
0
-16
-32
-23
-11
7
-14
6
0
13
24
-22
21
13
14
-7
-30
21
37
21
33
-27
45
-2
37
-16
1
15
-49
-29
-19
14
20
25
-37
-27
25
-29
14
5
18
56
-34
22
5
15
0
-16
-36
-12
0
-7
-4
-33
-15
20
-33
9
3
12
4
-30
-19
16
6
-25
-49
-23
-8
2
55
-10
31
23
-26
-10
18
7
7
-34
-3
-29
10
17
-48
38
-8
-7
-41
-8
-26
-36
-38
20
-11
-16
-10
10
-29
10
-1
-40
-42
-33
42
21
-16
18
8
-10
27
24
-11
3
-11
-32
22
10
-9
2
-56
6
7
5
13
-18
19
-20
-9
-3
-15
-19
-2
22
1
3
-29
23
9
-5
6
-3
-41
22
37
-10
0
-3
-6
26
-31
-20
15
24
-19
-1
0
10
19
4
-20
-9
11
-28
-4
2
3
0
12
11
3
-10
-6
-15
25
23
-36
-40
-18
-24
16
-24
-3
-4
23
15
14
1
-18
-42
-5
-10
23
-20
-29
-20
6
23
31
-8
2
8
-33
11
-11
-16
6
24
5
-6
-43
13
-2
-20
-19
-17
16
-5
-9
1
-23
29
20
4
14
-14
21
3
7
16
-5
-4
-17
43
7
-3
-4
-9
-8
13
-5
32
-5
-4
1
12
1
11
-20
-27
31
0
19
12
27
12
15
-7
9
10
5
18
-5
-8
-19
35
8
30
-9
-7
6
-3
30
-13
7
4
-3
20
15
-15
22
8
-13
-23
15
-32
3
20
-39
-22
25
-21
6
34
15
12
16
-3
-15
-7
21
14
1
-23
-5
2
-18
0
4
20
-5
-10
8
-3
-4
-23
1
-19
-27
9
7
-1
-36
11
-48
22
-6
-9
-45
41
23
-33
-40
7
5
-16
11
12
22
-23
6
23
-33
24
75
8
40
12
20
-13
3
-2
-40
17
-5
11
-10
-2
-24
3
59
32
57
4
7
-30
-50
-23
-18
49
-30
20
6
21
12
35
33
-8
-4
18
-8
-36
-27
-12
27
11
-24
-47
23
-9
-1
-26
12
-17
-25
-11
36
4
-16
-10
-21
-38
-13
-17
18
-35
6
-20
-22
-4
41
0
27
-8
4
-1
-21
-42
-44
23
-57
8
-21
35
-14
7
-33
-2
-9
12
-7
19
24
6
-14
-38
17
-16
-5
0
-5
-7
19
16
-15
15
-5
43
2
23
16
23
3
-2
-3
5
4
-6
15
53
-35
12
-13
-29
16
-1
-16
36
0
-20
-12
44
-19
-36
-15
-6
0
22
13
-9
-11
-9
9
-43
27
-9
-5
-1
2
-24
0
2
37
21
-10
-12
26
-9
-2
10
-15
26
32
-1
25
25
-22
21
17
7
10
1
-2
-29
-24
36
1
-38
14
-11
-1
-27
-6
-26
3
37
-22
-3
15
-9
12
-6
-5
14
14
-15
-17
41
4
-8
5
9
13
-57
-13
-1
4
-2
-23
-22
2
6
-13
-17
2
-22
25
2
-37
-49
8
-17
-3
-4
32
-19
2
22
-12
22
33
-3
5
25
3
5
-1
42
-10
7
-1
-6
19
-13
8
-32
21
0
-30
-3
10
26
59
-23
-2
27
-13
16
17
-14
-35
14
17
11
4
33
14
-10
2
-11
25
-21
6
7
2
-18
7
16
-16
11
38
25
-9
23
2
12
18
-14
24
-12
-1
13
-2
31
5
1
-30
11
-64
3
-48
23
47
-12
30
-47
-39
31
-5
1
-31
34
1
-6
-31
12
-9
-47
12
20
-11
-24
22
8
-48
-16
8
17
-45
10
-21
-7
13
-26
-29
12
24
-33
34
-2
-13
1
-27
-11
-47
34
50
14
-6
-44
6
15
17
35
-18
33
36
-13
19
-41
13
23
-24
-41
-5
19
-40
27
43
24
-4
26
-20
8
-12
-6
-4
-14
29
9
16
-11
2
-7
31
11
16
-39
-1
76
-11
-18
-22
-1
25
2
-6
-27
2
15
32
-8
-12
-19
42
-28
28
29
0
-19
2
21
3
15
-28
1
-37
47
16
-1
-3
-54
-2
-10
-22
11
6
1
-13
26
-3
12
-8
1
17
-23
13
27
33
26
-7
-2
-60
3
14
-15
20
-11
-5
-30
-32
6
13
-10
-54
24
2
-19
-18
-10
-49
-27
17
-8
14
31
40
33
-41
-23
31
3
17
2
-24
15
5
1
16
29
-11
-11
-4
1
29
-31
-11
-28
-1
-8
-44
33
-29
4
-8
-24
23
-37
-45
3
-21
-18
-50
5
20
6
-19
-9
1
-16
-17
-15
-19
-11
4
19
-23
-26
30
-7
-32
11
11
19
-9
-10
-50
26
-24
-19
-8
11
0
-8
-4
2
2
37
-2
-14
36
-7
25
-10
-48
23
0
-42
18
14
-43
0
-14
1
-1
16
5
43
6
15
-21
33
-29
26
23
11
36
-28
-9
41
47
13
-22
-40
17
34
12
11
25
-21
-3
-9
14
-21
2
-6
13
-10
25
-39
-21
-19
-1
-17
-13
1
-3
13
8
40
23
4
-10
-9
-12
-28
7
4
19
-25
-9
0
-19
19
-14
20
-40
-15
35
-18
-5
-29
-20
-31
10
10
19
9
16
-2
-12
14
7
26
-10
-1
-30
3
-3
-10
14
-20
-22
0
23
-5
6
0
8
12
-31
26
9
44
-21
-17
-16
-21
-7
-4
-15
1
8
16
-10
-11
14
16
-14
-29
16
41
0
16
-13
-14
-34
47
-6
60
-32
-16
29
-6
-17
40
18
21
32
-8
8
16
-54
25
18
13
21
-18
53
8
39
-38
74
18
-13
7
4
4
-34
42
-9
1
24
-5
-5
10
-8
-24
9
41
-31
20
-27
2
11
11
-3
24
-15
21
59
-14
4
-31
71
-34
11
-11
-16
-34
-14
2
-13
-23
8
-19
15
5
-32
-26
3
17
-3
22
19
14
3
0
3
-16
4
35
33
-3
-20
49
12
19
-17
14
-23
58
-30
1
-34
-11
-11
-3
24
-12
-26
-13
-3
4
34
10
48
-3
24
-6
-7
45
16
-24
-4
41
26
-16
-30
42
4
2
5
10
-16
-1
30
-20
14
17
7
12
12
17
-13
-6
4
-7
13
-28
26
80
-9
8
-2
9
26
35
17
-14
-18
8
-1
-14
-15
-60
30
16
59
-36
19
-16
36
-12
39
38
7
8
5
-8
-6
59
44
-20
-23
-70
-5
22
-10
21
29
-1
3
9
-51
47
13
3
9
19
-5
-8
20
3
5
7
-17
-9
3
-25
4
40
-39
28
-6
-17
-30
9
-30
-79
-31
-7
-20
-38
-5
43
-3
-11
-45
10
-35
-27
22
-18
-8
27
24
-3
18
-23
28
-13
-16
-9
6
-10
1
34
-7
-8
-21
-8
38
33
-47
15
46
-9
31
15
11
6
-19
-37
-43
-54
0
17
-30
-8
36
3
-13
-36
8
14
5
-17
-6
24
-12
-5
-3
-19
-22
39
23
-12
-7
-9
-31
16
43
-1
7
29
-78
43
-30
-14
28
-20
29
-20
2
44
-2
-9
11
12
-24
2
-2
2
-37
16
-51
30
-11
-7
-8
7
16
-14
-9
-9
17
-35
52
-21
-30
-17
32
-69
21
16
2
1
-66
-51
33
-1
-21
-80
-4
-14
32
-39
40
11
47
19
-38
39
36
20
-44
-15
-7
21
-11
37
22
-43
7
34
20
-29
-48
75
39
18
76
26
-5
16
-77
-8
25
-24
-20
-16
38
11
-21
6
-12
13
0
10
20
-19
-43
14
6
39
-1
2
46
-1
14
12
-15
45
4
-9
-14
7
-1
-3
-13
-14
-32
-33
-14
15
2
-17
2
5
28
11
0
13
-7
-9
16
-32
-3
-30
12
-23
-6
35
23
18
12
24
-21
-29
-2
-19
-17
19
-21
0
-29
-13
54
5
21
25
-1
-24
-3
-3
40
33
3
20
-20
5
12
-21
-42
-22
-38
12
1
-2
26
54
-32
2
37
-10
-9
-59
2
-17
5
3
-10
-4
16
10
17
12
-29
17
22
-9
-11
12
-23
2
23
14
-9
7
-10
37
-2
-1
-12
-15
-12
33
18
-1
-28
14
3
3
28
-15
12
-12
-24
-1
24
6
-15
2
0
12
-6
-18
0
-24
16
3
7
3
-7
-7
-23
-9
-12
22
-20
6
31
-22
15
-24
-11
23
-52
-20
0
-7
8
20
-19
3
16
0
17
13
-3
-28
28
22
3
-7
6
1
24
25
0
-25
22
-60
-27
-58
-40
-46
-12
-1
9
24
8
12
-36
21
2
-41
29
-14
-39
-4
20
-11
-11
-13
6
16
8
25
-25
-12
18
-2
17
4
18
13
16
20
-21
26
31
10
38
-11
13
8
-8
3
-28
19
10
-28
39
-48
-15
1
5
-28
-10
60
33
-5
-27
-41
7
-39
2
29
-19
-12
55
-11
51
6
-46
20
-40
-39
-28
-19
2
1
27
0
20
-23
65
-10
-19
22
-9
-16
-9
-22
-1
-3
-35
-27
-8
-7
-15
-24
-16
9
-22
25
44
7
-45
59
19
10
-69
-5
-34
6
26
-32
12
-22
2
4
-11
-5
11
40
7
-17
-21
-18
9
24
-23
-25
30
39
-35
-18
25
-7
7
-63
20
0
-16
-10
25
-3
5
-20
-40
-5
-16
18
0
11
-9
1
20
-49
17
26
-22
23
-11
-41
18
9
-50
-4
28
17
22
-20
-11
-30
-17
-4
-50
-23
-32
4
-11
-14
-9
-3
-7
36
19
-48
39
-20
-20
19
10
35
-2
-7
-10
-3
7
-7
4
-3
2
0
10
-6
-25
20
11
-29
10
25
6
2
-8
-13
-21
17
20
-27
-10
-10
14
-19
-24
11
30
-25
14
-12
3
-16
13
18
16
-3
-16
-53
-23
4
28
18
8
3
-16
-10
32
14
-10
-14
-11
-4
-7
17
3
28
-22
-14
33
6
-8
39
36
33
-10
6
18
7
21
-30
2
30
-7
0
54
16
53
67
24
9
3
-20
7
13
72
23
-38
10
26
-43
37
-22
13
19
1
-14
15
-41
9
-14
-17
-9
7
-10
-13
-19
-53
-18
16
1
-3
14
10
24
15
17
1
-27
19
-17
-2
7
-36
-28
-23
2
-37
-54
-8
11
40
-4
49
-13
-26
21
5
32
-14
35
44
-14
9
3
-6
-10
-59
13
-43
45
-21
32
8
15
0
-10
-1
4
-10
-11
17
27
-20
2
-5
15
-7
-22
-25
39
30
-13
-14
22
16
-15
2
12
-15
23
31
-10
10
-34
-78
-18
-24
-39
-19
-59
1
-12
41
-15
7
-13
30
14
-12
-27
37
-23
-36
-6
-31
4
-10
22
-46
0
46
31
-27
19
-32
-15
4
28
-25
-34
-2
-26
-65
12
-36
14
9
-21
-44
9
-2
6
31
-4
34
-19
26
22
-27
12
27
18
28
-9
34
25
-29
0
-14
-24
10
-10
13
-1
-10
-21
77
5
51
3
26
-26
-6
45
-6
-28
-31
4
-26
-19
22
-31
20
10
-6
29
16
-1
-25
-24
-27
-31
7
11
-13
-33
3
-49
-11
-2
3
6
7
-9
2
25
49
-3
21
7
4
30
-35
11
-20
-10
-6
-4
13
53
-14
41
-12
33
32
-2
4
14
-36
-26
-19
-9
32
-4
2
25
-26
7
65
-4
-6
8
-4
1
48
-13
-13
6
-27
-12
6
-17
22
-43
-5
-22
-2
22
-25
-3
-10
9
25
-30
-35
-6
14
22
16
21
-11
-7
2
-3
34
40
-11
13
50
16
24
7
-23
-21
-12
17
-12
39
-6
48
-2
-2
-14
-5
1
8
5
-23
0
-45
-11
3
-20
-47
-35
32
-15
-41
35
12
-10
21
-30
-36
30
19
3
-22
15
1
-25
42
-25
36
-11
-31
6
-27
12
-30
-41
6
30
7
-20
-9
-21
-22
-12
23
-63
7
16
2
-22
9
25
41
28
-3
-33
32
-8
25
-22
13
10
32
7
4
12
-10
42
6
16
6
-12
13
-19
-47
-15
-27
40
2
18
-8
2
7
-21
71
-11
-25
32
14
-29
43
25
26
-1
-11
21
-36
9
-73
19
31
1
0
25
-24
51
18
33
34
9
31
-14
-22
-23
-22
6
19
-56
-10
-8
6
7
-28
-24
41
-7
-9
31
20
-16
-42
40
34
20
5
15
-30
-39
-23
8
-18
-11
8
25
-23
-11
-47
-4
15
-11
5
-36
-13
-12
-3
-27
-24
-35
-40
-5
-4
-15
1
-5
26
28
-5
-13
36
6
-17
-14
11
15
-25
-8
0
-15
-15
43
-8
-11
-20
41
30
2
-16
-41
-42
-14
-17
-7
-16
-58
44
13
13
39
-12
-54
32
-1
3
-16
48
25
9
14
-31
18
-16
-1
6
3
36
33
20
43
-38
-53
5
-11
43
54
-40
-19
-71
-23
-46
-11
-12
11
15
-15
11
34
-36
-6
-29
-15
3
-9
15
37
-5
6
-45
0
25
-10
40
13
3
22
15
26
-11
19
30
-16
-42
-73
1
5
27
-19
-23
-15
-44
5
-4
20
-17
-14
-28
14
-4
18
-8
-5
-11
5
6
-46
10
4
-16
20
-2
69
13
12
-5
-16
-20
-34
10
-30
-20
7
32
11
-5
4
-19
15
-12
-32
9
-4
19
-7
12
28
40
15
0
-58
21
-17
16
10
19
-19
-8
-32
23
-45
-12
30
21
-9
-19
23
-11
-42
-17
-32
40
-21
21
-24
-20
-14
-2
8
10
1
-23
-3
-1
24
4
-6
-13
15
-55
14
1
41
27
14
-3
1
-24
4
-2
9
6
-2
-4
-21
34
-28
-7
-34
-6
-7
56
5
-20
11
15
-3
8
8
4
-41
-17
18
17
3
-23
-42
-19
-4
-12
-12
35
11
29
29
-15
-16
0
25
-31
-6
-4
6
18
21
-43
-8
-12
9
4
19
18
14
-21
-9
-11
5
18
9
11
-10
-3
-12
15
8
16
-30
-22
-15
-19
-11
-18
1
-8
-48
-24
12
18
-10
13
8
24
-17
8
-16
-9
-17
-24
-11
-7
0
-51
-22
-42
-6
6
11
-36
-6
2
20
40
3
0
10
57
-41
16
-4
3
-3
9
5
20
16
-5
-27
23
-6
38
8
-2
-3
16
0
49
1
9
-23
17
14
-31
6
5
-42
40
31
-23
16
-27
-54
5
-7
13
14
5
-2
-33
3
40
14
48
13
3
21
10
-53
46
48
-15
-9
-3
-5
32
-9
-44
39
27
-7
-5
30
-11
-62
4
41
-22
-2
63
47
0
39
-31
4
1
-19
10
-24
-22
-16
39
-17
-55
2
27
-36
28
-5
-15
9
-21
16
29
-11
-7
-31
13
-20
-12
25
5
-3
-6
32
13
19
28
4
-8
-32
20
-21
-18
-28
7
10
10
8
11
-19
16
-2
-10
-45
24
21
4
26
9
24
-8
5
-12
16
-24
10
-13
-18
8
38
3
-41
11
-14
14
-21
12
-32
-16
-41
19
-20
24
11
2
-35
0
-17
14
-47
43
-14
4
61
7
-18
-28
23
-8
-2
-20
-31
4
6
-14
19
-40
-2
-3
41
-15
-23
-31
13
1
-38
-23
-23
33
-6
4
18
-8
-30
4
8
34
18
-11
-18
-8
14
10
-2
29
15
-5
-21
-18
-33
6
23
-21
11
23
-22
-16
23
18
23
13
79
50
65
-16
50
-3
-1
31
19
-54
12
-18
-11
20
11
1
30
5
38
-53
-12
-8
-22
-22
1
39
-26
22
-31
2
24
-8
13
-27
-56
33
-4
37
-63
17
-6
52
-50
0
15
-23
-4
56
-18
11
-21
-25
46
-9
-23
-27
12
10
18
-12
61
-10
14
21
-9
-10
-38
9
-6
-25
-38
35
-40
-85
-6
-7
5
14
-27
-12
27
23
12
3
-43
-12
0
27
9
7
8
10
17
24
-20
14
-56
-27
35
-1
-22
29
1
-14
5
17
26
-2
-2
24
-15
-20
-26
23
33
-53
22
-46
1
6
-23
11
-1
-8
-5
-12
-40
-19
-23
17
14
6
-20
-10
47
29
5
-28
-29
7
29
21
0
27
-1
4
30
-8
22
9
-10
42
-16
-39
31
1
-19
42
-14
-3
44
12
15
-20
12
1
19
60
-1
-22
-3
13
-43
-36
10
25
15
36
-6
-51
40
8
-4
-8
5
1
21
-14
1
-17
40
40
47
21
-3
-12
31
-23
10
-33
-5
-1
-27
-27
-8
-20
-18
10
-22
25
-4
8
5
15
-23
-11
-6
-9
29
17
-25
-33
27
-30
41
-16
4
-43
14
-27
35
-17
-14
-10
-40
-41
4
20
12
-26
-6
19
-16
30
28
-15
23
-10
-3
19
-9
-4
13
-36
14
-1
-7
-20
-31
-61
11
-22
34
-43
-4
1
2
23
-34
-6
7
28
5
28
35
-18
16
-10
14
-26
13
-2
-18
4
12
9
-15
9
6
6
-10
1
-5
6
9
-24
-6
-2
9
1
10
5
9
20
25
19
6
6
23
28
25
-38
31
-13
19
17
-32
-6
26
34
5
13
27
-29
18
-46
-23
-21
19
25
9
16
10
12
-21
28
9
6
-13
13
36
27
4
-7
11
38
-6
-63
-34
23
18
11
-14
18
-8
8
15
-49
-44
12
21
26
57
-21
13
-19
-8
-6
10
-24
-29
26
-7
10
5
-2
0
-18
-9
-36
-17
-41
12
-20
-12
8
6
9
14
-42
12
-32
-35
13
-5
18
33
34
4
-17
10
26
20
10
-3
5
15
26
-14
11
-4
20
8
8
8
-17
10
-19
8
20
-10
-14
-16
7
-13
-26
-44
-21
-11
-25
28
17
-10
7
-1
21
-19
-23
15
-14
-16
-12
-22
7
-75
21
13
4
24
21
-31
-10
-3
16
26
-14
-14
17
-6
-30
3
5
27
6
3
31
48
-39
17
16
11
-27
-2
-10
-30
-10
55
1
-29
9
-2
-5
25
-18
25
9
-10
-2
7
1
3
-17
14
-25
57
19
-22
28
42
-16
14
20
9
38
22
-24
14
18
-12
-14
-36
-37
-1
-12
-1
11
6
-29
-14
-51
52
36
11
-23
-11
2
43
1
-48
-19
-18
-40
1
33
-32
-40
18
8
-13
29
34
-1
11
-37
29
-7
17
7
-10
6
8
10
2
-47
11
1
7
-29
7
-18
-31
-22
55
28
-31
0
-29
12
15
29
19
17
-42
-10
-8
3
35
-11
-1
-33
14
13
-9
-20
-34
8
-28
-15
35
29
-15
-8
-1
32
11
34
-48
-17
1
-22
-9
39
-20
10
-25
-35
32
-57
1
-21
37
17
8
25
-29
44
-13
-4
-6
37
3
10
37
-57
44
5
0
-37
79
-13
-27
-37
19
-59
-14
-13
1
-30
27
-5
25
-8
34
6
3
26
-26
-35
31
-5
-3
15
10
-4
-8
-10
-1
7
-4
23
-9
-15
-15
-7
-3
1
10
18
-3
-18
22
18
19
-15
-5
33
-17
-1
-14
-20
-16
24
-10
15
-7
-27
-3
-11
-16
-26
31
-7
-33
-9
21
43
2
16
-15
-24
-29
8
0
22
-6
19
13
0
4
13
-12
3
-20
-48
-30
39
3
19
-34
-9
-14
-32
-23
23
-32
-12
-3
9
24
-2
-33
28
-8
-16
4
-9
25
-2
-23
-31
-14
-21
2
18
-50
7
-13
-14
-20
-19
40
-4
3
26
-25
-3
12
68
14
-21
-26
6
-10
0
-11
11
-12
28
33
-13
17
18
-19
15
-3
12
16
-20
21
-18
-15
5
-15
5
-3
-29
-22
2
25
11
39
-21
11
-26
-14
10
29
45
-18
48
-28
33
-14
38
2
40
-20
19
26
18
-8
20
10
1
-42
5
-3
10
42
-4
-18
-4
-7
-14
29
-17
43
21
16
-26
33
-23
0
-10
4
-4
-27
-21
-16
-7
-20
16
-14
16
-25
-26
23
-8
-3
18
-7
-9
3
-1
23
22
4
-18
16
14
2
36
9
-16
4
-6
-5
-16
7
37
-3
-2
-4
-12
-39
-1
-17
-13
-1
14
-33
-2
-19
-25
-24
9
-39
26
-21
14
-40
-19
49
-30
46
54
11
-9
-69
-7
-22
-23
73
34
-4
25
5
62
26
-32
21
-5
31
10
-77
56
26
42
23
0
41
-4
49
36
6
-27
-15
-26
-22
-25
-9
-38
20
17
15
-35
-14
40
17
14
-13
0
18
28
-4
15
-23
3
18
19
16
6
-6
34
-22
-11
31
-25
-16
-24
-3
-51
22
-41
-50
-34
-66
-46
8
-23
8
-23
-24
-17
15
9
28
10
-28
-7
8
-16
-23
21
15
-12
-21
-28
-18
9
21
35
-16
-31
-17
35
5
28
30
10
31
28
41
-19
-4
-11
13
17
-4
-14
24
23
13
-4
-20
-2
7
38
-19
2
10
-46
16
32
-10
45
-21
36
10
7
-29
-23
19
-32
19
-7
22
11
8
-18
20
8
-4
31
0
-13
29
-35
-42
-23
16
32
-46
23
0
-24
37
-57
-31
0
-38
-17
-19
26
-13
18
5
40
13
29
17
9
0
-9
-44
-24
30
-1
22
-6
-13
0
12
-8
2
-6
22
-21
13
37
-15
40
44
0
-65
14
-7
17
45
-5
3
11
29
6
-5
-13
-1
-32
1
-11
67
-49
-19
4
-16
-62
53
61
10
-40
-18
8
8
9
16
-34
24
18
-50
36
-29
-2
2
3
-35
8
49
29
14
5
25
18
-44
-20
17
-10
11
47
11
-52
2
5
-13
5
5
25
0
-13
-27
51
-18
34
3
-5
43
-35
-10
15
-24
-45
51
-42
-9
-11
-5
-12
22
39
-22
8
18
7
29
-56
38
59
28
6
1
51
12
9
32
5
20
21
32
9
-5
28
-11
-27
-5
6
-43
18
3
24
42
-14
43
20
