96 1 3 3
-6
4
-31
-5
-44
-10
-42
-27
-19
11
-29
-38
42
17
17
26
9
24
-4
57
58
-16
-18
4
19
18
-6
45
18
28
24
35
13
-28
-21
-12
12
24
-26
28
47
-25
8
4
-14
-29
19
-84
10
84
1
-37
56
-25
-33
-17
42
-46
-12
-21
-7
-32
11
-85
38
5
36
-102
97
28
59
-76
30
-53
12
-31
-17
-12
-35
49
-55
34
-10
24
-42
5
-85
-16
-3
22
-45
-8
-10
-55
-22
-38
33
11
8
-34
-18
11
-24
-65
-81
-4
24
37
1
-25
-26
14
44
27
17
63
-15
-9
-5
-18
-18
18
-32
-31
-46
45
-37
-127
-35
26
26
-24
71
77
48
-1
12
-2
-14
41
-30
127
-69
-14
-3
20
37
57
40
-39
-15
-41
-33
-20
3
-111
13
-3
63
-11
11
32
41
-2
-67
77
17
-71
-29
11
5
-1
7
12
-62
57
5
-55
11
47
-44
42
-1
-37
35
7
-42
39
2
-14
4
-17
10
16
39
20
63
3
-7
-20
20
0
-30
-13
-50
-6
-7
10
-3
-9
-11
12
5
41
59
1
-18
-7
41
-2
49
19
33
15
-44
-36
29
-12
-41
-28
60
-46
71
-23
11
-15
-22
-19
-58
-36
30
-30
-24
3
21
-5
-58
-5
-53
-24
41
-1
-4
20
40
-28
-20
26
-1
-39
-55
5
38
-84
7
-56
-19
-22
0
111
52
34
11
4
-1
35
-29
-18
-6
-33
78
-49
-31
79
-25
-26
7
-3
-86
54
10
50
13
-8
16
27
-29
33
-5
-51
-17
-24
-55
-12
-21
32
-56
-51
33
-18
-94
40
1
23
-32
-13
-52
59
-121
-23
23
-24
18
0
-2
-3
-35
-24
-5
-6
-48
15
1
12
28
15
10
31
15
-8
9
20
-16
-126
10
23
50
0
-10
70
-4
-13
-52
3
0
-14
18
-69
21
-10
60
6
-11
8
37
-2
67
-6
-19
17
12
16
30
17
-4
17
12
10
14
22
3
13
33
10
28
24
-1
-48
40
5
-47
59
25
-50
30
-3
-53
-43
14
20
30
17
-46
-43
-19
31
13
31
27
26
-8
20
-75
-34
-18
-44
14
-21
-28
7
-21
6
-16
-6
-27
-29
-42
-22
17
8
-1
-3
51
-33
-17
38
-30
-3
70
-63
8
-63
-10
46
20
-56
-2
34
-10
-56
-17
73
-56
0
5
1
39
-67
54
-12
-49
-86
17
9
18
36
0
-34
11
-2
19
50
22
33
-31
-35
-32
70
-30
-33
13
43
-51
-23
49
-19
40
-20
-58
7
65
-52
31
28
-29
-3
-22
-31
-10
-23
-18
13
-40
-6
9
-30
-62
10
23
-60
32
30
1
50
28
42
-2
50
-8
-10
16
0
17
1
-17
51
15
-50
49
10
-26
16
6
1
-44
6
90
-60
-14
72
29
24
7
-55
-70
-30
25
34
9
7
10
0
30
31
10
12
10
21
-22
7
46
-36
16
53
-30
20
5
3
-26
-7
-11
20
-78
34
-3
-40
-3
-10
-46
51
4
-5
-59
29
77
-1
17
4
-52
-71
-24
8
-20
-5
-75
-18
47
-24
27
21
-25
-53
-9
-7
-4
-16
-50
-1
-23
29
-27
-26
-57
1
47
2
38
25
37
29
-26
20
8
8
-55
-63
1
-40
-6
14
62
-45
44
-72
-95
24
29
11
47
30
13
23
22
42
20
-41
-46
-28
-12
33
30
28
40
36
-13
-9
-47
-32
-1
15
-42
-24
-30
-8
8
14
-14
51
73
4
53
5
24
-26
-61
40
-1
-5
39
34
-27
4
23
-8
-49
-45
-23
84
87
4
-29
-24
-13
42
16
-67
53
-40
-23
-5
-5
4
-15
-13
-24
0
-50
-13
-9
-9
-20
7
-71
14
-40
13
-19
-20
1
-15
5
32
29
-10
50
18
-13
-76
-87
-4
-8
-33
39
40
5
42
45
-31
-6
29
3
-32
-25
-34
-2
34
16
-19
-6
10
-43
-43
40
-39
5
-11
5
58
-60
27
26
-3
-15
3
64
13
-8
-67
-37
14
-13
-25
-14
68
25
-49
17
20
-55
23
17
-51
34
38
0
-18
-35
-29
-10
-25
-12
-22
11
-23
2
10
36
37
9
72
3
-73
11
10
13
-19
34
-51
-2
47
14
20
-49
43
-22
-47
35
-42
-46
10
-75
-29
64
-31
4
-3
124
-18
-16
-7
-25
-31
-47
-6
13
3
5
-34
-60
10
15
-15
-44
46
25
22
2
20
11
3
28
18
6
2
27
35
-13
-8
32
-62
34
52
-57
2
