576
0.070066325
-0.08641241
0.16245371
-0.068009
-0.02560165
-0.09024368
-0.025652874
0.064659014
-0.022397907
-0.016667165
-0.017820766
0.08014489
0.05471727
-0.032362856
0.03772942
0.07590163
-0.068936594
-0.021688148
-0.026682854
0.020558197
-0.08453668
-0.110060684
-0.028406037
0.010985579
0.06421374
-0.016606912
-0.01669773
-0.01926835
-0.036585987
0.03439764
0.023665244
-0.0020215348
0.048566483
-0.057805877
-0.07440183
-0.07783705
0.068215005
-0.039726473
0.03898533
0.13553403
0.058442988
0.065748654
-0.13688178
0.12493266
0.026682792
-0.00892642
-0.03437458
-0.017196434
-0.07741564
-0.053511202
-0.010938826
-0.034522507
-0.027845312
-0.08403293
0.028666126
-0.11577293
0.08391907
-0.023808034
-0.017213522
0.050880823
-0.021701595
0.018988173
-0.041888233
-0.1158886
0.024615217
0.04489767
0.08765977
-0.0028328444
-0.1508549
0.033208836
-0.023947615
-0.03258144
0.020596715
-0.022063479
-0.01713716
-0.05640758
-0.019293074
-0.054013822
0.0025373888
-0.13852453
-0.10118466
0.02659656
0.005182652
0.022669114
-0.045272343
-0.009120367
0.0056606764
-0.06211902
-0.0675418
-0.046318237
0.05502411
-0.002231047
0.058928527
0.07623425
0.070257455
0.061895937
-0.037774656
0.0399368
-0.08669945
0.0036166413
-0.030528577
-0.051882535
0.030830106
0.09840158
-0.034674607
0.0029969504
0.039077118
0.08638653
-0.03940748
-0.05782856
0.030312784
-0.074712336
-0.056031883
0.06389346
-0.0243099
0.010802617
0.01871094
0.13270356
-0.015232242
-0.012171812
0.007865471
-0.08725618
0.02977613
0.007703876
0.03334559
-0.078240566
0.05492599
-0.036122713
0.056436222
0.008778285
-0.1277002
0.05021799
-0.007130756
0.03132291
0.00024302583
0.0112895
0.0053226827
-0.0076059923
-0.012386228
0.03036081
-0.011980932
0.0367651
0.04204959
0.0068707755
0.029168317
-0.04860655
-0.038075622
0.06408598
-0.009225236
-0.04323361
0.03464275
0.054028228
-0.048256464
0.022729736
-0.04370988
0.052328736
0.16259728
-0.052706677
0.040072523
0.03126595
0.005937976
0.10500549
-0.044272244
0.018614614
0.050229672
0.08160231
-0.08600698
-0.033956952
-0.022510163
-0.09832609
-0.084095284
0.014889993
0.012519805
-0.052258052
-0.1377752
-0.01766243
-0.07835456
0.029400783
-0.0070956363
-0.07412338
-0.13841055
-0.023383845
-0.018359493
-0.006009215
-0.12467267
-0.0058806487
-0.025284303
-0.0088925855
-0.0685991
0.022898996
-0.0540236
-0.029690515
0.033128075
-0.03630101
-0.021753926
0.089434914
0.09284175
-0.020589843
-0.03267786
0.0009964386
0.013279593
-0.061297003
0.025927966
0.05793186
-0.0014124106
-0.0039709588
0.063991755
0.056151625
0.028851498
-0.11736035
-0.031665135
-0.0014087415
0.19962658
0.00037696492
0.030537207
0.071109734
0.02145635
-0.11846052
-0.009962499
0.022212802
0.057774413
0.03847939
-0.034707658
0.1010144
-0.0014166782
-0.004582785
0.10065769
0.02942531
0.06378353
0.050162338
0.0024835598
0.024404982
-0.093331635
0.0016676384
0.03151844
-0.024371319
-0.0457997
-0.025789844
-0.120372206
0.0063292757
-0.14089173
-0.018041242
-0.025540097
0.04351823
0.043787174
0.023595609
0.011664015
-0.058206405
-0.027250953
-0.023403566
-0.02635863
0.06292559
-0.023975998
-0.014356989
0.044429753
-0.08019659
-0.09366586
-0.11627812
-0.024902966
0.09265875
-0.04865186
0.007871715
0.070330374
-0.021742243
-0.00039673207
-0.04818604
0.0041553103
0.10148354
-0.074557796
0.009166666
0.021891821
0.07458233
-0.025233457
0.005512122
-0.0058756806
-0.046335343
-0.0073125274
0.019021057
-0.052193217
-0.046459522
0.031594824
0.019541796
0.051309146
0.018222906
0.0046557756
-0.023339696
0.050575744
-0.0842652
0.04758682
0.0202067
-0.10656909
0.16562004
-0.023090996
-0.09066159
-0.019176792
-0.056347344
-0.065893054
0.0506345
-0.05760254
0.11599057
-0.12489272
-0.04961633
0.04022092
0.0033074063
0.018569173
0.05818024
0.05479046
-0.055623714
-0.03228434
-0.013905384
-0.0058080405
-0.06197805
0.04147322
-0.12519658
-0.012585262
-0.077277236
-0.06591554
-0.021586038
0.095307805
0.02005239
0.08682084
-0.020387463
0.039940882
0.018745955
-0.016313706
-0.058006853
-0.039686013
-0.023209635
-0.040271264
-0.020674784
-0.023844382
0.03290395
-0.008929943
-0.02282341
-0.042359773
0.017075578
-0.06772085
0.039638218
0.05081731
0.016495056
-0.025516298
-0.002709709
0.011214311
0.066894904
-0.06303996
0.038254593
-0.096100025
0.036359273
-0.04193431
-0.053915735
0.0014437167
-0.08766195
-0.056713995
0.084742665
-0.16861545
0.025041625
-0.012835306
0.019517388
-0.04311733
0.063991465
-0.020438578
0.030267175
-0.076225154
-0.07673485
-0.031177707
-0.013770819
-0.004231867
0.064013116
-0.08991586
0.010123953
-0.024386559
0.067120895
-0.07304707
0.055302102
-0.046329804
-0.003897327
-0.015328106
-0.009920818
0.15949105
-0.025625026
0.06039781
0.025018761
-0.1347845
0.03654241
-0.112750806
0.003314177
0.039752327
0.06191212
0.076662384
-0.00076438306
0.051147822
-0.047480416
-0.037733853
0.027322585
0.04997908
0.020693356
-0.024995964
0.041482437
0.012591699
-0.015105134
-0.017892238
-0.039772376
0.05160355
0.1033202
-0.038766425
0.012685063
0.03747036
0.0526405
-0.050284058
-0.13320309
0.070544116
-0.13707161
0.05926201
0.011457989
-0.014972899
-0.07366821
-0.017146055
-0.06112913
0.021552447
0.06071772
0.011446057
0.0073926435
0.0046345117
-0.018182471
0.12307599
-0.03177975
-0.062667616
0.05744638
0.052876633
0.0155320205
-0.04694297
-0.14167316
-0.01682006
-0.0051977616
0.02415355
-0.161428
-0.0692328
-0.10553414
0.0034988667
-0.007367802
-0.017278893
-0.06302818
-0.06981752
-0.016810667
-0.07931364
-0.05153061
-0.072088875
-0.063128985
-0.15269402
-0.10528361
-0.05419315
-0.047065537
0.0060961363
-0.0022927877
-0.05742184
-0.057301678
-0.025558412
0.002557853
0.022754958
-0.028957022
-0.010533192
0.03975349
-0.108537
-0.08125632
0.038573757
-0.009836934
-0.07681714
0.055070065
0.06522732
0.016410654
0.048290573
-0.09906353
0.10264568
0.008494281
-0.034621038
0.06093333
-0.15477838
-0.0044550016
0.028462315
-0.052353162
-0.0020150568
0.045736574
-0.034549557
-0.02586707
0.008353625
0.04709511
0.0913498
0.026363997
0.03247079
0.114095025
-0.046610717
0.0059495554
-0.085077524
0.06995303
0.010612589
-0.008755459
-0.03365475
-0.045805536
-0.081940144
0.03779873
0.029738834
0.0118612815
0.07005953
-0.07211817
-0.039671708
-0.11473789
0.03951636
0.10558027
-0.024693195
-0.025137266
0.032469817
-0.076637626
-0.0009193681
0.09068651
0.006476255
0.14506339
0.04031943
-0.03764184
0.007418023
-0.053968377
-0.0027137736
0.0062756184
0.009948629
-0.043091126
-0.018681686
-0.08227932
-0.027266132
-0.0983742
0.05649391
-0.03445516
-0.0989308
-0.06274354
-0.000630907
-0.020524578
-0.027467666
0.07828829
-0.05647075
-0.040815845
0.024216758
-0.093155585
0.04904767
-0.09064213
-0.022221636
0.050037846
0.06649392
-0.046581853
0.040496897
-0.02155933
-0.0040237
-0.08120429
-0.021424793
0.013321942
-0.019073846
0.01338593
-0.07058819
-0.022504944
-0.030020438
0.0006145551
-0.066232756
0.029471267
-0.06695861
-0.015708955
-0.07510268
0.023100922
0.0017032656
-0.060836736
-0.027282419
0.04413309
0.09668308
-0.03594849
-0.06305532
-0.004601869
-0.071208656
0.022086257
-0.050813705
-0.1408913
