160
-0.07522642
-0.17797747
0.5863256
0.60896826
-0.23588917
-0.487164
-0.30529127
0.26436576
-0.5678445
0.19549003
-0.07604726
-0.671466
0.0010594137
1.2513504
-0.71004176
-0.15741105
0.24597788
0.0009499269
0.6828945
0.13045244
0.34989136
-0.3392308
0.019856805
-0.11407471
0.30325788
-0.31777775
0.74262905
-0.10219034
-0.007163898
0.22520608
0.24861374
-0.10654671
-0.78337175
-0.30914873
-0.482124
0.30808446
0.046726212
-0.96546435
-0.48556703
-1.268805
-0.84472305
-0.3673674
-0.8064019
-0.25018394
0.319032
-0.2960667
-0.32895058
-0.10363056
0.64109653
0.21241054
-0.45843983
0.28026417
-0.92512745
0.45991334
-0.49771687
0.17370676
-0.85341346
-0.07426891
-0.15345363
-0.15323423
0.8277889
-0.20565256
-0.02591995
-0.14209369
0.7619803
0.05162949
0.19974725
-0.13576514
-0.26664755
0.25593963
-0.25616357
0.17304718
0.43218598
0.15067594
-0.8925981
0.03219792
-0.0011337117
0.089229874
-1.054197
0.35679576
-0.46143693
-0.022126403
0.450058
-0.288296
-0.5867975
-0.041573852
-1.3277878
0.13979457
0.45642862
0.6704537
-0.10744722
0.011284532
0.30970216
0.39685214
-0.38550675
0.021208959
-0.3157072
0.31044692
-0.5286477
-0.5049089
0.06383786
0.67314136
0.2513289
0.27526897
0.9464445
0.14833128
0.19424583
0.1998389
-0.6916029
0.16081037
-0.03647588
0.11584404
-0.25401476
0.73674935
-0.05879841
0.8337259
0.19929636
-0.777323
0.04763279
-0.04098802
-0.17376481
-0.038783632
-0.59286493
-0.052010145
-0.24094152
-0.1873793
-0.32025957
0.063726574
0.3702168
-0.71493644
0.444501
-0.21592322
0.5242062
1.5932374
1.2559365
-0.63783085
0.267015
0.19716895
-0.23307669
0.1938689
0.6785749
-0.6367335
-0.5714583
0.5267094
-0.13433757
-0.53136784
0.08263446
-1.2866322
-0.029151972
-0.23228495
-0.31056643
-0.124693796
0.35351095
-0.10823673
0.07818913
0.056241203
1.0113964
0.6178491
-0.37445378
0.46758485
