384 1 3 3
13
10
5
22
19
7
11
33
36
-16
-24
23
-21
-41
54
-24
2
18
47
-6
-4
-17
-52
-35
-18
-16
-17
11
50
54
-30
-19
-6
-4
-47
-34
8
51
46
-10
17
-3
-37
-26
-3
-36
-27
-48
-21
21
-30
26
62
58
-44
-5
-29
-15
-2
2
-22
-32
-40
15
33
45
-25
18
41
-57
-34
-4
-18
12
-35
-3
26
-35
-5
48
-49
4
14
-44
36
32
-67
30
34
-59
-19
-24
-30
-9
-1
6
-37
-34
-43
-33
-17
-6
-34
-20
-30
-1
-15
16
27
40
49
3
19
-21
-32
-12
-55
-10
-9
-32
-13
-28
-34
3
-10
-7
-36
33
-34
-43
28
-32
-17
28
-34
-82
5
-47
-55
45
-4
67
7
-68
-4
-15
-11
60
38
37
34
-13
-30
-15
19
-62
4
37
-4
-14
0
-42
-40
-26
-39
46
86
39
-66
-15
-72
28
46
47
28
34
-1
-59
-52
-46
21
44
16
-16
39
11
-54
12
3
7
-2
79
-3
-58
72
21
-66
0
-10
-3
-27
-4
-34
-12
-22
-13
3
-45
-19
7
-42
55
-18
-30
-24
51
-23
-43
-24
1
35
53
-4
-32
-31
-21
-38
-14
-26
7
5
26
61
79
-9
-23
-23
-37
-33
1
3
-9
25
6
1
-4
-19
-35
-28
-35
-3
-9
-13
-49
-47
2
3
-6
-2
-24
-8
-16
-7
-18
25
-55
-54
21
-17
-7
6
-1
-26
14
43
-46
33
48
-21
8
-55
-18
67
25
-11
-1
-59
-32
8
-15
19
-25
-32
22
-59
50
56
-35
-32
5
-16
-32
-19
8
5
-20
23
23
43
19
51
-29
28
-83
-70
20
-28
-35
-4
-19
-51
20
-7
24
-21
-26
-16
-4
-10
-1
-9
-14
-44
36
19
37
29
-4
24
17
-4
34
-51
116
-45
12
38
3
-43
31
-37
-1
15
50
-7
18
-3
15
24
34
17
-34
15
3
-72
-3
-1
-59
6
37
-41
-44
6
-43
1
-24
-30
-4
-9
59
-74
-51
76
56
19
-29
-18
-35
23
2
15
106
19
-14
1
-8
77
-1
0
29
-92
77
-23
-27
-43
27
-24
-55
-78
59
-3
-20
34
-44
56
6
13
40
-1
-32
-7
8
66
-13
-37
-6
1
7
-21
5
-41
-27
-22
-30
-46
-20
-22
4
-16
-31
-35
-42
-39
-6
7
2
-17
-52
16
-35
51
-26
-25
37
-24
-37
28
-29
-12
63
41
23
-26
24
-34
-38
-16
-40
-8
0
-1
-6
83
27
-3
33
8
27
-70
65
-20
-39
73
-27
39
-8
14
45
38
-21
30
-4
-4
14
12
83
41
-29
4
-5
-14
-16
-25
-26
-94
0
-7
-18
54
5
-1
34
9
49
39
-11
60
21
-18
-21
14
-37
-60
-27
-27
5
11
-34
27
29
-25
9
-13
-2
28
25
12
11
22
36
-21
-17
-14
25
35
67
-24
9
14
-21
-49
-36
38
53
-25
37
-3
-38
-27
-27
-15
-60
-19
-22
2
50
33
-16
-9
-42
-16
-4
-26
-15
-12
-21
-27
-9
53
-27
-9
-5
-36
42
29
6
14
5
-38
-12
-31
37
-51
-42
-1
-24
-31
12
-1
2
45
36
30
-64
50
20
-73
25
42
-2
-27
27
47
27
37
-3
32
10
-18
-29
-65
-9
-15
-18
-18
-8
-19
-21
-21
-24
8
-32
-12
-3
-16
-21
-31
1
-25
44
27
30
14
48
-14
-8
-81
-86
17
-49
-37
38
-26
-21
45
53
-10
-1
65
-51
-2
23
28
17
21
-91
-29
-14
14
-12
0
62
-2
-4
44
7
17
23
2
44
52
-15
19
32
-22
12
-5
5
-33
-30
-76
33
-6
-11
-3
42
-43
-32
16
-34
-22
23
14
-1
18
14
47
31
6
-21
22
-29
44
31
-18
-16
16
-58
-55
-8
-33
19
-23
-22
-6
-44
69
56
45
-7
-48
29
-8
9
24
-39
-32
-20
-14
20
32
11
63
27
-47
-28
5
-36
-68
5
5
8
1
10
55
50
-21
27
-24
33
36
-3
-26
-68
-34
35
28
-28
58
-13
-34
63
42
20
34
56
49
-52
18
-15
-34
-26
-45
-6
-16
-25
-18
-14
-26
-27
-19
-15
5
-56
-93
39
2
-28
28
-2
74
-3
-7
-47
29
-23
-18
106
20
9
-28
-2
2
-41
-21
11
-16
-4
-48
67
10
-49
40
-8
-20
-38
49
-14
-11
13
7
9
48
30
22
36
-3
-16
-22
-34
35
36
16
5
37
40
38
-21
48
-68
52
-7
22
-48
-66
37
6
40
36
8
-17
-114
25
-46
-39
-33
30
-34
-35
10
-28
-7
30
4
-35
-9
-10
-42
0
-56
-30
-6
-26
-3
7
-57
-17
-16
-52
2
15
-14
-11
-33
-39
-17
-34
-15
-13
-24
10
27
49
-3
38
36
-4
21
-24
14
-34
0
-67
-33
-7
36
37
-16
-8
-22
-7
-51
-14
-28
-3
-40
5
-15
-13
-15
-17
-5
-56
-41
-13
3
30
59
-7
5
29
33
-10
-22
-8
23
46
15
57
-113
-28
12
-5
-61
-4
9
32
-55
-18
-24
-29
-29
-64
38
-14
-48
-18
-26
-48
109
21
3
16
-18
-14
19
22
35
10
52
21
-7
-51
-65
34
29
29
-30
-34
-28
35
-76
-2
28
-16
-29
72
25
-20
-13
-3
-3
11
21
6
34
61
14
-37
-10
-21
19
60
-35
2
0
-64
41
-31
-43
16
-24
-24
-11
-17
-41
-35
-13
-3
-29
-8
28
-22
-38
61
-44
-27
-37
56
18
10
-48
-52
-53
-47
2
8
-67
36
23
-48
17
47
-13
-33
-33
-3
-30
-1
24
33
74
-23
18
-14
-26
-8
-28
-23
-26
-12
31
50
20
1
-17
-4
-25
-19
-71
-36
-19
4
-48
-40
13
-52
2
-29
1
82
-8
-2
37
-12
-3
-23
-38
-10
-9
-11
-20
-30
-11
-29
-20
10
-35
3
23
-30
51
25
-42
18
-8
40
61
-22
-33
-30
-29
-10
-23
78
27
-19
-35
-41
-20
-42
57
37
18
-25
-11
-19
12
-76
-13
26
-42
-1
-23
-3
-48
-15
30
-24
-46
55
-42
-12
-6
-10
-5
-9
-9
-26
-25
-51
-7
20
17
-26
-8
-50
2
-33
-22
-20
39
-35
-24
60
-52
-21
24
-13
-2
24
-3
-19
-9
6
32
80
37
-29
63
52
8
23
-5
-60
11
-26
-20
-10
9
-40
34
17
1
75
10
-47
-34
2
-26
-59
57
33
44
56
63
-19
-12
53
-3
-26
31
-75
-54
-48
-44
-50
-8
5
-11
6
49
14
-26
-40
-18
12
82
15
-47
-33
33
63
-34
-44
28
2
-62
52
30
-26
21
49
15
-46
-21
-3
-1
-64
15
-42
-48
-59
16
1
12
10
19
20
-66
-14
-23
-8
9
21
-16
37
-17
-6
-13
-32
12
-34
-20
0
-41
-30
-15
-8
-5
27
30
46
-1
8
40
-35
-19
-53
29
54
14
-19
-39
-52
-10
-10
7
-15
-33
-12
-14
-30
-4
47
26
17
0
-29
-20
-29
-15
-30
-51
-19
36
-23
6
36
-8
-34
-11
-11
-57
-68
20
17
28
32
56
14
22
29
4
2
-39
-6
-2
-48
-35
73
-33
-2
49
-49
-8
47
10
3
22
70
6
-9
-11
22
-20
-62
-42
-34
-39
7
-27
-20
-21
-40
-6
0
-17
0
-10
-36
67
16
-27
-40
-69
13
-63
42
43
-78
21
21
0
3
-5
-4
28
4
44
42
11
0
22
10
20
36
-7
64
20
15
-5
-13
-28
-42
19
-40
-15
26
-32
52
13
34
-63
-38
-36
-50
65
-18
-35
10
-12
42
25
16
58
20
-12
-23
-11
-16
-33
-44
2
-4
-26
-17
-28
-13
10
8
84
-9
-13
14
4
-11
46
44
13
3
26
-3
34
-1
20
-12
6
-72
-35
-2
53
-51
-43
41
18
-8
-40
-44
2
12
-33
24
6
-45
11
2
-33
57
-42
-35
29
-60
-16
16
41
5
10
0
-11
49
8
30
41
45
34
-15
-17
-39
-55
-6
-36
-31
-16
-16
-32
-4
-28
-25
-4
-28
9
-4
-3
24
11
39
27
35
32
24
-27
-34
45
99
14
25
-24
-13
-11
-13
0
-44
-46
-28
7
5
61
21
-8
20
-10
-58
-23
-34
-9
-10
-57
-12
46
13
29
6
27
12
-79
29
2
-24
57
-36
-31
33
-40
-26
-42
-19
23
-46
-31
36
-1
9
38
-18
28
-17
-16
-45
-37
29
86
40
19
37
53
-33
40
17
-17
-5
-40
-6
10
28
21
18
10
46
28
26
-18
-43
-9
-39
-36
-15
4
-4
22
-39
-51
-35
13
23
13
23
35
24
-32
8
8
-55
23
40
-43
-22
15
-36
2
-69
8
27
-57
27
32
34
-10
-25
-20
2
-10
-18
86
64
-6
-40
-27
-32
-14
-38
15
-5
34
32
-41
21
0
-56
24
11
-45
14
19
-22
-35
-65
-33
6
-3
14
10
-26
47
10
-3
74
-14
2
22
-20
3
11
44
0
0
-18
-46
-83
71
-51
-36
-57
-37
-28
15
2
-16
12
24
-24
-14
-11
-8
-22
-22
-9
-36
-39
17
35
27
2
42
43
-12
3
-5
30
-48
10
85
-33
-44
45
0
-35
-13
-21
18
19
80
7
-28
7
-1
-12
-22
10
-17
-48
-12
-13
-30
-55
-39
7
-53
37
20
52
-67
-19
-60
56
-40
-7
31
4
54
-24
-39
17
-46
-16
33
6
88
-2
-14
-6
-76
-30
-41
-24
-22
-37
17
65
3
81
-10
-10
-51
-9
-33
-40
-2
-7
-10
-31
-43
39
-26
-38
5
-12
-43
7
-29
2
-21
-45
42
-13
-27
36
4
-34
-26
19
-16
4
-46
86
-40
-4
-55
-20
-23
-10
-13
20
-5
-27
-25
-8
-11
-13
0
-18
-29
-7
-43
-28
-36
-29
5
-4
-5
62
-44
-30
-37
-28
-27
31
-53
-1
-12
9
41
31
-27
-11
-3
-75
-11
25
-78
45
28
-56
20
13
-39
-6
38
-42
-4
30
65
28
-42
-81
-97
30
-4
110
-40
3
-10
-39
6
-46
-26
39
-5
-6
50
58
26
-26
-12
22
-47
-34
6
-4
-19
25
-20
-31
3
-35
-25
-8
-18
22
-30
-9
40
10
-12
70
16
31
68
12
17
20
8
-48
-45
-61
16
41
37
-12
-19
27
-7
-42
-32
22
26
-40
3
51
-38
-17
47
-58
-89
28
10
-7
-17
-40
-63
13
-8
35
-24
-60
5
-40
-10
25
-41
-7
-18
-16
-26
-8
-12
-20
-3
-18
-22
-9
0
17
-19
-20
-32
-17
-28
-32
-30
-10
-58
26
3
-36
2
38
-34
-32
-6
62
51
-93
67
9
-6
-9
-7
18
-30
31
47
3
37
3
-31
17
-8
-8
76
46
36
-17
-31
-52
-23
-36
-32
2
-16
-29
43
54
39
-4
-52
-34
1
2
8
15
-77
-44
-73
-29
-19
22
22
-41
39
29
-4
-57
2
-21
-43
72
51
-64
18
-10
1
-33
-52
3
14
-24
-7
103
-18
-19
-20
-31
3
-18
7
-19
-55
-40
-45
-5
-28
-41
10
-51
4
9
-14
-24
-10
-6
-26
-27
-21
13
-24
-19
-56
-7
-53
-25
0
-3
-3
-4
0
-23
-21
-21
-26
63
55
-28
8
-15
47
41
24
27
13
12
-6
-30
-20
57
-42
-42
-17
-58
18
-69
7
72
-30
18
-43
-74
57
50
-3
21
60
-40
33
-57
-63
40
-27
27
20
-55
-22
91
1
17
21
-18
-18
-20
19
16
-25
1
39
-86
-12
58
44
-61
-72
43
-82
-5
-29
10
-25
96
-13
49
58
35
6
13
-6
-42
-63
-32
-32
-17
-22
-18
52
-57
0
-5
-22
17
-10
-61
30
-19
-23
-21
-33
-1
21
-34
29
-53
0
16
-42
-22
-20
-27
-27
-22
-44
-23
-29
15
43
18
-19
-76
-21
-2
77
44
5
-7
-47
57
35
47
-5
-47
-26
-8
-44
-23
24
-17
-35
27
-14
-45
28
-48
-12
-45
-29
-4
-42
8
68
-25
-32
24
-8
-12
-62
61
33
-42
49
1
-48
28
-12
-20
32
42
14
30
-13
7
7
31
-1
19
6
25
20
-1
23
-17
55
2
-40
33
-49
-20
4
-11
-6
10
54
-30
-18
15
-43
-25
-5
24
-21
-12
42
39
9
-2
16
4
-53
-15
38
-39
22
43
-39
2
18
1
-54
-71
42
-10
89
1
35
-5
-15
-21
-25
7
53
39
-19
-19
-19
3
16
7
-21
-42
-23
-5
-26
-27
-19
-72
-44
13
2
-20
36
64
56
-26
-42
-37
-10
-8
26
32
90
47
29
36
-3
44
17
13
-1
-11
39
-29
33
-11
1
-19
2
-58
-37
-34
-62
-9
-50
29
25
32
-39
-43
-50
-64
13
-27
-36
46
-24
23
28
31
-4
13
37
34
19
12
14
8
10
-10
22
10
-42
-52
-40
-6
-17
-20
28
66
-3
-21
-30
1
-29
-11
-27
-32
-13
-18
29
-10
-28
-55
7
100
15
-3
-2
84
-54
-25
103
-14
-55
6
11
8
-28
4
4
-44
-32
-56
-23
-39
17
-12
-10
58
-9
-12
69
59
20
0
-12
-14
-34
2
-56
-13
-1
36
-6
-39
17
7
-70
21
-53
-20
-7
-35
-28
17
-24
-21
-8
-38
-13
-38
-31
-2
27
-20
-28
-43
-23
-20
-18
-12
-28
-8
-10
-21
-14
-21
-11
53
-9
-51
-62
-13
39
21
7
53
-27
-69
31
-50
48
0
-42
14
-27
27
-14
-3
-67
19
-61
1
11
-22
-37
-5
-29
-40
-16
10
26
25
13
-17
-45
38
37
-1
-56
-29
93
-17
-47
-32
26
-48
43
7
9
-26
-3
45
-27
9
31
-58
-3
23
-46
16
11
28
4
48
26
-4
13
20
49
84
18
-43
30
-28
-29
-60
12
-18
15
30
-48
9
51
-31
5
4
24
4
-6
-3
14
-19
83
13
-7
-39
-48
1
0
-58
5
5
17
3
-8
-40
-3
37
49
37
-15
-10
-25
13
39
26
6
-25
-2
30
19
51
-3
-8
-44
47
-42
-28
20
-54
3
-24
49
-59
-6
2
-20
-9
-21
-32
-5
6
-24
41
52
-19
-14
-36
-58
-19
5
-12
-14
-20
-21
-28
-29
-42
-32
61
51
-8
-26
50
-40
8
20
-47
-55
-39
-24
-28
10
50
-26
46
35
28
15
-9
6
-15
8
13
48
-37
2
-32
17
-78
-33
14
21
-51
-50
-10
9
-50
-5
5
0
-17
16
-35
-63
7
-5
49
32
7
70
-33
71
100
44
-10
-7
-24
-20
5
-2
10
17
11
24
44
23
-6
12
-5
-3
52
0
27
36
23
-51
-48
-48
28
21
-30
39
10
-32
1
-32
-47
-37
-34
-20
-24
-14
-34
12
-14
-3
13
12
34
5
-52
-10
59
10
25
35
25
-42
-79
-34
-8
5
4
-12
13
7
-50
10
5
-45
-32
-6
-13
2
-82
75
-12
-71
76
7
14
25
-75
44
51
42
-13
-71
-64
26
-8
-37
-3
-68
40
-80
14
8
16
-5
-44
0
25
43
55
-19
-42
-43
-25
-19
10
1
-29
4
-21
-17
-17
-46
-3
59
-24
46
29
-52
28
17
-44
25
25
4
13
17
-19
31
41
7
12
2
17
-26
-40
-46
-24
-42
-26
40
-3
-13
55
-4
19
26
-3
-4
-6
-38
16
-55
21
7
-64
-5
27
-30
-28
67
-9
11
48
-37
-22
19
13
-9
-3
18
-28
-18
-10
-49
-39
-58
-30
-60
-15
3
-35
20
62
-2
5
11
32
43
11
44
-43
-37
-29
57
7
-44
41
2
-15
54
-37
-41
-43
-23
3
-38
-5
6
-35
20
30
-28
-5
0
-50
127
-14
14
-13
-72
2
-49
-54
-27
39
72
-1
-44
-56
-1
14
-11
10
38
2
78
19
-14
-8
-10
-10
-17
-17
-17
-24
-30
-20
-39
63
-66
8
26
48
7
-25
-62
41
-12
-13
10
-29
18
62
-13
30
-40
-39
-37
-5
-13
54
11
45
34
35
-12
-52
19
44
-36
-9
28
-3
-14
14
2
-2
1
-20
71
95
7
-20
-14
-34
-5
28
-9
18
46
58
28
21
23
30
2
12
-33
-7
-71
-79
-27
34
50
26
36
2
11
17
-49
-21
-13
-26
-16
-8
8
3
-4
-24
-27
-7
-15
-35
-13
-9
-9
-21
11
26
74
-23
-35
-10
-27
-37
5
21
-2
-27
-12
-30
-19
-51
-10
-6
-15
-32
-33
23
-43
-41
21
-4
-5
44
15
23
-2
-77
-68
50
-30
22
-68
-22
35
-23
-30
-35
-27
18
18
17
14
12
47
-27
-36
34
-55
-52
-63
-7
-42
-18
19
-35
-3
43
6
50
-8
-54
22
-8
-32
1
-33
20
-22
-13
18
-27
-2
-27
58
55
-20
6
-20
29
-31
-48
49
-28
-41
33
-6
17
10
-8
-41
-27
-7
-49
-36
28
36
66
-5
-16
-43
-14
-30
-32
16
69
9
-70
17
-22
-27
-1
-41
-50
28
77
-39
5
45
-21
-43
-12
-54
-48
-75
43
-9
43
-24
7
-11
31
-2
-8
20
18
10
31
18
9
-28
-52
26
-44
1
7
-5
3
-7
30
11
18
15
29
56
-8
-12
23
21
49
-21
7
7
52
31
-102
-20
-21
56
-27
4
42
51
-62
31
-1
26
45
66
23
-26
22
-19
-44
-42
-42
-35
-26
32
-1
50
-33
56
-13
-1
-4
23
34
24
36
-45
1
49
24
60
-11
-21
-12
-30
43
34
18
-27
6
-13
-16
-15
-19
-25
-2
-30
-15
-8
-11
-24
-11
-25
-24
-20
-7
-44
-39
6
1
-22
25
-3
-34
9
11
10
9
5
56
7
-36
42
-14
15
30
-13
29
30
-2
3
42
-10
1
0
26
-4
24
31
-45
35
35
-1
-58
-41
36
93
24
-33
-76
5
-10
-12
-4
1
-54
-50
7
-12
3
18
34
10
9
40
13
12
30
-7
-15
-26
-39
-25
-1
-12
40
57
-12
-4
-52
60
-8
-83
75
-15
-9
27
24
-40
-3
-14
-34
12
-27
-20
-6
-13
-15
3
-17
-26
-11
13
-47
-44
-9
34
9
-32
46
72
-3
9
-13
-6
48
-7
7
51
-4
-29
16
-34
13
-40
-46
32
-44
-44
40
-16
-17
14
4
-5
-22
-13
30
57
21
24
-14
-4
25
-53
-20
-34
-1
-32
-40
-33
33
-4
-77
41
-56
-18
25
15
