384
-0.0025825668
0.044342384
-0.025552642
-0.027930766
-0.057846803
0.05077146
0.0007467938
-0.07383394
-0.06060446
0.002116743
-0.04865602
-0.07317656
-0.067094505
-0.02236972
0.060072698
0.035859063
0.03409131
-0.11093055
0.063627236
0.018291099
-0.008018369
0.03792305
0.0020280872
-0.0069823074
0.04884305
0.07320098
-0.042987622
-0.108031295
0.11776764
-0.08242246
0.03619746
0.001509578
0.040645644
0.014744705
-0.060141005
0.08816782
0.08425919
0.038581446
0.05209251
0.067914546
0.023796234
-0.011867046
-0.019418884
-0.054986227
-0.022751443
-0.06484737
0.0037680115
-0.121818736
-0.11411083
-0.023030475
0.003473626
-0.014649666
0.009989481
-0.09460645
0.027440831
0.03172323
0.06508988
-0.018587284
-0.02314517
0.13481158
0.100973494
-0.030561574
-0.062396802
-0.033534937
-0.10609529
0.058971934
-0.0025033762
0.014892355
0.0021435348
0.060470328
0.082844116
0.042622946
0.010332327
0.03321626
0.0006594588
-0.012275811
0.10517989
0.046792284
-0.009977827
-0.021815287
0.035642732
-0.035083596
0.034594305
0.0019324711
0.007903421
-0.07735631
0.0073848087
0.002156172
0.116272025
-0.094439805
-0.04713173
0.016876094
-0.009912266
-0.0115828095
0.057064403
0.028816361
-0.010045303
0.043686904
0.048880145
-0.036454532
-0.09577699
-0.05686615
-0.011770116
0.034509785
0.0036640977
-0.05803462
0.023749428
-0.022149336
0.0060757846
0.0389051
-0.058200654
0.035845418
-0.0858385
0.048505682
-0.016626414
-0.12247449
0.051341806
0.005762981
-0.0630714
-0.063218646
-0.007058382
-0.027885575
0.0033569506
0.018180389
-0.04456822
-0.012955618
-0.10257867
-0.030025192
-0.045458093
0.09415051
-0.09818741
-0.00876644
-0.05731909
-0.05318029
-0.034494627
-0.042919002
-0.009537625
-0.027865373
-0.038312465
-0.15111263
0.045543402
0.029927712
0.029167835
-0.111878484
0.005155074
0.06956294
0.0077943504
0.052279994
-0.06346733
0.027320057
0.0027415368
-0.061897166
-0.06729808
-0.050168492
-0.031923786
-0.027863076
-0.052568752
-0.02910076
-0.0013144538
-0.13170354
0.014273083
-0.03250473
-0.09884762
-0.043572072
-0.057645485
-0.074296154
-0.1184312
0.014670873
-0.028504238
-0.020088488
-0.012781525
-0.004918801
-0.0008740099
-0.06834753
0.016175158
-0.09403112
0.1021276
-0.063429914
0.059414364
0.078921154
0.022820763
0.037159316
-0.042679567
-0.06502452
0.118248016
0.05446738
-0.039981954
0.068257645
0.010436143
-0.043043613
0.06953703
0.030645153
-0.006328251
-0.104609944
-0.104644306
-0.038878277
0.13847336
0.04571189
-0.011628855
0.01903926
0.014907098
-0.024804987
0.017627118
0.072412446
-0.024884395
0.05506514
0.00045515038
0.037695035
-0.10629849
0.084814176
-0.0109367
0.054946367
-0.003160052
0.059018128
-0.05959521
-0.072045736
0.15188639
-0.04481874
-0.018757105
-0.003431225
-0.051347047
-0.06839903
0.041269656
-0.006440198
-0.0050489753
0.08734486
0.04188367
0.01757683
-0.01868257
0.044465046
-0.0031424828
0.0106840525
0.022708282
-0.07596275
0.046417452
0.0724359
-0.083639815
-0.0006537512
-0.022477357
-0.0358976
-0.014415113
-0.09009895
-0.031087503
0.08353445
0.07322184
0.013956894
-0.052145973
0.0015799887
-0.015367565
-0.030308902
-0.014074235
-0.034421295
-0.024953626
-0.024767455
-0.053875547
-0.0017918916
0.018053057
-0.092492014
-0.06969555
-0.045310553
-0.053568393
0.0032585426
0.07093638
-0.06524438
0.01613081
0.017188735
-0.105171375
0.07312033
0.06058436
-0.059886936
-0.058423072
0.023373842
0.024308028
-0.009188764
0.029147137
0.02680829
-0.089821614
-0.019731892
-0.04120531
0.067103304
-0.03755429
0.07753528
0.00344101
0.053455904
-0.105770126
0.012680784
-0.07277677
-0.021652931
0.016720321
-0.13423562
-0.021390459
-0.08240823
-0.008801112
-0.030794498
-0.09045082
-0.058718666
0.03212288
-0.061479155
0.0012756917
-0.0077932402
0.03674125
0.060583707
-0.044075444
-0.064682044
-0.06330649
-0.008303309
-0.01954103
0.05561918
-0.06551209
-0.02959605
-0.059358098
0.06806633
-0.032783
-0.013459634
0.07808266
-0.048643004
0.020770289
0.008202427
0.035058133
0.038469177
0.003505929
-0.00392383
-0.09018034
0.0616361
-0.007154285
-0.0023484905
-0.001961478
-0.02457217
0.05251201
-0.07407147
0.007900386
-0.05810448
0.0029564372
-0.041856024
0.063801065
-0.031058071
-0.051882543
-0.0040099765
-0.010925343
-0.017311914
0.06837466
-0.07008556
0.016605437
-0.024181623
0.0016702176
0.014507115
-0.0016492456
-0.08007691
0.08399609
-0.01845
-0.017496852
-0.029668618
-0.04290327
0.018468857
-0.028033447
0.06061788
0.009728266
0.008358099
-0.019925045
-0.04055225
0.049351804
-0.012999501
-0.036394954
0.029843125
0.02640216
0.012252199
0.06915668
0.09726837
0.03436496
0.060555417
-0.050471082
-0.0071220896
0.091410294
-0.049671203
-0.0023780968
-0.030462813
-0.050191168
0.056955557
-0.07447479
0.07066034
0.03716953
0.042241834
0.15304545
0.011153576
