96
0.9198769
-0.45046127
-0.65304124
-0.5843538
-0.34494832
-0.071236454
0.83184844
-0.055589516
0.7074741
0.4087327
0.74057686
0.8556442
-0.5098686
0.5533246
-0.19869965
-0.36191636
-0.08533312
0.034723572
0.09066802
-0.17821044
-0.035800688
-0.62153053
0.7742938
-0.68128157
-0.5403625
0.032146573
0.9187208
0.44472572
0.43478128
0.10254416
-0.37222633
-0.08082112
-0.31906283
0.6860241
0.841509
0.6123059
0.68512666
-0.7415772
-0.02684237
0.76944554
-0.7770325
-0.7668254
-0.86053294
-0.06193569
0.70207274
-0.19620977
0.6137368
0.70028496
-0.19930589
0.54274327
-0.22041005
0.44491985
-0.13309678
-0.09115986
-0.0045066923
0.892469
0.29063582
-0.8914927
-0.13822308
-0.44345796
0.079763636
-0.64726007
-0.3010244
0.75898564
-0.18601075
0.92374605
0.5992009
0.87133855
-0.5465614
0.45351547
-0.13582006
-0.1337907
-0.45470598
0.54520196
-0.55391073
-0.4974813
-0.041172665
0.10304875
0.8140831
0.89550394
0.2366515
-0.49012664
0.011808693
0.5751506
-0.5779574
0.27945042
0.03914085
0.79608387
-0.96562207
0.07301582
0.45125228
-0.1793834
0.5888418
0.1562923
-0.6928102
-0.09334064
