144
0.027110599
-0.017485237
-0.07802591
0.06510201
-0.029746247
-0.04437559
0.063361175
-0.085850224
0.053592533
-0.0033779712
-0.028142402
0.00020022225
0.054679632
0.041195855
0.11183993
0.07618489
0.042923845
0.003739925
0.025451928
0.11301275
0.114458054
0.0072526494
0.15373987
-0.0070418883
-0.01455842
-0.074009076
-0.015005609
0.14124623
0.06588049
-0.0006745877
0.10015746
0.044340372
0.06433239
0.014463254
0.06603125
-0.056007475
-0.06114689
0.035056055
0.030581776
0.0028866548
-0.015386216
0.027845003
0.033552267
0.0066314605
0.011666649
0.035581376
0.048020814
-0.019549176
-0.11515663
0.1085365
0.11952335
0.0037511336
0.16073227
0.09418906
0.085705444
-0.09402843
-0.060907472
0.081079446
-0.005996436
0.013515502
0.023321088
-0.043693397
0.037617598
-0.0020926865
0.03911619
0.07347712
0.024194693
-0.0037741982
0.04184331
-0.07259334
0.00036146492
0.06423183
0.12566683
0.034024473
0.058871202
0.12075193
-0.0017465688
0.024912363
0.03765754
0.033236112
0.033230856
-0.03200471
0.11263293
0.007889654
-0.03679287
-0.11469704
0.0064604226
0.06551799
0.05760012
0.034036733
0.016112253
-0.040847126
0.01770794
0.083308324
-0.051078502
0.058442753
0.07872396
0.06287217
-0.018478572
0.10552457
0.0655416
0.0049762116
-0.0030038469
0.027673256
-0.01168647
0.06605249
-0.07576223
0.038613066
-0.00253403
0.044743896
0.119684696
0.021728372
-0.033603605
-0.00439794
0.08045471
0.02347329
-0.107472904
-0.04898111
0.019705612
-0.025532372
-0.012022379
0.09628188
-0.018054394
-0.0067401994
-0.00691358
-0.059705757
-0.08012543
0.03688442
0.009247069
0.01978992
0.09089422
0.037003636
-0.018249251
-0.02385458
-0.09602225
0.01619267
0.12607293
-0.057188794
0.025280943
0.06284955
-0.029488508
0.011865925
0.07237318
0.07458983
